-0.0009964782511815429
-0.0026346512604504824
-0.0022936328314244747
-0.0012712773168459535
-0.0016338926507160068
-0.0013787434436380863
-0.0010065054520964622
-0.0007050808053463697
-0.0009366301819682121
-0.0012659700587391853
-0.0015711922897025943
-0.0004703441809397191
0.00017421015945728868
-0.0014516609953716397
-0.0017151451902464032
-0.0015346127329394221
-0.0010938647901639342
-0.0011086140293627977
-0.0038934878539294004
-0.0011886056745424867
0.001636574394069612
-0.0012376117520034313
-0.0012792360503226519
-0.002768090693280101
-0.001791968708857894
-0.0002573802776169032
4.8774094466352835e-05
0.000550619384739548
-0.0002424371923552826
-0.001786386943422258
-0.0006006003823131323
-0.0008075592340901494
-0.0005014872876927257
-0.002083780709654093
-0.0009085673955269158
0.0002899032551795244
-0.0013354419497773051
0.00032467831624671817
-0.0020219385623931885
-8.246770448749885e-05
9.656658949097618e-05
0.00018254175665788352
4.654721578845056e-06
0.00038351936382241547
-0.0016325694741681218
0.00028955223388038576
0.0013984257820993662
0.0010109157301485538
-0.0014367318945005536
3.432162702665664e-05
0.0006168688414618373
-0.002149430802091956
-0.0033484871964901686
-0.00043677655048668385
-0.0006238182540982962
-0.004075355362147093
-0.0003338656679261476
-0.0019077509641647339
0.00019505601085256785
-0.000904990651179105
-0.0010333338286727667
-0.0005484119174070656
-0.0003295653441455215
-0.00044964419794268906
-0.0007947200210765004
-0.0011630025692284107
-0.0008704369538463652
-0.0005454854108393192
-0.0007881534402258694
-0.00029038853244856
-0.002291460521519184
0.0018033600645139813
-0.0009536623838357627
-0.0024858308024704456
-0.0003982343478128314
0.00040197448106482625
6.360587576637045e-05
-0.0012689850991591811
-0.0005803492967970669
-0.002183257369324565
0.0002580330183263868
-0.0015102867037057877
-0.001199608319438994
0.002283282345160842
0.00043720792746171355
-0.0014238873263821006
0.0005802849773317575
-0.001962784444913268
-0.001409247168339789
-0.00042398611549288034
0.0007413446437567472
-0.002683859085664153
-0.00019335838442202657
-0.0035795012954622507
-0.0006328957970254123
-0.0009113066480495036
-0.00133869843557477
0.0014852413441985846
-0.00012803518620785326
-0.0005367802223190665
-0.0021687152329832315
0.00036345672560855746
-0.0010361935710534453
0.002280529122799635
-0.0006638063932769
-0.0013705998426303267
-0.0008646841160953045
-0.001344988588243723
0.0010506999678909779
-0.002637914614751935
-0.0014093642821535468
0.000693051959387958
-0.002399863675236702
-0.0005146217881701887
-0.003500967985019088
-0.002094978466629982
0.00034253409830853343
-0.0003086604119744152
-8.878039079718292e-05
-0.00019081431673839688
-0.0002032828633673489
-0.0032122493721544743
-0.00013252673670649529
-0.0008283576462417841
-0.0010957311606034636
-0.002390057547017932
-0.0013652112102136016
-0.001416706945747137
-0.003079979447647929
-0.0006449742941185832
-4.100416390429018e-06
-0.0007507375557906926
-0.00030379253439605236
-0.0012867666082456708
-0.0014208020875230432
-0.003710492979735136
0.0008740093326196074
4.04904130846262e-05
0.0013837291626259685
0.0003098152519669384
0.00020889063307549804
-0.0021359361708164215
-0.0017919441452249885
-0.0009345931466668844
-0.0017372629372403026
0.00012278665963094682
0.0004437206662259996
-0.00117649941239506
-0.0006835748208686709
-0.0008431922178715467
-0.00022247050947044045
-1.488525049353484e-05
-0.0006803978467360139
-0.002768449718132615
0.0009716342319734395
-0.0002798254427034408
0.0010241172276437283
0.0012904430041089654
-0.00044822468771599233
-0.0021841428242623806
0.0013753436505794525
-0.0008226323989219964
0.0008101636776700616
-0.0011508283205330372
-0.0013629633467644453
-0.0001348367368336767
0.0001373017585137859
-0.0014140375424176455
-0.0004188185266684741
-0.0005610982771031559
-0.001450720359571278
-0.002834626007825136
-0.0012260641669854522
-0.002588124480098486
-0.0023055211640894413
-0.0018616029992699623
-0.002203608863055706
-0.0021391415502876043
-0.0003405725001357496
0.0005504294531419873
0.0016516853356733918
-0.001167475595138967
0.00038964790292084217
-0.0003457716084085405
-0.0020973964128643274
-0.0009969794191420078
-0.00048368622083216906
-0.0021512156818062067
0.0002630151284392923
-0.0030183016788214445
-0.000759559334255755
-0.003487561596557498
0.0005958002875559032
-0.0005363305099308491
0.0009347015875391662
-0.0017497834051027894
-0.0016617358196526766
-0.0009745301795192063
-0.0007995619671419263
0.00012225841055624187
-0.0023349435068666935
-0.0023275953717529774
-0.00042179113370366395
0.00015816222003195435
0.00037689576856791973
0.0015741500537842512
-0.0008249535458162427
-0.002292830729857087
-0.0008754291920922697
-0.0011785040842369199
0.00015894797979854047
-0.0022407176438719034
-0.0017600521678104997
0.0016999052604660392
0.000602523039560765
-0.00343126617372036
-0.0009306845022365451
-0.0021779316011816263
-0.0020284245256334543
0.0011618031421676278
-0.00042276375461369753
-0.0018340894021093845
-0.0010938895866274834
-1.5718141810339148e-07
-0.00300143682397902
-0.0018797607626765966
-0.0018290863372385502
-0.0004116386116947979
0.00017496943473815918
-0.0027859651017934084
-0.0004834535939153284
0.0004117458302062005
-0.0013386316131800413
-0.0005721838097088039
-0.0024169262032955885
-0.0021210762206465006
0.0007488532573916018
0.00021211164130363613
0.0018505207262933254
-0.0010978169739246368
-0.003280078526586294
-0.0015029243659228086
-0.0015495069092139602
-0.0007095977198332548
-0.002907391171902418
-0.001944586168974638
-0.001010241685435176
0.0009588153916411102
-0.00029343736241571605
-0.0005984259187243879
-0.000990539905615151
-0.001893423730507493
-0.002113190945237875
-0.002094829687848687
-0.001949712517671287
0.0015402097487822175
