-0.01349220797419548
0.019308604300022125
0.0113808149471879
-0.025210507214069366
0.0073874038644135
-0.030758004635572433
-0.021319981664419174
-0.044358186423778534
-0.0430065393447876
-0.028748273849487305
-0.04181068390607834
-0.015024456195533276
-0.04201831296086311
-0.049630288034677505
-0.007695378270000219
0.018016189336776733
-0.035070210695266724
0.016471663489937782
0.030096152797341347
0.01258015539497137
0.03494877368211746
-0.033557817339897156
-0.016281908378005028
0.031679145991802216
0.015092785470187664
0.01805809698998928
0.006569878663867712
0.0370621532201767
0.029769981279969215
-0.01669670268893242
0.011208096519112587
0.03179650008678436
-0.005844940897077322
0.018779635429382324
0.04816557466983795
-0.03285148739814758
-0.047046273946762085
-0.030741358175873756
-0.031304579228162766
-0.03700421750545502
0.006106402259320021
0.015964101999998093
-0.03551855310797691
-0.04511450603604317
-0.037114083766937256
0.028412001207470894
-0.015032760798931122
0.014038743451237679
0.011557810939848423
0.012473487295210361
0.0021555456332862377
0.0061088986694812775
-0.014149726368486881
-0.02755623497068882
-0.007007713429629803
0.011123242788016796
0.008413027971982956
0.030418934300541878
0.011440294794738293
0.018212109804153442
0.042745351791381836
0.035311561077833176
-0.028971141204237938
0.012182911857962608
0.010943892411887646
-0.01869022659957409
-0.01618753746151924
0.04491749405860901
0.019875843077898026
-0.008047686889767647
0.023563744500279427
0.0031744062434881926
0.004921372514218092
0.04886547848582268
0.04272162914276123
0.034276269376277924
-0.006397351156920195
-0.041894249618053436
0.042086631059646606
0.007156981620937586
0.015295292250812054
0.0412445031106472
0.029456356540322304
-0.04376797378063202
0.018622487783432007
0.0032676479313522577
-0.03504153713583946
-0.027968838810920715
-0.017069390043616295
0.038893237709999084
-0.04040287435054779
-0.04783996567130089
0.02293361909687519
0.0003491191891953349
0.03778483718633652
-0.02620791830122471
0.026903288438916206
-0.042987264692783356
0.11542637646198273
0.0628640428185463
0.051145266741514206
0.040658410638570786
0.002958189230412245
-0.04759521409869194
0.006588773801922798
0.06243892386555672
0.059663109481334686
-0.0012295246124267578
0.027551092207431793
0.00367907015606761
-0.07993178814649582
-0.08073406666517258
0.08072078227996826
0.0472591407597065
-0.012959937565028667
0.005000506527721882
-0.039576757699251175
-0.08626846969127655
-0.07747966796159744
0.06896872073411942
0.043994732201099396
0.050561416894197464
-0.0032874918542802334
-0.0743132159113884
-0.10396844893693924
-0.05049515143036842
0.06267066299915314
0.04541632905602455
0.05364227294921875
-0.011653357185423374
-0.056220486760139465
-0.11435677111148834
-0.08077435940504074
0.0892924815416336
0.07901589572429657
0.00934480782598257
-0.01049869880080223
-0.04344990849494934
-0.10425355285406113
-0.04345009848475456
0.09329818934202194
0.08995446562767029
0.026127485558390617
0.012859349139034748
-0.08083252608776093
-0.09895937889814377
-0.09539412707090378
0.013745598495006561
0.038266975432634354
-0.002396238036453724
-0.04793304204940796
-0.004791076295077801
-0.04464411363005638
-0.023304816335439682
0.060759883373975754
-0.022107653319835663
-0.00403800280764699
-0.03513608127832413
-0.04870807006955147
-0.0498499870300293
-0.023900581523776054
0.05334959551692009
-0.007069514133036137
-0.00953591987490654
-0.02948601357638836
-0.0012484511826187372
-0.04741393029689789
-0.046832650899887085
0.06333056837320328
0.056322790682315826
0.03940010815858841
-0.0386836864054203
-0.013956567272543907
-0.05615300312638283
-0.03193546459078789
0.06357681006193161
-0.019532548263669014
0.03576307371258736
0.025660691782832146
0.01333795115351677
-0.006605629343539476
-0.047444283962249756
-0.002538912231102586
0.011589031666517258
-0.03579191491007805
-0.011496634222567081
0.00496246013790369
-0.051812544465065
-0.03654460608959198
0.010669094510376453
0.05400901287794113
-0.03180498629808426
0.04094010218977928
0.003229901660233736
-0.038781002163887024
0.003540216013789177
-0.05195160210132599
-0.014924608170986176
0.0074914894066751
-0.05619734898209572
0.0054763313382864
-0.010838218964636326
-0.06009075790643692
-0.013936290517449379
-0.022771885618567467
-0.05879952758550644
-0.02006589248776436
-0.05284641310572624
-0.004028316121548414
0.005958215799182653
-0.017482951283454895
0.013706241734325886
-0.057555098086595535
-0.03849739953875542
0.0018294992623850703
-0.05855180323123932
-0.028155617415905
-0.017716864123940468
-0.037474632263183594
0.007152156438678503
0.01624937541782856
0.024264125153422356
0.0034938373137265444
-0.03455810621380806
0.012569845654070377
-0.052318669855594635
-0.05353257805109024
-0.034920744597911835
-0.02645859867334366
-0.005305061116814613
-0.008484169840812683
-0.024444706737995148
0.028301147744059563
-0.03422383964061737
0.013971277512609959
0.02685810811817646
-0.03329791501164436
0.025306230410933495
0.020367048680782318
-0.05147170275449753
0.007605592720210552
0.015566885471343994
-0.02445083297789097
0.0023926375433802605
0.026646381244063377
0.0047975266352295876
0.03632169961929321
-0.02289041317999363
0.012357360683381557
-0.0022905219811946154
0.01935642771422863
0.03566688299179077
-0.003944494295865297
0.0029882898088544607
-0.0353168286383152
0.01611357368528843
0.03762327507138252
-0.04113719239830971
-0.044245198369026184
-0.018946129828691483
0.04123016446828842
-0.032355841249227524
0.004759357776492834
0.033554598689079285
0.0036779262591153383
-0.03736456483602524
0.0009159112232737243
0.0010962072992697358
-0.0006273052422329783
0.049983661621809006
0.04414466768503189
0.0012489352375268936
0.018843989819288254
-0.02497352473437786
-0.03494304046034813
0.016943812370300293
-0.02705979533493519
0.043000478297472
0.027343042194843292
0.037313420325517654
0.0010460695484653115
0.03454400971531868
-0.012193207629024982
0.034470222890377045
0.0037202443927526474
0.04939984157681465
0.012576728127896786
0.023096555843949318
-0.00920858234167099
-0.012952370569109917
0.006688220892101526
0.03867226094007492
-0.0280611589550972
0.03304172307252884
-0.06566808372735977
-0.04397423565387726
-0.00874492060393095
0.006799579598009586
-0.014844735153019428
0.02099030092358589
0.04746208339929581
-0.011654159054160118
0.008479912765324116
-0.050915397703647614
-0.025474069640040398
0.013734683394432068
0.035917460918426514
0.012415727600455284
-0.06212304159998894
-0.0011010055895894766
-0.0647362619638443
-0.02846274897456169
-0.021314628422260284
0.019986694678664207
0.0455496646463871
-0.057562556117773056
-0.039436955004930496
-0.05275723710656166
0.005814754404127598
-0.03242553025484085
0.016663450747728348
0.019014619290828705
-0.01411433331668377
-0.014391165226697922
-0.03280898556113243
0.03275810182094574
0.0006431838846765459
0.02947385236620903
0.022502724081277847
0.005950905382633209
0.0064607542008161545
0.02583933249115944
-0.017925076186656952
-0.03189556300640106
-0.011816112324595451
-0.001736340462230146
-0.030688300728797913
-0.037432584911584854
0.0016346125630661845
-0.010706978850066662
0.04412848502397537
0.03949988633394241
-0.019435670226812363
0.027326172217726707
0.02001817524433136
-0.006075173616409302
-0.0005434437189251184
-0.005554485134780407
-0.037784140557050705
0.004360725171864033
0.04027488827705383
-0.02051418460905552
0.01644817925989628
0.019797308370471
-0.01374484971165657
0.005218318197876215
-0.04231670871376991
0.03873870521783829
0.01831957697868347
-0.012685294263064861
-0.026418238878250122
0.02122500352561474
-0.005946244113147259
-0.024792710319161415
-0.031847961246967316
0.035105012357234955
-0.022962024435400963
0.025878645479679108
0.02074684575200081
-0.005770127754658461
-0.04477951303124428
0.042829737067222595
0.056330062448978424
-0.022959280759096146
0.009010432288050652
0.046440597623586655
0.03524073585867882
0.022190840914845467
0.0005479739047586918
-0.02980908565223217
0.02994283102452755
0.005205213092267513
0.03377486392855644
0.008846367709338665
-0.0016506778774783015
0.01627313159406185
-0.007173045072704554
0.018968822434544563
0.03778797760605812
0.00589763093739748
-0.02978447824716568
0.008124946616590023
-0.0072330934926867485
0.03537530452013016
0.017762484028935432
0.04473413899540901
-0.011398902162909508
-0.02385256625711918
0.04350155219435692
-0.02671876735985279
0.023012714460492134
0.011352745816111565
-0.0001251450157724321
0.03137608617544174
0.03248997777700424
0.021657029166817665
-0.05041388049721718
-0.03716253861784935
-0.03699919581413269
-0.03253784403204918
0.028472555801272392
0.015340261161327362
0.036308132112026215
0.012850497849285603
0.026117386296391487
-0.03074493631720543
-0.011542392894625664
0.008986935950815678
0.03836499899625778
-0.009064238518476486
0.014585611410439014
-0.011355827562510967
-0.03411998972296715
-0.01171072293072939
0.008299156092107296
0.04031732678413391
0.04009975865483284
-0.04021274298429489
-0.016319692134857178
-0.02358870767056942
0.03894701600074768
0.012687701731920242
-0.005780004896223545
0.03329962491989136
-0.025806041434407234
0.0200811754912138
-0.0006594038568437099
0.023646196350455284
0.030909709632396698
0.05512595549225807
0.04103131592273712
-0.014592482708394527
-0.057322852313518524
-0.04512321203947067
-0.04636765271425247
-0.031030135229229927
0.015047959983348846
-0.05997061729431152
-0.04882493615150452
-0.027444690465927124
-0.03788021206855774
0.02578239142894745
-0.03405573591589928
-0.028447668999433517
0.023991255089640617
0.019688569009304047
0.02005556970834732
0.018986942246556282
0.007343160454183817
-0.0475611537694931
0.003940333146601915
0.024895641952753067
-0.019693464040756226
-0.02317381463944912
0.008269929327070713
0.030604049563407898
-0.05037251487374306
0.013214949518442154
-0.014398051425814629
-0.03894170746207237
-0.026384597644209862
-0.01240279246121645
-0.032239291816949844
-0.029975542798638344
0.029882939532399178
0.03809646517038345
0.0346711128950119
0.03467235341668129
0.0007017753669060767
-0.017286254093050957
-0.023327486589550972
-0.025342019274830818
0.02234320528805256
0.04895379766821861
-0.034987062215805054
0.03250209614634514
-0.0007787325303070247
-0.010021315887570381
0.02980809472501278
0.0028560878708958626
-0.03414532542228699
0.022182021290063858
-0.022009452804923058
-0.011418036185204983
-0.04034591093659401
-0.03119565360248089
-0.03948323056101799
-0.045875661075115204
0.02882292866706848
-0.03202969953417778
0.037233803421258926
-0.03652142733335495
-0.021902604028582573
0.003970901016145945
0.013291631825268269
0.004379513673484325
-0.024918247014284134
-0.00758929830044508
0.03390824794769287
-0.028343189507722855
-0.02153095416724682
-0.017147010192275047
0.004472832195460796
0.000587156624533236
-0.003114620689302683
-0.036964911967515945
0.021316545084118843
0.018943412229418755
-0.013821642845869064
0.001328870770521462
-0.03657850995659828
-0.019709624350070953
-0.03907591477036476
-0.03586684539914131
-0.039167370647192
-0.02929268404841423
-0.04285997897386551
-0.001821446930989623
0.014649219810962677
0.018702248111367226
-0.043213021010160446
-0.007616099435836077
-0.044131532311439514
-0.04117440804839134
-0.01009364239871502
0.016039330512285233
0.03858243674039841
0.005214103497564793
-0.0020480453968048096
0.012592838145792484
0.03259345516562462
0.021900564432144165
-0.06452009826898575
-0.0662926435470581
-0.03162461519241333
-0.07128484547138214
-0.011645720340311527
-0.030457235872745514
-0.024105574935674667
0.0034150343853980303
-0.022500496357679367
-0.03413970768451691
-0.06635520607233047
0.05003665015101433
-0.02774045802652836
0.04417108744382858
0.005959708243608475
-0.04509788751602173
-0.050537824630737305
0.00039744231617078185
0.005082576535642147
0.03727138787508011
-0.0034240761306136847
0.0037616377230733633
0.024410638958215714
0.009269577451050282
0.02834334596991539
-0.002948425244539976
0.04974983260035515
0.007318185176700354
0.013543589971959591
0.041642967611551285
0.04362973943352699
0.01724555715918541
0.02930597774684429
0.05265336111187935
0.013327280059456825
0.05088317394256592
0.04509512335062027
0.04151374101638794
-0.02259676158428192
0.04720025137066841
0.06376862525939941
-0.017328305169939995
0.06291000545024872
0.01068444736301899
0.018018683418631554
0.01607012376189232
-0.014788242056965828
0.034836091101169586
0.02611239068210125
-0.04578009247779846
-0.050288181751966476
0.02333933673799038
-0.057185012847185135
-0.002750418381765485
-0.03129248693585396
0.032470908015966415
-0.04394608736038208
0.0029156107921153307
-0.022869978100061417
-0.009753726422786713
-0.020882368087768555
-0.018877234309911728
0.030005088075995445
-0.0019026227528229356
0.035840824246406555
0.01788073033094406
0.02872091718018055
0.03300948813557625
-0.003078835317865014
0.042262963950634
-0.03734760731458664
-0.02390250191092491
-0.013380605727434158
-0.03381302207708359
0.04376344755291939
-0.018489234149456024
0.03751913458108902
0.00019263415015302598
0.030311111360788345
0.010291818529367447
-0.034066855907440186
0.05034102872014046
0.026719067245721817
0.04208889603614807
0.03009050525724888
0.04941563308238983
0.021407155320048332
0.026493443176150322
0.014521101489663124
0.030475439503788948
-0.0007801023893989623
0.04207034036517143
0.024393649771809578
0.059829097241163254
0.002465201774612069
0.05689519643783569
0.006728530395776033
0.04083983600139618
-0.016268888488411903
-0.008750702254474163
0.03472774848341942
0.0327024944126606
0.007665018551051617
0.0572778545320034
0.032529402524232864
-0.011025950312614441
-0.022253235802054405
0.03054536134004593
0.008606220595538616
0.02011088654398918
0.00498604029417038
0.03784054517745972
-0.038432881236076355
-0.009392228908836842
0.01916109025478363
0.0028859965968877077
0.058421194553375244
0.017613185569643974
0.01879163645207882
-0.008557594381272793
-0.05398756265640259
-0.0317058265209198
-0.03524656593799591
0.06384306401014328
0.034547362476587296
0.02817094884812832
-0.03849538415670395
0.000471235514851287
-0.04882955178618431
0.005279991310089827
0.05078078806400299
-0.018303202465176582
-0.009275780990719795
-0.002686871914193034
-0.045659057796001434
-0.03821985423564911
-0.018740838393568993
0.039128534495830536
0.023453475907444954
-0.0022427276708185673
0.023922305554151535
0.0049187056720256805
-0.05243903025984764
-0.006296152248978615
0.034131571650505066
-0.023434830829501152
0.027131227776408195
0.008113432675600052
0.009410262107849121
0.021369313821196556
-0.001861683209426701
-0.05150032415986061
0.022782715037465096
0.016671251505613327
0.036612432450056076
0.02915482595562935
-0.035511936992406845
0.0031434446573257446
0.014884359203279018
-0.0020404139067977667
-0.04156239330768585
0.02211979776620865
0.00047537751379422843
0.029428280889987946
0.01190376840531826
0.018886810168623924
0.03131037577986717
-0.03954222425818443
0.03635840117931366
-0.0317523218691349
0.02563166618347168
0.027544217184185982
0.03853234648704529
0.0018833718495443463
0.016813112422823906
0.038203682750463486
-0.012336643412709236
0.030948743224143982
0.02041514217853546
-0.0009377700043842196
-0.026269350200891495
0.04250476136803627
-0.02074059285223484
0.04825098440051079
0.005373882595449686
-0.014054951258003712
-0.006515800952911377
-0.026519769802689552
0.02186565287411213
0.022083209827542305
0.024249207228422165
0.039171673357486725
-0.033868931233882904
-0.04686252400279045
0.018501397222280502
0.0288335420191288
0.004745423793792725
0.0473182238638401
0.03017962910234928
0.0012532748514786363
-0.045049991458654404
-0.00042552733793854713
0.015611478127539158
-0.016710616648197174
0.035969942808151245
-0.016295433044433594
0.030966104939579964
0.0006605194648727775
-0.03613164648413658
-0.03612646833062172
-0.02299351431429386
0.04596554860472679
-0.017541907727718353
-0.012952801771461964
-0.0015085788909345865
-0.013838828541338444
-0.040900103747844696
0.04042674973607063
0.039960701018571854
-0.005520495120435953
0.0029791018459945917
-0.060379739850759506
-0.055537935346364975
-0.02762751840054989
-0.01351175643503666
0.00856162328273058
0.04173124581575394
0.02600560523569584
-0.025767823681235313
-0.06512802094221115
-0.0308886356651783
0.02566824108362198
-0.038072653114795685
-0.026902100071310997
0.03568767011165619
-0.02053985185921192
-0.06685589998960495
-0.010267754085361958
0.010144363157451153
-0.026800068095326424
0.03378305584192276
-0.017014656215906143
-0.024769479408860207
0.020411672070622444
0.017376486212015152
-0.023916011676192284
-0.05171196907758713
-0.03402694687247276
-0.007902860641479492
0.023328514769673347
0.02090314030647278
0.007376548834145069
0.004379896447062492
-0.01097437646239996
-0.007780018262565136
-0.003094053827226162
-0.02206212282180786
0.04633529856801033
-0.004096435848623514
-0.012955920770764351
0.007972324267029762
-0.02303587831556797
-0.0033027399331331253
0.02761891297996044
-0.0029973594937473536
-0.02864692732691765
-0.014257851056754589
0.021908694878220558
-0.0038779519964009523
-0.00880614947527647
-0.004538806155323982
0.042357344180345535
-0.037936050444841385
0.01121528446674347
-0.020750608295202255
-0.020355595275759697
0.0020188656635582447
-0.035889703780412674
-0.015718892216682434
0.038712166249752045
-0.006140117533504963
0.035081539303064346
-0.03298543393611908
-0.006000326946377754
-0.035062674432992935
0.007047879509627819
-0.006857772823423147
-0.026348121464252472
-0.027033036574721336
-0.04228866100311279
-0.008160804398357868
-0.022966884076595306
0.01975484937429428
0.005573549773544073
-0.0076493206433951855
-0.008812852203845978
-0.02733003906905651
0.009721511043608189
-0.020543213933706284
-0.007667901460081339
-0.019656749442219734
0.029063845053315163
-0.036508116871118546
-0.02658277004957199
0.015186012722551823
-0.0006701538804918528
0.008522885851562023
-0.011092985048890114
-0.003696652129292488
-0.04935934394598007
-0.047805849462747574
-0.03645668178796768
-0.01502496562898159
-0.014056418091058731
-0.032159432768821716
0.007528563961386681
0.022284258157014847
-0.0332266166806221
-0.03727489709854126
-0.033612947911024094
0.032380182296037674
0.022243062034249306
-0.012737572193145752
-0.028417984023690224
0.026551714166998863
0.034590691328048706
-0.03960411250591278
-0.03582397848367691
-0.0003890741500072181
0.030723832547664642
-0.030706455931067467
0.004228414036333561
-0.048813413828611374
-0.0205445047467947
0.01741505227982998
0.03359811753034592
-0.013678745366632938
0.017949851229786873
-0.014681498520076275
-0.025071069598197937
0.015075637958943844
0.028658241033554077
-0.03401688486337662
-0.009566973894834518
0.03637620434165001
0.02004966326057911
0.004724204074591398
0.036112625151872635
0.04220682010054588
0.0447518527507782
-0.02861703746020794
0.009949266910552979
-0.051270052790641785
-0.010805066674947739
-0.02155250869691372
-0.028356565162539482
0.006960798054933548
-0.006626640446484089
-0.025623710826039314
0.02596506103873253
-0.036003582179546356
0.02046824060380459
0.02618369087576866
-0.024672044441103935
-0.022278940305113792
0.011981446295976639
-0.025983883067965508
-0.011841652914881706
0.01822153478860855
-0.038535457104444504
0.0015240288339555264
-0.038488175719976425
0.003985675051808357
-0.0007037022733129561
-0.040497422218322754
-0.020999928936362267
-0.01342384796589613
-0.02216971106827259
-0.04343791678547859
0.016560867428779602
-0.04065435007214546
-0.03571851924061775
0.027587728574872017
-0.0195809006690979
0.01607157103717327
-0.05444447323679924
-0.007160380482673645
-0.020862797275185585
-0.012730597518384457
0.03604326769709587
0.02896827831864357
-0.03590606525540352
0.011089915409684181
-0.004545160103589296
-0.03287595883011818
-0.021447941660881042
0.034290216863155365
-0.006619954016059637
0.013249644078314304
0.02654462680220604
0.015241442248225212
-0.014265254139900208
0.006061869207769632
0.0025017994921654463
0.03360370174050331
-0.024605916813015938
0.044102638959884644
0.02047458477318287
0.025264546275138855
-0.006991974543780088
0.04450331628322601
-0.02186748757958412
-0.027494898065924644
0.0008163336897268891
-0.025461072102189064
0.04336852207779884
-0.043206412345170975
-0.019687440246343613
0.05388340726494789
0.05023657903075218
0.010966496542096138
-0.027593549340963364
-0.004503866657614708
0.018619047477841377
0.0474359430372715
-0.0013998370850458741
-0.02597004547715187
0.02378622256219387
-0.00976394023746252
0.036639679223299026
-0.00798383541405201
-0.0028360611759126186
0.056577280163764954
0.04317643120884895
-0.0027000971604138613
0.0009493929683230817
-0.0026416571345180273
-0.04894373565912247
-0.04046186804771423
0.04145576059818268
-0.02500670775771141
0.0008425005944445729
0.031220024451613426
-0.0076445285230875015
0.03597404435276985
-0.037277232855558395
-0.0018003330333158374
0.0004308724601287395
0.0237323809415102
-0.010373646393418312
0.03395882248878479
-0.010374709963798523
0.014252759516239166
-0.01951100304722786
-0.03701254725456238
0.011182324029505253
0.01691295951604843
0.014784961938858032
0.025996142998337746
0.03434933349490166
0.016650365665555
-0.03568694368004799
0.006732937879860401
0.025415897369384766
-0.011519089341163635
-0.015033327974379063
0.03368743881583214
-0.0189850814640522
-0.027982700616121292
-0.017649082466959953
0.020746884867548943
0.018215076997876167
0.02134849689900875
0.04271481931209564
-0.012330489233136177
0.048592302948236465
0.047952622175216675
0.008469615131616592
0.025183560326695442
0.045677393674850464
0.03537798300385475
0.00852514710277319
-0.01711839623749256
0.025392362847924232
0.04290490970015526
0.02232053503394127
-0.034424155950546265
0.006440790835767984
0.04413537308573723
-0.004140317440032959
0.03199657425284386
-0.0068258680403232574
0.036859337240457535
-0.012161760590970516
0.05259671434760094
0.04792220890522003
0.025205623358488083
0.030967537313699722
0.02946031093597412
-0.004272662568837404
0.0048185186460614204
0.0418977327644825
0.027899621054530144
0.01200795453041792
-0.01290802750736475
0.03806864470243454
0.026845348998904228
0.011067420244216919
0.03229157626628876
-0.017902953550219536
-0.012958748266100883
-0.01642388291656971
0.005977699998766184
-0.01123907882720232
0.0062014264985919
0.04291904717683792
0.008810632862150669
0.018960515037178993
0.014077562838792801
0.02119303122162819
-0.003401492489501834
0.011516233906149864
0.047772690653800964
0.004595842678099871
0.05315747857093811
0.0371503047645092
-0.015149740502238274
0.053962405771017075
-0.015871187672019005
0.005121561232954264
0.019450504332780838
0.02479701116681099
-0.026898493990302086
-0.013468215242028236
0.012107237242162228
0.04959045350551605
-0.0199343953281641
-0.012724138796329498
-0.0155872143805027
-0.0486236996948719
0.019613979384303093
-0.032762929797172546
-0.029056303203105927
0.05075285956263542
-0.006235887296497822
-0.0005585873150266707
0.015163005329668522
0.0300440713763237
0.033642444759607315
-0.027386195957660675
0.02403811551630497
0.04114029183983803
0.013089345768094063
0.004415785428136587
0.019959844648838043
0.016357095912098885
-0.03223183751106262
0.0063621667213737965
-0.02767164446413517
-0.0025890476536005735
-0.01850893348455429
-0.03240722045302391
0.020753666758537292
0.03521997109055519
0.012148401699960232
-0.02712571807205677
0.054547350853681564
0.010247128084301949
0.008194977417588234
-0.019650647416710854
0.011273580603301525
0.05857211351394653
0.03792903572320938
0.02991834655404091
-0.006658323109149933
-0.01802578754723072
0.04361971467733383
0.01086773257702589
0.04500984773039818
0.05478109046816826
0.03130434826016426
-0.009296988137066364
0.027572883293032646
-0.015599981881678104
0.046372201293706894
0.00819862075150013
-0.005041813477873802
0.03740924596786499
-0.004591700620949268
0.004933579359203577
-0.002048385562375188
-0.0029190387576818466
0.02218029461801052
-0.019010139629244804
-0.040647946298122406
-0.017640940845012665
-0.010092531330883503
-0.013049140572547913
0.014313798397779465
-0.023296043276786804
-0.04439577832818031
-0.023187274113297462
-0.030383704230189323
0.04217221215367317
-0.020947549492120743
0.02670176327228546
-0.014360310509800911
-0.0369810089468956
-0.035410650074481964
0.017222560942173004
-0.017600402235984802
-0.03653628006577492
-0.020940104499459267
-0.04752775654196739
-0.012897549197077751
-0.0043594385497272015
-0.025245945900678635
0.01167995948344469
-0.009264817461371422
-0.021327294409275055
0.01486522238701582
-0.018130026757717133
-0.039018213748931885
0.008769199252128601
0.021006830036640167
-0.004123547580093145
0.01870136149227619
0.0069222780875861645
-0.03751223534345627
0.035501234233379364
0.02114829234778881
-0.016177663579583168
-0.03337567672133446
-0.014910944737493992
0.03937198594212532
-0.02788746915757656
-0.04851320758461952
0.0005789216957055032
-0.006377015262842178
-0.025951512157917023
0.014969807118177414
0.012533550150692463
0.03543342277407646
0.016636518761515617
-0.001122180838137865
0.03295203670859337
-0.031736090779304504
0.02690168470144272
-0.04002580791711807
-0.02382533624768257
0.00879080593585968
0.030339255928993225
-0.017704766243696213
-0.04643078148365021
0.029814476147294044
-0.024968374520540237
0.001309763640165329
0.023762818425893784
0.009068331681191921
0.006377917714416981
0.02970714308321476
-0.043095044791698456
-0.02281566709280014
-0.012744340114295483
-0.027424555271863937
-0.02341381274163723
0.0366705060005188
0.01044497825205326
-0.028262296691536903
-0.03494499623775482
0.026103006675839424
0.013174671679735184
-0.033431097865104675
-0.03675929829478264
-0.021540464833378792
-0.04139391705393791
0.009184455499053001
0.04109315201640129
-0.04143652319908142
-0.04789099097251892
-0.032661501318216324
-0.040747933089733124
-0.026365971192717552
-0.032390445470809937
0.028561044484376907
0.0015375609509646893
-0.004462008364498615
-0.03148391470313072
-0.005657098721712828
0.038448043167591095
0.02827402390539646
0.011284933425486088
0.01272580772638321
-0.019072040915489197
-0.007190721575170755
-0.002997486386448145
-0.0072066523134708405
-0.022810444235801697
-0.036233846098184586
0.030046731233596802
-0.0037548851687461138
-0.042066555470228195
0.038351286202669144
-0.03072456084191799
-0.017466042190790176
-0.0025975550524890423
0.04011402279138565
-0.02752847410738468
-0.015241543762385845
-0.03867970034480095
0.02302813157439232
0.025590863078832626
-0.007971647195518017
0.006222288589924574
-0.012949499301612377
0.026453455910086632
0.02275434136390686
0.0029410712886601686
-0.030707646161317825
-0.04964090883731842
-0.0386587493121624
0.008803170174360275
-0.03311865031719208
-0.03979086875915527
-0.02056589536368847
0.015697842463850975
-0.03929918631911278
-0.015588498674333096
-0.03337547183036804
-0.0005958626279607415
-0.03615378960967064
-0.04030873253941536
-0.0299640204757452
-0.014808657579123974
0.004957944620400667
-0.009162423200905323
0.058741405606269836
0.016526438295841217
-0.01053812075406313
0.0012995022116228938
0.02184969186782837
-0.031230099499225616
0.04943158105015755
0.054402001202106476
-0.028717370703816414
-0.02899036556482315
-0.008177320472896099
-0.024271879345178604
-0.03293575346469879
-0.027516331523656845
0.03793143108487129
0.042889032512903214
-0.03545965254306793
-0.007052835542708635
-0.019761858507990837
0.026096384972333908
0.04224320128560066
0.024838794022798538
0.012986110523343086
-0.01881139539182186
0.013241210952401161
-0.03352963924407959
0.00361247337423265
0.03223676607012749
0.006716154515743256
0.031852781772613525
0.005148041993379593
0.013929697684943676
0.01051876600831747
-0.02314264327287674
0.04665087163448334
0.012119973078370094
0.005146940238773823
-0.007894211448729038
-0.011938759125769138
0.0238378643989563
0.033739011734724045
0.0491131991147995
0.005749269388616085
0.0005904667195864022
0.0071084205992519855
-0.012210394255816936
-0.04552513360977173
0.007746953517198563
0.0271183792501688
0.04037919268012047
-0.0037600798532366753
0.06956668943166733
-0.06707742065191269
-0.05257655307650566
-0.005684817675501108
0.004874187055975199
0.053780145943164825
-0.013493158854544163
0.044722359627485275
-0.059709541499614716
-0.012258500792086124
0.02216176688671112
-0.0038821534253656864
0.049392033368349075
0.00840102881193161
-0.014275710098445415
-0.030399831011891365
-0.02527634985744953
-0.006167753599584103
-0.008191116154193878
-0.0030968189239501953
-0.00284197716973722
0.013126110658049583
-0.021872108802199364
-0.07411672174930573
-0.027755141258239746
-0.0002842613903339952
0.007273317780345678
0.043546292930841446
-0.016232315450906754
-0.05325227603316307
-0.02390958182513714
-0.02129553258419037
-0.03821713849902153
0.028266772627830505
0.012807046994566917
-0.005541691090911627
-0.08501844108104706
-0.028609653934836388
-0.02868635393679142
-0.007293919567018747
0.0007396548171527684
0.042710814625024796
0.022387657314538956
0.03812756389379501
0.002735311631113291
0.010026614181697369
0.012070770375430584
0.034277405589818954
0.005242236889898777
-0.007624173536896706
0.053485337644815445
0.037678442895412445
-0.027989350259304047
0.008704250678420067
-0.0076820082031190395
0.02684720605611801
-0.011502604931592941
0.045978039503097534
-0.006235451903194189
0.018410786986351013
-0.027291296049952507
0.043970998376607895
0.04310555383563042
-0.005728960502892733
0.05106084793806076
-0.00820293091237545
0.040347468107938766
0.026607822626829147
0.013577120378613472
-0.022339725866913795
-0.035564132034778595
-0.028915034607052803
0.022410519421100616
-0.007295201066881418
0.005404560826718807
0.019617315381765366
-0.01829463429749012
-0.027879882603883743
0.019412808120250702
-0.028681887313723564
0.01434498094022274
0.013857178390026093
0.01224075723439455
0.038058310747146606
0.006079062819480896
0.016208818182349205
-0.026639511808753014
-0.02318056859076023
0.03426344692707062
-0.04794736206531525
-0.010251392610371113
0.012802121229469776
0.04008755087852478
-0.003839760320261121
-0.03086044266819954
-0.003274268703535199
-0.018775736913084984
-0.03897625207901001
-0.0332794114947319
0.0213231910020113
0.015581709332764149
-0.001873557921499014
0.015921680256724358
0.04091943800449371
0.01048191450536251
0.041627079248428345
-0.0027207829989492893
-0.019716039299964905
0.012193877249956131
0.01975448988378048
-0.0024158668238669634
0.018141265958547592
0.04701730236411095
-0.0008323036599904299
0.04996722564101219
0.002504539443179965
-0.017657117918133736
-0.009951259009540081
0.04635156691074371
-0.005140067543834448
0.03988270461559296
0.031076719984412193
-0.02820875681936741
-0.016635842621326447
-0.016484001651406288
0.041700590401887894
-0.03576422855257988
0.01662086509168148
0.020740455016493797
0.03693272918462753
0.027691137045621872
-0.02912135235965252
0.032592084258794785
0.02408747747540474
0.0171486958861351
-0.0017018562648445368
0.022203948348760605
-0.01188981905579567
0.012452321127057076
-0.01968247815966606
-0.008547738194465637
-0.03835040703415871
0.006621816661208868
-0.001965067582204938
-0.030524849891662598
0.014578375965356827
-0.03697505220770836
-0.01859186589717865
-0.024533256888389587
0.022478336468338966
0.03863874450325966
-0.03206000104546547
0.01652812957763672
0.010581936687231064
-0.044449929147958755
0.034487366676330566
0.0286201573908329
-0.02984929457306862
0.03106268309056759
-0.013717598281800747
-0.032937124371528625
0.018142255023121834
-0.02182592824101448
-0.029700355604290962
0.005021957680583
-0.04240807890892029
-0.040842629969120026
-0.04105578362941742
-0.022811463102698326
-0.0370580293238163
0.02820318192243576
-0.020992273464798927
0.015309823676943779
-0.02600715681910515
-0.04677002131938934
0.002536627696827054
0.046608809381723404
-0.021206151694059372
-0.013496540486812592
-0.0005503285210579634
-0.008434208109974861
0.03244045376777649
-0.055397503077983856
0.03312370181083679
0.0041126529686152935
0.023742351680994034
0.021435033529996872
0.01714577153325081
-0.018018361181020737
0.019396565854549408
-0.017876941710710526
-0.0254841111600399
-0.008844957686960697
0.009755874052643776
0.0011889968300238252
0.06122538819909096
-0.014037835411727428
-0.013788696378469467
0.01420785952359438
0.03793499246239662
-0.0233412254601717
0.029516441747546196
0.01093834824860096
-0.0007864820072427392
-0.04216089844703674
0.03220059350132942
-0.005385500844568014
0.046751733869314194
0.03356805443763733
0.05076788738369942
0.03193368390202522
0.03204680234193802
0.03267667070031166
0.0004304523463360965
0.04697483032941818
0.0035117492079734802
-0.004600718151777983
0.003483519656583667
0.025113357231020927
0.020922519266605377
0.011172501370310783
0.036098383367061615
0.0071379137225449085
-0.021326644346117973
-0.037888143211603165
-0.037697989493608475
0.01654464565217495
0.016783028841018677
-0.03180725499987602
-0.006863132119178772
-0.009705890901386738
0.0006750351167283952
0.010441973805427551
-0.002197741298004985
0.025155503302812576
-0.030410515144467354
0.002956807380542159
0.023242807015776634
-0.030809776857495308
0.035426072776317596
-0.031516339629888535
0.019296063110232353
-0.03312677890062332
-0.01137879304587841
-0.022147104144096375
0.001843914738856256
-0.028950972482562065
0.030936919152736664
-0.022448664531111717
0.012133616954088211
0.006364298518747091
0.03564554080367088
-0.054933175444602966
-0.028954310342669487
-0.012258096598088741
-0.037457551807165146
-0.010690324008464813
-0.005663182120770216
0.011439752764999866
-0.035645272582769394
-0.0005804835236631334
-0.014922268688678741
-0.01172590535134077
0.022902406752109528
-0.01985001005232334
-0.004610104486346245
-0.034118056297302246
0.031333696097135544
0.0315500907599926
-0.0012288717553019524
0.010626518167555332
-0.03643219545483589
-0.012320630252361298
0.02298714965581894
0.022871119901537895
-0.004759649746119976
-0.006796365138143301
-0.027026835829019547
0.0243807602673769
0.03156038001179695
-0.03859121352434158
0.04809487611055374
-0.04089406505227089
0.02060648612678051
-0.025260301306843758
-0.0046918634325265884
-0.05340084806084633
-0.03358800336718559
0.013024155050516129
0.030409226194024086
0.00987153872847557
-0.017334867268800735
-0.010082213208079338
-0.0004575178900267929
-0.04986327141523361
0.04443446174263954
0.013974986039102077
-0.004593930672854185
-0.0001465437962906435
-0.012560424394905567
0.028246916830539703
0.03286784887313843
-0.03510057181119919
-0.02591794542968273
-0.022352082654833794
0.008875011466443539
-0.017063522711396217
-0.02981005795300007
-0.048634786158800125
-0.03609267249703407
0.017844581976532936
0.044733237475156784
0.030092395842075348
-0.02868661843240261
-0.01963259093463421
-0.025002211332321167
-0.030877919867634773
-0.0063222539611160755
-0.028575217351317406
0.025001853704452515
-0.01737636886537075
0.029451478272676468
0.029661551117897034
-0.015169461257755756
0.012252802960574627
-0.014389163814485073
0.0006937205325812101
-0.04398993402719498
-0.018921617418527603
-0.028389669954776764
-0.034324392676353455
0.0046181404031813145
0.025768304243683815
-0.029860051348805428
-0.040607158094644547
0.0028386383783072233
-0.004029072355479002
-0.02704804018139839
-0.033890500664711
0.0019828700460493565
-0.039917852729558945
0.03676887974143028
0.03130514547228813
0.011788852512836456
0.02206432819366455
-0.008080231957137585
-0.0193741787225008
-0.023846743628382683
-0.028866304084658623
0.0355207622051239
-0.018371276557445526
0.027204211801290512
0.02514420822262764
-0.050490397959947586
-0.026336267590522766
0.028686830773949623
-0.04482590779662132
-0.0494546964764595
-0.003673122264444828
-0.004387215245515108
-0.008001308888196945
-0.01976718381047249
-0.037076499313116074
0.02988477796316147
0.03665410727262497
-0.0002210526872659102
-0.05139816924929619
-0.015274539589881897
-0.026490895077586174
-0.011475823819637299
0.0012979662278667092
-0.040823303163051605
-0.04341226816177368
-0.0438363179564476
-0.006853985600173473
-0.00728412251919508
-0.023349342867732048
0.03355652466416359
0.007857587188482285
0.037408433854579926
-0.04425770044326782
0.03296222910284996
0.03070760704576969
0.03513072058558464
-0.010859695263206959
0.013442409224808216
0.006022539455443621
-0.011891799978911877
0.0008041068795137107
-0.032045088708400726
0.02239328622817993
-0.013199415989220142
-0.044293612241744995
-0.0025902986526489258
0.011830816976726055
0.022578494623303413
-0.003257523290812969
0.0017813948215916753
-0.019390346482396126
0.03789541870355606
-0.01288109365850687
-0.04616405814886093
-0.016994940117001534
-0.04978080466389656
-0.001706447801552713
0.006275022868067026
-0.03197772800922394
-0.0206560418009758
-0.044098205864429474
-0.04425692930817604
-0.03809855505824089
-0.04583225026726723
0.0046569183468818665
-0.002921373350545764
-0.050348930060863495
0.017872510477900505
0.004792586900293827
-0.011768973432481289
0.017418306320905685
0.042214903980493546
0.025216663256287575
-0.0017793320585042238
-0.018500419333577156
0.018862538039684296
0.0005444955895654857
0.004390593618154526
-0.019300224259495735
-0.02154422737658024
-0.012710917741060257
0.01318654976785183
-0.020220791921019554
-0.051666829735040665
0.03054974414408207
-0.01173027977347374
0.020294396206736565
0.0046173930168151855
0.0381750650703907
0.018699556589126587
-0.0010469005210325122
0.03150229901075363
0.05987812206149101
0.03197444975376129
-0.0422949343919754
-0.03527597337961197
-0.028915176168084145
0.03079565241932869
0.05082643777132034
0.03638515993952751
-0.027747614309191704
-0.021391604095697403
0.004198509734123945
0.020300233736634254
-0.013965095393359661
0.044303447008132935
0.004643935244530439
0.02585674077272415
-0.04989389330148697
-0.028029702603816986
-0.03683927655220032
0.027311356738209724
0.02907487004995346
0.04024996981024742
0.0003079146845266223
-0.009310559369623661
0.040554229170084
0.013926603831350803
0.030383000150322914
0.025568878278136253
0.012436318211257458
0.04237523302435875
-0.025826169177889824
-0.006413792259991169
-0.009281524457037449
-0.0013087651459500194
0.0055427453480660915
0.0009472838719375432
-0.02171943336725235
-0.019931811839342117
-0.03906165063381195
0.031032737344503403
0.015115928836166859
0.02753431536257267
0.036303408443927765
0.02216360904276371
0.045565616339445114
-0.028735630214214325
-0.031140150502324104
-0.012616473250091076
-0.022873932495713234
0.010537952184677124
-0.023110026493668556
0.0077599892392754555
0.03183763101696968
0.01912522502243519
-0.04232293739914894
0.00027408849564380944
-0.019058892503380775
0.013034729287028313
0.023801174014806747
-0.04193979129195213
0.021343838423490524
-0.02927694469690323
0.00599935045465827
-0.03820793330669403
0.012880845926702023
-0.032719895243644714
-0.023205038160085678
0.0015322864055633545
0.007552887313067913
0.018384020775556564
-0.04305698350071907
0.018850723281502724
0.011160596273839474
0.027995245531201363
-0.038744907826185226
-0.0030052352230995893
0.034354180097579956
0.012791365385055542
-0.03407512605190277
0.037325453013181686
-0.014976505190134048
0.010877056047320366
-0.007891079410910606
-0.012602371163666248
-0.04072312265634537
-0.031167346984148026
0.04278681427240372
-0.017265023663640022
0.014615717343986034
-0.04891470447182655
0.021307464689016342
-0.05149601027369499
-0.011614827439188957
0.003020324045792222
-0.021758195012807846
0.04833988845348358
0.012957001104950905
0.06029122695326805
0.014673948287963867
0.02963116392493248
-0.011982726864516735
-0.011471913196146488
0.038010966032743454
0.025881275534629822
0.015361002646386623
0.006761770695447922
-0.002674339571967721
0.04281769320368767
-0.015999015420675278
0.004451498854905367
-0.028326546773314476
0.051220931112766266
0.0010411511175334454
0.028869468718767166
0.042601097375154495
0.04850446805357933
0.021413661539554596
-0.0199059396982193
-0.014468572102487087
-0.023134954273700714
-0.014939972199499607
0.036818377673625946
-0.026137566193938255
0.007204493507742882
-0.022166579961776733
-0.01427496038377285
0.01758619211614132
-0.0014207871863618493
0.025790240615606308
7.598003867315128e-05
-0.016549494117498398
0.015423407778143883
-0.022867612540721893
-0.034181613475084305
-0.0016971493605524302
-0.025811050087213516
0.00496573094278574
0.04909359663724899
0.006024893373250961
0.05005444213747978
0.03178218752145767
-0.02466444857418537
0.03405212610960007
0.03450409322977066
-0.008610762655735016
0.04085003584623337
0.006268990226089954
0.00734374625608325
0.002961628371849656
-0.0234425850212574
0.03269178792834282
0.040474504232406616
0.02223273739218712
0.02030932903289795
0.02185545302927494
0.012610369361937046
0.02689438685774803
0.028899086639285088
0.027003010734915733
-0.014455936849117279
-0.029457375407218933
-0.01659919135272503
-0.009418540634214878
-0.02281085215508938
0.03572642058134079
-0.010450679808855057
0.029366761445999146
0.01576782390475273
-0.02202722057700157
0.03263029456138611
-0.015417368151247501
-0.02410207875072956
0.03693779930472374
0.03029005415737629
-0.013031923212110996
0.02878483198583126
0.011990935541689396
-0.010273708030581474
0.020465023815631866
0.04070233553647995
-0.025307098403573036
0.028368152678012848
0.03359738737344742
0.024390678852796555
-0.012336266227066517
0.02148844301700592
-0.03239818289875984
-0.007016490679234266
-0.025737913325428963
0.010904315859079361
0.0104127312079072
0.021387169137597084
0.03335689753293991
0.035285621881484985
-0.038019221276044846
-0.01745951920747757
0.0026657332200556993
-0.02105267159640789
-0.0029623829759657383
-0.0041338601149618626
0.030796609818935394
0.02368820831179619
-0.027823304757475853
-0.04102478176355362
0.012373965233564377
-0.043032336980104446
0.03714064508676529
0.0014515228103846312
-0.028226004913449287
-0.04207564890384674
-0.029024887830018997
0.013869116082787514
-0.04199715703725815
-0.02502862550318241
-0.014358198270201683
-0.0007045316742733121
0.019079333171248436
0.020694797858595848
0.0291814636439085
0.012743575498461723
-0.013156179338693619
-0.0007266021566465497
-0.014706224203109741
0.00551378121599555
-0.027904167771339417
-0.017794976010918617
-0.02884182520210743
-0.03124048188328743
-0.0538870170712471
0.025963084772229195
-0.04972619563341141
-0.0037641949020326138
0.030493861064314842
-0.004040658939629793
-0.025363989174365997
0.013991174288094044
-0.02408803440630436
-0.034584891051054
-0.0010149790905416012
0.004727209452539682
0.040128305554389954
-0.01733574829995632
0.03865278139710426
0.014350373297929764
0.019421104341745377
0.008223670534789562
0.0009279305231757462
0.04487185552716255
0.004732945468276739
-0.028841257095336914
0.04464193433523178
0.0002446493017487228
0.002496101660653949
0.02522183209657669
0.02684849686920643
0.02831963077187538
0.04169691726565361
0.013266254216432571
0.015591664239764214
0.02516370639204979
-0.03760911896824837
-0.01526443101465702
-0.008729401044547558
-0.018900832161307335
0.0395718514919281
0.033256810158491135
0.0271487757563591
0.019703978672623634
0.02921670489013195
-0.03928549587726593
0.032900840044021606
-0.014361363835632801
0.03399695083498955
0.029138661921024323
-0.03753961622714996
-0.04352092370390892
0.005795094184577465
0.005947932135313749
0.029862042516469955
-0.014063145034015179
-0.0054515632800757885
0.03167475014925003
0.01312790997326374
0.0178269874304533
-0.019667526707053185
0.01685989648103714
-0.029130257666110992
0.01642203889787197
-0.00997718796133995
-0.04257090389728546
0.015239349566400051
0.016483094543218613
-0.052377473562955856
-0.05565131828188896
-0.009172933176159859
-0.06630977988243103
-0.03129061684012413
-0.023652831092476845
0.005013940390199423
-0.021767843514680862
-0.03013714775443077
-0.024734793230891228
-0.005276036448776722
-0.05477555841207504
0.002460567746311426
-0.034408945590257645
-0.02206253446638584
-0.03812161460518837
-0.02147729881107807
-0.05851811543107033
0.03526926785707474
-0.02774822525680065
-0.00031822375603951514
-0.03469366580247879
0.015577396377921104
0.0009991176193580031
-0.008404213935136795
-0.001373311155475676
0.012664278037846088
-0.018086059018969536
0.009151676669716835
0.03536374121904373
-0.02495216391980648
-0.008147760294377804
0.033878449350595474
0.019851841032505035
0.022689221426844597
0.04318339005112648
0.0344436839222908
0.00027371715987101197
-0.013905801810324192
0.06227027252316475
0.03138609975576401
0.01344743650406599
0.0068312520161271095
0.020019197836518288
-0.03935405984520912
-0.001307114609517157
0.010324139147996902
-0.04683836176991463
-0.05198439955711365
-0.04849441349506378
-0.03517109528183937
-0.0038306552451103926
-0.05541089549660683
-0.004451440181583166
-0.031173134222626686
-0.025346118956804276
-0.03588958457112312
-0.004397303331643343
-0.042772140353918076
0.018003392964601517
0.03297429159283638
-0.0027521674055606127
-0.010400130413472652
0.024815265089273453
-0.031310051679611206
-0.02547725848853588
-0.056004490703344345
0.03666853904724121
0.00043372780783101916
0.0002267816598759964
-0.014881286770105362
-0.009553283452987671
-0.0018094427650794387
0.026616116985678673
0.01586836576461792
0.005863654427230358
0.025497175753116608
0.0025983662344515324
0.018318619579076767
0.028378302231431007
0.0015700579388067126
-0.003488685004413128
-0.019280804321169853
-0.01098230853676796
-0.0032111303880810738
-0.03655057027935982
-0.036915261298418045
-0.052981186658144
0.028916699811816216
-0.021688932552933693
0.0011884663254022598
-0.004993007518351078
-0.025429684668779373
-0.03501823917031288
-0.02910003252327442
0.01827048882842064
0.052244119346141815
-0.000699734257068485
0.027631981298327446
0.033867113292217255
0.05211079865694046
-0.019315388053655624
0.05135280266404152
0.020523017272353172
0.03592725843191147
-0.002967148320749402
0.013832341879606247
-0.025201672688126564
0.01427475269883871
0.03084896318614483
0.011066731996834278
0.02280200831592083
0.023054184392094612
-0.024452459067106247
-0.018459046259522438
0.03531915321946144
0.030008818954229355
0.009217740967869759
0.04237278550863266
-0.018249424174427986
-0.008916105143725872
0.03935379534959793
-0.011953207664191723
0.04867586866021156
-0.000828908639959991
-0.02586255595088005
-0.013596831820905209
-0.01146424375474453
0.04167475551366806
0.023136679083108902
0.048311587423086166
-0.019643744453787804
-0.023464970290660858
0.006655447650700808
-0.00858171284198761
0.01573263108730316
0.025165654718875885
0.022295545786619186
-0.014437003992497921
0.04884021729230881
-0.011163342744112015
-0.02922658994793892
0.013087761588394642
0.027754342183470726
0.038187962025403976
0.006363877560943365
-0.04613902047276497
0.007439509965479374
-0.03382723033428192
-0.0501302070915699
0.006587121170014143
0.01144594606012106
-0.025784209370613098
-0.003217555582523346
-0.03677496686577797
-0.007578311022371054
-0.03584199771285057
0.02950458601117134
-0.0074803573079407215
-0.034258659929037094
-0.012413136661052704
-0.04478566348552704
-0.02275475487112999
-0.002970365574583411
0.014446647837758064
-0.02620777115225792
0.024375637993216515
0.023307330906391144
0.03152535855770111
-0.014468511566519737
0.0037647804711014032
0.03310692682862282
-0.04554092884063721
0.0025416186545044184
0.030835505574941635
0.0279303640127182
-0.027921045199036598
-0.03783393278717995
-0.010041282512247562
-0.026131395250558853
-0.0013771335361525416
0.02157527022063732
0.015721220523118973
0.016548650339245796
0.03207637369632721
0.025174090638756752
-0.026700571179389954
-0.015685737133026123
-0.06408947706222534
-0.006101357750594616
-0.024293148890137672
-0.047591619193553925
-0.050150368362665176
-0.023661835119128227
0.0008408724097535014
-0.01409926451742649
-0.03605892136693001
-0.02535208687186241
0.01063830778002739
0.0021775891073048115
-0.0057047768495976925
-0.029158184304833412
0.007270386442542076
-0.030316652730107307
0.029056157916784286
-0.020525816828012466
0.027782704681158066
0.004406216088682413
-0.0036181272007524967
0.021387159824371338
0.030613062903285027
-0.018064988777041435
0.0316939614713192
0.014408412389457226
-0.03521600365638733
-0.021489126607775688
-0.00973799079656601
0.02253175899386406
0.021102994680404663
0.037076033651828766
0.007547448854893446
-0.02856883592903614
-0.04057256132364273
0.010819538496434689
0.03799641504883766
-0.016860410571098328
-0.03073754720389843
0.04883022978901863
-0.045511357486248016
-0.0551363080739975
0.001770191709510982
-0.04826783016324043
0.016036804765462875
-0.0158383846282959
-0.02210540883243084
-0.017603883519768715
-0.04070416837930679
-0.03577300161123276
-0.04709288477897644
-0.020407773554325104
-0.0015438203699886799
0.026317767798900604
-0.029456423595547676
0.0033520199358463287
0.05407380312681198
0.01286248117685318
0.02251473069190979
0.039327025413513184
-0.05324818938970566
-0.014463615603744984
0.05274318903684616
0.021917561069130898
0.0468282550573349
0.02287633717060089
-0.04284583777189255
-0.006129004526883364
-0.0010791018139570951
0.0026079544331878424
0.01141241192817688
0.05092991515994072
-0.017128605395555496
-0.029151612892746925
-0.003329317085444927
-0.04287620633840561
-0.014473897404968739
0.00020123801368754357
0.022358624264597893
-0.01700606197118759
-0.03250375762581825
0.00044656277168542147
-0.033794596791267395
0.014836467802524567
-0.008857487700879574
-0.021536296233534813
0.042652443051338196
0.0024246321991086006
-0.03161988407373428
0.020477453246712685
0.002310933778062463
-0.02272079698741436
0.043297164142131805
-0.023260382935404778
0.04018888995051384
0.02383064106106758
0.0008254482527263463
-0.014788591302931309
0.04329919070005417
0.05481177568435669
0.05103553831577301
0.021771637722849846
-0.033230219036340714
-0.018140720203518867
0.021380659192800522
-0.0487329438328743
0.028757480904459953
0.030027519911527634
0.007708195596933365
0.014600765891373158
0.006978807505220175
0.0006917196442373097
-0.046465951949357986
-0.04132087156176567
-0.03715795278549194
0.013867435045540333
-0.0475301556289196
0.037074994295835495
-0.016222890466451645
0.013812334276735783
0.012779577635228634
-0.013944966718554497
0.02989041619002819
0.007629044819623232
0.030246010050177574
0.0230051688849926
0.02177181839942932
-0.030797118321061134
-0.04648096486926079
-0.048446133732795715
0.0009802060667425394
0.007978232577443123
0.015938563272356987
-0.01107108686119318
-0.030460886657238007
-0.02824169024825096
0.0312982015311718
-0.03495169058442116
-0.020792203024029732
-0.04165308550000191
-0.012318361550569534
-0.019669847562909126
-0.03615846112370491
-0.028442755341529846
0.033076830208301544
0.026200518012046814
-0.024193765595555305
-0.01113361306488514
-0.016574326902627945
-0.019258011132478714
-0.0210709385573864
0.00120598787907511
0.0638984739780426
0.00576000614091754
0.025653986260294914
-0.015266558155417442
0.009279572404921055
0.06366541981697083
0.02213425748050213
0.03632516786456108
-0.01272160466760397
0.0359996035695076
-0.01675056666135788
0.03447984904050827
0.010460605844855309
0.00554589182138443
0.046011991798877716
-0.016966627910733223
0.05359837785363197
0.027178267017006874
0.015143642202019691
0.030779190361499786
0.06158764287829399
-0.019208282232284546
-0.0093970512971282
0.02448139898478985
0.030528690665960312
0.010933835059404373
0.04023664817214012
-0.002578487154096365
-0.0012824428267776966
0.008893082849681377
-0.010128889232873917
0.04036689177155495
0.06023941561579704
0.035892460495233536
0.018802795559167862
0.057526908814907074
-0.013109833002090454
0.057112909853458405
0.013083601370453835
0.005654369946569204
-0.014410138130187988
-0.024071408435702324
0.005547237582504749
0.051899563521146774
0.01981808990240097
0.030674001201987267
-0.015085560269653797
0.03495558723807335
0.04475250467658043
0.004300612490624189
-0.002852918580174446
-0.012013454921543598
-0.03617703542113304
0.041775062680244446
0.0063577028922736645
-0.0003442756715230644
-0.027328189462423325
0.009600700810551643
0.013843039982020855
0.0408073328435421
-0.024021491408348083
0.01405925489962101
0.0374889001250267
0.04524189978837967
-0.02728727087378502
0.052424442023038864
-0.005265106912702322
0.00801081582903862
-0.009182487614452839
-0.019970690831542015
0.054294779896736145
0.03138648718595505
0.040598537772893906
-0.03094584122300148
0.03361612185835838
-0.018938440829515457
0.024641290307044983
0.04118111729621887
0.012402061372995377
0.019961489364504814
0.007129353936761618
-0.009118487127125263
0.03457469865679741
0.011739189736545086
-0.0017116183880716562
0.020237434655427933
-0.012827293947339058
0.008830459788441658
-0.02797115407884121
0.03442176803946495
-0.0011807508999481797
-0.044255755841732025
0.03744775056838989
-0.021377520635724068
-0.033992379903793335
0.017521098256111145
0.0002673128910828382
0.0011407850543037057
0.011432986706495285
0.03278101235628128
0.049834735691547394
0.06094755604863167
0.012505559250712395
0.050562456250190735
0.02790798805654049
0.055163197219371796
0.028785206377506256
0.02695615030825138
0.005179773550480604
-0.009322884492576122
-0.0030344317201524973
-0.029149897396564484
0.06642689555883408
0.049420543015003204
-0.012309412471950054
-0.014894100837409496
0.014061334542930126
0.046499915421009064
0.007563536986708641
-0.01560450904071331
0.05027025192975998
-0.010267341509461403
0.008921882137656212
-0.03031751699745655
0.0466291569173336
0.031929075717926025
-0.0023955872748047113
0.0020644906908273697
0.01923094131052494
0.005919238086789846
0.011054379865527153
-0.0038281623274087906
0.044381797313690186
0.005760375410318375
0.0058480012230575085
0.015515643171966076
-0.0016600186936557293
0.018845077604055405
-0.021862907335162163
-0.008748185820877552
-0.011825659312307835
-0.001733580487780273
0.011828071437776089
0.017388977110385895
-0.0027221280615776777
-0.03598332032561302
0.002212831284850836
0.036444906145334244
0.023910706862807274
0.016704240813851357
-0.034313056617975235
0.034153759479522705
-0.03971434012055397
-0.03472297266125679
9.412688086740673e-05
0.007001214195042849
0.045275215059518814
0.03949269279837608
-0.015456875786185265
-0.018823904916644096
-0.012429790571331978
0.031011736020445824
0.02211584337055683
0.008900861255824566
-0.0021258234046399593
0.02520146779716015
-0.009153598919510841
0.01261770911514759
0.0505957268178463
-0.002080635167658329
0.028168292716145515
0.008847247809171677
-0.025607051327824593
-0.0002861435932572931
0.005137032363563776
0.001866207574494183
0.051782622933387756
0.02893940731883049
-0.027918457984924316
-0.018385587260127068
-0.01947878487408161
-0.006384295877069235
-0.01131838746368885
-0.008773052133619785
0.006071330513805151
0.005305783823132515
0.04214836284518242
-0.034683503210544586
-0.007237703539431095
0.05582532659173012
0.03079596720635891
0.02742297202348709
0.0422331839799881
-0.01765103079378605
0.010116317309439182
-0.010148366913199425
0.004793204367160797
0.005265046842396259
0.0253676176071167
0.0068866354413330555
0.011894387193024158
-0.053499720990657806
-0.05232511833310127
0.05155983939766884
-0.008299744687974453
0.008100330829620361
0.009416203945875168
-0.013024230487644672
0.016769006848335266
-0.042060818523168564
0.0052448962815105915
0.02669612504541874
0.04308833181858063
0.053887031972408295
0.005998680368065834
-0.0109490267932415
0.026463540270924568
0.0037775039672851562
-0.01625695265829563
0.04252728447318077
0.042711950838565826
-0.018679488450288773
-0.013147019781172276
0.007588792592287064
0.01732649654150009
0.031545329838991165
-0.014938377775251865
-0.01118933130055666
0.020937733352184296
-0.020493073388934135
-0.0037580416537821293
0.031078774482011795
0.018166789785027504
0.03129943460226059
0.03814374655485153
-0.003469366580247879
0.01894390396773815
-0.02176089584827423
-0.05950019508600235
-0.02860182709991932
-0.032474543899297714
-0.002953160321339965
0.022423310205340385
0.021450333297252655
-0.004267437383532524
0.008135450072586536
-0.02779347449541092
-0.03866729140281677
0.01402256079018116
-0.036789670586586
-0.022573960945010185
-0.010266396217048168
-0.03289905935525894
0.029908329248428345
0.021307507529854774
-0.04549127817153931
-0.007045297883450985
-0.017826754599809647
-0.027936480939388275
-0.002842439105734229
-0.035249028354883194
0.018052222207188606
-0.03716524690389633
0.009447193704545498
0.017356185242533684
-0.040555860847234726
-0.017839275300502777
0.005715810228139162
0.007217557169497013
-0.044630520045757294
0.030520552769303322
-0.018366219475865364
-0.017409872263669968
-0.006461958400905132
-0.01043763943016529
0.0041115195490419865
-0.043353259563446045
0.02117254212498665
0.017759112641215324
-0.01936267502605915
0.011796009726822376
0.010979578830301762
-0.016073334962129593
0.015326300635933876
-0.032944079488515854
-0.002894283039495349
0.04190259799361229
-0.027596361935138702
-0.04093100130558014
0.003966155927628279
0.04421333223581314
0.022585034370422363
0.0410705991089344
-0.009022310376167297
-0.042210642248392105
-0.01783815212547779
-0.020403485745191574
-0.010374432429671288
0.029721364378929138
-0.013836831785738468
0.019599953666329384
-0.05168342962861061
-0.01916087232530117
-0.036329906433820724
-0.04423302784562111
0.010376413352787495
-0.042429257184267044
0.03223705664277077
0.006474017631262541
-7.26537691662088e-05
-0.05130058526992798
-0.024400023743510246
-0.03560109809041023
0.002563580172136426
0.0073140282183885574
-0.03681247681379318
-0.017211657017469406
0.011960704810917377
-0.009171313606202602
0.004353716969490051
-0.035762254148721695
-0.023402811959385872
0.012552042491734028
-0.012969366274774075
0.03030971623957157
0.010170371271669865
-0.03535905480384827
0.02910832315683365
0.016186337918043137
0.041798919439315796
0.013564195483922958
-0.010030519217252731
0.01043205987662077
-0.003368478501215577
0.02344079315662384
-0.01956036314368248
0.019253375008702278
-0.03616350144147873
-0.017481030896306038
-0.04541932791471481
-0.03009546361863613
-0.014162101782858372
-0.015276108868420124
-0.04391595348715782
0.021758556365966797
-0.023705314844846725
0.007021026685833931
0.029396165162324905
0.044070739299058914
0.007366842124611139
0.032230742275714874
0.005388925317674875
-0.01730756275355816
0.03298496454954147
0.018178099766373634
-0.026678303256630898
-0.004902416840195656
-0.008296679705381393
0.00022508953406941146
0.02937435545027256
0.020071156322956085
-0.023516913875937462
0.029633592814207077
0.02439805492758751
-0.02316919155418873
0.03700776770710945
0.03911510109901428
0.011999121867120266
0.03160088136792183
0.04435611516237259
0.044806692749261856
-0.008467983454465866
-0.03953259438276291
0.003887986531481147
-0.0017848878633230925
-0.011050350964069366
-0.012794649228453636
0.0319218747317791
0.03943860903382301
-0.004396985284984112
-0.015809914097189903
0.0025726857129484415
0.04294412210583687
-0.028536302968859673
0.026804832741618156
0.020805727690458298
-0.0035504933912307024
0.041906051337718964
-0.019205773249268532
-0.024979980662465096
-0.008420722559094429
0.042556282132864
0.018202077597379684
-0.02628476172685623
-0.019642984494566917
-0.03892164304852486
-0.018864192068576813
-0.004728931933641434
0.0028593926690518856
-0.039434999227523804
-0.013607715256512165
-0.030577778816223145
-0.014824622310698032
-0.037612903863191605
-0.060294803231954575
0.004201206844300032
0.0012098834849894047
-0.02216915786266327
0.02757989801466465
0.00493966368958354
0.005119895562529564
-0.002911335788667202
-0.05352466180920601
0.02369949035346508
-0.004681835416704416
-0.0008762476500123739
0.034402377903461456
-0.041485849767923355
0.03064982034265995
0.0004867695679422468
0.02721111848950386
-0.02300596795976162
-0.013892363756895065
0.04153980314731598
-0.0030216099694371223
-0.008009213954210281
0.002060542581602931
-0.013232331722974777
0.044545210897922516
-0.027445219457149506
-0.030075812712311745
0.010292736813426018
-0.009236827492713928
-0.050253964960575104
0.006001472473144531
0.014342589303851128
0.0027322054374963045
0.012985086999833584
-0.00677810562774539
-0.044978078454732895
-0.0073782894760370255
0.05893581360578537
0.04680231958627701
-0.0016338999848812819
0.010616986081004143
0.020606759935617447
-0.020557532086968422
-0.01567615196108818
0.05969653278589249
0.03680756315588951
0.049030423164367676
0.026215044781565666
0.0073612104170024395
0.01840997114777565
0.006189295556396246
0.05478791147470474
0.027197889983654022
-0.00789425428956747
0.020426426082849503
0.010916149243712425
-0.03276871144771576
-0.033116888254880905
0.02658037282526493
0.036861613392829895
-0.038311682641506195
-0.02435329742729664
0.028335170820355415
0.010529871098697186
-0.04762464389204979
0.01379222609102726
0.023346317932009697
0.03153190389275551
-0.025828486308455467
-0.021336238831281662
-0.05545719340443611
-0.023313893005251884
-0.022675402462482452
-0.060839734971523285
-0.04078975319862366
-0.01379134226590395
-0.053385134786367416
-0.04036540165543556
-0.005487294867634773
-0.06065747141838074
0.009065477177500725
-0.0589008629322052
-0.06007624417543411
-0.02139424905180931
-0.05612540617585182
-0.04361869394779205
-0.03252757713198662
-0.021919991821050644
-0.010182940401136875
-0.035688742995262146
0.02141072414815426
0.0011747196549549699
0.01713685505092144
-0.03803171589970589
-0.014679308980703354
0.038786012679338455
0.015914389863610268
0.03568989410996437
0.0019128909334540367
-0.021451815962791443
-0.04895423725247383
-0.04433721303939819
0.028240161016583443
0.003051833948120475
-0.010254927910864353
-0.0169893279671669
-0.015150921419262886
0.014855075627565384
-0.021797848865389824
-0.002764831529930234
0.002589496085420251
0.04935774207115173
-0.023650413379073143
-0.01330116018652916
0.036347538232803345
-0.015329854562878609
0.04580092430114746
-0.03180412948131561
0.019075704738497734
-0.026743242517113686
0.03711125627160072
-0.013951717875897884
-0.020514866337180138
-0.035617645829916
-0.03191698342561722
0.00967617891728878
-0.01847711391746998
0.00012902195157948881
-0.01520975586026907
-0.04576953500509262
-0.02065177634358406
-0.0007466594688594341
-0.01338507141917944
0.020940400660037994
0.012238917872309685
-0.03497369587421417
0.021671956405043602
-0.022768724709749222
0.01313873566687107
0.04957915470004082
0.001735585741698742
0.02943560481071472
0.0071084327064454556
-0.0010802439646795392
-0.016731344163417816
0.02471759356558323
-0.013346088118851185
0.009011328220367432
0.01049862802028656
-0.020301276817917824
0.03508632257580757
0.020200328901410103
0.0407508909702301
0.0011599682038649917
0.029339129105210304
-0.020701851695775986
-0.00892463605850935
0.011182381771504879
-0.012765769846737385
0.039811283349990845
0.019094454124569893
-0.017750386148691177
-0.004313553683459759
0.04909990355372429
0.035459429025650024
-0.004776888061314821
-0.0034767352044582367
0.05512215942144394
-0.029773779213428497
0.042726725339889526
-0.0009514492121525109
0.025807403028011322
0.013421101495623589
-0.0043168338015675545
-0.02249555103480816
0.032087020576000214
0.033649493008852005
-0.00856746919453144
0.012859470210969448
-0.023409277200698853
-0.018120288848876953
0.031100930646061897
-0.021989574655890465
0.0292862169444561
0.0034312973730266094
0.027448514476418495
0.011040404438972473
-0.04259062185883522
-0.013756770640611649
0.0124702462926507
-0.00838262215256691
0.02449374832212925
-0.0021566397044807673
-0.025345027446746826
0.011721296235918999
-0.029236113652586937
0.008078140206634998
-0.032882094383239746
-0.009454934857785702
0.01146676391363144
-0.004370779264718294
-0.03337885066866875
0.00663136038929224
-0.04465845227241516
-0.036410197615623474
0.03938937559723854
-0.00998914148658514
0.025513995438814163
0.008964188396930695
0.018827425315976143
-0.03723011910915375
-0.04148669168353081
0.012387370690703392
0.039415035396814346
-0.005781527608633041
0.02447918988764286
0.011853436939418316
-0.036382220685482025
-0.009961980395019054
0.02232501469552517
0.037180639803409576
-0.004084309563040733
-0.0314764566719532
-0.05787365138530731
-0.001797819510102272
0.003943780902773142
-0.03616294637322426
-0.02704249508678913
-0.005144885275512934
-0.002918618032708764
-0.034247275441884995
0.004180906340479851
-0.04288157448172569
-0.04991508275270462
-0.04391619563102722
-0.012168140150606632
0.033249035477638245
-0.036064278334379196
-0.03541222959756851
-0.03504584729671478
0.01983051747083664
-0.0372091569006443
0.01091836579144001
-0.03261643275618553
0.006192574743181467
-0.010257026180624962
0.025346366688609123
-0.04265911504626274
0.029274318367242813
-0.012599091045558453
0.0021844187285751104
-0.004374079406261444
-0.025791233405470848
-0.02548632025718689
-0.022593192756175995
-0.01285859476774931
0.008203050121665001
-0.02350599132478237
-0.02388896606862545
-0.0025807979982346296
0.018201002851128578
-0.03315529599785805
-0.049580108374357224
-0.0019011939875781536
-0.04387833923101425
-0.025760794058442116
-0.006076823454350233
-0.006028143689036369
-0.0156614501029253
-0.011122869327664375
0.02361733838915825
0.030404547229409218
-0.008236517198383808
0.0290860366076231
-0.031137334182858467
-0.04047724977135658
0.023630356416106224
-0.015191849321126938
0.011308201588690281
-0.0513228103518486
-0.05224016681313515
0.015920527279376984
0.004619188141077757
0.004619365092366934
0.012605933472514153
-0.01718599535524845
-0.04391750320792198
0.02487192489206791
-0.0019565357360988855
-0.03361764922738075
0.026424769312143326
0.021900009363889694
-0.04747462272644043
-0.0242641419172287
-0.019913967698812485
-0.014896346256136894
0.0007146091083995998
-0.02920667454600334
-0.029152607545256615
9.370736370328814e-05
-0.05337803065776825
-0.010989390313625336
-0.04176844656467438
-0.04507242888212204
-0.01360110193490982
-0.0008842021343298256
0.024610670283436775
0.007939108647406101
-0.00873774103820324
-0.047124750912189484
0.01197767537087202
0.02184210903942585
0.019398344680666924
0.015248117037117481
-0.0398070253431797
-0.05004623532295227
-0.01881430111825466
-0.019060758873820305
0.0030180553440004587
-0.040307674556970596
0.022316735237836838
-0.026325395330786705
-0.0069897170178592205
0.019017895683646202
0.02353646047413349
-0.031162720173597336
-0.04270035773515701
0.02918422780930996
0.004596338607370853
-0.05278952047228813
-0.052146002650260925
