-0.06375400722026825
-0.037574801594018936
0.04041806235909462
0.05113813653588295
0.08560297638177872
-0.12634515762329102
-0.056876618415117264
-0.11020093411207199
0.11040404438972473
-0.0018849207554012537
0.0540270134806633
-0.12677288055419922
-0.07625647634267807
-0.005540512502193451
-0.10772202908992767
0.06649979948997498
-0.012131738476455212
-0.1121981218457222
0.061447471380233765
-0.11545683443546295
0.12325911223888397
0.0528406985104084
-0.02835305593907833
-0.11380670964717865
-0.005802604835480452
0.08739933371543884
0.0719543918967247
-0.08746038377285004
-0.07457120716571808
0.12217458337545395
-0.026687949895858765
0.06576888263225555
-0.12946546077728271
0.13008233904838562
0.13454845547676086
-0.03699219226837158
-0.08854392170906067
-0.11619628965854645
0.011715631932020187
-0.11654717475175858
-0.10969262570142746
-0.006919661071151495
0.07806550711393356
-0.04124768450856209
0.025844037532806396
-0.003506383625790477
0.11779157817363739
-0.08778174966573715
0.14522279798984528
-0.10675828158855438
-0.050197724252939224
0.07957979291677475
0.07822726666927338
0.013892251066863537
-0.10745123773813248
-0.041291337460279465
-0.08959125727415085
0.013720901682972908
0.06178295612335205
-0.09932128340005875
0.12510725855827332
-0.015295445919036865
-0.1358949840068817
-0.07107528299093246
-0.01690571755170822
0.02394249103963375
-0.005466282833367586
-0.07560236752033234
-0.035143185406923294
-0.13475079834461212
-0.13873182237148285
-0.09524811059236526
0.08300569653511047
0.12074414640665054
-0.09755471348762512
0.08465978503227234
-0.04581769183278084
0.04811038076877594
0.1252429336309433
0.00831021461635828
-0.08311586827039719
0.10425286740064621
0.03860827535390854
0.02871016412973404
0.051645878702402115
0.022991174831986427
0.13456249237060547
-0.01012689620256424
-0.05133058875799179
0.005138503387570381
0.10116136819124222
-0.027473026886582375
0.09377911686897278
0.04843129962682724
0.05433947965502739
0.10249634832143784
-0.06882578134536743
0.06516547501087189
0.05710675194859505
-0.09118273109197617
-0.04312768206000328
-0.04430276155471802
0.14403356611728668
-0.020180819556117058
0.028118997812271118
-0.008248601108789444
0.09405101090669632
0.1435265690088272
0.08272469788789749
-0.06985178589820862
-0.11617405712604523
-0.04783831164240837
0.07259028404951096
0.13893306255340576
-0.11566092073917389
0.12028052657842636
-0.1264355629682541
-0.0026478159707039595
-0.09198928624391556
0.1449316143989563
0.13153451681137085
-0.011378495022654533
0.06773486733436584
-0.12008296698331833
0.039677925407886505
-0.11004839092493057
0.022548627108335495
0.10059508681297302
-0.011522660963237286
-0.08160240948200226
-0.056475959718227386
0.05821941792964935
-0.12025883048772812
0.01838465966284275
0.10706280171871185
0.06715282052755356
-0.09922134131193161
-0.10493747889995575
-0.09902340173721313
-0.1270594298839569
0.1434333324432373
0.12591145932674408
-0.0753399208188057
0.06545701622962952
-0.06782981008291245
-0.036237072199583054
-0.04774700105190277
0.00041828275425359607
-0.030273642390966415
0.12651048600673676
-0.016409795731306076
-0.022857269272208214
-0.08425723761320114
-0.12438733875751495
0.12868325412273407
0.070399209856987
-0.06232356280088425
0.062029749155044556
0.019822262227535248
-0.0727512538433075
0.1321060061454773
-0.051922935992479324
-0.13209529221057892
0.1261686384677887
0.11051738262176514
0.010873641818761826
0.07631362229585648
0.12995576858520508
-0.059283919632434845
0.06451926380395889
-0.05630742385983467
-0.0931878536939621
0.11448206007480621
-0.047022901475429535
-0.032145481556653976
0.11143852025270462
-0.13394957780838013
0.07454447448253632
-0.13874413073062897
-0.13264857232570648
0.0921931117773056
-0.060305461287498474
0.043808650225400925
-0.02642841637134552
0.12251989543437958
-0.1329711675643921
-0.02657420001924038
-0.01325326506048441
-0.07995694130659103
-0.029898039996623993
0.0072527918964624405
-0.09628543257713318
-0.04927239567041397
0.013996189460158348
-0.08196070790290833
-0.00038404649239964783
-0.07238113880157471
0.013410134240984917
0.09787372499704361
0.13302691280841827
0.06480886787176132
0.10779792815446854
0.11589321494102478
0.014221797697246075
0.020497657358646393
-0.1321265995502472
-0.10669213533401489
-0.08804338425397873
0.10409107804298401
0.09749624878168106
-0.11882170289754868
0.08904073387384415
-0.10891972482204437
-0.10762583464384079
-0.021050605922937393
-0.09601643681526184
-0.04777044057846069
0.019214630126953125
0.1185755655169487
-0.11326764523983002
-0.023943768814206123
0.09120039641857147
0.1237110048532486
0.07964710891246796
0.03891168534755707
-0.04072964936494827
-0.055608153343200684
-0.08065927773714066
0.083580382168293
0.07291080802679062
-0.08101349323987961
-0.01745522767305374
-0.019999228417873383
-0.05950478836894035
0.0017627773340791464
0.11381855607032776
0.07229393720626831
0.12292079627513885
-0.014694579876959324
0.1241120994091034
-0.0012394465738907456
0.010249704122543335
-0.05527133867144585
-0.055487073957920074
-0.07562515139579773
0.018764015287160873
0.05807599425315857
-0.02853401191532612
-0.13700802624225616
0.08363954722881317
-0.06442514806985855
-0.09105578064918518
0.12272011488676071
0.04871393367648125
-0.020464427769184113
-0.091273233294487
0.10346733033657074
0.10307054966688156
-0.021242830902338028
-0.03747781738638878
-0.06594311445951462
-0.07839570939540863
-0.12773743271827698
-0.019445788115262985
-0.12413809448480606
0.1105293333530426
0.10022719204425812
0.07217807322740555
-0.11217670142650604
-0.053976159542798996
0.12781940400600433
-0.04644760116934776
0.0036886604502797127
-0.12060130387544632
0.10533428937196732
0.011216549202799797
-0.07789477705955505
0.049219243228435516
0.08345448970794678
-0.043401140719652176
-0.06049046665430069
0.09549660235643387
-0.09183236211538315
0.029566455632448196
0.026154324412345886
0.037466615438461304
-0.0720781460404396
-0.1043919250369072
-0.017451489344239235
-0.0253670122474432
0.009287847205996513
0.11116784065961838
-0.07620815932750702
-0.12359418720006943
0.05852637067437172
0.1146700456738472
-0.051739323884248734
-0.052681587636470795
-0.015993842855095863
-0.007857881486415863
0.11015917360782623
-0.07026530057191849
0.07831849157810211
0.09101243317127228
-0.13399797677993774
-0.06270109117031097
-0.10372889786958694
0.08325961232185364
-0.12390471249818802
-0.11409824341535568
-0.053862109780311584
0.02443692646920681
0.00039635348366573453
-0.02385394275188446
0.056824423372745514
-0.08261407166719437
-0.07355738431215286
-0.09409035742282867
-0.013663248158991337
-0.018257100135087967
-0.024597393348813057
-0.029145536944270134
0.09668175131082535
-0.11700171232223511
-0.12195829302072525
-0.0073502324521541595
-0.04912422224879265
0.018873319029808044
-0.01565219648182392
0.07492949813604355
-0.00636010617017746
0.12808522582054138
-0.01785753108561039
0.07672854512929916
0.03358568251132965
-0.09516443312168121
0.11261824518442154
-0.1056390330195427
0.0230448879301548
0.018850410357117653
0.045774899423122406
-0.1373792588710785
-0.07209070026874542
-0.09297513216733932
-0.12741316854953766
0.11198202520608902
-0.001532676280476153
-0.08667518198490143
-0.0429551936686039
0.03285789489746094
0.11497463285923004
0.024728747084736824
-0.06399708241224289
0.1254877746105194
-0.006631299387663603
0.07233273983001709
-0.13184405863285065
0.11525045335292816
-0.087417833507061
0.010248597711324692
-0.04033506289124489
0.002607907634228468
-0.10938874632120132
-0.011486857198178768
-0.0968879908323288
-0.08240016549825668
0.09907303005456924
-0.06336483359336853
0.024222753942012787
0.04911227151751518
-0.0835825651884079
0.006822530180215836
-0.07175715267658234
0.08909342437982559
0.07111237198114395
-0.088576540350914
-0.1331750601530075
0.020501963794231415
0.12704922258853912
-0.026314016431570053
-0.0583004392683506
-0.03386908769607544
-0.02019936963915825
-0.08602870255708694
0.05035537853837013
-0.014493048191070557
0.04195069521665573
-0.11992120742797852
0.08353296667337418
-0.05885539576411247
-0.11051776260137558
-0.03418925032019615
0.046793513000011444
-0.098199263215065
0.050098717212677
0.12426409870386124
-0.11568807810544968
-0.01945360191166401
-0.01873612217605114
-0.011896362528204918
0.10860968381166458
-0.06607288122177124
0.020714275538921356
0.011988721787929535
0.09292332082986832
0.04554273933172226
-0.09567207843065262
-0.014152868650853634
-0.11110211908817291
-0.0040376558899879456
0.03878931328654289
-0.10200251638889313
0.09173581749200821
0.10448870807886124
0.12014388293027878
0.0810343474149704
-0.04472601041197777
0.09426476061344147
-0.10673198103904724
-0.1593356728553772
0.13245640695095062
-0.06821111589670181
-0.057636626064777374
0.022572781890630722
0.07375165820121765
0.03658652678132057
-0.1561327576637268
0.10844241827726364
-0.127375990152359
0.00033823709236457944
0.09120801836252213
-0.08071400225162506
0.0684257373213768
0.08339329063892365
0.06425369530916214
0.12292545288801193
0.06960085034370422
0.08162052184343338
-0.05428936704993248
-0.10206349939107895
-0.16181965172290802
-0.15762223303318024
-0.09426580369472504
-0.0218313317745924
-0.12269081920385361
-0.10500276833772659
-0.08311378210783005
0.03951011225581169
0.07445696741342545
-0.13686563074588776
-0.14291565120220184
-0.10315284132957458
0.03519221022725105
0.042752645909786224
-0.06007959321141243
-0.024713877588510513
0.008213965222239494
0.0997096374630928
-0.008033149875700474
-0.032115817070007324
0.025307245552539825
0.01338988821953535
-0.07157410681247711
0.010973232798278332
-0.056389760226011276
-0.037733662873506546
0.10247063636779785
-0.0032776091247797012
0.050608716905117035
-0.014701818116009235
-0.11924295127391815
0.03626402094960213
0.09960895031690598
0.1111103892326355
0.1379779577255249
0.07447152584791183
-0.08969692885875702
-0.08489049226045609
-0.001253978698514402
0.023482197895646095
0.11620636284351349
0.12390454858541489
-0.08074390143156052
0.03929481282830238
0.0687599629163742
0.00941371824592352
0.14960958063602448
-0.03333820775151253
0.134112149477005
0.12752661108970642
0.09497640281915665
-0.03451964631676674
-0.049002792686223984
0.0921545997262001
-0.07764006406068802
0.0972508043050766
-0.11269494891166687
0.11411860585212708
0.012161343358457088
0.1064949557185173
0.058826006948947906
-0.028444504365324974
-0.12499379366636276
0.12146309018135071
0.10083892196416855
-0.04329833388328552
0.09273729473352432
0.09406875818967819
-0.0004428765387274325
0.11277517676353455
-0.12220533192157745
-0.040961362421512604
0.11345391720533371
-0.09295289218425751
-0.0013671088963747025
0.08824840933084488
0.1283557415008545
-0.028835294768214226
0.12895290553569794
0.024704324081540108
-0.017776567488908768
0.1257687509059906
-0.11036059260368347
0.10240785032510757
-0.04166426137089729
-0.13004626333713531
0.13380104303359985
0.00023359115584753454
0.051761381328105927
0.10361594706773758
-0.12805205583572388
-0.10222018510103226
0.0470338836312294
0.036503326147794724
-0.0803670883178711
-0.032846249639987946
0.05392784997820854
0.024228813126683235
0.032977305352687836
-0.05812295526266098
-0.06888695806264877
0.06855518370866776
-0.09293126314878464
0.02322392724454403
-0.08600704371929169
0.07866664975881577
-0.027451355010271072
-0.12935160100460052
0.005121973808854818
-0.13083909451961517
-0.048655666410923004
0.0037708471063524485
-0.0674150139093399
-0.12238553166389465
-0.07085290551185608
0.09972334653139114
0.08056066185235977
-0.045538529753685
-0.014243654906749725
-0.08722583949565887
-0.00635940209031105
-0.11699473857879639
-0.07852745056152344
0.016673218458890915
-0.014604502357542515
0.08867236226797104
-0.055631909519433975
0.02963298000395298
-0.04621956869959831
-0.10970012843608856
-0.035557668656110764
0.08451143652200699
0.048587873578071594
-0.11938785016536713
-0.05606094002723694
0.09976501017808914
0.0801861360669136
0.0285575520247221
-0.06445075571537018
-0.0972910150885582
0.05755504593253136
-0.12269695848226547
0.07429270446300507
0.06619008630514145
-0.08286485075950623
-0.12909938395023346
0.02463948354125023
0.11885721981525421
0.008740898221731186
0.0240631066262722
-0.13460884988307953
-0.039885081350803375
-0.002109939232468605
-0.0053347330540418625
0.007424089591950178
0.1002451628446579
0.002177563728764653
-0.09472686052322388
0.02062331698834896
0.07614400237798691
0.005452895537018776
0.00831926055252552
-0.05172831192612648
-0.04463811591267586
-0.001695649465546012
0.07557076215744019
-0.037152376025915146
0.10468284040689468
-0.07536875456571579
-0.018215181306004524
-0.004685545340180397
0.06056002527475357
-0.017763443291187286
0.04791465401649475
-0.0443866066634655
0.10436505079269409
-0.14054888486862183
-0.10852370411157608
-0.13147088885307312
0.009777103550732136
-0.055275849997997284
-0.07976242899894714
-0.12812629342079163
-0.03822344169020653
-0.0656733587384224
0.1294347494840622
-0.06754554808139801
0.12993469834327698
0.007919714786112309
0.008065530098974705
0.006984936539083719
0.004671891685575247
-0.09252909570932388
-0.08684785664081573
0.05027055740356445
0.08873908221721649
0.08787770569324493
-0.07470366358757019
-0.07235352694988251
0.13533037900924683
-0.13299953937530518
-0.06391661614179611
-0.0499008484184742
0.10409228503704071
0.03201228752732277
-0.07121577113866806
-0.07182586193084717
0.10099964588880539
0.07461156696081161
0.013952233828604221
0.056107085198163986
0.004233141895383596
-0.12691059708595276
0.004076248034834862
-0.11065121740102768
-0.05926814675331116
-0.05662813037633896
-0.11339511722326279
0.09149930626153946
-0.12000080198049545
0.04543390870094299
-0.08825606852769852
-0.1304657757282257
0.09364143013954163
-0.13051798939704895
0.002477091271430254
-0.05608322098851204
0.09492570161819458
0.009964397177100182
-0.12700042128562927
-0.031649742275476456
0.04652206972241402
0.11828148365020752
-0.059017810970544815
-0.005158016458153725
0.0430697426199913
-0.1334778219461441
-0.1195809468626976
-0.08897092938423157
0.01224803552031517
0.07810146361589432
-0.053251735866069794
-0.047855280339717865
-0.027812739834189415
-0.017618199810385704
0.09098983556032181
0.04940769448876381
0.11066310107707977
-0.10701265186071396
-0.12118533998727798
0.03895414620637894
0.1050933226943016
-0.002451014006510377
0.028878994286060333
0.05976303666830063
0.02012142352759838
-0.07785319536924362
0.10308785736560822
0.12989623844623566
0.12029081583023071
0.01383238099515438
-0.10100064426660538
-0.10765647143125534
-0.13649310171604156
0.08955519646406174
0.05288388207554817
-0.09555725008249283
-0.12017044425010681
0.07773209363222122
-0.04525822028517723
0.094882071018219
0.11917300522327423
0.11935754865407944
0.03477784991264343
0.027076352387666702
0.06315619498491287
-0.06714661419391632
-0.10489233583211899
-0.14348025619983673
-0.07751606404781342
0.05417906120419502
0.02229318767786026
-0.07560303807258606
-0.06160012632608414
-0.05940592288970947
-0.007066152058541775
0.12411376088857651
-0.13894744217395782
-0.06593479216098785
0.011576233431696892
-0.07391675561666489
-0.13671676814556122
0.00020093232160434127
-0.08247573673725128
0.04708876833319664
0.035985067486763
-0.052818696945905685
-0.08543786406517029
0.08076071739196777
0.01885049417614937
0.1114748939871788
0.0667833760380745
0.08760913461446762
0.1044425442814827
0.1344490945339203
0.06100984290242195
0.01959916576743126
-0.12206289917230606
-0.097360759973526
-0.04993867874145508
0.1016644686460495
-0.03887268155813217
0.13370844721794128
0.07330787181854248
-0.0030141829047352076
-0.09874442964792252
0.1222061887383461
0.07646147161722183
0.037243232131004333
-0.04160768911242485
-0.022048871964216232
0.07799353450536728
-0.0015381410485133529
0.086439348757267
0.07054619491100311
-0.0980670154094696
-0.1340847760438919
-0.0006867218762636185
0.13289706408977509
0.11977022141218185
0.0017105897422879934
-0.12710608541965485
0.03255102410912514
-0.0036379056982696056
-0.09694304317235947
0.11286041140556335
0.05745468661189079
0.008797104470431805
0.058837227523326874
-0.09272290766239166
-0.002743929624557495
0.11546772718429565
-0.09066475927829742
0.014496496878564358
-0.07889921218156815
-0.08877155184745789
0.003741949563845992
-0.07078587263822556
0.08077715337276459
-0.04606159031391144
-0.05205092579126358
0.09237436950206757
-0.00271306443028152
0.020728912204504013
0.014628274366259575
0.05487065017223358
0.032506395131349564
0.07561669498682022
-0.10020048171281815
-0.013441109098494053
-0.03823958337306976
0.1171901747584343
-0.07665327936410904
0.0235960204154253
0.104787178337574
-0.09959299862384796
0.035478346049785614
0.06568774580955505
-0.12353343516588211
0.07803895324468613
-0.09586110711097717
-0.12719997763633728
-0.07489271461963654
0.06184781715273857
0.10186247527599335
0.07397078722715378
-0.10586989670991898
-0.0012975953286513686
0.0690847784280777
0.022579096257686615
0.016666343435645103
0.03652641177177429
-0.06584905087947845
-0.10805312544107437
-0.11318812519311905
-0.08226295560598373
-0.13458777964115143
0.020188678056001663
0.11603642255067825
-0.09576985985040665
-0.012829696759581566
0.05083612725138664
0.02429286576807499
-0.13309286534786224
-0.1077350527048111
0.07150226831436157
0.010094039142131805
-0.13740333914756775
-0.10667207092046738
-0.014552227221429348
0.03574676066637039
0.11099298298358917
0.13085803389549255
0.04928731173276901
0.09880779683589935
0.11864709854125977
0.026710767298936844
-0.038026198744773865
-0.06721887737512589
-0.005410241428762674
0.03230614587664604
-0.02416354790329933
0.11568599939346313
0.0783439427614212
-0.0735720619559288
0.004799927584826946
0.08939759433269501
0.11127015203237534
0.08261705189943314
-0.011522877961397171
0.02007831633090973
0.010628237389028072
0.09574577212333679
0.10655258595943451
0.08120331913232803
-0.06964566558599472
-0.10226565599441528
-0.07415559887886047
0.07603172957897186
-0.05914202332496643
-0.10153170675039291
-0.0038173426873981953
-0.11741799861192703
0.05904433876276016
0.018502691760659218
-0.007338431663811207
0.10580165684223175
0.019033091142773628
0.052753377705812454
-8.279203757410869e-05
0.03355226665735245
0.009955257177352905
0.09425464272499084
0.010068136267364025
-0.053227826952934265
0.06435934454202652
0.10883833467960358
-0.04958483949303627
-0.1386382281780243
-0.03125574812293053
0.009943523444235325
0.006192286964505911
0.04013659805059433
0.024238906800746918
0.02433864027261734
0.09026145190000534
0.007560412399470806
0.03834458813071251
-0.04169045761227608
-0.048654403537511826
0.0054999059066176414
-0.01174096204340458
0.07644884288311005
0.008786200545728207
0.10712245851755142
-0.006958960089832544
0.03370622918009758
-0.010983464308083057
-0.047442324459552765
-0.12318365275859833
0.138210728764534
-0.028645258396863937
-0.10525086522102356
-0.0696144625544548
-0.08252406120300293
-0.06703240424394608
0.08906614035367966
0.026150008663535118
-0.06248411908745766
0.1331528276205063
-0.00543937599286437
0.08493932336568832
-0.0023557040840387344
0.06260955333709717
-0.007431578356772661
-0.05912367254495621
0.0800187885761261
-0.005100775044411421
-0.0375404916703701
-0.06833160668611526
0.1288723647594452
0.09693019092082977
0.10251834243535995
0.007783165667206049
0.05099048838019371
-0.04800233617424965
-0.03561514616012573
-0.03128466755151749
-0.12686726450920105
0.04315456375479698
-0.12649159133434296
-0.10214132815599442
0.11044346541166306
-0.07574229687452316
0.05340436100959778
-0.10612797737121582
0.027210619300603867
-0.06121472269296646
-0.08522214740514755
0.036902014166116714
-0.11713580042123795
-0.040162164717912674
-0.06672918051481247
-0.012787333689630032
0.10297584533691406
0.02237684652209282
0.1343386322259903
-0.07998339831829071
0.06332695484161377
-0.08152090758085251
-0.10942891985177994
0.024102486670017242
0.0989629253745079
-0.08918574452400208
0.13167503476142883
-0.10426285862922668
0.04155220836400986
-0.029701581224799156
0.025501184165477753
-0.07948622107505798
-0.11997111141681671
0.119463711977005
-0.08228976279497147
0.02450043521821499
-0.029950790107250214
-0.12314159423112869
-0.03715524077415466
-0.10069846361875534
-0.1338616907596588
0.011301900260150433
0.03924481198191643
0.08617530763149261
0.008801138959825039
-0.10043385624885559
-0.10092444717884064
0.09359347075223923
-0.07112011313438416
-0.06637182831764221
-0.08802992850542068
-0.00607831496745348
0.06850473582744598
0.06338512152433395
-0.09643280506134033
0.05967922881245613
-0.09633199125528336
0.02141403779387474
-0.10336825251579285
-0.1186884418129921
0.0684899166226387
0.016687938943505287
0.014993050135672092
0.06750017404556274
-0.02629188634455204
0.06736747175455093
0.085434690117836
-0.06542203575372696
-0.1337975561618805
0.12472549825906754
-0.1103992685675621
0.06454496085643768
-0.03350760042667389
0.03626955300569534
0.1035606861114502
0.09525666385889053
-0.05512207746505737
-0.053046710789203644
-0.10335112363100052
0.09963611513376236
-0.09475383162498474
0.02273968607187271
0.0703214555978775
-0.08772339671850204
0.10853493213653564
-0.08394895493984222
-0.05060059577226639
-0.07217484712600708
0.07783299684524536
-0.10916288942098618
-0.05980204418301582
0.11493348330259323
-0.0005112240905873477
-0.05043039843440056
0.10624441504478455
-0.126004159450531
-0.12211494147777557
0.08474583923816681
0.034452423453330994
0.12771710753440857
-0.035166334360837936
-0.08402250707149506
0.025574907660484314
-0.07426797598600388
-0.007665824610739946
-0.010650116950273514
0.0337485708296299
0.03072432056069374
0.0012219988275319338
0.00037801326834596694
0.0341397263109684
-0.1461196392774582
-0.09378177672624588
0.015688059851527214
0.03059089370071888
-0.111268050968647
-0.05523354932665825
-0.04504211246967316
-0.04667685553431511
-0.0762103721499443
-0.08537499606609344
0.12075801938772202
0.10952291637659073
0.11564696580171585
-0.021396243944764137
0.05933625251054764
-0.02439284510910511
-0.07842878997325897
-0.10845442116260529
0.008089341223239899
-0.059596650302410126
0.008418572135269642
0.02924092300236225
0.01959359645843506
-0.04162677004933357
0.052510831505060196
0.1426049768924713
0.05430002510547638
0.09056145697832108
-0.12795418500900269
0.03241021931171417
-0.07674328982830048
-0.0027246170211583376
0.08409741520881653
-0.04345079883933067
-0.08886604011058807
-0.08559254556894302
0.09238587319850922
-0.06405122578144073
0.026796188205480576
-0.033603910356760025
-0.002262858673930168
-0.01219352800399065
0.08502722531557083
-0.13369853794574738
0.08918729424476624
0.09741060435771942
-0.10288731753826141
-0.05774640664458275
0.017413992434740067
0.011221428401768208
-0.07312026619911194
-0.08338911831378937
-0.10387010872364044
-0.00035771707189269364
-0.1159881204366684
0.06307733803987503
-0.035612866282463074
0.019324390217661858
0.06433390080928802
0.08534424751996994
0.013461911119520664
-0.08517321944236755
-0.06500387191772461
-0.07955830544233322
0.03433904051780701
-0.042017098516225815
0.01367444172501564
-0.036572813987731934
-0.10065057128667831
-0.06510753929615021
0.13335785269737244
0.07355687022209167
0.06960973143577576
0.045557405799627304
-0.13376811146736145
-0.10058414936065674
0.06606704741716385
0.05622232332825661
-0.0637839064002037
0.03556366264820099
0.06132498383522034
-0.06498595327138901
0.11571595072746277
-0.04160122945904732
0.09512500464916229
-0.08760020136833191
-0.0504581592977047
-0.04600675776600838
0.08856138586997986
0.04427173733711243
0.027168946340680122
0.02437756396830082
-0.14050564169883728
-0.057611968368291855
0.001017063739709556
0.028577566146850586
-0.018314115703105927
0.05384454131126404
0.0729069709777832
-0.09460993111133575
-0.0738818496465683
0.022312255576252937
-0.08240018039941788
0.09030599147081375
0.128714457154274
0.09383979439735413
-0.08320934325456619
-0.08872593194246292
-0.04101145640015602
-0.03877916932106018
0.1348399668931961
0.02311469428241253
0.14057332277297974
0.0026381455827504396
-0.03850062936544418
0.0037073229905217886
0.08969312906265259
-0.11961333453655243
0.02490735985338688
0.12144584953784943
-0.030143434181809425
0.027170417830348015
-0.06879068166017532
-0.0755850151181221
-0.097682885825634
0.0016792117385193706
-0.0951126366853714
-0.0745466947555542
-0.10850714147090912
0.0541326068341732
0.12668724358081818
-0.03422364220023155
0.0022576856426894665
-0.03263849392533302
0.033966559916734695
0.052477914839982986
-0.11456538736820221
-0.03205585479736328
-0.08114443719387054
0.05772345885634422
-0.05934040993452072
-0.008739938959479332
-0.020196612924337387
0.06747961044311523
-0.003583765123039484
-0.12186561524868011
0.10959836840629578
-0.060924239456653595
0.04002595320343971
0.034641388803720474
-0.1455627828836441
0.0098840007558465
-0.07333487272262573
0.06837742030620575
0.07525684684515
-0.12916231155395508
-0.12455453723669052
0.09858189523220062
0.06137736141681671
0.034909363836050034
0.029185861349105835
0.1058228611946106
-0.036842141300439835
-0.08063267171382904
0.01705741137266159
-0.07747882604598999
-0.07667674869298935
-0.07926838845014572
0.13251127302646637
-0.13944749534130096
0.0848153755068779
-0.12947964668273926
0.09672761708498001
0.07336480915546417
0.04702404513955116
-0.09274531155824661
0.04255402833223343
-0.008406772278249264
0.007363492157310247
0.07871493697166443
0.016983002424240112
0.08868741244077682
-0.07552109658718109
0.12012667208909988
0.11884430795907974
0.13731147348880768
-0.10967601835727692
-0.013902307488024235
0.021850423887372017
-0.11901810765266418
0.12827642261981964
-0.12525363266468048
0.08343707025051117
0.028347808867692947
-0.0640048161149025
-0.11796314269304276
-0.10559114813804626
0.08378676325082779
0.12049216032028198
0.10335434973239899
-0.08108174800872803
0.03648272529244423
0.12369899451732635
-0.10761622339487076
-0.04174784570932388
-0.06551094353199005
0.1287636011838913
0.1269906461238861
-0.11669372022151947
-0.09859345108270645
0.05932600796222687
-0.11839237809181213
-0.10527123510837555
-0.046011410653591156
-0.050688400864601135
0.09480441361665726
-0.0971260815858841
-0.07614827901124954
-0.11995217204093933
0.032980646938085556
-0.06103631481528282
-0.06833335012197495
0.04096801578998566
-0.04308580234646797
-0.0248673465102911
-0.055788297206163406
-0.06628464162349701
-0.08356878161430359
-0.06629715114831924
0.015431360341608524
-0.10724422335624695
0.09976701438426971
0.10492489486932755
-0.13295556604862213
-0.052692338824272156
0.03667723014950752
-0.11079538613557816
-0.1038827896118164
-0.011319798417389393
-0.059247229248285294
0.12305662781000137
-0.07612637430429459
0.11100315302610397
0.12191398441791534
-0.0026745402719825506
0.09394373744726181
-0.09187931567430496
0.0006761387921869755
0.11875269562005997
-0.08254336565732956
-0.08206457644701004
0.049570489674806595
-0.09999775886535645
-0.12589824199676514
-0.01035990472882986
-0.019916657358407974
0.1356496810913086
0.07205668091773987
-0.08566772192716599
0.08401132375001907
-0.08941121399402618
-0.12022101134061813
-0.043345943093299866
0.12909820675849915
0.11415426433086395
-0.023598451167345047
-0.018872682005167007
-0.03677676245570183
0.05862100422382355
-0.12600088119506836
-0.002351389266550541
-0.0029196804389357567
0.11025166511535645
-0.03503438085317612
-0.019453750923275948
-0.08224169164896011
-0.11005078256130219
-0.021197840571403503
-0.027772387489676476
-0.08705960214138031
-0.0659370869398117
0.03596312552690506
-0.1143803745508194
0.10064038634300232
0.01920694299042225
-0.02583366632461548
-0.02350630983710289
0.09106381982564926
0.06395196914672852
-0.00014898479275871068
0.08427112549543381
-0.10991661250591278
-0.09783817082643509
-0.021054241806268692
-0.09569766372442245
-0.005243986379355192
-0.043498337268829346
0.03406858071684837
0.09487240016460419
-0.10544447600841522
-0.01189085841178894
-0.055428773164749146
0.0940077155828476
0.1295725554227829
0.01664724200963974
0.06880870461463928
-0.08760035783052444
-0.07908658683300018
-0.04827846214175224
0.01313345693051815
0.0373489148914814
0.09344852715730667
0.05605808272957802
0.01239003986120224
-0.1409899890422821
-0.04517514631152153
-0.10031184554100037
0.1295638531446457
0.009674591943621635
-0.022227058187127113
0.10062433779239655
0.061983827501535416
0.08999890089035034
0.10209735482931137
0.10461898893117905
-0.11386888474225998
0.020155275240540504
0.09116049110889435
0.09456856548786163
-0.020986197516322136
-0.01126712653785944
-0.049540940672159195
-0.04244091734290123
-0.10125674307346344
0.012658687308430672
0.03768668696284294
-0.09340965002775192
0.0676947683095932
0.055664461106061935
0.12844306230545044
-0.09887979179620743
0.009228645823895931
-0.04549960047006607
-0.1640336811542511
-0.003121941350400448
-0.10243101418018341
-0.11153026670217514
-0.10951073467731476
-0.018814926967024803
0.032127004116773605
0.0838395208120346
0.028024829924106598
-0.09282981604337692
0.07669096440076828
0.09658491611480713
-0.14419785141944885
-0.058854538947343826
-0.11135440319776535
0.08002248406410217
0.12055191397666931
0.06632031500339508
0.060655027627944946
-0.03789551183581352
-0.1343129277229309
-0.05285683646798134
0.1311587393283844
-0.10704435408115387
0.11077970266342163
0.12354838103055954
-0.06117483973503113
-0.07313362509012222
-0.00013108535495121032
0.10851315408945084
0.06404846906661987
-0.03826407343149185
-0.05296986550092697
0.022971084341406822
-0.02816503867506981
-0.09324666857719421
-0.08229038119316101
-0.055016350001096725
0.07337917387485504
-0.10495181381702423
-0.08042488247156143
-0.013260074891149998
-0.12856167554855347
0.09987109899520874
-0.04900022968649864
-0.04712357744574547
-0.00467977300286293
0.06302010267972946
-0.07786986976861954
-0.03469409793615341
-0.07456955313682556
0.0921032652258873
0.018847815692424774
0.12181723862886429
-0.052360083907842636
-0.07157521694898605
0.057255156338214874
0.09010132402181625
-0.0037066093645989895
0.1190299466252327
0.11542155593633652
0.020087361335754395
0.01907273754477501
0.12243079394102097
0.0902365893125534
-0.06832516938447952
0.11662217229604721
-0.011160719208419323
-0.037423379719257355
0.08367306739091873
0.08765712380409241
0.10938934236764908
0.07872029393911362
-0.12319154292345047
-0.11497114598751068
-0.11126283556222916
-0.02512373961508274
-0.022468943148851395
0.11796727776527405
0.0355505608022213
-0.030949346721172333
-0.050634391605854034
0.020243462175130844
-0.014919248409569263
-0.12704020738601685
-0.018766246736049652
-0.11320450156927109
0.05044886842370033
-0.07095419615507126
0.04938521608710289
0.11754479259252548
-0.04999589920043945
0.0704650804400444
-0.12491020560264587
-0.11766897141933441
-0.048523228615522385
0.09714622795581818
-0.12384670972824097
-0.0022885059006512165
-0.12095365673303604
0.05934133753180504
0.11984016746282578
-0.04831380024552345
-0.09313784539699554
-0.02374163269996643
-0.10676071792840958
0.01849558763206005
-0.06312520802021027
-0.05195848271250725
0.0023113107308745384
0.10359423607587814
-0.034728873521089554
0.07487127184867859
-0.08070842176675797
-0.13255015015602112
-0.0733073428273201
0.11230602115392685
0.05997444689273834
0.09168058633804321
0.08820068836212158
-0.035212963819503784
-0.06561416387557983
0.0613386407494545
-0.09152066707611084
0.010023512877523899
0.016678500920534134
0.08700907230377197
-0.0337793193757534
0.11451894789934158
-0.08248447626829147
0.030642425641417503
-0.05727088823914528
-0.12785418331623077
0.04634154960513115
0.06279854476451874
-0.077338308095932
0.024998821318149567
-0.08015859127044678
0.02880490943789482
-0.047215353697538376
-0.006346328649669886
-0.04138139262795448
-0.08941884338855743
-0.039323560893535614
0.07700315862894058
-0.006350308656692505
0.012205326929688454
-0.019856957718729973
0.04471782222390175
-0.006176801864057779
-0.07746782898902893
0.006594676990061998
-0.1267358809709549
0.1070314422249794
-0.06157292053103447
-0.06325015425682068
0.07693030685186386
0.10472691804170609
0.0930970162153244
-0.09659644961357117
0.09698323905467987
-0.03235727548599243
-0.04353738948702812
0.12773476541042328
-0.026676585897803307
-0.028507374227046967
0.10802102088928223
0.11993105709552765
0.044439032673835754
0.11734873056411743
0.03583524748682976
-0.004762074910104275
0.07008737325668335
0.00973396934568882
0.1025596633553505
0.0317070297896862
0.14723160862922668
0.09834672510623932
-0.06980502605438232
0.01433559786528349
-0.02907867543399334
0.06841664016246796
0.08086619526147842
0.09157533943653107
-0.06912752985954285
-0.12296716123819351
-0.07206027954816818
-0.1299152374267578
-0.045467689633369446
-0.08861330151557922
0.10613488405942917
0.09734345972537994
-0.12189251184463501
0.04323677346110344
-0.006258595269173384
-0.060651302337646484
-0.07624092698097229
0.01051251869648695
-0.029859771952033043
0.09518123418092728
-0.04588666185736656
0.03877629339694977
0.05187693610787392
0.03841617703437805
-0.027098670601844788
0.09891700744628906
-0.10804690420627594
-0.06739848852157593
0.022338174283504486
0.06927898526191711
-0.11136103421449661
-0.03158927336335182
-0.017659151926636696
-0.10913456231355667
-0.040234144777059555
0.040481459349393845
0.05344574898481369
0.051370956003665924
-0.01135232299566269
0.10284968465566635
-0.04623418301343918
-0.11749186366796494
0.09773457050323486
-0.060691457241773605
-0.13028326630592346
0.018768223002552986
-0.07918692380189896
0.07397326081991196
-0.053469572216272354
0.08775539696216583
-0.011314923875033855
0.019088301807641983
-0.009432482533156872
0.07870544493198395
0.019215112552046776
-0.010542932897806168
0.03638095781207085
-0.10266174376010895
-0.1337098330259323
0.10555024445056915
0.07431644946336746
-0.0801268219947815
0.11400154232978821
0.13197475671768188
0.06109416484832764
-0.026766769587993622
-0.1318517029285431
0.06041300669312477
-0.011636687442660332
-0.10245821624994278
0.0752694234251976
-0.007927053608000278
0.086351677775383
0.12852752208709717
0.10358919948339462
0.06921055167913437
-0.11262179911136627
0.11114303022623062
-0.08768294006586075
0.07451031357049942
-0.10833068937063217
-0.11447589844465256
0.01670007035136223
0.04604430869221687
-0.02324160747230053
0.016663871705532074
0.12425252795219421
0.05860342085361481
-0.007599485106766224
0.1053345799446106
-0.10236261039972305
0.03470553830265999
-0.09506433457136154
-0.060972537845373154
-0.00931548047810793
-0.06132528558373451
-0.10992278158664703
-0.12295389920473099
-0.08684493601322174
-0.10948719084262848
0.02738620899617672
-0.134229838848114
0.10849472135305405
-0.10115532577037811
-0.07316169142723083
-0.06679915636777878
0.1100926622748375
0.07569395005702972
-0.06902840733528137
-0.1201261654496193
-0.08105514943599701
0.0450085885822773
0.09678918123245239
0.03721974045038223
0.06946593523025513
-0.08861786872148514
0.007036292459815741
0.011906515806913376
-0.021179089322686195
0.05569295212626457
-0.023041367530822754
0.0714435949921608
-0.10605568438768387
0.1083308756351471
0.0005012500914745033
-0.11823248863220215
-0.11347776651382446
-0.03740067407488823
0.052351441234350204
-0.01516757532954216
0.09540664404630661
0.11398527771234512
-0.01245841197669506
0.09074343740940094
0.09134530276060104
-0.06965719908475876
-0.0960063710808754
0.1124645471572876
-0.04736822098493576
0.125652015209198
-0.08457712084054947
-0.0038303828332573175
-0.018745828419923782
0.01535461563616991
0.05886007845401764
0.03435162827372551
0.03608667477965355
-0.08963943272829056
-0.09500860422849655
-0.06803449988365173
-0.04192883521318436
0.01238001137971878
0.05876205861568451
-0.12076740711927414
0.13377217948436737
0.12359532713890076
-0.08219000697135925
0.0014312358107417822
-0.08389115333557129
-0.061068300157785416
0.019155802205204964
0.029844949021935463
0.055751729756593704
0.09414199739694595
0.09840773791074753
0.10617397725582123
-0.07667923718690872
-0.024831384420394897
0.025380633771419525
0.04357980191707611
-0.03549332171678543
-0.05402868986129761
-0.03455781936645508
0.0008106245659291744
-0.009359344840049744
-0.09908581525087357
0.08056818693876266
-0.07399556785821915
-0.023687835782766342
-0.014362956397235394
0.08559191972017288
-0.07879741489887238
-0.027277089655399323
0.08495350927114487
0.10967858880758286
-0.011994986794888973
-0.04114549607038498
0.07279806584119797
0.10233898460865021
0.027091722935438156
-0.06557109206914902
0.08827821165323257
0.1048680990934372
-0.14522875845432281
-0.03574574738740921
0.07691287994384766
-0.050524093210697174
0.12785877287387848
0.017196647822856903
-0.1108180582523346
-0.03192203864455223
-0.06863346695899963
0.07476801425218582
0.04171879217028618
0.014749419875442982
-0.048378705978393555
-0.048402220010757446
-0.022187020629644394
0.055816054344177246
0.06343145668506622
0.0629420354962349
0.08108410239219666
0.15045681595802307
-0.10788629949092865
-0.055400487035512924
0.029960280284285545
-0.13013465702533722
0.004892332013696432
-0.06139283627271652
0.031090782955288887
-0.0687134712934494
-0.13449415564537048
-0.0724029541015625
-0.039940860122442245
0.09199944138526917
0.11846230179071426
0.07881619036197662
-0.09330930560827255
0.02872898429632187
-0.1214214414358139
0.09491480886936188
0.1282634437084198
-0.03840877115726471
0.13900627195835114
0.06697452068328857
-0.12403853982686996
-0.09184030443429947
-0.10742563754320145
-0.0156839769333601
0.05134107545018196
0.09209862351417542
-0.04856276139616966
0.04498472064733505
-0.06371918320655823
0.06223693862557411
0.0032940986566245556
0.0638607069849968
0.116622693836689
-0.08142349869012833
0.061406832188367844
-0.056218355894088745
0.033217404037714005
0.09079788625240326
-0.09754256904125214
-0.011700956150889397
0.06657929718494415
-0.09924384951591492
-0.036558087915182114
0.026481959968805313
0.041156988590955734
-0.03123437985777855
0.0618785060942173
-0.06209558993577957
-0.09703688323497772
0.12017879635095596
-0.1293339729309082
-0.013010204769670963
-0.06236482784152031
-0.09194266051054001
-0.12241557985544205
-0.1295165717601776
-0.13365788757801056
0.023449731990695
0.12653818726539612
0.1072986051440239
-0.08432646840810776
-0.11251046508550644
-0.09142503887414932
-0.11559990048408508
-0.0977143868803978
-0.1085602268576622
-0.06131153181195259
0.1150544285774231
0.05960565060377121
-0.12335003167390823
-0.052076492458581924
0.07799311727285385
0.07761405408382416
0.1196071207523346
-0.046675052493810654
0.09016984701156616
0.05476384982466698
-0.10940717905759811
0.07448966801166534
0.02759338729083538
0.1091456264257431
0.0019710988271981478
-0.011653927154839039
0.04288795217871666
-0.11855746060609818
0.023076308891177177
-0.017062390223145485
0.03581250086426735
-0.12604236602783203
-0.09412495791912079
-0.0772550106048584
-0.029989825561642647
0.10652206093072891
0.10909649729728699
0.12884053587913513
-0.0494261272251606
0.0348808616399765
-0.06486830115318298
-0.03647780045866966
0.1284913718700409
-0.11773218214511871
-0.027114279568195343
-0.11689487099647522
0.0001700735738268122
0.05068593844771385
-0.0832415372133255
0.12170488387346268
-0.013111806474626064
-0.10625836253166199
-0.10756706446409225
-0.13009001314640045
-0.05451525002717972
-0.05649349093437195
-0.06337335705757141
0.12384893000125885
-0.11060304194688797
0.0333080030977726
-0.09369207173585892
0.02267620526254177
-0.10351329296827316
-0.07710227370262146
-0.017927853390574455
-0.03543474152684212
0.11980403959751129
0.0585191436111927
-0.03005407191812992
0.05914611369371414
-0.058711253106594086
0.0716337338089943
0.028638925403356552
-0.03217058628797531
0.047414373606443405
-0.1359570324420929
-0.08369885385036469
0.05235666409134865
0.07414615899324417
-0.11466429382562637
0.11648700386285782
0.012480643577873707
-0.10994836688041687
0.05224044248461723
-0.06436111032962799
-0.010747923515737057
0.04159058630466461
-0.030319450423121452
0.10613706707954407
0.10368140041828156
-0.014113903045654297
0.02389375865459442
-0.058604877442121506
-0.08702605217695236
0.08823931217193604
-0.12363547086715698
0.1022600308060646
0.009116685949265957
0.008277377113699913
-0.07589495927095413
0.021917300298810005
0.0021993303671479225
0.08589155226945877
0.08533845096826553
0.030761102214455605
0.004085535183548927
-0.11573096364736557
-0.019619518890976906
0.024948328733444214
-0.0763264074921608
-0.13490766286849976
-0.08076687157154083
-0.03976702690124512
-0.08104676008224487
-0.14094612002372742
0.10757436603307724
0.01165709923952818
-0.010969425551593304
0.09150124341249466
0.11150030791759491
0.10942516475915909
-0.05611550435423851
-0.009331678040325642
0.057438578456640244
0.04993279278278351
0.04520164802670479
0.06242654472589493
0.05680910497903824
-0.017405634745955467
0.1054101213812828
0.08041094988584518
-0.13679823279380798
0.057037241756916046
-0.028580233454704285
-0.023430820554494858
-0.06266947090625763
-0.07652305066585541
0.10277015715837479
-0.036918479949235916
0.10497711598873138
0.1061381921172142
-0.09652543812990189
-0.039858680218458176
0.10738319903612137
0.12261411547660828
-0.04263777285814285
-0.11624360084533691
0.10041450709104538
-0.1252157837152481
-0.1112029105424881
0.08635604381561279
-0.09563948214054108
-0.01761002652347088
0.11714546382427216
0.12205635011196136
-0.12613841891288757
-0.09948909282684326
0.0420912429690361
-0.03608617186546326
0.026929186657071114
-0.11635120958089828
0.050203051418066025
-0.12485160678625107
-0.01673133857548237
-0.0991625040769577
0.12193673104047775
-0.1501970887184143
0.11060302704572678
-0.07030496746301651
-0.019688181579113007
0.00451559666544199
0.12993232905864716
0.06427212059497833
-0.07235195487737656
-0.08941972255706787
0.09827371686697006
0.017667153850197792
0.036041971296072006
-0.0018450072966516018
0.05005015805363655
-0.12192030251026154
-0.04078378900885582
-0.07111446559429169
-0.04736534506082535
-0.030362220481038094
0.008109867572784424
-0.008323706686496735
-0.06952963024377823
-0.07447212934494019
0.12441311031579971
-0.10829044878482819
-0.08591394871473312
0.08361589908599854
-0.1194918304681778
0.009357127360999584
0.1130208820104599
-0.02628771960735321
0.09974513947963715
0.07367461919784546
-0.016254696995019913
-0.045712731778621674
-0.12917745113372803
-0.1191764622926712
-0.07250109314918518
-0.053748831152915955
0.13952460885047913
0.06911660730838776
0.0780656561255455
0.015407813712954521
0.0289083793759346
-0.12993256747722626
-0.04270590469241142
0.011878328397870064
0.10875242203474045
0.04308518394827843
-0.0633057951927185
-0.12715686857700348
0.01814250275492668
-0.12169303745031357
0.11576288193464279
-0.04933065548539162
0.03150583803653717
-0.08394874632358551
-0.04412807524204254
0.01362917385995388
0.03260130062699318
-0.023558663204312325
-0.11650452762842178
-0.09544074535369873
-0.07090527564287186
0.11437159776687622
0.10145723819732666
-0.0024134728591889143
0.07868533581495285
0.09820280969142914
-0.07680962979793549
-0.018949275836348534
-0.012247929349541664
-0.03151416406035423
-0.026032213121652603
0.12066278606653214
0.07333279401063919
-0.08442185074090958
-0.14347001910209656
0.0483861081302166
0.05113712698221207
-0.08102478086948395
0.012849193997681141
-0.07874676585197449
-0.013038777746260166
-0.04342680424451828
-0.02219465561211109
0.0037111889105290174
0.03673912584781647
-0.04930754378437996
0.0918569415807724
0.07969006150960922
0.12530142068862915
0.07481274753808975
-0.09370016306638718
-0.017930012196302414
0.1399325430393219
-0.07167477160692215
-0.1250716596841812
0.002292421879246831
0.07021529227495193
-0.005564621649682522
0.06493932008743286
-0.04751851409673691
-0.03516930341720581
-0.04184313863515854
0.1042909249663353
0.020711807534098625
0.0804598480463028
0.06863917410373688
0.12817463278770447
0.10449213534593582
0.016330787912011147
0.002038142178207636
0.10573084652423859
-0.009563191793859005
0.05719340965151787
0.058188099414110184
0.02173168584704399
0.07625667750835419
0.06913318485021591
-0.030220504850149155
-0.11004430055618286
0.12110187858343124
-0.0717703104019165
-0.021379409357905388
0.09899134933948517
-0.09264031052589417
0.018335090950131416
0.052466828376054764
0.07129646837711334
0.0636114850640297
0.0797002762556076
0.11069100350141525
-0.04524056613445282
0.029498573392629623
-0.0031458723824471235
0.0774897113442421
0.05072971060872078
0.0983741506934166
-0.014888269826769829
0.1107049360871315
0.05551028251647949
-0.02532450668513775
-0.06849247962236404
-0.06143415346741676
0.11499034613370895
-0.11171101033687592
-0.04854900389909744
-0.03913332149386406
0.08320634812116623
-0.015971124172210693
0.043669525533914566
0.09531871974468231
-0.10265224426984787
0.07171019166707993
-0.11357185244560242
0.02311500906944275
0.10353654623031616
0.05136214196681976
-0.07715503126382828
-0.06841541826725006
0.06594467908143997
0.10808633267879486
-0.09671220928430557
0.06226963922381401
-0.04628948122262955
0.09859973192214966
-0.038788750767707825
-0.08553244918584824
0.06343309581279755
-0.13714762032032013
0.01740625500679016
-0.09614235907793045
0.027648072689771652
-0.11845328658819199
0.11246880888938904
-0.0360085666179657
-0.11705465614795685
-0.10703406482934952
-0.07077214121818542
0.10901951789855957
-0.010537206195294857
-0.05111629515886307
-0.138413667678833
-0.09700552374124527
-0.020433252677321434
0.08602164685726166
-0.0023574193473905325
0.012900648638606071
-0.00042666957597248256
0.02122531644999981
0.11407089233398438
-0.13323329389095306
0.09358476847410202
0.009152323007583618
-0.06733015924692154
0.035935405641794205
0.009847822599112988
-0.02233794331550598
0.02789810486137867
-0.15246756374835968
-0.12635017931461334
-0.04210403561592102
0.11536699533462524
0.0447799414396286
0.11571667343378067
0.06313572824001312
0.009593597613275051
-0.13276225328445435
-0.005047870334237814
0.0863955020904541
0.012702640146017075
-0.10085072368383408
-0.1267150342464447
-0.042388252913951874
0.04129917174577713
0.14158746600151062
-0.05105603486299515
-0.050710663199424744
-0.015369745902717113
0.07986847311258316
-0.07010040432214737
-0.01271297037601471
-0.0814327672123909
-0.055690109729766846
-0.07472842931747437
0.09554760158061981
-0.09634964168071747
-0.13396809995174408
0.058523789048194885
-0.06524470448493958
0.1264791488647461
0.0807611346244812
0.08239186555147171
0.0066619389690458775
0.08594778180122375
0.010242221876978874
0.05617811530828476
0.06780926883220673
0.10563456267118454
0.014196493662893772
0.10718868672847748
0.09088318794965744
-0.1143721416592598
-0.07097001373767853
-0.06199716776609421
-0.038698241114616394
0.05518874526023865
0.028688399121165276
0.13898113369941711
-0.01230146549642086
0.12030881643295288
-0.09449252486228943
0.04489097371697426
0.04293840005993843
-0.11947374790906906
-0.04453646391630173
0.062261562794446945
-0.12091076374053955
-0.13652203977108002
-0.11087262630462646
0.0994204580783844
0.10801337659358978
0.02506840229034424
0.007645374163985252
0.008706856518983841
-0.005939930211752653
-0.07096148282289505
-0.02723006345331669
-0.13278821110725403
-0.001942089875228703
-0.06644727289676666
-0.01754090189933777
-0.046267203986644745
-0.09553411602973938
-0.07572067528963089
-0.08128752559423447
-0.0840965285897255
0.01584601402282715
0.08376939594745636
-0.06004802882671356
-0.012098063714802265
0.018754079937934875
-0.05881064012646675
-0.010583668947219849
-0.05631968751549721
0.09774068742990494
0.09461304545402527
-0.030022408813238144
0.1358845978975296
0.06585273146629333
0.09738631546497345
0.14502249658107758
0.057638052850961685
0.038326673209667206
-0.039312418550252914
0.0778011679649353
-0.0014347629621624947
0.040980029851198196
-0.05972566083073616
-0.1380176693201065
0.09595589339733124
0.0832325890660286
-0.053627047687768936
0.12709791958332062
0.1264035701751709
-0.1026073694229126
0.01190358679741621
-0.0017858099890872836
-0.09477583318948746
-0.09115453064441681
0.126156747341156
-0.11081511527299881
-0.010611261241137981
-0.02028822712600231
-0.027581144124269485
0.13118651509284973
0.12473048269748688
0.015409673564136028
-0.06781649589538574
0.08391378819942474
-0.08439544588327408
0.10977471619844437
-0.1003103256225586
-0.10182353854179382
-0.037375982850790024
0.09063826501369476
-0.0626068040728569
-0.006708826869726181
0.0863969549536705
0.009677605703473091
0.007393255829811096
0.03405866026878357
0.12765757739543915
0.12241031229496002
0.019522612914443016
0.08358850330114365
-0.09675576537847519
-0.11018669605255127
0.015766961500048637
-0.08316195011138916
0.11032436043024063
0.11590100824832916
0.025959545746445656
-0.05998129025101662
0.10820330679416656
-0.06606630235910416
0.10200931131839752
-0.028971973806619644
0.034894317388534546
0.056698817759752274
-0.004963990300893784
-0.014077023603022099
0.027523482218384743
0.050602369010448456
-0.10184761136770248
-0.11818841099739075
0.012503240257501602
0.011782702058553696
-0.023593122139573097
-0.038895584642887115
0.06294378638267517
0.09771357476711273
0.0734032467007637
-0.10440970957279205
0.12494613230228424
0.08753945678472519
0.07344329357147217
0.08684922754764557
0.05922814831137657
-0.12812036275863647
0.07666800916194916
0.035079821944236755
0.00432976009324193
-0.13364796340465546
-0.023568734526634216
-0.08724841475486755
-0.11667172610759735
0.00019224907737225294
0.06151276081800461
-0.002270414726808667
-0.0017490015598013997
-0.02335399016737938
-0.13539902865886688
-0.1169402003288269
-0.13338351249694824
0.036332327872514725
-0.09469641000032425
0.04545162618160248
-0.11943428963422775
0.034303970634937286
-0.07263641059398651
0.06806222349405289
0.1142842248082161
-0.024335434660315514
-0.08442302793264389
-0.01952907256782055
0.06410045921802521
-0.06406597048044205
-0.080603688955307
-0.06633017212152481
0.07669619470834732
-0.09392452239990234
-0.04404523968696594
0.13988591730594635
0.08034764230251312
0.045937810093164444
0.10288028419017792
-0.07949089258909225
0.08391532301902771
-0.08182461559772491
0.11527733504772186
-0.11721514165401459
-0.05309112370014191
0.008872241713106632
-0.12212599813938141
-0.06606762111186981
-0.04532570764422417
-0.08236775547266006
0.05341925472021103
0.05191933363676071
-0.0590495802462101
-0.10188598185777664
-0.13143450021743774
0.07362852245569229
0.051119934767484665
-0.12494629621505737
-0.11589188128709793
0.02895948477089405
0.04369751363992691
-0.0896870344877243
0.04401020333170891
0.1122978925704956
-0.121750608086586
-0.1322827786207199
0.025365566834807396
-0.058503370732069016
0.12281733006238937
0.04759597033262253
-0.10765340179204941
-0.08335552364587784
-0.130198672413826
0.12705816328525543
0.01730627752840519
0.06710363179445267
0.1188456192612648
-0.011097265407443047
0.07913283258676529
-0.001096386811695993
-0.05184103175997734
-0.006950317416340113
0.027913518249988556
-0.10327806323766708
-0.079006627202034
-0.15254436433315277
-0.13528858125209808
0.10732904821634293
-0.015935130417346954
0.046106718480587006
0.11547364294528961
0.023123178631067276
0.08709999173879623
0.06923262774944305
0.06412411481142044
0.11339251697063446
0.0009234739700332284
-0.05221182852983475
0.09600953012704849
-0.11167854815721512
-0.1384202092885971
0.07787355780601501
0.07075728476047516
-0.08787377178668976
0.08108578622341156
-0.02551291510462761
-0.0601605623960495
0.09503941237926483
-0.01198357529938221
-0.12449026107788086
-0.09211406111717224
0.03427358716726303
-0.05390040576457977
-0.027802076190710068
0.03630353510379791
0.04236331954598427
-0.12088757753372192
0.016668299213051796
0.14166784286499023
0.13263975083827972
0.01596113294363022
-0.058339923620224
-0.11541090160608292
0.04061301425099373
-0.04560788348317146
0.09669794142246246
-0.08227427303791046
-0.0065536294132471085
-0.10831087827682495
-0.12515206634998322
-0.1115460991859436
-0.12678006291389465
-0.10773943364620209
-0.06453462690114975
0.07101716101169586
-0.08875048160552979
0.09012028574943542
0.07728549838066101
0.017919162288308144
-0.0329451709985733
0.0006346998852677643
0.08656978607177734
-0.11087871342897415
-0.007572684437036514
-0.07886571437120438
0.10278419405221939
0.10486018657684326
0.07878760248422623
0.040052447468042374
-0.07143465429544449
-0.05895881727337837
-0.03077748790383339
0.09372488409280777
0.08673841506242752
-0.12326842546463013
0.03395318612456322
0.004144960083067417
0.08722496777772903
0.0733514130115509
-0.0201756302267313
-0.019181955605745316
-0.008966926485300064
0.09027956426143646
-0.10622624307870865
0.04330042004585266
0.006601971574127674
-0.10242298990488052
-0.12164323031902313
-0.08915746212005615
-0.048218779265880585
0.020669985562562943
0.08608366549015045
0.10019239038228989
-0.10449135303497314
0.09989965707063675
0.013029306195676327
-0.04861220717430115
-0.04567901790142059
-0.044464629143476486
-0.08469170331954956
-0.02898332290351391
-0.08582860231399536
0.004917388781905174
0.001619598246179521
0.060249488800764084
0.06773919612169266
-0.0250744316726923
-0.06365545839071274
0.03414264693856239
-0.02408677712082863
0.08303408324718475
0.01677902787923813
0.10693386942148209
-0.09668984264135361
-0.0552264079451561
0.10930299013853073
-0.12918591499328613
-0.1438363790512085
0.08226998150348663
-0.08648482710123062
-0.06245791167020798
0.07739037275314331
-0.06295096129179001
0.11640936881303787
-0.022363217547535896
-0.1217552199959755
-0.003380723064765334
0.007735618855804205
-0.09861120581626892
-0.07510826736688614
0.068311907351017
0.07900981605052948
-0.07225044071674347
-0.10205603390932083
-0.13567209243774414
0.09558501839637756
0.1100040152668953
0.014141342602670193
0.10794506222009659
0.02974018268287182
0.00838889367878437
-0.08517687767744064
0.045891474932432175
0.12412024289369583
0.09967995434999466
-0.07110544294118881
0.017835183069109917
-0.06897023320198059
0.11766756325960159
-0.06033233925700188
0.10362272709608078
-0.028994442895054817
-0.08369897305965424
-0.05546210706233978
0.10210228711366653
-0.07173124700784683
-0.09951848536729813
0.097535640001297
0.018544748425483704
-0.045735832303762436
0.10307151079177856
0.03498964384198189
0.050464849919080734
-0.08912964165210724
-0.10807305574417114
-0.12096775323152542
-0.03688051551580429
-0.04673825204372406
0.06560587882995605
-0.013294173404574394
-0.13342781364917755
-7.780367013765499e-05
0.09230012446641922
0.07390645891427994
0.07284611463546753
0.07546065747737885
-0.060611315071582794
-0.08326485008001328
0.022299140691757202
0.019169820472598076
-0.14030538499355316
-0.007340035401284695
-0.054765909910202026
0.0009715707274153829
-0.0026370880659669638
-0.13010269403457642
-0.053874582052230835
-0.02748188003897667
0.14041933417320251
-0.034638017416000366
0.10393128544092178
0.0039801099337637424
0.010742967948317528
-0.049517497420310974
0.07373706251382828
0.13418926298618317
0.050494901835918427
-0.0639379546046257
-0.1356731355190277
-0.15830178558826447
-0.14400480687618256
0.02266608364880085
0.1361953169107437
0.10028500854969025
0.04764817655086517
-0.050182025879621506
0.03121219016611576
-0.040003519505262375
0.08379089087247849
0.15511231124401093
-0.08533710986375809
-0.08314023166894913
-0.06812792271375656
-0.02714516967535019
-0.07365453243255615
0.11057857424020767
-0.1104586273431778
0.13412463665008545
0.026556337252259254
-0.03364696353673935
-0.03966004401445389
-0.05474573001265526
0.11787417531013489
-0.06927767395973206
-0.007162559777498245
-0.0076163881458342075
0.01396169327199459
-0.04239394888281822
-0.0946759581565857
-0.004110964480787516
0.08952996134757996
-0.07884339988231659
0.05918952822685242
-0.10664398223161697
0.03338855504989624
-0.08178816735744476
0.035818058997392654
-0.0641939714550972
-0.0028169809374958277
0.11866195499897003
0.05459799990057945
0.03630610927939415
0.025534581393003464
0.017658069729804993
-0.07756008207798004
-0.11637775599956512
0.002050388604402542
0.044909290969371796
0.12331681698560715
-0.11937881261110306
0.00010919517080765218
0.04797089844942093
0.11519875377416611
0.05158354714512825
-0.07983195036649704
0.0925687775015831
0.09545575827360153
0.02098027803003788
0.036804813891649246
-0.04695061594247818
-0.04100911691784859
-0.06853479146957397
0.05115709453821182
-0.10280660539865494
0.12826988101005554
-0.0693720355629921
0.09025656431913376
-0.056197986006736755
0.11658888310194016
-0.02447407692670822
0.013472355902194977
-0.11616493761539459
0.041233524680137634
0.09007076174020767
-0.008012790232896805
0.06608909368515015
0.04279804602265358
-0.08960729837417603
-0.0388818085193634
0.0104359807446599
0.13614991307258606
-0.055864397436380386
0.019785208627581596
-0.011225891299545765
-0.0022700736299157143
-0.04100089520215988
-0.1379397064447403
-0.036338288336992264
-0.005166330374777317
0.08478502929210663
0.007169683463871479
0.011499271728098392
-0.11940361559391022
0.030254695564508438
0.02774198353290558
-0.05216421186923981
0.024417053908109665
-0.06542254239320755
0.10758031159639359
-0.15853437781333923
0.003137015039101243
0.033215150237083435
0.12255815416574478
0.00484077911823988
0.11732833832502365
0.10877013951539993
0.07282566279172897
0.02936609275639057
-0.10590097308158875
-0.10477465391159058
0.12356273084878922
-0.08280258625745773
0.1319010704755783
-0.061682336032390594
-0.07761058211326599
0.01392377633601427
0.09110181033611298
-0.09484023600816727
-0.11698365956544876
-0.07200174778699875
-0.13189245760440826
0.0578707717359066
-0.05122438445687294
-0.03895975649356842
-0.014014936983585358
-0.04768265783786774
0.13529174029827118
-0.13846184313297272
0.0724535584449768
-0.04171709343791008
0.0822141021490097
-0.13537365198135376
0.03856339305639267
0.08233631402254105
0.016597846522927284
0.045324914157390594
-0.01248888112604618
0.11656943708658218
-0.06490862369537354
0.06283751130104065
-0.10228397697210312
0.01337747648358345
0.062742218375206
0.05233954265713692
-0.054128821939229965
0.024111604318022728
-0.13120673596858978
-0.10891159623861313
-0.08935882896184921
0.04974862188100815
-0.0660439133644104
0.0664995014667511
0.09433585405349731
-0.09781761467456818
-0.128948375582695
0.06443861126899719
-0.09077424556016922
0.11637450754642487
-0.030241360887885094
0.08521917462348938
0.002608416136354208
-0.13077333569526672
0.017055569216609
0.012174051254987717
-0.026006339117884636
-0.07103532552719116
0.08929348737001419
0.03472648188471794
0.1232181265950203
-0.12849174439907074
-0.10711868852376938
-0.0001881355419754982
-0.032168131321668625
-0.04537292942404747
-0.10868772864341736
0.06080906093120575
0.10851433128118515
-0.014449645765125751
0.02357989177107811
-0.039893701672554016
-0.024443093687295914
0.04722163826227188
-0.0764412060379982
-0.0760425254702568
-0.022613100707530975
0.06059896945953369
0.06131315976381302
-0.07639940083026886
-0.06330256164073944
0.12061424553394318
0.09559135884046555
-0.11683948338031769
-0.12877976894378662
-0.013437903486192226
0.011615222319960594
-0.06840883195400238
-0.11103393882513046
0.130204975605011
0.06773965805768967
0.04538745433092117
0.10025190562009811
0.07284421473741531
0.09044821560382843
-0.08386974036693573
0.022190861403942108
-0.11888772994279861
-9.726461576065049e-05
-0.09320879727602005
-0.12442690879106522
-0.07808782160282135
0.10348938405513763
-0.02751997858285904
-0.10017251968383789
0.05590030923485756
0.1317301243543625
-0.021053776144981384
-0.0005099396221339703
-0.06396497786045074
-0.13220620155334473
-0.07035337388515472
-0.07340261340141296
0.03502295911312103
0.06503872573375702
-0.04893486946821213
-0.11628127098083496
-0.12585285305976868
-0.020287850871682167
-0.0530165433883667
0.12257006019353867
-0.06809060275554657
-0.04003409668803215
-0.016785254701972008
-0.010275487788021564
-0.06317996978759766
0.019546523690223694
-0.11183466762304306
-0.014444338157773018
-0.008468507789075375
0.030093489214777946
-0.11236841976642609
0.07595957815647125
0.10392367839813232
0.0719183087348938
-0.0714101493358612
0.08170630037784576
-0.05504405498504639
-0.005098545458167791
-0.06322935968637466
-0.03557145968079567
0.01956884376704693
0.06514434516429901
0.009037398733198643
0.01679655909538269
0.096046581864357
0.1124250665307045
-0.07804309576749802
-0.11325488984584808
-0.001976371742784977
0.08023341745138168
0.08755940943956375
-0.0014156447723507881
-0.12449754774570465
-0.11814389377832413
-0.13623155653476715
-0.008092192932963371
0.04578094556927681
0.0226180050522089
0.07681219279766083
-0.054253384470939636
-0.09247791022062302
-0.08179114013910294
0.04441361874341965
0.10906249284744263
0.047646235674619675
-0.1296083778142929
-0.0016829018713906407
0.008629304356873035
0.09323906898498535
0.016663718968629837
-0.12084385007619858
-0.12636969983577728
-0.007913130335509777
-0.10980331897735596
-0.03075452893972397
-0.04319029301404953
0.09135641157627106
-0.01573074609041214
-0.10874731093645096
0.07861162722110748
0.03947019577026367
0.07268834114074707
0.008516982197761536
-0.12002713233232498
0.018308138474822044
-0.0839645117521286
-0.028035815805196762
0.12403900176286697
-0.08169317245483398
0.07033810019493103
-0.09712662547826767
-0.0015058900462463498
-0.0526307187974453
0.11715632677078247
-0.07538942247629166
-0.13751615583896637
0.0966869667172432
0.10119621455669403
-0.07904589921236038
-0.045917533338069916
0.047732219099998474
0.09356298297643661
-0.09628777205944061
-0.09547743201255798
-0.011673618108034134
0.10883844643831253
-0.07664522528648376
0.06804583221673965
0.1057543233036995
-0.06731218099594116
-0.13014467060565948
0.11490104347467422
-0.11095945537090302
-0.082631915807724
0.06691175699234009
-0.033519499003887177
-0.07063296437263489
-0.13552963733673096
0.019455593079328537
0.06126287579536438
-0.07901334762573242
0.029008548706769943
0.018994992598891258
0.02906159684062004
-0.06628777086734772
0.009279160760343075
-0.07294562458992004
-0.016654258593916893
-0.11532000452280045
0.09508393704891205
0.07889341562986374
0.07887431979179382
-0.08742963522672653
-0.026280567049980164
-0.004561468493193388
-0.1162165030837059
0.10730455070734024
-0.0699860155582428
0.12524375319480896
0.002662409795448184
-0.01714472845196724
0.06675141304731369
-0.11236144602298737
0.103861965239048
0.06556586176156998
-0.11518210917711258
0.11591615527868271
-0.017362870275974274
0.009524473920464516
-0.029216021299362183
-0.049345944076776505
0.005556329619139433
-0.05602150037884712
0.09253166615962982
0.1132543757557869
-0.10911831259727478
-0.020441269502043724
-0.029866818338632584
0.06599897891283035
0.04792766273021698
-0.1263410747051239
0.0171964094042778
0.015575284138321877
-0.04570939391851425
0.03787819296121597
-0.06151631847023964
-0.014918864704668522
0.11953400820493698
0.08438819646835327
-0.003134108381345868
0.10144706070423126
-0.11391543596982956
-0.10205025970935822
0.009203131310641766
0.04007301852107048
0.1342773735523224
-0.005220050923526287
-0.07862003892660141
-0.09835654497146606
-0.13135184347629547
0.07969396561384201
0.010461575351655483
-0.005949815269559622
0.06762654334306717
-0.10246075689792633
0.06281663477420807
-0.1406935155391693
0.06475548446178436
-0.044071778655052185
0.13015668094158173
0.09466880559921265
0.0427907332777977
-0.12289641797542572
0.07899961620569229
0.055988553911447525
-0.02317066676914692
-0.04915860295295715
0.1415644884109497
0.025830915197730064
-0.050323911011219025
-0.017962351441383362
0.10020982474088669
-0.004609411116689444
0.0976502075791359
0.0987127348780632
0.07064969837665558
-0.12291942536830902
-0.0661986693739891
-0.06529035419225693
0.025163700804114342
-0.02092851884663105
-0.036113716661930084
-0.1516122967004776
-0.03319111093878746
-0.11697644740343094
0.114543117582798
0.06477636843919754
0.024953849613666534
0.03516358137130737
0.06632397323846817
0.1130140870809555
0.13055750727653503
0.1092720478773117
-0.10147251188755035
-0.060155000537633896
-0.09313182532787323
-0.10127026587724686
0.021585669368505478
0.0662221759557724
0.0368506982922554
-0.1131543517112732
0.07611319422721863
-0.03366677463054657
0.11983408033847809
0.12409685552120209
0.12106538563966751
-0.002302511129528284
-0.06129603087902069
-0.10386916249990463
0.021720726042985916
0.03499547764658928
0.05956702306866646
-0.025751350447535515
0.0542781688272953
0.002721228636801243
-0.07647791504859924
-0.09622737765312195
0.1197751984000206
-0.025257835164666176
-0.0057856678031384945
-0.06423307210206985
0.10159193724393845
0.10662337392568588
-0.02608254738152027
0.0008664074121043086
-0.02196759358048439
0.030194470658898354
0.1036953255534172
-0.07987700402736664
-0.056528083980083466
0.04476083070039749
0.12267238646745682
0.10528262704610825
-0.13123749196529388
0.09274328500032425
-0.060208387672901154
0.03392521291971207
0.008296685293316841
