0.0005558142438530922
0.0010349617805331945
-0.0009031264344230294
0.0005651105893775821
0.00010306985495844856
0.00041236786637455225
-0.0006845980533398688
-0.0006285915151238441
2.621426756377332e-05
-0.0005352739244699478
-0.000416368740843609
-0.00025119431666098535
0.0006909130024723709
-0.00044653358054347336
-0.0006323750712908804
0.000467923964606598
-0.00020958582172170281
0.0005246382788755
-0.0017290866235271096
-0.0008131564245559275
0.0004909667186439037
0.00035867688711732626
0.0002943202562164515
0.0010639660758897662
-0.0007053468725644052
-0.0018982671899721026
0.0005547414184547961
-0.0004312554665375501
7.008537068031728e-05
0.000802133115939796
0.0005730991251766682
0.00034591506118886173
0.0006380671402439475
-0.00047059511416591704
0.0003616211179178208
-0.0008200405864045024
-0.001248955843038857
0.0003817067190539092
-0.00035436340840533376
0.000646582746412605
-0.00023271921963896602
-0.00034209678415209055
-0.001406957977451384
0.0011402880772948265
-0.0009946521604433656
9.167038660962135e-05
0.00047041024663485587
0.00029107072623446584
-0.0002800437796395272
0.0012700909283012152
-0.0018797412049025297
-0.00029776262817904353
-0.0004434859729371965
0.0008446688880212605
-0.0001727975468384102
0.0005340680945664644
0.0015253520105034113
-0.0001903743832372129
0.0008088757749646902
0.000405471510021016
0.0010373505065217614
-0.0001473657030146569
-0.0005054447683505714
0.0008341119973920286
-0.0005012527108192444
3.4964476071763784e-05
0.0005256538279354572
0.0008118398836813867
-0.00038008514093235135
0.0006463724421337247
0.0009394335211254656
0.0015852006617933512
0.0014484429266303778
-9.388739272253588e-05
-0.0012988963862881064
-0.0003825871099252254
3.717078288900666e-05
0.0008379726787097752
-7.093207386787981e-05
0.001960643334314227
8.836782217258587e-05
0.00011805697431555018
-0.0006741302786394954
-0.0015031193615868688
-0.00024512025993317366
-3.1888532248558477e-05
8.385202818317339e-05
0.0004904473898932338
0.0009998827008530498
-0.000580119900405407
-0.0010788305662572384
-0.0006271495367400348
-0.0004720936412923038
0.0005033991183154285
0.0003380940470378846
0.0001480406936025247
0.0011063276324421167
0.0008852839237079024
-0.00020836974726989865
0.0006441390723921359
0.0004432652494870126
0.0010042666690424085
0.0006140240584500134
0.00043858110439032316
0.0005446250434033573
0.0015101202297955751
-0.0011522849090397358
0.00012467920896597207
0.0009406167664565146
-0.000675825634971261
0.0009292368777096272
-0.0006601741770282388
-0.0007251055212691426
0.0009600967750884593
0.00046438074787147343
7.980783993843943e-05
0.0011530457995831966
-0.0005610915250144899
0.0016702039865776896
-0.0012511168606579304
-4.375257412903011e-05
0.0012709485599771142
0.0008457095827907324
-0.001027569524012506
-0.00014216103591024876
6.18364501860924e-05
-0.00032362990896217525
-0.000659550481941551
0.00043107609963044524
-0.0003213865857105702
-0.0005632188986055553
-0.0007974709151312709
-0.0008148581837303936
-0.00020020041847601533
-0.0012418878031894565
-0.001390761462971568
0.0011847137939184904
0.0008619483560323715
-0.00017702023615129292
-0.0018094443948939443
0.00047808748786337674
-0.0010486873798072338
-0.0007665057200938463
0.0005925607983954251
-0.00013880185724701732
0.0007666645688004792
0.0002033281052717939
-9.184696682495996e-05
0.0007806287030689418
-0.001646762015298009
0.00012245791731402278
-0.00035465715336613357
-0.001866483478806913
-0.0005393966566771269
-0.0010102862725034356
0.0005215254495851696
0.001150398631580174
0.00017886592831928283
-0.0012647199910134077
-0.0005598943680524826
-0.0005319369956851006
-0.0005795111646875739
-0.0005859244265593588
-6.084961114538601e-06
-0.0007587374420836568
-0.001089551136828959
0.0003286594874225557
0.00046623192611150444
0.0005309609696269035
-0.0006348686874844134
0.0006632277509197593
0.0016970365541055799
-0.000383583566872403
-0.0005059331888332963
-0.00061871821526438
0.00010282521543558687
-0.00017872024909593165
7.866467058192939e-05
0.0006284755072556436
0.000958753633312881
-3.349867620272562e-05
-0.001066072378307581
-0.0012215528404340148
-0.0008610449731349945
-0.0007709040655754507
0.0008944167639128864
0.0010003966744989157
0.0005853869952261448
-0.00016311068611685187
0.0008315658196806908
-0.00013682636199519038
0.00024331294116564095
-0.00029498935327865183
0.0008643075125291944
-0.0015342467231675982
7.823672058293596e-05
6.579003820661455e-05
-0.000779095571488142
0.00040746090235188603
-8.747873653192073e-05
0.0007907510735094547
0.0007556534837931395
0.00019319796410854906
0.0013190879253670573
0.0003706298884935677
-0.000516783504281193
-0.00011848688882309943
0.00016180590318981558
-6.839986599516124e-05
0.001337486319243908
0.0003912430547643453
-7.014335278654471e-05
-0.0011582027655094862
-0.0005405026604421437
0.0006992986309342086
0.00033823613193817437
0.00031629501609131694
0.00029964972054585814
-0.0006911754026077688
-8.554844680475071e-05
0.0008220389718189836
0.0008914580685086548
-0.001373393926769495
-0.0016955661121755838
-0.000633704592473805
0.0004970005829818547
0.00013181845133658499
0.000266658840700984
-0.0007587333675473928
0.00024509543436579406
-0.0006845661555416882
-0.0008708148961886764
0.0005080873961560428
-2.585927404652466e-06
-0.0001064605385181494
-0.001765733351930976
0.0009731057216413319
-0.001265203463844955
-6.486979691544548e-05
-0.00014974827354308218
0.0003781967971008271
-0.00029011184233240783
-0.00044394898577593267
2.3903850888018496e-05
-0.0008183289901353419
0.0008428195142187178
-0.000717543123755604
-0.0007137016509659588
-5.4944302974035963e-05
0.0015181712806224823
-0.001395904109813273
0.00018937469576485455
0.0006164027145132422
-8.797105692792684e-05
0.0012482528109103441
-0.0004620552936103195
0.000344194850185886
-0.00012591823178809136
0.0017490070313215256
-0.0001837877498473972
-0.00011637371790129691
4.404288119985722e-05
-0.00018626904056873173
-2.0118941392865963e-05
-0.0016259761760011315
0.00016303019947372377
0.00022137122869025916
-0.00037004693876951933
0.0003186201793141663
0.00080773641820997
0.00046581978676840663
0.0003177707258146256
-0.00023933014017529786
0.0011647745268419385
0.0012993781128898263
0.0003563571081031114
-0.000740494579076767
0.0013389360392466187
-0.0003393816004972905
0.0007501262589357793
0.0004247550677973777
0.000199390749912709
-0.001217497861944139
-0.0012765799183398485
-7.561552774859592e-05
4.406856169225648e-05
-0.00029064295813441277
-0.00017246163042727858
0.0015355715295299888
0.001619926537387073
-3.617871698224917e-05
0.00022211558825802058
0.000202874667593278
0.001955266809090972
0.00042481455602683127
0.0004006165254395455
-9.154208964901045e-05
0.00013406119251158088
0.00045002991100773215
0.0004713325179181993
-8.014959166757762e-05
0.0003450008516665548
0.0003680341178551316
0.0003648062702268362
0.0006289072916842997
0.0003258748329244554
-0.0006954889395274222
-0.00022590206936001778
0.0010617123916745186
0.00030642905039712787
0.0012674002209678292
-0.0007473425357602537
0.00036839512176811695
-0.0002662866027094424
0.0012402087450027466
-0.0002157783746952191
-0.0005553577793762088
0.0009504188201390207
-2.7228627004660666e-05
-0.0016706433380022645
0.00043881902820430696
-0.00034525644150562584
0.0006800408009439707
-0.00023594876984134316
-0.00016662216512486339
0.00031394732650369406
-0.0008620530134066939
-0.00022293516667559743
-0.0003323814307805151
0.0005286331870593131
0.0013361555757001042
-8.175894618034363e-05
0.00013698692782782018
-0.0005046651931479573
-0.00040489761158823967
-0.00011732902203220874
-0.00041464154492132366
0.0007605223800055683
0.0005612316890619695
0.0002209950762335211
0.0002379549405304715
0.0010855980217456818
0.001537415897473693
-0.0003589695261325687
0.0011653800029307604
0.0003691097954288125
-0.0005589242209680378
-0.0006549815880134702
0.0003277532523497939
0.0003349688195157796
0.0006270703743211925
-0.0006282639806158841
0.0008285715011879802
-0.0005600136937573552
0.0015466948971152306
0.0009396509267389774
0.0005477261147461832
0.0006475562113337219
0.0017571906791999936
-0.00041336100548505783
-0.00046689968439750373
-0.0008242971380241215
0.0005379116628319025
-0.0003862333542201668
4.823806193599012e-06
0.0016562760574743152
0.000766072713304311
0.0009840074926614761
-0.0007465541712008417
0.0017585110617801547
-0.0013517546467483044
0.00031494058202952147
-0.00018624961376190186
-0.00019031690317206085
-0.00023855763720348477
0.0012210272252559662
-0.00014044236741028726
0.0008639284642413259
0.000108948333945591
0.0007396711735054851
-0.00189739721827209
0.0007716728723607957
-0.0005979794659651816
0.002505834912881255
3.280321107013151e-05
0.0010807361686602235
0.00027180564939044416
0.0006517260335385799
0.0003255375486332923
0.0005715880542993546
-1.598136077518575e-05
-0.00028891972033306956
-0.0004910773714073002
0.0015145207289606333
-5.9233978390693665e-05
-0.0004971670568920672
-0.0004217095556668937
-0.00023933735792525113
-0.0005145508912391961
-0.0012136545265093446
0.001404724782332778
-0.001513324910774827
-0.0014522687997668982
0.0007538089412264526
0.0009581698104739189
6.358811515383422e-05
8.280865586129948e-05
0.0010174507042393088
3.424580427235924e-05
0.00039821784594096243
-0.00109071284532547
0.0007890919223427773
0.00019001125474460423
-4.0668594010639936e-05
0.00023742315534036607
-0.0004350867820903659
0.0009255069890059531
0.0007023108191788197
0.00010526074765948579
-0.0009440098074264824
0.0004192015912849456
-0.001058301655575633
-0.0006775534129701555
0.0003729323507286608
0.001232446520589292
0.000656124553643167
0.0012353667989373207
0.0003732937329914421
0.0009330629836767912
0.00010112413292517886
-0.0011039874516427517
-0.00019004456407856196
4.2585652408888564e-05
-0.000872062926646322
0.0010100483195856214
-8.341131615452468e-05
-0.0004916912293992937
-0.0012227105908095837
-9.125295946432743e-06
0.00011479679233161733
0.000583325105253607
0.0008489898755215108
-0.0004268656484782696
0.0004742036107927561
0.0008466278086416423
-0.0002622656465973705
-0.0005376433837227523
0.0004009726399090141
-0.0003131754056084901
-0.0001570405438542366
-4.2380688682897016e-05
-0.0008089303155429661
-0.00013891732669435441
-0.0005396539927460253
-0.0005425650160759687
-7.104039104888216e-05
0.0009905864717438817
-0.00027775022317655385
0.0009302124963141978
-0.0006999221513979137
0.000527077354490757
0.0001765778288245201
-0.0003324661520309746
0.0008876381907612085
0.0015147862723097205
0.0008792508160695434
0.00022336562687996775
-0.00013045655214227736
0.0006440274883061647
0.00040665981941856444
0.0014037895016372204
0.001347315963357687
-2.3341997803072445e-05
0.0004883802030235529
0.0007090523140504956
0.0004059628117829561
0.00012554365093819797
0.0002464799617882818
-0.001552457339130342
0.00041557432268746197
0.0008367555565200746
-0.00034361580037511885
-0.0011279070749878883
-0.0005839596269652247
-3.857847730159847e-07
0.0009258990176022053
0.0015291194431483746
0.0005894715432077646
0.0002893519413191825
3.946357173845172e-05
0.0004617382655851543
-0.0006629956769756973
0.0012521076714619994
0.0012789221946150064
-0.0004805235948879272
-0.00041584583232179284
0.0011313327122479677
-8.485544822178781e-05
0.0006087216315791011
0.000723513076081872
0.0017496817745268345
-0.0011416099732741714
0.0006022868910804391
0.0020970760378986597
0.000976305571384728
-0.0005460372194647789
-0.00036261920467950404
-0.00023949712340254337
-0.000472517276648432
0.0009148886310867965
0.0002461307740304619
-2.1973406546749175e-05
