0.07653647661209106
-0.04065342992544174
-0.0802859365940094
0.028057152405381203
-0.07881643623113632
-0.01860148087143898
-0.05433844402432442
-0.0951576754450798
0.079312264919281
-0.08899875730276108
-0.017767297104001045
-0.09344157576560974
0.048535946756601334
0.10288764536380768
0.0011370060965418816
-0.06827660650014877
0.0874364972114563
0.057624828070402145
0.009985358454287052
0.06333719938993454
0.03233253210783005
-0.024873757734894753
-0.08574207127094269
0.017293060198426247
-0.10458847135305405
0.029226630926132202
-0.016289256513118744
-0.0017004443798214197
0.0596737414598465
0.049956679344177246
0.00259170844219625
0.10701796412467957
0.052632156759500504
0.02700033225119114
0.07479716837406158
0.022249389439821243
0.09711968153715134
-0.1112818717956543
-0.09197266399860382
-0.026372767984867096
-0.10037840902805328
0.033673521131277084
-0.04284832626581192
0.10805258899927139
-0.03760381415486336
-0.08558297902345657
-0.0854475349187851
0.037762995809316635
-0.09635075181722641
0.048719923943281174
-0.04894934222102165
-0.11751912534236908
0.05098479241132736
0.0648094043135643
-0.10490834712982178
0.04714300110936165
-0.11220768839120865
-0.08335167169570923
0.014600682072341442
0.023179542273283005
-0.03477606177330017
0.10509837418794632
-0.07657099515199661
-0.0392596460878849
0.0659269317984581
-0.09982197731733322
0.10098064690828323
-0.0012339228997007012
-0.08972371369600296
0.10543309897184372
-0.07301666587591171
0.11771171540021896
0.07411997020244598
0.005187037400901318
0.1162164956331253
0.039813458919525146
0.02374216541647911
0.0598679855465889
-0.007437525782734156
-0.06385873258113861
-0.012011303566396236
0.05188881233334541
-0.03648919239640236
0.01750112697482109
-0.07792004197835922
-0.005916997790336609
-0.11579561978578568
-0.06327564269304276
0.002208477118983865
0.09132345765829086
0.08337046205997467
0.06460832059383392
0.10073389112949371
-0.085231713950634
-0.012118267826735973
-0.02967040427029133
0.06768439710140228
-0.05247890576720238
0.08679305762052536
0.08773878216743469
0.0015671851579099894
-0.03324024751782417
0.11527834087610245
0.10308775305747986
0.03944925218820572
0.06293964385986328
-0.024733062833547592
-0.05333166942000389
-0.080204077064991
0.0021012474317103624
-0.019840355962514877
-0.09406587481498718
-0.0986301451921463
0.10169240832328796
0.07485605776309967
-0.018007386475801468
-0.05771343410015106
0.10450924932956696
-0.014132891781628132
0.03319856896996498
-0.08644135296344757
-0.05117001011967659
-0.041296523064374924
0.03149891272187233
0.07754841446876526
-0.07493001967668533
-0.10178694874048233
0.02507328987121582
