-0.005932541564106941
0.009042765945196152
-0.001508991583250463
-0.025641916319727898
0.004869210999459028
0.004364916123449802
0.01997087150812149
-0.0027965260669589043
0.01896965131163597
-0.024367351084947586
-0.010933793149888515
-0.01257622241973877
0.02178366295993328
0.00206462643109262
0.023078637197613716
0.004591579549014568
0.0034706343431025743
-0.008914725854992867
0.023944314569234848
-0.017262563109397888
0.0137261301279068
-0.017245737835764885
0.022092824801802635
-0.0027800167445093393
-0.0020379407797008753
-0.02572929672896862
0.027211671695113182
0.01568327099084854
0.025790482759475708
0.02658098004758358
-0.010825985111296177
-0.010641676373779774
-0.0017270774114876986
-0.0037737181410193443
-0.01466341596096754
-0.005763256456702948
-0.014374412596225739
-0.016952455043792725
-0.023621195927262306
-0.027491774410009384
0.010699739679694176
0.011036684736609459
0.01887999102473259
-0.02202911116182804
0.026077505201101303
0.02661724202334881
0.020844154059886932
0.008928491733968258
-0.01386287622153759
-0.0022082121577113867
-0.0012759147211909294
0.02412913739681244
0.004751293454319239
0.018269715830683708
0.02377222664654255
0.011114424094557762
0.024413682520389557
-0.02785269357264042
-0.02185160107910633
0.0010344741167500615
-0.020306073129177094
0.020901665091514587
0.012687668204307556
0.026113346219062805
0.0037381728179752827
-0.009942412376403809
0.01451506745070219
-0.014742163941264153
-0.025363842025399208
-0.013070361688733101
-0.007173989899456501
-0.022724870592355728
0.0010380024323239923
-0.010011394508183002
-0.010853554122149944
0.005764645058661699
0.01104448176920414
-0.01884615793824196
0.027283798903226852
0.0262831449508667
0.018525676801800728
0.003818263066932559
0.005220414604991674
0.018288196995854378
0.002441459335386753
-0.002204591641202569
-0.005986222997307777
0.024201510474085808
-0.0195297971367836
0.0158236101269722
0.010057901032269001
0.0008112525101751089
0.024090059101581573
0.006714333314448595
0.006074660457670689
-0.0024900909047573805
0.015296755358576775
-0.014765879139304161
0.010884419083595276
0.020241279155015945
0.015443723648786545
0.006824266631156206
-0.0003616609610617161
-0.005755204241722822
0.0014748943503946066
0.02108493074774742
-0.024544252082705498
0.015447890385985374
0.015438105911016464
0.024040134623646736
-0.010671762749552727
-0.011593167670071125
-0.02759305201470852
-0.0019005383364856243
-0.0030218481551855803
-0.0022660798858851194
0.0022964521776884794
0.02428715117275715
0.0076461294665932655
0.014591298066079617
0.010333124548196793
-0.009729547426104546
-0.026201270520687103
0.010760090313851833
-0.025629214942455292
0.02502399869263172
-0.014590172097086906
0.00011255775461904705
