-0.00873513799160719
-0.0481344498693943
-0.0039387051947414875
0.03293101117014885
-0.01978079415857792
-0.03315102681517601
0.011630152352154255
0.02184041030704975
0.04119248688220978
-0.03863753378391266
0.0019177182111889124
0.05713628977537155
-0.013287701644003391
0.05469880998134613
0.05460252985358238
0.0369301363825798
-0.014975574798882008
-0.0077680423855781555
-0.034393347799777985
0.0023134304210543633
-0.008226525969803333
0.004754209890961647
0.002960973186418414
0.05016568675637245
0.03896318003535271
-0.022018762305378914
0.05748772248625755
-0.01716618984937668
0.01588199846446514
0.00024447101168334484
-0.011847615242004395
-0.01791861094534397
0.01309971883893013
0.03557591140270233
-0.045278456062078476
-0.022692006081342697
0.002079071244224906
0.018772412091493607
-0.005302223842591047
-0.04719701036810875
-0.032425813376903534
0.04840923473238945
-0.0005619332659989595
-0.00431140186265111
0.015950893983244896
-0.04020880535244942
-0.05486861988902092
0.01257141213864088
-0.046782441437244415
0.0022001881152391434
0.04508569464087486
0.037252120673656464
-0.031967490911483765
-0.04108425974845886
0.042873796075582504
-0.038810353726148605
0.05430781468749046
0.00469706766307354
0.051922958344221115
0.04296346753835678
0.02569778636097908
0.01874934881925583
-0.02213333733379841
-0.010796376504004002
-0.0037417958956211805
4.029695628560148e-05
0.0252387672662735
-0.0038344545755535364
-0.008906622417271137
-0.05027201026678085
0.03262697532773018
-0.013238935731351376
0.057649821043014526
0.03890275955200195
-0.015920929610729218
0.05041291564702988
-0.011491790413856506
0.03905307501554489
-0.03454253450036049
-0.035616714507341385
-0.030789460986852646
0.010325579904019833
0.05506392940878868
-0.04218976944684982
-0.045100949704647064
-0.05266832560300827
-0.0501137301325798
0.004724225029349327
-0.033627524971961975
-0.03381752222776413
0.030611535534262657
0.03613768145442009
-0.002918053651228547
0.03878602758049965
-0.04022420942783356
-0.04955792799592018
0.011659030802547932
0.03310661390423775
-0.0009540104656480253
-0.011374346911907196
0.03282712772488594
0.028713233768939972
0.04936004430055618
0.018570424988865852
0.017832383513450623
-0.04552313685417175
0.006497231777757406
0.013005123473703861
-6.967165973037481e-05
0.01345712598413229
0.012083242647349834
0.026359325274825096
-0.014634404331445694
0.031562406569719315
-0.05710116773843765
0.05418786406517029
0.038967378437519073
-0.00370487361215055
0.012066658586263657
0.005083899013698101
-0.038430336862802505
0.0172528475522995
0.02719467505812645
-0.032832805067300797
-0.008781131356954575
0.055809952318668365
0.04294817894697189
0.04077095910906792
-0.027707932516932487
-0.019915249198675156
-0.035061292350292206
0.001674531726166606
0.0018902034498751163
0.015552915632724762
0.02504142001271248
0.015712618827819824
-0.006387041416019201
-0.04640614241361618
0.004494421184062958
0.0031481271144002676
-0.01983683928847313
0.05159983038902283
-0.04902806878089905
-0.0178841520100832
0.033856287598609924
0.04954085126519203
0.05739780142903328
0.006389199290424585
-0.03249247744679451
-0.011324211955070496
0.015071311965584755
-0.03680530935525894
0.033004093915224075
0.032875917851924896
-0.03993143513798714
0.031459253281354904
0.005510963033884764
-0.03139672800898552
-0.04168672114610672
-0.04236093536019325
0.020212771371006966
0.007886562496423721
0.0031068974640220404
-0.03739903122186661
-0.02908565104007721
-0.00637905253097415
-0.03311379253864288
0.03513611480593681
0.002298791194334626
0.03824751451611519
0.05838162824511528
-0.0573391355574131
0.04625483602285385
-0.0047643156722188
-0.04175532981753349
0.02232608012855053
0.036569222807884216
0.00032269046641886234
0.0057558100670576096
-0.004871736746281385
-0.057044342160224915
0.015557054430246353
0.049336615949869156
-0.04308205097913742
-0.03977081552147865
-0.05535922944545746
0.013060009106993675
-0.022263947874307632
-0.024195978417992592
0.04246966168284416
-0.05384068936109543
0.044784802943468094
0.03042563982307911
-0.05647970736026764
0.02971121296286583
0.0006106636137701571
-0.014082349836826324
-0.01562885381281376
-0.027274666354060173
0.052307527512311935
0.017882999032735825
0.022377492859959602
0.039894215762615204
0.051283083856105804
0.047856513410806656
0.027985557913780212
0.023665588349103928
-0.03173021599650383
0.04188160598278046
-0.00890344474464655
-0.03873508796095848
0.02080991305410862
-0.01715710759162903
-0.04733838513493538
-0.044026173651218414
0.0336589589715004
0.028251899406313896
0.007076227571815252
-0.05400099605321884
0.013297583907842636
0.04251512512564659
0.047891177237033844
0.052680399268865585
-0.0422501415014267
0.02648022398352623
0.029417160898447037
0.03702902793884277
0.002513105981051922
0.02627641148865223
0.015428387559950352
0.035314369946718216
0.04259942099452019
-0.014677558094263077
0.033481646329164505
0.03944426029920578
0.014120155945420265
0.02216385491192341
-0.03979223221540451
0.02906920574605465
0.038812197744846344
0.04761839658021927
-0.01691100373864174
0.005905907601118088
0.04277064651250839
-0.037880536168813705
-0.004847357049584389
0.04567122831940651
-0.0036647794768214226
0.03282564505934715
-0.03886464238166809
-0.04348059371113777
0.04011863097548485
-0.0476398691534996
0.0433356836438179
-0.004397396929562092
-0.0013532094890251756
0.03981037437915802
-0.017702294513583183
-0.030316928401589394
-0.030765196308493614
-0.027870455756783485
0.019424820318818092
0.013076533563435078
0.04454592987895012
0.04883432388305664
-0.043511904776096344
-0.02970321662724018
-0.0042297979816794395
0.02918737381696701
0.0003709502052515745
-0.030034933239221573
-0.031175484880805016
-0.018049612641334534
0.04206012561917305
0.019560834392905235
-0.010743299499154091
0.04241836816072464
-0.010842638090252876
0.018099933862686157
0.03687272220849991
-0.013010079972445965
0.05611160025000572
-0.04984283819794655
-0.005213321186602116
0.0024750311858952045
0.03222465515136719
0.039470329880714417
-0.05412318557500839
0.05010906234383583
0.04485311359167099
0.04654545336961746
-0.01190869603306055
0.015485514886677265
-0.01994682289659977
0.055331505835056305
-0.00855113472789526
-0.03007318452000618
-0.05411287397146225
0.0014001127565279603
-0.04992179572582245
-0.030208533629775047
-0.02203768491744995
-0.04858237877488136
0.04148796573281288
-0.001971295103430748
-0.021634768694639206
-0.009564998559653759
0.01755829155445099
0.013625841587781906
0.04159945994615555
0.05006922781467438
0.03663929924368858
-0.03595302999019623
-0.02754146419465542
0.02237539365887642
0.024871179834008217
-0.02940530702471733
-0.05244084820151329
-0.055998168885707855
0.05830514430999756
-0.05818123370409012
-0.05329475179314613
0.05558810010552406
-0.007412069942802191
-0.0008097970276139677
-0.06038549169898033
0.05064889416098595
-0.058669641613960266
-0.04690491780638695
-0.023129962384700775
0.013332209549844265
-0.025733385235071182
-0.028383372351527214
0.003978914115577936
-0.0373711921274662
0.03611014038324356
0.052504152059555054
0.04791192710399628
-0.05622462183237076
0.0025233987253159285
-0.05120587721467018
0.03163643181324005
-0.019002195447683334
-0.04139060899615288
-0.053951818495988846
-0.02456086128950119
0.022673390805721283
0.05306725203990936
-0.05029379576444626
-0.04485347867012024
-0.01957733742892742
-0.04817122966051102
0.006986790802329779
-0.049874112010002136
-0.02090240642428398
0.00797122623771429
-0.004599716980010271
0.04851491004228592
-0.023463411256670952
0.04754342511296272
-0.04988710582256317
-0.03695273399353027
0.05887218192219734
-0.0595126673579216
0.05801137536764145
0.03097054921090603
0.05550277605652809
0.026114588603377342
0.04579071328043938
-0.0008796135080046952
-0.034783124923706055
-0.0009159960318356752
-0.03848898410797119
0.05143703520298004
-0.0032812596764415503
0.01936444826424122
0.04913271218538284
-0.054735202342271805
-0.03974080830812454
0.054883383214473724
-0.02028617635369301
0.038984209299087524
0.019582180306315422
-0.05308663845062256
-0.05824733152985573
0.041517022997140884
0.010368544608354568
-0.011942763812839985
-0.037841491401195526
0.03859929367899895
0.01817351207137108
-0.032689694315195084
0.019585220143198967
0.05396585538983345
-0.014493417926132679
0.016032293438911438
0.058297816663980484
0.03137954697012901
0.021408990025520325
-0.034922271966934204
0.01643223688006401
-0.0047474815510213375
0.012907493859529495
-0.02394098788499832
0.010705256834626198
-0.012353573925793171
-0.002275648759678006
-0.02012614719569683
0.057630762457847595
0.051248036324977875
-0.023139093071222305
-0.03676634281873703
-0.04836515709757805
-0.02877895161509514
0.055584173649549484
-0.0042197201400995255
-0.04597838968038559
0.03310026600956917
0.016371851786971092
-0.009353027679026127
0.020776866003870964
0.004120385739952326
-0.058676909655332565
-0.06017880514264107
-0.013690415769815445
-0.002132931025698781
-0.017306283116340637
0.023122746497392654
0.0267957653850317
0.03847959637641907
-0.03847796842455864
-0.008636639453470707
-0.01593979448080063
-0.026404019445180893
-0.019139081239700317
-0.018802978098392487
-0.055994290858507156
-0.017501968890428543
0.024029195308685303
-0.04254328832030296
0.046475011855363846
-0.006294182036072016
-0.02975672483444214
0.05528143793344498
-0.0006373680080287158
-0.025768322870135307
0.05784444883465767
-0.0461130328476429
-0.05657384917140007
0.03196583688259125
0.050930920988321304
0.03282129019498825
-0.0321437232196331
0.027456464245915413
0.019051948562264442
0.020897498354315758
0.0357065312564373
-0.016190191730856895
-0.02434643916785717
-0.0301402248442173
-0.0029896816704422235
-0.000287649076199159
0.03518085554242134
0.03022274561226368
-0.0522163026034832
0.01251849252730608
-0.05870158225297928
0.05460352078080177
-0.0465678945183754
-0.021531565114855766
0.03153209015727043
0.042425211519002914
0.047218382358551025
0.01368872169405222
0.01417780015617609
0.012601396068930626
-0.03288976848125458
0.025934692472219467
0.01205023005604744
0.046394117176532745
0.05379430204629898
0.04292382672429085
0.03842955455183983
0.004823131952434778
0.030660195276141167
-0.052701666951179504
-0.018758557736873627
0.05460101738572121
-0.013932165689766407
-0.016746867448091507
0.0030213857535272837
-0.04816380888223648
-0.027112362906336784
0.02464880794286728
0.05598587170243263
-0.022812340408563614
0.02563435211777687
-0.002760075032711029
-0.01892765238881111
-0.04721784219145775
0.0035692586097866297
-0.006968488916754723
-0.012728920206427574
0.05305401235818863
-0.029316794127225876
0.016302982345223427
0.028687426820397377
0.04922109842300415
-0.00442329840734601
-0.01956172101199627
0.054701726883649826
-0.04371940717101097
