-0.0998256653547287
-0.07131000608205795
-0.12109320610761642
0.0884779766201973
0.09136922657489777
-0.006733838934451342
-0.1171066015958786
0.06853169202804565
0.07369417697191238
-0.08201351016759872
0.0384419783949852
-0.05936601758003235
0.10934021323919296
-0.06915394961833954
0.08468496054410934
0.006593283731490374
-0.08513722568750381
-0.03825254738330841
-0.037027258425951004
-0.013749143108725548
0.012422620318830013
-0.061549343168735504
-0.07621129602193832
-0.02144484594464302
-0.0979427620768547
-0.05703064426779747
-0.024984845891594887
0.06360434740781784
-0.09731913357973099
0.10777921974658966
-0.012672970071434975
-0.06533465534448624
0.05018474906682968
0.04071391373872757
-0.0037308933679014444
0.040462519973516464
-0.11105913668870926
-0.12207512557506561
0.06627952307462692
-0.006869809702038765
-0.008709053508937359
0.08902528882026672
0.03996184840798378
0.10903345048427582
0.007523829583078623
-0.08089932799339294
-0.017237911000847816
0.10293324291706085
0.03068370558321476
-0.042784519493579865
-0.01648586057126522
-0.08267109096050262
-0.008724545128643513
-0.08195672929286957
-0.021138353273272514
0.020131319761276245
-0.04494592174887657
-0.08881164342164993
-0.0011399672366678715
-0.05052926763892174
-0.006142802070826292
0.06986704468727112
0.06807146221399307
-0.05758032947778702
0.03811533376574516
0.03932642191648483
-0.03371769189834595
-0.040835391730070114
-0.10109857469797134
-0.10612036287784576
-0.06536391377449036
-0.11189737915992737
0.08183613419532776
0.028681494295597076
0.024349188432097435
0.11821344494819641
-0.08482509106397629
-0.11804883182048798
0.07974202930927277
-0.11487172544002533
-0.12204790860414505
0.09805738180875778
-0.0026076477952301502
-0.08181606233119965
-0.11666059494018555
-0.0056984806433320045
0.054214395582675934
0.04476604238152504
-0.016009442508220673
-0.11774063855409622
0.024966392666101456
0.04668581485748291
-0.008431713096797466
0.027100831270217896
-0.044211648404598236
-0.0015896155964583158
0.1200186088681221
0.0871700569987297
0.0883750170469284
-0.09438024461269379
-0.10010799765586853
-0.08426862955093384
-0.009309576824307442
0.03133406490087509
0.018937768414616585
0.06718897819519043
-0.040142837911844254
-0.06545081734657288
0.016435377299785614
0.05308457091450691
-0.08240097016096115
0.1166176050901413
0.10598208755254745
-0.06903231143951416
-0.019101891666650772
0.010116573423147202
0.12160179764032364
0.06619951874017715
0.11613606661558151
0.051275018602609634
-0.04183082655072212
-0.015650026500225067
-0.08631038665771484
-0.022564707323908806
-0.07179142534732819
-0.049636512994766235
-0.09833178669214249
-0.0637197196483612
