-0.004024906549602747
0.038345564156770706
-0.0048675574362277985
0.021408243104815483
-0.032537076622247696
0.018600793555378914
0.028869599103927612
0.02175966091454029
-0.028293339535593987
0.03215188905596733
-0.0012504406040534377
0.022751949727535248
0.022191835567355156
0.015184459276497364
0.023934058845043182
0.010655065067112446
0.025288764387369156
0.03874782472848892
0.022668862715363503
0.0020396974869072437
0.032855890691280365
-0.030002566054463387
-0.03114001825451851
-0.02957685850560665
0.02481592446565628
-0.024631399661302567
0.029962075874209404
0.02011466585099697
-0.027093229815363884
0.02396022528409958
-0.03820503503084183
-0.003193695330992341
0.03868259862065315
0.01904321275651455
0.0120931938290596
0.021136775612831116
-0.010984649881720543
0.005680561065673828
0.00581522099673748
0.03245716169476509
0.014771895483136177
-0.012729017995297909
0.009804794564843178
-0.015641476958990097
0.03477313742041588
-0.03154204040765762
-0.015414590016007423
0.03232881799340248
0.037120625376701355
-0.016345493495464325
0.02542087621986866
0.02394842356443405
-0.008726411499083042
0.03326188400387764
-0.009357414208352566
-0.012077316641807556
0.03932603821158409
-0.014205018989741802
-0.02670314721763134
-0.01645118184387684
0.008632177487015724
0.03697172924876213
-0.017553674057126045
0.02067100629210472
