-0.004216051660478115
0.002550676930695772
0.00022474880097433925
-0.0008660853491164744
-0.007485155016183853
-0.0020812908187508583
-0.00231025624088943
-0.004534356761723757
-0.005823622457683086
-0.010703925043344498
-0.0047572460025548935
0.0006295226630754769
0.0016469560796394944
0.0060518053360283375
-0.0045740981586277485
-0.00242732185870409
-0.002477379748597741
-0.0017768951365724206
0.0039730435237288475
-0.0068092201836407185
-0.005863923113793135
-0.002179017523303628
-0.001968138152733445
-0.0017644250765442848
0.0013978044735267758
-0.0067487056367099285
0.0034931593108922243
-0.001853031455539167
0.0021887419279664755
-0.000735379580873996
-0.005166246555745602
-0.004205783829092979
-0.004744689911603928
-0.006301847752183676
-0.0013842424377799034
-0.003978994209319353
-0.0012509908992797136
-0.0008573622908443213
-0.007164886221289635
-0.007562264800071716
-0.0003903564065694809
-0.00878880638629198
-0.008965656161308289
0.006033444777131081
0.004663093481212854
-0.003772181225940585
0.000581415428314358
-0.0026435607578605413
-0.0032174689695239067
-0.0009315550560131669
-0.006499617826193571
-0.0023804781958460808
-0.002502290764823556
0.00035250524524599314
-0.0025310006458312273
-0.004054693970829248
-0.008082905784249306
-0.003845539642497897
-0.006283337716013193
-0.0022534711752086878
-0.0006624260568059981
-0.004162812605500221
-0.0019815582782030106
-0.0018444738816469908
