0.0058516040444374084
-0.030126536265015602
0.01972726546227932
-0.0039039626717567444
-0.02198679745197296
-0.01859182119369507
0.00417789351195097
-0.02933027409017086
-0.005196618847548962
0.03846642002463341
-0.018259262666106224
-0.014536703936755657
0.03828725963830948
0.0075235264375805855
0.03916335850954056
-0.015340385027229786
-0.029243256896734238
0.016537200659513474
-0.01520748995244503
0.02419937774538994
0.0400439016520977
0.03193306922912598
0.022872289642691612
0.020998533815145493
-0.03002539835870266
-0.01461152732372284
0.041369035840034485
0.021216293796896935
0.03696128726005554
-0.02152005396783352
-0.027770336717367172
0.004432538989931345
-0.0059120324440300465
0.03142101317644119
-0.014826484955847263
-0.01466344017535448
0.016047734767198563
-0.004698592703789473
-0.03787532076239586
0.004115252755582333
0.0006987038650549948
0.04045188054442406
-0.0091289933770895
0.034100692719221115
0.007979591377079487
0.034283291548490524
-0.008600068278610706
0.03278224170207977
-0.003748251823708415
-0.03612011671066284
-0.017966151237487793
-0.018383940681815147
0.011834967881441116
-0.030299117788672447
0.03831488639116287
-0.009807265363633633
-0.038411058485507965
-0.017224138602614403
-0.0053739408031105995
0.026018351316452026
-0.0012683559907600284
-0.022202350199222565
-0.03441956639289856
0.017541347071528435
