0.007691496983170509
-0.021117502823472023
0.017622170969843864
0.035841204226017
0.006118603050708771
-0.00044448612607084215
0.012300506234169006
-0.011074593290686607
0.0008935219375416636
-0.033447131514549255
0.009906833991408348
-0.00843926053494215
-0.011019783094525337
0.030486872419714928
-0.008385474793612957
-0.028181934729218483
0.024870527908205986
0.03919299319386482
-0.026118768379092216
0.008552712388336658
0.0012346941512078047
0.003420335939154029
0.0064065344631671906
0.014755221083760262
0.017859406769275665
0.006510014180094004
0.02488221786916256
-0.010716802440583706
-0.0326087549328804
-0.02672353945672512
0.031928326934576035
-0.013812401331961155
0.0037767335306853056
-0.0033830131869763136
-0.037587184458971024
-0.038472168147563934
-0.02377738058567047
-0.003717112820595503
-0.0016742161242291331
0.026149515062570572
-0.037412259727716446
0.022058337926864624
0.024479642510414124
0.0342550203204155
0.015117094852030277
0.019460070878267288
-0.0018119994783774018
0.03148781880736351
-0.014741748571395874
-0.03192441910505295
0.01748204231262207
-0.033751118928194046
-0.02997884340584278
0.02594085782766342
0.02927844040095806
0.033761218190193176
0.03536258637905121
-0.03704562783241272
0.026365552097558975
-0.007378780748695135
0.013580349273979664
-0.02284410409629345
-0.034209057688713074
-0.009661589749157429
