0.01092035323381424
0.05116783082485199
-0.1260690838098526
-0.035521961748600006
0.045691221952438354
-0.07176456600427628
-0.0024748346768319607
-0.0797763392329216
0.056003183126449585
-0.04279974102973938
-0.0807083249092102
-0.12044524401426315
-0.03462660685181618
-0.021823490038514137
-0.028339942917227745
-0.028431711718440056
-0.028209414333105087
0.003490039147436619
-0.11787617206573486
-0.01556259486824274
-0.10896872729063034
0.13508892059326172
0.0590512752532959
0.03354008123278618
-0.016847042366862297
-0.11347586661577225
0.11681902408599854
-0.04360147565603256
-0.01862982288002968
-0.04066785052418709
0.057259902358055115
-0.10432801395654678
0.031487129628658295
0.12972864508628845
-0.02945614792406559
0.02520051971077919
0.08965756744146347
0.014673713594675064
0.004196651745587587
0.1004086434841156
-0.01545607578009367
-0.11469846963882446
0.0859541967511177
0.06541362404823303
-0.006758463568985462
0.04042286053299904
0.00837402418255806
0.051174346357584
-0.01767098903656006
0.12735886871814728
0.01802140288054943
0.0958162173628807
0.06231216341257095
0.06060675159096718
-0.008234532549977303
-0.08512063324451447
0.11832761019468307
-0.10395848006010056
0.01219854038208723
-0.12054872512817383
-0.1146528571844101
-0.08489731699228287
0.05527087673544884
0.09583470225334167
