-0.039226844906806946
0.02621246688067913
0.04578149691224098
0.06307308375835419
0.036558348685503006
-0.05997617542743683
0.008766839280724525
-0.003185861511155963
0.06774454563856125
0.06250643730163574
-0.019949398934841156
0.035939354449510574
-0.07055690139532089
0.05753737688064575
-0.03071071393787861
0.01258926372975111
-0.019071463495492935
-0.05822344496846199
0.02126063033938408
0.04981973394751549
0.05173958092927933
0.06096138060092926
-0.049578700214624405
0.0007584228878840804
0.0031216118950396776
-0.06346490979194641
0.03412899747490883
0.006307578179985285
-0.011063895188272
-0.06260740011930466
0.05791870504617691
0.0662216916680336
0.010444306768476963
-0.06565114110708237
-0.06557869911193848
-0.034503910690546036
-0.02651795744895935
-0.00968593917787075
0.03407356142997742
0.04305747523903847
0.029739273712038994
0.06627973169088364
0.03570946678519249
0.06076856330037117
-0.016297409310936928
-0.02164078690111637
-0.05691669136285782
-0.034784767776727676
0.012472421862185001
0.05913939327001572
0.012661741115152836
0.06374884396791458
-0.010504317469894886
-0.0016558016650378704
0.03134820982813835
0.057708751410245895
-0.006005275063216686
0.05145815387368202
0.029549937695264816
0.024664025753736496
0.045989736914634705
-0.07036840915679932
0.034030064940452576
-0.023583080619573593
-0.0058698756620287895
-0.021278291940689087
0.07103274762630463
0.01628704182803631
-0.053392037749290466
0.06776085495948792
0.04526672512292862
0.007850109599530697
-0.019384989514946938
0.02458222582936287
-0.0634923204779625
-0.07059624046087265
0.060054559260606766
-0.04848436266183853
-0.06768139451742172
-0.05676385015249252
-0.04141717031598091
0.048960767686367035
0.03683801367878914
0.07262968271970749
-0.010667025111615658
-0.01732066459953785
0.026783430948853493
0.0392003208398819
-0.0401611365377903
0.02966683730483055
0.011156399734318256
0.005853657610714436
0.057297736406326294
-0.026153845712542534
-0.03901582583785057
0.0022934183944016695
-0.013505031354725361
0.003366075921803713
0.015188821591436863
-0.011708281934261322
0.051314324140548706
0.05000099167227745
-0.051384277641773224
0.061008747667074203
0.0612650066614151
0.010104440152645111
-0.039250630885362625
-0.06326691061258316
-0.040740009397268295
0.03915144503116608
0.05789726972579956
-0.026944179087877274
0.06097772344946861
-0.06182039901614189
0.026796286925673485
0.034293532371520996
0.05723040923476219
0.0691058337688446
0.0544857531785965
-0.008421420119702816
-0.01649409905076027
0.0039032164495438337
0.015735412016510963
0.026105061173439026
-0.06128636375069618
0.003977929707616568
0.06685979664325714
-0.004241724498569965
-0.03727097809314728
0.05579758435487747
0.006188030354678631
0.0467076301574707
-0.008926114067435265
-0.06710243225097656
-0.04110564664006233
0.06812509149312973
-0.055193766951560974
-0.025670070201158524
0.0667031779885292
0.0032779143657535315
-0.03676433116197586
-0.06724528968334198
-0.02503884769976139
-0.01053545530885458
0.025729022920131683
-0.0388358049094677
-0.046221744269132614
0.037548210471868515
-0.02974623441696167
-0.039599135518074036
0.04772912338376045
-0.018203094601631165
0.02907726541161537
0.0275458712130785
0.030749879777431488
-0.04284055158495903
-0.012838790193200111
0.006506048608571291
0.05939463526010513
-0.04718794673681259
0.01628648117184639
0.006498622242361307
-0.04850975051522255
-0.061157871037721634
0.06862182915210724
-0.025401843711733818
-0.05079100653529167
0.05928313359618187
0.0330372154712677
0.04300808534026146
-0.06461452692747116
-0.056570302695035934
-0.04319171980023384
0.0561080165207386
0.06425832211971283
0.03107762709259987
-0.04661216586828232
-0.02624829113483429
-0.06617948412895203
-0.028353316709399223
-0.03796979412436485
-0.009500373154878616
0.011976821348071098
-0.05175521597266197
-0.026496343314647675
-0.03586993366479874
0.02633420191705227
-0.048394374549388885
0.030752455815672874
-0.03221026062965393
0.06067199632525444
0.01254639495164156
0.03495617210865021
-0.05247743800282478
-0.06779685616493225
-0.030370516702532768
-0.06538819521665573
0.03373194485902786
0.06596074998378754
-0.0259852297604084
0.05047241598367691
0.06445271521806717
0.011694401502609253
0.024464067071676254
0.06203353777527809
0.06926752626895905
0.045301493257284164
0.006863920483738184
-0.018099229782819748
0.0404646061360836
-0.021061325445771217
-0.013380312360823154
-0.030420806258916855
-0.05487231910228729
-0.03536823019385338
-0.06572650372982025
-0.05475882068276405
-0.011476180516183376
0.021104276180267334
0.010497691109776497
0.015198938548564911
-0.01254977099597454
0.017572971060872078
0.016332361847162247
-0.009578163735568523
0.03672845661640167
0.03639110177755356
-0.05505925416946411
-0.058066681027412415
-0.06865668296813965
-0.038389045745134354
-0.036956485360860825
-0.02645142935216427
-0.04372911900281906
0.006208446342498064
-0.004034834448248148
0.032592713832855225
-0.06154824048280716
0.03324395790696144
-0.043516501784324646
0.01298128254711628
0.0678219422698021
0.01895895227789879
0.064547099173069
0.003661427181214094
0.008438904769718647
-0.06898447871208191
0.026752986013889313
-0.015108351595699787
0.04767221584916115
0.009840697050094604
0.06263728439807892
-0.04158880561590195
0.02201901562511921
-0.025374848395586014
-0.07178480923175812
0.002952180104330182
-0.0043933093547821045
-0.0667717307806015
-0.04030786082148552
0.03427595645189285
0.024257879704236984
0.04933793470263481
-0.03150477260351181
0.014565970748662949
-0.007446599658578634
-0.06743982434272766
8.52342855068855e-05
-0.02816782519221306
0.022783009335398674
-0.06414123624563217
0.07224053144454956
0.07388495653867722
0.06066989153623581
-0.032550033181905746
0.03399262949824333
0.07132000476121902
0.05369047820568085
0.012005805969238281
0.03287119418382645
-0.04713615030050278
0.024607978761196136
0.0378887839615345
0.01824459247291088
-0.07193119078874588
-0.04718963801860809
-0.059717752039432526
-0.05053114891052246
0.023078620433807373
0.032539065927267075
-0.034293752163648605
-0.05529065057635307
0.031173570081591606
-0.035589154809713364
0.0693584606051445
-0.064000204205513
0.030581887811422348
-0.055203989148139954
-0.01705746352672577
0.03303428739309311
-0.04414156451821327
0.014396848157048225
0.027087893337011337
-0.04443163424730301
-0.05921953544020653
-0.03483932837843895
-0.05512949079275131
0.059458594769239426
-0.0051523433066904545
-0.05086667090654373
0.051323726773262024
0.03317664563655853
-0.03342815488576889
-0.04855828359723091
-0.0015857324469834566
-0.06949100643396378
-0.04576528072357178
0.0367022305727005
0.02040559984743595
0.07087843865156174
-0.009465137496590614
-0.017666174098849297
-0.06278163939714432
-0.04991445690393448
0.03177555277943611
-0.04693058505654335
-0.06998427957296371
-0.010405401699244976
0.05912930890917778
-0.026558687910437584
0.03782572224736214
0.0066098179668188095
0.0521920807659626
0.05193975567817688
0.03576979413628578
0.029066814109683037
0.053547292947769165
0.03320471942424774
-0.03347458690404892
0.07014753669500351
0.016323797404766083
-0.07050535082817078
-0.061478935182094574
-0.06794936209917068
-0.024119598791003227
0.05993245914578438
-0.026037611067295074
-0.008796453475952148
0.05104806646704674
-0.06603408604860306
-0.03767877072095871
-0.023389620706439018
-0.05695820599794388
0.01707400195300579
-0.022128889337182045
0.05061551555991173
0.03432544693350792
0.043092936277389526
-0.012809914536774158
-0.041192058473825455
0.05360515043139458
0.053302161395549774
0.03917679563164711
0.06749691814184189
0.004455801099538803
-0.05846654251217842
0.03206605464220047
-0.051210783421993256
-0.007269172929227352
0.007053418084979057
0.01650971546769142
-0.06325796246528625
-0.026863649487495422
-0.06423389166593552
0.029620207846164703
-0.0634632334113121
0.05112527683377266
-0.026140961796045303
-0.006534618325531483
-0.0006794033106416464
0.032935090363025665
-0.023390870541334152
-0.017731647938489914
-0.0650450810790062
-0.037337977439165115
-0.06734554469585419
0.07494980841875076
-0.0012538322480395436
0.04975571855902672
0.05430424213409424
0.013992982916533947
0.07228437066078186
0.042731232941150665
0.01906239427626133
0.043093256652355194
-0.01921149529516697
0.03513200953602791
0.049917541444301605
0.026348337531089783
-0.001345032243989408
-0.04004281759262085
0.03986485302448273
-0.007912499830126762
-0.03873910382390022
-0.014410855248570442
0.05486166477203369
0.04480946809053421
0.021954454481601715
0.016986124217510223
0.04000968113541603
0.06476487964391708
-0.07088316977024078
0.00473754433915019
0.03196694701910019
0.028917061164975166
0.05536562204360962
0.030446231365203857
0.005830573383718729
0.04371212050318718
-0.07468058913946152
-0.0685686469078064
-0.017054282128810883
0.046914465725421906
-0.06399951875209808
0.02497207373380661
-0.012805294245481491
-0.06939010322093964
-0.01589248515665531
-0.01653289422392845
-0.03149580955505371
-0.0246018934994936
-0.025736460462212563
-0.06115249916911125
-0.07004468142986298
-0.005643418990075588
-0.04530609771609306
0.03000570461153984
0.0446670837700367
-0.014194275252521038
-0.04116002097725868
0.03324171528220177
-0.02445617876946926
0.024392761290073395
0.06666995584964752
0.02165873348712921
0.03304047882556915
-0.07225915789604187
-0.03182119503617287
0.015012826770544052
-0.009449328295886517
0.02359769493341446
-0.06846198439598083
-0.03950994089245796
-0.025082271546125412
-0.052955158054828644
0.009684492833912373
0.07142613083124161
-0.06924469769001007
-0.058594293892383575
0.022518031299114227
0.028818804770708084
0.011108742095530033
-0.025362830609083176
-0.046406008303165436
-0.020082753151655197
-0.060677241533994675
-0.02023722231388092
-0.026949826627969742
0.031858399510383606
0.05025707185268402
0.06678406894207001
-0.029655737802386284
-0.028580885380506516
0.04622650891542435
-0.009291675873100758
0.027626538649201393
-0.00026498938677832484
-0.06781258434057236
0.06756481528282166
-0.011945268139243126
0.05104796960949898
-0.050859421491622925
-0.008157902397215366
-0.05624990910291672
0.045655474066734314
-0.05474325641989708
-0.05428154394030571
0.023433618247509003
0.04756886139512062
-0.06306884437799454
-0.020824192091822624
0.062311168760061264
-0.040806546807289124
0.01730235293507576
-0.024989014491438866
-0.017237115651369095
-0.05548636615276337
0.07021164149045944
-0.02941194549202919
0.05869758129119873
-0.011418876238167286
-0.03995821624994278
-0.0627560168504715
0.017081409692764282
0.025814346969127655
-0.003147333860397339
0.0643770769238472
0.01669902168214321
-0.04449215531349182
-0.046419285237789154
-0.05225759372115135
-0.014471186324954033
0.025156432762742043
0.04122427850961685
-0.019995929673314095
-0.002951534930616617
-0.05758526176214218
0.047532133758068085
0.024461716413497925
0.023302432149648666
-0.015577082522213459
0.046155381947755814
0.002462799893692136
-0.06255964189767838
-0.054492656141519547
-0.03237046301364899
-0.015576666221022606
0.05673755332827568
0.02401256188750267
0.06548913568258286
-0.025365877896547318
0.004292326048016548
0.0181907769292593
0.03837163373827934
0.03259759768843651
-0.0036228380631655455
0.002511953702196479
0.040003370493650436
-0.03802957385778427
0.05166008323431015
0.002322801388800144
0.008513185195624828
0.02611846849322319
0.010485322214663029
0.007566770073026419
-0.033852241933345795
0.048737432807683945
-0.07005596905946732
-0.024367664009332657
-0.044004105031490326
0.04742686077952385
-0.0404735803604126
-0.006841765251010656
-0.06911555677652359
0.0743381604552269
-0.04933325573801994
-0.07180140167474747
-0.0648835077881813
-0.044268861413002014
-0.014287124387919903
-0.03142121806740761
0.004911649972200394
0.037702109664678574
0.006134682334959507
-0.05313477665185928
0.044252630323171616
0.07104241847991943
0.05156896263360977
-0.02133004553616047
-0.05425802245736122
-0.016674183309078217
-0.05519973859190941
-0.05696810036897659
0.05118986591696739
0.013195091858506203
0.01920056901872158
-0.046772539615631104
-0.07095302641391754
-0.013496925123035908
-0.05998079478740692
-0.03771587461233139
0.013236237689852715
-0.06109935790300369
-0.0008622378809377551
0.054079148918390274
-0.06917257606983185
0.029785146936774254
0.0406457744538784
0.052231013774871826
0.03254745900630951
0.07292702794075012
-0.009418551810085773
-0.030051028355956078
0.008707612752914429
0.019583232700824738
-0.07165111601352692
0.07029876857995987
0.03481563180685043
0.01990201324224472
0.028667066246271133
-0.01754586212337017
-0.006440273951739073
0.02706887386739254
-0.0580231137573719
0.03240722790360451
-0.037880051881074905
0.019085019826889038
-0.007374915760010481
-0.0619257390499115
0.04745223745703697
0.0683617815375328
0.07397192716598511
-0.00011612012895056978
0.04478946328163147
0.025201482698321342
-0.0355038158595562
-0.03046303614974022
0.015826253220438957
0.051037631928920746
-0.012432911433279514
0.05800890550017357
-0.010185451246798038
0.06739708036184311
-0.013606441207230091
-0.007625713478773832
0.027750451117753983
-0.04692257195711136
-0.015835698693990707
0.0036665915977209806
0.04071406275033951
0.029670773074030876
0.04732320085167885
0.05052340403199196
0.0021857568062841892
0.044747356325387955
-0.062474023550748825
-0.07352978736162186
-0.028368795290589333
0.027965927496552467
0.02097461186349392
0.030428750440478325
-0.008135112933814526
-0.06627661734819412
-0.043196745216846466
-0.060017574578523636
0.0027975598350167274
-0.010313926264643669
-0.048040181398391724
-0.02413063868880272
0.04802536591887474
0.026698611676692963
-0.03919504955410957
-0.057505227625370026
0.07963684946298599
0.019572176039218903
-0.06849709898233414
0.025713061913847923
0.06223572418093681
-0.027746006846427917
-0.04460011050105095
0.05165231600403786
0.006553642451763153
-0.043322090059518814
-0.05736697465181351
-0.029680583626031876
-0.0008113245130516589
0.039827436208724976
0.06226871535181999
-0.05138257145881653
-0.07238181680440903
-0.021286191418766975
-0.026194656267762184
0.005482112988829613
-0.04184652864933014
-0.05483362078666687
-0.07112150639295578
-0.013753201812505722
0.022675225511193275
-0.006457705050706863
-0.014864372089505196
0.01904478296637535
-0.03950006142258644
0.05365477874875069
-0.06457462161779404
-0.06531299650669098
-0.038280852138996124
-0.037528689950704575
0.01134280115365982
-0.02653772570192814
-0.07305040955543518
-0.07496289908885956
-0.05213088542222977
-0.06905040144920349
0.0008042805711738765
0.010006875731050968
-0.05696311220526695
0.029302412644028664
-0.010989243164658546
0.04893016442656517
0.023280490189790726
0.05084329843521118
0.021718475967645645
0.016368843615055084
-0.0010766496416181326
0.056628186255693436
-0.07173629105091095
0.039329104125499725
-0.04303499311208725
-0.014530341140925884
0.02224409393966198
-0.04486115276813507
-0.01247892901301384
-0.03433588519692421
0.05154535546898842
-0.06897637248039246
0.06061528995633125
-0.021761607378721237
-0.03387407585978508
-0.041944459080696106
-0.058402691036462784
-0.04903324320912361
-0.06359586119651794
-0.04299373924732208
0.036535341292619705
0.0019429234089329839
0.0376456081867218
-0.0017424133839085698
-0.07352230697870255
0.023420454934239388
0.00769607350230217
0.04283011332154274
-0.05689244344830513
0.02800115942955017
-0.04802854731678963
-0.03506985679268837
-0.03376924991607666
0.03950604796409607
0.0013235629303380847
0.0009169496479444206
0.004296185914427042
-0.026419948786497116
0.015174152329564095
-0.016277028247714043
-0.06386533379554749
-0.03936927393078804
-0.05486283451318741
0.05016936734318733
0.019864492118358612
0.07568728923797607
-0.028928333893418312
-0.014022011309862137
0.03841954842209816
-0.004909326788038015
-0.02217491902410984
0.050938088446855545
-0.07045135647058487
0.06919622421264648
0.02658066526055336
-0.027660494670271873
0.06723102927207947
0.07384469360113144
-0.027470968663692474
-0.05906636640429497
-0.0018282015807926655
-0.05033352971076965
0.023082278668880463
-0.03717808052897453
0.0414729081094265
0.028197739273309708
0.06778737157583237
0.01407095417380333
-0.02517571486532688
0.012124341912567616
-0.05782729759812355
-0.03146088123321533
0.05905243009328842
-0.04529412090778351
0.03763125091791153
-0.054554231464862823
-0.0700458437204361
0.05886466056108475
-0.019284436479210854
-0.050763089209795
0.011863399296998978
0.03504324331879616
0.014447437599301338
-0.004771415609866381
-0.044310618191957474
-0.04132293164730072
0.03745736926794052
-0.03957069665193558
-0.0483795627951622
0.05495559424161911
0.032191865146160126
0.06436420977115631
8.09773409855552e-05
-0.04526284709572792
-0.012549336068332195
0.05914144217967987
-0.0735495537519455
0.06486155837774277
0.020234135910868645
-0.019940806552767754
-0.05750294774770737
-0.06877634674310684
0.015548311173915863
-0.001488846610300243
0.02335153892636299
-0.06256364285945892
0.04402325674891472
-0.04802457243204117
-0.03119373507797718
0.011210181750357151
-0.030000504106283188
-0.06470658630132675
0.022044209763407707
-0.038376882672309875
0.03389948233962059
-0.007866846397519112
0.016472963616251945
0.012077553197741508
-0.059447064995765686
0.02845960669219494
0.019896522164344788
-0.061268631368875504
-0.05318564921617508
-0.020975109189748764
0.03506160154938698
-0.03533169999718666
-0.03764873743057251
0.04453984275460243
-0.035694099962711334
-0.004885985050350428
0.024160342290997505
-0.0009352242923341691
0.033310648053884506
0.02334466390311718
0.04600639268755913
-0.03438308835029602
0.04582712799310684
-0.07261087745428085
-0.004255692474544048
0.044465068727731705
0.06327009946107864
-0.0202314555644989
0.024264337494969368
0.0416952520608902
-0.04727470129728317
0.06865856796503067
-0.0035552657209336758
0.06074310839176178
0.06349433958530426
0.035362981259822845
-0.04819200932979584
0.014252184890210629
-0.030529307201504707
0.017218105494976044
0.06433460116386414
-0.04684176295995712
0.02073170803487301
0.04016244411468506
0.013323687016963959
0.058768000453710556
0.03275191783905029
0.03012167103588581
-0.04619704186916351
0.029921172186732292
0.008302395232021809
0.0030792427714914083
0.052939001470804214
0.050618987530469894
0.014544590376317501
-0.025357143953442574
0.0048646479845047
-0.030634433031082153
-0.05321631208062172
0.06440956890583038
-0.06756984442472458
-0.05373940244317055
0.010943425819277763
-0.0677807629108429
-0.001315165776759386
-0.02893645316362381
0.014947849325835705
0.0680561512708664
0.04173380881547928
-0.026615239679813385
-0.07426734268665314
0.05093221366405487
-0.042623359709978104
0.033561594784259796
0.052506595849990845
-0.0707409605383873
-0.006164313293993473
-0.029115434736013412
-0.01112454291433096
-0.05064554885029793
0.003332780674099922
0.004654326941817999
-0.030958427116274834
0.006592116318643093
0.018973153084516525
-0.013473136350512505
-0.0006555090076290071
0.061064910143613815
0.005800976883620024
-0.04921162500977516
0.04030327871441841
-0.06590460985898972
-0.006600349675863981
0.05423237383365631
0.01875840686261654
-0.027845177799463272
0.007160380017012358
-0.010438141413033009
-0.038667742162942886
-0.01929858885705471
0.05513276159763336
-0.04969874769449234
-0.01284195575863123
-0.04728752747178078
0.008239973336458206
-0.007071593310683966
-0.014455442316830158
-0.05998333543539047
-0.004011782351881266
0.04912564158439636
0.014510253444314003
-0.034244272857904434
-0.0107119744643569
0.010478222742676735
0.04892241954803467
0.057196784764528275
0.04754762351512909
0.05553470179438591
0.025165671482682228
-0.07013735920190811
0.04950842633843422
0.026989001780748367
0.008939961902797222
-0.038792937994003296
0.054989565163850784
-0.031760748475790024
-0.05660122260451317
-0.041697368025779724
0.04215296357870102
-0.03976995497941971
0.008326083421707153
-0.07156363874673843
-0.012536716647446156
-0.024726632982492447
-0.0007777133141644299
-0.01123732514679432
0.010297373868525028
0.06615355610847473
-0.001650284742936492
-0.054008860141038895
-0.007044026628136635
-0.009967498481273651
-0.0015917682321742177
-0.05869380012154579
-0.06267834454774857
-0.02746509574353695
-0.06277715414762497
0.05256981775164604
-0.010718121193349361
0.03085608407855034
0.05180537700653076
-0.0063856192864477634
0.03756510466337204
-0.06168757379055023
0.013989037834107876
0.02914934791624546
0.0037713395431637764
-0.056814126670360565
-0.010626102797687054
0.07032998651266098
-0.06524717062711716
0.04835187643766403
0.04553750902414322
-0.028131388127803802
0.03581961616873741
-0.055288419127464294
-0.028739657253026962
-0.0763750672340393
-0.028637001290917397
0.05466056987643242
-0.011691135354340076
0.04577568173408508
-0.0614887997508049
0.04928229749202728
0.04481518268585205
-0.03743087872862816
-0.014179990626871586
-0.03077654354274273
0.060628294944763184
0.058324191719293594
-0.027024801820516586
-0.058883994817733765
-0.03431329131126404
-0.0010426115477457643
-0.02014763467013836
0.06380631029605865
-0.030041156336665154
-0.07188303023576736
0.04155278205871582
0.0003466612834017724
0.06460681557655334
-0.02302618883550167
0.06183461472392082
0.03673147037625313
-0.024495117366313934
-0.0019609753508120775
0.06154449284076691
0.06489384174346924
0.007334140129387379
0.0224780086427927
0.0100115230306983
-0.05107545107603073
-0.04269271716475487
-0.03193613514304161
-0.023416223004460335
-0.028096050024032593
0.034669775515794754
0.06355376541614532
-0.007695371750742197
0.0009337083902209997
0.05438477173447609
-0.016138896346092224
0.03529940918087959
0.07525715231895447
-0.008686891756951809
0.02160319872200489
-0.017114171758294106
-0.03982607275247574
0.0072554233483970165
-0.007619885262101889
0.07773198932409286
0.0007747833151370287
-0.0068602305836975574
-0.035527847707271576
0.057346928864717484
0.017461709678173065
0.06190700829029083
-0.05841444060206413
0.06930741667747498
0.0636669173836708
-0.0565231591463089
-0.04534583538770676
-0.048350390046834946
0.04385776072740555
0.002170911990106106
0.06003381684422493
-0.059725791215896606
0.023226499557495117
0.04865267500281334
-0.010743435472249985
-0.03454071655869484
-0.06189301609992981
0.005894790403544903
-0.00365762528963387
0.06022991985082626
-0.06881669163703918
-0.06646636873483658
0.059653375297784805
-0.029724154621362686
0.011651518754661083
-0.030852818861603737
0.002195287263020873
0.06372982263565063
-0.015439921990036964
-0.03447708487510681
-0.04614526033401489
-0.03606963902711868
0.020449552685022354
-0.057907816022634506
-0.03225809708237648
-0.06489741057157516
-0.014843621291220188
0.03474423289299011
0.05096295103430748
0.028761472553014755
0.07738207280635834
0.009428382851183414
0.046960167586803436
0.01721966080367565
-0.039361096918582916
0.01046439353376627
0.06131483241915703
0.05323423817753792
0.013753939419984818
0.037617918103933334
0.019907554611563683
0.0061799706891179085
-0.010159884579479694
-0.020113572478294373
0.05056683346629143
-0.005933511536568403
0.04150724411010742
0.04793582484126091
-0.032272882759571075
-0.028486907482147217
-0.03588613495230675
0.011474518105387688
-0.07271198183298111
-0.011814123950898647
0.021150030195713043
-0.0007442005444318056
-0.07012759149074554
0.03537410870194435
5.703749047825113e-05
0.0003122100606560707
0.06104617193341255
0.003141454653814435
0.023157356306910515
-0.024010024964809418
0.025919483974575996
-0.05761520564556122
0.07089605927467346
0.015361150726675987
0.03292765095829964
0.04979053512215614
-0.061686061322689056
-0.04157042130827904
-0.06280817836523056
0.010902847163379192
-0.05282305181026459
0.012162191793322563
-0.04273147135972977
0.062422432005405426
0.045914310961961746
0.013863825239241123
0.008553369902074337
-0.0006936464342288673
-0.015562479384243488
0.0017763510113582015
-0.06085570901632309
-0.037203144282102585
-0.0692874938249588
-0.011772757396101952
-0.024158889427781105
0.06657019257545471
-0.07083302736282349
-0.039774104952812195
-0.06859290599822998
-0.004135951865464449
0.0017930925823748112
-0.06276209652423859
0.053896162658929825
-0.02574295550584793
0.04549334943294525
-0.05366019532084465
0.014121809042990208
-0.032261818647384644
0.06958118826150894
0.06197517737746239
-0.018549926578998566
-0.01611996255815029
-0.06761525571346283
-0.007344982586801052
-0.03436973690986633
0.02877044677734375
-0.05664300546050072
-0.06729400157928467
-0.04267165809869766
-0.01677192747592926
-0.012933739461004734
0.024930894374847412
0.033844221383333206
-0.030597452074289322
-0.027520883828401566
0.02081117033958435
0.018642093986272812
0.018919063732028008
0.019532369449734688
-0.0870475172996521
-0.0422096885740757
-0.0433715395629406
-0.10162794589996338
0.0648030936717987
-0.04044849053025246
0.04284300282597542
-0.06676051765680313
0.0370016023516655
-0.057719647884368896
-0.0753636583685875
-0.03875494375824928
-0.020192036405205727
0.030730431899428368
0.006070389412343502
0.07918237149715424
0.054927341639995575
-0.01879345439374447
-0.029856830835342407
-0.01883471943438053
-0.04502813145518303
-0.027797464281320572
-0.01879166066646576
-0.004195427056401968
-0.05699446424841881
0.06512494385242462
-0.04003559425473213
-0.03867708146572113
0.04639748856425285
0.021436335518956184
0.013654947280883789
-0.03210282698273659
0.022352945059537888
0.05576839670538902
-0.01641896367073059
-0.057880863547325134
-0.03659699484705925
-0.06242940574884415
-0.07007164508104324
0.0162779800593853
0.005352251697331667
0.056750986725091934
-0.058712657541036606
0.0582922138273716
-0.016766004264354706
-0.0468415804207325
0.052397843450307846
-0.06762606650590897
0.002043924294412136
-0.07467175275087357
-0.07104174792766571
0.0037700082175433636
0.05664612725377083
-0.04508277773857117
-0.039261411875486374
0.035362470895051956
0.048516444861888885
-0.03834529593586922
-0.03293250501155853
0.06420039385557175
0.08933602273464203
-0.04286878556013107
-0.06554149836301804
0.001850379747338593
-0.0632745698094368
-0.06002701446413994
0.02644696645438671
0.07453425973653793
0.0739368125796318
0.006357104517519474
0.043519455939531326
-0.06430060416460037
-0.03376525267958641
-0.047316018491983414
0.010754713788628578
0.0629178136587143
0.042858708649873734
0.03951463848352432
-0.016266029328107834
0.07021228969097137
0.05371857434511185
-0.04682141914963722
0.0776587724685669
0.07572364807128906
-0.07086719572544098
0.07518012076616287
-0.017336169257760048
0.0401475690305233
0.06395252794027328
-0.03633425012230873
-0.007573997136205435
0.06441875547170639
-0.004495800472795963
-0.002427230356261134
-0.038478247821331024
0.03625413775444031
0.019526680931448936
0.018962254747748375
0.05209691822528839
0.0028446074575185776
-0.0480157732963562
-0.016929246485233307
-0.064421147108078
-0.06296360492706299
-0.05267326906323433
0.06257353723049164
0.023853903636336327
-0.05912764370441437
-0.06149296090006828
-0.0489921048283577
-0.04426388069987297
-0.04684632271528244
-0.01084967702627182
-0.04786772280931473
-0.03743940219283104
-0.014545487239956856
0.061062462627887726
-0.009377452544867992
0.06566924601793289
0.03953396528959274
-0.026957480236887932
0.05787681043148041
-0.010554756037890911
-0.05642241612076759
-0.010551034472882748
-0.06389599293470383
-0.024774203076958656
-0.07217472791671753
0.021134935319423676
-0.07378052920103073
-0.0343259759247303
-0.04450807720422745
0.04439272731542587
-0.045952215790748596
-0.058206044137477875
-0.06694655120372772
0.06753022968769073
-0.030097270384430885
-0.053225692361593246
0.009706218726933002
-0.03375858813524246
-0.008860749192535877
-0.04702342301607132
-0.007948245853185654
-0.024319734424352646
-0.02265334315598011
-0.07098986953496933
0.03899411857128143
-0.0426454097032547
-0.03046848624944687
0.018047666177153587
0.05931879207491875
-0.03753066435456276
-0.015249541029334068
0.08016877621412277
0.04855644702911377
0.055420998483896255
0.0009041151497513056
0.04452547803521156
-0.043681297451257706
0.03534000739455223
-0.045839253813028336
-0.021634861826896667
-0.035929277539253235
0.04250901937484741
0.06840193271636963
0.029791248962283134
0.031166383996605873
-0.0430959090590477
-0.051303695887327194
0.01868535205721855
0.06147289648652077
-0.01733599230647087
-0.038840871304273605
-0.01049073040485382
0.04990672320127487
0.01225057803094387
0.06176513433456421
0.07681811600923538
0.06102391332387924
0.0301089845597744
0.03634629771113396
0.019984398037195206
0.01568034663796425
-0.04160963371396065
0.022339288145303726
-0.0009937707800418139
0.03352686017751694
-0.025575438514351845
0.021310722455382347
0.02919519878923893
0.03680417686700821
-0.023321019485592842
-0.07423635572195053
0.03836400434374809
-0.03794841095805168
0.06565502285957336
-0.002078617224469781
-0.06535796821117401
0.019253171980381012
0.011176453903317451
0.002039788058027625
0.02067415788769722
0.0632510781288147
-0.020408738404512405
0.03538930416107178
0.021016305312514305
-0.0004865094379056245
0.012764549814164639
-0.05733311176300049
-0.019899005070328712
0.026285085827112198
-0.03328172490000725
-0.060599952936172485
0.03950110822916031
0.027785172685980797
0.05793829262256622
0.004850631579756737
-0.047419529408216476
0.06114858761429787
-0.06414790451526642
-0.04415038600564003
0.05213533341884613
0.03504464402794838
-0.05922463536262512
-0.06374990195035934
0.05305377021431923
-0.05663462355732918
0.009258962236344814
0.030590146780014038
-0.01820910908281803
0.03296788036823273
0.088543601334095
-0.05764647200703621
-0.0006643390515819192
0.03213458135724068
-0.04359440132975578
-0.03201773017644882
0.008595702238380909
0.002274133963510394
0.03104405850172043
0.02039198949933052
0.02331169880926609
-0.038939327001571655
0.022515393793582916
-0.014163046143949032
0.026590267196297646
0.008413095958530903
0.07449336349964142
-0.058579087257385254
-0.02787206508219242
0.03931824117898941
0.021891575306653976
-0.05587991327047348
-0.02162613719701767
0.011510699987411499
-0.012827283702790737
-0.06475334614515305
-0.008462964557111263
0.07968402653932571
-0.02120807208120823
-0.060784582048654556
-0.02397039532661438
0.009758959524333477
-0.039544183760881424
0.07013930380344391
-0.014257327653467655
-0.03827131912112236
-0.039377111941576004
-0.03688421845436096
-0.06396232545375824
-0.008818013593554497
-0.056845713406801224
-0.02552853524684906
-0.01486651599407196
-0.06013070046901703
0.061837710440158844
0.051021698862314224
0.05597063899040222
0.05997103452682495
-0.03179575875401497
0.01881410740315914
0.036701563745737076
0.07480129599571228
-0.015518791042268276
-0.015482310205698013
0.05606246367096901
-0.05676636844873428
-0.056391216814517975
0.036551836878061295
0.03429047390818596
0.02235935814678669
0.05652856081724167
0.06939810514450073
-0.003783653723075986
-0.04902802035212517
0.0015335164498537779
0.04734112694859505
-0.00823686458170414
-0.044294487684965134
0.0619417168200016
0.03750118240714073
-0.01254806574434042
-0.04329552501440048
0.0348658412694931
-0.06046731024980545
-0.023122651502490044
0.058153752237558365
0.03958854079246521
-0.06432928889989853
-0.015094554051756859
-0.03511922061443329
-0.051006872206926346
0.029953163117170334
0.03652207553386688
0.03971238061785698
0.031349197030067444
0.05672426149249077
-0.03896980360150337
0.043419573456048965
-0.03471489995718002
0.057907238602638245
0.008298344910144806
-0.02633427269756794
-0.041018933057785034
-0.024134710431098938
-0.010288503021001816
-0.0441744364798069
0.0017246465431526303
-0.033000338822603226
-0.04204435274004936
-0.041685301810503006
-0.060842365026474
0.022813472896814346
0.06619559973478317
-0.055812329053878784
-0.059531036764383316
0.06195022538304329
0.05338466167449951
0.07470781356096268
-0.009412060491740704
0.058163464069366455
-0.04074571654200554
-0.027021998539566994
-0.033971309661865234
-0.03816809132695198
-0.040743838995695114
-0.007227491587400436
0.020975874736905098
0.03065863437950611
0.016734158620238304
-0.01759098656475544
-0.05018040910363197
0.014217065647244453
-0.0435829795897007
0.004103448707610369
0.08860059082508087
-0.006076214835047722
0.038121044635772705
-0.0022248185705393553
-0.0477912575006485
0.011419502086937428
-0.07179123908281326
-0.011585445143282413
0.044732559472322464
-0.01941605471074581
0.02892477996647358
-0.03306243196129799
0.06041455641388893
0.020835408940911293
0.01897541433572769
-0.030318522825837135
-0.04124338552355766
0.039687804877758026
0.05418391525745392
0.010208599269390106
0.08068980276584625
0.03263828158378601
-0.04479994624853134
0.06649018824100494
0.03564010560512543
0.06571727246046066
-0.056201495230197906
-0.05115209519863129
0.06240732595324516
0.03519069030880928
0.009944981895387173
0.06267744302749634
0.06551384925842285
-0.0578739270567894
0.05480847507715225
-0.06498891115188599
0.0048219081945717335
-0.053795650601387024
0.06086506322026253
0.02826659381389618
-0.06471440941095352
-0.05366593599319458
0.06836487352848053
0.03210609406232834
-0.046506546437740326
-0.052133917808532715
-0.0696445107460022
0.02558007836341858
-0.004951003007590771
-0.024672430008649826
0.07526158541440964
0.057230979204177856
0.015605556778609753
-0.038918692618608475
-0.06866654008626938
0.049617182463407516
0.033514752984046936
0.0029528848826885223
-0.029186073690652847
0.045982908457517624
-0.03608691319823265
0.007893325760960579
-0.0036581556778401136
0.0023244356270879507
0.024765001609921455
0.009508051909506321
0.04908241704106331
-0.02232527546584606
0.005107524339109659
-0.0756116658449173
-0.04554548114538193
0.06603553891181946
0.04248641058802605
-0.054051779210567474
0.045581791549921036
0.0391133688390255
0.05412087216973305
0.00015190867998171598
-0.01972908526659012
-0.07038682699203491
0.041237231343984604
-0.03503229096531868
-0.013028649613261223
-0.032380569726228714
0.011528119444847107
-0.06797727197408676
0.049864090979099274
0.04539072886109352
-0.05893746390938759
0.02522120624780655
0.0786789134144783
0.005128437653183937
0.057488128542900085
-0.03695668652653694
-0.026195764541625977
-0.0173217561095953
-0.0664716586470604
-0.030240295454859734
0.008602118119597435
0.03463263064622879
-0.02239709347486496
0.06752552092075348
0.0514114685356617
-0.013730545528233051
-0.03587161749601364
-0.06381481885910034
-0.01275874674320221
0.04347286373376846
0.07235618680715561
-0.05439060181379318
4.393266135593876e-05
0.023418962955474854
0.05607770010828972
0.06074324622750282
-0.04619167000055313
-0.03186401352286339
0.06652087718248367
0.05079825967550278
0.00911181140691042
-0.05366669222712517
-0.07172809541225433
-0.015308676287531853
0.005018985364586115
-0.01645936258137226
-0.018757764250040054
-0.0039291237480938435
0.0022567424457520247
0.059032220393419266
0.06438364833593369
-0.06617923080921173
-0.042277492582798004
0.010384789668023586
0.059261664748191833
-0.045776594430208206
0.07633472234010696
-0.013931737281382084
-0.0534408763051033
-0.050243817269802094
0.02916960045695305
-0.02931220270693302
-0.06474702060222626
-0.03525916486978531
0.036474041640758514
-0.0675746351480484
-0.06153335049748421
0.025991277769207954
-0.07606759667396545
-0.05363035202026367
0.02994133159518242
0.05200982838869095
0.03552890568971634
-0.007723197806626558
0.01683797314763069
-0.032450564205646515
-0.009837356396019459
0.07173124700784683
0.020719846710562706
-0.040859952569007874
0.011008513160049915
-0.019378619268536568
0.04030238091945648
-0.06459246575832367
0.0550682470202446
-0.050600066781044006
-0.019914008677005768
0.0007423078059218824
-0.07723823934793472
-0.00797316338866949
-0.01669187657535076
-0.0187242291867733
-0.05977902561426163
0.02970404550433159
0.004519162233918905
0.028819622471928596
-0.0185030959546566
-0.04131675139069557
0.023631436750292778
0.015146993100643158
0.030249405652284622
-0.003474056487902999
0.032444652169942856
-0.014062696136534214
-0.03967559337615967
-0.0019790632650256157
0.013292502611875534
0.017855554819107056
-0.025348393246531487
0.06403657793998718
0.03396964445710182
0.018098752945661545
-0.060744352638721466
-0.02380487695336342
-0.030281420797109604
-0.04688969627022743
-0.001202764455229044
0.01071802619844675
0.011923554353415966
-0.037958819419145584
0.013874349184334278
0.08450338989496231
0.043148867785930634
0.03746292367577553
-0.04171668738126755
-0.04913230240345001
-0.04261624068021774
-0.009919233620166779
-0.008683988824486732
-0.005716005340218544
0.009337497875094414
-0.014112032018601894
-0.0529964379966259
0.07061684876680374
-0.012596892192959785
-0.06528560072183609
0.015190931037068367
0.09318824857473373
-0.016433224081993103
0.05478082597255707
0.05863381177186966
-0.03430405259132385
-0.015636499971151352
0.01782754622399807
-0.034231990575790405
-0.03943641856312752
0.02347472496330738
0.06823818385601044
0.06463829427957535
0.00044257676927372813
0.039981141686439514
-0.0006871811347082257
-0.05410107597708702
-0.01478133350610733
0.06085579842329025
-0.060031015425920486
0.03419908508658409
0.07886523753404617
0.037762876600027084
-0.014567566104233265
0.06173234432935715
-0.0308324433863163
-0.06526508182287216
-0.045827388763427734
0.001720896572805941
0.00942922942340374
0.04324999079108238
0.04193694889545441
0.06472043693065643
0.06061484292149544
-0.016262726858258247
-0.04172063246369362
-0.054572634398937225
0.023903697729110718
0.018878774717450142
0.03058222122490406
0.03307207673788071
-0.05299093946814537
0.035678647458553314
-0.06482209265232086
-0.08513772487640381
0.00033026246819645166
-0.0228339321911335
-0.013509952463209629
-0.03860490024089813
-0.040234290063381195
-0.0652317926287651
-0.0475960373878479
0.04501640051603317
0.009076758287847042
0.02139163203537464
0.028845323249697685
0.04792173206806183
0.010661830194294453
0.009727121330797672
-0.00809521321207285
0.007632443681359291
0.02310314029455185
-0.012312953360378742
0.018543457612395287
-0.03737948462367058
0.0033227482344955206
0.026393761858344078
0.06742564588785172
0.08285732567310333
-0.03558669984340668
-0.059702493250370026
0.02512332610785961
-0.0032540420070290565
-0.0462033785879612
0.04816102609038353
-0.024883491918444633
0.046837981790304184
0.016061285510659218
-0.05360185727477074
-0.06990829110145569
0.05315524712204933
-0.028957566246390343
0.06988009065389633
-0.02447793446481228
0.024867020547389984
0.03662976995110512
-0.0391557477414608
0.024624723941087723
0.07812098413705826
0.02957393229007721
0.07296445965766907
-0.058689381927251816
-0.002927544293925166
-0.02260720729827881
0.005234568379819393
-0.07422467321157455
-0.0069595398381352425
0.004871842451393604
0.06068803742527962
0.036252040416002274
0.021121354773640633
-0.002060540020465851
-0.019307278096675873
-0.045826807618141174
0.012751856818795204
0.004965732339769602
0.004385803826153278
-0.032272305339574814
0.06686987727880478
-0.03914203867316246
-0.0044784690253436565
-0.06327361613512039
0.018946964293718338
-0.01574355736374855
-0.05069228634238243
0.0400446355342865
0.043896257877349854
0.006540179252624512
0.0033409290481358767
0.0406344011425972
0.01981588639318943
-0.07713697850704193
0.001993478974327445
-0.005075584631413221
-0.03531535714864731
-0.05767260864377022
0.04447753727436066
0.06114945560693741
-0.02057107724249363
0.07207988947629929
-0.03662644699215889
0.061468999832868576
0.02743043191730976
0.01953321322798729
-0.005206513684242964
-0.008748114109039307
0.041939616203308105
-0.020284660160541534
0.03027249686419964
-0.06975986808538437
0.06683371961116791
0.04608317092061043
-0.0771772712469101
0.06025434657931328
0.00982215628027916
-0.028119416907429695
-0.021112995222210884
0.0711522325873375
0.014394404366612434
-0.06872052699327469
0.017577296122908592
-0.08855459839105606
-0.04296541213989258
0.019724596291780472
-0.06872047483921051
0.04157930612564087
0.04285288602113724
-0.05576344579458237
-0.04423683509230614
-0.03931933641433716
-0.0672575831413269
-0.009374241344630718
0.011672094464302063
0.05529394373297691
-0.05939195305109024
0.021071268245577812
-0.04650803655385971
0.06112057343125343
0.03314812108874321
0.013807258568704128
0.051336098462343216
0.04746111482381821
-0.009366636164486408
0.02141030691564083
0.045648425817489624
0.023219356313347816
-0.04981449246406555
0.03316120803356171
0.0014215821865946054
-0.061662863940000534
-0.037841588258743286
0.02799375168979168
0.044187966734170914
0.044054094702005386
0.06161170080304146
0.05343921110033989
0.005722312722355127
-0.004831148777157068
-0.013837983831763268
-0.026274874806404114
0.021025044843554497
0.04292437806725502
0.007981870323419571
-0.049543384462594986
0.06639302521944046
-0.013278709724545479
-0.007856971584260464
-0.007224023807793856
-0.021088792011141777
0.035132307559251785
-0.022512683644890785
0.03950852155685425
0.03687819465994835
-0.0391559861600399
0.06230927258729935
-0.029521405696868896
-0.026157105341553688
-0.006588950753211975
-0.02997647598385811
0.0009528817608952522
-0.01464639138430357
0.009540921077132225
-0.0689251646399498
0.012526082806289196
-0.06060520187020302
-0.0007834805874153972
0.05394080653786659
0.053701188415288925
0.06668183952569962
-0.009979206137359142
-0.07238611578941345
0.05394846200942993
-0.04208475351333618
-0.01701279915869236
0.05783417448401451
-0.006519265938550234
-0.06287704408168793
-0.0591120608150959
0.0046634008176624775
0.021648524329066277
-0.033782657235860825
-0.027184586971998215
-0.06917835772037506
-0.06989572942256927
-0.05451681464910507
-0.00609871419146657
-0.07413487881422043
-0.05592130497097969
0.04372790828347206
-0.056631144136190414
0.03200451657176018
0.0360448881983757
-0.0655224472284317
-0.02000216394662857
0.0626181811094284
0.0650801956653595
-0.056776657700538635
0.025563234463334084
-0.04057396203279495
0.005943698342889547
-0.06532415747642517
0.056519001722335815
-0.05209700018167496
-0.031557027250528336
-0.020219899713993073
-0.0072260755114257336
0.068222776055336
0.07997403293848038
0.05192623287439346
-0.05087904632091522
-0.0012385171139612794
-0.05723738297820091
-0.005353862419724464
0.017733588814735413
0.027948729693889618
0.009352345019578934
0.009271367453038692
-0.007648813538253307
-0.03426901996135712
-0.020285161212086678
0.05573760345578194
-0.04196122661232948
0.06399568915367126
-0.017380159348249435
-0.0193803533911705
0.06080487370491028
-0.011578013189136982
0.04130440205335617
0.05447758361697197
-0.05939997360110283
-0.053246356546878815
0.06474576145410538
-0.04875626787543297
0.016178105026483536
0.009686424396932125
-0.06513766944408417
-0.06613422930240631
-0.054582275450229645
0.008122713305056095
0.010592231526970863
-0.00789584405720234
-0.038845211267471313
-0.008053865283727646
0.060574907809495926
-0.009667661041021347
-0.01085292175412178
-0.028397968038916588
-0.06690584868192673
0.01584281213581562
-0.01482533011585474
0.05634767934679985
-0.05034217983484268
0.07532293349504471
0.02494894526898861
0.0427246131002903
-0.044672682881355286
-0.018151260912418365
-0.004447707440704107
0.023444581776857376
-0.011107321828603745
0.04136304557323456
0.018579525873064995
0.013051073998212814
0.02617853507399559
-0.010745318606495857
-0.056234221905469894
0.055800680071115494
-0.030456725507974625
0.033688340336084366
0.007069334387779236
0.0667339339852333
0.018845252692699432
-0.008847957476973534
0.0058770389296114445
0.01777983456850052
-0.050755575299263
-0.0685374066233635
-0.05288424715399742
0.05258162319660187
0.006304625421762466
0.05357205867767334
-0.060757238417863846
-0.03549562022089958
0.022450992837548256
-0.06366167217493057
0.05208771675825119
0.06377793848514557
0.005390262231230736
0.05240980535745621
0.03704158961772919
0.030925843864679337
0.011213207617402077
-0.06952205300331116
-0.06806536018848419
0.0668921247124672
0.04095887020230293
0.04974490776658058
-0.07267796993255615
0.012901408597826958
0.03524152562022209
-0.027174631133675575
0.025456320494413376
0.06811302900314331
0.05925438180565834
0.026162054389715195
-0.06744236499071121
-0.016266275197267532
-0.01638919860124588
0.03885550796985626
-0.04401485621929169
-0.0566105991601944
0.010994384996592999
-0.01787916012108326
0.04985320195555687
0.04818563535809517
-0.025020433589816093
-0.007926419377326965
0.018032431602478027
-0.05088718608021736
-0.059020642191171646
0.05860554426908493
0.06588836014270782
0.03703799471259117
-0.06048870459198952
0.05881467089056969
-0.03567987307906151
0.05055192485451698
-0.010601785965263844
0.0171908400952816
0.05227624252438545
0.02139131911098957
-0.03674459829926491
0.03652671352028847
-0.04626254364848137
-0.06335907429456711
-0.014475356787443161
0.06918278336524963
-0.021305279806256294
-0.031311534345149994
0.003064474556595087
0.011907866224646568
-0.07318101078271866
0.018906457349658012
-0.027153000235557556
0.0019218777306377888
0.04457637295126915
-0.05238688737154007
-0.019572043791413307
-0.03262398764491081
0.024432480335235596
-0.03486330807209015
-0.023882918059825897
-0.062607042491436
-0.01623029075562954
-0.004286280833184719
-0.007534911390393972
-0.02171747386455536
0.06557925790548325
-0.009588339366018772
0.0682385191321373
-0.03960779309272766
-0.06841522455215454
0.017935877665877342
-0.011746772564947605
-0.039054494351148605
-0.022670874372124672
0.03327023983001709
-0.022012878209352493
0.024906571954488754
0.04367184266448021
0.0025683045387268066
-0.07501914352178574
-0.07731084525585175
-0.0720069631934166
-0.034613918513059616
0.0521477609872818
-0.017131011933088303
0.06807753443717957
0.06728345900774002
-0.038464903831481934
-0.05591895058751106
-0.022706612944602966
0.05283421277999878
-0.0559413768351078
-0.0073350220918655396
0.06254308670759201
-0.07246685028076172
0.015063239261507988
0.020086059346795082
0.05902386084198952
-0.07434304058551788
-0.05310073867440224
0.0407833568751812
-0.07121118903160095
-0.012727167457342148
-0.0314708910882473
0.033677294850349426
-0.03353689983487129
0.046749282628297806
-0.043454255908727646
0.041324432939291
0.07169065624475479
0.028797874227166176
0.017644202336668968
-0.025670228525996208
0.033789027482271194
-0.054501328617334366
0.008769282139837742
-0.044448450207710266
0.015943355858325958
0.05477927252650261
-0.026178734377026558
0.0055978791788220406
0.013380479998886585
-0.023209216073155403
0.018259195610880852
0.06886892765760422
0.015105977654457092
-0.042998671531677246
-0.06064090132713318
-0.034578755497932434
0.042348191142082214
0.008911915123462677
0.0542677566409111
0.04264870285987854
0.02896948903799057
-0.07077937573194504
-0.029087714850902557
0.0728907436132431
0.03203560784459114
0.03327314555644989
0.05939844995737076
0.025032034143805504
0.0758461281657219
-0.03462354466319084
-0.051512591540813446
-0.024622000753879547
-0.01355085801333189
-0.07182376831769943
-0.04417496919631958
0.06642558425664902
-0.044825479388237
0.05983833968639374
0.04958834871649742
-0.0404941700398922
0.03532935306429863
0.06376978754997253
0.052007921040058136
0.044860079884529114
0.06617365032434464
0.030662493780255318
0.029268020763993263
0.0340019166469574
0.0515626035630703
-0.0464000441133976
-0.005026187747716904
-0.0005182651802897453
0.05383949726819992
-0.06966447085142136
-0.0035038194619119167
-0.06830394268035889
-0.03367406129837036
-0.06905559450387955
0.020166076719760895
0.07116390764713287
0.015300176106393337
0.06893114745616913
0.052367400377988815
-0.032317936420440674
-0.015115408226847649
-0.042082104831933975
0.0023813468869775534
-0.04048927128314972
-0.07223188877105713
-0.05091807618737221
-0.03129328787326813
-0.07156126201152802
0.036255527287721634
-0.03318160027265549
-0.06810662150382996
-0.005982487462460995
-0.03708663955330849
0.009391549974679947
0.06521511822938919
-0.010900329798460007
-0.05324874073266983
-0.007716511841863394
0.012547951191663742
-0.06765782833099365
0.05972485989332199
-0.0648009404540062
0.004001804627478123
0.03933257982134819
-0.05168098956346512
0.005891379900276661
0.019735433161258698
0.004213141277432442
0.04755159467458725
0.038001466542482376
-0.06021502986550331
-0.018095219507813454
-0.02512301504611969
-0.011928283609449863
0.024266229942440987
0.053295038640499115
-0.02131914533674717
-0.08227503299713135
0.057087309658527374
0.04414813593029976
-0.0034253220073878765
-0.036043550819158554
0.04349954053759575
0.014891874976456165
0.0113865677267313
-0.016200803220272064
-0.04962752386927605
0.015067107044160366
0.050883304327726364
0.0053274137899279594
0.032025046646595
0.04205292835831642
-0.018670035526156425
-0.010346824303269386
0.03185095638036728
-0.0342005155980587
0.07431244105100632
-0.021899273619055748
0.02752556838095188
-0.11507635563611984
0.03691347688436508
-0.02957097627222538
-0.019401593133807182
0.06342212110757828
-0.06072117015719414
-0.06697253882884979
0.06076200678944588
-0.005480275489389896
-0.05683128908276558
0.026074372231960297
0.06231728568673134
0.01668848842382431
-0.05027484521269798
0.009213484823703766
-0.002946734195575118
-0.01972758211195469
-0.05221913754940033
-0.06988362222909927
0.07073609530925751
-0.041931916028261185
-0.04913238808512688
0.004617332015186548
-0.04308614507317543
0.054892633110284805
-0.041855357587337494
0.046863555908203125
0.008024554699659348
-0.00394920539110899
0.034465767443180084
0.0732969343662262
-0.04751485958695412
-0.006570850033313036
0.03962470591068268
0.006192097906023264
-0.028849106281995773
0.05523929372429848
-0.06530599296092987
-0.06818628311157227
0.050019558519124985
0.025398580357432365
-0.070867158472538
-0.029590772464871407
0.039981454610824585
-0.08879227936267853
0.045246902853250504
0.05253273993730545
-0.0365094393491745
0.017988553270697594
-0.05176062881946564
-0.051800478249788284
0.0009793558856472373
-0.04358292371034622
0.0681525394320488
0.056731998920440674
0.047686390578746796
0.04383981600403786
0.03582167997956276
0.006899094209074974
0.03380414471030235
-0.03154598921537399
-0.0424027144908905
-0.027178891003131866
-0.060404691845178604
-0.06739995628595352
0.06829345971345901
-0.056886933743953705
0.03824376314878464
0.03380417078733444
-0.04171277582645416
-0.007533521391451359
0.024925002828240395
-0.03349998593330383
-0.0387314073741436
-0.060330118983983994
0.012592816725373268
0.06147518754005432
0.05445503816008568
-0.014613796956837177
0.06781002879142761
-0.056844308972358704
-0.050255611538887024
-0.0026739430613815784
0.033282894641160965
0.009269512258470058
-0.024979550391435623
0.04310000687837601
-0.00409875251352787
-0.02043396607041359
-0.05360214039683342
0.02025585249066353
0.03647683188319206
0.046205777674913406
-0.024632282555103302
-0.05345901846885681
-0.02016618475317955
-0.04919544234871864
0.0652366355061531
0.0020221383310854435
-0.03541041910648346
-0.04141734912991524
0.048990827053785324
-0.0783141478896141
-0.029648007825016975
-0.03170327842235565
-0.00029200094286352396
0.02645629271864891
0.026460707187652588
-0.01287053432315588
-0.0718080997467041
-0.015098108910024166
-0.014489352703094482
0.03506208956241608
-0.004995811264961958
-0.05430154129862785
0.00442818459123373
-0.01325199194252491
0.06634935736656189
-0.047188859432935715
0.005052774678915739
-0.015314134769141674
0.05184447392821312
-0.05814928933978081
-0.05748753994703293
-0.03481602296233177
-0.05768642947077751
0.056907981634140015
0.008201592601835728
-0.01173414196819067
0.05528451129794121
0.032410264015197754
-0.004751812666654587
-0.05947089195251465
-0.042600687593221664
-0.07185878604650497
-0.010654743760824203
0.057661913335323334
0.04731368273496628
0.009896038100123405
-0.02995399944484234
-0.021149830892682076
-0.017132028937339783
-0.04579900577664375
0.004143759608268738
-0.03292597830295563
-0.02822217345237732
0.038531553000211716
-0.03728731721639633
0.0605219341814518
0.05571795627474785
-0.04527110606431961
0.05784609913825989
-0.0408792681992054
-0.0709056556224823
-0.004860179498791695
-0.0527450256049633
-0.07114460319280624
0.03484039008617401
-0.0036542087327688932
0.07279229909181595
-0.050832733511924744
0.0025584001559764147
0.06052777171134949
0.022823631763458252
-0.06420782953500748
-0.04084622859954834
0.06715209037065506
0.016181165352463722
-0.01173605490475893
0.0717226043343544
0.007342136465013027
0.06146145612001419
0.04794194921851158
-0.06544927507638931
-0.04092325270175934
0.05558963119983673
0.06591381132602692
0.02059539593756199
-0.053472425788640976
0.03545451536774635
-0.03890403360128403
0.033417604863643646
0.012841532938182354
0.07515613734722137
0.012740853242576122
0.01587015762925148
-0.03382882848381996
0.022590450942516327
-0.04960427060723305
-0.053837161511182785
-0.029948020353913307
0.04738004505634308
-0.010914215818047523
-0.045899566262960434
0.00309297489002347
0.04738146439194679
0.06780985742807388
0.052135907113552094
-0.02531113103032112
0.04859420657157898
0.00778817106038332
-0.06543805450201035
-0.041244447231292725
-0.03250398859381676
-0.05814850330352783
-0.017823439091444016
0.014373183250427246
0.06004921719431877
-0.01413014903664589
0.035794179886579514
0.037088777869939804
-0.06971796602010727
-0.07684382796287537
-0.007871155627071857
0.00647238502278924
0.0344393290579319
0.071318618953228
-0.0136422673240304
0.04574241116642952
-0.02180577628314495
0.07495851069688797
0.05455698072910309
0.0141229759901762
-0.01693846844136715
0.032495852559804916
-0.05547254532575607
0.05411453917622566
-0.014383522793650627
0.022057484835386276
-0.037159670144319534
-0.05467216670513153
-0.0006782091804780066
0.0035371147096157074
0.019694684073328972
0.019803499802947044
-0.07630216330289841
0.010913592763245106
-0.03585691377520561
0.04020082578063011
-0.010048586875200272
-0.04657205939292908
-0.028024349361658096
0.040373630821704865
0.05926528200507164
-0.051717378199100494
0.014044729992747307
-0.01613093726336956
0.049106303602457047
0.018708933144807816
-0.06127368286252022
0.023353883996605873
-0.05777793377637863
0.04283427074551582
-0.0420558825135231
-0.06564658880233765
0.05977780744433403
-0.06907554715871811
-0.06184448301792145
0.017831211909651756
0.050257544964551926
-0.0787578597664833
0.04788736253976822
0.02172313630580902
-0.0022217126097530127
-0.028000514954328537
0.022401578724384308
0.029594862833619118
0.02232254110276699
0.030539682134985924
-0.010837316513061523
-0.016414836049079895
-0.016201864928007126
-0.052144426852464676
0.010426166467368603
-0.011334034614264965
0.01912756823003292
0.03879345953464508
-0.06621543318033218
0.014996858313679695
0.02261332981288433
0.03331412374973297
0.0020729713141918182
-0.015170656144618988
0.047136351466178894
0.01918778382241726
-0.05476543679833412
0.0006921676686033607
-0.015138795599341393
0.016581924632191658
-0.02368718385696411
-0.05260395258665085
-0.02044239640235901
-0.047430239617824554
-0.029304660856723785
0.05704435706138611
-0.03959463909268379
0.04588407278060913
0.042192284017801285
0.07194515317678452
-0.0615588016808033
0.017560509964823723
0.009691008366644382
-0.06934361159801483
-0.04810535907745361
0.03728949651122093
-0.07365567237138748
-0.0613948255777359
0.049872759729623795
-0.040329787880182266
0.006276250816881657
-0.0593244731426239
0.00799515750259161
0.05101396515965462
0.05273674428462982
0.044608213007450104
0.055089548230171204
0.03147360309958458
0.005506925284862518
0.037030380219221115
0.001640917151235044
0.024376459419727325
-0.0699954479932785
-0.06033216789364815
0.05526387318968773
0.04993489757180214
0.03177735209465027
-0.047184254974126816
0.054037947207689285
0.06891030073165894
0.039069194346666336
0.053407393395900726
-0.04422779008746147
-0.026714500039815903
-0.04760141670703888
0.048337172716856
-0.06781978160142899
0.01974356919527054
-0.010531318373978138
0.0005094242515042424
0.021230733022093773
-0.03002450428903103
0.0006304627750068903
-0.03968064859509468
0.025802891701459885
0.038153693079948425
-0.014641468413174152
0.016002777963876724
0.006914309225976467
-0.003880071686580777
-0.051193758845329285
-0.0834784060716629
0.043780453503131866
-0.0687713474035263
-0.041403137147426605
0.07417455315589905
0.00033836730290204287
0.025903193280100822
0.07711420208215714
0.05556353181600571
0.03793330490589142
-0.006786760408431292
-0.06625068187713623
-0.06976453214883804
0.024272186681628227
0.05251773074269295
0.047858826816082
-0.05768406763672829
-0.013631286099553108
-0.007878747768700123
-0.03272802755236626
0.010045941919088364
0.05037587881088257
0.05797276645898819
-0.0571758970618248
-0.009089024737477303
-0.022478753700852394
-0.008236472494900227
-0.05983531475067139
0.037100326269865036
-0.023742273449897766
-0.007685460150241852
-0.06491349637508392
-0.026963336393237114
-0.04504961147904396
-0.04026404768228531
0.024319807067513466
-0.019104372709989548
-0.06390343606472015
-0.03356373310089111
-0.03223305568099022
0.008668078109622002
-0.003683817572891712
-0.019038651138544083
-0.0714210569858551
-0.049252983182668686
0.04603444039821625
-0.04172368347644806
-0.021793458610773087
-0.004172281827777624
-0.06983008235692978
-0.05102890729904175
-0.07755041122436523
-0.041616298258304596
0.02074551209807396
0.022842546924948692
-0.006824647542089224
0.061441391706466675
-0.0463760606944561
0.027019601315259933
0.03539847582578659
-0.01957721635699272
-0.02391611784696579
-0.046171218156814575
0.006365892477333546
0.05224364995956421
0.06350934505462646
-0.041505731642246246
-0.06448423117399216
0.016400445252656937
0.029574019834399223
-0.050192058086395264
-0.029150042682886124
-0.07516172528266907
0.010180982761085033
-0.05679140239953995
-0.024083873257040977
0.03022366762161255
0.0024546748027205467
-0.04474550113081932
0.04046495258808136
0.05943265184760094
-0.08173439651727676
0.04061803221702576
0.05810509994626045
-0.023854583501815796
0.011714063584804535
-0.0398050956428051
0.005689682438969612
-0.04339120537042618
0.01795092597603798
-0.07474738359451294
-0.03519143909215927
-0.07391935586929321
-0.07842324674129486
-0.010951061733067036
-0.0687580555677414
-0.007401215843856335
0.06037173420190811
0.07837830483913422
-0.043937865644693375
-0.04674861952662468
0.07234599441289902
-0.07364025712013245
-0.020682666450738907
0.04083750396966934
0.007134919986128807
-0.034559622406959534
-0.00962907262146473
-0.05597330257296562
0.05974675714969635
-0.04009640961885452
0.029987065121531487
0.06285000592470169
-0.03586609661579132
-0.011666280217468739
-0.01906411163508892
-0.01971556805074215
-0.05553687736392021
0.06392303854227066
-0.04412848874926567
0.010060763917863369
-0.017741115763783455
0.06284087896347046
-0.03204755857586861
-0.004577359184622765
0.02407034859061241
0.017876992002129555
-0.02465851604938507
-0.029320262372493744
0.05765682831406593
0.02471650205552578
0.024719446897506714
-0.03989794850349426
-0.07738669961690903
0.058410387486219406
-0.04970024526119232
0.013609941117465496
0.012794554233551025
-0.07108129560947418
0.05654672533273697
0.020644256845116615
-0.06135987862944603
0.04347837716341019
0.016844987869262695
0.018201934173703194
-0.06861329823732376
0.051220498979091644
0.04359421879053116
-0.062022171914577484
0.03856268897652626
0.018496522679924965
-0.001025406294502318
0.042026348412036896
0.0690615251660347
0.06563737988471985
0.05350038409233093
-0.047330502420663834
-0.042752113193273544
-0.049029868096113205
0.003946021199226379
-0.02816254273056984
0.06924666464328766
0.027548598125576973
0.03682605177164078
0.0055843256413936615
-0.0697692260146141
0.0037840052973479033
0.06559336930513382
-0.01444417517632246
0.013617902994155884
-0.0188295878469944
-0.061601731926202774
0.06318453699350357
0.013517615385353565
-0.06726110726594925
0.07203766703605652
-0.0609845332801342
-0.02573578618466854
-0.02020220085978508
0.05279574543237686
0.006097596604377031
-0.018150703981518745
-0.0539388507604599
-0.04437519237399101
-0.06677928566932678
0.026116332039237022
0.012110734358429909
0.057737085968256
-0.045520175248384476
-0.005025429185479879
0.011956983245909214
-0.008084933273494244
0.05063217505812645
0.017043281346559525
0.033011700958013535
0.008297701366245747
0.049373310059309006
-0.038916923105716705
0.0312538743019104
0.008001461625099182
-0.048296716064214706
0.01727089285850525
0.03411197289824486
0.00740207452327013
-0.013051871210336685
-0.003411420388147235
0.010538437403738499
0.03515426069498062
0.024157974869012833
-0.05183548107743263
0.07382708042860031
-0.022398043423891068
0.016964487731456757
0.07147873938083649
0.027110738679766655
0.006613944657146931
0.06030222028493881
-0.061997052282094955
-0.00591143686324358
-0.05021166801452637
-0.058634985238313675
0.05063844472169876
-0.045056723058223724
0.010114161297678947
0.029651323333382607
-0.056164901703596115
0.05319273844361305
-0.012108481489121914
-0.042679399251937866
0.007847540080547333
-0.02843676507472992
-0.02120085619390011
0.011831735260784626
0.03572181612253189
0.017545493319630623
0.04441334307193756
-0.011638782918453217
0.0502869188785553
0.046280812472105026
-0.05043453350663185
0.0299335028976202
-0.061754751950502396
-0.03591185808181763
0.027082761749625206
0.05951923877000809
0.04217560216784477
0.07770473510026932
-0.020040545612573624
-0.025936856865882874
0.06261763721704483
-0.06210936978459358
-0.01637028157711029
0.0066705006174743176
0.051307257264852524
0.0432678647339344
-0.026155591011047363
-0.04144589975476265
0.0598277822136879
0.01389008667320013
0.036751601845026016
0.03242569789290428
-0.005926227197051048
0.0018431957578286529
-0.03187146782875061
0.07658551633358002
-0.051426857709884644
-0.04548027738928795
-0.057476166635751724
0.07837861776351929
-0.05329428240656853
0.010523432865738869
-0.02544471062719822
0.06802846491336823
0.02641460858285427
-0.025773946195840836
0.05047846585512161
-0.05773994326591492
0.031020639464259148
0.035942476242780685
0.06410948932170868
0.05325428396463394
-0.026085294783115387
0.019680455327033997
-0.06249861791729927
0.03267008811235428
0.04812079295516014
-0.0459270216524601
0.056542590260505676
0.03797389566898346
0.026481956243515015
0.0621156208217144
-0.06707610934972763
0.04052446782588959
-0.018729018047451973
-0.0006909738294780254
-0.05657621845602989
0.05861549824476242
-0.04857126623392105
-0.014982214197516441
-0.04370386525988579
-0.047017328441143036
-0.009874884970486164
-0.016391664743423462
0.04736998304724693
-0.0031277916859835386
0.024009160697460175
0.014057263731956482
0.054919637739658356
-0.03306891396641731
0.010577451437711716
-0.05740455538034439
-0.06485779583454132
0.04532117396593094
-0.03850116208195686
-0.006931051146239042
0.06936199963092804
0.03112470917403698
0.06567266583442688
0.05855995789170265
0.036250848323106766
-0.06050514429807663
0.014583228155970573
0.025217164307832718
-0.031519290059804916
0.0009663028758950531
0.016754167154431343
0.003247159766033292
0.027993997558951378
0.004175852984189987
-0.05216731131076813
-0.023610297590494156
-0.05133691057562828
-0.04407070204615593
0.010254847817122936
0.011722751893103123
0.02421744354069233
-0.06354628503322601
-0.05031929910182953
0.029200859367847443
0.05296746641397476
0.056855034083127975
-0.05641285330057144
0.003974872175604105
-0.04333864524960518
-0.06976980715990067
0.056681957095861435
0.031153777614235878
0.05511648952960968
-0.010711897164583206
0.04134073480963707
0.061352115124464035
-0.0048536937683820724
0.00025338708655908704
-0.05653334781527519
0.04632199555635452
-0.016280507668852806
0.021628836169838905
0.07435723394155502
0.009946735575795174
-0.03996283933520317
0.017564736306667328
0.05168295279145241
0.026351002976298332
-0.0233570858836174
0.052560094743967056
0.038287073373794556
-0.034795697778463364
-0.0149823147803545
-0.023150766268372536
-0.004750670865178108
-0.047437634319067
0.03251052275300026
-0.014996453188359737
-0.004297430161386728
0.008594297803938389
0.034432969987392426
-0.07026714086532593
0.00558936782181263
0.03991231322288513
0.030363580211997032
0.0021412773057818413
0.07045909762382507
0.05327456444501877
-0.06327319890260696
-0.06830598413944244
-0.06970450282096863
-0.034526146948337555
-0.05535437911748886
-0.05477871373295784
-0.004345881287008524
0.05042043700814247
-0.03448188677430153
0.014347365126013756
0.06296329200267792
0.029069246724247932
-0.0006534152780659497
-0.039858609437942505
-0.050377268344163895
0.02625507116317749
-0.011144610121846199
-0.03811206296086311
0.03267054632306099
-0.034946639090776443
-0.00928393006324768
-0.01786254160106182
0.07440667599439621
-0.017101872712373734
0.017415707930922508
-0.04411694407463074
-0.06823112815618515
-0.010005389340221882
-0.04880104213953018
0.05173139274120331
0.04406749829649925
-0.02462829276919365
-0.016910921782255173
0.011818304657936096
0.045536257326602936
0.04494314268231392
-0.06479181349277496
-0.025017375126481056
0.025153573602437973
-0.054012980312108994
-0.010778188705444336
0.06908091902732849
0.04296674206852913
-0.01640685275197029
0.0042181797325611115
0.06776390224695206
-0.010939723812043667
-0.009611498564481735
-0.020048046484589577
0.04543835297226906
-0.009937993250787258
-0.07491829246282578
0.06834980845451355
0.06062837317585945
0.008573483675718307
0.04675497114658356
-0.0574633851647377
-0.010543656535446644
0.026737399399280548
-0.04274734482169151
-0.05017838254570961
0.007390968035906553
-0.07164104282855988
-0.03327383100986481
0.05657242238521576
-0.03449483960866928
-0.01567603088915348
0.03992948308587074
0.04604820907115936
-0.03273731842637062
0.07677336782217026
-0.04800671711564064
0.05139186978340149
0.029708025977015495
0.023513127118349075
0.03628718852996826
0.04201472923159599
-0.05880257859826088
0.014065674506127834
0.044638123363256454
0.05961884930729866
0.04391910880804062
0.047750238329172134
0.005284841172397137
0.061912085860967636
-0.06624111533164978
-0.01599135622382164
0.06946435570716858
0.03304794430732727
-0.057226940989494324
-0.026921318843960762
0.04941878467798233
0.023318521678447723
-0.03525497019290924
0.07372842729091644
0.003740769112482667
-0.06518632918596268
-0.05598915368318558
-0.0164815504103899
0.04089217633008957
0.026973437517881393
-0.069510318338871
-0.022782493382692337
-0.0431545227766037
0.042859483510255814
0.03018413856625557
0.06755934655666351
-0.042209070175886154
0.012459001503884792
0.014752460643649101
-0.037992339581251144
0.07079090923070908
0.029654817655682564
-0.030649257823824883
0.011738985776901245
-0.06172812357544899
0.046699509024620056
-0.01558384858071804
0.06749919801950455
-0.018397275358438492
0.021720632910728455
0.06683547049760818
-0.019906535744667053
-0.05928054451942444
0.059110693633556366
0.052931688725948334
-0.0396907739341259
0.06898355484008789
-0.0660637617111206
-0.061926960945129395
0.05139462277293205
-0.02881457284092903
0.025707261636853218
-0.04932912066578865
-0.003678052220493555
0.040165115147829056
-0.021581873297691345
0.03831150010228157
-0.03458070009946823
0.0032547875307500362
-0.06531596928834915
0.01430535688996315
0.013253235258162022
0.004545934498310089
0.028575534000992775
-0.04642945155501366
0.011222395114600658
-0.019466664642095566
0.005555814132094383
-0.04488105699419975
-0.06294712424278259
-0.045778848230838776
-0.007918426766991615
0.0552431121468544
-0.05771135538816452
0.06544166803359985
0.04162558913230896
-0.03713955357670784
0.004070091061294079
-0.0652599111199379
0.07763157039880753
0.03661498799920082
-0.07599185407161713
0.07464645802974701
-0.04511270672082901
-0.04437725618481636
-0.009582090191543102
0.046966902911663055
-0.0565432570874691
-0.008716830052435398
-0.0391039103269577
-0.052756428718566895
0.010873502120375633
0.05508911609649658
-0.05058589205145836
-0.0110643170773983
0.0069882748648524284
-0.009697472676634789
-0.0505867674946785
0.023448294028639793
0.040473662316799164
0.05372033268213272
0.05671973153948784
0.002621269319206476
0.03648117929697037
-0.05960551276803017
0.0308975912630558
0.015584765933454037
-0.046664655208587646
-0.059490252286195755
0.07094822078943253
-0.06120502948760986
0.005124884191900492
0.018092842772603035
0.05385003611445427
-0.07251465320587158
-0.026996513828635216
-0.06292984634637833
-0.036819472908973694
0.0062176818028092384
-0.03802470490336418
0.0014888555742800236
0.06616848707199097
-0.0698205828666687
0.035294484347105026
-0.003267779015004635
-0.06686049699783325
0.02839529700577259
0.011171514168381691
-0.009228916838765144
-0.023463809862732887
0.04311377927660942
-0.03065144084393978
0.05353543534874916
0.04677322134375572
-0.05659249424934387
0.036024559289216995
-0.021742122247815132
-0.029021672904491425
0.01133919321000576
-0.061808034777641296
0.028403060510754585
-0.05591750517487526
-0.046878792345523834
0.04025457799434662
0.02587791159749031
-0.05199287831783295
-0.03266952559351921
0.028395557776093483
-0.06632343679666519
0.06638119369745255
0.055052462965250015
0.0671672374010086
-0.050749171525239944
0.027280887588858604
0.05693422257900238
0.01949743926525116
-0.02019495889544487
-0.024154657498002052
-0.02560357376933098
-0.06210792809724808
0.008798979222774506
0.07395249605178833
-0.029654081910848618
0.029224537312984467
0.07352160662412643
-0.06888297945261002
0.0618465282022953
0.02343890815973282
-0.044479597359895706
0.06253228336572647
0.053343385457992554
0.01811550371348858
0.0064647686667740345
-0.022710328921675682
0.03909091278910637
0.055017437785863876
-0.009238933213055134
0.03261561691761017
0.054154135286808014
0.0518312081694603
-0.051547374576330185
-0.01809759996831417
-0.05420086905360222
-0.07301551848649979
-0.011338998563587666
0.040320850908756256
-0.04013659432530403
0.03144095465540886
0.03752976655960083
0.05991779640316963
-0.05626693740487099
-0.0010199890239164233
0.03499123826622963
-0.04854142665863037
0.020560169592499733
0.03438502177596092
-0.0664433017373085
0.0009368782048113644
-0.06894691288471222
0.023151610046625137
-0.050264302641153336
0.03817720711231232
0.022186532616615295
0.001192445051856339
-0.04148291423916817
-0.0047284397296607494
0.07128926366567612
-0.043465755879879
0.03877706825733185
-0.05226195603609085
-0.05590937286615372
0.03905704244971275
0.07217667996883392
-0.059429481625556946
-0.028277775272727013
-0.02311321347951889
0.050928547978401184
-0.019742807373404503
0.015339620411396027
-0.03632552549242973
0.027922620996832848
-0.03523959219455719
0.03825906664133072
0.03364812210202217
-0.011000980623066425
-0.06589091569185257
0.05631590634584427
-0.06281700730323792
0.06632683426141739
0.004713623784482479
0.01706995628774166
0.0020455082412809134
0.021727237850427628
-0.022633207961916924
0.024721916764974594
0.059181783348321915
-0.051845304667949677
0.006851785350590944
0.0711795911192894
0.025610925629734993
0.047429777681827545
0.0450173020362854
-0.058680180460214615
-0.02720062993466854
0.07671274244785309
0.02856583707034588
-0.010262802243232727
-0.05714515596628189
0.024743253365159035
0.06979601085186005
-0.06423521786928177
0.05774650722742081
0.012153849937021732
-0.0210044514387846
0.042415570467710495
0.04278373718261719
0.0526653453707695
0.01700545661151409
0.0391717366874218
-0.02897258661687374
0.05405264347791672
0.04188699275255203
0.0764002799987793
-0.05115492641925812
0.04140349477529526
-0.022917093709111214
0.0672299712896347
0.02294146828353405
-0.012810859829187393
0.024769378826022148
-0.07912988215684891
-0.006991601549088955
0.014290552586317062
-0.05704253539443016
0.04205266758799553
0.007452670484781265
0.048492688685655594
-0.058892879635095596
-0.06345120072364807
-0.019965704530477524
-0.06080316752195358
0.020833509042859077
0.03579222783446312
-0.034963466227054596
0.014296598732471466
-0.006403641775250435
0.010933459736406803
-0.013614998199045658
-0.05904831737279892
0.02981681376695633
0.0675509124994278
-0.05414430797100067
-0.045280858874320984
-0.024384023621678352
-0.01787753403186798
0.02290935441851616
0.06271868944168091
0.06454746425151825
-0.02702290751039982
0.0648728758096695
-0.055107131600379944
0.0004965168191120028
0.04853382706642151
0.06472312659025192
-0.019974442198872566
0.055721454322338104
-0.0165011677891016
0.0020621970761567354
-0.010731207206845284
-0.036206506192684174
0.05831337347626686
0.06901818513870239
-0.042082879692316055
0.06299100816249847
-0.0651831328868866
0.007836749777197838
0.05876228213310242
-0.04757742956280708
-0.008716934360563755
0.06802549213171005
0.06831630319356918
-0.07219616323709488
0.031369972974061966
-0.04637802019715309
-0.04689342901110649
0.03559025377035141
-0.005545132327824831
0.03466663882136345
-0.01766475848853588
-0.055008627474308014
-0.0565129779279232
0.012762746773660183
-0.027008213102817535
0.06596800684928894
-0.06346055120229721
-0.008648185059428215
0.06289248913526535
0.05019946023821831
0.08335517346858978
0.07083618640899658
-0.0051480610854923725
0.05305802449584007
-0.058951351791620255
-0.0007171115721575916
0.005053573753684759
-0.06350288540124893
0.041714753955602646
-0.017440713942050934
-0.013959725387394428
0.06617659330368042
0.034059494733810425
0.03953450173139572
-0.033938996493816376
0.01403076946735382
0.02451694756746292
-0.06671671569347382
-0.020088665187358856
0.013030818663537502
0.06740196794271469
-0.04373222589492798
-0.0527770034968853
-0.06587859988212585
-0.024343861266970634
0.0436829999089241
0.009361484088003635
-0.03050321526825428
-0.025377191603183746
0.01853243261575699
0.06870423257350922
-0.02772478573024273
0.016827983781695366
0.059107519686222076
0.04488810896873474
0.05134912580251694
0.06754805892705917
0.058293405920267105
0.007833286188542843
0.006926936563104391
-0.06302458047866821
0.05082958564162254
-0.032107163220644
-0.036736875772476196
0.01471075788140297
0.07069115340709686
-0.06177126243710518
-0.03845437243580818
-0.06768695265054703
-0.0666641816496849
0.07084300369024277
-0.03179920092225075
0.0035245243925601244
-0.06074479594826698
0.011965721845626831
0.017443794757127762
-0.03058040142059326
0.04732159525156021
0.06052732095122337
-0.0409214161336422
0.00841444544494152
-0.0324123315513134
-0.022013194859027863
0.055104758590459824
-0.0005592309171333909
-0.007501787971705198
0.02094373106956482
-0.02261631190776825
-0.031006453558802605
0.061306629329919815
0.024211956188082695
-0.05698534473776817
0.023765241727232933
-0.03671689331531525
0.07291663438081741
-0.06346365064382553
0.02675311081111431
-0.05872924625873566
0.056183189153671265
0.02625044621527195
0.019500458613038063
-0.027945956215262413
0.024806560948491096
0.005128504242748022
-0.06584065407514572
-0.054853226989507675
-0.05054767057299614
0.048766762018203735
0.026034193113446236
0.0580134391784668
-0.029328057542443275
0.022615762427449226
-0.03006085380911827
0.051709290593862534
0.006036197301000357
-0.020195621997117996
-0.02708679437637329
-0.005977394059300423
-0.05650680884718895
-0.003419429063796997
-0.02464807778596878
-0.015279664658010006
0.020716696977615356
0.042717453092336655
0.04048015922307968
0.044503699988126755
-0.02486151084303856
-0.040680140256881714
0.031683217734098434
0.0472494512796402
-0.04070813208818436
0.028152430430054665
-0.04756473749876022
0.06185789033770561
-0.06382577121257782
0.03489094600081444
-0.01026415079832077
0.014334173873066902
0.05779329687356949
-0.030637240037322044
0.044115930795669556
-0.06797997653484344
0.06085871160030365
0.01982956752181053
-0.03931086137890816
0.06702154874801636
0.03724119812250137
0.037563908845186234
-0.05804319307208061
-0.000505198840983212
-0.030409367755055428
0.036795005202293396
-0.06314947456121445
0.05778331682085991
-0.030062995851039886
-0.034915193915367126
-0.03097640909254551
0.016952291131019592
0.015469289384782314
-0.009333226829767227
-0.05664413794875145
0.037838198244571686
0.01546650193631649
0.014942767098546028
0.04835910350084305
0.003703000722452998
-0.04224934056401253
-0.036681730300188065
-0.04840226471424103
0.06631385535001755
-0.04638276249170303
-0.035713717341423035
-0.03892277553677559
-0.012535730376839638
0.018797745928168297
0.046572837978601456
-0.05148926004767418
0.027213433757424355
0.06916318833827972
-0.022246675565838814
-0.03634227067232132
0.04899468645453453
0.05009268969297409
-0.05247877910733223
0.07025182247161865
0.0037085465155541897
0.06463299691677094
-0.02339170128107071
0.051248155534267426
-0.00979623757302761
0.021806349977850914
0.05722524970769882
0.07687050849199295
-0.04672871530056
-0.028736427426338196
0.06842989474534988
-0.02519313618540764
0.06559465825557709
0.06836111843585968
-0.0065767415799200535
0.04432843253016472
0.07185542583465576
-0.07112251222133636
-0.052113600075244904
0.023895731195807457
0.06998402625322342
0.03846730291843414
-0.06762159615755081
-0.057226307690143585
-0.0458608940243721
0.0032368358224630356
0.030767124146223068
0.02168956771492958
0.01847877912223339
-0.04161529615521431
0.0023925146088004112
-0.0075586880557239056
-0.03669855371117592
-0.04491455480456352
0.02030930481851101
-0.05410655960440636
0.06170817092061043
-0.06627129018306732
0.062434904277324677
0.011068659834563732
-0.004699872341006994
-0.046761851757764816
0.0569305345416069
-0.0006735001807101071
-0.05696582794189453
-0.05805158242583275
-0.033716775476932526
-0.022249743342399597
-0.026947127655148506
0.00294872815720737
-0.060977451503276825
0.012782777659595013
0.05992408096790314
0.04362175986170769
-0.04174167290329933
0.06960909068584442
0.017603490501642227
0.05366839841008186
-0.012777421623468399
0.0767359584569931
-0.0002862966794054955
-0.04330190271139145
0.01919340342283249
-0.03969937190413475
0.053503382951021194
0.0058871544897556305
0.00944601185619831
-0.02910398505628109
0.059431493282318115
-0.06437132507562637
-0.04767611250281334
0.022530507296323776
-0.020677030086517334
0.004427233710885048
-0.053379181772470474
-0.018881287425756454
-0.03777036443352699
-0.0525265708565712
0.04851792752742767
0.05423225089907646
-0.009406287223100662
0.01931951940059662
-0.026805976405739784
-0.04597519338130951
-0.036721598356962204
-0.031229469925165176
-0.0418197438120842
0.00784242432564497
0.06579507887363434
-0.004290780518203974
-0.019163401797413826
-0.005040661431849003
0.027301207184791565
0.06270240992307663
0.06210758164525032
0.04232874885201454
-0.032439760863780975
0.02930195815861225
0.028842855244874954
-0.035497572273015976
-0.02175901085138321
0.004736682400107384
0.0008601172012276947
0.06358716636896133
-0.03945642709732056
0.009743350557982922
-0.05632007494568825
-0.05109313875436783
-0.032544828951358795
0.06362564116716385
-0.067533478140831
0.03118806704878807
-0.0660034716129303
-0.02428325265645981
-0.0004918863996863365
0.019493479281663895
0.020855460315942764
0.008338683284819126
-0.05834195762872696
0.01943148300051689
-0.03233478218317032
-0.026764659211039543
0.03042927198112011
-0.009437824599444866
-0.01967594400048256
0.07168411463499069
0.04955073073506355
-0.059233102947473526
-0.06595004349946976
-0.010450376197695732
0.034072428941726685
0.04454169422388077
-0.047294579446315765
9.1656154836528e-05
0.017824800685048103
0.04402962327003479
-0.03176642954349518
0.061633236706256866
0.07072542607784271
-0.06449887901544571
0.04578894376754761
-0.006157760974019766
-0.028000766411423683
0.0679202675819397
0.07295631617307663
-0.009168216027319431
-0.05462365970015526
-0.06923509389162064
-0.005358722060918808
0.042961180210113525
0.04959289729595184
0.0014487265143543482
-0.05048711970448494
-0.0015295309713110328
0.05809933319687843
-2.64444370259298e-05
0.06555721163749695
-0.01902671903371811
-0.053875017911195755
0.02602710761129856
-0.024516697973012924
0.05353524535894394
-0.004292411729693413
-0.014362599700689316
0.038322389125823975
-0.07392600178718567
0.05900048092007637
-0.007040607277303934
-0.04118715226650238
0.0330926775932312
-0.03537315875291824
-0.0590435154736042
0.003291719127446413
0.01585380733013153
-0.011410579085350037
0.02736492268741131
0.060572583228349686
-0.00991988368332386
-0.00511357793584466
0.06579674035310745
-0.03590531274676323
0.024163689464330673
0.013295112177729607
-0.042015932500362396
0.0611446239054203
0.05689384043216705
0.06832818686962128
0.022370263934135437
0.06776933372020721
0.06586682796478271
0.00431429548189044
0.07018863409757614
0.04920133948326111
0.02319917641580105
-0.039890632033348083
0.06863266229629517
-0.04684843868017197
-0.0479266457259655
-0.020549464970827103
0.07053373754024506
0.06806033849716187
-0.03605988621711731
-0.02128816768527031
0.057658564299345016
-0.048619594424963
0.047609876841306686
0.04541658237576485
-0.0412127859890461
0.056856535375118256
0.0677037462592125
0.05720646306872368
-0.06614957004785538
0.03824439272284508
0.011319959536194801
0.032508645206689835
-0.042451199144124985
-0.05154285579919815
0.028889158740639687
0.028341185301542282
0.030719824135303497
-0.0020531571935862303
-0.025414373725652695
-0.01981917954981327
0.05691254511475563
-0.019702591001987457
-0.06685217469930649
0.04317077621817589
-0.033375781029462814
0.04762900248169899
-0.06615316867828369
-0.022771373391151428
-0.0010744971223175526
-0.0017627381021156907
-0.05744565650820732
0.05843975767493248
-0.034911785274744034
0.03288407251238823
-0.033500030636787415
-0.058983005583286285
-0.002097644843161106
0.07084360718727112
0.004395291209220886
-0.04329773038625717
0.06287533789873123
0.0014846856938675046
0.03165259584784508
0.024956798180937767
0.01739250309765339
-0.06567754596471786
0.017259763553738594
0.051475632935762405
-0.06437117606401443
0.06567967683076859
0.014719289727509022
-0.06003924086689949
-0.048470791429281235
0.06873609125614166
-0.05661311745643616
-0.00200093281455338
-0.025715453550219536
-0.045638687908649445
-0.06565187871456146
0.02151578664779663
-0.004634832497686148
-0.022268451750278473
-0.029729362577199936
0.04115034639835358
-0.03966350108385086
0.03018522821366787
-0.0628092959523201
0.06188451498746872
-0.016348866745829582
0.004906033165752888
0.042659882456064224
0.04800011217594147
0.0025430067908018827
0.02197054773569107
0.049206458032131195
-0.055322758853435516
0.05893193185329437
0.07051530480384827
0.0417565293610096
0.016951492056250572
0.06363782286643982
0.04568657651543617
0.025901367887854576
-0.06557769328355789
-0.05755024775862694
-0.03701997920870781
-0.004567862022668123
0.03178981691598892
0.02330741286277771
0.023619120940566063
0.021170014515519142
-0.057822052389383316
0.009021172299981117
-0.014282540418207645
-0.06730659306049347
0.05412881821393967
-0.0035927253775298595
0.03512398153543472
0.03510491922497749
0.0555366650223732
0.05964590981602669
-0.0676601380109787
0.009654931724071503
0.03519603982567787
-0.05669499188661575
-0.05248783156275749
-0.03742736950516701
0.0708082988858223
-0.014857747592031956
0.03678188472986221
0.06888826191425323
-0.04946163669228554
0.06390997767448425
0.053017888218164444
0.013817761093378067
-0.04814158380031586
-0.02652733214199543
-0.028400611132383347
0.043143223971128464
0.008679049089550972
-0.01871511898934841
-0.05045333877205849
-0.04381716251373291
-0.022127624601125717
0.01357201486825943
0.011804169975221157
0.04211373254656792
0.04264871031045914
-0.002188296988606453
-0.06146889925003052
-0.029881464317440987
-0.03091251105070114
0.015576599165797234
0.04586469754576683
0.045650143176317215
0.06918369233608246
-0.005027684848755598
-0.05257272347807884
-0.06280093640089035
0.05407055839896202
-0.015543022193014622
-0.062460992485284805
-0.002196304267272353
0.06321845948696136
0.038195591419935226
0.025276653468608856
0.006968170870095491
0.07401788234710693
0.029489153996109962
-0.035251930356025696
0.017302831634879112
0.004243471659719944
-0.005446423310786486
0.04290046542882919
-0.014277731999754906
0.020390136167407036
-0.032298699021339417
0.04548035189509392
-0.06849762052297592
-0.024545123800635338
-0.04407847300171852
0.009363080374896526
0.0329069122672081
-0.007612079381942749
-0.04570448026061058
-0.05697888508439064
-0.0677424892783165
0.048027295619249344
-0.06591115146875381
0.028865240514278412
-0.024503611028194427
0.03165246173739433
0.03929191455245018
0.043256908655166626
-0.06402366608381271
0.03542109951376915
-0.07064998894929886
-0.010719798505306244
0.0619543120265007
-0.0625520795583725
-0.06472554802894592
0.023488724604249
0.04713977500796318
-0.038011737167835236
0.06800559163093567
-0.04952012374997139
0.04112698882818222
-0.023943305015563965
-0.045373186469078064
0.04869731888175011
0.029852518811821938
-0.014226829633116722
-0.011205579154193401
-0.04812566190958023
-0.02030172012746334
0.010689341463148594
-0.05330042541027069
0.00034780974965542555
-0.06136009469628334
-0.06039580702781677
-0.05399658530950546
0.026577286422252655
0.007952871732413769
0.04117760807275772
0.01714283414185047
0.015703488141298294
-0.00697200046852231
-0.003665406722575426
0.025560487061738968
-0.06962142139673233
0.059458259493112564
-0.07258303463459015
-0.08377180248498917
0.06170758977532387
0.0063582248985767365
0.04453013837337494
0.03319019451737404
-0.07274802774190903
-0.07306759804487228
-0.0698399543762207
-0.012907398864626884
0.03758181259036064
0.061359893530607224
-0.01289498619735241
0.06868038326501846
-0.03826314955949783
-0.017424222081899643
0.04975864663720131
-0.03917568549513817
0.002690919442102313
0.01487281545996666
0.08125191181898117
0.03904835507273674
0.0030217040330171585
0.05509289354085922
-0.06315366923809052
-0.014712482690811157
0.04461218789219856
-0.015840917825698853
0.045837774872779846
-0.07383893430233002
0.04124774783849716
0.0200883150100708
-0.027759438380599022
-0.07131516188383102
0.037219397723674774
-0.050259411334991455
0.007830891758203506
0.0364936925470829
0.021801205351948738
0.021664291620254517
-0.03999709710478783
-0.060580894351005554
0.07689997553825378
0.03057851642370224
0.0474412627518177
-0.0025897573214024305
0.024860506877303123
-0.03386581316590309
-0.04195431247353554
-0.000906094559468329
-0.02008688636124134
0.035642948001623154
0.0634414553642273
-0.05246250331401825
-0.03369816392660141
-0.02075483649969101
-0.016489386558532715
-0.05521896854043007
0.0247797854244709
-0.013101593591272831
-0.07467204332351685
-0.05487136170268059
0.002453626599162817
0.04951711371541023
0.008549506776034832
0.017977692186832428
0.030542032793164253
0.03183361142873764
0.005831865128129721
0.0036287130787968636
0.008999887853860855
0.05962391570210457
0.06253425031900406
-0.02653980255126953
0.024386553093791008
-0.05360525846481323
0.05355743318796158
-0.005137520842254162
0.01613265834748745
0.0442851297557354
0.06964641809463501
-0.07158786058425903
-0.020237047225236893
-0.020526356995105743
-0.04500267654657364
-0.05455809831619263
-0.06453421711921692
-0.03400141000747681
0.03923019766807556
-0.062058400362730026
-0.015602211467921734
0.003876457689329982
0.011701314710080624
-0.06456495076417923
-0.04579911753535271
-0.033783406019210815
0.02409132570028305
0.04638271406292915
-0.059206023812294006
0.03455856069922447
-0.05767735466361046
0.02529817260801792
0.01911132223904133
-0.004198514390736818
0.01676930859684944
0.07502523064613342
-0.008697186596691608
-0.007501700893044472
-0.04752989113330841
0.04202409088611603
0.06835447251796722
0.0015705123078078032
0.025377776473760605
0.07402386516332626
0.02188468910753727
0.06605570763349533
0.027492765337228775
0.0038535569328814745
-0.017786681652069092
0.04423707351088524
-0.028612006455659866
0.07230378687381744
0.05500354617834091
-0.05267048254609108
0.06236982345581055
-0.0030863715801388025
0.006244661286473274
-0.06466776132583618
-0.026968158781528473
0.02979055605828762
-0.04658735916018486
-0.004796472378075123
0.016459112986922264
0.0652378499507904
0.002082343213260174
0.02123013138771057
0.05254665017127991
0.08406635373830795
0.055082522332668304
0.06487575173377991
0.013921779580414295
-0.03274254873394966
-0.02259104885160923
0.00224368111230433
0.036071550101041794
0.01330006867647171
-0.033265918493270874
0.01082086656242609
0.03276817500591278
-0.011912562884390354
-0.03519544377923012
-0.0003678368520922959
-0.058275360614061356
0.023144766688346863
-0.014221188612282276
0.025082560256123543
0.003139203879982233
0.06838265806436539
0.0745776817202568
0.07210292667150497
0.06354442238807678
-0.027096489444375038
-0.009491467848420143
0.05849806219339371
-0.07721531391143799
-0.04806472361087799
0.05355796962976456
0.050237979739904404
-0.028118303045630455
-0.012972238473594189
0.019963720813393593
-0.04062916338443756
-0.022534364834427834
0.033628739416599274
-0.030060144141316414
-0.026640549302101135
0.06520266085863113
0.06515279412269592
0.020520053803920746
0.022622331976890564
-0.05451641231775284
-0.0023379146587103605
0.052277080714702606
-0.043534159660339355
-0.0745534598827362
-0.027675310149788857
0.01536285039037466
-0.013900951482355595
-0.00015424656157847494
-0.0556822307407856
-0.05183326080441475
-0.017937570810317993
0.0551973357796669
0.010801025666296482
-0.05209674313664436
-0.024966765195131302
-0.06132667139172554
0.034825850278139114
0.0036763118114322424
0.05467565730214119
0.030951743945479393
-0.0311705581843853
-0.0019266970921307802
-0.001980276545509696
-0.029735082760453224
-0.02869490347802639
-0.03933166339993477
-0.006682137027382851
0.015251684933900833
0.07663939893245697
0.02716452069580555
-0.06092742085456848
0.050002411007881165
0.016375979408621788
0.07324455678462982
0.05288488790392876
-0.06602761149406433
-0.02241739071905613
-0.03447922691702843
-0.031157977879047394
-0.050609324127435684
-0.02876831218600273
0.03254926949739456
-0.0019112599547952414
-0.03911827132105827
0.033573880791664124
-0.04443749785423279
0.05088859051465988
-0.0502002090215683
0.035899560898542404
0.05780120939016342
-0.0072708711959421635
-0.014163845218718052
0.06522558629512787
0.008144096471369267
0.009368895553052425
-0.015276403166353703
-0.05465367063879967
-0.0024434153456240892
0.07296697050333023
0.07664766162633896
0.04387570917606354
-0.0693800151348114
0.06893838196992874
0.01438343245536089
-0.0036370502784848213
0.06300316751003265
-0.06807369738817215
-0.01971430890262127
-0.06862317025661469
0.03268509730696678
0.058399882167577744
0.03546051308512688
0.0484757125377655
0.08304937928915024
0.02265411987900734
-0.06284282356500626
-0.05595382675528526
0.04589242488145828
0.052106041461229324
0.015264776535332203
0.07203712314367294
-0.054867081344127655
0.048885662108659744
-0.00851394422352314
-0.025803042575716972
-0.038803767412900925
-0.01585332304239273
-0.05280561372637749
-0.025741659104824066
0.06026020273566246
-0.005048257298767567
-0.0035318059381097555
0.008555998094379902
0.05429880693554878
-0.0523955374956131
0.024419281631708145
-0.020312225446105003
-0.02271580509841442
0.03683999553322792
0.00683950399979949
0.008080776780843735
0.07157652080059052
-0.060793135315179825
-0.03238804638385773
-0.05866185203194618
0.05734456330537796
0.05619080737233162
0.00774685014039278
-0.06048276647925377
-0.04576972872018814
-0.025514030829072
-0.0520734004676342
-0.059955865144729614
0.006367215886712074
0.06130232661962509
-0.049283139407634735
0.004656153731048107
0.06547999382019043
0.04408141225576401
-0.016110455617308617
0.02111457660794258
0.07582581788301468
0.062340665608644485
-0.014716630801558495
0.06225123628973961
0.01981886476278305
0.0653138980269432
0.004710739944130182
-0.021381355822086334
0.0682692602276802
0.0027625765651464462
-0.03707558289170265
0.045992299914360046
0.025548769161105156
0.011883492581546307
-0.05682278424501419
0.07193489372730255
-0.027164941653609276
-0.050497740507125854
-0.03445415198802948
-0.03528769686818123
0.03363266959786415
0.03125647455453873
0.02303595468401909
-0.06413096189498901
-0.06884515285491943
0.02476673200726509
0.03560059517621994
0.013945016078650951
0.015501562505960464
0.05600045993924141
-0.07026156038045883
-0.03733992576599121
-0.0021981901954859495
0.05820886418223381
0.05327910557389259
0.05886675789952278
-0.018887074664235115
0.06831572949886322
-0.06314054131507874
0.06920725107192993
-0.003774417797103524
0.05254070833325386
0.047283098101615906
0.04562075063586235
0.07716196030378342
-0.00592601066455245
0.05799126625061035
0.05297454819083214
-0.0524701252579689
0.014177292585372925
-0.007615742739289999
-0.00803128257393837
-0.03847987949848175
-0.02081327512860298
0.02255924604833126
0.04749514162540436
0.04820671305060387
-0.0016274616355076432
-0.021504810079932213
-0.04155147075653076
0.07930513471364975
-0.034061580896377563
0.06369778513908386
-0.028225058689713478
-0.03684611991047859
-0.019496746361255646
0.06496596336364746
-0.013971869833767414
-0.067509725689888
-0.037866994738578796
0.022829430177807808
0.0501430369913578
0.021289566531777382
-0.050452250987291336
-0.0517045222222805
-0.03525335714221001
0.045693811029195786
0.01145744789391756
-0.008410725742578506
0.007287342566996813
0.01657787151634693
-0.049514684826135635
-0.0001616499648662284
0.049934666603803635
-0.021330254152417183
0.035869352519512177
0.022429047152400017
0.07983992993831635
-0.024677695706486702
0.032426901161670685
-0.025386573746800423
-0.04689449816942215
-0.0022371013183146715
-0.005331797990947962
0.03221382200717926
0.05371510609984398
0.033349066972732544
0.019133945927023888
-0.027038373053073883
-0.0064954315312206745
0.07314132153987885
-0.02989361435174942
-0.03659163787961006
-0.022485360503196716
-0.02347867377102375
-0.007019279524683952
0.0037876113783568144
0.02574710175395012
0.031067319214344025
-0.04418225213885307
-0.009013029746711254
0.0041963872499763966
0.04005472734570503
0.06768090277910233
-0.017766594886779785
0.013497570529580116
-0.054128751158714294
0.019993925467133522
0.02210482396185398
0.03368714824318886
0.04419849440455437
-0.03627565875649452
0.006592282559722662
-0.003004461992532015
-0.04219938442111015
-0.05157487839460373
0.06290532648563385
-0.046862564980983734
0.05048755556344986
-0.052834440022706985
0.01906754821538925
-0.014820837415754795
0.058518484234809875
-0.0421488918364048
0.062296267598867416
-0.025923017412424088
-0.053048938512802124
-0.006160388235002756
0.055061668157577515
0.0260937362909317
0.021896926686167717
0.02096933126449585
-0.009023930877447128
-0.004516194574534893
0.04791834577918053
0.05982466787099838
-0.057510774582624435
0.03458705544471741
-0.003034736029803753
0.0005107143661007285
-0.042755376547575
-0.0583815798163414
0.06519710272550583
-0.034491803497076035
0.02061649039387703
0.022292619571089745
-0.04948015511035919
-0.043250203132629395
-0.043208442628383636
-0.045938730239868164
0.038756538182497025
-0.04160890728235245
0.022499075159430504
-0.021328797563910484
0.06476891785860062
0.005767755210399628
-0.04109681025147438
0.07031404227018356
-0.02438785322010517
0.04831137880682945
-0.026304002851247787
-0.0433911457657814
0.04089801758527756
0.049409206956624985
-0.03041098080575466
-0.013712155632674694
0.05947386845946312
0.06974861770868301
0.070105642080307
0.011731486767530441
0.05966591462492943
-0.05536064878106117
-0.0024918292183429003
-0.03640874847769737
0.020705368369817734
0.010920973494648933
-0.02869444154202938
-0.051547225564718246
0.054595913738012314
-0.008064085617661476
0.04561002925038338
0.014781633391976357
0.03479768708348274
-0.024285675957798958
0.014834610745310783
0.054889652878046036
-0.04362773522734642
0.04035443440079689
-0.01991804502904415
0.06030404567718506
0.04137071594595909
-0.005125860217958689
-0.04881684109568596
0.06277316063642502
-0.0457925908267498
0.06582650542259216
0.023311959579586983
0.05501306429505348
0.0693076029419899
-0.03250959888100624
-0.034728001803159714
-0.012274867855012417
-0.05492766201496124
-0.0530020073056221
-0.0030284514650702477
-0.06003309041261673
0.030615294352173805
-0.012329474091529846
-0.04627452418208122
0.021407241001725197
-0.032149143517017365
0.023585069924592972
-0.039991818368434906
-0.04246542230248451
0.02184058353304863
-0.06530086696147919
0.005897034890949726
-0.07202128320932388
-0.02747092768549919
-0.007203490473330021
0.01620812714099884
0.08054955303668976
-0.028214458376169205
-0.029545584693551064
-0.025702636688947678
-0.05727493762969971
0.06610706448554993
0.06151370331645012
0.01232962403446436
0.042214732617139816
0.04475627839565277
0.07124049216508865
0.03949480503797531
-0.033973634243011475
-0.004248197190463543
0.026971200481057167
-0.03076395019888878
-0.03358391672372818
0.04839472845196724
0.023338783532381058
-0.04959060996770859
-0.02093164063990116
-0.005772249307483435
0.0012798159150406718
0.03332149237394333
0.04090555012226105
0.014135338366031647
0.055749475955963135
0.062613345682621
0.06556366384029388
0.04396833851933479
0.06303238868713379
0.05097603797912598
0.02312592975795269
0.01942373812198639
0.020127544179558754
-0.017871374264359474
0.06478948146104813
-0.01958664134144783
0.015850814059376717
0.008660152554512024
0.05409199744462967
0.0036994568072259426
-0.026057403534650803
0.01670491136610508
0.033439137041568756
-0.05962688475847244
0.01228525023907423
0.027744226157665253
0.0632118433713913
0.05493520572781563
-0.0377378910779953
-0.048193130642175674
0.028494225814938545
-0.04526997357606888
-0.05877820774912834
-0.03436928242444992
0.04785566031932831
-0.0066397106274962425
0.019377360120415688
0.04561803489923477
-0.024432934820652008
-0.008682862855494022
0.03087655082345009
-0.011576968245208263
-0.011060185730457306
0.023011693730950356
-0.04818268492817879
0.015204960480332375
-0.026003040373325348
0.030324559658765793
0.04422777518630028
-0.06543215364217758
0.04295532405376434
-0.04923197254538536
0.026950497180223465
0.06841354817152023
-0.05737947300076485
0.017704159021377563
0.021978527307510376
-0.05209929868578911
-0.04621267318725586
-0.05429202318191528
0.014421146363019943
0.03113812580704689
0.05943434312939644
-0.028103822842240334
-0.037055935710668564
-0.04910203814506531
-0.06620880216360092
-0.042918432503938675
0.0071342396549880505
-0.026986684650182724
-0.07233639061450958
0.03392447903752327
0.02176259458065033
0.006208323873579502
0.06761733442544937
0.014733967371284962
-0.03906939551234245
0.01637362502515316
0.0657404363155365
-0.00871029682457447
0.02578512765467167
-0.012743785046041012
-0.04789876192808151
-0.06514671444892883
0.036169495433568954
-0.04586321860551834
-0.03423575684428215
0.023618729785084724
-0.0661608949303627
0.032031457871198654
-0.030350401997566223
0.03056199848651886
-0.04735427349805832
0.00499927019700408
0.030711399391293526
0.07194735109806061
0.026373768225312233
-0.009575361385941505
-0.04057755693793297
-0.041306786239147186
0.014721190556883812
-0.03026639297604561
0.05642280727624893
0.012652783654630184
-0.057540830224752426
0.06026572734117508
0.01652352325618267
0.0024362921249121428
0.023112691938877106
-0.03297726809978485
-0.019568925723433495
-0.044022273272275925
0.04740219935774803
0.004074555821716785
-0.0030364675913006067
-0.02672520838677883
0.05356743186712265
0.01654268056154251
-0.024606958031654358
0.01283258106559515
-0.018308665603399277
-0.01222640834748745
-0.050557464361190796
-0.03322010859847069
0.04498700052499771
-0.027150440961122513
0.042126383632421494
-0.032265473157167435
-0.05138592794537544
0.0503530390560627
0.06675335019826889
-0.004165517631918192
0.05048523098230362
0.05648152157664299
-0.025903141126036644
-0.012886852025985718
-0.011910390108823776
0.051139891147613525
-0.032147541642189026
-0.01797536574304104
-0.044540900737047195
-0.01394410990178585
-0.025202307850122452
-0.06958512216806412
0.043501585721969604
0.02082839608192444
0.011729483492672443
0.002871881239116192
0.0024847821332514286
0.02114146389067173
-0.053329721093177795
0.04247620701789856
-0.06825154274702072
-0.004625958390533924
-0.04837818443775177
-0.015171442180871964
-0.07139599323272705
0.06311725825071335
-0.04827839881181717
0.05437014624476433
-0.05258016660809517
-0.054286204278469086
0.0034090967383235693
0.014121734537184238
0.06085734814405441
-0.04172912985086441
0.05521198734641075
-0.06517148017883301
-0.051452916115522385
-0.05694803223013878
0.026161596179008484
