0.008667287416756153
0.023025622591376305
-0.005396618973463774
-0.011935231275856495
0.023007884621620178
0.008975802920758724
-0.013645746745169163
0.026741649955511093
0.0035493499599397182
0.011355320923030376
0.016197940334677696
-0.022001560777425766
-0.01148473471403122
-0.022761797532439232
0.007146261632442474
0.010382368229329586
0.03016871213912964
-0.006604937836527824
0.010292479768395424
-0.015722965821623802
-0.013342528603971004
0.00684921070933342
-0.025324834510684013
-0.015290523879230022
0.011114528402686119
-0.01756708137691021
-0.0034533655270934105
-0.03456610068678856
-0.014552225358784199
0.03357319161295891
-0.02896941266953945
0.03766755759716034
-0.024564310908317566
0.009413432329893112
-0.014225787483155727
0.0005437941872514784
-0.021270420402288437
-0.026562293991446495
-0.02573142573237419
0.03491681441664696
-0.03875935077667236
-0.02652561292052269
0.037530358880758286
0.012792848981916904
-0.03675715625286102
-0.03281269967556
0.0357058010995388
-0.009350350126624107
-0.03694182634353638
0.03655892610549927
0.018357446417212486
-0.0390983484685421
0.024742629379034042
0.016068508848547935
0.011645644903182983
0.030586011707782745
0.006196203641593456
0.0007484194356948137
-0.014296920038759708
-0.025446977466344833
0.036071404814720154
0.006965935230255127
0.0031958194449543953
-0.019147610291838646
