0.011131846345961094
-0.006939742248505354
-0.009882976301014423
-0.005028566811233759
-0.0038037425838410854
-0.012308811768889427
0.0017356757307425141
-0.0034004254266619682
0.005581115372478962
-0.001927047036588192
0.012585315853357315
0.006791123654693365
-0.012368363328278065
0.004090901464223862
-0.010161754675209522
-0.006772041320800781
0.006658109836280346
-0.014546389691531658
0.006878306157886982
0.013439311645925045
-0.011560473591089249
0.0018206683453172445
-0.00854995846748352
0.00888293981552124
-0.01052927691489458
0.0012725976994261146
0.013965742662549019
0.004596438724547625
-0.005414760205894709
-0.012503385543823242
0.014478789642453194
-0.00019666481239255518
0.013085499405860901
-0.0045609246008098125
0.010028937831521034
0.003170498413965106
-0.014691808260977268
-0.01047460362315178
0.007601036690175533
-0.005147852934896946
-0.0027434525545686483
0.005780171602964401
0.009949706494808197
-0.012031041085720062
-0.0015249800635501742
-0.01263638399541378
0.005211543757468462
-0.012693478725850582
-0.014455266296863556
-0.006888252682983875
0.010768556967377663
-0.011415539309382439
0.010736336931586266
-0.003342375159263611
0.013538775965571404
0.01398507971316576
-0.007889491505920887
0.010150658898055553
0.002660296857357025
0.0008418147917836905
0.008873925544321537
-0.002356958808377385
-0.01282527856528759
0.0024949037469923496
0.0005706929368898273
0.0024989552330225706
0.014691288582980633
-0.0033055616077035666
-0.009907051920890808
-0.0017351559363305569
-0.005256179254502058
0.010876369662582874
0.008151708170771599
-0.006165759172290564
0.0019006191287189722
0.0025578343775123358
0.0042379568330943584
-0.012592489831149578
0.011594647541642189
-0.0004004653019364923
-0.0020316606387495995
0.011503678746521473
-0.0025413865223526955
-0.004276610910892487
-0.005808099173009396
-0.0021371350158005953
-0.0008485583239234984
0.011853964067995548
-0.012088789604604244
-0.01313838828355074
-0.00565382419154048
0.0027666683308780193
-0.012298207730054855
0.008014126680791378
-0.0033427788875997066
-0.004622532986104488
-0.008233778178691864
0.006702488753944635
-0.012277087196707726
0.0012869242345914245
0.004445907659828663
-0.014264591969549656
0.011595040559768677
-0.014650613069534302
0.010576732456684113
-0.010077652521431446
0.005106466356664896
0.009861703962087631
-0.006315526086837053
-0.014476828277111053
-0.00965507049113512
0.006424697116017342
-0.005906368140131235
-0.0097651407122612
0.0020531960763037205
0.012212100438773632
-0.010796060785651207
-0.00555818947032094
-0.012843215838074684
0.004380825906991959
-0.008708217181265354
-0.004181176424026489
0.001426663831807673
0.009129390120506287
-0.009678644128143787
-0.0036926751490682364
0.00568409962579608
-0.014714720658957958
-0.007794348523020744
-0.0005859623779542744
0.012149618938565254
0.0040392205119132996
-0.006070876028388739
0.004931809846311808
-0.0006049618241377175
0.0038558044470846653
0.011808967217803001
0.007325879298150539
0.003516186960041523
-0.0027183769270777702
0.001397320767864585
-0.008889738470315933
-0.014564050361514091
-0.014053747057914734
-0.005418827291578054
-0.0070112599059939384
-0.0031932753045111895
-0.008908519521355629
-0.011843317188322544
-0.01116237137466669
0.014721200801432133
0.0019198398804292083
-0.012365135364234447
0.007208182476460934
0.010639861226081848
-0.001195890479721129
-0.01223699189722538
-0.00498864846304059
0.006238926202058792
0.008163386024534702
0.0015183314681053162
0.0021324846893548965
-0.0005090672057121992
-0.006676113698631525
-0.00020399436471052468
-0.005844461265951395
0.013615874573588371
0.004479108843952417
-0.01445222832262516
-0.0002379655634285882
-0.0034249406307935715
0.001963286194950342
0.0019902409985661507
4.450709093362093e-05
0.004952228162437677
-0.002429089741781354
-0.008976075798273087
0.009641955606639385
-0.008866420015692711
0.003215370699763298
0.0004130180459469557
0.010984526015818119
-0.006945806089788675
-0.009799663908779621
0.006127080414444208
-0.0014005538541823626
0.002128350781276822
0.001145848073065281
-0.004619740881025791
-0.0033126650378108025
-0.007092466577887535
-0.0067438906989991665
-0.0014758772449567914
-0.011726629920303822
0.008275728672742844
0.00039511240902356803
-0.01248255092650652
0.013807839713990688
0.005977869965136051
-0.0036178661976009607
-0.007012448739260435
0.013348773121833801
-0.0025776855181902647
0.012555591762065887
-0.009959990158677101
-0.006803595460951328
-0.010087196715176105
0.006183567922562361
-0.007011533714830875
-0.0011712064733728766
0.014393698424100876
-0.009156133979558945
-0.011316323652863503
0.0023119477555155754
0.0136900395154953
0.0018191317794844508
0.009177640080451965
-0.005386709701269865
0.007044206373393536
-0.0029222832527011633
0.0011497484520077705
0.014414534904062748
-0.0006142060738056898
-0.009130426682531834
0.0007448982214555144
0.0017358073964715004
0.008734416216611862
-0.00984631385654211
-0.006555459462106228
-0.013994411565363407
-0.007695680949836969
-0.007481053471565247
-0.003662714036181569
-0.00017392598965670913
0.0021072598174214363
0.004569794982671738
-0.006416028831154108
0.009428441524505615
0.000982859288342297
-0.0017312397249042988
0.0005533266812562943
0.01417121198028326
-0.01118551380932331
-0.01281571015715599
-0.013158394023776054
0.008957241661846638
-0.0033890544436872005
0.005755961872637272
0.00807545892894268
0.006326391361653805
0.012140435166656971
-0.0059762438759207726
-0.011773674748837948
-0.00782790221273899
0.007990517653524876
-0.0038713249377906322
0.007746989373117685
-0.011456056497991085
0.01182596292346716
0.013312479481101036
-0.011532914824783802
-0.006501123309135437
0.0065521965734660625
-0.005764753092080355
0.005526672583073378
0.0015986826037988067
-0.00478809280321002
-0.004838161636143923
0.0061983633786439896
-0.013209696859121323
-0.013637686148285866
-0.014263443648815155
0.0027820011600852013
-0.008871848694980145
0.0016332308296114206
-0.010842641815543175
-0.00953593384474516
0.007823420688509941
-0.002634473145008087
-0.003701401175931096
0.009209994226694107
-0.009682131931185722
-0.007858555763959885
0.00785022508352995
-0.008160595782101154
-0.008096734061837196
-0.0056242020800709724
-0.0010715642711147666
0.012205318547785282
0.009456837549805641
0.014433247968554497
0.005701783578842878
0.00957826990634203
0.006377411540597677
-0.014431639574468136
-0.00503725977614522
0.0049936710856854916
0.008421128615736961
-0.011072962544858456
0.001577257993631065
0.007767562288790941
0.010572521016001701
0.014680953696370125
0.002545448485761881
-0.00647804094478488
0.013199462555348873
0.003331355517730117
0.001282879849895835
0.013040971010923386
0.0087044108659029
-0.01273434329777956
0.009076517075300217
-0.012790755368769169
0.006556042470037937
0.012318730354309082
-0.009703977964818478
-0.01342130359262228
0.0010115612531080842
-0.002791580744087696
-0.0015248589916154742
-0.01065313071012497
0.00017903454136103392
-0.0027555751148611307
0.0009803532157093287
0.0066289580427110195
0.00314522092230618
0.011365030892193317
-0.001215332536958158
0.012636320665478706
-0.00624815421178937
0.0005439139204099774
0.007687390316277742
-0.01465382520109415
-0.002282866509631276
0.003426140174269676
-0.004398130811750889
0.008305463008582592
0.005819136276841164
-0.004990576766431332
-0.010830038227140903
0.0011009617010131478
-0.013341785408556461
-0.011090650223195553
0.0011603764723986387
-0.011075804010033607
-0.0023366580717265606
-0.014308979734778404
-0.0074770282953977585
0.002631255891174078
-0.007087682839483023
0.0013789290096610785
0.010531844571232796
-0.013852610252797604
-0.013345504179596901
-0.0009757785010151565
0.013510467484593391
0.00988488458096981
0.0031717962119728327
0.013068432919681072
-0.009182639420032501
0.0004631096380762756
-0.014091618359088898
-0.0008585664327256382
-0.002131824381649494
-0.0008251913823187351
-0.013268695212900639
0.008228023536503315
-0.008625436574220657
-0.007821968756616116
0.004352977499365807
-0.00106102938298136
0.007615923415869474
-0.00936930626630783
0.012244565412402153
0.006944225635379553
-0.0015919918660074472
0.003867345629259944
0.007426299154758453
0.008736995980143547
0.006666809786111116
-0.011772912926971912
0.0007996591739356518
0.011624060571193695
-0.008989432826638222
-0.009422846138477325
-0.0023838309571146965
0.004634137265384197
-0.013635911978781223
0.000346621178323403
-0.005806260276585817
0.008134355768561363
0.002917478559538722
0.013198251836001873
-0.014110087417066097
0.0047673918306827545
-0.006038384046405554
0.004808663856238127
-0.012459046207368374
-0.013251961208879948
0.013413782231509686
0.013749592937529087
0.005456316750496626
0.013070213608443737
0.0024523213505744934
-0.010190637782216072
0.0020340210758149624
-0.013725345954298973
-0.0011810249416157603
-0.010860408656299114
0.012180490419268608
-0.003604317782446742
0.00892761442810297
0.012477999553084373
-0.0007750120712444186
-0.008179010823369026
-0.013502656482160091
-0.012934648431837559
-0.003738397266715765
0.0001881505158962682
8.857297507347539e-05
0.006401934195309877
-0.013385115191340446
0.013918510638177395
-0.004007597919553518
0.010604283772408962
-0.009259914048016071
-0.008548070676624775
-0.01305230800062418
-0.010075562633574009
0.0010202083503827453
-0.009935573674738407
0.007305295672267675
0.013830493204295635
0.012675106525421143
-0.006797324400395155
-0.008277302607893944
0.0024225465022027493
0.006889541633427143
0.005018395371735096
-0.010535210371017456
0.005021245684474707
0.0025988046545535326
0.012448237277567387
0.01431165263056755
-0.007659078110009432
-0.0009543907945044339
0.005362844094634056
0.005386028438806534
-0.00904792919754982
0.011062278412282467
-0.0010551955783739686
0.004944441840052605
0.009530380368232727
-0.010178574360907078
-0.0009674302418716252
-0.0014915260253474116
0.010355728678405285
-0.008519220165908337
0.0025628937873989344
-0.014208877459168434
-0.014141489751636982
0.002518181223422289
0.003943926654756069
-0.010569718666374683
-0.013697074726223946
0.00034166171099059284
-0.005497563164681196
-0.0034430392552167177
0.0011295776348561049
0.004192742053419352
-0.014484252780675888
0.01423195842653513
-0.001481256214901805
-0.012730255722999573
0.0013077956391498446
0.010478438809514046
0.009587888605892658
0.005945100914686918
0.0058863903395831585
-0.007861342281103134
0.01177123375236988
-0.004135130904614925
-0.013169987127184868
0.003003812860697508
-0.004981787409633398
0.013451899401843548
0.0007512745796702802
0.00764430733397603
-0.008049012161791325
0.0065213767811656
-0.006551195401698351
-0.009497390128672123
0.0139721455052495
0.005876013543456793
0.0006604112568311393
-0.005500569473952055
0.00646450137719512
-0.011120100505650043
-0.012521909549832344
0.005942124407738447
-0.005500776693224907
0.006609763950109482
0.010421546176075935
0.008744699880480766
-0.004180187825113535
0.0004798173613380641
-0.011649777181446552
-0.009025944396853447
-0.014115518890321255
-0.005921398755162954
-0.013339442200958729
0.00661002192646265
