-0.022792117670178413
-0.0022786969784647226
-0.055736299604177475
-0.0166642963886261
0.03673862665891647
-0.03792021423578262
-0.05726766213774681
0.01939026266336441
-0.03277214616537094
-0.010735486634075642
-0.026627274230122566
-0.04408816993236542
0.02675795555114746
-0.05298801511526108
0.01793418638408184
-0.005057779140770435
-0.03061498887836933
-0.038134023547172546
-0.002315549412742257
-0.03330415487289429
-0.03257498890161514
-0.055758196860551834
-0.0429677776992321
0.038867294788360596
0.0032218643464148045
0.03557171672582626
-0.03041202388703823
-0.0383792445063591
0.01778576336801052
0.02861865982413292
0.038945380598306656
0.05951942503452301
-0.018416931852698326
-0.044093526899814606
0.049985695630311966
-0.03242448717355728
0.05568337067961693
-0.002268010750412941
-0.0350247286260128
-0.039499908685684204
0.05316944047808647
-0.029782919213175774
0.003253776580095291
0.019371170550584793
-0.05747830122709274
0.050162117928266525
-0.024661557748913765
0.026794638484716415
0.03422807902097702
-0.03925849869847298
-0.022855252027511597
-0.019588224589824677
-0.05426374077796936
0.04784645140171051
0.045299217104911804
0.0170489139854908
0.029688024893403053
0.030476270243525505
0.0014176047407090664
0.00032742295297794044
0.00945432111620903
-0.03044881671667099
0.02194262109696865
-0.02769879251718521
0.015068607404828072
0.02272898145020008
-0.011937088333070278
-0.0629412978887558
-0.014903458766639233
-0.013421299867331982
-0.03226996585726738
-0.05357084795832634
0.03965216502547264
0.0031651605386286974
-0.03405308350920677
0.014941414818167686
-0.003355026710778475
0.043447211384773254
-0.06491122394800186
0.012193579226732254
-0.048265330493450165
0.03670724108815193
0.055717237293720245
-0.014567697420716286
-0.054746393114328384
-0.04763752594590187
-0.034072089940309525
0.05186554044485092
-0.018640751019120216
-0.036425620317459106
0.03181677311658859
-0.061261292546987534
0.011853651143610477
-0.047254495322704315
0.042568959295749664
0.010797783732414246
0.027873842045664787
-0.03993837907910347
0.007198812440037727
-0.05443723127245903
0.0202595517039299
0.04507745802402496
0.03955467417836189
-0.038552917540073395
-0.03569454327225685
-0.008034241385757923
0.02158762887120247
-0.035583339631557465
0.036697473376989365
0.00925592239946127
0.04491443559527397
-0.01968405768275261
-0.00013641164696309716
0.032029636204242706
0.028397032991051674
0.017568882554769516
0.005350664258003235
-0.05727340653538704
0.0178480576723814
-0.03839351609349251
0.04769548773765564
-0.020312746986746788
-0.03935343772172928
-0.03340506926178932
-0.05697612464427948
0.03660869970917702
-0.002491260413080454
-0.027942385524511337
-0.040325433015823364
0.04069613665342331
0.034823354333639145
0.026321306824684143
-0.014769054017961025
-0.057281773537397385
0.005640205927193165
0.03906257078051567
-0.023397844284772873
0.021528327837586403
-0.013553740456700325
-0.0011961060808971524
0.050078846514225006
0.021342100575566292
-0.06485261023044586
0.012558012269437313
-0.03461498022079468
-0.018179340288043022
0.03996754065155983
0.05934157967567444
0.013548188842833042
-0.01840115338563919
-0.025982433930039406
-0.03649558499455452
0.01771746762096882
0.00887584500014782
-0.05532735213637352
0.04533631354570389
0.034291110932826996
0.04085680469870567
0.004534679464995861
-0.020343847572803497
-0.025715552270412445
0.038658883422613144
0.03268447145819664
-0.0475073866546154
-0.02788211777806282
-0.014065864495933056
0.002278102096170187
-0.06481965631246567
-0.04025784879922867
-0.024159155786037445
0.028875840827822685
0.005099330563098192
-0.0321570560336113
-0.011669717729091644
-0.02325175330042839
-0.028130020946264267
-0.010660909116268158
0.038026951253414154
0.03160659223794937
-0.027906371280550957
0.04974757879972458
-0.05004670098423958
-0.01360253244638443
-0.05544409155845642
-0.042162347584962845
-0.023246055468916893
-0.003252947935834527
-0.04829244315624237
-0.03528478741645813
-0.04831317812204361
0.0033401951659470797
0.013055871240794659
-0.03513438254594803
-0.03843104466795921
-0.033454783260822296
0.02893044240772724
-0.02198365516960621
0.03168321028351784
-0.045099955052137375
-0.03162555769085884
0.05545957759022713
0.028597725555300713
-0.05085037276148796
0.02979757823050022
-0.018819110468029976
0.012567599304020405
-0.024058248847723007
0.0008211985696107149
0.025187639519572258
0.028559651225805283
0.02447669394314289
0.022626271471381187
0.02159101329743862
-0.03354332968592644
-0.04515444114804268
0.043076273053884506
-0.026459958404302597
0.02731790766119957
0.049673162400722504
0.0010966547997668386
-0.03587009385228157
-0.020039936527609825
0.01201802771538496
-0.051394984126091
0.025305958464741707
-0.04429234191775322
0.057630863040685654
0.04287385940551758
0.0286615751683712
-0.048290397971868515
0.012603147886693478
0.005739178042858839
0.04802310839295387
0.014838227070868015
0.04874005541205406
-0.017871396616101265
-0.054313745349645615
-0.056178539991378784
-0.035525381565093994
0.036957237869501114
-0.01855325885117054
0.05411774292588234
0.04252154752612114
-0.02301604300737381
0.05109202116727829
-0.0059024314396083355
-0.05748005956411362
0.023323744535446167
0.03320230171084404
0.05351770669221878
0.05692359805107117
0.002813654486089945
-0.04870978742837906
0.040196679532527924
0.05036093294620514
0.006214032880961895
0.056920066475868225
0.04539471119642258
-0.0006960671744309366
-0.0019987868145108223
-0.02506099082529545
-0.028284670785069466
-0.03975363448262215
0.006471606437116861
0.003500777529552579
0.00949827954173088
0.04447145015001297
0.003086357843130827
0.0510307140648365
0.0343940444290638
-0.05062045529484749
-0.05466507747769356
-0.04390614852309227
0.016274286434054375
-0.01064777746796608
-0.00857613980770111
0.01882653497159481
0.003638244466856122
0.021881775930523872
-0.04802381619811058
0.04952417314052582
-0.05968686193227768
-0.029339754953980446
0.0031739932019263506
0.028210744261741638
-0.0427154116332531
-0.06343472748994827
-0.04798055440187454
-0.010445644147694111
-0.004864159971475601
0.039312608540058136
0.039842620491981506
-0.047318439930677414
-0.033273424953222275
-0.0214278232306242
-0.025030408054590225
0.010024720802903175
0.03270285204052925
-0.059004273265600204
-0.020492250099778175
-0.005800604820251465
0.011945650912821293
-0.014356913045048714
-0.0424223393201828
-0.060302652418613434
0.03644372150301933
-0.05838780105113983
0.05727607384324074
0.058938149362802505
-0.0382712185382843
0.037008170038461685
-0.045232050120830536
0.059576716274023056
-0.007256339304149151
0.04453347623348236
-0.06156134232878685
0.031309615820646286
-0.043528199195861816
0.03395691514015198
0.04620553180575371
-0.01569165475666523
0.017711997032165527
-0.0009375216905027628
-0.06140723079442978
-0.018796883523464203
0.06425198167562485
0.044819176197052
-0.0075819408521056175
-0.00549722695723176
0.05602554604411125
0.027285264804959297
-0.013190194964408875
0.015274235047399998
-0.004878952633589506
0.010005821473896503
0.04791465774178505
-0.004889673087745905
-0.013134140521287918
-0.03604970499873161
-0.04659886285662651
-0.05139341577887535
0.025915510952472687
-0.03504779934883118
-0.0019700597040355206
0.013868836686015129
-0.05352749302983284
-0.01727702096104622
0.04977334663271904
-0.016674214974045753
0.059600695967674255
0.05900605022907257
-0.0055823721922934055
0.02735772728919983
0.057122573256492615
0.03432892635464668
-0.0085073783993721
-0.04467041417956352
0.052992552518844604
0.03142435476183891
-0.03125487640500069
-0.028845440596342087
0.05851365625858307
0.02372722513973713
-0.037908121943473816
0.06280795484781265
0.04368878901004791
0.057141441851854324
0.03837591037154198
0.04442549869418144
0.0042911493219435215
0.005432028789073229
-0.04709238559007645
0.0015659028431400657
-0.01099012978374958
0.031148791313171387
0.048501335084438324
0.0335405096411705
0.045241814106702805
0.004226905293762684
0.021641505882143974
-0.012168174609541893
0.0367637537419796
0.03676648810505867
0.004345868248492479
-0.02830563858151436
-0.022674759849905968
-0.03591686487197876
0.05109028145670891
-0.019647138193249702
0.015603971667587757
-0.023603670299053192
0.002847375813871622
-0.019670536741614342
-0.04390782490372658
0.03842873498797417
-0.02216901071369648
0.03473163768649101
0.03709838166832924
0.001875456771813333
-0.052160777151584625
0.030664311721920967
0.036345917731523514
-0.020036183297634125
0.036079879850149155
0.01592475362122059
-0.004015986807644367
0.02162511646747589
-0.029933206737041473
0.042760785669088364
-0.050691861659288406
0.007891850546002388
0.014043858274817467
-0.04911094158887863
-0.044472865760326385
-0.011307978071272373
-0.029775159433484077
-0.051592160016298294
-0.02557474374771118
0.035967595875263214
0.006680895108729601
-0.045578110963106155
0.04074304923415184
-0.002356913173571229
-0.05421474575996399
0.03423376381397247
0.036040667444467545
-0.05404267832636833
-0.023506682366132736
0.04836268723011017
-0.03439084812998772
0.05246812477707863
0.042570263147354126
-0.013676941394805908
0.025540269911289215
0.019618617370724678
-0.058021362870931625
0.027666429057717323
-0.035234127193689346
0.011521424166858196
0.025544749572873116
0.028038332238793373
0.04651084169745445
0.05196075141429901
0.047979649156332016
0.015144498087465763
-0.0454915314912796
0.016631783917546272
-0.027513351291418076
0.005363054107874632
-0.042474884539842606
-0.012952059507369995
0.013375473208725452
0.0017355079762637615
0.018517661839723587
0.013235063292086124
0.016952453181147575
0.02840367518365383
0.01829157955944538
0.0121752405539155
0.044075895100831985
-0.03599845990538597
-0.01694185473024845
-0.0413353331387043
0.04529307037591934
-0.05891075357794762
-0.020780179649591446
-0.02281869202852249
-0.02814938686788082
-0.029382701963186264
0.016577744856476784
-0.007141847163438797
-0.022284124046564102
-0.02121606096625328
-0.026960166171193123
0.053354598581790924
0.04216288775205612
-0.0023414629977196455
-0.03701176866889
-0.014718921855092049
-0.048086926341056824
0.016432175412774086
-0.031120358034968376
0.03659527376294136
0.022720959037542343
-0.03964298218488693
-0.030718429014086723
0.04035065323114395
0.006014262791723013
0.03174377605319023
0.028486205264925957
0.04984935745596886
-0.022830447182059288
0.008733300492167473
0.045122772455215454
-0.053838036954402924
-0.04949395731091499
-0.03961021080613136
-0.041528526693582535
-0.0034433200489729643
0.02309361658990383
0.039094384759664536
0.003973694518208504
0.039330434054136276
0.02160649746656418
-0.00556364469230175
-0.0009852609364315867
0.007490580901503563
0.03661426529288292
-0.03288741037249565
-0.034515704959630966
-0.00019573071040213108
-0.03255483880639076
0.022262275218963623
-0.04313178360462189
0.0233223345130682
0.009404289536178112
0.025084994733333588
0.02492460422217846
0.048970893025398254
0.02919662930071354
-0.0006671585724689066
0.02759558893740177
0.04008490964770317
-0.018800506368279457
-0.027753863483667374
-0.01140935905277729
-0.012852435931563377
-0.039751555770635605
-0.019640030339360237
-0.031509239226579666
0.03818809241056442
-0.016719138249754906
-0.03010072372853756
-0.03414276987314224
0.00947105884552002
-0.036244336515665054
0.05458857864141464
-0.010201229713857174
-0.012012334540486336
-0.026515886187553406
0.04122357815504074
0.005933781620115042
0.021736539900302887
-0.05041559413075447
-0.02992560900747776
0.035422928631305695
0.006584156770259142
-0.01876593939960003
0.04301557317376137
-0.039092984050512314
0.008637044578790665
-0.03962745517492294
-0.013908125460147858
0.01427893154323101
-0.04628537967801094
-0.024799823760986328
-0.04524333402514458
-0.053773581981658936
0.0017727803206071258
-0.02316322736442089
0.05244792625308037
0.03765266388654709
-0.04056297987699509
-0.04316674545407295
0.02118949592113495
0.03402950242161751
0.046708423644304276
-0.044577497988939285
0.0011977667454630136
-0.05033991113305092
0.030822666361927986
-0.043360386043787
-0.05107041820883751
-0.03890322893857956
0.0419192872941494
0.013817054219543934
-0.009931155480444431
-0.033770881593227386
-0.038185279816389084
0.039613477885723114
-0.05568399652838707
-0.02599540911614895
0.04724875092506409
0.017720142379403114
0.024377699941396713
-0.05682263895869255
-0.03463435545563698
0.007001574616879225
-0.04748621955513954
0.008790598250925541
-0.04357345402240753
0.03624182194471359
0.03323746100068092
-0.02311171032488346
-0.05743938311934471
-0.01845068857073784
0.054592303931713104
-0.035286761820316315
-0.031633540987968445
0.020474141463637352
0.004165768623352051
-0.030621197074651718
0.026343252509832382
-0.03595726191997528
-0.039577990770339966
0.014614530839025974
0.049035217612981796
-0.0034827436320483685
-0.06822596490383148
-0.006206897087395191
0.0018055496038869023
-0.05709734931588173
0.0169391892850399
-0.032767243683338165
0.013792133890092373
0.0022916903253644705
-0.03392355889081955
-0.04316982626914978
-0.0554623007774353
-0.04392443969845772
0.0349278561770916
0.046494223177433014
0.006611411459743977
0.02411838434636593
0.057763077318668365
-0.03555800020694733
0.011297599412500858
-0.01844370923936367
0.051610056310892105
0.05471939221024513
-0.023420000448822975
-0.04754891246557236
-0.04325798526406288
-0.01257968507707119
-0.055153537541627884
0.01450456865131855
0.04528206214308739
-0.03332297131419182
-0.06069628521800041
-0.034195296466350555
-0.04551580548286438
0.05233650282025337
-0.007328081876039505
-0.031013332307338715
-0.039166513830423355
-0.05464201420545578
0.05484277755022049
0.030879784375429153
0.023134231567382812
-0.0010246249148622155
0.0002836605126503855
0.017924610525369644
0.045240648090839386
-0.02625427581369877
0.00527782691642642
-0.012003088369965553
-0.06375538557767868
-0.03322705999016762
0.04100363329052925
0.04866627976298332
0.027956344187259674
-0.05140271410346031
0.06258131563663483
-0.013233332894742489
-0.011439722962677479
-0.005550679750740528
-0.040544599294662476
0.027852315455675125
-0.03224434331059456
0.043656881898641586
-0.009571114555001259
-0.04518028721213341
0.03555131331086159
-0.036781035363674164
0.01443471945822239
-0.01087675616145134
-0.04837900027632713
-0.04139712452888489
-0.04459276422858238
0.027162566781044006
0.05416395142674446
0.042813461273908615
0.0020567518658936024
-0.018563494086265564
0.004681725520640612
0.015412023290991783
0.040726419538259506
0.018908515572547913
-0.03919004648923874
0.003918694797903299
0.0013587586581707
0.033999841660261154
0.020866572856903076
0.034301526844501495
0.015878114849328995
-0.036117225885391235
0.02340698055922985
-0.013464752584695816
0.018212663009762764
0.00698090298101306
0.01565266028046608
0.008294225670397282
-0.004069723188877106
-0.004117756616324186
-0.053667761385440826
0.018151385709643364
-0.03149799257516861
0.019422372803092003
0.0007147676660679281
-0.03075704351067543
0.03946457803249359
0.026637397706508636
-0.02062528394162655
0.010524895042181015
-0.018860576674342155
-0.039292432367801666
0.03581373021006584
0.04261062294244766
-0.012500395998358727
0.0505216158926487
0.04025597497820854
-0.027494845911860466
0.010435719974339008
0.04515046626329422
-0.040043529123067856
0.01301971822977066
-0.003938385285437107
0.01969972439110279
-0.00308054406195879
-0.05127901956439018
0.051467496901750565
-0.024865804240107536
0.04333128407597542
0.0046361833810806274
0.030879391357302666
-0.007186857983469963
0.040382228791713715
-0.020620213821530342
-0.0305639561265707
-0.04133783280849457
0.003937467001378536
0.02172425389289856
-0.014287679456174374
-0.0194814782589674
-0.038315773010253906
0.009739098139107227
-0.048309508711099625
0.008890382014214993
0.0028340849094092846
0.04356273263692856
-0.0035117778461426497
0.06150853633880615
0.042296603322029114
0.03900286182761192
0.0012591345002874732
0.02406051568686962
0.0025001356843858957
0.0619027242064476
-0.05170025676488876
-0.04157833382487297
0.048824574798345566
-0.04044847562909126
-0.0001258546399185434
0.03316452354192734
0.04822767153382301
-0.025900619104504585
-0.052661776542663574
0.03158027306199074
0.012258181348443031
-0.0076166256330907345
0.05873524397611618
-0.040171898901462555
-0.03111959435045719
-0.04967879876494408
0.021674972027540207
0.04632335901260376
-0.030764032155275345
0.03021906316280365
0.024758800864219666
0.0189887173473835
0.005802121013402939
0.039949383586645126
0.015338970348238945
-0.03204968199133873
-0.0060433256439864635
-0.03586570546030998
0.021770842373371124
0.030141690745949745
0.029931481927633286
-0.02348051778972149
-0.005084438715130091
-0.02108069136738777
0.05072938650846481
-0.021470356732606888
0.032176315784454346
-0.0417521670460701
-0.025542179122567177
-0.03692076355218887
0.03249410167336464
-0.028845148161053658
-0.05937737599015236
-0.04774199053645134
-0.006193327717483044
0.052879784256219864
0.004296652041375637
-0.011792472563683987
-0.0378430150449276
-0.03732748329639435
-0.00029538627131842077
0.003330427221953869
0.035829078406095505
-0.053542155772447586
-0.03936958312988281
0.013137629255652428
0.015713127329945564
0.022929182276129723
0.008971039205789566
-0.007110734935849905
0.009341132827103138
0.04058574140071869
0.026250990107655525
-0.0557694137096405
-0.04950894042849541
-0.04333275184035301
-0.0295894555747509
0.03648741543292999
0.0012889527715742588
0.03414681926369667
-0.00915204081684351
0.05930401012301445
0.031493499875068665
-0.0215137992054224
0.039001498371362686
0.05456922575831413
0.0422462522983551
-0.004077833611518145
0.0026647206395864487
-0.00441692816093564
-0.016187507659196854
-0.0019401605241000652
-0.04103808477520943
0.004898130428045988
0.023011351004242897
0.031959377229213715
-0.03510955721139908
0.004143954254686832
-0.03649048134684563
0.022490689530968666
0.03174923360347748
-0.015408757142722607
-0.026599571108818054
-0.05257653445005417
-0.036955177783966064
0.009847707115113735
-0.02639886923134327
-0.04417639598250389
0.030735168606042862
0.019094577059149742
0.01719355583190918
-0.030114997178316116
-0.04525219649076462
0.02465822547674179
0.013138257898390293
0.005784494802355766
-0.01976284570991993
0.021858934313058853
0.022196680307388306
-0.02518351748585701
0.03386655077338219
0.022274505347013474
-0.039985787123441696
0.011047935113310814
0.05265872925519943
0.010375256650149822
0.016867620870471
-0.05187612026929855
0.029392719268798828
0.049064796417951584
-0.022330963984131813
-0.02142925001680851
-0.011770305223762989
0.006608054041862488
-0.05723334103822708
0.04092177003622055
-0.04382053762674332
-0.012685311026871204
0.007740802131593227
-0.01363443024456501
0.0023196402471512556
-0.004152222536504269
-0.001160169835202396
-0.05254821851849556
-0.01986180804669857
-0.039281122386455536
-0.05714545398950577
0.02997346594929695
-0.03863350674510002
-0.06282173097133636
-0.02686011791229248
0.00329465139657259
-0.029343970119953156
-0.0019839254673570395
0.010671618394553661
-0.039098113775253296
0.006483498495072126
-0.04548511654138565
0.06370282918214798
0.017506716772913933
0.03328361734747887
-0.044191665947437286
0.0005754465819336474
0.03282010927796364
-0.03743576630949974
-0.009800771251320839
0.02532872185111046
-0.004734734073281288
0.011611026711761951
0.0362345315515995
-0.026353169232606888
-0.02120412327349186
-0.04434092715382576
-0.037930551916360855
0.003537670476362109
-0.0156684722751379
0.040230587124824524
-0.00908531341701746
0.045818034559488297
-0.027582678943872452
-0.05115436762571335
0.006551649421453476
-0.005036971531808376
-0.039205748587846756
-0.010117720812559128
0.05179937928915024
0.027603771537542343
-0.028901590034365654
-0.0454171821475029
-0.06797916442155838
-0.00030787099967710674
-0.06350217014551163
-0.005994024220854044
-0.0039082965813577175
0.03601735457777977
-0.009329543448984623
0.036603767424821854
0.019115151837468147
-0.017971279099583626
-0.017213691025972366
0.0010231686756014824
0.0027032888028770685
0.008124370127916336
0.008705006912350655
-0.01671101525425911
-0.00880984216928482
0.05869924649596214
0.015746209770441055
0.055038776248693466
0.004829698242247105
0.023044658824801445
0.04147770255804062
-0.0023145165760070086
-0.0356752835214138
-0.05710313469171524
-0.02515501342713833
0.04935826361179352
-0.03053176961839199
-0.04685411974787712
-0.014866718091070652
0.043661657720804214
-0.04087899997830391
0.059950076043605804
-0.047052472829818726
-0.018807943910360336
0.02246805839240551
-0.05773961544036865
0.05448309704661369
0.011615694500505924
0.027574535459280014
-0.006814427673816681
-0.03541629761457443
0.04090449586510658
0.048001572489738464
-0.00589499156922102
0.003759976476430893
-0.0074134510941803455
0.0312468521296978
0.03335658460855484
-0.03233085200190544
-0.026245828717947006
0.030401553958654404
-0.02621934935450554
-0.042060911655426025
-0.02896096557378769
-0.052227046340703964
-0.006450722459703684
-0.01651953160762787
0.025670383125543594
0.0450398325920105
0.03430378809571266
0.04014180973172188
-0.03945812210440636
-0.029584579169750214
-0.008262960240244865
-0.03782859444618225
-0.016306741163134575
0.028414295986294746
-0.0018758439691737294
0.005169661249965429
-0.06119393929839134
0.030235355719923973
-0.009539934806525707
0.015528546646237373
-0.028913656249642372
0.02167929895222187
-0.055358484387397766
0.05121339112520218
-0.009594841860234737
-0.0018534328555688262
0.049610212445259094
0.0036229658871889114
-0.022322963923215866
0.021656695753335953
-0.021831730380654335
0.0319855734705925
0.0033073904924094677
-0.018927525728940964
-0.01906929351389408
0.059310492128133774
0.02716634050011635
0.055563073605298996
0.028264373540878296
0.028445987030863762
0.03366607800126076
-0.04551210254430771
0.011895579285919666
-0.008884869515895844
-0.04845575988292694
0.047711990773677826
0.01780591532588005
-0.02344505302608013
-0.009705519303679466
-0.05801558867096901
-0.023223331198096275
-0.056784506887197495
-0.0023701884783804417
0.02837858535349369
0.010882566682994366
0.038462165743112564
-0.03428059443831444
-0.05609613284468651
0.04749278351664543
0.011648980900645256
-0.049834419041872025
-0.045940905809402466
-0.05699535459280014
0.014337059110403061
6.900347216287628e-05
-0.011934320442378521
-0.041547223925590515
0.04281223937869072
0.058386169373989105
-0.02444218285381794
0.05977296084165573
-0.03981130197644234
-0.04091562330722809
-0.04146386310458183
0.04433511197566986
0.011961577460169792
0.052105147391557693
0.023146728053689003
0.00580485537648201
-0.008174438960850239
0.01704743131995201
0.042443808168172836
0.005228341091424227
0.024632489308714867
-0.01709658093750477
-0.04648565873503685
0.0023696233984082937
0.03613007813692093
-0.00984184630215168
-0.012042994610965252
-0.03491300716996193
0.05176231637597084
-0.044379644095897675
0.05373213440179825
-0.006287011317908764
-0.05660923197865486
0.0560934841632843
-0.052052803337574005
-0.0460839718580246
0.048423413187265396
0.022157397121191025
-0.02766149304807186
0.027150414884090424
-0.059996381402015686
0.017819387838244438
-0.0006682447856292129
-0.006403670180588961
0.02709626406431198
0.016479533165693283
0.013125749304890633
0.0075421505607664585
0.06000948324799538
-0.01966690830886364
-0.04245816916227341
0.026180865243077278
-0.041035640984773636
0.0300153736025095
0.006647860165685415
0.004660454578697681
0.0023780888877809048
-0.03310728073120117
-0.03558303415775299
-0.047383882105350494
0.0043107932433485985
0.030953772366046906
0.008636158891022205
-0.01028134673833847
0.03928728401660919
0.0075911120511591434
-0.05018819496035576
-0.03721081465482712
0.04612477868795395
0.03395599126815796
-0.01315581239759922
-0.022539328783750534
0.032504141330718994
-0.0016194040654227138
0.003450421616435051
-0.05368741229176521
0.011637434363365173
0.021565737202763557
0.036368321627378464
0.04191835597157478
0.005164395552128553
-0.03298221528530121
-0.02531108818948269
0.018146036192774773
-0.03871212899684906
0.016536183655261993
0.009515183046460152
-0.04583657905459404
0.019820088520646095
0.016597988083958626
0.05131235346198082
-0.013922062702476978
-0.03789559751749039
0.009402867406606674
0.05271117016673088
0.03251652792096138
-0.0026518546510487795
0.01650988683104515
-0.051021624356508255
0.05431228131055832
-0.024295786395668983
0.0005309128318913281
-0.03793429583311081
0.029926754534244537
0.03755481168627739
0.04267251864075661
-0.02225206419825554
0.03692873194813728
-0.028370577841997147
0.0017867309506982565
0.035492874681949615
0.028167719021439552
0.04344630986452103
-0.004179224371910095
0.05837084352970123
0.055875230580568314
-0.054970234632492065
0.014702029526233673
0.010670961812138557
0.04087546467781067
0.025345614179968834
-0.009376335889101028
-0.006315289530903101
0.03525204211473465
0.006734125781804323
0.04963115230202675
0.0071865287609398365
0.032955050468444824
-0.04426511004567146
0.011709164828062057
0.0032621657010167837
0.04305274039506912
0.04411071166396141
-0.0469353161752224
0.04646579921245575
0.006132474634796381
0.03914886713027954
0.03169729560613632
-0.012450315989553928
-0.03864779695868492
0.003665556665509939
-0.04975055530667305
-0.04176542907953262
0.0012121357722207904
0.020434582605957985
-0.02816062606871128
0.022618558257818222
0.05668254196643829
-0.016252903267741203
-0.0548592284321785
0.0010750532383099198
0.03499223664402962
0.0465802364051342
-0.04628791660070419
-0.052429404109716415
-0.04793187230825424
-0.007983817718923092
0.007044604048132896
0.0346200205385685
-0.01758052594959736
0.0534171499311924
0.025870151817798615
-0.023032978177070618
-0.027262259274721146
0.02661256678402424
-0.03930630162358284
-0.03237304463982582
-0.01948033832013607
0.026906561106443405
-0.04034416750073433
-0.024268900975584984
0.030514411628246307
0.02401004359126091
-0.0335811972618103
0.03866108879446983
0.0312969870865345
-0.04860294237732887
0.02171042561531067
-0.015097646974027157
-0.04155866056680679
0.048632021993398666
-0.00295755616389215
-0.003906154539436102
-0.026941383257508278
-0.024033935740590096
0.0018076294800266623
0.0007686894969083369
0.04835069552063942
-0.011406239122152328
-0.026760965585708618
-0.04556198790669441
-0.019557567313313484
0.05009889602661133
-0.03677956014871597
0.032062530517578125
0.036877311766147614
-0.018829815089702606
-0.03260203078389168
0.016747595742344856
0.027196239680051804
-0.048675596714019775
-0.0019352368544787169
-0.03323575109243393
0.005218868609517813
-0.04359609633684158
0.03953716903924942
0.03208475932478905
-0.025696365162730217
-0.035609014332294464
-0.025759190320968628
0.045555148273706436
0.033894333988428116
0.024390611797571182
-0.026807617396116257
0.027493705973029137
0.04470400884747505
-0.005150167737156153
0.06291740387678146
-0.007621850352734327
-0.05666748806834221
0.05761445686221123
-0.051298677921295166
0.003305426798760891
-0.025136280804872513
-0.03104320727288723
-0.01445185299962759
-0.05211401730775833
-0.06590709835290909
0.02748614363372326
0.010159059427678585
0.04737906903028488
0.00019276716921012849
0.05149443820118904
-0.0077330670319497585
0.0076855686493217945
0.00570798572152853
0.06073258817195892
-0.040588248521089554
-0.004901014734059572
-0.041465383023023605
-0.010481790639460087
0.0020199711434543133
0.06058624014258385
-0.0022296267561614513
-0.054413437843322754
0.0412520095705986
-0.00945932138711214
-0.031937167048454285
-0.0020796903409063816
-0.018946019932627678
-0.022357773035764694
-0.00533668790012598
-0.010708567686378956
0.006636389531195164
-0.014856662601232529
-0.032676998525857925
-0.012428078800439835
-0.0005193687393330038
-0.05349786579608917
-0.02441049925982952
-0.03702234849333763
0.04015637934207916
-0.05396550893783569
0.011317579075694084
-0.004130141343921423
0.04332955181598663
0.04762491583824158
0.03100522980093956
0.04178629443049431
-0.003708848962560296
-0.04138226807117462
0.028416357934474945
0.04669397696852684
-0.021432537585496902
-0.0345538891851902
-0.06035564839839935
-0.05077822506427765
0.03339172154664993
0.020684944465756416
0.048640523105859756
0.0534294955432415
0.020410504192113876
0.018310388550162315
-0.02515571378171444
0.015628639608621597
0.04586482793092728
-0.041169870644807816
0.017331231385469437
0.06929660588502884
0.015192168764770031
-0.03561164066195488
0.03010246530175209
-0.05278186872601509
0.03834327682852745
-0.0318538062274456
0.03273024037480354
-0.050427235662937164
-0.05674339085817337
-0.00919907446950674
-0.002573522971943021
0.05475732311606407
0.05335601791739464
0.009135385975241661
-0.05193109065294266
-0.035868089646101
-0.060277145355939865
0.019293038174510002
0.01598612405359745
-0.011315532959997654
-0.05661584809422493
-0.007963509298861027
0.03833973780274391
-0.028007561340928078
-0.02257353812456131
0.05153128132224083
-0.04296635091304779
0.055027272552251816
-0.055400025099515915
-0.007240092847496271
-0.01077160146087408
-0.047876033931970596
-0.04487479105591774
0.042112939059734344
-0.026295296847820282
-0.027231847867369652
0.027798069640994072
-0.0027055954560637474
0.002763934899121523
-0.05329887196421623
-0.05368233844637871
0.012755734845995903
0.013172523118555546
0.014826711267232895
-0.052983611822128296
0.07007240504026413
0.005243885330855846
0.05158957466483116
0.027246516197919846
0.0510280542075634
0.021141450852155685
-0.04501136764883995
0.02727820910513401
0.028641052544116974
-0.01294043567031622
0.0421384833753109
-0.04165796935558319
0.0517563670873642
0.0036351876333355904
0.027142656967043877
0.02858548052608967
-0.05896542966365814
-0.00337691861204803
-0.06028176471590996
-0.010901806876063347
-0.0006457656272687018
0.057726431638002396
-0.0363408662378788
-0.017115449532866478
-0.03529591113328934
0.024614565074443817
-0.022326508536934853
0.013298342004418373
-0.04463227093219757
0.03608054295182228
-0.028710706159472466
0.019781729206442833
-0.010977165773510933
-0.0060468800365924835
0.05332927405834198
-0.021344901993870735
0.05266990512609482
0.031935691833496094
-0.02789035439491272
-0.007067796308547258
-0.03648468852043152
0.03465566784143448
-0.04602246358990669
-0.03321214020252228
0.004530738573521376
-0.027249043807387352
-0.007128740195184946
0.001213841256685555
0.009472393430769444
-0.05622600018978119
-0.030802153050899506
-0.05297278240323067
-0.028559772297739983
0.04530644044280052
0.017732711508870125
-0.01264500617980957
-0.03324300795793533
0.04082365334033966
0.051956649869680405
-0.010386879555881023
0.049917396157979965
0.029563920572400093
0.03143417835235596
-0.06023665517568588
-0.01758778654038906
-0.048124607652425766
0.025367649272084236
0.027846893295645714
-0.011853644624352455
-0.006105395499616861
-0.041658852249383926
0.02375209517776966
0.019233692437410355
-0.048903435468673706
0.022854985669255257
-0.0014004171825945377
0.02452128753066063
0.045684490352869034
0.03084861859679222
0.043324459344148636
-0.006025170441716909
-0.04563280940055847
0.05744777247309685
-0.053937409073114395
0.042731449007987976
0.03374066948890686
0.023849615827202797
-0.012255671434104443
-0.027709580957889557
-0.03871060162782669
0.022146759554743767
-0.02268783375620842
-0.027652526274323463
0.00412193825468421
-0.021847199648618698
0.0021262825466692448
0.008428506553173065
0.047404367476701736
0.00767513457685709
-0.0537676066160202
-0.042182303965091705
-0.0046052271500229836
0.04410519450902939
-0.04658401757478714
0.004715153947472572
-0.029836386442184448
0.04786933958530426
0.05102287605404854
0.01974509470164776
-0.004990979563444853
0.014338900335133076
0.00016844771744217724
0.022076211869716644
0.02254733256995678
-0.0011232036631554365
-0.02436702512204647
0.04981624335050583
-0.03346530720591545
-0.055453214794397354
0.024717750027775764
-0.007897015661001205
-0.05670418217778206
-0.008837005123496056
0.041008319705724716
0.008122050203382969
0.051380082964897156
-0.012891636230051517
-0.03255363926291466
-0.05787180736660957
-0.015911493450403214
-0.04270271211862564
0.054283902049064636
0.030882079154253006
-0.04271026700735092
0.04358891025185585
-0.055382296442985535
0.02828902378678322
-0.00010737036063801497
0.04590437188744545
-0.05926831439137459
-0.033022552728652954
-0.023181647062301636
0.01898111030459404
0.04282337799668312
0.013867534697055817
0.05678335577249527
0.0031525541562587023
0.013574200682342052
-0.008425694890320301
-0.016296183690428734
0.04610361158847809
0.0006648633279837668
0.0064283073879778385
-0.027827711775898933
-0.029896313324570656
-0.03328753635287285
0.010734832845628262
-0.03296691179275513
0.003849069122225046
-0.00768141308799386
0.02365436591207981
0.023435333743691444
-0.017314424738287926
0.057085730135440826
-0.022865548729896545
-0.022259486839175224
0.05872690677642822
-0.022559642791748047
-0.05561598762869835
-0.03944006189703941
0.0015870447969064116
-0.014309262856841087
-0.024960925802588463
0.024796262383461
0.04170418903231621
0.05934983864426613
0.027598723769187927
0.005184685345739126
-0.045462608337402344
-0.020780902355909348
0.038375966250896454
-0.048491258174180984
0.0125362453982234
0.022477349266409874
0.02638443000614643
0.059819888323545456
-0.005075003951787949
-0.0024393426720052958
-0.04027268663048744
-0.028165411204099655
0.037045035511255264
0.04708096385002136
0.015056516043841839
0.05152462050318718
-0.012898657470941544
0.005199734587222338
0.051408980041742325
0.0027813699562102556
-0.0356525182723999
-0.04872797429561615
-0.0547550730407238
0.03914352133870125
0.018103213980793953
-0.05870974808931351
0.006429858971387148
-7.151433237595484e-05
-0.010006332769989967
-0.011567644774913788
0.058499228209257126
0.041455719619989395
0.007929479703307152
0.05856318026781082
-0.04678938537836075
-0.02823730930685997
-0.009723708964884281
0.0002214299311162904
-0.02000931091606617
-0.040553633123636246
0.0027170332614332438
0.054327599704265594
0.001530346693471074
0.021167153492569923
-0.019769735634326935
-0.02495422586798668
-0.014686735346913338
0.019636403769254684
-0.03203728422522545
0.05580468475818634
0.0348096638917923
0.029490137472748756
-0.00033557985443621874
0.03707604482769966
0.04294984042644501
-0.048924870789051056
0.03975425288081169
-0.0006654261378571391
0.00764639163389802
-0.018230710178613663
-0.03312424570322037
0.030036011710762978
-0.03561629727482796
-0.008868479169905186
0.052885301411151886
-0.051705263555049896
0.00044132021139375865
0.009159943088889122
-0.02449592389166355
0.056272953748703
-0.048115406185388565
0.02886703610420227
-0.0377226248383522
0.012782633304595947
0.018014566972851753
-0.045047860592603683
-0.02375776879489422
0.018296686932444572
0.044978391379117966
-0.005816220305860043
-0.054847024381160736
-0.05708250775933266
-0.025972630828619003
0.029718222096562386
-0.045480579137802124
0.0015821629203855991
-0.021730931475758553
-0.010148164816200733
0.045178402215242386
-0.040179293602705
0.01865115948021412
-0.061291854828596115
-0.006988896522670984
-0.007420640904456377
0.02662072703242302
0.02110237628221512
0.008488832041621208
0.0285162515938282
0.05354965850710869
0.05348148196935654
0.01745356246829033
0.05152585357427597
-0.007939474657177925
-0.019989093765616417
-0.01784076914191246
0.02635381370782852
-0.02921787090599537
0.05402153730392456
0.00280010630376637
0.049545105546712875
-0.03944994509220123
-0.021995820105075836
-0.006270423531532288
-0.020791221410036087
-0.003203618573024869
0.025676272809505463
0.03861173614859581
0.009823157452046871
-0.036991093307733536
0.01776055060327053
-0.03146842494606972
0.04075995087623596
-0.03658376261591911
-0.05713463947176933
0.05769859999418259
0.05925101414322853
0.04990916699171066
-0.05541074275970459
0.03183484077453613
-0.02942158654332161
0.007749274838715792
0.03238933905959129
0.03882278874516487
0.023659368976950645
-0.03345542773604393
-0.05702607333660126
0.05050808936357498
-0.053246185183525085
0.028796717524528503
-0.04069092869758606
0.035685617476701736
0.05351193994283676
0.03452799469232559
0.03709902614355087
-0.059851497411727905
-0.023182963952422142
-0.049197860062122345
-0.01846265234053135
-0.05225867033004761
-0.05711101368069649
0.053618110716342926
-0.02865082025527954
0.02193482406437397
0.03689035028219223
-0.022667258977890015
-0.001466310815885663
0.004777130205184221
-0.044469866901636124
-0.04253588616847992
-0.01590742915868759
-0.03487100824713707
-0.05635397881269455
0.03550602123141289
0.008731636218726635
0.05550006777048111
-0.0007217377424240112
-0.00986284576356411
0.037359654903411865
-0.0016215034993365407
0.022356601431965828
0.047637470066547394
-0.004108730237931013
-0.010002993047237396
-0.05482426658272743
0.056255877017974854
-0.04690336808562279
-0.0029265836346894503
0.007824411615729332
-0.04600374400615692
-0.0020773038268089294
0.043608639389276505
0.0008037635707296431
-0.02723168395459652
0.057938262820243835
0.01695629209280014
-0.04521168768405914
-0.008163233287632465
-0.018941091373562813
-0.016000527888536453
0.02236628159880638
0.005443527363240719
-0.00819049496203661
0.016855062916874886
-0.03415350615978241
0.01247119065374136
0.05949839577078819
-0.031882595270872116
0.0336221419274807
0.048039596527814865
-0.026463467627763748
-0.04572110250592232
0.06328441947698593
-0.036987774074077606
-0.04935649037361145
0.05829861760139465
-0.02347481995820999
-0.013712318614125252
0.0059953657910227776
-0.056973762810230255
0.04427095130085945
0.025948403403162956
-0.012743748724460602
-0.01062148716300726
-0.0029674835968762636
0.029392536729574203
0.0019952505826950073
-0.025308318436145782
0.0023542975541204214
-0.04194527864456177
-0.008617427200078964
-0.007584129925817251
0.008531838655471802
-0.038742437958717346
-0.035103898495435715
-0.044519588351249695
0.010163703933358192
-0.03966672345995903
-0.045793380588293076
0.030720766633749008
0.03822438418865204
0.038758404552936554
-0.04382920637726784
0.040357556194067
0.02257007546722889
0.02691948041319847
0.04432831332087517
0.013047611340880394
-0.051881637424230576
0.012617765925824642
0.049217287451028824
-0.02990223839879036
-0.0436064749956131
-0.06104206293821335
-0.019072070717811584
-0.0028877058066427708
0.05312234163284302
0.0032789018005132675
-0.025054724887013435
-0.05534762516617775
0.008387241512537003
0.02370346337556839
0.047337498515844345
-0.032693199813365936
-0.032373011112213135
-0.009056312963366508
0.056103140115737915
-0.0310764629393816
-0.05156071111559868
-0.04040838032960892
-0.02616533264517784
0.04589521884918213
0.03921077400445938
0.02566816657781601
-0.019794195890426636
0.0537618026137352
0.018859008327126503
0.052950430661439896
-0.014025989919900894
-0.008140100166201591
-0.039930734783411026
-0.03393268212676048
-0.0580097921192646
0.03480027988553047
-0.05684133991599083
0.04182978719472885
-0.06257954984903336
-0.011845335364341736
0.0163887869566679
0.0234665684401989
0.028928130865097046
0.029298361390829086
-0.006811849772930145
-0.054029371589422226
-0.030434777960181236
0.046610113233327866
0.03920215740799904
0.0039761862717568874
-0.010333760641515255
-0.04306548088788986
-0.00487962830811739
0.0003421840083319694
0.003420972963795066
-0.06259757280349731
-0.05103224888443947
-0.0007947913836687803
0.006501426454633474
0.052956417202949524
0.02102305181324482
0.03680834546685219
-0.007498931139707565
-0.034882981330156326
0.05134179815649986
-0.03124133311212063
-0.008015315979719162
-0.04905892536044121
-0.05182971805334091
-0.04697131738066673
-0.0016933013685047626
0.05662712827324867
-0.0010634842328727245
-0.04008466750383377
0.009918981231749058
0.02877797558903694
-0.0018371343612670898
0.058740127831697464
0.03600260615348816
-0.023536456748843193
0.00508806761354208
0.0025387511122971773
-0.02840297482907772
0.03793609142303467
-0.007881133817136288
-0.04152199998497963
0.008588871918618679
0.04078274965286255
-0.006018967367708683
-0.05663418769836426
0.03585417941212654
0.006382140330970287
0.0032007929403334856
-0.02515035681426525
0.051856257021427155
0.00030780365341342986
0.046783313155174255
-0.05471703037619591
0.015238718129694462
-0.025505686178803444
-0.026232033967971802
-0.04698215052485466
-0.051326166838407516
-0.04626404121518135
0.02384941093623638
0.029270855709910393
0.005846783053129911
-0.06201401352882385
-0.014335134997963905
0.00042307970579713583
-0.006415240466594696
-0.0335264690220356
0.02535238303244114
0.03233937546610832
0.034591954201459885
0.04576057568192482
0.009829981252551079
-0.009805863723158836
-0.04149327799677849
0.04276812821626663
0.011105716228485107
0.05811971798539162
0.037862617522478104
-0.05264981463551521
0.04889649525284767
0.03943733498454094
-0.040312882512807846
0.00771326432004571
-0.04332205280661583
0.025658613070845604
-0.007562301587313414
-0.05746296048164368
-0.054526589810848236
-0.007175649516284466
0.05630595237016678
-0.02680116519331932
-0.02883465588092804
-0.027771543711423874
-0.04343836009502411
0.009301292710006237
0.007587243337184191
0.02759338729083538
0.05161461606621742
-0.03067275881767273
0.03515445068478584
-0.02384549379348755
-0.05926027148962021
-0.013420254923403263
0.025820674374699593
0.03827928379178047
0.04717191308736801
0.00166933867149055
0.008100571110844612
0.005268332082778215
-0.03437468782067299
0.04619142413139343
0.002706301398575306
-0.02332131192088127
-0.0575588084757328
-0.058226168155670166
-0.05655989795923233
-0.0002665866632014513
0.00532226637005806
-0.012329033575952053
-0.01225652638822794
0.017651420086622238
-0.005771540571004152
-0.011483357287943363
-0.04657477140426636
0.03399702534079552
0.027381975203752518
-0.012002427130937576
-0.01583222858607769
-0.031151464208960533
0.0048836576752364635
0.030301449820399284
-0.041614364832639694
-0.04277822747826576
0.003682969370856881
-0.023759065195918083
0.00034294414217583835
-0.010526562109589577
-0.009998351335525513
0.05744880437850952
0.014429835602641106
-0.04392086714506149
-0.027546359226107597
-0.05485749617218971
-0.0018010723870247602
-0.009854511357843876
-0.019579198211431503
-0.03289729356765747
0.04370676726102829
0.020294485613703728
0.05548642948269844
-0.055807873606681824
0.0354759618639946
-0.035560622811317444
-0.04023044556379318
-0.04455433785915375
-0.020594067871570587
-0.052462588995695114
0.050308119505643845
-0.02235051989555359
0.029013505205512047
0.014767690561711788
0.041503336280584335
0.04301333427429199
-0.011017492040991783
-0.023709489032626152
-0.013010482303798199
-0.01391822099685669
0.02963448129594326
-0.012504464015364647
-0.05793547257781029
-0.001961394911631942
-0.039675645530223846
-0.05007928982377052
-0.034269727766513824
0.029029246419668198
-0.006085475441068411
0.051196563988924026
0.014809097163379192
-0.026471704244613647
0.034338902682065964
0.02877279557287693
0.037371691316366196
-0.03717799857258797
-0.011670765466988087
0.0017338492907583714
-0.04409275949001312
0.058764323592185974
0.020852982997894287
0.030087200924754143
0.026616092771291733
-0.04535321891307831
0.0062517994083464146
-0.035646725445985794
-0.02335132285952568
0.028130069375038147
0.055378228425979614
-0.04663557559251785
0.029062964022159576
-0.04011833295226097
0.031709298491477966
-0.019591044634580612
0.03698703274130821
0.028581634163856506
0.02318231575191021
-0.03908292576670647
0.05478693172335625
0.0005550751811824739
0.009379550814628601
0.05664170905947685
-0.017025988548994064
0.007780030369758606
0.04707498848438263
-0.03041364811360836
-0.04677804186940193
0.017118321731686592
-0.005472536664456129
0.0019913960713893175
0.014234909787774086
0.0028590084984898567
-0.04343646019697189
0.009494622237980366
-0.04960137605667114
-0.02670067735016346
0.01758573204278946
-0.020481392741203308
0.055705372244119644
-0.013395426794886589
-0.033586286008358
-0.021362140774726868
0.020441962406039238
0.021684713661670685
0.023368265479803085
0.05620001628994942
0.014225873164832592
0.0409620963037014
0.05135989561676979
-0.01001039706170559
-0.053596723824739456
0.027201997116208076
-0.05291524901986122
-0.0003811909118667245
0.01036837138235569
0.053081050515174866
0.008029278367757797
-0.04665922373533249
0.00898115523159504
0.01249929890036583
0.018035702407360077
-0.05155414715409279
0.0032280399464070797
0.03466842323541641
-0.04183999076485634
0.016201317310333252
0.02585849165916443
0.019657636061310768
-0.0057717920280992985
-0.01386837475001812
0.014636718668043613
-0.014412468299269676
0.010762330144643784
-0.01588476076722145
0.0014381319051608443
0.045259471982717514
-0.03473987057805061
0.03211181238293648
0.02479383535683155
0.03093409352004528
0.03701788932085037
-0.02188374288380146
0.0004407025407999754
0.052888598293066025
0.03344578295946121
0.03922441974282265
-0.021503271535038948
-0.018108785152435303
0.02679779939353466
-0.05839281901717186
0.042949989438056946
0.055555108934640884
-0.05216304212808609
0.009349779225885868
0.03791128844022751
0.017300555482506752
0.0399191677570343
0.048637788742780685
0.027032988145947456
-0.057397663593292236
-0.00042390968883410096
0.04182717576622963
-0.01748218573629856
-0.017939493060112
0.024433337152004242
0.0395648367702961
-0.023455724120140076
0.02273857221007347
0.012273331172764301
0.006226131692528725
-0.04871651157736778
0.030098160728812218
-0.026147274300456047
-0.002467108890414238
0.048132266849279404
0.06007104739546776
-0.00787341594696045
0.026085183024406433
-0.026529774069786072
0.04526156187057495
-0.006666997913271189
-0.0027294696774333715
-0.01123883482068777
-0.05399821698665619
-0.017551444470882416
0.04754231870174408
-0.004806326236575842
-0.0230671688914299
0.047991327941417694
0.02996048331260681
0.015295874327421188
0.0444113053381443
-0.017249926924705505
0.007654358632862568
-0.03656263276934624
0.03348919376730919
0.04662323370575905
-0.0007149410666897893
0.03398546576499939
-0.012929148972034454
0.032745253294706345
-0.007188752759248018
-0.056810412555933
-0.02001352794468403
0.017087548971176147
-0.013017570599913597
0.022575749084353447
-0.0371633879840374
-0.017211802303791046
0.047920770943164825
-0.023863233625888824
-0.021389033645391464
-0.017187729477882385
-0.03683505579829216
0.0508539117872715
-0.047770265489816666
-0.04225696623325348
-0.034992534667253494
-0.050506770610809326
-0.04570666700601578
0.01878421939909458
0.00011218644067412242
-0.039986588060855865
-0.0020980669651180506
-0.02290150336921215
0.01729128137230873
0.025602245703339577
-0.0540587343275547
0.040957219898700714
0.021311789751052856
-0.017189443111419678
4.4316209823591635e-05
-0.02946280874311924
0.002028062241151929
-0.001421231310814619
0.013727352023124695
-0.013086806982755661
0.01453495491296053
-0.04666571319103241
0.05281984433531761
-0.027119114995002747
0.009463709779083729
-0.001159758772701025
-0.021101346239447594
-0.0007290898938663304
-0.020322995260357857
0.004482822492718697
-0.05150851234793663
-0.04864486679434776
-0.01948113925755024
-0.042974505573511124
-0.001515889191068709
-0.024944249540567398
-0.04657912254333496
-0.007155852857977152
-0.035975031554698944
0.014033790677785873
-0.04922410473227501
-0.04249937832355499
0.0020055260974913836
-0.04316859692335129
0.019008489325642586
0.04376833885908127
0.01864125020802021
-0.021388182416558266
-0.0627983957529068
-0.026360757648944855
0.03509536758065224
-0.04337694123387337
0.043423641473054886
0.027925727888941765
-0.05780820548534393
-0.0279765035957098
-0.04403899237513542
-0.03946017101407051
-0.04853609576821327
-0.031618814915418625
-0.03780461475253105
-0.006769958883523941
0.035427533090114594
0.03671823814511299
-0.004913587588816881
0.06007401645183563
0.03828205168247223
-0.05800897255539894
0.030301259830594063
-0.019225653260946274
0.02586102858185768
0.025931041687726974
-0.059896089136600494
-0.025301609188318253
-0.022632639855146408
-0.027056323364377022
0.053088512271642685
0.014872894622385502
0.005151926539838314
-0.046047307550907135
-0.03912455588579178
-0.04017225652933121
0.003964342176914215
-0.0009250296279788017
-0.0009929063962772489
-0.04330580309033394
0.05791294947266579
0.007827605120837688
-0.02795717678964138
0.059313878417015076
0.024112407118082047
-0.033755507320165634
0.0035647815093398094
0.027587592601776123
-0.0009826701134443283
-0.0258770864456892
0.02047005668282509
-0.006599941290915012
-0.02126351185142994
0.01076743844896555
-0.032225094735622406
0.04571111872792244
0.027855832129716873
0.04928413778543472
0.022767193615436554
0.03420846909284592
0.025850124657154083
0.02168213203549385
0.04089253395795822
-0.015833236277103424
0.05245194211602211
0.046095073223114014
-0.048117317259311676
0.04747742414474487
-0.03803355619311333
0.009445760399103165
-0.021872272714972496
0.005116262938827276
-0.027592772617936134
0.023953719064593315
-0.053977981209754944
0.041115790605545044
0.004309273324906826
0.004431258421391249
0.00990001019090414
-0.034067168831825256
0.01666851155459881
0.05521320924162865
0.0015367555897682905
-0.03201194480061531
0.045117225497961044
0.01530694030225277
0.011462596245110035
0.032990310341119766
-0.05550358444452286
0.05119115114212036
-0.0329931266605854
0.0473795086145401
-0.04264821484684944
-0.014122189953923225
-0.011624076403677464
-0.03628913313150406
0.03946332260966301
0.0016397653380408883
0.0426320880651474
-0.008468233048915863
-0.013088894076645374
-0.038107145577669144
-0.011174400337040424
-0.047014519572257996
0.046593956649303436
-0.04181715473532677
-0.03057856671512127
0.021847063675522804
0.03765937685966492
0.047313589602708817
0.0436711311340332
0.011021159589290619
-0.046502117067575455
0.006562529131770134
-0.04587586224079132
9.293730545323342e-05
0.058906473219394684
0.020645620301365852
-0.037886135280132294
-0.05316150188446045
0.02120383270084858
-0.0009333976195193827
0.001721817534416914
0.05576138570904732
0.018262628465890884
-0.052361514419317245
0.05597176402807236
-0.04835115745663643
-0.03473116457462311
-0.027707118541002274
-0.0375157855451107
0.018618028610944748
-0.02537842094898224
0.05475249141454697
0.05997540429234505
-0.05435161292552948
-0.05548667907714844
0.03003508225083351
0.054197970777750015
0.03499072045087814
-0.011861706152558327
0.04918374493718147
0.03549712896347046
0.015650462359189987
0.05223309248685837
0.05009197071194649
-0.0004481481737457216
-0.04948078840970993
0.03641216456890106
-0.05205512046813965
-0.020368367433547974
0.05723657086491585
0.027141176164150238
-0.006463177036494017
-0.045242901891469955
-0.03063836507499218
0.03737223520874977
0.03472886234521866
-0.04798565059900284
-0.03963502123951912
0.03841042146086693
-0.0441749170422554
-0.055516649037599564
-0.0239068903028965
-0.02125886268913746
0.03276680037379265
-0.034316834062337875
0.052270423620939255
0.0027516894042491913
0.03499140590429306
0.02649366483092308
-0.03174692764878273
-0.04430321976542473
-0.018102554604411125
-0.008015621453523636
0.014972505159676075
-0.023892438039183617
0.01037774607539177
0.030432511121034622
-0.028490273281931877
-0.017458586022257805
-0.03415593504905701
-0.04783300310373306
-0.0033982661552727222
0.0012704468099400401
0.025061821565032005
0.006868248805403709
-0.0193043053150177
0.05088019743561745
0.020361514762043953
0.009378282353281975
-0.05931764096021652
0.05032837763428688
-0.0314318910241127
-0.01720726490020752
0.04560374096035957
-0.00312848761677742
-0.04264390096068382
-0.03222240135073662
-0.05622969940304756
0.031965937465429306
0.05355743318796158
0.04857413470745087
-0.053937580436468124
0.03584056720137596
0.01807709038257599
0.040202006697654724
0.033612485975027084
0.003928627818822861
0.03146969899535179
-0.028152011334896088
0.02050159126520157
-0.03848625719547272
-0.030503084883093834
-0.012475096620619297
0.023148024454712868
-0.046511851251125336
-0.04864178225398064
-0.041794076561927795
0.012134930118918419
0.023250602185726166
0.027427202090620995
-0.03146131709218025
0.00431718910112977
0.012286868877708912
-0.02148745395243168
0.05306142196059227
-0.03332611173391342
0.040621474385261536
-0.020459724590182304
0.020067328587174416
-0.010834732092916965
-0.008066607639193535
0.03640785440802574
0.039503369480371475
0.015933163464069366
-0.00418573385104537
0.007988536730408669
0.02241956815123558
-0.039949122816324234
0.056077297776937485
-0.05143698677420616
-0.025992436334490776
0.009668214246630669
0.03680112212896347
0.03224615007638931
0.05733253061771393
0.04492223262786865
-0.016093797981739044
0.05784476175904274
0.059714075177907944
0.05387521907687187
-0.0536721870303154
-0.02095933072268963
-0.04247389733791351
-0.04341941326856613
0.025160394608974457
0.017430812120437622
0.030379291623830795
0.01883440837264061
0.03969957306981087
-0.00564715126529336
0.0442211851477623
-0.013423867523670197
0.018314175307750702
-0.005118584260344505
-0.008500342257320881
0.03948118910193443
-0.04305749386548996
0.0579562745988369
-0.002665397711098194
0.014661600813269615
-0.03620161488652229
-0.05395492538809776
-0.033958084881305695
0.01125060673803091
-0.04732902720570564
-0.01824384555220604
0.036334436386823654
-0.03062422201037407
0.030135171487927437
0.0583384670317173
-0.04471486806869507
-0.05253736302256584
-0.04194490239024162
0.04872887209057808
0.02342473715543747
-0.059704143553972244
-0.026612818241119385
0.02560999244451523
-0.02430316060781479
0.002471159677952528
0.0566394105553627
0.003856013296172023
-0.044675782322883606
0.01571560464799404
0.011471380479633808
0.04012921825051308
0.03599628433585167
-0.013809296302497387
-0.034246914088726044
-0.04309304803609848
-0.04308958351612091
0.011131305247545242
0.046592358499765396
0.0026884174440056086
-0.01458795741200447
0.014118945226073265
-0.011327390559017658
-0.036640845239162445
-0.05461782589554787
0.04082968831062317
-0.04982788860797882
0.050534628331661224
0.05243813619017601
0.045161183923482895
-0.0070588416419923306
0.05049720034003258
0.05192193388938904
0.01024573016911745
0.008198634721338749
0.033135101199150085
-0.007945626974105835
-0.022403351962566376
0.01311821211129427
0.020400986075401306
0.0036233109422028065
-0.05708629637956619
0.025621486827731133
0.027821332216262817
0.04277611896395683
-0.011566013097763062
-0.007882987149059772
-0.010253950022161007
0.06101863086223602
-0.028984036296606064
-0.011200637556612492
0.04919937252998352
-0.01871228590607643
-0.049314890056848526
0.0021253563463687897
-0.029722655192017555
-0.05966433137655258
-0.01567370817065239
0.034508801996707916
-0.012970794923603535
-0.041063595563173294
-0.05456967651844025
-0.0581028014421463
-0.054056521505117416
-0.055107224732637405
0.04902885854244232
0.025983382016420364
-0.0477154366672039
0.05648113787174225
-0.0104851508513093
0.061366286128759384
0.01657317951321602
0.03915773332118988
0.039138033986091614
-0.05304204300045967
-0.0484793446958065
0.005499815568327904
0.02313842438161373
0.03551414608955383
0.0444350428879261
0.02225366048514843
-0.017575833946466446
-0.044521890580654144
0.05159306898713112
0.05846566706895828
-0.02747000753879547
-0.04728749766945839
-0.02553158439695835
0.03370402753353119
0.025266878306865692
0.0541968047618866
0.00753576448187232
0.003122219117358327
-0.05269717425107956
-0.006760787684470415
-0.020520754158496857
-0.05093368515372276
-0.05315735936164856
0.04478321596980095
0.053931910544633865
-0.017994774505496025
-0.04692206531763077
-0.0332183875143528
-0.0619078204035759
0.011767002753913403
0.03125032037496567
0.016079848632216454
-0.024764105677604675
0.02687496319413185
0.01937791518867016
-0.009994135238230228
0.0024877029936760664
-0.051688287407159805
-0.027942320331931114
-0.008868311531841755
0.054168131202459335
-0.034524112939834595
0.03036930412054062
-0.026646334677934647
0.04879074543714523
-0.023097826167941093
0.02575494721531868
0.034973375499248505
0.02323298528790474
0.019216807559132576
-0.003243375103920698
0.031103746965527534
-0.04144267365336418
-0.03925906494259834
-0.009624223224818707
-0.058531150221824646
-0.03106962889432907
-0.05778426676988602
-0.014806144870817661
0.008883843198418617
-0.007058486342430115
0.015501528047025204
0.026614287868142128
-0.03584650158882141
0.05505780875682831
0.011786661110818386
0.004807631019502878
0.02563154697418213
-0.025954080745577812
-0.040728263556957245
-0.05667876452207565
0.029050583019852638
-0.04736192524433136
-0.04335152730345726
-0.02261320687830448
0.059169474989175797
0.01997637189924717
-0.005534406751394272
-0.0010560074588283896
-0.04404298588633537
0.02882802113890648
0.04791288077831268
-0.05180390179157257
-0.02354429103434086
0.002132989699020982
0.05430419370532036
0.04669719934463501
-0.049023017287254333
0.03599398583173752
-0.011229477822780609
0.049947913736104965
0.0240589901804924
-0.01476485189050436
-0.047708909958601
-0.005213570781052113
-0.054419081658124924
-0.05826001614332199
-0.04399872198700905
-0.018829351291060448
-0.019307242706418037
-0.006750629749149084
0.04898662120103836
-0.004634285811334848
0.03671690449118614
-0.031062526628375053
0.021431956440210342
0.0412316657602787
-0.05229925364255905
0.042977072298526764
-0.05047779157757759
-0.030107971280813217
-0.046880315989255905
-0.035449329763650894
-0.020188122987747192
0.010667704977095127
-0.05062856897711754
-0.01884489692747593
-0.04378705099225044
-0.017809482291340828
0.012832026928663254
0.03447580710053444
-0.0016175050986930728
0.03738745301961899
0.025633592158555984
-0.029807303100824356
0.055012546479701996
0.0302429161965847
0.04314097389578819
0.02668938785791397
0.025036422535777092
-0.04066946730017662
-0.002634740201756358
0.0313967689871788
0.05287918075919151
0.04601667448878288
0.03659243509173393
0.03875455632805824
-0.004494930617511272
0.03291889280080795
0.03145870566368103
0.011809423565864563
-0.02333471179008484
0.04174504056572914
0.035351552069187164
0.021531295031309128
0.012889256700873375
-0.05866418778896332
0.046989720314741135
-0.02646971121430397
0.01170454639941454
0.009547471068799496
-0.05508973449468613
-0.05979461595416069
-0.054490067064762115
-0.03309287503361702
-0.011084053665399551
-0.02621096558868885
0.0017353169387206435
0.046251989901065826
-0.03770439326763153
-0.022764215245842934
-0.03996537625789642
0.04041019454598427
0.01494604256004095
0.03337458148598671
0.0472196601331234
0.04712977260351181
0.05656268447637558
-0.005684440489858389
-0.012657600454986095
-0.0244212057441473
0.022780150175094604
-0.024219561368227005
0.016789620742201805
0.053764041513204575
-0.013881821185350418
-0.03490239754319191
-0.013402950018644333
0.04104304313659668
0.025578489527106285
0.038407012820243835
0.03186995908617973
0.05487390607595444
0.03795855492353439
-0.03062298707664013
0.04935447499155998
0.021548867225646973
0.05255948007106781
-0.045177411288022995
0.00717718293890357
0.011495825834572315
-0.00991327129304409
-0.005302199628204107
0.0025273661594837904
-0.04637064412236214
-0.030055375769734383
-0.04766571521759033
0.027881896123290062
-0.001632309053093195
-0.04959195852279663
-0.05166232958436012
-0.033401042222976685
0.0254798773676157
0.007270337548106909
0.056089553982019424
-0.020189177244901657
0.014190714806318283
0.042339518666267395
0.008353651501238346
0.05437047407031059
0.044269006699323654
-0.03524626046419144
-0.057976070791482925
-0.048342444002628326
0.0037344247102737427
0.03892979025840759
0.017605487257242203
0.01099997479468584
0.019403476268053055
0.05462139844894409
0.025937926024198532
-0.01450513768941164
-0.04734690487384796
-0.03890019282698631
0.04253784567117691
0.022480757907032967
-0.03378364443778992
0.04594947770237923
-0.016716431826353073
-0.003463269677013159
-0.03910700976848602
-0.05286943539977074
-0.03529031202197075
-0.0511874221265316
-0.05152057483792305
-0.005538271740078926
-0.05050065740942955
0.020594147965312004
-0.04874958097934723
0.020731069147586823
0.04806848242878914
0.01449052058160305
0.02998441271483898
-0.03792712092399597
0.00828402116894722
-0.03097139298915863
0.015913285315036774
-0.038580700755119324
-0.034367144107818604
-0.048597339540719986
-0.023076200857758522
0.023480094969272614
0.0046852570958435535
0.015545672737061977
-0.03760232776403427
0.03430631011724472
-0.04689871147274971
-0.023234615102410316
0.009162168018519878
0.01553153432905674
-0.045779962092638016
0.039226632565259933
0.010675573721528053
0.0154961459338665
0.038648270070552826
-0.02209615148603916
-0.040019046515226364
-0.049932390451431274
-0.011212152428925037
0.04110207036137581
0.02063390612602234
0.01249939389526844
0.009060563519597054
-0.012168031185865402
-0.02264890819787979
0.03103456273674965
0.04060076177120209
-0.02939113974571228
-0.02040167711675167
0.05339081585407257
0.005814261268824339
-0.028307804837822914
-0.05885784700512886
-0.057124171406030655
-0.004751616157591343
-0.058772336691617966
0.02241893857717514
-0.019038481637835503
-0.02506270259618759
0.02122330293059349
-0.05052436515688896
-0.0597129762172699
-0.02927437610924244
-0.0072695291601121426
0.05403779447078705
0.028082210570573807
-0.004598578438162804
0.052385758608579636
-0.03529837355017662
0.043644387274980545
0.008461959660053253
0.044836606830358505
-0.047833070158958435
0.04876258596777916
-0.031735796481370926
-0.05001741275191307
0.05832349881529808
0.023984570056200027
-0.058139245957136154
-0.02731354348361492
-0.015691792592406273
-0.012707817368209362
0.04965342953801155
0.02155938558280468
-0.03529784083366394
0.034948188811540604
0.03648091107606888
0.03461262583732605
0.025349434465169907
-0.0025836864951997995
-0.008039050735533237
0.016210144385695457
-0.010532943531870842
0.0484650693833828
0.035187017172575
-0.01665629632771015
0.025986341759562492
0.03027590923011303
0.02521779015660286
-0.00479409284889698
-0.01950496807694435
-0.022053785622119904
-0.017709609121084213
-0.042699988931417465
-0.04406607896089554
-0.053317394107580185
-0.009611041285097599
-0.006446202285587788
-0.0284778643399477
-0.004198556765913963
0.05765068903565407
-0.029327228665351868
-0.03483898192644119
-0.008490429259836674
-0.003577461699023843
-0.007447903975844383
0.03984071686863899
0.03137535974383354
-0.04992207512259483
-0.006679464131593704
0.004149950109422207
-0.04037914797663689
-0.05404087156057358
-0.047177720814943314
0.007025194354355335
0.03023550473153591
0.0439818874001503
-0.03280816599726677
0.05276758223772049
0.031711217015981674
0.05017947033047676
-0.037312936037778854
-0.053948815912008286
-0.00616224342957139
0.0436071902513504
0.03506090119481087
0.04929548501968384
0.010267761535942554
0.02440987341105938
-0.033064600080251694
-0.021589720621705055
-0.009379039518535137
0.019113000482320786
-0.05953718721866608
-0.02702503092586994
0.039207104593515396
0.004076275508850813
-0.021519917994737625
-0.0010464255465194583
0.005817382596433163
0.03613322600722313
0.03265466168522835
-0.029715001583099365
0.02011723443865776
-0.01603667624294758
-0.002808560151606798
1.5780942703713663e-05
-0.05647614598274231
-0.01519983634352684
-0.01667643152177334
-0.0010982820531353354
-0.020448405295610428
0.029709341004490852
-0.02710230089724064
0.005169971846044064
-0.039732273668050766
0.020434286445379257
-0.01050358172506094
-0.051558464765548706
-0.014429054223001003
-0.014848469756543636
0.005340178031474352
-0.02833268791437149
-0.030262738466262817
-0.050108831375837326
-0.01091582328081131
0.029381394386291504
-0.053536511957645416
-0.02839602530002594
-0.012795951217412949
-0.020379111170768738
0.022280588746070862
0.010847572237253189
0.006140401121228933
-0.029649388045072556
-0.040216799825429916
0.01287806499749422
0.04046371579170227
0.00611788360401988
-0.03744686767458916
0.03622789308428764
0.01608124002814293
-0.017334429547190666
0.056472908705472946
0.007299482356756926
0.00210092612542212
-0.05399124324321747
-0.018730828538537025
-0.04859931766986847
-0.02076597325503826
-0.048955053091049194
-0.014535917900502682
0.004458640702068806
0.059867631644010544
0.009878186509013176
0.022870367392897606
0.006066179368644953
0.04667365923523903
-0.025222886353731155
-0.005733359605073929
-0.02920215204358101
-0.056348394602537155
-0.03832726553082466
-0.0458846278488636
0.010618756525218487
-0.03480932489037514
-0.030681317672133446
0.03680765628814697
0.04437773674726486
-0.04271123930811882
0.012516998685896397
0.04299122095108032
0.030711686238646507
-0.002423597266897559
0.056287918239831924
-0.06014006957411766
0.029784616082906723
0.007166467607021332
-0.05808304622769356
0.03936042636632919
0.051940567791461945
-0.06365618109703064
-0.02885902114212513
0.008182142861187458
-0.04653054475784302
-0.008529306389391422
0.033766720443964005
0.04743611067533493
0.04644717276096344
0.04022886976599693
-0.032675016671419144
-0.05227009207010269
-0.011490432545542717
0.05629747733473778
-0.032322563230991364
0.02343231998383999
-0.0595892071723938
0.012348820455372334
0.03769984468817711
0.008772090077400208
-0.04135308414697647
0.026781268417835236
-0.05153065174818039
0.03318317234516144
0.0634031742811203
-0.04812975972890854
0.033588625490665436
0.0019846756476908922
0.053306497633457184
0.041450727730989456
-0.055005136877298355
-0.022151527926325798
0.023626629263162613
-0.02010279893875122
0.04150538146495819
-0.059907216578722
0.05700971558690071
0.039340171962976456
0.056444860994815826
-0.048753850162029266
-0.03137761726975441
-0.03936948999762535
0.0357990488409996
0.004707403481006622
0.0069992379285395145
0.0001327221980318427
-0.02376599982380867
-0.014005649834871292
-0.013793458230793476
-0.0368376262485981
0.0001994501508306712
-0.01001149881631136
-0.05284496024250984
0.05082534998655319
-0.004194522742182016
0.05217577889561653
-0.004646194167435169
-0.05047854781150818
-0.045579589903354645
0.05005728825926781
-0.015097815543413162
0.022511299699544907
0.0003943367919418961
0.021644795313477516
-0.03689029440283775
0.01639198139309883
-0.005095864180475473
0.03803876042366028
0.006081314757466316
0.005652265157550573
-0.05237216129899025
0.005146984942257404
0.025896374136209488
-0.048310574144124985
-0.009011490270495415
-0.040836483240127563
0.021206825971603394
-0.029829729348421097
-0.017060482874512672
-0.056505534797906876
0.050680242478847504
0.04748634994029999
0.021413063630461693
-0.044267211109399796
-0.0192217119038105
0.05453839153051376
-0.016686460003256798
0.05827825143933296
0.004781404975801706
0.05020305514335632
-0.021035676822066307
-0.050053805112838745
0.01261061616241932
0.005542424041777849
-0.0031026056967675686
0.020515207201242447
0.022759929299354553
-0.03518696501851082
0.030333856120705605
-0.05469513684511185
0.0035353084094822407
-0.000925242668017745
0.003930348437279463
0.006604221649467945
0.02998632751405239
0.051342613995075226
-0.03239471837878227
-0.05554434284567833
-0.021274587139487267
-0.05240049958229065
-0.03843892365694046
-0.053845230489969254
0.04217809438705444
-0.00029732275288552046
0.053643617779016495
0.05257101729512215
0.00610901415348053
-0.030501605942845345
-0.02895963005721569
-0.04771282151341438
-0.018146157264709473
-0.038270220160484314
0.058820758014917374
0.00330490805208683
0.021583527326583862
0.03385709598660469
0.025885021314024925
-0.003478393191471696
6.481001037172973e-05
0.040892139077186584
-0.0253403652459383
0.021426787599921227
0.031140893697738647
-0.015532374382019043
-0.004659105557948351
-0.036571137607097626
-0.044566649943590164
-0.03041042946279049
0.0358220599591732
-0.019050251692533493
0.03679213300347328
0.04503588378429413
-0.043159082531929016
0.004481814801692963
-0.04191363602876663
0.021833939477801323
0.010776967741549015
-0.020643942058086395
-0.04144806042313576
-0.04624432697892189
0.04581760987639427
-0.05198279395699501
-0.016384746879339218
-8.721007179701701e-05
0.02441328577697277
0.019095085561275482
-0.02313373051583767
-0.059760745614767075
-0.032897207885980606
-0.03020092472434044
0.010575220920145512
-0.006192200351506472
-0.012637589126825333
0.059357281774282455
0.03236628696322441
-0.029809443280100822
-0.016645794734358788
-0.05216054245829582
-0.01241315621882677
0.002202957170084119
0.02709869295358658
-0.028237078338861465
0.013467042706906796
0.0425129234790802
-0.013771270401775837
0.003330619540065527
-0.04627825319766998
-0.028658920899033546
0.004121801815927029
0.019436748698353767
-0.0023529992904514074
0.037235185503959656
-0.004957984667271376
-0.012909640558063984
0.014232049696147442
-0.020491862669587135
-0.0001316594280069694
0.0274851992726326
0.027095697820186615
0.006432058289647102
-0.03376815468072891
-0.039767879992723465
-0.024937810376286507
0.030788738280534744
-0.027330905199050903
-0.006612233351916075
0.04336441308259964
0.05583736672997475
0.022296177223324776
-0.018565915524959564
0.05199604853987694
0.003175310557708144
-0.004364040680229664
-0.0429377518594265
-0.016118785366415977
0.035955484956502914
0.004398729186505079
0.032348714768886566
-0.0036041378043591976
-0.02189560979604721
0.008761895820498466
0.02118133194744587
0.013843950815498829
-0.012706117704510689
-0.0079572182148695
0.004425829276442528
-0.0020794880110770464
-0.056628819555044174
-0.05908847600221634
-0.037076953798532486
-0.018779465928673744
0.052455682307481766
0.020551659166812897
-0.05098102614283562
0.011767194606363773
0.017752747982740402
-0.02102041244506836
-0.01801624521613121
0.04946209490299225
0.005780185107141733
-0.026217089965939522
-0.04884067177772522
0.05068087577819824
0.03154197707772255
0.025656891986727715
-0.05040813609957695
-0.032172344624996185
-0.05005714297294617
0.04108452424407005
-0.059597525745630264
0.029364725574851036
-0.018785672262310982
0.01680375449359417
0.045967958867549896
0.013528400100767612
0.01687225140631199
0.013094775378704071
-0.025643745437264442
0.04950142651796341
-0.05788346379995346
-0.00849621556699276
-0.018847504630684853
-0.04371014982461929
0.057293765246868134
0.029887927696108818
-0.014907109551131725
-0.006166653707623482
0.03523683175444603
0.047349534928798676
-0.05422249436378479
-0.05028725787997246
0.04587443545460701
0.0012026694603264332
-0.04952741414308548
0.02387774921953678
-0.04094098508358002
-0.004835859406739473
0.015215950086712837
-0.03856421634554863
0.00727649312466383
0.0443299375474453
0.028050260618329048
0.010992219671607018
-0.05263320356607437
-0.03495725616812706
-0.012735585682094097
0.012022080831229687
0.01727318949997425
0.0356949120759964
-0.04895688220858574
-0.012132328003644943
-0.02610723488032818
-0.04733112454414368
-0.018970344215631485
-0.04006173834204674
-0.002272231737151742
-0.04338785260915756
0.04950021579861641
-0.013590467162430286
-0.01695612631738186
-0.023667888715863228
0.0014765462838113308
0.056109149008989334
-0.020971905440092087
0.018796252086758614
0.0442371666431427
0.03938189893960953
0.05036746338009834
0.03335683047771454
0.034076571464538574
0.0004908295813947916
-0.021019939333200455
0.005233189091086388
0.006063198670744896
0.05161404237151146
0.043039027601480484
0.0021978537552058697
0.0002565214817877859
0.015009401366114616
0.033757664263248444
0.0007874273578636348
-0.02127409353852272
-0.020452292636036873
0.03150327131152153
-0.03779251128435135
0.018068140372633934
-0.03673826530575752
0.009020230732858181
0.05102766305208206
-0.016248242929577827
-0.04804495722055435
0.0016787720378488302
-0.002910387935116887
-0.005648525897413492
-0.05951707810163498
0.02414241060614586
-0.02386421337723732
0.016467053443193436
-0.026726149022579193
0.028551509603857994
-0.041754528880119324
-0.01979447714984417
0.01705114170908928
0.023660428822040558
0.05409783869981766
0.04921778291463852
0.04888875037431717
0.028329139575362206
0.01674172654747963
-0.0004120101220905781
0.027266843244433403
0.05323401838541031
-0.04809095710515976
-0.04297758638858795
-0.008931824006140232
-0.04936618730425835
0.03589372709393501
-0.024177417159080505
-0.023859070613980293
0.04292970895767212
0.043314386159181595
-0.05006016045808792
-0.04959312826395035
0.035784684121608734
0.00861348956823349
-0.05099368467926979
-0.020447157323360443
-0.033473093062639236
-0.004403264261782169
-0.01661326177418232
0.04120996221899986
0.005844349507242441
0.03290393576025963
0.042266685515642166
0.05141367018222809
-0.03048398718237877
-0.01423135120421648
0.05502896383404732
-0.021761547774076462
0.00326934433542192
0.049212321639060974
-0.024069977924227715
-0.009916088543832302
0.05278005078434944
0.05554232373833656
-0.03777538985013962
-0.00018388507305644453
-0.053751032799482346
0.01929902471601963
-0.030691638588905334
0.014159495942294598
0.03047446720302105
0.026177162304520607
0.03969820216298103
-0.04269418865442276
0.033081259578466415
0.01337746623903513
-0.05512155592441559
-0.023918718099594116
-0.050253644585609436
9.492975550529081e-06
-0.05227871239185333
-0.029315393418073654
0.01667439192533493
-0.020026907324790955
0.005653036292642355
-0.053734589368104935
0.028947453945875168
-0.028657590970396996
-0.042932868003845215
-0.02818480134010315
0.03817930072546005
-0.006948010064661503
-0.027142519131302834
-0.03864152729511261
-0.05594358593225479
0.01749911531805992
-0.04090983048081398
0.004161480814218521
0.05293244495987892
-0.015451117418706417
0.002162524964660406
0.04249829053878784
0.0208438653498888
-0.015308637171983719
0.028818320482969284
-0.003042378695681691
-0.013104039244353771
0.003291249042376876
0.02657208777964115
-0.052636802196502686
-0.050558436661958694
-0.04146527871489525
-0.011470484547317028
0.02880748175084591
0.03361135721206665
0.028796043246984482
-0.02671404555439949
-0.030899498611688614
-0.0400611013174057
-0.04143412411212921
0.02424051985144615
0.01785360462963581
-0.001601402647793293
0.017366306856274605
0.0014801089419052005
-0.039840321987867355
-0.019843563437461853
-0.03760683536529541
-0.016703493893146515
0.03866329789161682
-0.011529482901096344
-0.04318247362971306
0.048574402928352356
0.024522321298718452
-0.0058594960719347
-0.011002778075635433
0.05496669560670853
-0.036306679248809814
-0.0011423206888139248
-0.009454024024307728
0.03195000812411308
-0.01820426620543003
-0.007292970549315214
-0.001794086187146604
0.03287588804960251
0.04596581682562828
0.05307535082101822
0.01915246807038784
-0.055687014013528824
0.015949012711644173
-0.00684923492372036
-0.04039205610752106
-0.05957351252436638
-0.02529795654118061
0.008639075793325901
-0.0012821215204894543
-0.016129054129123688
-0.005872596986591816
-0.029812203720211983
0.05227535963058472
-0.001256833435036242
-0.0247238390147686
0.035966336727142334
0.01029051374644041
-0.046067822724580765
-0.026676807552576065
-0.035869698971509933
0.030449727550148964
-0.012129430659115314
-0.009127085097134113
-0.028488408774137497
-0.059530120342969894
0.0010978878708556294
0.041031841188669205
-0.004439095500856638
-0.0032109853345900774
-0.04329041391611099
-0.009239577688276768
0.020367911085486412
-0.050416141748428345
0.03351763263344765
-0.02530989609658718
0.01724172942340374
0.02856285497546196
0.028597582131624222
-0.031759943813085556
0.023992998525500298
0.004871554207056761
0.05552956461906433
-0.004483616910874844
0.010471475310623646
-0.00208455347456038
0.03835180774331093
0.02820274420082569
0.03841948136687279
-0.04951925203204155
-0.025388862937688828
-0.001629568520002067
0.02649850584566593
0.016728857532143593
-0.030300842598080635
0.022124318405985832
0.03532843291759491
-0.044338878244161606
-0.04523183032870293
0.046145249158144
0.050173237919807434
-0.05564795807003975
-0.0010594051564112306
0.019201286137104034
-0.006045463029295206
0.03137896955013275
0.05002791807055473
0.03691678121685982
0.022058498114347458
0.02026883326470852
-0.03452477231621742
-0.03480856120586395
-0.037392303347587585
0.04514547064900398
0.039193782955408096
0.05757882446050644
0.008160553872585297
-0.019700778648257256
0.021266449242830276
-0.017377424985170364
0.011591464281082153
-0.052663274109363556
-0.05746131017804146
-0.030572881922125816
0.031232090666890144
0.04450821131467819
0.03343156725168228
0.03316543623805046
-0.03340752795338631
0.0026540157850831747
0.023262610659003258
-0.029753221198916435
0.011870765127241611
0.03889631852507591
0.03946124017238617
-0.03510091453790665
0.009760354645550251
0.034417524933815
-0.02121817134320736
0.05051347613334656
-0.03147954121232033
-0.04042678326368332
0.012179801240563393
-0.021799443289637566
0.03771580383181572
-0.009624563157558441
-0.01146265584975481
0.033178508281707764
-0.045864902436733246
0.04507157951593399
0.0015737026697024703
0.03558493033051491
-0.01252908818423748
-0.019333645701408386
0.05413862317800522
-0.026835214346647263
-0.007388402707874775
0.052469175308942795
0.00934813916683197
-0.015773415565490723
-0.010963560082018375
-0.0357375368475914
-0.034989502280950546
0.056727923452854156
0.04926936700940132
-0.004834868013858795
0.010659417137503624
0.05149999260902405
0.04221310093998909
-0.019981451332569122
0.03225767984986305
0.001147522940300405
0.009200258180499077
-0.022082779556512833
-0.005529827903956175
0.04594377055764198
0.03585822507739067
-0.05612747743725777
0.03539006784558296
0.00025816206471063197
0.001782887731678784
-0.0029731220565736294
0.02565624937415123
-0.011106288991868496
0.02038203924894333
-0.00022234240896068513
0.01605563797056675
-0.020617878064513206
0.033910028636455536
-0.0016818951116874814
0.020187215879559517
-0.007870635949075222
0.03242920711636543
-0.04485495388507843
0.0007993424660526216
-0.03644358739256859
0.0530596524477005
0.04311707615852356
0.034045979380607605
-0.006853015162050724
0.02180440165102482
-0.005567902699112892
0.0367334820330143
-0.05915273353457451
0.0073613571003079414
0.05051679164171219
-0.002221069997176528
-0.044897012412548065
-0.03396684676408768
-0.006164974998682737
0.02111109532415867
0.025990257039666176
0.027040084823966026
0.0321153923869133
0.03995371237397194
-0.05293276906013489
0.0427914522588253
0.052280448377132416
-0.006268157158046961
-0.040917377918958664
0.014821005053818226
-0.010945025831460953
0.06094912439584732
0.06035469472408295
0.05329371243715286
-0.025047754868865013
-0.011311172507703304
-0.03612267225980759
-0.019748132675886154
0.009609830565750599
0.030205974355340004
0.04218112304806709
-0.04403165355324745
0.05344047024846077
0.046780284494161606
-0.04025711491703987
0.003872438333928585
-0.033972542732954025
-0.04720870032906532
-0.047092583030462265
-0.05117478966712952
0.0421932190656662
0.028719982132315636
-0.029901353642344475
-0.02427929826080799
-0.022549662739038467
0.027469638735055923
-0.03882991895079613
-0.005711080972105265
0.0011369079584255815
-0.047964856028556824
-0.010647744871675968
0.026770591735839844
-0.05240951478481293
-0.009367606602609158
0.05859071761369705
0.0547325573861599
0.004143675789237022
0.003712440375238657
0.019409671425819397
-0.002219034358859062
0.015846023336052895
0.0006037145503796637
0.044943783432245255
-0.027067404240369797
0.020420484244823456
-0.01658807322382927
-0.02860262803733349
0.01179616991430521
-0.017957350239157677
0.016145488247275352
-0.03380528464913368
-0.02241438440978527
0.04523446783423424
0.015994369983673096
-0.058062441647052765
-0.03771136701107025
-0.026963865384459496
0.05174040049314499
-0.049437567591667175
-0.02959384024143219
-0.03500089421868324
0.028719739988446236
0.021082308143377304
-0.018734678626060486
-0.0014278640737757087
0.041523199528455734
-0.02084398828446865
-0.03997725620865822
-0.037323229014873505
0.02588077262043953
0.0421113446354866
-0.01406994741410017
-0.019983692094683647
-0.0015429510967805982
0.03253701701760292
0.019258791580796242
-0.04753054305911064
0.033227987587451935
-0.053861118853092194
-0.029280729591846466
0.05255533382296562
0.02073611132800579
0.024170253425836563
0.05030849575996399
-0.05585796386003494
0.04308665171265602
-0.02567255310714245
0.02322552353143692
-0.05700460821390152
-0.0010006069205701351
-0.02576609142124653
0.045311398804187775
0.018885960802435875
0.0408850833773613
0.031614139676094055
0.02212974615395069
-0.03218458592891693
0.022583384066820145
0.004360691178590059
0.0260161105543375
0.01501601655036211
0.004404239356517792
0.03585762158036232
0.018111033365130424
-0.026967698708176613
0.04264114424586296
0.021720614284276962
-0.048239756375551224
0.053836382925510406
-0.03556366264820099
-0.010845283046364784
-0.0029228543862700462
-0.0304355900734663
-0.01602364517748356
-0.006379780825227499
-0.04288128763437271
0.05125463008880615
-0.02010687254369259
-0.04684746637940407
-0.0321592278778553
-0.02227693982422352
0.04734736680984497
0.04252767190337181
0.002963063772767782
-0.05039043724536896
0.01131177507340908
0.013542015105485916
-0.01801431179046631
0.026838595047593117
0.04617159441113472
0.005409696605056524
-0.020395459607243538
0.016495194286108017
-0.0245182104408741
0.018139436841011047
-0.04706716537475586
0.03852440044283867
-0.007407580967992544
-0.009393789805471897
0.015812436118721962
-0.021041175350546837
-0.05048685893416405
-0.057516440749168396
-0.010518483817577362
0.03205043822526932
-0.04159998893737793
-0.041893091052770615
-0.029314538463950157
0.02919561229646206
-0.017007941380143166
-0.02854815311729908
-0.05885498225688934
-0.0560879223048687
0.007519375532865524
-0.018907850608229637
0.04757073149085045
0.012104755267500877
-0.014189713634550571
-0.0030710918363183737
0.020738638937473297
0.0285075381398201
0.039410024881362915
-0.0572759248316288
-0.04688217490911484
-0.05179774761199951
-0.04998381435871124
0.05243499204516411
0.0007143063703551888
0.049030594527721405
-0.007025386672466993
-0.0004322135937400162
0.03964443877339363
0.056219350546598434
0.034983012825250626
-0.017903722822666168
0.040850549936294556
-0.014202670194208622
0.03566921502351761
-0.020384421572089195
0.02674049325287342
0.004686734173446894
-0.0016864818753674626
0.03905517980456352
-0.021069059148430824
0.04885723441839218
0.018933767452836037
-0.025449372828006744
-0.042911265045404434
-0.006257598754018545
0.0035403557121753693
0.03966042026877403
-0.04781966283917427
-0.004537160973995924
0.05655204877257347
0.005597358103841543
0.05041559040546417
0.05554532632231712
0.016575297340750694
0.006692177150398493
-0.017638763412833214
-0.05271567776799202
-0.03841741383075714
0.010778184980154037
0.002532223705202341
0.02958448976278305
0.024422599002718925
-0.03546183928847313
0.037874847650527954
-0.05841342732310295
0.01937759853899479
-0.013991468586027622
-0.05270452797412872
0.048173245042562485
-0.06123119220137596
-0.04993095621466637
-0.0526781789958477
-0.04853525385260582
0.0005214447155594826
-0.0465884655714035
0.016944264993071556
0.00047337496653199196
-0.0021653706207871437
0.0333673357963562
-0.04811447486281395
0.05191487446427345
-0.015629323199391365
-0.00038788880920037627
0.0013588761212304235
0.030494019389152527
0.04335477575659752
-0.020833609625697136
0.004371647723019123
-0.02866298519074917
-0.045699410140514374
0.001743808970786631
-0.0466654896736145
-0.005362013820558786
0.046658068895339966
0.01716151274740696
0.010888324119150639
0.045374710112810135
-0.041666436940431595
-0.03849610313773155
0.054975856095552444
0.04516839608550072
0.005218566861003637
0.05850913003087044
0.0194291640073061
0.04122027009725571
-0.05547741800546646
0.02683188207447529
-0.013874494470655918
-0.044622842222452164
-0.03701914846897125
0.02443927340209484
-0.04606318473815918
0.0298999585211277
0.017254043370485306
-0.04859389737248421
0.007086258381605148
-0.01466082502156496
-0.035847220569849014
-0.029831215739250183
-0.04150974750518799
0.01452445425093174
-0.01189413946121931
-0.025930142030119896
0.013750981539487839
0.008701263926923275
0.019637564197182655
0.008800667710602283
-0.01152078341692686
-0.0032397201284766197
-0.008598573505878448
-0.04886292666196823
-0.044430892914533615
0.015775926411151886
-0.05620883032679558
-0.06285595148801804
-0.011207831092178822
-0.03204696625471115
0.04192083701491356
-0.0282001830637455
-0.009383657947182655
0.0031150509603321552
0.023530738428235054
-0.06352359056472778
0.04833231866359711
0.03565952554345131
0.03404148668050766
-0.00453689880669117
-0.03480367362499237
-0.0005123705486766994
0.03468490391969681
-0.012959065847098827
-0.018509849905967712
-0.023803800344467163
0.008006410673260689
-0.0030919727869331837
-0.029471106827259064
-0.012337855994701385
0.032395828515291214
0.04405098035931587
0.022130418568849564
0.02430184744298458
0.026977965608239174
-0.052204664796590805
0.028372805565595627
0.040560897439718246
-0.026693519204854965
-0.03699250891804695
-0.04458299279212952
-0.05665607005357742
0.0019423022167757154
0.022648897022008896
0.015836436301469803
-0.04040788486599922
-0.0378994382917881
0.04250752925872803
-0.02169155888259411
-0.006224651355296373
0.000879971485119313
-0.0288726594299078
-0.005120018497109413
-0.013360865414142609
0.00724986894056201
-0.06688981503248215
-0.04266547039151192
-0.05601539835333824
-0.06514476239681244
-0.002182339783757925
-0.006830589380115271
-0.01095241867005825
-0.01988564431667328
0.013459820300340652
-0.051151782274246216
0.0051443204283714294
0.05181704834103584
-0.04265087842941284
0.03985721990466118
0.04254218190908432
0.05363358557224274
0.0290506724268198
-0.053188152611255646
0.03513658791780472
-0.026608634740114212
-0.053836386650800705
0.015597022138535976
0.0020994979422539473
-0.007424153387546539
0.02700991928577423
0.03599188104271889
0.030430439859628677
-0.04068668931722641
-0.020036768168210983
-0.050009723752737045
0.054901883006095886
-0.01649908348917961
-0.051294803619384766
0.0513669028878212
-0.012363108806312084
0.03105420432984829
0.01357350405305624
0.010624007321894169
0.009378843940794468
-0.027573784813284874
0.0304452795535326
-0.054014310240745544
-0.040047917515039444
0.008913295343518257
-0.040784526616334915
0.05439865589141846
-0.0500372014939785
0.0322323739528656
-0.006179880816489458
-0.021131007000803947
0.015010933391749859
-0.022448455914855003
0.023396972566843033
-0.016450367867946625
-0.05877012759447098
0.04065820202231407
-0.007058701012283564
0.01666160672903061
0.026423659175634384
0.04908350110054016
-0.025408416986465454
0.06072016805410385
0.056622106581926346
-0.013201606459915638
-0.034931428730487823
0.0077055515721440315
0.01549478992819786
0.018876854330301285
-0.013335596770048141
-0.01493650209158659
0.0034559450577944517
-0.010291395708918571
0.003527131164446473
-0.005061866715550423
-0.05215592309832573
0.033495768904685974
-0.00729967188090086
-0.06132623180747032
-0.057263780385255814
-0.009748934768140316
0.0013834882993251085
0.04479522258043289
0.05464436858892441
-0.029668115079402924
-0.04416321963071823
-0.006255777552723885
-0.00966007448732853
-0.0236763134598732
0.05110342800617218
0.035802826285362244
0.04011350870132446
0.01346570160239935
0.03615967184305191
-0.0190645270049572
-0.044367674738168716
0.0012771363835781813
-0.05232406407594681
-0.025850307196378708
0.030801380053162575
0.0054836999624967575
0.021651700139045715
-0.05934668332338333
-0.016455184668302536
-0.0498812198638916
0.023681331425905228
-0.050996292382478714
0.03021092899143696
0.05914651229977608
0.016976943239569664
0.018730314448475838
2.2562677258974873e-05
0.011899075470864773
-0.03926574066281319
-0.029342878609895706
0.016533514484763145
0.03383643180131912
-0.010675743222236633
-0.016325030475854874
0.038637615740299225
0.04908231645822525
-0.05578523129224777
-0.006654985714703798
-0.022777950391173363
-0.0472475104033947
-0.03702269867062569
0.04741454869508743
-0.05650586634874344
0.056118469685316086
-0.016471974551677704
-0.018387481570243835
0.008994552306830883
-0.040939588099718094
-0.011140557937324047
0.039305347949266434
0.061657875776290894
0.052813105285167694
0.03986110910773277
0.048986755311489105
-0.005083202850073576
-0.05335520580410957
0.04514434561133385
-0.032284241169691086
-0.0016154393088072538
-0.013956447131931782
0.04482376575469971
0.0025879847817122936
-0.04079454392194748
-0.0114362183958292
0.011868344619870186
-0.04532785713672638
0.059962477535009384
0.017922203987836838
0.013778056018054485
-0.042852822691202164
-0.01141515001654625
0.025184962898492813
0.04850730299949646
0.03454495966434479
0.05501006543636322
-0.021185552701354027
-0.04648251831531525
-0.015818992629647255
-0.04040181264281273
-0.030657242983579636
-0.04891844466328621
0.018743962049484253
0.0017957439413294196
-0.030061256140470505
-0.00336259207688272
0.0036073115188628435
0.02711317501962185
0.017044082283973694
-0.02057681232690811
-0.04843281954526901
0.05594388395547867
-0.013858250342309475
-0.038795098662376404
0.003409610129892826
0.027243224903941154
-0.023583251982927322
-0.012566384859383106
0.029809607192873955
0.01283209677785635
0.03877635672688484
0.04070597514510155
0.039936624467372894
-0.02334669791162014
0.01939074695110321
0.021622255444526672
0.03176971897482872
-0.05500226840376854
0.03987277299165726
-0.00442323787137866
0.008674629963934422
-0.031721316277980804
-0.022232461720705032
0.031913872808218
-0.030832868069410324
0.05453285202383995
-0.05740150809288025
-0.039875783026218414
-0.05077945068478584
-0.05188789963722229
0.05350295826792717
-0.031169934198260307
0.003214095486328006
0.05272877588868141
-0.01780386082828045
-0.04502825438976288
-0.04246502369642258
-0.03013184666633606
-0.06063936650753021
0.05077667906880379
0.016643254086375237
0.03616014122962952
0.030581334605813026
-0.011526907794177532
-0.03459359332919121
0.020757067948579788
-0.04997042939066887
-0.05401257053017616
-0.0544644333422184
0.016291411593556404
0.01285941805690527
0.028696879744529724
-0.030079789459705353
-0.05525674298405647
0.04145516827702522
0.018472617492079735
0.01613978110253811
0.054563794285058975
-0.047827091068029404
0.05208353325724602
-0.057466812431812286
0.04955841600894928
0.015348206274211407
0.028625043109059334
-0.009269646368920803
-0.03983922302722931
0.02700328454375267
-0.0030322493985295296
0.033396635204553604
0.00960264541208744
-0.042086463421583176
-0.0004943458479829133
0.05507646128535271
-0.010340671055018902
-0.04799525812268257
-0.006328290328383446
-0.005285969004034996
-0.04828035458922386
0.041902411729097366
-0.058033548295497894
0.05423849821090698
-0.0042405822314321995
-0.04807782173156738
0.0013215549988672137
0.029465945437550545
-0.050099991261959076
-0.05252835154533386
-0.011338973417878151
0.04685632884502411
0.014718404971063137
-0.0323459692299366
-0.026082731783390045
0.010736354626715183
0.0047997101210057735
0.03329576551914215
-0.007442340720444918
-0.04895944520831108
-0.05150603875517845
-0.011416040360927582
-0.04000253602862358
-0.05134923383593559
-0.048914942890405655
0.009237783029675484
0.05506093055009842
-0.02448461577296257
0.046033814549446106
-0.0317181795835495
-0.0025916595477610826
0.04467228427529335
-0.02362065017223358
0.04223779961466789
-0.04810844361782074
-0.01970215141773224
0.008300213143229485
0.04635835438966751
-0.0225665383040905
0.047995224595069885
0.04171065241098404
0.04894616827368736
-0.010407733730971813
0.02941661886870861
-0.012320632115006447
0.04476604610681534
-0.05627768114209175
0.053430479019880295
0.03213706985116005
-0.041988298296928406
-0.012071508914232254
-0.02789255604147911
0.019956447184085846
-0.043171558529138565
-0.043329667299985886
0.010799247771501541
0.019588597118854523
0.00741568673402071
-0.005111069418489933
0.056425996124744415
-0.02210290916264057
-0.05208233371376991
0.002926451852545142
0.05547911673784256
-0.0011438868241384625
-0.03167217969894409
0.0571405366063118
-0.014127176254987717
0.007599735166877508
-0.023477742448449135
-0.027133243158459663
-0.04000295698642731
-0.0365137979388237
0.05673374980688095
0.03509538620710373
-0.0223861001431942
0.05313948169350624
0.059496261179447174
-0.03334993124008179
0.038742683827877045
0.010581252165138721
0.04490494728088379
0.021667879074811935
-0.014440528117120266
0.012818380258977413
-0.03581912815570831
0.05628607049584389
-0.04490400850772858
0.019558506086468697
-0.007298777345567942
-0.05064418166875839
-0.0470382459461689
0.04262688755989075
-0.0012369020842015743
-0.02840508706867695
0.023991338908672333
-0.0022263878490775824
-0.035459015518426895
-0.050495922565460205
0.013263902626931667
0.018595153465867043
0.03239196166396141
-0.03471757471561432
0.03569125756621361
0.04177764803171158
-0.0498533695936203
0.005548671819269657
-0.0081019913777709
-0.03294407203793526
0.012888358905911446
0.019158214330673218
-0.018407631665468216
0.02996472828090191
0.03893417865037918
0.05399715155363083
0.03569234535098076
-0.008849128149449825
-0.048859309405088425
-0.01681818626821041
-0.01482592336833477
-0.04245037958025932
0.0077451979741454124
0.006455833092331886
-0.03764239698648453
0.027204211801290512
0.04040422663092613
0.0573718436062336
0.035520099103450775
0.041912682354450226
-0.05205924063920975
-0.0573505274951458
-0.03793475031852722
0.0012769009917974472
-0.02198127470910549
-0.05518203601241112
0.039386700838804245
-0.03766654431819916
0.02468057908117771
0.04175282269716263
-0.017513345927000046
-0.04383309930562973
0.03093586675822735
0.047003962099552155
-0.009303538128733635
0.0009505103807896376
0.038895122706890106
-0.03428620472550392
-0.04548722878098488
0.04133706912398338
0.04470857232809067
0.0014433315955102444
-0.04119176045060158
-0.024300716817378998
-0.05116066709160805
0.05048198625445366
-0.04323498159646988
-0.02800908125936985
0.04086980223655701
-0.04491116479039192
-0.0568905808031559
0.0012844630982726812
0.04344792291522026
0.04116027429699898
0.0038717954885214567
0.05744994059205055
0.007564162369817495
0.0539151132106781
-0.00031141325598582625
-0.011431543156504631
-0.05855446308851242
0.05325404554605484
-0.03480212390422821
0.027322597801685333
-0.027033280581235886
0.025550533086061478
0.04793102666735649
-0.03007957525551319
-0.019355621188879013
0.0002636715362314135
0.0579293929040432
-0.021975509822368622
0.02903667837381363
-0.029264332726597786
-0.043153293430805206
-0.04865704104304314
-0.02623661421239376
-0.017076734453439713
0.047804318368434906
-0.04083402082324028
-0.05822288617491722
0.005488214548677206
0.03867935389280319
0.03143417462706566
0.04010748863220215
-0.015501532703638077
0.013525876216590405
-0.004991844296455383
0.03240295872092247
0.06089760735630989
-0.04901202768087387
-0.05130632594227791
0.03764929994940758
0.02500300295650959
-0.0059287832118570805
0.021468332037329674
-0.024441281333565712
0.016168540343642235
0.05030861124396324
-0.04042995721101761
-0.04297873005270958
-0.04474944993853569
-0.03911640867590904
-0.02622096613049507
0.05115709826350212
0.006489523686468601
-0.00916456151753664
0.00527605414390564
-0.010661331936717033
-0.03344831243157387
0.049433186650276184
0.04041481763124466
-0.05566544830799103
0.04030991718173027
0.044988926500082016
0.027323557063937187
0.004869318567216396
0.008075549267232418
-0.033283207565546036
-0.01618769019842148
0.048739608377218246
-0.05595865845680237
0.006146403960883617
0.016189593821763992
0.02452261559665203
0.06054595112800598
0.05611627176403999
-0.0007477894541807473
-0.0269065722823143
-0.044918373227119446
0.030504003167152405
-0.02075943350791931
0.0021029070485383272
-0.028845343738794327
-0.007783577777445316
-0.03891979530453682
-0.020253194496035576
-0.050951745361089706
-0.046896930783987045
0.006092225667089224
-0.04137492552399635
0.04069450497627258
-0.05077696591615677
0.05500800907611847
0.04631921276450157
-0.0016594607150182128
-0.004343580920249224
-0.011855093762278557
0.040076181292533875
-0.054404210299253464
-0.03715285286307335
0.05393192172050476
-0.014893664978444576
-0.04845261946320534
0.031524114310741425
-0.015522178262472153
-0.05248637869954109
0.007022310514003038
-0.020402871072292328
0.0022439155727624893
0.019733602181077003
-0.015449129045009613
-0.04462502896785736
-0.035325538367033005
0.0012498974101617932
0.034820571541786194
-0.04281273111701012
0.007097792811691761
0.04732564091682434
0.007749433163553476
0.003205698449164629
-0.0012635979801416397
0.053018275648355484
0.00042777135968208313
0.020126448944211006
-0.04942500218749046
0.055232785642147064
0.016415055841207504
0.025484982877969742
0.03179304301738739
-0.00938081182539463
-0.0020748041570186615
0.02208000048995018
-0.029533328488469124
0.04085425287485123
0.03611256927251816
0.024055583402514458
0.035184476524591446
-0.014436932280659676
0.033912837505340576
0.05145644024014473
-0.011047108098864555
-0.056130550801754
-0.008192881941795349
-0.022606143727898598
-0.050446346402168274
-0.0025847109500318766
-0.039086781442165375
-0.014430105686187744
0.05196121707558632
-0.05938529223203659
-0.03243644908070564
-0.02524660900235176
-0.022203532978892326
0.042741041630506516
-0.051787395030260086
-0.02463831566274166
-0.04676610231399536
-0.016802286729216576
-0.061667509377002716
-3.9954869862413034e-05
0.007582584861665964
-0.0032928164582699537
0.02284080535173416
-0.05115526542067528
-0.00337183172814548
0.04960208013653755
0.02353808842599392
0.033494703471660614
-0.035677164793014526
0.05273447558283806
-0.04890986904501915
-0.04847881570458412
0.03902517259120941
-0.02693566121160984
0.002836427418515086
-0.05150824040174484
-0.054367661476135254
-0.036836862564086914
-0.05064164474606514
0.052478376775979996
0.0467047393321991
0.022693876177072525
-0.05298646166920662
-0.055619753897190094
0.02405276522040367
-0.00901392474770546
0.005174246616661549
-0.032810840755701065
0.04851192981004715
0.0017345414962619543
-0.040659308433532715
0.016250111162662506
0.04723043739795685
-0.030063016340136528
-0.02620997466146946
-0.020816994830965996
0.05477919802069664
-0.026677733287215233
0.032098546624183655
0.023994946852326393
0.0007824897766113281
0.05528164654970169
-0.021188491955399513
-0.041286248713731766
0.02354307845234871
0.04967067018151283
0.0005819318466819823
-0.017965098842978477
-0.018275681883096695
-0.05676131322979927
0.028125273063778877
0.00604999577626586
-0.012879188172519207
-0.0369277149438858
0.009739072993397713
-0.008610103279352188
-0.027179881930351257
0.044075775891542435
-0.05538727715611458
0.027856772765517235
-0.04724876582622528
0.008852686733007431
0.017165658995509148
-0.0004297420964576304
-0.05006924271583557
-0.003291735425591469
0.02635030448436737
0.024769511073827744
-0.022603629156947136
-0.0010610077297315001
0.023270025849342346
-5.75075282540638e-05
0.02088865451514721
0.011584628373384476
-0.010500775650143623
-0.04132667928934097
-0.00633156206458807
0.029414359480142593
-0.024551434442400932
0.05484446510672569
0.0008670205716043711
-0.0017471350729465485
0.031504180282354355
0.015188721008598804
-0.05769062787294388
-0.027516301721334457
0.003948837518692017
0.061676736921072006
-0.047862708568573
0.031110646203160286
0.03464633226394653
-0.054686326533555984
-0.0441124364733696
0.026890596374869347
-0.02969353459775448
0.03328721970319748
-0.00420584948733449
-0.01848258450627327
-0.001690259319730103
-0.017849428579211235
-0.005396174732595682
0.015514477156102657
0.035258159041404724
-0.04213180020451546
-0.036416396498680115
-0.053058475255966187
-0.027153771370649338
0.012175289914011955
-0.02982470579445362
-0.04439462348818779
-0.013887283392250538
0.010755682364106178
-0.04316382110118866
0.011341257952153683
0.018470091745257378
-0.013782707042992115
-0.011183873750269413
0.01027841679751873
-0.0460113026201725
0.01802108995616436
-0.014091926626861095
0.05230925604701042
0.022946029901504517
-0.008858432061970234
0.004523263778537512
0.0019698820542544127
-0.02006136067211628
0.037172622978687286
-0.025332069024443626
-0.027216477319598198
-0.05667204409837723
-0.041627202183008194
0.018628064543008804
-0.02565576694905758
0.018923213705420494
-0.039589472115039825
-0.047351282089948654
-0.05570892617106438
-0.043164175003767014
0.04017248749732971
-0.04164259135723114
0.06054304912686348
0.017874887213110924
0.05010433495044708
0.06379367411136627
0.03630116954445839
-0.03866055980324745
0.04512852430343628
-0.03597801923751831
0.04400508105754852
-0.014289284124970436
0.022945469245314598
-0.0391208715736866
-0.054946377873420715
