-0.002385669620707631
-0.0028546638786792755
0.05334638059139252
-0.0035140851978212595
-0.0008673010161146522
-0.0034600389190018177
0.005272859241813421
-0.007259986363351345
-0.008775348775088787
-0.0023796840105205774
-0.008815529756247997
-0.005549230612814426
-0.004585127346217632
-0.004363169427961111
-0.0009268605499528348
-0.004218555521219969
-0.013358738273382187
-0.0015683582751080394
-0.004002316389232874
-0.009354139678180218
0.00026798309409059584
-0.0038842307403683662
0.010602853260934353
-0.005918361246585846
-0.011891838163137436
-0.008990706875920296
-0.004442874807864428
-0.001321756630204618
0.007878610864281654
0.0006136822630651295
-0.008344948291778564
0.00016692331701051444
-0.016569694504141808
-0.012564538978040218
0.0037408028729259968
-0.006153757683932781
0.002225244417786598
-0.0022177835926413536
-0.0068949186243116856
-0.016486698761582375
-0.0015795222716405988
-0.0018269254360347986
-0.0018479478312656283
0.002682651160284877
-0.0036816259380429983
-0.007499202154576778
0.00019786134362220764
-0.005631518084555864
-0.006290132645517588
-0.010214332491159439
0.0005821285303682089
-0.006237404886633158
-0.009263296611607075
0.007481428328901529
-0.0033489614725112915
-0.0012792948400601745
-0.01072324812412262
-0.008722824044525623
-0.0006692575989291072
-0.0004074914613738656
-0.0055733672343194485
-0.002708472777158022
-0.013843818567693233
-0.0058845095336437225
