-0.032277561724185944
-0.0031956133898347616
-0.02507614716887474
-0.009148195385932922
-0.013387645594775677
0.01523443590849638
-0.012099380604922771
0.0033277119509875774
-0.035233791917562485
-0.013330127112567425
0.03792210668325424
-0.02857370674610138
-0.036225125193595886
0.005803774110972881
0.031194623559713364
-0.03074626252055168
0.025031080469489098
-0.014913087710738182
-0.035701360553503036
0.0295729897916317
0.03156759589910507
-0.035743605345487595
0.03922684118151665
-0.031618036329746246
0.028898632153868675
-0.015805041417479515
-0.020185362547636032
-0.02456725761294365
-0.0003839704440906644
0.025538723915815353
-0.026334669440984726
0.026280846446752548
0.02283831499516964
-0.01690775714814663
-0.005503883119672537
0.03575815260410309
0.003948604222387075
0.006281554698944092
-0.04015522450208664
-0.03485492616891861
-0.008363391272723675
0.012396454811096191
0.01079544983804226
-0.016658863052725792
-0.026366066187620163
0.029770120978355408
0.03996776044368744
-0.029576873406767845
0.0317452996969223
0.013755838386714458
-0.036274589598178864
-0.022985558956861496
0.041019290685653687
-0.0381033681333065
-0.029666811227798462
0.03938554227352142
0.019575059413909912
-0.02720874547958374
0.011594722978770733
0.03499219939112663
0.012692640535533428
-0.009061033837497234
-0.017568662762641907
0.03974209725856781
0.041233282536268234
-0.011080886237323284
-0.03505728766322136
0.02245456539094448
0.03761196881532669
0.006102909799665213
-0.038207631558179855
0.023088078945875168
-0.03219608962535858
0.015552416443824768
-0.017957374453544617
-0.03744287043809891
-0.007700229994952679
0.022704750299453735
0.03885157033801079
0.035818442702293396
-0.032467976212501526
0.03317348286509514
-0.017952781170606613
-0.03489522263407707
0.03066682443022728
0.01649296283721924
-0.03729068860411644
-0.0377134308218956
0.041312165558338165
-0.03524515777826309
-0.03852718695998192
-0.0062238676473498344
-0.0037861657328903675
-0.007069841027259827
-0.036215297877788544
0.01951039396226406
-0.023793330416083336
0.03689374029636383
-0.015266021713614464
-0.03508980572223663
0.03078453801572323
0.02338564395904541
-0.03543650731444359
0.021062731742858887
0.019457494840025902
-0.02405414544045925
-0.013236349448561668
-0.03809618204832077
-0.011323248967528343
-0.03491225093603134
0.0276674535125494
-0.029020249843597412
-0.03467854857444763
0.01496164035052061
0.03391687572002411
0.030652588233351707
0.02096233330667019
-0.009904290549457073
0.04130662977695465
-0.026841457933187485
-0.022129293531179428
0.03963556885719299
0.003311510430648923
0.03658045455813408
0.03000778518617153
0.0053671798668801785
-0.0016007634112611413
-0.034122005105018616
