-0.0006280820234678686
-0.0007818874437361956
-0.0005653122207149863
-0.001929712132550776
-0.0006352138589136302
0.0007550439913757145
-0.0006777932867407799
-0.0009911453817039728
-0.001986143412068486
-0.00022432630066759884
-0.0004363312618806958
-0.00020377858891151845
-0.0010404096683487296
-0.0003464534820523113
-0.001543741556815803
5.586869519902393e-05
-0.003057925496250391
-0.0012278410140424967
-0.000806247116997838
-0.0016209633322432637
-7.690736674703658e-05
-0.0011475374922156334
0.0003132087585981935
0.0005059899995103478
-3.9645772631047294e-05
0.00043358284165151417
-0.0008666461217217147
-3.176285827066749e-05
0.00020957880769856274
-0.0010577120119705796
-0.00037056123255752027
-0.0004883566871285439
-0.0005288156680762768
-0.0015052109956741333
-0.0005355781759135425
0.00016153852629940957
-0.0008178206626325846
-0.00022729436750523746
0.00010082612425321713
-0.0004583766858559102
-0.0005575102404691279
-0.00039521526196040213
-0.0009626186219975352
-0.001804623636417091
0.00044917306513525546
-0.0005847489810548723
-0.0015465682372450829
2.8208057756273774e-06
-0.0005781786749139428
8.049768803175539e-05
-0.0015337683726102114
-0.0007080438663251698
-0.00036189626553095877
-0.0010268084006384015
-0.0024215367157012224
-0.0005365950637497008
-0.0018525824416428804
0.00021795024804305285
-0.0008250625105574727
-0.0005635737907141447
0.00011365238606231287
6.77785137668252e-05
-0.0009557823068462312
-0.0005347049445845187
-0.00011075584188802168
-0.0017912877956405282
-0.00036839552922174335
-0.0006495927227661014
0.00043672192259691656
0.00012901607260573655
9.455873805563897e-05
-0.000323640852002427
-0.000787391618359834
-0.00034578493796288967
0.00036142271710559726
-0.0011185164330527186
0.0004005132941529155
6.815772940171883e-05
-0.00047754013212397695
-0.000745035707950592
-0.0008470462635159492
0.0002876541402656585
-0.00011066185834351927
-6.892934470670298e-05
-0.00011237246508244425
-0.00040869080112315714
-0.0017532451311126351
-0.0002410163142485544
-0.0008246717043220997
6.140047480585054e-05
-0.0003951271064579487
-0.0004558686923701316
-0.0006508041406050324
-0.0013736514374613762
-0.0010883293580263853
7.762933819321916e-05
-0.0008586295298300683
-0.0022123558446764946
0.000555891718249768
-0.0007404836360365152
0.00045938516268506646
-0.00037087404052726924
-0.001485413871705532
-0.0005231700488366187
-0.0002969572087749839
-0.0015246805269271135
2.7995440177619457e-05
-0.0003097419685218483
-0.00031421042513102293
-0.0018215777818113565
-0.0011251544347032905
-0.0005774606834165752
-0.0005351470899768174
-0.0006009181379340589
-0.00011474663187982515
-0.0006145544466562569
-0.0006474210531450808
-0.0021916984114795923
-0.0007650862098671496
-0.0007739654392935336
0.0004603056295309216
-8.483220881316811e-05
5.704595605493523e-05
-0.00036945901229046285
-0.0007260978454723954
-0.0011426646960899234
0.0009171434212476015
-0.0007112447638064623
0.0002413921320112422
-0.0007582383695989847
-0.0013846195070073009
-0.0014306114753708243
-0.0005799768259748816
-0.00012426757893990725
-0.0013227923773229122
-0.001174869597889483
5.3532847232418135e-05
-0.0015663703670725226
0.00013916127500124276
-0.0013371892273426056
-0.0005990483332425356
-0.0005466350703500211
9.817550017032772e-05
6.372950883815065e-05
7.94733059592545e-05
-0.0006677799392491579
-0.0006931742536835372
-0.001429741969332099
-0.0012043024180456996
-0.0009160151821561158
0.0004971146699972451
-0.0006878494750708342
-0.001450899289920926
-0.0017947229789569974
-0.0001609562459634617
-9.458357089897618e-05
-0.000639020639937371
-0.0006233014282770455
-0.0008403006359003484
0.0002100340643664822
-0.0008993946248665452
-0.0004906423855572939
-0.0005247017834335566
-0.0006441504810936749
-0.0003870594082400203
0.0011292266426607966
-0.0006844596355222166
-0.000465255172457546
5.6260425481013954e-05
0.0007785679190419614
-0.0006115044234320521
-0.0016791896196082234
-0.0005142594454810023
-0.0008015216444619
-5.098347901366651e-05
-0.00034038606099784374
-0.0002981597208417952
-0.0018269912106916308
-0.001368534518405795
-0.0011415408225730062
-0.00033275861642323434
-9.458798740524799e-05
0.0005536082317121327
-0.0009772209450602531
0.0003074776323046535
-0.0004295039107091725
-0.0009481583838351071
8.556026295991614e-05
-0.0007904496742412448
0.00017063439008779824
-0.0006349745090119541
0.0005306872189976275
-0.0017066251020878553
-0.0026968957390636206
-0.0016246553277596831
-0.00054125115275383
-0.0007139338995330036
-0.0003372001519892365
1.1976514542766381e-05
-0.0014677996514365077
0.0010193998459726572
-0.0010844303760677576
-0.000252724887104705
-0.000656976189929992
-0.0002602646709419787
0.00022723946312908083
0.0002051235642284155
0.0006612091092392802
-0.00033516366966068745
-0.00030160878668539226
1.0301548172719777e-05
-0.0013105964753776789
-0.0005576598923653364
-0.00038458770723082125
-0.00018112619000021368
-0.0018708965508267283
-0.0006327501032501459
-0.0012227202532812953
0.0011296778684481978
-0.000873423065058887
-0.000812212354503572
4.982387326890603e-05
-7.494197052437812e-05
-0.00048355956096202135
-0.000447707949206233
-0.0023123568389564753
0.0010555197950452566
-0.00033344520488753915
-0.0006000811117701232
-0.0004644138680305332
-0.0003310962929390371
-0.0009504863992333412
-0.0016261703567579389
-0.0008723345817998052
-0.0014406265690922737
1.3340606528799981e-05
-0.00011202358291484416
-5.272602356853895e-05
-0.002596598584204912
-0.0006801108247600496
-0.0027108415961265564
-0.00015392013301607221
0.0005475465441122651
0.00045401015086099505
-0.0010236251400783658
-0.0021276657935231924
4.9212583689950407e-05
-9.655631583882496e-05
0.0002344076638109982
-0.0012467964552342892
-0.00016676716040819883
-0.0008632343378849328
-0.0007154836202971637
-0.0005816866760142148
-0.0007675348315387964
-0.0013326945481821895
0.0014586163451895118
0.00037003986653871834
-0.0006885508773848414
-0.0013940238859504461
-0.0012605274096131325
-0.0007922083023004234
-6.404942541848868e-05
-0.00021961935271974653
0.0008599990978837013
-0.0023041735403239727
-0.0015794355422258377
-0.0002660543832462281
0.0013729165075346828
-0.002707231091335416
-0.0005296208546496928
-0.0003523136838339269
-0.0006005511386319995
-0.00013324632891453803
9.192363359034061e-05
-0.0009794555371627212
-0.000644643441773951
0.0010132320458069444
-0.0013020127080380917
-5.119534762343392e-06
-9.174460137728602e-05
-0.00043853832175955176
-0.00027576982392929494
-0.0004715080722235143
0.0010521134827286005
0.0001640672708163038
0.0002919314138125628
6.911256059538573e-05
-0.0008486131555400789
-0.003290296532213688
-0.0015673617599532008
-0.000814169819932431
-0.00021023985755164176
-0.0027772020548582077
0.0010734043316915631
-0.0014543819706887007
-0.00021248853590805084
-0.00019534440070856363
-0.0016712347278371453
-0.0009672708692960441
-0.0017938559176400304
0.0006694011390209198
-0.00030331502784974873
-0.0007158527732826769
-0.0007999468361958861
-0.0009728179429657757
0.0005903429700993001
-0.0003538102610036731
-0.0005986445466987789
-0.0002624454500619322
-0.0013425815850496292
0.0002238191809738055
-0.0011813087621703744
0.0004675980017054826
-0.0005644473130814731
-0.0016419211169704795
-0.0015450007049366832
-0.0017397782066836953
0.0004928589332848787
0.0004323266912251711
-0.0003050105005968362
-0.0007180724642239511
-0.0006937530706636608
-0.0005504761938937008
-0.00015033880481496453
-0.0019521939102560282
-0.0007603376288898289
-0.00032105998252518475
-0.0002736921887844801
-0.000533267215359956
0.0008723172941245139
0.00032311471295543015
-0.0005797650665044785
-0.0008868181612342596
0.00036762555828318
-0.0003399827401153743
0.0005634227418340743
-0.002222891664132476
0.0009686554549261928
-1.814571260183584e-05
1.6215784853557125e-05
3.798869875026867e-05
-0.0010315655963495374
-0.001158104045316577
-0.0005410541780292988
-0.000878002610988915
-0.00017973335343413055
-0.0008568924386054277
-0.0009503713808953762
-9.397095709573478e-05
-0.0006128163659013808
-0.0009287410648539662
-0.0009291712776757777
-0.0008996435208246112
-0.0005757497274316847
-0.0009524913621135056
0.00014607729099225253
-0.0009118331363424659
-0.0008951398776844144
-0.0005519170081242919
-0.0009031668887473643
0.0003433270030654967
-0.0002333326410735026
-0.0008002280374057591
0.0006157087627798319
-0.0016825797501951456
-0.0012169169494882226
0.00015265426191035658
-0.0015893414383754134
-0.0009531643008813262
-0.00020687533833552152
0.00010113086318597198
-0.0013736143009737134
-0.0015302622923627496
-0.0009292844333685935
6.786785525036976e-05
-0.0003781943232752383
0.00043979412293992937
-0.0015965441707521677
-0.0009166598902083933
0.00010787939390866086
-0.0008916459046304226
-5.2766055887332186e-05
-0.0011580861173570156
-0.001360055641271174
-0.00014239767915569246
0.0002457873779349029
0.0005693052662536502
8.719997822481673e-06
-0.0008360215579159558
-0.0010241533163934946
-0.00034816411789506674
-0.001076406566426158
-0.001102600945159793
-0.0008745401864871383
-0.0008721895865164697
-0.00014915107749402523
-0.0013276793761178851
-1.3131991636328166e-06
0.0008559616981074214
-0.0011851171730086207
-0.00043198911589570343
-0.00020038633374497294
-0.0012233026791363955
-0.0007387541700154543
-0.0021452505607157946
-0.0005996053805574775
2.236792352050543e-05
-0.0004953439929522574
-0.0011242982000112534
-0.00025845872005447745
-0.0004808180674444884
0.0007370644016191363
-0.0004342200409155339
-0.0009311513276770711
-0.0019487938843667507
2.197209141741041e-05
-0.0003991110424976796
-0.00024002611462492496
-0.0005652447580359876
0.00011028958397218958
-0.0002971427165903151
-0.0011479519307613373
-0.002591301454231143
-0.001068429439328611
0.0013081561774015427
0.00028308245236985385
-0.0014911137986928225
0.0013777195708826184
6.58904027659446e-05
0.0017957694362848997
0.0001524948893347755
0.00047871965216472745
-0.0006932274554856122
-0.0007776604616083205
-0.0008423001854680479
0.00014022305549588054
-0.001034740125760436
-0.00046732096234336495
-0.0004299276333767921
-0.0006641484797000885
-0.0014451061142608523
-0.0021314292680472136
-0.0014438776997849345
-0.0007040234049782157
-0.0008760942728258669
-0.00040075782453641295
-0.000892266514711082
-0.0007170058670453727
-0.0021223414223641157
-0.0006979073514230549
-0.00019455316942185163
-3.953978739446029e-05
-0.0010470090201124549
-0.0017860563239082694
-0.0014882421819493175
-0.00024943880271166563
-9.489800140727311e-05
0.0003062369069084525
-0.001503126579336822
-6.335800571832806e-05
-0.0006294390186667442
0.00031384581234306097
0.00034315482480451465
-0.00014897015353199095
-0.0016589273000136018
-0.0004009476979263127
-0.0006137222517281771
0.0004115931806154549
-6.405788008123636e-05
-0.0023567206226289272
-0.0006300563691183925
-0.0019933704752475023
0.0007165167480707169
-0.00023598328698426485
-0.0006035628612153232
-0.001511709182523191
-0.00015921537124086171
0.00047513117897324264
-0.00046586504322476685
0.0008859218214638531
-0.0007472967263311148
-0.000508870230987668
-0.0013005823129788041
-0.0010574565967544913
0.0013587669236585498
6.158726137073245e-06
-0.0015285658882930875
-1.5722975149401464e-05
-0.0003153829893562943
-0.0009240249055437744
7.082381671352778e-06
-0.0019591304007917643
0.0006378794787451625
-0.0003685074334498495
-0.0004077992052771151
-0.0001129385782405734
-0.0003002252778969705
0.00032159086549654603
-0.0012401308631524444
-0.00021483445016201586
-0.0005104245501570404
0.00046594731975346804
9.010386747831944e-07
-0.000491836981382221
0.00042015849612653255
-0.0006633700104430318
-3.6104771425016224e-05
-0.0009911993984133005
-0.0005712772835977376
-0.0007559808436781168
0.00017056344950105995
