-0.019772915169596672
-0.026993634179234505
0.06216590479016304
-0.02721504122018814
-0.0476623997092247
0.05159693583846092
-0.056190889328718185
-0.05170303210616112
-0.07010392099618912
0.04935451224446297
-0.04644741863012314
-0.05474670231342316
0.03923797607421875
0.011596460826694965
0.00042931264033541083
-0.044488176703453064
0.0738617479801178
-0.03420102223753929
0.031669002026319504
0.03032686933875084
0.03230799362063408
0.03132607042789459
0.022860517725348473
0.02741963043808937
-0.06304176896810532
-0.07164335250854492
0.03912955895066261
-0.02122955210506916
-0.07782430946826935
-0.007584262173622847
-0.016824878752231598
-0.010479328222572803
0.024630501866340637
0.03670089319348335
0.004827480297535658
0.04527147859334946
-0.03791546821594238
0.061508484184741974
-0.0666837990283966
0.019847631454467773
-0.008513002656400204
-0.048652295023202896
0.015661291778087616
0.03672606125473976
-0.0283525250852108
0.020101260393857956
-0.03152303397655487
0.013299559243023396
0.05799078568816185
-0.011006275191903114
-0.03961927071213722
-0.05328172817826271
-0.041680071502923965
0.025335928425192833
0.06606656312942505
0.05927048996090889
-0.03914345055818558
0.03575867414474487
0.008289393037557602
0.04971812292933464
0.031611815094947815
-0.07481183111667633
0.07284677773714066
0.02240769937634468
-0.04941153898835182
0.06966442614793777
-0.032558705657720566
-0.02998184785246849
0.014422404579818249
-0.03476526960730553
0.059450555592775345
0.05304389446973801
-0.054500333964824677
-0.00038357125595211983
0.04073329269886017
0.011176340281963348
0.024555671960115433
0.027238313108682632
0.016165809705853462
0.050340089946985245
0.06398492306470871
0.03300491347908974
0.0002464548160787672
-0.02122901752591133
0.0027726588305085897
0.01975364238023758
0.026243053376674652
0.03192149102687836
0.024324527010321617
-0.004779359325766563
-0.001272349851205945
-0.06413853168487549
-0.008174595423042774
0.049353085458278656
0.02252870984375477
0.039568860083818436
0.0048319571651518345
-0.06551627069711685
-0.05932271108031273
0.026848524808883667
0.041969336569309235
-0.0660439133644104
0.014513121917843819
0.04880251735448837
0.042212288826704025
0.06783680617809296
0.0021949505899101496
0.06476934254169464
-0.07024426758289337
-0.03584602475166321
0.055725760757923126
-0.016293596476316452
-0.0016095293685793877
-0.059670254588127136
0.057336241006851196
-0.03860657662153244
0.03407776355743408
-0.026206113398075104
0.05629855766892433
0.046351030468940735
0.008231889456510544
0.04724916070699692
-0.0475747250020504
-0.02600512094795704
-0.019928697496652603
-0.04971802979707718
0.0633959174156189
-0.031149134039878845
-0.01863969676196575
0.027036014944314957
0.04270799085497856
-0.011512837372720242
-0.004712982103228569
0.03485545143485069
0.02248208597302437
-0.022614335641264915
0.055998269468545914
-0.044346943497657776
0.017987774685025215
-0.03457501903176308
0.007330230437219143
0.04328170418739319
-0.04639850929379463
-0.01959560438990593
0.04802620783448219
-0.06837937980890274
-0.009854931384325027
0.000627348548732698
0.03530050814151764
-0.04925594851374626
0.005657599773257971
-0.0024311942979693413
-0.05478614196181297
-0.07229696959257126
0.04987604543566704
-0.03708609566092491
-0.052375223487615585
0.06523659825325012
0.0352228619158268
-0.05528080090880394
-0.02490878477692604
-0.0003017665585502982
0.04641798138618469
-0.05664772912859917
-0.01872132159769535
-0.02481677196919918
-0.06218951195478439
0.06627725809812546
0.06636299192905426
0.05517377331852913
-0.055164799094200134
0.01387204509228468
0.007699666079133749
0.04103934392333031
0.05852403864264488
-0.06289814412593842
0.039993174374103546
-0.004069601185619831
-0.011908290907740593
-0.05714776739478111
0.03769921138882637
-0.05398004502058029
0.01277494803071022
0.05565841868519783
-0.019263602793216705
0.02321564592421055
0.056300584226846695
0.03995959088206291
-0.026354622095823288
0.0627158060669899
0.05363182723522186
-0.01524320151656866
0.04835362359881401
-0.014078463427722454
-0.023209108039736748
0.0023139859549701214
-0.0163581445813179
-0.02959313988685608
-0.03279956057667732
0.04502670094370842
-0.03973439708352089
-0.05869752913713455
-0.012213329784572124
0.05565465986728668
-0.009800409898161888
0.051682110875844955
0.002789555350318551
0.009168327786028385
0.004919386934489012
0.028322745114564896
-0.05882710590958595
-0.03520037978887558
0.0734151154756546
0.02505481243133545
-0.044352855533361435
-0.038930609822273254
0.008340030908584595
0.03708028793334961
0.039945948868989944
-0.030706344172358513
-0.0014534847578033805
-0.05028092488646507
0.043674785643815994
0.015764979645609856
0.05644247680902481
-0.04509173706173897
0.046661585569381714
0.04070921614766121
-0.031082667410373688
0.028938692063093185
0.05284961685538292
0.03827645629644394
-0.06826258450746536
-0.0635860487818718
-0.0462484173476696
0.06423787027597427
0.07552556693553925
0.07608523219823837
0.034792207181453705
-0.010390326380729675
0.07841075211763382
-0.004905105568468571
-0.006108067464083433
-0.07072335481643677
0.01634703204035759
0.01906557008624077
-0.04275372996926308
0.048291970044374466
-0.0040668039582669735
-0.05103616788983345
0.0069347405806183815
-0.022837447002530098
-0.010651418939232826
-0.003786219982430339
-0.0573069304227829
0.05427023023366928
0.06542447209358215
-0.07311204075813293
-0.042423781007528305
0.057430628687143326
-0.02020971104502678
0.04610421881079674
0.017416557297110558
-0.06321507692337036
-0.05811850354075432
-0.012992801144719124
0.04722214862704277
0.058542005717754364
0.0664982870221138
-0.015501766465604305
-0.023434922099113464
3.2064686820376664e-05
0.005321148317307234
0.016327504068613052
-0.008080290630459785
-0.03668441250920296
-0.05338326469063759
-0.050997838377952576
-0.06509804725646973
0.016684886068105698
0.03261997550725937
0.06491375714540482
0.06160276383161545
0.02370406500995159
0.026336533948779106
0.045927856117486954
-0.039770860224962234
-0.00784771516919136
0.014883358962833881
-0.04267052933573723
0.056581877171993256
0.03371470049023628
-0.06544385105371475
-0.0536208376288414
-0.04424978047609329
0.008464529179036617
-0.036050647497177124
-0.06438511610031128
0.00434468686580658
0.004286469426006079
-0.05361724644899368
0.05852854624390602
0.018434463068842888
0.005516220815479755
0.01940888538956642
-0.07529962807893753
0.06857027113437653
-0.01570015773177147
0.00443328358232975
-0.0006805384764447808
-0.008932093158364296
-0.043179649859666824
0.03186771273612976
-0.04983244463801384
0.04902501776814461
0.031885240226984024
-0.01120077259838581
0.005169648677110672
0.05302185192704201
0.018925854936242104
0.03235878795385361
-0.020789531990885735
-0.04138270020484924
-0.04237629473209381
0.024470677599310875
-0.06455198675394058
-0.0039001721888780594
0.0051835752092301846
0.03894328325986862
0.05094141513109207
0.05439412221312523
0.029611466452479362
0.06390880793333054
0.050093382596969604
-0.06671864539384842
-0.06711944192647934
0.06131424754858017
0.0019734003581106663
0.011773863807320595
-0.022195318713784218
-0.011164680123329163
-0.014970778487622738
-0.054994869977235794
0.05622444674372673
-0.005663588177412748
0.025312846526503563
-0.03500967100262642
-0.047152768820524216
0.03734886646270752
-0.058474987745285034
-0.07579274475574493
0.046461109071969986
0.03998185321688652
-0.012615556828677654
-0.03269621357321739
-0.033683087676763535
-0.0659930482506752
-0.07166045159101486
0.050315696746110916
-0.01736544817686081
-0.03812941908836365
0.030924975872039795
-0.03224689140915871
0.019297190010547638
0.031372103840112686
-0.0652652159333229
0.06398200988769531
-0.015919052064418793
-0.0423058457672596
-0.040022995322942734
-0.05822182819247246
-0.03643549606204033
0.007149579934775829
0.018304429948329926
-0.0025677650701254606
0.0027910112403333187
0.01990821212530136
-0.025984924286603928
0.007380656898021698
0.05256184935569763
0.05414145439863205
0.0427677296102047
-0.031292226165533066
-0.054661694914102554
0.009967328980565071
0.02162906527519226
-0.028243888169527054
0.07860704511404037
0.0008068699389696121
0.053316228091716766
-0.058745384216308594
0.035540614277124405
-0.0027226635720580816
0.06034991517663002
-0.02170095220208168
0.05705105885863304
0.06535480171442032
0.005180508363991976
-0.03407606855034828
0.0259112361818552
0.06947865337133408
0.06541246920824051
0.023861544206738472
-0.009520740248262882
-0.05508023872971535
-0.03714829683303833
0.06444135308265686
-0.0023424860555678606
0.03393857926130295
-0.0032803404610604048
-0.03097706101834774
0.053724780678749084
0.040683355182409286
-0.0018822138663381338
-0.01890392415225506
-0.032141733914613724
0.044631216675043106
-0.03387649729847908
-0.031895026564598083
-0.03518367558717728
-0.06495072692632675
0.02074936404824257
0.050733841955661774
0.06561800092458725
-0.041903056204319
0.04400612413883209
0.05904306098818779
0.044471532106399536
0.015073712915182114
-0.05745362117886543
0.057049382477998734
-0.06925955414772034
0.03273750841617584
0.021164441481232643
-0.029750291258096695
0.041802603751420975
0.04221802577376366
0.014120162464678288
0.006708151660859585
0.02849826216697693
-0.06802544742822647
-0.006850570905953646
-0.037784185260534286
0.047398168593645096
-0.051268186420202255
0.02547544054687023
0.006033788900822401
-0.016951361671090126
-0.043557364493608475
0.03111930750310421
0.05743701010942459
-0.03132152929902077
-0.001704610069282353
-0.02355152554810047
-0.04399305582046509
0.0469718761742115
-0.011625451035797596
-0.018685856834053993
0.042790308594703674
0.03194691613316536
-0.025142716243863106
-0.07181574404239655
-0.004366591572761536
-0.07200875133275986
0.04947793856263161
0.06344034522771835
-0.025268591940402985
0.06596392393112183
0.006530581042170525
-0.03597448393702507
0.01509697362780571
-0.03131360933184624
0.005554309114813805
0.031469859182834625
0.06658139824867249
0.010014330968260765
-0.04154962673783302
0.0024653314612805843
0.019472364336252213
0.07033645361661911
-0.02164173498749733
-0.060431160032749176
-0.027704548090696335
-0.03364071622490883
0.04108014330267906
0.03283444419503212
0.01697826385498047
-0.00935695506632328
-0.026569902896881104
-0.021401260048151016
-0.039782892912626266
0.0038692436646670103
0.028899379074573517
0.026059677824378014
-0.0499795526266098
-0.05964251980185509
0.06073431298136711
-0.03619818761944771
-0.06679093092679977
-0.05919021740555763
0.027150781825184822
0.057613443583250046
0.05173874273896217
0.03859720006585121
0.0036495206877589226
0.041185565292835236
-0.01918896660208702
0.038834284991025925
-0.048095837235450745
0.012088918127119541
0.024725880473852158
0.02520998753607273
-0.059854656457901
-0.051027797162532806
-0.030937034636735916
-0.06235899031162262
-0.031920526176691055
-0.014150896109640598
0.07950247824192047
0.05343834310770035
0.016331955790519714
0.06805090606212616
0.054918885231018066
0.02311774529516697
-0.005259683355689049
0.04722188040614128
-0.016164269298315048
-0.0009132892591878772
-0.01656145043671131
-0.021605949848890305
-0.06169707700610161
0.03378927335143089
0.04329245164990425
-0.044463131576776505
-0.029069995507597923
0.010829634964466095
-0.020563500002026558
-0.05704135075211525
0.046612001955509186
0.05373452231287956
-0.056724514812231064
-0.034220561385154724
-0.04853292554616928
0.03491608798503876
-0.05294368788599968
-0.013101402670145035
-0.049765512347221375
-0.04471302404999733
-0.02879934571683407
0.023235781118273735
-0.06946644932031631
0.03644679859280586
0.07112381607294083
0.004537379369139671
-4.190464460407384e-05
-0.013272810727357864
-0.01410321332514286
0.06307157129049301
-0.04513847827911377
0.02685421332716942
-0.0020029034931212664
-0.05348261073231697
0.0009809789480641484
-0.017004726454615593
0.010184723883867264
0.05136067420244217
-0.054925136268138885
-0.029650524258613586
-0.021213587373495102
0.01568387635052204
0.04506155103445053
0.038422953337430954
0.0564107783138752
-0.05000106245279312
-0.02030044049024582
0.00019640479877125472
-0.025630490854382515
-0.006417121272534132
-0.04422450065612793
-0.037619102746248245
0.027298839762806892
-0.006463334895670414
0.01700938679277897
0.03808588162064552
-0.04592818021774292
-0.021366843953728676
0.010918252170085907
0.06927434355020523
-0.05830434337258339
0.02502797357738018
-0.03694054111838341
0.04506687447428703
0.04575841873884201
0.06606614589691162
-0.0674666166305542
0.058704253286123276
0.06981481611728668
-0.03573400527238846
-0.06434939801692963
0.058664098381996155
-0.030761906877160072
0.015655480325222015
0.028423670679330826
0.05229388549923897
0.024143170565366745
-0.01133079081773758
0.05234762281179428
0.055525608360767365
0.03669600188732147
0.0383937694132328
0.035919614136219025
0.06314224004745483
-0.00787511095404625
-0.001131473109126091
0.020194003358483315
0.06401320546865463
0.004195490851998329
0.03986054286360741
0.0589752234518528
0.01009830366820097
-0.029069704934954643
-0.03116658702492714
0.05582800507545471
-0.006537636276334524
-0.02826317958533764
0.022475803270936012
0.0622592456638813
-0.05637471005320549
-0.06126103922724724
0.057699453085660934
0.034887079149484634
-0.06241847574710846
-0.03079262562096119
-0.06364400684833527
0.04531536251306534
0.023166442289948463
-0.03480411320924759
-0.0007289797067642212
0.03251774236559868
0.020798463374376297
-0.05185435339808464
-0.03996748849749565
0.06433878093957901
0.0010359053267166018
-0.008179553784430027
-0.06060538440942764
0.056451987475156784
0.01222950965166092
0.0658852681517601
0.03584697097539902
-0.06726957112550735
0.020271142944693565
-0.049825213849544525
0.029236461967229843
0.017014317214488983
-0.04245529696345329
-0.0536954328417778
-0.02485949732363224
0.014752071350812912
0.00543613824993372
-0.04028842970728874
0.061217885464429855
-0.0019946296233683825
0.006095790769904852
-0.054380789399147034
-0.05064757168292999
-0.062096007168293
-0.058731723576784134
0.03305894136428833
0.02991698496043682
0.05268252268433571
0.03403748944401741
0.012688773684203625
0.057895127683877945
0.017681347206234932
0.05884403735399246
0.024576589465141296
-0.07305823266506195
0.06890866160392761
0.05956512317061424
0.059535227715969086
-0.019296439364552498
-0.05488166958093643
-0.05571215972304344
0.04273553937673569
0.002892974531278014
-0.05819837003946304
0.04118245840072632
0.008033189922571182
0.020998788997530937
-0.06901207566261292
0.06961863487958908
0.003240794874727726
-0.0038979733362793922
0.029490560293197632
-0.023241227492690086
0.003495343029499054
-0.004941444378346205
-0.06039325147867203
0.0195012129843235
0.05479829013347626
-0.018909331411123276
0.037303514778614044
-0.011978235095739365
-0.004220993258059025
0.0005232726689428091
0.05920259654521942
-0.03399214893579483
0.053058359771966934
-0.027815094217658043
-0.0023782700300216675
-0.0623047798871994
-0.0022886383812874556
0.07588326185941696
0.04873841628432274
-0.03192593529820442
-0.051842063665390015
-0.03568810224533081
-0.060499321669340134
0.0491715632379055
0.0361606739461422
0.05947517603635788
-0.010323470458388329
0.030355988070368767
0.049513623118400574
0.0301591157913208
-0.014001084491610527
0.06892964243888855
0.02880743145942688
0.03315560892224312
-0.001142684486694634
-0.02218528836965561
0.03874218836426735
-0.07112486660480499
0.02407192811369896
-0.024053065106272697
-0.024060558527708054
0.06913800537586212
-0.04657929763197899
-0.033593833446502686
0.04186583682894707
-0.009325060062110424
0.028304969891905785
-0.07286149263381958
-0.03447574004530907
-0.019691193476319313
-0.06905262172222137
-0.021599503234028816
0.046014972031116486
-0.009284401312470436
0.05184637010097504
0.0009214452584274113
0.013263961300253868
-0.011217270977795124
-0.06937511265277863
0.02297060564160347
0.02991649881005287
-0.033459633588790894
-0.030986258760094643
-0.012204407714307308
-0.05997729301452637
0.040465135127305984
-0.015053804032504559
-0.07328774034976959
-0.05195792391896248
0.04795035719871521
-0.015526819974184036
0.01283277478069067
-0.051907919347286224
0.04793129861354828
0.008399102836847305
-0.040678516030311584
-0.021851342171430588
-0.023033717647194862
0.051939453929662704
-0.00309199676848948
0.07367394864559174
0.003270789049565792
0.0034349183551967144
0.02932349592447281
0.03163358196616173
-0.050521913915872574
-0.05878565460443497
0.024382494390010834
0.03842346742749214
-0.023342948406934738
0.056939683854579926
-0.017196226865053177
0.026040920987725258
0.0029576821252703667
0.020605210214853287
0.00559197599068284
0.054998286068439484
0.0688973069190979
-0.011944038793444633
-0.06107981130480766
0.01222708448767662
0.04657239839434624
-0.07354819029569626
0.03584463521838188
-0.04499005526304245
0.014405888505280018
0.020444000139832497
0.06924600899219513
0.04193885251879692
0.017039747908711433
0.009003430604934692
0.058989159762859344
0.04546145722270012
-0.02610105276107788
-0.03667230159044266
-0.046684376895427704
0.028914615511894226
0.06905219703912735
-0.03284147009253502
0.07279779016971588
0.017351830378174782
0.03042505495250225
-0.050629764795303345
-0.07249182462692261
0.05463214963674545
0.025014977902173996
-0.011083475314080715
0.05940433219075203
-0.0006904451292939484
0.011861968785524368
-0.010728980414569378
-0.03179667517542839
0.01857561059296131
0.03791012242436409
-0.03652212768793106
-0.05694088339805603
0.004486770369112492
-0.05935946851968765
-0.004364192485809326
0.00829500425606966
0.029981158673763275
0.05840710178017616
0.03366363048553467
0.0624002143740654
0.004355721175670624
0.0009347375598736107
0.06228184327483177
-0.05686906352639198
-0.024009138345718384
-0.0521896593272686
0.04443833604454994
0.008684785105288029
0.04311328008770943
0.038505785167217255
0.009895500726997852
0.03493908792734146
0.010576969012618065
-0.028287677094340324
0.06432104855775833
-0.05304565653204918
-0.010678809136152267
0.05357958748936653
0.06262589246034622
0.048476703464984894
0.019997328519821167
-0.026575332507491112
-0.02318296954035759
-0.003201127052307129
-0.011260289698839188
0.07122000306844711
0.026329774409532547
-0.051201943308115005
-0.06052926927804947
-0.03140924125909805
-0.0448041595518589
0.05704757198691368
0.06601447612047195
0.06158929690718651
0.011259638704359531
-0.0038523906841874123
-0.06293277442455292
-0.05144956707954407
-0.04111187905073166
0.04733726382255554
0.039689429104328156
0.04729185625910759
0.056017979979515076
0.058390162885189056
0.038666751235723495
0.004682949278503656
0.06390831619501114
0.041205473244190216
0.05856997147202492
-0.01990082859992981
-0.008423575200140476
-0.03404824808239937
0.009290437214076519
0.06341492384672165
0.06328843533992767
0.05472138524055481
0.0673457682132721
0.05656405910849571
0.0550425685942173
-0.03632162883877754
-0.05165134370326996
0.02540990337729454
-0.06383874267339706
0.027307268232107162
-0.025687694549560547
-0.07046863436698914
0.011897945776581764
-0.0661478340625763
-0.06712786108255386
-0.033413115888834
-0.05582739785313606
0.05427241697907448
0.06119547039270401
0.0740438848733902
0.003076255088672042
0.05445949733257294
0.0074637047946453094
-0.02289447747170925
0.07034733891487122
-0.00718884589150548
-0.021471623331308365
-0.05825958400964737
0.043287493288517
0.016014300286769867
0.025533095002174377
-0.06537158787250519
0.027502529323101044
-0.0410199873149395
-0.051636163145303726
-0.0403667613863945
-0.04944268614053726
-0.06345029920339584
-0.010124748572707176
0.02096913382411003
-0.07214901596307755
0.003573097288608551
-0.023701997473835945
-0.06161680817604065
0.005991644226014614
0.012265644967556
0.05216117948293686
0.034355975687503815
-0.024645090103149414
-0.011144713498651981
-0.032175321131944656
0.06730104982852936
-0.03934045135974884
-0.045852795243263245
0.03851078450679779
-0.0003748911549337208
0.00034668142325244844
-0.007064398843795061
0.002264065435156226
0.021741682663559914
-0.06270252168178558
-0.049341704696416855
0.06571229547262192
-0.02484738454222679
-0.062193263322114944
-0.03127838671207428
0.009829347021877766
-0.05679265782237053
-0.038243383169174194
0.03730807825922966
0.0031539767514914274
0.030146751552820206
0.07299204915761948
-0.0028526613023132086
0.05417187139391899
0.06890023499727249
-0.04706332087516785
0.07017257809638977
0.0561518557369709
0.029569415375590324
0.004030847921967506
0.05672076717019081
-0.062070395797491074
0.07305733114480972
0.011296371929347515
0.001961295958608389
0.009864939376711845
0.06307125836610794
0.04389107972383499
-0.06029050052165985
0.030900191515684128
-0.007582958322018385
0.020490340888500214
0.04359392076730728
0.04920525476336479
-0.017688512802124023
0.014789675362408161
-0.0680234506726265
-0.03716633468866348
0.07015284895896912
-0.028288546949625015
0.022738613188266754
0.0455109067261219
0.06531371921300888
0.008064514957368374
0.06579757481813431
0.035790666937828064
0.04905969649553299
0.062108635902404785
0.03944828361272812
-0.02251458168029785
0.01954740099608898
-0.012202158570289612
0.03577510267496109
-0.031779102981090546
-0.045391712337732315
-0.05356040224432945
-0.07106385380029678
0.011787009425461292
-0.05272353067994118
-0.04626382514834404
-0.005361808929592371
0.06591211259365082
-0.009171802550554276
0.03547614812850952
0.007946543395519257
-0.06623244285583496
0.034395843744277954
-0.015534866601228714
-0.054777923971414566
0.05648571997880936
-0.06671790033578873
-0.046076808124780655
-0.013469273224473
0.05683713033795357
0.0717952772974968
0.052662380039691925
0.008904932998120785
-0.05428545922040939
-0.003963300958275795
-0.0009998870082199574
0.011407912708818913
-0.0411498062312603
-0.029190728440880775
-0.03526235744357109
-0.04650581628084183
0.03896026313304901
0.02171599492430687
-0.002808977384120226
-0.05424313619732857
0.023486265912652016
-0.06116323545575142
-0.0003979152243118733
0.004239855799823999
-0.06343121081590652
0.019274909049272537
-0.06338119506835938
-0.06397319585084915
-0.06569965183734894
-0.02419751137495041
0.060925643891096115
0.049189966171979904
-0.045102935284376144
0.017296649515628815
0.0659816563129425
0.02447699010372162
-0.0022926521487534046
-0.011191206984221935
-0.013006363064050674
0.00012800168769899756
-0.0584992915391922
-0.058914363384246826
0.019825758412480354
-0.011675038374960423
-0.06492826342582703
-0.01212280336767435
0.0026379800401628017
-0.07470580190420151
-0.018536057323217392
0.05993688851594925
0.058455273509025574
0.037838298827409744
-0.004643717780709267
0.004980499390512705
0.011250399984419346
-0.01859428361058235
-0.025452885776758194
0.011342178098857403
-0.044718559831380844
0.05301763489842415
0.051661524921655655
-0.0683283805847168
0.06379765272140503
-0.006467824336141348
0.008711963891983032
-0.03210201486945152
0.03780541196465492
-0.018426191061735153
-0.052454933524131775
0.02677627094089985
0.02150135114789009
-0.026943763718008995
0.01442303229123354
0.0450296476483345
-0.0372842438519001
-0.0414048470556736
0.01236514188349247
0.023099781945347786
-0.03328109160065651
0.05794845521450043
0.03159625455737114
0.04686839133501053
0.01777309738099575
0.019869796931743622
-0.0021136312279850245
-0.023575371131300926
0.030630173161625862
0.02695465087890625
-0.0013895888114348054
-0.017595436424016953
0.06203259900212288
0.056589525192976
-0.00015137794252950698
-0.06430154293775558
0.06737346947193146
-0.051074881106615067
0.06377328187227249
0.04616309702396393
-0.05512434244155884
0.030058465898036957
-0.00023143495491240174
-0.04737473279237747
-0.061864420771598816
0.05975193902850151
-0.03488621488213539
0.06705205142498016
-0.040264278650283813
-0.032146625220775604
-0.015617952682077885
-0.02312997542321682
-0.047176823019981384
0.06299841403961182
0.0012881162110716105
0.03333080932497978
-0.072135791182518
-0.06773294508457184
-0.0281472597271204
0.04237880930304527
0.02181742526590824
0.01912936195731163
-0.004220956936478615
0.012613040395081043
-0.0022984982933849096
-0.009254809468984604
-0.03624563291668892
0.04714767262339592
0.059525784105062485
0.02601754479110241
0.04928518086671829
-0.0682939738035202
-0.03884875029325485
-0.03980031982064247
0.01950480043888092
0.009101154282689095
-0.004980887286365032
-0.05582951009273529
-0.01770542562007904
-0.05215864256024361
-0.05727709084749222
0.020396385341882706
-0.05314045771956444
0.017865490168333054
-0.020061099901795387
-0.005647396668791771
0.028513111174106598
0.03506912291049957
-0.03413824364542961
-0.021155325695872307
-0.07443884760141373
-0.03315369039773941
-0.06736528873443604
0.015569130890071392
-0.03594866022467613
-0.03139493241906166
-0.029016394168138504
-0.056358497589826584
0.020111028105020523
-0.004974487237632275
0.017712993547320366
-0.0030626365914940834
0.031658440828323364
0.035421811044216156
-0.035655513405799866
-0.05006609112024307
0.006985184270888567
0.04783059284090996
0.037209056317806244
-0.06093650311231613
0.0370621420443058
0.022874968126416206
-0.03750036656856537
-0.05758937448263168
0.024762338027358055
0.013099280185997486
0.05766700953245163
0.06954260170459747
0.02329431101679802
0.039276886731386185
0.02802843414247036
0.007285160478204489
0.041692525148391724
-0.0071395146660506725
0.0437050424516201
-0.05114229395985603
0.023673683404922485
0.053367190062999725
-0.013499710708856583
0.037950124591588974
0.02829679101705551
0.03588934242725372
-0.03069518879055977
-0.005978712812066078
0.025489840656518936
0.011346742510795593
0.007026525214314461
-0.0076026227325201035
0.010206811130046844
-0.011471085250377655
0.01564595103263855
0.06942606717348099
0.0014058578526601195
-0.03095196932554245
-0.058441415429115295
0.025401707738637924
0.029466398060321808
-0.0032113606575876474
0.004537784960120916
-0.053586721420288086
0.006791844964027405
0.05584315210580826
0.05045267939567566
-0.026012016460299492
0.013374722562730312
-0.06551121175289154
-0.026530614122748375
0.04696952551603317
-0.0015870803035795689
-0.01642097346484661
0.05880264937877655
0.05676804482936859
0.05895303189754486
-0.01678795926272869
-0.037869490683078766
-0.05495438724756241
0.0529121495783329
0.06756632030010223
-0.0009995755972340703
0.04809601232409477
0.07768411189317703
-0.0011668045772239566
-0.011933835223317146
-0.016926249489188194
0.028183143585920334
0.0427185520529747
0.03549414873123169
0.03488566353917122
0.0643330067396164
0.026468966156244278
0.03318491205573082
-0.05659405142068863
-0.020493535324931145
-0.03940649703145027
0.028030525892972946
-0.016339018940925598
-0.0690954178571701
0.04497816041111946
-0.0024347056169062853
0.07313086837530136
0.023946868255734444
-0.006392098963260651
-0.0656430646777153
0.019900774583220482
0.014216767624020576
-0.03236563876271248
-0.020211398601531982
0.05445054918527603
-0.0006347835878841579
0.03908788040280342
-0.025385361164808273
0.00700042862445116
-0.018564995378255844
-0.06583552807569504
0.024634916335344315
0.013244900852441788
0.06661264598369598
-0.02425546385347843
-0.05331913381814957
0.005471243057399988
0.05020667240023613
0.02928103879094124
0.06199975684285164
0.011459133587777615
-0.03239870443940163
0.023141561076045036
0.04407782107591629
0.06627914309501648
0.05665311962366104
0.046313054859638214
0.04387858882546425
0.017672419548034668
0.01689295843243599
-0.058446142822504044
0.04374697059392929
0.007354020606726408
-0.010785159654915333
0.05843779817223549
-0.028287410736083984
0.028155051171779633
-0.05884931609034538
0.025845009833574295
0.07116083800792694
-0.04240712150931358
-0.04950295761227608
0.06037311255931854
-0.005817388650029898
-0.01683560572564602
0.01832757703959942
-0.04744021221995354
-0.013402796350419521
-0.013765506446361542
-0.012222048826515675
0.03208901360630989
-0.06536585837602615
-0.06783841550350189
0.06354842334985733
-0.07222855091094971
-0.001476076664403081
0.02547350339591503
0.007870999164879322
-0.02874433621764183
-0.06374351680278778
0.012506147846579552
0.028074460104107857
0.03750685229897499
-0.01151325087994337
0.059154145419597626
0.04443446919322014
0.0611143596470356
-0.06044899299740791
-0.013043827377259731
-0.01183557789772749
-0.013534698635339737
-0.02555820159614086
-0.03653429076075554
-0.05868622288107872
0.016109738498926163
0.004989563021808863
0.0572940893471241
-0.06706821173429489
0.02957400120794773
-0.032923098653554916
0.029935240745544434
-0.06485844403505325
0.03863392397761345
0.05043763294816017
0.0021655443124473095
-0.010324032977223396
0.022056076675653458
-0.018044281750917435
-0.02196575701236725
-0.020930113270878792
-0.06135452166199684
0.057874541729688644
-0.051597125828266144
-0.03914009407162666
0.01964142732322216
-0.004375977907329798
-0.05744478851556778
0.04968789592385292
-0.036240849643945694
-0.07279986143112183
0.009280975908041
-0.05581783130764961
0.0017968188039958477
0.046672165393829346
0.06945838779211044
-0.04190319404006004
-0.03948192298412323
0.0576988086104393
-0.06405564397573471
0.02396848239004612
-0.025755299255251884
0.03381315618753433
0.04947802796959877
0.011775761842727661
-0.042316947132349014
-0.03818231448531151
0.023487770929932594
-0.011893953196704388
-0.011455606669187546
0.07747969776391983
-0.04514731839299202
0.0291160736232996
-0.06531647592782974
0.004867935087531805
-0.055742960423231125
0.041338000446558
0.04405030608177185
0.01752544939517975
-0.06828738003969193
0.02166512794792652
-0.013103107921779156
0.05657472461462021
0.02951345406472683
-0.04833851754665375
0.03470543771982193
-0.05633595958352089
0.010018495842814445
0.05924699455499649
0.01604335382580757
0.021307965740561485
0.018774140626192093
0.0012997426092624664
-0.058791182935237885
0.027219627052545547
0.061155326664447784
-0.06226320192217827
-0.004518148489296436
0.023377278819680214
0.012195635586977005
0.05578887090086937
-0.03463232144713402
0.07206956297159195
-0.018293622881174088
-0.04823143035173416
-0.03345322236418724
-0.05142991244792938
0.03793909400701523
0.05153391510248184
-0.0013087409315630794
-0.06561343371868134
-0.004536675289273262
-0.04815911501646042
0.06235752999782562
-0.06378048658370972
-0.06434772163629532
-0.018396414816379547
0.059836339205503464
-0.0720655769109726
0.04163762181997299
0.026727911084890366
0.013022714294493198
-0.011712939478456974
-0.026120608672499657
-0.013840227387845516
0.021245168522000313
-0.061940550804138184
-0.02828422375023365
-0.051504526287317276
-0.0027401570696383715
-0.00034301006235182285
0.06656023859977722
0.03815075755119324
0.050106391310691833
0.01941634714603424
0.06130674108862877
0.0005595336551778018
0.017979806289076805
0.017027083784341812
-0.014300664886832237
0.049765393137931824
-0.05839390680193901
0.045469556003808975
0.07010053098201752
0.07056733220815659
-0.02569323033094406
-0.060503412038087845
0.03832027316093445
-0.06663786619901657
-0.05767469480633736
-0.0202495064586401
-0.06773341447114944
-0.010324281640350819
-0.03899765759706497
0.016473056748509407
0.0636843666434288
-0.04438316449522972
0.05342541262507439
-0.05619048699736595
0.03506949543952942
-0.038326915353536606
0.0187195036560297
-0.05491594225168228
0.014988870359957218
-0.012206215411424637
-0.005416590254753828
-0.004431978799402714
-0.050298597663640976
0.04838461056351662
-0.06327588111162186
-0.03336068615317345
-0.04255598410964012
0.01917889341711998
0.018396446481347084
-0.03904101997613907
0.03661712259054184
-0.0415298230946064
0.017655208706855774
0.04881386086344719
-0.0058180489577353
-0.028055252507328987
-0.03943198546767235
-0.04479512199759483
0.06526859849691391
0.057469941675662994
0.04608461633324623
-0.06726688891649246
0.01759141869843006
-0.010549559257924557
-0.030491501092910767
0.0010358798317611217
0.05256161093711853
0.014059663750231266
-0.031255804002285004
0.06266375631093979
-0.02944120392203331
-0.03472454473376274
0.03575406223535538
0.04386041685938835
-0.015123766846954823
-0.006820612587034702
-0.008534682914614677
0.007045126520097256
-0.052826669067144394
-0.004350173752754927
0.05317538231611252
-0.06671695411205292
0.008792745880782604
-0.015825258567929268
0.05475878342986107
0.056566037237644196
0.031390950083732605
-0.012041178531944752
-0.0003411981160752475
-0.051640789955854416
0.04883318394422531
0.010650132782757282
-0.006233139894902706
-0.017672203481197357
0.014910205267369747
0.038769111037254333
-0.04911862686276436
-0.0067168292589485645
-0.009200600907206535
0.017730075865983963
0.04709409922361374
-0.05316130816936493
-0.057366639375686646
0.010156890377402306
0.06021273508667946
0.0023575760424137115
-0.03375870734453201
-0.003666599979624152
-0.05569371208548546
0.05661778524518013
0.06081157550215721
0.051066622138023376
-0.01779685541987419
0.05751969665288925
0.0019194417400285602
-0.07131180912256241
-0.056505702435970306
-0.012770971283316612
0.053300485014915466
0.014734279364347458
0.03103954717516899
-0.039746418595314026
0.0005882303812541068
-0.02893507108092308
0.04914480820298195
-0.03223400563001633
-0.02553817443549633
0.003955958876758814
0.016928669065237045
-0.04372890293598175
0.034236565232276917
0.06380438804626465
-0.046178288757801056
-0.03966981917619705
-0.07259955257177353
-0.03757844865322113
-0.0035533204209059477
-0.03866168484091759
0.07678154855966568
0.037329062819480896
0.012755158357322216
-0.03228676691651344
-0.05431066080927849
-0.007570706773549318
0.04496373236179352
-0.022700127214193344
-0.060605134814977646
-0.04075189679861069
0.08161115646362305
-0.01060271356254816
0.06842578947544098
0.011843150481581688
0.0853121429681778
-0.048352885991334915
0.005483049433678389
0.047553133219480515
0.06565124541521072
0.015257115475833416
0.02345619723200798
-0.04810365289449692
-0.045780010521411896
-0.01118756365031004
-0.059635717421770096
0.024249732494354248
-0.044015515595674515
0.05788954719901085
0.04182641953229904
-0.02669071964919567
-0.02975817583501339
-0.043027717620134354
-0.019382202997803688
0.0007215567748062313
-0.02667626179754734
0.05275793373584747
0.02783968113362789
0.02247927524149418
0.043844785541296005
0.02953481674194336
-0.006686888635158539
-0.0001391684781992808
0.04696405306458473
-0.058840956538915634
0.06339477002620697
-0.022313915193080902
0.030602892860770226
-0.05848823860287666
0.059164244681596756
-0.037908151745796204
-0.02959413453936577
-0.03206725791096687
-0.001234406023286283
0.015244505368173122
0.03152121603488922
0.053065668791532516
0.004578500520437956
0.029252544045448303
-0.04903623089194298
-0.01833915151655674
0.03843828663229942
-0.04263394698500633
0.03437352180480957
0.07099603861570358
0.062206052243709564
0.02047954872250557
0.0013734406093135476
0.02020396664738655
-0.06392459571361542
-0.03664720803499222
0.03124046139419079
0.05366146191954613
-0.04457545652985573
0.029145436361432076
-0.060157231986522675
-0.02170105092227459
0.019246036186814308
0.04669882729649544
-0.005538949277251959
-0.032184574753046036
-0.02881688065826893
-0.02272878587245941
0.001667182077653706
-0.01034537423402071
0.019722962751984596
0.05807550251483917
-0.016590958461165428
-0.0005948935868218541
-0.011918359436094761
0.04471929743885994
0.051025860011577606
-0.036424845457077026
-0.010225660167634487
0.014973320066928864
-0.0003887417260557413
-0.05791947618126869
-0.015076241455972195
0.036931782960891724
-0.04472098872065544
0.05000625178217888
-0.028290390968322754
0.06992710381746292
0.011997845955193043
0.06969724595546722
0.0675814151763916
-0.035055167973041534
-0.05355529487133026
0.01345229521393776
-0.03276001289486885
0.06979577988386154
-0.027111902832984924
-0.05314096808433533
-0.002542818896472454
-0.044864289462566376
0.040473949164152145
0.021708503365516663
-0.05444175750017166
0.005450601689517498
0.040237151086330414
-0.05838051065802574
0.025307035073637962
-0.05430826544761658
0.07283654063940048
0.0386647991836071
0.021206296980381012
0.024431388825178146
-0.035784076899290085
-0.053528107702732086
-0.023799877613782883
-0.05461525544524193
0.05217430740594864
0.056327033787965775
-0.04573483765125275
-0.0013911017449572682
-0.01376243308186531
-0.07669174671173096
-0.030851801857352257
-0.059995897114276886
0.05012469366192818
0.031177207827568054
-0.07576173543930054
-0.024264251813292503
0.044637762010097504
0.05068851262331009
-0.0615185983479023
0.033790405839681625
0.03461165726184845
0.011791683733463287
-0.02944626286625862
0.03506355732679367
-0.0646846815943718
-0.021003857254981995
-0.006467418745160103
0.021684104576706886
-0.060364652425050735
0.06204618513584137
-0.002599064726382494
0.059232715517282486
-0.015193291008472443
-0.056944943964481354
0.05513722449541092
0.04426903277635574
-0.004428630694746971
-0.030463293194770813
0.007815132848918438
0.05065406858921051
-0.05284043774008751
0.03715900331735611
0.004548163618892431
0.06268326193094254
0.049709055572748184
0.04900400713086128
-0.0683891773223877
0.06541483849287033
0.040176503360271454
-0.07680539041757584
-0.052867718040943146
-0.024863608181476593
-0.012231937609612942
-0.06227954477071762
-0.004651441238820553
0.002897614846006036
-0.03984029218554497
0.0518144816160202
-0.030004840344190598
-0.08046156913042068
-0.02591513656079769
-0.023902418091893196
0.008746237494051456
0.024240266531705856
0.06679194420576096
0.02810080535709858
0.0750250294804573
0.028516383841633797
0.04963373392820358
-0.04579045623540878
-0.03725889325141907
0.055222783237695694
0.052737023681402206
0.021316763013601303
0.008565451949834824
-0.009827663190662861
-0.04502786323428154
0.040536947548389435
-0.048500724136829376
-0.05128940939903259
-0.04073784127831459
0.0010110351722687483
-0.0599551796913147
-0.048849575221538544
-0.04929492995142937
0.008183160796761513
-0.021833989769220352
0.055191777646541595
-0.01030744332820177
0.0497281476855278
0.02966216392815113
-0.02821153588593006
-0.03021894209086895
0.061097580939531326
0.059736743569374084
0.008906351402401924
0.024097507819533348
0.025076448917388916
0.022034190595149994
0.07148557901382446
0.035029925405979156
-0.020499173551797867
0.05539492890238762
0.022676771506667137
0.06327901780605316
-0.04742006957530975
0.06998617202043533
-0.042816873639822006
-0.024632617831230164
0.043758682906627655
-0.016231948509812355
-0.011404304765164852
-0.04690084233880043
-0.06221071258187294
-0.022123025730252266
-0.05920057371258736
-0.015864523127675056
-0.0483771450817585
-0.07812140136957169
-0.03104916773736477
0.05731201171875
-0.00881773978471756
-0.04365817457437515
0.0031984075903892517
-0.002676356351003051
0.039535220712423325
-0.014124683104455471
-0.06608811765909195
-0.04778230935335159
0.03950732201337814
0.039415180683135986
-0.008397516794502735
-0.06460677087306976
-0.03588930144906044
0.01627144031226635
0.009379683062434196
-0.018463030457496643
-0.05447639152407646
0.02725045196712017
0.025158466771245003
-0.07534494251012802
-0.016381647437810898
0.05160222202539444
0.011787284165620804
0.017346415668725967
0.026533767580986023
-0.007691497448831797
-0.0166179109364748
-0.05925751104950905
-0.033994611352682114
-0.06076589971780777
-0.04522358626127243
0.013706616126000881
0.03561560809612274
-0.00852330680936575
0.05463462322950363
-0.0712875947356224
0.00019884602806996554
-0.012219834141433239
0.029045430943369865
-0.03541916608810425
-0.04765422269701958
0.040213342756032944
-0.0035970464814454317
-0.01255134865641594
-0.00791526772081852
0.026209848001599312
-0.026427071541547775
0.06976160407066345
-0.025271959602832794
-0.018635708838701248
0.025433361530303955
-0.056717634201049805
0.0027886847965419292
-0.067994624376297
0.023038819432258606
-0.026777110993862152
0.011892750859260559
-0.011972811073064804
0.02297128550708294
0.051746971905231476
0.002480435650795698
-0.07560479640960693
-0.04502231255173683
-0.06488889455795288
-0.024979591369628906
-0.051216863095760345
-0.032356929033994675
0.0707814022898674
-0.030873604118824005
-0.043914321810007095
0.053206536918878555
-0.026595894247293472
0.01505870558321476
0.004530076403170824
-0.04718581959605217
0.06314756721258163
0.04862058535218239
0.014847042970359325
0.009973321110010147
0.03687252849340439
-0.013135073706507683
0.023613641038537025
0.03951461613178253
0.028052357956767082
0.010448914021253586
-0.01670863851904869
-0.03558912128210068
-0.03206780552864075
0.031628336757421494
0.00044515292393043637
-0.016292382031679153
-0.021566763520240784
-0.033167220652103424
-0.05199515447020531
0.033689238131046295
-0.03162667527794838
0.03363562375307083
0.019755147397518158
-0.01496348436921835
-0.018303200602531433
-0.06618883460760117
0.07178895175457001
-0.002944601932540536
-0.04256441071629524
0.07344499975442886
-0.024478139355778694
0.036643821746110916
-0.03691813722252846
0.04089222103357315
0.0599801279604435
0.02999825030565262
-0.043168436735868454
0.030821543186903
0.0028893393464386463
0.045260269194841385
0.04678893834352493
0.005360053386539221
-0.004823528695851564
0.0022015119902789593
0.06612715125083923
0.001305572921410203
0.01083877682685852
-0.01685006357729435
-0.04924933239817619
0.053040821105241776
0.04026110842823982
-0.036350954324007034
0.03873446583747864
-0.02309855818748474
0.05183616280555725
-0.06771289557218552
-0.020436549559235573
0.03979620337486267
0.04791149124503136
-0.07546467334032059
-0.013149594888091087
0.05637981742620468
0.0023053043987601995
0.028905170038342476
-0.027336742728948593
-0.03524386137723923
-0.016913115978240967
-0.036528632044792175
-0.0056706927716732025
0.04083384945988655
0.0191559549421072
-0.05824694782495499
-0.05813958868384361
0.06433194130659103
0.06611216068267822
-0.00360735016874969
-0.05561244860291481
0.06464746594429016
0.02421407401561737
0.05477416515350342
0.07349783927202225
-0.02433749847114086
-0.026905540376901627
-0.012112473137676716
-0.042808886617422104
0.06661757826805115
0.048662979155778885
-0.0035662290174514055
-0.04614103212952614
0.03157352656126022
0.04434995353221893
-0.04904298484325409
-0.023855846375226974
0.02259981259703636
0.059505645185709
6.31427756161429e-05
0.021793298423290253
-0.002239146502688527
-0.03417292609810829
0.05237530916929245
-0.03336159884929657
-0.06180324777960777
-0.017727896571159363
0.03751445189118385
0.017331600189208984
-0.04620366916060448
0.07727500051259995
-0.043739378452301025
0.006754708476364613
0.027678480371832848
-0.07032691687345505
-0.053321465849876404
0.04822353273630142
-0.006829168181866407
-0.003732831683009863
0.055875491350889206
0.04168784245848656
0.03441625460982323
-0.03805799409747124
-0.05657190829515457
0.06571606546640396
0.03519445285201073
0.044313278049230576
-0.07036302983760834
-0.05158660560846329
0.04358518496155739
-0.04857850819826126
-0.060076262801885605
-0.03866029903292656
-0.06664087623357773
0.013213088735938072
0.02320278063416481
0.0013597015058621764
0.01140707079321146
0.039133720099925995
0.03333833068609238
0.05234376713633537
0.021199652925133705
-0.005237887147814035
0.005756888538599014
0.014643053524196148
-0.03887889161705971
-0.017207389697432518
-0.013295103795826435
-0.039966803044080734
0.01201656088232994
0.008107594214379787
-0.07535754144191742
-0.015465999953448772
-0.011045110411942005
0.028884755447506905
-0.033707473427057266
-0.0467815026640892
0.021515024825930595
0.02641441859304905
-0.007686869706958532
0.05334728956222534
-0.06889090687036514
-0.030319083482027054
0.04626845195889473
-0.04231952875852585
0.017752012237906456
0.04769407585263252
-0.04316916689276695
0.049389395862817764
-0.033525533974170685
0.06003715097904205
-0.007873959839344025
0.05607563629746437
-0.0077169472351670265
0.0549967885017395
-0.006556436885148287
0.05948873236775398
-0.06266330182552338
-0.0019581771921366453
0.048559047281742096
0.03262375667691231
0.06101488694548607
-0.04822642728686333
-0.03299010172486305
-0.02793733775615692
0.035424403846263885
-0.055399470031261444
-0.06516396999359131
-0.02930390276014805
-0.006628912873566151
0.03384152799844742
-0.006650657393038273
-0.04498590901494026
0.012447184883058071
-0.06183494254946709
-0.059500765055418015
0.008432126604020596
-0.011178921908140182
-0.06571280211210251
0.052688490599393845
0.02724202536046505
0.022321684285998344
0.0008250030223280191
-0.06861057877540588
0.0565108023583889
-0.005961319897323847
-0.03990161418914795
0.0013205964351072907
0.029894037172198296
-0.05907472223043442
-0.01255832239985466
0.05132611095905304
0.02332133799791336
0.017530532553792
-0.02308288775384426
-0.018856322392821312
0.005521291866898537
0.010094205848872662
0.017950810492038727
-0.06615084409713745
0.05879385396838188
0.07020138949155807
0.07069561630487442
0.023076795041561127
0.002423027530312538
-0.07080882042646408
0.06848757714033127
0.016758793964982033
0.017084667459130287
0.054619863629341125
0.05272582545876503
-0.05895548686385155
-0.008287563920021057
0.04900195077061653
0.03901921212673187
0.05652127042412758
-0.06509675085544586
-0.022672362625598907
-0.06958076357841492
-0.06577392667531967
-0.026421329006552696
-0.06139763444662094
0.060084033757448196
0.06851403415203094
-0.04530320316553116
-0.05690797418355942
-0.05597900226712227
-0.053079985082149506
0.014767107553780079
0.014645395800471306
0.024934327229857445
0.0030090012587606907
-0.06458607316017151
-0.055906590074300766
0.01786334626376629
0.04702542722225189
0.06854996830224991
0.035200126469135284
0.026729760691523552
-0.024451684206724167
-0.06839601695537567
-0.0654119923710823
-0.01982778124511242
0.04477621987462044
-0.050682324916124344
-0.02078263834118843
-0.026608416810631752
0.00546990055590868
-0.04166462644934654
0.06473968923091888
0.047493334859609604
-0.013031823560595512
-0.018042730167508125
-0.0016681469278410077
-0.045002322643995285
-0.03449004143476486
0.026926662772893906
-0.0188614372164011
0.016019977629184723
-0.04914345592260361
-0.061047330498695374
-0.017467835918068886
-0.0009633844601921737
0.04029421508312225
0.03657953068614006
-0.019398553296923637
-0.06343323737382889
-0.01017537247389555
-0.02172604203224182
-0.053888704627752304
-0.04450323060154915
-0.04052460938692093
-0.0025293887592852116
0.03973208740353584
-0.02802395261824131
-0.042194925248622894
0.021505648270249367
-0.07121460884809494
-0.04348206892609596
-0.009980943985283375
-2.312081960553769e-05
-0.024807751178741455
-0.018429376184940338
-0.06650416553020477
-0.04802428558468819
0.06170260161161423
0.04176374524831772
-0.039698898792266846
0.0008229433442465961
-0.03656306490302086
-0.006278028711676598
-0.022371606901288033
-0.018062252551317215
0.019327500835061073
0.004249172750860453
0.06535164266824722
-0.033020708709955215
-0.045694950968027115
0.01696491241455078
0.023627806454896927
-0.044582657516002655
-0.07319242507219315
0.04557913541793823
-0.02109982632100582
-0.06617032736539841
0.04467763379216194
-0.016545383259654045
-0.031499382108449936
0.02890988253057003
0.02149592712521553
-0.007870864123106003
0.03233332931995392
0.0666331797838211
-0.01082911528646946
-0.05511713773012161
0.03850195184350014
0.051858238875865936
-0.00869597215205431
-0.03795526549220085
-0.052057161927223206
0.03632907196879387
-0.03762546554207802
0.05873537063598633
-0.01987907849252224
-0.07088053971529007
0.025430647656321526
-0.023370787501335144
-0.0034637455828487873
-0.03706881403923035
0.01568412408232689
-0.03807917982339859
0.055649563670158386
0.06948862224817276
0.03745562583208084
-0.0529780350625515
-0.05380203574895859
0.008928683586418629
0.0036952707450836897
-0.06472135335206985
0.02584921009838581
-0.0670698881149292
0.03424665331840515
-0.05514718219637871
-0.03864621743559837
0.010951295495033264
-0.018893860280513763
-0.0336182676255703
0.006814674939960241
-0.04954894259572029
-0.019287286326289177
-0.009870719164609909
0.017446063458919525
-0.07359433174133301
-0.041434090584516525
0.012590967118740082
-0.04238981753587723
-0.03288690745830536
-0.02455972321331501
0.057045724242925644
-0.003309228690341115
-0.03217219188809395
0.03961091488599777
-0.046867042779922485
0.06286989897489548
-0.025134703144431114
0.01736663095653057
-0.07579533755779266
-0.03473592549562454
0.06657706201076508
0.029859911650419235
-0.0722961276769638
0.010429471731185913
0.00021621055202558637
0.011347145773470402
0.03517685458064079
0.04239286482334137
-0.03680272772908211
0.01351732388138771
-0.013051727786660194
-0.01512481551617384
-0.05566049739718437
0.042587537318468094
-0.06200171634554863
0.054808057844638824
-0.045322664082050323
-0.025516517460346222
0.044197600334882736
-0.0639229267835617
-0.05517157167196274
0.015902342274785042
0.025687383487820625
-0.03285455331206322
0.04047924652695656
0.06706260144710541
0.03873107582330704
-0.01637832447886467
-0.03879832103848457
0.04956525191664696
-0.012566681019961834
-0.030282940715551376
0.05417167395353317
0.003121250541880727
-0.07822544872760773
-0.032978229224681854
0.04739034175872803
0.06509804725646973
0.06265877187252045
-0.010934354737401009
0.0428522489964962
0.03508671373128891
0.06665447354316711
0.041764821857213974
0.037825241684913635
0.03180160000920296
0.0176179651170969
-0.04131217673420906
-0.019861716777086258
-0.019992588087916374
0.00304002920165658
-0.030772114172577858
-0.061533279716968536
-0.04820666089653969
0.0270831398665905
-0.03322403505444527
-0.03965987637639046
-0.018166186287999153
0.04246360808610916
0.07207529991865158
-0.046778008341789246
0.014583755284547806
0.05783477798104286
-0.055795736610889435
0.0036371033638715744
-0.05309007689356804
0.055844876915216446
-0.044314976781606674
0.06618784368038177
0.049350786954164505
-0.023810919374227524
0.007708973251283169
0.013734596781432629
0.04448854923248291
-0.02889508381485939
0.028462523594498634
0.022033322602510452
-0.01153639331459999
-0.040265340358018875
-0.05942067503929138
0.05633886158466339
-0.037546563893556595
-0.0678785890340805
0.016946181654930115
0.004305401351302862
0.03384901210665703
-0.05495922639966011
-0.050149254500865936
-0.008374571800231934
0.053891293704509735
-0.0550650991499424
0.006012469995766878
-0.02743183635175228
-0.04473108798265457
0.0029018698260188103
0.04012848436832428
0.057965051382780075
0.0343560129404068
-0.02168889530003071
0.0037809358909726143
-0.011780006811022758
0.008832638151943684
0.019943013787269592
0.008753396570682526
-0.013549184426665306
0.05172973871231079
0.001220199977979064
-0.028913728892803192
0.05055365711450577
0.054292913526296616
-0.00845006201416254
0.030500216409564018
0.034062329679727554
-0.07460042089223862
-0.00044338026782497764
0.0016347301425412297
-0.07546358555555344
-0.04853438213467598
-0.01727198250591755
0.0698728859424591
0.055731095373630524
-0.016313321888446808
-0.056666452437639236
-0.04137915000319481
0.01041985023766756
-0.00901083741337061
-0.007876180112361908
-0.027624791488051414
0.011255096644163132
0.03613000363111496
-0.05904140695929527
-0.06784292310476303
-0.013752472586929798
-0.0044202241115272045
0.05426190793514252
0.061712075024843216
0.05057372525334358
0.06204992160201073
0.029333151876926422
-0.041096512228250504
-0.054910238832235336
-0.05901384726166725
0.04826178401708603
-0.02799483761191368
-0.06608685106039047
-0.0008864211267791688
-0.06074352562427521
-0.06544391810894012
0.07015487551689148
0.06032945215702057
0.0638781264424324
0.06676658987998962
-0.06183980777859688
-0.010736797004938126
-0.0410519614815712
0.026130734011530876
-0.061334967613220215
0.051787860691547394
-0.033008575439453125
-0.0006339716492220759
-0.04649876430630684
0.05560215935111046
-0.05577826127409935
-0.0531003437936306
0.0726499930024147
-0.0012892719823867083
0.04299268126487732
0.02493470162153244
0.038944002240896225
0.06694510579109192
0.0627477839589119
-0.017961286008358
-0.051825206726789474
-0.06187332049012184
-0.027033731341362
0.05513062700629234
-0.02046121098101139
-0.015425560064613819
-0.03731635585427284
-0.059497710317373276
-0.014306596480309963
0.025355607271194458
0.005792940501123667
0.058101098984479904
0.018907200545072556
-0.03898807615041733
0.06741079688072205
0.004546352196484804
-0.01806168258190155
-0.006990187335759401
0.06813094019889832
0.05607294663786888
-0.007895858958363533
0.026468560099601746
0.04714871197938919
-0.003479654435068369
-0.006721436511725187
0.03677854314446449
-0.0021334367338567972
-0.03980868682265282
0.03199181333184242
-0.04069202020764351
0.05437665805220604
-0.038044579327106476
-0.05414768308401108
0.002949621295556426
-0.019628392532467842
0.047854866832494736
0.01783299446105957
0.04490990191698074
-0.02536788024008274
-0.07176213711500168
0.029792726039886475
-0.0641762837767601
0.01655390113592148
-0.05960306525230408
-0.028691740706562996
-0.01009766198694706
-0.01612607017159462
0.06008302792906761
-0.02886822074651718
0.012792341411113739
0.03214786946773529
-0.03984340652823448
-0.05866724252700806
-0.032873183488845825
0.03382917493581772
0.01770823635160923
-0.033552881330251694
-0.0579599030315876
-0.000836897932458669
0.05996820330619812
-0.003338618902489543
-0.03898881375789642
-0.04975439980626106
0.03034931980073452
-0.022008297964930534
0.0228594783693552
-0.07406176626682281
0.06861244142055511
0.042395759373903275
0.0464753657579422
-0.06300242990255356
-0.023406725376844406
0.031233355402946472
-0.08147518336772919
-0.01618867926299572
0.034080155193805695
-0.032939352095127106
0.0312948115170002
0.0721777155995369
0.06352338194847107
0.006068837828934193
-0.03915133699774742
0.06902170181274414
0.07208847999572754
-0.007745933253318071
0.006522619631141424
-0.06176333129405975
-0.055814098566770554
-0.026582930237054825
0.04311350733041763
0.06799887120723724
0.02834378182888031
0.03252838924527168
-0.023075226694345474
0.03604068607091904
-0.03630619868636131
0.008560537360608578
0.01988302171230316
-0.039864394813776016
0.06710498034954071
0.03237929567694664
0.037322308868169785
-0.016140203922986984
-0.009598933160305023
0.008033211342990398
0.0017859950894489884
-0.07340769469738007
-0.06972590833902359
-0.05113115906715393
-0.03382791951298714
0.06698866933584213
-0.06115546450018883
-0.03485177829861641
-0.07006949931383133
-0.01864142157137394
0.06985587626695633
-0.04770391061902046
0.07183685898780823
-0.04523291066288948
-0.0743577778339386
-0.04368801414966583
-0.037844594568014145
-0.04859272018074989
-0.018967218697071075
-0.006428257096558809
0.019068680703639984
0.043284960091114044
0.04250586777925491
0.05511927604675293
-0.06453344225883484
-0.03162404149770737
0.05227129906415939
-0.04885227978229523
0.03449121490120888
-0.00229654205031693
0.02561710774898529
0.03974823281168938
0.02343112789094448
-0.0701439306139946
0.03068467229604721
-0.013383440673351288
-0.06601248681545258
0.02497909776866436
-0.06320109963417053
-0.052642449736595154
0.0018888210179284215
0.037940192967653275
-0.004537206143140793
0.05166046693921089
-0.019116178154945374
0.01963280700147152
-0.04256719350814819
-0.05405268445611
-0.05005718395113945
-0.018327923491597176
0.03165678679943085
0.003984788898378611
-0.04264984279870987
0.00017196561384480447
0.06843854486942291
-0.07201572507619858
-0.03781388700008392
0.05796375870704651
0.054465752094984055
0.046836093068122864
0.05315737798810005
-0.05872974544763565
-0.008259129710495472
0.0632517859339714
0.03408300131559372
-0.024086952209472656
-0.050680167973041534
0.0240767989307642
-0.022277968004345894
-0.03249974548816681
-0.04612713307142258
-0.044618044048547745
-0.06404779851436615
0.0009849456837400794
0.005623131524771452
-0.06996555626392365
-0.008399248123168945
-0.0202019140124321
-0.04030780866742134
-0.010011304169893265
0.0684729591012001
0.028118737041950226
-0.03383919224143028
-0.04329909384250641
0.04236545413732529
-0.03660639747977257
-0.05667043849825859
-0.05869891121983528
0.07059554755687714
-0.05821623653173447
-0.01687265932559967
0.052123524248600006
0.0330333337187767
0.027147958055138588
0.01909593865275383
-0.04808678850531578
-0.05346012860536575
-0.04048555716872215
-0.006448974832892418
0.014216946437954903
-0.034153327345848083
-0.014508516527712345
-2.7553682230063714e-05
0.04719896987080574
-0.016115164384245872
0.04537798836827278
-0.0037392231170088053
-0.01907915249466896
-0.07066357880830765
0.01563665270805359
-0.07238683849573135
0.009209251031279564
0.009319252334535122
0.06897453963756561
0.07129476219415665
0.0007010840345174074
0.0015701793599873781
0.06920011341571808
0.05383440852165222
-0.009159588254988194
0.066067174077034
0.015021299943327904
-0.007068977225571871
0.04563413932919502
0.06355798989534378
0.007703718729317188
-8.215523848775774e-05
-0.009708480909466743
-0.03767077624797821
0.0035437974147498608
-0.07183992117643356
0.06470618396997452
0.0007744039176031947
-0.04180902987718582
-0.019267329946160316
-0.030826158821582794
0.06305626034736633
0.012287256307899952
0.06965465098619461
-0.006068359594792128
-0.033706698566675186
0.030858458951115608
0.0010519524803385139
0.015283256769180298
0.028159288689494133
-0.01853064075112343
-0.03681478276848793
-0.04559200629591942
0.049705084413290024
0.06707549840211868
-0.004625177942216396
-0.008830518461763859
-0.0027157773729413748
0.04388635233044624
0.0585997998714447
0.03331198915839195
-0.017800508067011833
0.04456310719251633
0.013635674491524696
0.03742742910981178
-0.03755747154355049
-0.04145985096693039
0.03795553371310234
0.023300284519791603
-0.009975062683224678
-0.023163197562098503
0.07157939672470093
-0.04448089748620987
0.057020772248506546
0.04724708944559097
0.033571161329746246
0.04257213696837425
0.0506557896733284
-0.047513656318187714
0.019387684762477875
0.05401688069105148
0.052384424954652786
0.02310909703373909
0.005423647817224264
0.06863904744386673
-0.019008219242095947
0.02887100726366043
-0.029212091118097305
-0.04079341143369675
0.05455569177865982
0.0283744428306818
0.04873684048652649
-0.04937000572681427
-0.03475223109126091
0.05883015692234039
-0.05891198292374611
-0.06326800584793091
-0.044481974095106125
-0.06261324137449265
0.0471373088657856
0.03632710501551628
-0.057126905769109726
0.009059635922312737
-0.053020816296339035
-0.026523731648921967
-0.07435999065637589
-0.08326968550682068
0.0008308450924232602
-0.02071061171591282
-0.03753472864627838
0.05411320552229881
0.004947833716869354
0.03425543010234833
0.06806762516498566
0.01671929471194744
0.07417123019695282
0.06803279370069504
-0.015233557671308517
-0.06622365117073059
0.04162922129034996
-0.0029014931060373783
-0.005126321222633123
0.046195317059755325
0.06970085948705673
-0.003954512998461723
-0.014074155129492283
0.026831457391381264
0.02700791321694851
0.026033947244286537
0.0018200455233454704
-0.06879312545061111
-0.01090133935213089
0.011826598085463047
0.006558313500136137
0.059887439012527466
0.07567207515239716
0.027146369218826294
-0.05671589449048042
0.009882789105176926
0.05442742258310318
-0.014482238329946995
0.052560314536094666
0.06911277770996094
-0.06445126235485077
0.016391126438975334
-0.03770580142736435
-0.05868370085954666
-0.045401327311992645
-0.02434687875211239
-0.03646343946456909
-0.05605911463499069
0.03661132976412773
-0.02432713285088539
-0.0445651113986969
-0.01979733258485794
0.010771553963422775
0.021994568407535553
-0.07303936779499054
0.031062865629792213
-0.06465304642915726
0.04462219402194023
-0.03954616189002991
-0.03655892238020897
-0.010277368128299713
-0.017839079722762108
0.021137915551662445
0.013546712696552277
-0.020902158692479134
0.026835156604647636
-0.022898150607943535
-0.06478533148765564
0.012377671897411346
-0.06541779637336731
0.039336908608675
-0.042424868792295456
-0.05586913600564003
0.02706320770084858
0.042228516191244125
0.014707617461681366
-0.009392197243869305
-0.047239769250154495
0.003002000506967306
-0.05241532623767853
-0.02371981367468834
6.461048178607598e-05
-0.03513902798295021
-0.06734248995780945
-0.02569173462688923
-0.0166068896651268
-0.029087433591485023
-0.024938492104411125
0.01617387868463993
0.025282515212893486
0.013248535804450512
0.04786556959152222
-0.06877616792917252
-0.000948968983720988
-0.06878834962844849
0.05684664100408554
-0.0005213632248342037
-0.03196971118450165
0.030270574614405632
-0.011947163380682468
0.07027176767587662
0.010091221891343594
0.04599960148334503
0.009374153800308704
-0.014366758987307549
-0.0375652015209198
0.07059203088283539
-0.052133720368146896
-0.04293916001915932
0.01907750964164734
0.06845004111528397
-0.02840753085911274
0.02708047814667225
-0.021320976316928864
-0.030679451301693916
-0.0003063420008402318
0.029445143416523933
-0.012060942128300667
0.03211818262934685
0.010586916469037533
-0.012938074767589569
0.037520043551921844
-0.031550776213407516
0.057190198451280594
-0.012280811555683613
-0.06445791572332382
0.007289003115147352
0.07618480920791626
-0.03198331221938133
-0.05202171579003334
-0.060154989361763
0.05599995702505112
0.013271019794046879
-0.03560316190123558
0.04007619246840477
0.027051351964473724
0.009106159210205078
-0.030848408117890358
0.06772096455097198
-0.02346196211874485
-0.024383030831813812
-0.03873709589242935
0.042933326214551926
0.058879271149635315
0.06299778074026108
-0.06114594638347626
0.048920512199401855
-0.03416634351015091
0.0703742578625679
-0.021550538018345833
0.010669509880244732
0.04588201642036438
-0.027385206893086433
-0.07569954544305801
-0.05368979647755623
0.059105075895786285
-0.0792466476559639
-0.05858796089887619
0.06468106806278229
-0.01149097178131342
-0.03886191546916962
0.017520179972052574
0.018771978095173836
-0.04048096016049385
-0.059538085013628006
-0.028088806197047234
-0.030615290626883507
0.05152765288949013
-0.004227122291922569
0.052035193890333176
0.06008179858326912
-0.038541149348020554
0.053611233830451965
-0.0036507409531623125
-0.04516793414950371
-0.013044290244579315
0.05956257879734039
-0.039888378232717514
-0.01642727293074131
-0.021532516926527023
0.016816623508930206
-0.03785400837659836
-0.006860941648483276
-0.011103879660367966
0.0044663529843091965
-0.0655042976140976
-0.05742437019944191
0.04854198172688484
-0.004063653293997049
0.013189922086894512
-0.037821222096681595
-0.06335468590259552
0.04039975628256798
0.03849589824676514
-0.05054335296154022
0.03917069733142853
-0.004444120451807976
-0.06049012020230293
0.01071256585419178
0.06798300892114639
-0.04755905270576477
0.05523756146430969
-0.024297256022691727
0.009288636036217213
0.026912299916148186
-0.01781025156378746
0.04099821671843529
0.03625164553523064
0.00718088261783123
0.00914859864860773
0.0008717839955352247
-0.044639378786087036
-0.046507567167282104
0.030610017478466034
0.05249661207199097
0.001606888952665031
-0.0019560710061341524
0.06559408456087112
0.05596901848912239
0.012441919185221195
0.035174958407878876
0.05016445741057396
-0.029919955879449844
-0.07032668590545654
-0.03493964672088623
-0.034056536853313446
0.05345546454191208
0.02283710055053234
-0.009118015877902508
0.033564213663339615
-0.009282189421355724
-0.039346884936094284
-0.009426617994904518
-0.010735910385847092
-0.004740716889500618
0.0646350234746933
0.033817119896411896
-0.03978975489735603
-0.00040219322545453906
0.04554582014679909
0.019748713821172714
-0.005423828959465027
-0.06115506589412689
0.037848684936761856
0.019673597067594528
0.007466039154678583
0.04074627533555031
-0.00487307645380497
0.039379872381687164
0.023313557729125023
-0.003948546014726162
-0.057845622301101685
0.007985260337591171
-0.061384379863739014
0.01821034960448742
0.05250317603349686
-0.06782402843236923
-0.068656325340271
0.04930241033434868
-0.06361810863018036
-0.056203339248895645
0.04170350357890129
0.049201421439647675
0.036603253334760666
0.04571907967329025
0.00840334128588438
-0.06564337015151978
-0.008973048999905586
0.0047545842826366425
-0.05961313471198082
-0.016854748129844666
-0.054212164133787155
0.0346841923892498
-0.060782019048929214
-0.008207044564187527
0.03884381055831909
0.0006864012102596462
-0.0011179251596331596
0.030187752097845078
-0.03884048014879227
-0.06303534656763077
0.020743267610669136
0.0302777960896492
-0.03493735194206238
-0.02120230719447136
-0.03782649338245392
-0.03408312797546387
0.02647172100841999
-0.0054684835486114025
-0.008496860973536968
0.023078642785549164
0.0005159907741472125
0.03342215716838837
-0.06684849411249161
0.032743774354457855
0.041004255414009094
0.038169365376234055
-0.07358604669570923
-0.04747622087597847
-0.04503827542066574
0.0460045263171196
0.011888144537806511
0.043825168162584305
0.028256578370928764
-0.0025058870669454336
0.06955759972333908
0.0019527870463207364
0.02035415731370449
-0.03588112071156502
0.034865327179431915
0.01043903548270464
-0.031115220859646797
0.026268046349287033
-0.060163289308547974
0.06319638341665268
0.04413792863488197
-0.03155341371893883
0.05491694435477257
0.04153275489807129
-0.05717310681939125
0.01972481980919838
-0.007642670534551144
-0.05698771774768829
0.03644517436623573
-0.03238283470273018
-0.03889485076069832
0.018758486956357956
-0.013146182522177696
0.023194095119833946
-0.01491574291139841
-0.017740610986948013
-0.009298179298639297
0.02631765976548195
-0.00662262225523591
-0.001828916952945292
-0.02911069244146347
0.038451652973890305
-0.013790633529424667
-0.033886801451444626
0.00388327706605196
-0.03593897074460983
0.05136995017528534
0.019465887919068336
-0.014526177197694778
0.057620756328105927
-0.036231208592653275
0.024065710604190826
0.01929234340786934
0.05118069425225258
-0.07562996447086334
0.0005114512168802321
-0.05855493247509003
-0.015765279531478882
0.0665159523487091
-0.039653800427913666
0.03665183112025261
0.06910452246665955
0.02152012102305889
0.034545645117759705
0.05013494938611984
0.062063708901405334
0.029085243120789528
-0.0554366335272789
-0.0034604468382894993
0.007080021779984236
0.011521120555698872
0.030235465615987778
-0.05052255094051361
0.026270244270563126
0.003774725366383791
-0.03345177322626114
0.05548157915472984
0.056252963840961456
-0.013452487997710705
0.005476337391883135
0.053333040326833725
0.0077198343351483345
-0.06831032037734985
-0.05892267823219299
0.028329363092780113
-0.029659835621714592
-0.06697367876768112
-0.04350147768855095
0.06686989963054657
-0.05069313570857048
-0.0071984571404755116
-0.020930038765072823
-0.06947970390319824
-0.011937685310840607
-0.029108943417668343
0.015563735738396645
-0.0025963650550693274
-0.06189415231347084
-0.020820196717977524
0.03835153952240944
0.047940000891685486
0.042663685977458954
-0.03628255054354668
-0.013232001103460789
0.014864971861243248
0.015467720106244087
0.02040627785027027
0.051442865282297134
-0.06990709900856018
0.005577223375439644
0.007688467390835285
0.031517330557107925
-0.008444510400295258
-0.03702175244688988
-0.006796061992645264
0.004956269171088934
0.06262685358524323
-0.038204289972782135
-0.026963071897625923
-0.010465675964951515
-0.005328843370079994
0.0598975270986557
0.03329901769757271
-0.010218133218586445
-0.07435286045074463
0.029676267877221107
-0.01683955267071724
0.049766503274440765
0.026555005460977554
0.005652623251080513
-0.03929497301578522
0.00935621652752161
0.05934259667992592
-0.0397833026945591
-0.003993263468146324
-0.026065710932016373
-0.06133094057440758
0.047726333141326904
-0.015888720750808716
0.04684201627969742
-0.06066373363137245
-0.04878075420856476
0.019807588309049606
-0.048246659338474274
0.061083607375621796
0.007171578239649534
0.01737399213016033
0.029555726796388626
0.037471700459718704
0.035109058022499084
0.058923330157995224
0.0236677099019289
-0.05151721462607384
0.00843354593962431
0.057047273963689804
0.027584446594119072
-0.06577824056148529
-0.04240955039858818
-0.038964658975601196
-0.02130196802318096
-0.057541221380233765
-0.055432140827178955
0.06076439097523689
-0.03995316103100777
-0.02269194833934307
0.029686620458960533
-0.06264999508857727
0.004059663508087397
-0.03858065977692604
-0.05109793692827225
-0.020484086126089096
-0.04140874743461609
0.002408271422609687
0.06764017790555954
0.036067280918359756
0.05996956676244736
0.01977270096540451
0.015057547017931938
-0.026715166866779327
-0.06374199688434601
0.05655863508582115
0.022870803251862526
-0.03545128181576729
-0.009052293375134468
0.06490390747785568
-0.04181958734989166
0.0243326798081398
0.031580835580825806
0.06227007508277893
0.06124575063586235
-0.0403466634452343
0.01366425585001707
0.0029105357825756073
-0.06763941794633865
0.04368608817458153
-0.026859432458877563
-0.02756958268582821
-0.03903258964419365
0.015414419583976269
0.02103048376739025
0.011655952781438828
0.003436019876971841
-0.06380695849657059
0.010655890218913555
-0.06307361274957657
-0.06821205466985703
-0.039555009454488754
-0.03581878915429115
0.03723493963479996
0.0002862275287043303
0.06162335351109505
-0.026465825736522675
-0.062096547335386276
0.07142817229032516
-0.06036021187901497
0.04691294953227043
-0.03719426691532135
-0.048864543437957764
-0.015282954089343548
0.0005000990349799395
-0.04113195836544037
-0.002585410373285413
0.06480797380208969
-0.04892268031835556
0.04850204661488533
-0.028662730008363724
-0.024990715086460114
-0.02074618637561798
0.004065880551934242
-0.001282656448893249
0.06732113659381866
0.061116281896829605
-0.05180066451430321
-0.014202901162207127
0.06352552771568298
0.00334894354455173
-0.010942492634057999
0.05125705152750015
-0.05098767578601837
-0.019110819324851036
0.06742078810930252
0.009001806378364563
-0.05811860412359238
0.04750876501202583
-0.03475989028811455
-0.06625143438577652
-0.0468282625079155
0.009306542575359344
0.05028406158089638
-0.06638031452894211
-0.011881035752594471
0.00988303404301405
-0.04132191464304924
0.030860286206007004
-0.0467928983271122
0.0669260323047638
-0.020975477993488312
-0.061871085315942764
0.017411570996046066
0.070182666182518
0.02468884363770485
-0.04830451309680939
0.029707400128245354
-0.06345684081315994
-0.0037326489109545946
-0.025757620111107826
0.05182216316461563
0.02144339494407177
-0.03831692412495613
-0.007958672009408474
-0.06433070451021194
-0.032979816198349
0.022522112354636192
0.05676194280385971
-0.0021361184772104025
0.02911786548793316
0.0116956178098917
0.05106906592845917
-0.042185742408037186
-0.021983901038765907
0.007832491770386696
0.0436541773378849
-0.04079952836036682
-0.05245808884501457
0.022315582260489464
0.07108605653047562
-0.0043117450550198555
-0.02535998448729515
0.06652886420488358
-0.06043541058897972
-0.061069995164871216
0.02737625315785408
0.07179242372512817
0.07031060755252838
0.0013723805313929915
0.05801026150584221
0.0339062474668026
0.0018804757855832577
0.0470912829041481
0.013793990947306156
0.041960276663303375
-0.013029571622610092
-0.01905246078968048
0.07009255886077881
0.0633295401930809
-0.018143970519304276
0.04325636848807335
0.060179099440574646
-0.037625182420015335
0.019969282671809196
-0.058594319969415665
-0.06322599202394485
0.031202062964439392
0.06401801109313965
0.004468100611120462
-0.0334206148982048
0.0301579050719738
0.057089999318122864
0.03389599546790123
0.07187119871377945
0.0013357889838516712
-0.026451939716935158
-0.026532435789704323
0.019548121839761734
-0.0008213990950025618
-0.03725195676088333
-0.06334462761878967
-0.05860961228609085
-0.012814288027584553
0.07142210006713867
0.03985808417201042
0.06872174143791199
0.007691821549087763
0.03157860413193703
0.010434207506477833
0.0004911361029371619
-0.02000838704407215
-0.01349219586700201
0.06637205928564072
0.06297542154788971
-0.01735176146030426
-0.03264378756284714
0.01475925836712122
0.07017698138952255
-0.07173628360033035
-0.011403664946556091
-0.06818078458309174
-0.05435796082019806
-0.00742532080039382
0.025280728936195374
0.05004549026489258
0.013323505409061909
0.043426547199487686
0.05613328516483307
0.014237781055271626
-0.04795760661363602
0.0010010533733293414
-0.02429257705807686
-0.07602883130311966
0.02901734784245491
0.061930567026138306
0.050897710025310516
-0.06526368856430054
0.03782929480075836
-0.021939216181635857
0.04107027128338814
0.053185172379016876
0.01092008501291275
-0.037165071815252304
-0.06557612866163254
-0.04702026769518852
0.06403755396604538
0.056368984282016754
0.015705745667219162
0.05552216246724129
-0.03718383610248566
0.015332428738474846
0.03198537603020668
0.04266858845949173
-0.05814242735505104
-0.04942461848258972
0.03669058904051781
-0.01378402765840292
-0.05742212384939194
-0.008944869972765446
-0.03778506815433502
-0.004910809453576803
-0.00555045111104846
0.06209462136030197
0.035440728068351746
0.07763766497373581
-0.030024658888578415
0.03399745374917984
0.025132866576313972
-0.06462837755680084
0.06927137076854706
-0.012708279304206371
0.04815629497170448
-0.0321069173514843
0.01810322515666485
-0.03355908393859863
-0.06535739451646805
0.0076631843112409115
0.06412498652935028
-0.04087960720062256
0.02374369278550148
0.04076847434043884
-0.004293737467378378
0.06672892719507217
0.02072422206401825
0.02664726786315441
-0.03048747219145298
-0.023208793252706528
0.06079024076461792
-0.002114576753228903
-0.03341437503695488
0.057107239961624146
-0.044113993644714355
0.04428163170814514
0.04153162240982056
0.022548183798789978
-0.04532386362552643
-0.05695843696594238
0.012521599419414997
-0.003951967693865299
-0.055269788950681686
-0.03223365545272827
0.04158756509423256
0.018351400271058083
0.02389807626605034
-0.02114029787480831
0.02779892086982727
-0.02801201306283474
-0.006945512257516384
-0.0007492562290281057
0.06623376160860062
0.06479841470718384
-0.004775471519678831
-0.06068231910467148
0.006553105544298887
0.04590657725930214
0.02027900516986847
0.037147488445043564
-0.01526144053786993
0.0003917906724382192
0.016837695613503456
0.03697410598397255
-0.0007094701286405325
0.04822563752532005
-0.06447327882051468
-0.004334676545113325
-0.03873177617788315
0.013253399170935154
0.023115677759051323
0.051061857491731644
-0.04662740230560303
0.05866854265332222
-0.04114934056997299
-0.059999559074640274
-0.02766779065132141
-0.01233472116291523
-0.07604803144931793
-0.07675755023956299
-0.07529132068157196
0.0639071986079216
-0.03438662365078926
0.06794576346874237
-0.050052862614393234
0.016933012753725052
0.045588646084070206
-0.020460547879338264
-0.017363447695970535
-0.026197129860520363
0.022573458030819893
0.039583317935466766
0.007088173180818558
0.03202716261148453
0.0681733638048172
-0.03884534165263176
-0.036956511437892914
0.01815023273229599
0.043723348528146744
0.01018237229436636
0.035534054040908813
-0.00037391731166280806
0.023501524701714516
-0.01301224809139967
0.0041990275494754314
-0.011833293363451958
0.013908850960433483
0.04577970504760742
0.04189992696046829
-0.011033294722437859
-0.0539727509021759
-0.0002645819040481001
-0.048464421182870865
-0.0038196479436010122
-0.016863597556948662
0.036588530987501144
0.01300375908613205
0.05214903503656387
0.07153414189815521
0.06361055374145508
0.018161559477448463
-0.007981632836163044
-0.04980088770389557
0.043918173760175705
-0.03566143661737442
0.07111793011426926
-0.03875892981886864
0.03743213042616844
0.005638308823108673
0.0556781031191349
0.0454934760928154
0.026175500825047493
0.024875493720173836
0.05407560244202614
0.06797824800014496
0.014796165749430656
0.030245060101151466
0.00990053080022335
-0.01303756982088089
-0.031435493379831314
-0.007999307475984097
0.04985252767801285
0.045781005173921585
0.03902760520577431
0.01097175758332014
0.021144982427358627
0.04844164475798607
0.013376177288591862
0.047865331172943115
-0.017694970592856407
-0.06135476008057594
0.016921501606702805
-0.028132755309343338
0.057540636509656906
-0.07151849567890167
0.03262238949537277
-0.05162975192070007
0.0509604774415493
-0.028305666521191597
-0.034969210624694824
0.05727188661694527
0.033483173698186874
0.03356487303972244
-0.005412023048847914
-0.05307494476437569
-0.06838599592447281
0.048111699521541595
0.05346175283193588
-0.03804856166243553
0.025411272421479225
-0.007253811229020357
-0.03129202127456665
0.03318733721971512
-0.009523780085146427
-0.021665098145604134
-0.030090656131505966
0.047650158405303955
-0.04954034090042114
0.058217693120241165
0.03184651955962181
-0.010408896952867508
0.02528267540037632
0.0030032587237656116
-0.042062342166900635
-0.03064311109483242
-0.06696944683790207
0.001846401602961123
-0.022995369508862495
-0.018080858513712883
0.00621785456314683
0.0069017307832837105
-0.013011839240789413
0.059185680001974106
0.042505573481321335
-0.06008555367588997
-0.04178135469555855
-0.020879274234175682
-0.005859750788658857
-0.047433048486709595
0.03980858996510506
-0.07282330095767975
-0.0061744763515889645
0.03795653581619263
0.055577602237463
0.04881387948989868
0.013834171928465366
-0.038889992982149124
0.051005467772483826
-0.07928233593702316
0.0008932298514991999
-0.06036126986145973
-0.005439967382699251
-0.04038587212562561
-0.06786620616912842
-0.015605454333126545
0.003465884132310748
0.019298257306218147
-0.01377381943166256
-0.027258802205324173
-0.057952575385570526
0.03392510861158371
0.01816023327410221
0.03557237982749939
-0.06308858841657639
-0.013681910932064056
0.06993875652551651
-0.03820912167429924
0.00024761789245530963
0.05549154430627823
-0.02722756750881672
-0.04843148589134216
-0.004657952580600977
0.061899203807115555
0.0014137113466858864
0.01009897980839014
-0.0022390885278582573
0.01851445809006691
0.016253260895609856
-0.05979076027870178
-0.04009405896067619
-0.03043762780725956
-0.0618024580180645
-0.014284620992839336
0.019745931029319763
-0.03719501197338104
0.011758948676288128
0.06946130841970444
0.053426243364810944
0.0353730209171772
-0.04683830961585045
-0.04801883175969124
0.006226790137588978
0.01690591499209404
-0.041119422763586044
-0.014596209861338139
0.006849364377558231
-0.056868407875299454
-0.026114920154213905
-0.04632677510380745
-0.002580726984888315
-0.04610626772046089
0.034262076020240784
-0.03908901661634445
0.014200014993548393
-0.051239144057035446
0.02378004789352417
0.01887255348265171
-0.04464346542954445
-0.03855706751346588
0.025646667927503586
-0.061459288001060486
0.0009745305287651718
-0.07019691914319992
-0.014669261872768402
0.02100641280412674
-0.0590013712644577
-0.046769484877586365
-0.015579753555357456
-0.029394684359431267
-0.03385300189256668
-0.05872221663594246
-0.012487733736634254
0.05251793935894966
-0.02889806032180786
-0.027416156604886055
0.06510482728481293
0.011978342197835445
-0.031223028898239136
0.049821868538856506
0.02933601476252079
-0.02715745009481907
0.06451599299907684
0.031635139137506485
-0.045495472848415375
-0.05698876082897186
-0.006713561713695526
0.03157765790820122
0.0456065759062767
-0.059679921716451645
0.04551803693175316
0.03391160070896149
0.05800771340727806
-0.014050749130547047
-0.0571906678378582
0.01493052951991558
0.019633125513792038
-0.007297406438738108
-0.05987454205751419
-0.015909940004348755
0.017944151535630226
0.04786036163568497
0.02409934252500534
-0.06101008132100105
-0.06150803342461586
0.05371363088488579
-0.0654299184679985
0.016452159732580185
0.030305936932563782
0.03533303737640381
-0.054743047803640366
0.01929926685988903
-0.052872952073812485
-0.0607602521777153
-0.06034988909959793
-0.06048133969306946
-0.06702066212892532
-0.06258490681648254
-0.06981515884399414
0.006585832219570875
0.02175394631922245
-0.007358796428889036
-0.007470190990716219
0.04598129540681839
-0.021010467782616615
0.044062890112400055
0.022381436079740524
-0.0012076209532096982
-0.018401917070150375
-0.03456858545541763
0.011655187234282494
-0.0709722563624382
0.03050859272480011
-0.04624544456601143
0.058018941432237625
-0.058490995317697525
0.04948722571134567
0.06355969607830048
0.06173044070601463
-0.03301837295293808
-0.023021291941404343
0.026452820748090744
-0.06537900120019913
0.0295444093644619
0.028744949027895927
0.023829009383916855
0.042676892131567
0.045263320207595825
0.05300935357809067
0.035274751484394073
0.035488735884428024
-0.03499789908528328
-0.03937435522675514
0.0033921420108526945
-0.00039362316601909697
0.028574161231517792
0.06061713397502899
0.04949299991130829
-0.015144865959882736
-0.06919755786657333
-0.007873248308897018
-0.007454827427864075
-0.014491072855889797
0.02079918049275875
0.01608721911907196
-0.0620451346039772
-0.00551618030294776
-0.07477882504463196
0.050490256398916245
0.02345716394484043
-0.056030187755823135
0.024098582565784454
0.0643053948879242
0.048592958599328995
0.06660063564777374
0.005170573014765978
0.06163575127720833
-0.0315701998770237
-0.04845687374472618
0.015278730541467667
-0.022003695368766785
0.06180000677704811
-0.03387219458818436
0.04660538583993912
0.013234026730060577
-0.012729467824101448
0.01433057151734829
-0.07197903096675873
0.04524875432252884
-0.006974938791245222
0.0327037014067173
0.04931086674332619
-0.05841052904725075
0.03721131384372711
0.004963589366525412
-0.05282348394393921
0.03703201934695244
-0.03721217066049576
-0.02180301770567894
0.06465474516153336
0.0035261434968560934
-0.031094523146748543
-0.02674468606710434
-0.009421899914741516
-0.04710745811462402
-0.011327611282467842
-0.0024836768861860037
-0.05536706745624542
-0.01131088100373745
0.019899921491742134
-0.017344769090414047
-0.02787918411195278
0.042038921266794205
0.012856759130954742
-0.01145650539547205
0.032826654613018036
0.023837288841605186
-0.046300891786813736
0.04010394960641861
-0.05453577637672424
-0.02425939030945301
0.02469966560602188
0.06167793646454811
-0.06718940287828445
-0.04165200516581535
0.025904549285769463
-0.0057553513906896114
0.02838411182165146
-0.008283721283078194
-0.02035568468272686
0.04478639364242554
0.06872612982988358
0.06296410411596298
-0.03356992080807686
-0.0629405602812767
-0.0600288026034832
-0.004628095310181379
0.0638173446059227
0.05079132318496704
-0.015602592378854752
0.04141099750995636
-0.02392583154141903
-0.026399513706564903
-0.04875434935092926
0.014167701825499535
-0.02839084155857563
0.05054536089301109
-0.014069928787648678
-0.05730750039219856
-0.04331434518098831
0.06400802731513977
-0.02055048942565918
-0.003536563366651535
0.02662658505141735
-0.031216571107506752
0.04936687648296356
0.03613758832216263
-0.054707322269678116
0.04126327857375145
0.03149809688329697
-0.020468417555093765
-0.060507431626319885
0.05784795060753822
0.02516237460076809
0.06092230975627899
0.01892031915485859
-0.03363439068198204
0.027740471065044403
0.007657602895051241
-0.05557002127170563
0.000921430706512183
-0.062475237995386124
-0.021787144243717194
-0.055034734308719635
0.04322350025177002
0.04462558403611183
0.07398063689470291
0.036541737616062164
-0.05620577931404114
-0.037448156625032425
0.006410408765077591
0.059669073671102524
0.07546765357255936
0.05082221329212189
0.007950618863105774
-0.030073532834649086
-0.005239601247012615
0.03279382362961769
-0.05262267217040062
0.06053663790225983
-0.000899121689144522
0.0600336529314518
-0.04231557622551918
-0.07292930036783218
0.03923536464571953
0.06317085772752762
-0.013810847885906696
-0.013354647904634476
0.003972300793975592
-0.028308551758527756
0.001978429267182946
0.013353172689676285
-0.03518638014793396
-0.03716519474983215
0.014911837875843048
0.06281571090221405
-0.014594366773962975
-0.038225725293159485
-0.060931675136089325
0.04563305899500847
-0.020971493795514107
-0.07042878121137619
-0.05405673384666443
-0.027464821934700012
-0.03643396124243736
0.007682340685278177
0.020052822306752205
-0.019732438027858734
-0.00019328373309690505
0.05034374073147774
-0.013782220892608166
0.014978418126702309
-0.03659968823194504
-0.05178682133555412
0.050064969807863235
0.048855382949113846
0.001912145409733057
0.04304578900337219
0.06798499077558517
0.008235977962613106
-0.07145039737224579
0.04357432201504707
0.07374455034732819
-0.006842391565442085
-0.06773396581411362
0.00491999601945281
-0.007997923530638218
0.02928454615175724
-0.003124589566141367
0.06485821306705475
-0.07128240913152695
-0.05393350124359131
-0.04224512726068497
0.016072608530521393
0.04617668688297272
0.001500694896094501
-0.04972462356090546
0.015750551596283913
0.03951942175626755
-0.03246520087122917
-0.05325648933649063
0.0009882899466902018
-0.0388239249587059
0.017438016831874847
0.05607106536626816
-0.02259228192269802
0.04380766302347183
0.012929966673254967
0.06548663973808289
0.042322710156440735
0.04685588181018829
0.037798263132572174
-0.06490727514028549
0.042763400822877884
0.018552692607045174
0.030437814071774483
-0.04149739444255829
0.05979514122009277
-0.051939334720373154
-0.04199421405792236
0.07285615056753159
0.03416946530342102
0.06941988319158554
0.07198068499565125
0.036702584475278854
0.06864721328020096
0.020245272666215897
0.013466478325426579
0.05823887139558792
-0.05051565170288086
0.004232281353324652
-0.02674051932990551
0.06625425070524216
-0.04677458852529526
-0.05408948287367821
-0.05244865640997887
0.04159488528966904
-0.022636009380221367
-0.025709331035614014
0.01336408220231533
-0.035730358213186264
0.020107662305235863
-0.002225106116384268
0.039914436638355255
0.0054664090275764465
0.007180350366979837
0.03854876384139061
0.031588662415742874
0.054797179996967316
0.07250592857599258
0.028795981779694557
-0.05881030112504959
0.06425530463457108
-0.05212793126702309
0.045002687722444534
-0.05148943141102791
0.04813903197646141
0.06708240509033203
0.07911327481269836
0.03755214437842369
0.050561677664518356
-0.048887282609939575
0.024622071534395218
-0.000771345803514123
0.06028369814157486
0.006822862196713686
-1.1442776667536236e-05
0.01039332989603281
0.06166061758995056
-0.020972179248929024
0.01951753906905651
-0.05974230915307999
-0.039495304226875305
-0.06606236845254898
-0.018607832491397858
0.0034449687227606773
-0.03682482987642288
-0.005592159926891327
-0.025488605722784996
0.029157862067222595
0.02097005769610405
0.06378832459449768
-0.049281228333711624
-0.05889454483985901
0.06994631141424179
-0.0065279146656394005
-0.06928975135087967
0.00021669843408744782
-0.007668610196560621
0.034157585352659225
-0.016934385523200035
-0.05217325687408447
0.0470782108604908
-0.02687934599816799
0.0577947162091732
0.02975929155945778
0.01370053831487894
-0.016798052936792374
-0.028487984091043472
0.051286887377500534
0.04828052967786789
0.0018787243170663714
0.006101400125771761
-0.03784516081213951
0.06031139940023422
0.010771788656711578
0.003901217831298709
-0.03035550005733967
0.037458568811416626
-0.006392856128513813
0.0115669509395957
-0.023574618622660637
0.003729885909706354
0.0483948215842247
0.05825698748230934
-0.06316663324832916
0.04706864804029465
-0.057597432285547256
-0.022074399515986443
0.03444521874189377
0.025414414703845978
-0.06495343893766403
-0.005842967890202999
-0.0285890381783247
0.04179088771343231
-0.009701428934931755
-0.007941238582134247
0.06628324836492538
-0.024354247376322746
-0.009977078065276146
0.03689628466963768
-0.001231227070093155
-0.048072393983602524
-0.024729296565055847
-0.0280893687158823
0.009323709644377232
-0.049141958355903625
0.05063372105360031
0.03968781977891922
-0.06520120054483414
0.011052222922444344
-0.02927878499031067
-0.03875851631164551
0.032306425273418427
0.034463897347450256
-0.04710011184215546
0.03901370242238045
0.03503195941448212
0.012477577663958073
0.005419271998107433
-0.024238143116235733
0.05924322456121445
-0.029033534228801727
0.07571333646774292
0.011622645892202854
-0.06529635936021805
-0.006947439629584551
-0.0015981016913428903
0.027293499559164047
0.04737960174679756
-0.05513211339712143
0.012226399034261703
-0.03948504105210304
0.020222431048750877
-0.016633467748761177
-0.05481446161866188
0.011634464375674725
0.06364474445581436
0.012794685550034046
-0.00727202370762825
-0.043818291276693344
0.06122610345482826
0.0032735010609030724
-0.06328044831752777
-0.0021898995619267225
0.055190738290548325
-0.029515014961361885
-0.05962135270237923
0.008706286549568176
-0.07177206873893738
0.06502252072095871
0.07147184014320374
-0.052318017929792404
-0.03283523768186569
-0.05694200471043587
-0.020296717062592506
0.06386435776948929
-0.0538766011595726
-0.0698929950594902
-0.0060872165486216545
0.045467790216207504
-0.018865616992115974
-0.04154064133763313
0.008179728873074055
0.039462435990571976
-0.015822025015950203
0.04433519393205643
0.03165914863348007
-0.06684473156929016
0.008739033713936806
0.019659506157040596
-0.0511709563434124
-0.05702349171042442
0.044958941638469696
0.05415835604071617
0.021240532398223877
0.06004326045513153
-0.022011244669556618
0.029256481677293777
0.07349494844675064
0.030139558017253876
0.061715446412563324
-0.034300968050956726
-0.028435971587896347
0.04108704626560211
0.016924742609262466
0.02086634933948517
0.056137025356292725
0.0539548359811306
-0.02323908358812332
-0.05703300982713699
-0.06111821159720421
-0.014179430902004242
-0.06237446144223213
-0.02172289602458477
0.026229681447148323
-0.03869091719388962
-0.002523738658055663
-0.02856966108083725
0.013978925533592701
-0.010945431888103485
-0.04601554200053215
-0.04461459815502167
-0.04243002086877823
-0.03472040221095085
-0.006059791427105665
-0.03072514757514
0.020336933434009552
-0.015403153374791145
-0.04122345149517059
-0.015728889033198357
0.00030316421180032194
0.040187038481235504
0.041450582444667816
-0.05611153319478035
0.059343934059143066
-0.04125719889998436
0.026260467246174812
-0.025308670476078987
-0.07356119155883789
-0.020670412108302116
0.0015578428283333778
0.006893761456012726
0.04551079869270325
-0.010322833433747292
0.019710462540388107
-0.007893809117376804
-0.016081172972917557
0.055429812520742416
0.03758334368467331
0.04159872606396675
0.05277559906244278
-0.05051035061478615
-0.05148317292332649
-0.05649827793240547
-0.007137461565434933
-0.05292609706521034
-0.03277892619371414
-0.015935294330120087
0.03973650187253952
-0.040975071489810944
-0.046589165925979614
0.027724614366889
0.054250504821538925
0.013697394169867039
0.03800822049379349
0.0031367402989417315
-0.06017935648560524
0.033774085342884064
0.06966271251440048
-0.0007800062885507941
-0.05853593349456787
-0.004949589725583792
0.010160373523831367
-0.03773760423064232
-0.035740725696086884
0.03662259876728058
-0.0678388923406601
-0.0030679586343467236
0.010265499353408813
0.04154054820537567
0.06112273409962654
0.05480373650789261
-0.05443284288048744
0.004660210106521845
-0.0489375963807106
-0.05753328278660774
0.002514205640181899
0.0712074562907219
0.020442262291908264
-0.00022769341012462974
0.06561008095741272
0.01737080328166485
0.059350140392780304
-0.013372350484132767
0.07425878196954727
0.06600645184516907
0.039915017783641815
-0.012804335914552212
0.08075869083404541
-0.055828988552093506
-0.015779079869389534
0.08032193034887314
0.08450451493263245
0.0009279358782805502
0.04958203062415123
0.04208828881382942
0.053331829607486725
0.0335046723484993
0.05406997725367546
-0.06878233700990677
0.051505882292985916
-0.03785964474081993
0.046216923743486404
0.05693603307008743
-0.05614631623029709
-0.03970294073224068
-0.04626014456152916
0.00295850052498281
0.05825508013367653
-0.025615040212869644
0.0085105886682868
0.04083816334605217
-0.016100535169243813
-0.05788068845868111
0.00914105586707592
0.012453707866370678
0.03972766175866127
-0.06160036474466324
0.006163476034998894
-0.003635216038674116
0.03827802836894989
0.03453740477561951
-0.01689266599714756
-0.047322988510131836
-0.05218178406357765
-0.032619573175907135
0.06256476044654846
-0.032004691660404205
0.019047748297452927
-0.045006636530160904
-0.023791389539837837
-0.04565594345331192
-0.06182254105806351
-0.02558116987347603
0.0026945651043206453
-0.04052381590008736
-0.051578741520643234
0.017614074051380157
0.004830229561775923
-0.015565131790935993
-0.06669069826602936
0.03371443971991539
0.039498236030340195
-0.027080830186605453
0.04298504441976547
-0.029464757069945335
-0.019414616748690605
-0.006881503853946924
-0.054874539375305176
-0.044694822281599045
-0.003944460302591324
0.041995491832494736
-0.03264918178319931
-0.031411293894052505
-0.03545733168721199
0.05681803822517395
0.018094483762979507
0.0611099898815155
-0.037592239677906036
0.04677154868841171
-0.0018989660311490297
0.003875325433909893
0.0006117165903560817
-0.040354326367378235
0.055491503328084946
0.042181000113487244
0.06215100362896919
-0.07187201827764511
0.023929167538881302
0.005270784720778465
0.05610889941453934
-0.05268002301454544
0.026041924953460693
-0.0543997585773468
0.004739539697766304
0.05624959617853165
0.046916570514440536
0.04834188520908356
-0.07212260365486145
0.04800177738070488
-0.027346983551979065
-0.019968785345554352
0.015251976437866688
-0.004464824218302965
-0.06832665950059891
-0.019850509241223335
0.06698231399059296
0.06189611926674843
-0.05139988288283348
0.0012640475761145353
0.018104316666722298
0.024997849017381668
0.024628035724163055
-0.037287697196006775
0.03871992602944374
0.02975466474890709
0.05222492292523384
0.06879828125238419
-0.011748619377613068
0.046680793166160583
0.006162344478070736
0.055959928780794144
0.0713728666305542
0.05220631882548332
-0.010885005816817284
0.08122333139181137
0.007148031610995531
0.04794995114207268
-0.001512290327809751
-0.05888248607516289
0.06906374543905258
0.007112754043191671
0.040638092905282974
0.057333946228027344
-0.052407894283533096
0.01755853369832039
-0.017733244225382805
0.046667858958244324
-0.06576502323150635
-0.034940965473651886
0.02466510981321335
0.021238701418042183
-0.020225675776600838
-0.005931730382144451
0.05247516557574272
0.004223785828799009
-0.06991717964410782
-0.03936891630291939
0.04632723703980446
0.008509098552167416
-0.06524403393268585
0.048454996198415756
-0.061303652822971344
0.04242287203669548
0.004210489336401224
-0.03975041210651398
-0.03804675489664078
-0.030407439917325974
-0.0697908028960228
0.06835329532623291
-0.059198085218667984
0.025109991431236267
-0.06176331639289856
0.057364434003829956
0.04916243255138397
0.04530066251754761
-0.02665843814611435
-0.06922180950641632
0.02582906000316143
-0.011036806739866734
0.04262444004416466
-0.016067225486040115
0.04930470138788223
0.04049242287874222
-0.024442803114652634
0.040317002683877945
-0.025628920644521713
-0.053912267088890076
-0.04816190153360367
0.06745366007089615
-0.03704572096467018
-0.033915817737579346
0.01798608899116516
0.06544388085603714
0.05764860659837723
0.05256813019514084
0.04766232520341873
-0.03284688666462898
0.05700277164578438
0.048851124942302704
-0.03876867890357971
-0.052172690629959106
0.007139474153518677
-0.03725505992770195
-0.03526192158460617
0.016402265056967735
0.048954859375953674
-0.07261160761117935
0.04105846956372261
0.0434841513633728
-0.05890315771102905
0.03561200201511383
0.012785399332642555
-0.025957675650715828
-0.014088308438658714
0.04110769182443619
-0.026888392865657806
0.018254835158586502
0.0012967606307938695
0.009816708974540234
-0.0528697744011879
-0.06331394612789154
0.07200352847576141
0.027343086898326874
-0.06414611637592316
-0.04826866462826729
0.06549148261547089
-0.0665808692574501
0.07242599129676819
0.04338117688894272
0.007461906876415014
0.052771687507629395
0.015866762027144432
0.007800513878464699
0.022367063909769058
0.011244847439229488
-0.02582741528749466
-0.027006179094314575
-0.009864605963230133
-0.04197895899415016
-0.04520808532834053
0.06135158613324165
-0.02791348472237587
0.019160157069563866
0.006376294884830713
0.05145968124270439
-0.052217401564121246
0.054479897022247314
0.05025361478328705
0.05344965681433678
-0.04372037202119827
-0.008101009763777256
-0.031757231801748276
-0.0465831533074379
0.004786224570125341
0.04498491808772087
-0.053292978554964066
0.009304302744567394
0.05835858732461929
0.04570500925183296
-0.041909050196409225
0.054409146308898926
0.0278218612074852
-0.06440936028957367
0.002254196209833026
0.07146386802196503
-0.05055997148156166
0.0346953421831131
0.004371900577098131
-0.05385460704565048
0.011872680857777596
-0.055079590529203415
0.04148716479539871
-0.06119060143828392
-0.05572395771741867
0.04606444761157036
-0.04664190858602524
-0.022022755816578865
0.015466381795704365
0.01260188315063715
0.003324391320347786
0.004293318837881088
0.03237542137503624
-0.04921015724539757
-0.07197517901659012
-0.023605909198522568
0.012111634947359562
0.019457850605249405
0.05952746793627739
-0.012952574528753757
0.02390046790242195
0.04379155859351158
0.028519777581095695
0.035344842821359634
-0.06558958441019058
-0.05081808194518089
-0.011833765543997288
0.05210569500923157
-0.054690174758434296
0.041212454438209534
0.0052941287867724895
-0.004312529694288969
-0.04904157295823097
-0.03938393294811249
0.003130492055788636
-0.07345706969499588
0.07361627370119095
-0.0044088102877140045
-0.025548264384269714
0.03472651168704033
-0.010872896760702133
-0.04251866787672043
-0.031828995794057846
-0.04886091500520706
-0.004336974583566189
-0.022884853184223175
-0.05709114298224449
-0.044617682695388794
0.02773556485772133
-0.02355937473475933
-0.001544963801279664
0.011655271053314209
-0.019846998155117035
0.04452982544898987
-0.07552900910377502
0.053898975253105164
0.004751782398670912
0.023954277858138084
0.016529958695173264
0.05146738514304161
-0.058082498610019684
0.03391019254922867
0.0730782225728035
-0.049693763256073
-0.06449470669031143
0.01776052638888359
-0.07651760429143906
-0.04768417403101921
0.04214417561888695
-0.07675618678331375
0.0043842606246471405
-0.06803500652313232
-0.04098246246576309
0.05339257791638374
-0.0007404415518976748
0.0382315032184124
-0.006999185308814049
0.06489390134811401
0.04582444578409195
-0.0638761892914772
-0.023235362023115158
-0.006399022880941629
0.07161349803209305
-0.047644805163145065
0.032095275819301605
0.014883862808346748
0.005331771448254585
0.04384316876530647
0.023481568321585655
-0.02761036530137062
-0.028245994821190834
0.018896980211138725
0.05657598376274109
-0.017557671293616295
-0.02901114895939827
-0.05195522680878639
-0.032575082033872604
-0.039004985243082047
-0.021888354793190956
-0.026063276454806328
0.057183824479579926
-0.007969693280756474
0.005801263730973005
0.0004183209966868162
0.004212579689919949
0.02961334027349949
0.058729786425828934
0.043162938207387924
0.03757815435528755
0.048365268856287
0.019541380926966667
-0.030361071228981018
-0.049261681735515594
0.07492636144161224
-0.035756245255470276
-0.005991311278194189
0.06162925809621811
-0.029754657298326492
-0.0279251541942358
0.037024497985839844
0.008664648048579693
-0.007469046860933304
-0.04734731465578079
0.04359596595168114
0.023067282512784004
-0.016683507710695267
-0.04741324111819267
0.009037301875650883
-0.06280066817998886
-0.02367107942700386
0.006965788081288338
0.006299325730651617
0.009496428072452545
-0.07941828668117523
-0.07111550122499466
-0.03136344254016876
-0.056984033435583115
0.03721783310174942
0.005295751616358757
-0.020771222189068794
-0.046963170170784
-0.005431921686977148
-0.05696411803364754
0.016446169465780258
0.048390310257673264
0.005046672187745571
-0.0444616973400116
0.035025324672460556
0.03752608224749565
-0.00633221073076129
0.02310122549533844
-0.003942898008972406
-0.05944481119513512
0.017075514420866966
0.0049789585173130035
-0.0213813167065382
0.05293232575058937
0.03748853877186775
0.042971640825271606
-0.059825651347637177
0.06711991131305695
-0.04133852198719978
-0.03765545040369034
0.06236705929040909
-0.015562054701149464
-0.018141157925128937
0.06233217194676399
0.052071407437324524
-0.01153568271547556
0.022466376423835754
0.02344401553273201
0.06681440770626068
-0.022159945219755173
0.07113338261842728
-0.05313185602426529
-0.05508994311094284
0.033983755856752396
0.030140627175569534
0.051423244178295135
-0.07040326297283173
-0.06362611800432205
-0.07113770395517349
-0.022762924432754517
-0.03682168573141098
0.004170034546405077
-0.04648737236857414
0.004979827906936407
0.04474221169948578
-0.054404113441705704
0.004639689344912767
-0.001340254326350987
0.04523489996790886
-0.061777036637067795
0.02223769947886467
0.06590307503938675
0.06864267587661743
0.06785901635885239
-0.0011720297625288367
-0.030328987166285515
-0.05462947115302086
-0.0013682646676898003
0.04890093207359314
-0.0599866658449173
-0.013788030482828617
0.008442080579698086
-0.03643162548542023
