-0.07494701445102692
-0.013894954696297646
0.015556220896542072
-0.027532801032066345
-0.00875181145966053
-0.0032260254956781864
-0.033218685537576675
0.040064968168735504
0.003988602664321661
0.014209323562681675
-0.06226855516433716
-0.06928479671478271
0.07941937446594238
0.04478820040822029
-0.006664545275270939
0.001319048460572958
0.06917043775320053
0.00829723197966814
-0.03295409679412842
0.02246568165719509
-0.0751548707485199
-0.061263713985681534
0.06983217597007751
0.06714481860399246
0.07997114211320877
-0.024310395121574402
0.003983877599239349
-0.04184021055698395
0.05628827586770058
0.04648546874523163
-0.07488185167312622
-0.03227921202778816
0.05138558894395828
0.07412534952163696
-0.023649826645851135
0.05105789378285408
-0.07178107649087906
0.003452966921031475
0.057093631476163864
0.06634268909692764
0.04923120141029358
0.05645148456096649
0.03584425896406174
0.020082073286175728
-0.04929857328534126
0.07142917811870575
-0.055608320981264114
-0.05167192220687866
-0.02551211230456829
-0.04212505742907524
0.016603445634245872
0.023413075134158134
0.03916562721133232
-0.07442014664411545
0.06691634654998779
-0.03784378618001938
-0.06573252379894257
0.04845985397696495
0.05208471417427063
-0.04897632449865341
0.0089576356112957
0.057738468050956726
0.04467817768454552
0.051592711359262466
0.02058265544474125
-0.06923515349626541
0.004265021998435259
-0.034269366413354874
0.03857438638806343
0.00608866848051548
-0.07896997779607773
-0.025621846318244934
0.0036881298292428255
-0.06898906081914902
-0.05773429945111275
-0.003458399325609207
0.07037478685379028
-0.010428822599351406
-0.04455471783876419
-0.007382778450846672
-0.007725757546722889
0.0339604914188385
0.07954242080450058
0.017828961834311485
-0.03557910397648811
-0.01049137394875288
0.04014567285776138
-0.07540011405944824
0.046722617000341415
0.07581939548254013
0.05538104474544525
-0.04858865588903427
0.07318800687789917
-0.07199068367481232
-0.03535163030028343
-0.03591327369213104
-0.007653564214706421
0.03916246443986893
0.04007469862699509
-0.056771233677864075
0.037645239382982254
-0.012406513094902039
-0.06954994797706604
0.03376098349690437
0.036254316568374634
0.018473008647561073
-0.0022610188461840153
0.02968202345073223
-0.0423821359872818
0.06212110072374344
-0.019130796194076538
0.06795872002840042
0.0069885170087218285
0.03956455737352371
0.05399471893906593
-0.043304674327373505
0.032271768897771835
0.07236441969871521
0.009333202615380287
-0.02644271031022072
0.02788800187408924
0.07748694717884064
0.028660573065280914
0.027832332998514175
0.02823323756456375
0.014669288881123066
0.0649820864200592
-0.010104399174451828
-0.055263593792915344
-0.010442012920975685
-0.07572038471698761
-0.01870870776474476
-0.0045309606939554214
0.05587589368224144
0.04664081707596779
-0.024387449026107788
0.05308711528778076
0.018818728625774384
-0.001575744361616671
0.05597102269530296
0.03951767459511757
0.06595668941736221
0.06688331067562103
0.004547553136944771
0.07263529300689697
0.01973014324903488
-0.0824446901679039
-0.08032345771789551
-0.0478731207549572
-0.038440994918346405
-0.003241049824282527
-0.028329864144325256
0.02351730316877365
0.07742904126644135
0.08044633269309998
-0.06023501232266426
-0.05703984946012497
0.06573648005723953
0.05245467275381088
-0.06751537322998047
0.06428360939025879
0.07203520834445953
0.03015347570180893
0.0055727167055010796
0.03502700477838516
-0.015827108174562454
-0.019287917762994766
0.021382980048656464
0.06920445710420609
0.07338985055685043
0.04585985466837883
0.023115143179893494
0.03539949283003807
0.02953365072607994
0.017377033829689026
-0.011113687418401241
0.04146905243396759
-0.04902533441781998
-0.023045437410473824
0.039376288652420044
0.015683559700846672
-0.012691293843090534
-0.08019702881574631
0.07965870201587677
0.0431680828332901
-0.0016773504903540015
-0.06120935454964638
-0.021651491522789
0.06067546084523201
0.006882570218294859
0.08007613569498062
-0.0554383210837841
0.027742279693484306
-0.07963080704212189
0.02864995226264
0.05193030461668968
0.034789469093084335
0.032637204974889755
0.05850034952163696
0.004903174005448818
0.00401108805090189
-0.052791278809309006
-0.05102536082267761
-0.0007347582723014057
0.03578893095254898
-0.03552142530679703
0.02400820702314377
-0.08546222001314163
0.006465789396315813
0.05969297140836716
-0.0034245059359818697
0.026705302298069
-0.08703348785638809
-0.01712917909026146
0.021955545991659164
0.055253494530916214
-0.022268086671829224
-0.05321526899933815
-0.02756723016500473
-0.013592761941254139
-0.06065117195248604
0.04740884527564049
0.05335768684744835
0.06530457735061646
-0.08200330287218094
-0.043350622057914734
-0.06514852494001389
-0.07263907045125961
0.010186451487243176
-0.024178097024559975
0.07430236041545868
-0.023579223081469536
-0.015731729567050934
-0.04155965894460678
-0.08023182302713394
-0.0069084386341273785
0.0478057786822319
-0.06897084414958954
-0.0687147006392479
-0.055905815213918686
0.07068087160587311
0.03215808421373367
0.0007987224962562323
-0.027634579688310623
0.025044554844498634
0.0189504437148571
0.000717751681804657
0.0616086907684803
-0.031243495643138885
-0.06416129320859909
0.0779019147157669
-0.0542953722178936
0.06263363361358643
0.013823120854794979
0.07258833199739456
0.06158806011080742
