-0.0016772100934758782
0.0011704994831234217
-0.0002894133504014462
-1.8568989617051557e-05
-0.0024045591708272696
-0.002366726053878665
-8.264138887170702e-05
-0.0017902238760143518
-0.004358274862170219
-0.0009263591491617262
-0.0010748110944405198
-0.004351368173956871
-0.0034824039321392775
0.001616588793694973
-0.0016678891843184829
0.0012608079705387354
-0.0013374610571190715
0.0005964634474366903
-0.0017696014838293195
-0.0033370584715157747
-0.005749089643359184
0.0013323989696800709
-0.001497688703238964
-0.0003554775903467089
0.0006929697119630873
-0.00030158748268149793
-0.00012558708840515465
-0.002608140232041478
-0.0023778388276696205
-0.0024821050465106964
-0.0045465826988220215
-0.0042915502563118935
0.00022331740183290094
-0.00043773712241090834
-0.003413171274587512
-0.0033979364670813084
0.001411515404470265
-0.0007438148022629321
-0.003085748292505741
-0.0007562993559986353
-0.000430602376582101
-0.004284242633730173
0.0004803870397154242
-0.0028332832735031843
-0.0007356092683039606
-0.003078626235947013
0.000317892903694883
-8.357582555618137e-05
-0.004231713712215424
-0.0014776913449168205
-0.004203776828944683
0.0004615126526914537
0.002666512271389365
-0.0008080984698608518
-0.0001656560634728521
0.0034998769406229258
-0.004555131774395704
-0.0032670795917510986
-0.006036227103322744
-8.156293915817514e-05
-0.0016546783735975623
-0.00262788706459105
-0.0008253941778093576
-0.00018725871632341295
-0.0006520528695546091
-0.002902061678469181
-0.0005000365781597793
0.00025533849839121103
0.0008573874947614968
-0.0012606126256287098
-0.0014485256979241967
-0.0011974993394687772
-0.003693903563544154
0.0005346570396795869
-0.0010341680608689785
0.0027768053114414215
-0.0009494971018284559
0.0031645908020436764
-0.00035520471283234656
-0.0022550616413354874
0.0007343211909756064
-0.002127154031768441
-0.00556939234957099
0.00034119992051273584
-0.0020566568709909916
-0.0005086010205559433
0.0031185473781079054
0.00028352320077829063
-0.0023074750788509846
-0.0022032330743968487
-0.0009438226697966456
0.0015535312704741955
-0.0016778241842985153
-4.028551120427437e-05
-0.0016072519356384873
0.00010789529187604785
-0.0011595849646255374
-0.0015092948451638222
-0.0033374286722391844
-0.0024085973855108023
-0.0025372200179845095
0.0015706507256254554
-0.0027093435637652874
-0.0009461874724365771
8.821395022096112e-05
0.0022895215079188347
-0.0018941272282972932
-0.002359699923545122
-0.0037570279091596603
0.00010288693010807037
-0.0013278594706207514
-0.0010659446706995368
1.10922828753246e-05
-0.003487501759082079
-0.0004391661495901644
0.0005700502078980207
0.002485979814082384
-0.0007961475057527423
0.0001577046059537679
0.0014329197583720088
-0.0009057538118213415
0.00016858904564287513
-0.002682184334844351
0.00013217020023148507
0.0013345697661861777
0.0011073107598349452
-0.0018750901799649
-0.003238460049033165
