0.0020928755402565002
0.00040440430166199803
-0.006566094234585762
-0.009413904510438442
0.006029821466654539
0.013271259143948555
-0.003305025864392519
0.005642265547066927
-0.007952620275318623
0.0004940014332532883
-0.0028782046865671873
-0.010653581470251083
0.007511771284043789
0.0005691510159522295
0.009882262907922268
0.004119339864701033
0.013722100295126438
-0.001678867032751441
-0.00409654201939702
-0.00015103716577868909
-0.004203370306640863
-0.014212749898433685
0.0022010067477822304
0.010627099312841892
0.0020313148852437735
0.010868907906115055
-0.0042526256293058395
-0.011980712413787842
-0.011020262725651264
0.010729056783020496
0.01188336405903101
-0.00827175285667181
-0.012619953602552414
0.0030306815169751644
0.010860761627554893
-0.012275840155780315
-0.004975317977368832
0.0042904033325612545
0.011562320403754711
-0.012639293447136879
0.00448802812024951
-0.0025843377225100994
-0.009122799150645733
0.006986646447330713
-0.009590264409780502
-0.006178566254675388
0.009743659757077694
0.004714857321232557
0.01416972279548645
-0.0005505958688445389
0.010759231634438038
-0.006243743002414703
0.008285405114293098
0.0069031305611133575
0.012491878122091293
0.007671121507883072
-0.0019291683565825224
-0.0015057119308039546
0.0001694968668743968
0.009390725754201412
0.005645222496241331
0.0043379259295761585
0.008865523152053356
0.013914767652750015
-0.009237563237547874
0.009647805243730545
-0.009028613567352295
-0.0029464897233992815
-0.008416219614446163
0.003683367744088173
0.008845850825309753
0.0067315734922885895
-0.006484726443886757
-0.0001212336792377755
0.012811196967959404
-0.0007987688295543194
-0.010189862921833992
-0.0069221509620547295
-8.66678892634809e-05
0.010640360414981842
0.004184820223599672
0.010454397648572922
0.012447699904441833
0.014051896519958973
-0.008443607948720455
0.012944217771291733
-0.012686169706285
-0.0035616739187389612
0.0021354807540774345
-0.007512944284826517
0.0016555791953578591
-0.0013563927495852113
-0.0028074278961867094
-0.0035526491701602936
0.0010360643500462174
-0.010297407396137714
-0.0011705550132319331
-0.00930573046207428
-0.004108994733542204
0.00466633215546608
0.014009892009198666
0.008921005763113499
-0.008061685599386692
0.00037054455606266856
0.003960825502872467
-0.0005527295870706439
-0.0006425409810617566
-0.012199507094919682
0.011206717230379581
0.008355909958481789
0.0046040671877563
6.834817759227008e-05
-0.003251365851610899
-0.008268042467534542
-0.006577398627996445
-0.0022456052247434855
0.013092335313558578
-0.005678899586200714
0.008303874172270298
-0.002393066417425871
-0.013570796698331833
-0.003130334196612239
0.010267890989780426
-0.000629705551546067
-0.013544484972953796
-0.007323866710066795
-0.011928878724575043
-0.006721459794789553
-0.002588336355984211
0.012333407998085022
-0.0061741601675748825
0.006266872864216566
-0.00472009414806962
0.0003511236282065511
-0.0026098242960870266
-0.001549481530673802
-0.00010944132372969761
-0.0019642433617264032
0.013612894341349602
-0.013084974139928818
0.01236488576978445
-0.009413028135895729
-0.008366045542061329
0.006958248093724251
0.00529079046100378
-0.005423374008387327
0.004274536855518818
-0.00015471415827050805
0.006430882029235363
0.007690013851970434
0.01215620618313551
0.0010822415351867676
0.004005647264420986
-0.012879323214292526
0.013175844214856625
0.008595787920057774
-0.013093842193484306
0.001259433920495212
0.0074140592478215694
-0.002788576064631343
-0.0020353293512016535
-0.0020891614258289337
-0.0043692197650671005
0.0034270375035703182
0.014420291408896446
-0.01458442397415638
0.005065044853836298
-0.0035926043055951595
0.014509198255836964
0.0048733064904809
0.009821103885769844
-0.004880452062934637
0.006959564983844757
0.0026027944404631853
0.006807471159845591
0.010750403627753258
0.003726951079443097
0.002445635851472616
0.011675775982439518
0.005830349400639534
-0.007035429589450359
-0.010042891837656498
0.01193281915038824
0.0023037432692945004
-0.0037563748192042112
0.008764879778027534
-0.0009081732714548707
-0.011424324475228786
0.0032786489464342594
-0.01259858999401331
-0.01386329997330904
-0.002457201713696122
-0.005309013649821281
0.003852469613775611
0.0029157979879528284
-0.002362611936405301
-0.009160002693533897
-0.009401855990290642
0.011019844561815262
-0.0060836938209831715
0.006207301747053862
-0.007142723072320223
0.013491800054907799
0.0062905363738536835
-0.0012819052208214998
-0.006882093846797943
0.0033885997254401445
-0.013733051717281342
0.01358537096530199
0.00047241177526302636
0.01400468684732914
-0.003899429924786091
0.013001423329114914
-0.006623579189181328
-0.0080378707498312
0.0037898183800280094
0.0020661174785345793
0.01402500830590725
-0.01156952977180481
0.007811124436557293
-0.0027865073643624783
-0.00977375078946352
-0.009347696788609028
0.008185084909200668
-0.009629159234464169
0.014037218876183033
-0.007035186979919672
-0.005280471406877041
0.006925786379724741
0.01340922899544239
0.008548668585717678
0.00887385942041874
-0.008843854069709778
-0.006250535603612661
0.008785631507635117
0.010465032421052456
0.010705692693591118
-0.008809329010546207
0.008586333133280277
0.013335890136659145
-0.010331692174077034
0.010780934244394302
0.0020111475605517626
0.005961447022855282
-0.004471323918551207
0.0014799268683418632
-0.01127624697983265
-0.010988540016114712
0.013870621100068092
0.0022267987951636314
0.0015647263498976827
-0.0006471156957559288
-0.01373730693012476
-0.0008009516750462353
0.007987985387444496
0.0016262063290923834
0.008987735025584698
0.012225816957652569
-0.014621737413108349
0.011396941728889942
0.006179614923894405
-0.008160760626196861
-0.004450543783605099
-0.001871393877081573
0.005272068548947573
-0.009469876997172832
-0.00705573009327054
-0.011298616416752338
-0.012531966902315617
-0.012518524192273617
-0.010218403302133083
0.013761387206614017
-0.0015288383001461625
-0.010535231791436672
0.011380810290575027
-0.006615140940994024
0.007773173041641712
-0.010985702276229858
-0.010980427265167236
-0.006939304992556572
-0.009045730344951153
0.0026450289878994226
0.000276376202236861
-0.009217359125614166
0.008341061882674694
0.007252520881593227
0.008276306092739105
0.010338344611227512
-0.002383880317211151
-0.0016854910645633936
-0.0013935978058725595
0.0023142537102103233
-0.012986698187887669
-0.0013575253542512655
-0.0008700198377482593
0.006683050189167261
-0.011506861075758934
-0.013816174119710922
0.005649921949952841
-0.0022939685732126236
-0.0007310002110898495
0.00532357906922698
0.0091515788808465
-0.0001817091106204316
-0.014354955404996872
0.006735289469361305
0.0073811267502605915
-0.012601177208125591
-0.012659750878810883
-0.013935230672359467
-0.010336770676076412
0.005349812097847462
6.647784175584093e-05
-0.0022602793760597706
0.004660055972635746
0.01429517101496458
0.01403131801635027
-0.003582485718652606
0.01000997144728899
-0.013617835007607937
-0.001839362201280892
0.009347768500447273
-0.008782456628978252
0.004488809499889612
0.008819702081382275
-0.013899737037718296
-0.002232588827610016
-0.014431625604629517
-0.010718047618865967
0.0006449591601267457
-0.012104092165827751
0.006426867563277483
0.011622409336268902
-0.0012833469081670046
0.003285589162260294
-0.00900723971426487
0.004995197057723999
-0.005281620193272829
-0.0016087645199149847
0.013373149558901787
-0.004775373265147209
0.005774653982371092
-0.0071297697722911835
0.013156064786016941
0.0024678262416273355
-0.012891811318695545
0.011494604870676994
0.011776670813560486
-0.0013467042008414865
0.0004564328119158745
-0.004494812339544296
-0.01075644139200449
-0.01136324368417263
-0.009363435208797455
-0.007703511510044336
0.0035057871136814356
0.013536729849874973
-0.007096410728991032
0.004963625688105822
-0.006423961371183395
-0.013171178288757801
-0.013633083552122116
0.011846436187624931
0.013131022453308105
0.00351610966026783
-0.005531557835638523
0.0074477167800068855
-0.0051636965945363045
-0.00829443521797657
0.009164482355117798
-0.00015301938401535153
0.001178921083919704
-0.009775749407708645
-0.004840479698032141
0.010173190385103226
-0.009546050801873207
0.006316232029348612
0.005440761335194111
0.00239124009385705
-0.011262594722211361
-0.00343979406170547
-0.007884498685598373
0.003633946878835559
0.00918715912848711
-0.00036316714249551296
0.0054972730576992035
0.0038411372806876898
0.008606876246631145
0.0016939467750489712
-0.01402613427489996
-0.007687639445066452
-0.004957876168191433
-0.004852874204516411
-0.006959143560379744
-0.00506822532042861
-0.004061530344188213
0.003070469945669174
0.0064353058114647865
0.006395313423126936
0.003558920230716467
-0.0007610947941429913
0.00840625911951065
0.01037127710878849
0.0019152722088620067
0.0069431122392416
0.013193833641707897
0.005782356020063162
0.004329354036599398
-0.006216626614332199
-0.0028172850143164396
0.0075989942997694016
-0.0012168954126536846
-0.010806595906615257
-0.0016839123563840985
0.0020586205646395683
0.008527037687599659
-0.0037578183691948652
0.008306114934384823
-0.012000726535916328
0.0010679098777472973
-0.005152480211108923
-0.004250539466738701
0.001380897592753172
-0.0035251835361123085
0.014404491521418095
0.0023177622351795435
-0.0069214398972690105
-0.014396565966308117
0.004296749830245972
-0.010245446115732193
-0.00462975911796093
-0.009446918033063412
-0.014563482254743576
0.014161397702991962
-0.004217180423438549
0.006056300364434719
-0.010065828450024128
-0.005582090001553297
0.0011292159324511886
0.005094577558338642
0.007959553971886635
-0.0030210737604647875
0.00444445526227355
0.010659027844667435
0.007393663749098778
0.010119825601577759
-0.002492631319910288
0.0083948764950037
-8.905453432817012e-05
-0.009336885996162891
0.00999896228313446
0.007513077929615974
-0.005472980905324221
0.00667823851108551
-0.012855113483965397
-0.0023734348360449076
0.009125642478466034
0.008278485387563705
-0.008312365040183067
0.013430114835500717
-0.00927735585719347
0.013968763872981071
-0.012557592242956161
-0.006827116943895817
0.014107377268373966
-0.012245758436620235
-0.007485194131731987
0.004947304259985685
-0.0145388413220644
0.0143768060952425
0.0008675700519233942
0.013909968547523022
-0.007899301126599312
-0.0011577775003388524
0.0053638010285794735
0.00039727266994304955
-0.012577650137245655
0.0017569194315001369
0.007116783410310745
-0.009904681704938412
0.0002761443902272731
0.008640018291771412
-0.014065327122807503
-0.012934505939483643
0.008740805089473724
0.011769536882638931
0.002703985432162881
0.010598495602607727
-0.011313460767269135
-6.058580311218975e-06
-0.014097625389695168
0.0030683327931910753
-0.0007304786704480648
-0.00834352895617485
-0.014084864407777786
0.0040530129335820675
0.0010559489019215107
0.007027969229966402
0.009953503496944904
-0.01281597837805748
-0.010920798406004906
-0.005271850619465113
0.013429680839180946
-0.0010819552699103951
-0.01109573245048523
0.012312127277255058
0.001972000114619732
-0.004483562428504229
-0.007350684143602848
0.012886046431958675
0.014403852634131908
0.01447793748229742
