-0.006529639475047588
-0.015277495607733727
0.014880998060107231
0.014653228223323822
0.006391746457666159
-0.0014105464797466993
-0.016495727002620697
0.009371819905936718
-0.00786405336111784
-0.01772112213075161
0.016724035143852234
-0.011015636846423149
-0.012174221687018871
-0.016171567142009735
-0.013601094484329224
-0.01703030988574028
-0.007177881896495819
-0.013345008715987206
0.001555656548589468
0.001126706600189209
0.015207122080028057
0.014388827607035637
-0.002077664015814662
-0.003180702682584524
0.01512257568538189
-0.0027441508136689663
0.01970449462532997
-0.011465470306575298
-0.01706358790397644
-0.009716128930449486
-0.013732558116316795
-0.008170023560523987
-0.004851095378398895
0.01745021902024746
-0.006802293471992016
-0.0017257209401577711
0.004255945794284344
0.0063376701436936855
-0.015222301706671715
-1.5472151062567718e-06
0.008759635500609875
0.014792166650295258
-0.0035307209473103285
-0.01929738000035286
0.020318664610385895
0.007778093218803406
0.001202762359753251
0.009072571992874146
-0.005426657851785421
0.016208283603191376
0.01435973308980465
-0.006253667175769806
0.014658158645033836
-0.0034869015216827393
-0.008704610168933868
-0.004384562373161316
-0.016812428832054138
-0.0203569158911705
0.00780042540282011
0.0006079078302718699
0.019866693764925003
-0.014392766170203686
0.012316550128161907
-0.012742343358695507
0.015358773991465569
0.013169541954994202
-0.01970306597650051
-0.012161282822489738
-0.008893966674804688
-0.0011852210154756904
0.01286904327571392
-0.011423001997172832
-0.017374513670802116
0.017373252660036087
0.006483001168817282
0.014080790802836418
-0.017212264239788055
0.005547998007386923
0.00510269682854414
0.015281355008482933
0.01998726651072502
-0.020445769652724266
-0.009198258630931377
-0.001484168111346662
0.02068626508116722
0.020369533449411392
0.0068462565541267395
-0.009419096633791924
-0.01449989341199398
0.00045050575863569975
-0.009605919942259789
0.009536820463836193
-0.0042757391929626465
0.018181458115577698
-0.013036079704761505
-0.019716225564479828
-0.015153500251471996
-0.012078228406608105
0.0008881910471245646
0.007044690661132336
0.000848405237775296
-0.019435515627264977
-0.015385575592517853
0.005459967069327831
0.0004420274344738573
-0.002420892473310232
-0.009823372587561607
-0.014648541808128357
0.005046248435974121
-0.015629826113581657
0.01594678871333599
0.008755013346672058
-0.0031880936585366726
0.008449609391391277
-0.01838541030883789
0.003562048077583313
0.010486031882464886
-0.01719272881746292
-0.016386758536100388
0.006830856204032898
-0.010642717592418194
0.01026694756001234
-0.009939976036548615
-0.0009223892702721059
-0.007258842699229717
-0.011688508093357086
-0.01896112784743309
-0.0017092550406232476
0.01825994998216629
-0.005179661326110363
-0.013018092140555382
0.005625419318675995
-0.01482769101858139
0.012455875985324383
-0.00673898309469223
-0.012836158275604248
-0.019747888669371605
-0.011021527461707592
0.007652665488421917
-0.01479413639754057
0.017230935394763947
0.005296034272760153
-0.00936540775001049
-0.016590941697359085
-0.005878326948732138
-0.001186636509373784
-0.013875357806682587
-0.009502075612545013
0.007259774021804333
-0.006468924693763256
-0.00010226075391983613
0.01904674991965294
-0.012353341095149517
-0.01965421251952648
0.015796862542629242
0.00342858349904418
0.01863873563706875
0.015192404389381409
0.0016323328018188477
-0.007174797356128693
0.002337088342756033
0.005709797143936157
0.01635294407606125
0.019701439887285233
0.013177509419620037
0.0030946782790124416
-0.010386934503912926
0.0011189033975824714
0.012234903872013092
0.010167318396270275
0.013346540741622448
0.013956815004348755
-0.0007567506399936974
0.01750107854604721
0.010202504694461823
-0.01919398456811905
0.0005082686548121274
0.010107463225722313
0.014867166988551617
-0.0053542135283350945
0.011364440433681011
-0.0021676942706108093
-0.007196299731731415
-0.002132346387952566
-0.008721813559532166
0.005185144953429699
0.013562972657382488
0.0027933469973504543
-0.009617703966796398
0.008979874663054943
0.017790239304304123
0.011132409796118736
0.013053907081484795
0.006047703325748444
0.006473866757005453
-0.011275048367679119
-0.01803366094827652
0.012226986698806286
0.005827722605317831
0.016905244439840317
0.010736636817455292
0.0016289278864860535
0.005842564161866903
-0.016664301976561546
0.007155152969062328
-0.010721221566200256
-0.0013516023755073547
-0.008666887879371643
-0.018718278035521507
-0.0036678786855190992
0.011698730289936066
0.002621285617351532
0.01770477555692196
0.0031829725485295057
-0.006153561174869537
0.0025651331525295973
0.01634829491376877
0.009763827547430992
0.0003994670114479959
0.013380445539951324
0.017537645995616913
0.013928212225437164
-0.017508288845419884
-0.013036943972110748
0.008556622080504894
-0.009129932150244713
-0.010994109325110912
-0.006712479051202536
0.0007983617251738906
-0.006589718163013458
-0.0011240517487749457
0.017669087275862694
0.013781453482806683
0.0052854521200060844
-0.005612567067146301
0.0004098638892173767
0.01386259775608778
-0.019283834844827652
-0.009656734764575958
0.014962822198867798
-0.004688332788646221
0.008329173550009727
-0.0037293732166290283
-0.011109104380011559
-0.008702526800334454
-0.00974118523299694
-0.006723632570356131
0.01650407910346985
0.007653328590095043
-0.008788488805294037
0.008619241416454315
-0.017028607428073883
0.013772043399512768
-0.0039402395486831665
0.012466984800994396
-0.0029869850259274244
