-0.03219813108444214
-0.04366585984826088
-0.10200145095586777
0.07815749198198318
0.05102666839957237
0.03198372572660446
0.08626925945281982
-0.05207208916544914
0.08600589632987976
0.03313995152711868
0.10065791010856628
0.05415927991271019
-0.012901517562568188
-0.11307692527770996
0.08403132110834122
-0.0739736557006836
-0.09662935137748718
-0.03874684125185013
0.08714845776557922
-0.05334460362792015
-0.009904061444103718
-0.023969434201717377
-0.10960391908884048
0.11117291450500488
0.030120419338345528
0.03778468817472458
0.0036737187765538692
0.05375503748655319
-0.08355458080768585
0.06728529185056686
-0.037114083766937256
0.1356596201658249
0.03192533925175667
-0.003151211654767394
-0.08436572551727295
0.13536480069160461
0.12747198343276978
0.054374877363443375
0.11562138795852661
0.02654285728931427
-0.14212362468242645
0.10096540302038193
0.14201517403125763
-0.02039366029202938
0.06473497301340103
-0.0324837900698185
0.02922775410115719
-0.10669612139463425
-0.027958743274211884
0.05997728183865547
0.07506170123815536
0.07758315652608871
0.10217556357383728
-0.08550077676773071
-0.0441073477268219
0.10384482890367508
-0.020794101059436798
0.07062816619873047
0.12404751032590866
0.05256819725036621
0.023468634113669395
0.051283128559589386
-0.015903323888778687
-0.05987370014190674
