0.0183111485093832
0.005617599003016949
0.007824351079761982
0.001649090088903904
0.01003998052328825
-0.00574603071436286
-0.0013772943057119846
0.016192426905035973
-0.0061496286652982235
0.013195338658988476
-0.008110277354717255
0.015193686820566654
-0.0160976555198431
-0.015251449309289455
-0.0034652913454920053
-0.003830608446151018
-0.014494769275188446
-0.004888147581368685
-0.013434410095214844
0.002100782934576273
-0.011085567064583302
-0.012892607599496841
-0.0018120312597602606
0.007727784104645252
-0.018044641241431236
0.014734466560184956
-0.007697750814259052
-0.008609762415289879
-0.0056312475353479385
0.0018602082272991538
-0.0021774775814265013
0.007528846617788076
-0.005215857177972794
0.015056460164487362
-0.012532463297247887
-0.006264109164476395
-0.0028233076445758343
0.012545298784971237
0.01964636705815792
0.019437361508607864
0.008339118212461472
0.007316167466342449
0.01630537398159504
0.002214696491137147
-0.004912147764116526
0.01098165474832058
-0.003972349688410759
0.007840574719011784
0.01766853779554367
0.014861754141747952
-0.006861227564513683
0.005289554130285978
0.01855802722275257
-0.0015454372623935342
-0.005638057366013527
0.017277022823691368
-0.01372954435646534
-0.017886867746710777
-0.0028104300145059824
-0.007257672492414713
0.008646448142826557
-0.014572914689779282
-0.015818752348423004
0.008120102807879448
-0.007664383389055729
0.002719273092225194
-0.013192270882427692
-0.005603774916380644
-0.017579233273863792
-0.00214239745400846
0.003066027071326971
0.007796694524586201
-0.017090043053030968
0.01284133642911911
0.015366639941930771
-0.01638803258538246
0.007141694892197847
0.009665061719715595
-0.011669700965285301
-0.018682077527046204
0.007559834513813257
-0.01786969229578972
0.008839963935315609
-0.0016260953852906823
-0.0022601906675845385
0.013756275177001953
-0.000684993457980454
-0.001230902853421867
-0.019356491044163704
-0.005372230429202318
-0.00513445446267724
0.017864594236016273
0.000261283217696473
-0.015032636933028698
-0.010398645885288715
0.007277416996657848
-0.000744044897146523
-0.01641085557639599
0.011587015353143215
-0.011239985935389996
0.007711417973041534
0.009420870803296566
0.0003350864863023162
-0.0165161844342947
-0.004498761147260666
0.002050247974693775
-0.003381099784746766
-0.004544356372207403
0.00811571441590786
-0.009825564920902252
-0.018692344427108765
0.015599275007843971
-0.012288879603147507
-0.018375542014837265
0.016815530136227608
6.045726695447229e-05
-0.003213744144886732
0.010194694623351097
0.0025216431822627783
-0.008943740278482437
-0.001290275831706822
-0.007073268759995699
-0.012624124996364117
0.012347890995442867
-0.0005102299619466066
-0.010723234154284
0.0048296465538442135
0.006626625079661608
0.015648843720555305
-0.006169515196233988
-0.0005160860600881279
-0.005684218369424343
-0.00682983361184597
-0.012950902804732323
-0.014440652914345264
0.0008550883503630757
-0.00013321777805685997
-0.009255186654627323
-0.007874839007854462
0.016025245189666748
-0.009785817936062813
0.01522203627973795
-0.010882405564188957
0.004227409604936838
0.009220766834914684
0.01660846546292305
-0.00619985768571496
0.003916316200047731
-0.00867960974574089
-0.006908603012561798
-0.012658334337174892
-0.0032746715005487204
0.014575676992535591
0.019214389845728874
0.018206220120191574
-0.014244777150452137
0.005792195443063974
0.015420392155647278
0.01649758405983448
-0.0005822374951094389
-0.012820232659578323
-0.00907412264496088
0.00938473828136921
0.0030260684434324503
0.016191085800528526
0.001234878902323544
-0.005574428476393223
-0.01690402254462242
-0.009338022209703922
-0.01957477629184723
0.012981449253857136
-0.0177957434207201
-0.005072457250207663
-0.0031848945654928684
-0.00118088664021343
0.00466131092980504
-0.005756036844104528
-0.01953955367207527
0.012619392946362495
-0.008303855545818806
-0.0036028309259563684
0.010670728981494904
0.015073264017701149
0.012469282373785973
-0.017401402816176414
0.018386654555797577
-0.012445461936295033
0.014533118344843388
0.005993913393467665
-0.010661832056939602
-0.011439078487455845
-0.014683449640870094
-0.0025930863339453936
-0.004183066543191671
0.003948302939534187
-0.012189626693725586
0.0009910723892971873
0.0031478852033615112
0.01803177408874035
0.008722713217139244
0.01548083871603012
-0.016605133190751076
0.004512155428528786
0.001790097332559526
-0.01634962670505047
-0.002488000551238656
0.010024720802903175
0.01858188398182392
-0.01689865067601204
0.014414099976420403
0.007687847130000591
-0.007339371833950281
-0.015810031443834305
-0.014919709414243698
-0.017642520368099213
-0.005315536633133888
0.011898687109351158
-0.01751125231385231
-0.010666332207620144
0.006241863127797842
0.013302315957844257
-0.009312933310866356
0.0013168292352929711
0.011645394377410412
0.012877605855464935
-0.0078849783167243
-0.015760906040668488
0.0020857269410043955
-0.01595652475953102
0.0035721082240343094
-0.0005888142040930688
-0.009284906089305878
0.0057815308682620525
0.006965986452996731
0.005250496789813042
0.0034784111194312572
0.013775629922747612
0.0008650824893265963
0.001877779490314424
-0.00885703880339861
-0.01805218681693077
0.008274325169622898
0.004477138165384531
-0.01361236535012722
0.008304829709231853
-0.018795253708958626
0.004263534676283598
-0.0006981900660321116
0.0022543086670339108
0.0037093220744282007
-0.010653606615960598
0.012961875647306442
-0.012577137909829617
0.004056159406900406
0.00902924407273531
0.015521381050348282
