0.011466804891824722
-0.0019077769247815013
0.01014296617358923
0.006512892432510853
0.010406567715108395
0.0005281768389977515
0.013889261521399021
0.0005895470385439694
-0.0023439826909452677
0.009214713238179684
-0.0040574525482952595
0.0014322035713121295
-0.006809758488088846
0.012516344897449017
-0.006452586967498064
-0.00989540759474039
-0.002597356215119362
0.006823115982115269
0.005176668055355549
0.005730560049414635
0.013908111490309238
-0.007361383177340031
-0.00878251064568758
-0.004172039218246937
-0.013643060810863972
0.003451160853728652
0.0039686174131929874
0.00845047365874052
-0.012763471342623234
0.012561445124447346
-0.007256353739649057
-0.009058631025254726
-0.000489050813484937
-0.007159618195146322
0.0007893311558291316
-0.00918782688677311
0.0019235992804169655
-0.00917601678520441
0.007327962201088667
-0.004966882057487965
-0.010080664418637753
0.011601307429373264
-0.006470937281847
0.005383395589888096
0.012299375608563423
-0.0049549187533557415
-0.003594126785174012
0.007851841859519482
0.005410103593021631
0.005212448537349701
0.0007123275427147746
-0.006743046920746565
0.007628635969012976
-0.007587578147649765
0.0028615077026188374
0.002070688409730792
0.010592690669000149
-0.013660016469657421
-0.0008213105029426515
-0.0035386576782912016
0.011345968581736088
-0.0007420394103974104
-0.01222482044249773
-0.009371924214065075
0.002815750427544117
-0.012034683488309383
0.000557327235583216
0.006401701830327511
0.007327487226575613
-0.006121893413364887
-0.006566295865923166
-0.012962320819497108
-0.004905103240162134
0.0003949866513721645
0.013545668683946133
-0.00335365766659379
-0.012581021524965763
-0.013188603334128857
-0.011754474602639675
-0.008679649792611599
0.01344309002161026
0.009778819046914577
-0.006023308727890253
0.013336270116269588
0.0012289828155189753
-0.0064078401774168015
0.0017597251571714878
-0.002582050394266844
-0.01051664911210537
0.006969758775085211
0.0081634521484375
-0.0005796827026642859
-0.010556764900684357
0.00805515144020319
-0.0010814652778208256
-0.00999557413160801
0.006726414430886507
0.01070401817560196
0.012393738143146038
0.0010036437306553125
-0.011374646797776222
-0.010245486162602901
-0.004913222510367632
0.010553720407187939
0.008283136412501335
0.007787120528519154
0.0019228209275752306
-0.0045748366974294186
0.009854829870164394
0.013654416427016258
-0.0005422758404165506
0.005746889393776655
0.004920829087495804
-0.002578727202489972
0.013014266267418861
0.0029294162523001432
0.0034048876259475946
0.008847624994814396
-0.006454766262322664
-0.0047391001135110855
-0.0037706384900957346
0.01143926102668047
0.010619844309985638
0.0012949591036885977
-0.007288635242730379
0.005242874845862389
-0.005629153922200203
0.005175500642508268
-0.00566728413105011
-0.009202943183481693
0.0006223410018719733
0.00018604764773044735
0.012272371910512447
-0.01253458671271801
-0.011112144216895103
0.006736574228852987
0.00711640901863575
-0.004731752909719944
-0.005729966331273317
0.013908379711210728
-0.005442678462713957
0.013202570378780365
0.0035612606443464756
-0.00855742022395134
0.005837728269398212
-0.010540805757045746
0.0030687779653817415
0.010525154881179333
-0.008143463172018528
0.009056266397237778
0.010196777060627937
-0.012451873160898685
0.0025270404294133186
-0.01238938607275486
0.007314121350646019
0.007911871187388897
0.01080217957496643
0.010096287354826927
-0.008292147889733315
-0.003728497074916959
-0.0035963556729257107
-0.001252335263416171
0.0010781222954392433
0.010180135257542133
0.008616811595857143
-0.0104216942563653
-0.005665245000272989
0.0036915254313498735
-0.0019761070143431425
0.013504630886018276
0.0033604083582758904
0.011216391809284687
0.004602962639182806
-0.00023792705906089395
0.0015509389340877533
-0.013402792625129223
0.0006731431931257248
-0.006464098114520311
0.0015818960964679718
0.003900490701198578
-0.005026638507843018
0.010650193318724632
0.013759876601397991
0.012417729943990707
-0.012970742769539356
-0.005312515888363123
0.011808023788034916
-0.008452574722468853
-0.007516991347074509
0.003025923389941454
0.004167850129306316
-0.004788180347532034
0.00496230274438858
-0.009980034083127975
-0.012016301974654198
-0.002106599509716034
0.012397432699799538
0.011239416897296906
-0.01202258002012968
-0.006323331501334906
-0.009172496385872364
-0.0048210471868515015
-0.012092950753867626
0.007332915905863047
-0.011324937455356121
0.009311693720519543
-0.0040069567039608955
-0.011838845908641815
0.003311406821012497
-0.0008641833555884659
0.006872303318232298
0.0038850214332342148
-0.009146847762167454
-0.009716645814478397
-0.004739981610327959
0.008528430014848709
0.0003337203525006771
0.0010457923635840416
-0.006185681093484163
0.003537328913807869
0.0044988603331148624
0.013646513223648071
-0.011597059667110443
-0.011096762493252754
0.00894441269338131
-0.0022977639455348253
0.009028317406773567
0.012603730894625187
-0.010422619991004467
0.0004893731675110757
-0.0031765748281031847
0.009241679683327675
-0.003607935970649123
-0.011562429368495941
0.0010385552886873484
-0.009038226678967476
-0.0003805433225352317
-0.006293755490332842
0.01138010062277317
0.012715116143226624
0.006419525481760502
0.005629287101328373
0.009472023695707321
-0.013854220509529114
0.0071371677331626415
-0.007061570417135954
0.008311881683766842
-0.006134978961199522
-0.008468003943562508
-0.0045000347308814526
-0.009168052114546299
-0.01354159228503704
-0.0009614526061341166
0.00328241684474051
-0.005378680303692818
0.000866725342348218
-0.005712929181754589
0.009183640591800213
0.012928633019328117
-0.013344102539122105
-0.006893659010529518
-0.007190455216914415
0.011654870584607124
-0.009113689884543419
-0.01348911039531231
-0.013901475816965103
-0.013674289919435978
0.002008880954235792
-0.0013451222330331802
-0.009458334185183048
-0.009808408096432686
-0.013004174456000328
0.00611228309571743
-0.005056704860180616
0.010275013744831085
0.00045760939246974885
-0.003806815017014742
0.013073980808258057
0.009691302664577961
-0.0012625505914911628
-0.011910825036466122
0.0022257643286138773
0.01104673370718956
0.007570790126919746
-0.0068312762305140495
0.00948665663599968
0.004118436947464943
-0.005253508687019348
-0.001218698569573462
-0.012341117486357689
0.012649805285036564
0.003380710259079933
-0.0044945706613361835
0.004282577428966761
-0.01345311664044857
0.005533262621611357
0.011659400537610054
-0.008767216466367245
-0.008418482728302479
-0.005457549821585417
0.0003132410056423396
-0.010963345877826214
-0.01042649894952774
-0.003997404593974352
0.009813659824430943
-0.005286813247948885
0.002357731107622385
0.011717586778104305
-0.012533113360404968
-0.01389071810990572
-0.005623335018754005
0.005341437645256519
-0.009451242163777351
-0.010402156971395016
-0.006366312503814697
-0.004272209480404854
0.01214239839464426
0.012353993020951748
0.0030457498505711555
-0.012895547784864902
-0.0047547887079417706
0.003711942583322525
0.0059412578120827675
0.00215420825406909
-0.00916275754570961
-0.0016113512683659792
-0.013721209019422531
0.0029276818968355656
-0.0027750255540013313
0.010976585559546947
0.003757566912099719
-0.013718238100409508
-0.013806881383061409
0.008192267268896103
-0.011912478134036064
-0.003256973810493946
-0.005717025604099035
0.00853224191814661
-0.007912841625511646
0.007170279510319233
-0.005504793953150511
0.011630594730377197
0.008868095465004444
0.001218866789713502
0.01313074305653572
-0.013191348873078823
0.010588524863123894
-0.009214670397341251
-0.0014676323626190424
-0.004415531642735004
0.007978530600667
0.00035281668533571064
-0.012526440434157848
-0.006264729890972376
-0.006979736965149641
-0.003766480600461364
-0.0011970623163506389
0.013035634532570839
-0.01131630502641201
-0.008548878133296967
-0.013111608102917671
0.010851038619875908
0.006132097914814949
0.0068688285537064075
-0.0019837659783661366
0.008643683977425098
-0.010277606546878815
0.011397821828722954
0.008168177679181099
-0.0008835048065520823
0.006137068383395672
0.002626342698931694
-0.008360588923096657
0.0005428353906609118
0.0007236873498186469
-0.010330291464924812
-0.0029044924303889275
0.011373898014426231
-0.004906976595520973
0.005242606159299612
-0.01267356239259243
0.0030530395451933146
0.007102647330611944
0.000960957258939743
0.00800597108900547
0.006374799646437168
-0.0042010084725916386
0.013840790838003159
-0.010116925463080406
0.012519448064267635
-0.011158386245369911
0.006253139581531286
0.003618179354816675
0.010735254734754562
0.006127282977104187
0.008894845843315125
-0.008653366938233376
0.012315639294683933
-0.009217774495482445
-0.010954593308269978
0.0013308555353432894
-0.007195041514933109
0.013501996174454689
0.007116311229765415
0.005979226436465979
0.01004459522664547
0.013410277664661407
-0.0006347146118059754
-0.013919021934270859
0.007971235550940037
0.009775865823030472
0.0016661740373820066
-0.01156369224190712
0.009392348118126392
-0.007009074091911316
0.008208763785660267
0.003948929253965616
0.013127613812685013
0.005020610522478819
0.012548035010695457
0.00895314384251833
-0.005911735817790031
-0.008524271659553051
0.006337395403534174
0.004056327976286411
0.008243294432759285
0.003428888972848654
-0.011621731333434582
-0.01111672818660736
-0.012332859449088573
0.007849644869565964
0.007960096932947636
-0.006581711117178202
0.0068051135167479515
-0.007634315639734268
-0.0048326775431632996
0.0031573132146149874
-0.009068246930837631
0.0013950462453067303
-0.0007815476274117827
0.009705155156552792
-0.002320327563211322
0.00040836448897607625
-0.01320678275078535
0.001702700275927782
-0.011234422214329243
-0.003769919043406844
0.00466596195474267
0.006359369494020939
0.005339920520782471
0.0008845377597026527
8.642422471893951e-05
-0.009069191291928291
-0.00020784571825060993
0.00988087896257639
-0.0017743229400366545
0.009961252100765705
-0.00841949600726366
0.005607373081147671
0.0048875524662435055
0.01389040146023035
0.012933565303683281
-0.010691449977457523
-0.010118582285940647
0.007039723917841911
0.0024842536076903343
0.011946456506848335
0.012008468620479107
0.002372403396293521
0.0024447753094136715
-0.013888861052691936
-0.005522968713194132
-0.003663958515971899
7.01208773534745e-05
0.009625847451388836
0.009349427185952663
0.013699167408049107
0.008168458007276058
0.012286038137972355
0.004621824249625206
0.003582980716601014
0.0017051942413672805
-0.0052831764332950115
0.00623628543689847
-0.013920702040195465
0.012733117677271366
-0.005631725769490004
0.005889113526791334
-0.0006177705363370478
-0.01318647712469101
0.0065201520919799805
0.012400499545037746
0.008378873579204082
0.0014630460646003485
0.01042880117893219
0.00853931624442339
0.009062396362423897
0.003855785820633173
-0.0009760758257471025
-0.006038496270775795
0.0009382280986756086
0.0096976850181818
-0.013125358149409294
-0.010613502934575081
0.011453501880168915
-0.008642211556434631
0.0016294204397127032
0.001983320340514183
-0.006971081253141165
-0.010067107155919075
-0.008790062740445137
-0.006071493029594421
