-0.014970340766012669
-0.0353311263024807
-0.0051689413376152515
0.02188332937657833
0.020982366055250168
0.009502976201474667
0.014298124238848686
0.012832959182560444
0.02871805801987648
-0.007894664071500301
-0.01795380190014839
-0.01380185317248106
0.027951182797551155
-0.000387260370189324
0.013471156358718872
-0.0046744924038648605
-0.007550704292953014
0.00739397993311286
0.020394356921315193
0.0024033987428992987
0.019516721367836
-0.003060479648411274
-0.010187102481722832
0.007687663659453392
0.008561055175960064
0.011017226614058018
-0.03904181346297264
-0.02472049742937088
-0.025042643770575523
-0.03474998101592064
0.022092603147029877
0.03904256224632263
-0.0002960656420327723
0.02404041215777397
-0.012480644509196281
-0.016957711428403854
-0.00551629951223731
-0.03406301885843277
-0.016960255801677704
-0.014041207730770111
-0.02423940971493721
0.014260192401707172
0.026329509913921356
0.024514008313417435
0.020189069211483
-0.027774229645729065
0.005434162449091673
0.01468974445015192
0.009767452254891396
-0.03624211624264717
0.02807970531284809
0.028246117755770683
-0.013973250053822994
0.033909279853105545
0.01067361980676651
0.03759289160370827
0.03388228639960289
0.035322293639183044
0.006298091262578964
-0.012899753637611866
-0.03440159931778908
0.01925852708518505
-0.0031222510151565075
-0.02814447320997715
-0.03304809704422951
-0.03371686488389969
-0.03938871622085571
-0.026061102747917175
0.01329733245074749
-0.038854148238897324
0.004488283768296242
-0.012327996082603931
-0.007840406149625778
0.025272037833929062
-0.029694797471165657
-0.03634427487850189
0.022214166820049286
0.00214087194763124
0.007911459542810917
-0.020727839320898056
0.007250732276588678
-0.03211480751633644
-0.031018272042274475
-0.005771939642727375
-0.003154534148052335
-0.020491965115070343
-0.015588667243719101
-0.01850922405719757
-0.017727555707097054
0.02717444859445095
-0.02765374444425106
-0.002734870184212923
-0.03680415451526642
0.02216637134552002
-0.012664197012782097
-0.012466488406062126
0.026203196495771408
-0.036676958203315735
0.0030923252925276756
-0.0038208707701414824
-0.009847079403698444
0.025618240237236023
0.011558255180716515
0.018917005509138107
0.022597558796405792
0.037469200789928436
-0.03928525000810623
-0.009698995389044285
0.021516170352697372
-0.008887803182005882
0.03199479356408119
0.018357783555984497
-0.03819956257939339
0.0051790145225822926
-0.03900769725441933
0.022429462522268295
-0.02475651167333126
-0.025706004351377487
0.03145937994122505
-0.020982425659894943
-0.030837714672088623
-0.03623685613274574
0.014628106728196144
0.024097785353660583
-0.003429330186918378
0.0021425364539027214
-0.003454439342021942
0.012872603721916676
