-0.010665537789463997
0.00807743426412344
0.005686132237315178
0.009503362700343132
-0.00047188272583298385
0.010973109863698483
0.008203613571822643
0.02752198465168476
0.0056915972381830215
0.022243496030569077
0.01566128432750702
-0.021020464599132538
-0.014927731826901436
-0.006263720337301493
0.011934429407119751
0.005273677874356508
-0.016434315592050552
0.0019361928571015596
-0.023892905563116074
0.025183342397212982
-0.007609343156218529
-0.0005798109923489392
0.025225486606359482
0.004187209997326136
0.013937542214989662
0.002460579155012965
-0.0011961371637880802
-0.018054956570267677
0.02365698851644993
-0.022089539095759392
0.026475846767425537
-0.026793232187628746
0.018659070134162903
-0.02301524206995964
0.008909954689443111
-0.02771298959851265
0.014689336530864239
-0.0009802548447623849
-0.005722098518162966
0.007953331805765629
0.0037681986577808857
0.010772135108709335
-0.00012791331391781569
0.008653811179101467
0.02179880253970623
-0.008677169680595398
0.018115846440196037
-0.0017487227451056242
0.010130577720701694
-0.02474677935242653
0.01206917967647314
-0.018962590023875237
0.024501904845237732
0.015792381018400192
0.002272536512464285
0.00799544993788004
-0.011071018874645233
-0.011722909286618233
0.0015171701088547707
0.001416750019416213
0.0016708489274606109
-0.0014963188441470265
-0.026652943342924118
0.026622731238603592
-0.023422550410032272
0.013802889734506607
0.008179455995559692
0.0049636103212833405
0.00305848172865808
0.009275602176785469
0.015930190682411194
0.026112817227840424
-0.021062137559056282
-0.019865266978740692
-0.008420216850936413
0.026480982080101967
0.007058003917336464
-0.013585797511041164
-0.026784434914588928
0.026205312460660934
0.01414414495229721
-0.018214255571365356
0.013397397473454475
0.007289278320968151
0.0081018703058362
-0.006845429074019194
0.005828300956636667
0.02211414836347103
0.01042585913091898
0.0068212817423045635
0.006873609963804483
0.021189656108617783
0.01335095800459385
-0.0019641397520899773
-0.01997477188706398
-0.006052128970623016
0.004641703329980373
-0.012714684940874577
-0.021402738988399506
-0.019500890746712685
0.0014018481597304344
-0.027664534747600555
0.019464734941720963
0.024898283183574677
-0.0068926140666007996
0.0018683020025491714
-0.00736200762912631
0.013307109475135803
-0.003335712244734168
0.026091767475008965
-0.015178070403635502
-0.013574614189565182
0.008382934145629406
-0.001711975084617734
0.0187858697026968
-0.023108989000320435
0.003852338995784521
-0.00917793158441782
-0.015811124816536903
-0.003576697548851371
-0.027132153511047363
-0.024027952924370766
0.006954123731702566
0.0192997045814991
0.015032993629574776
-0.01644550822675228
-0.00027854484505951405
-0.019028671085834503
