0.021734891459345818
-0.022676054388284683
0.013288444839417934
0.013516880571842194
0.01788545772433281
0.023636510595679283
0.027098175138235092
-0.02507958747446537
-0.026185644790530205
0.028276201337575912
0.02105904556810856
0.019675465300679207
0.02824285253882408
-0.02869625762104988
-0.006811327766627073
0.018261849880218506
-0.011737339198589325
-0.02332024835050106
-0.02080199494957924
-0.0046382080763578415
-0.0268485676497221
0.015087317675352097
-0.02643265575170517
0.019273757934570312
0.00512395054101944
-0.012401232495903969
-0.01188338827341795
0.009575795382261276
-0.007485185284167528
0.002853797283023596
0.009644160978496075
0.01855691708624363
0.0010457125026732683
0.00869511254131794
0.006367468740791082
-0.025239527225494385
0.019036171957850456
-0.015577967278659344
0.006839010864496231
-0.027811778709292412
-0.0022624668199568987
0.010512741282582283
0.011590021662414074
0.016202885657548904
-0.01519388984888792
-0.026750609278678894
-0.021539125591516495
-0.026755603030323982
0.01968538388609886
0.008947277441620827
-0.02892824448645115
-0.0075807045213878155
0.00809536688029766
-0.028593668714165688
0.007407238706946373
0.003931633662432432
-0.016093265265226364
-0.006837922148406506
-0.005502959713339806
-0.021836377680301666
-0.007530777715146542
0.017936568707227707
0.021886521950364113
-0.014904449693858624
-0.007730803452432156
-0.02370584011077881
-0.024240991100668907
0.014631419442594051
0.02124907448887825
-0.021962052211165428
0.012375428341329098
0.016699831932783127
-0.002532228594645858
-0.027144189924001694
-0.011986788362264633
-0.0008767770486883819
-0.004554728977382183
-0.004375281743705273
-0.0009380374103784561
0.025486797094345093
-0.015041476115584373
-0.012456536293029785
0.02194806933403015
-0.026243852451443672
0.00679361168295145
0.02413204312324524
-0.007376720663160086
-0.01977504789829254
-0.005489259958267212
0.009198865853250027
0.006249559111893177
0.020717304199934006
0.007806485053151846
-0.028368622064590454
-0.02290164865553379
0.010800874792039394
-0.028456512838602066
0.026129100471735
0.020534854382276535
-0.016739225015044212
0.02683260105550289
-0.01512738224118948
-0.02517361007630825
0.003378758206963539
-0.019043682143092155
-0.02651868388056755
-0.009847031906247139
0.00615046126767993
-0.011763873510062695
0.01491987518966198
0.01525685004889965
0.02861770987510681
0.005951482802629471
-0.014604859054088593
0.0076186154037714005
-0.014176970347762108
0.016334151849150658
0.019764473661780357
0.02574915438890457
0.029354320839047432
-0.026834623888134956
0.0139382965862751
0.026156893000006676
-0.022545062005519867
0.020589372143149376
-0.020336998626589775
0.0158066488802433
-0.009631053544580936
