0.026470515877008438
-0.03845543786883354
-0.040359094738960266
0.08025362342596054
-0.007960094138979912
-0.07693234831094742
-0.08249188214540482
-0.0349133238196373
-0.011663888581097126
0.03362109139561653
-0.008825631812214851
-0.02562929131090641
0.05329679325222969
0.05020744726061821
0.01621197536587715
0.010247222147881985
0.009060312062501907
0.08374840766191483
0.033094845712184906
-0.007990972138941288
-0.052061405032873154
0.04897569864988327
0.05575186759233475
0.07956933230161667
-0.03169527277350426
-0.00971002783626318
0.06587761640548706
-0.029206573963165283
0.06530839949846268
0.03281375765800476
-0.06897026300430298
-0.020119808614253998
-0.051370520144701004
0.011973289772868156
-0.0399564653635025
0.06818811595439911
-0.054668739438056946
-0.03823738917708397
0.011250624433159828
0.07065995037555695
0.022937145084142685
0.07712993025779724
0.0294437687844038
0.0480089969933033
-0.07779699563980103
-0.06596295535564423
-0.0683487057685852
0.024417029693722725
0.02652592398226261
0.009895370341837406
0.06580448895692825
0.046636734157800674
-0.0324433371424675
0.027006033807992935
-0.01891159452497959
0.031975436955690384
-0.033040933310985565
-0.054791491478681564
0.07274112850427628
0.05540889501571655
0.06709713488817215
0.08064962178468704
0.0761689618229866
-0.06833948194980621
-0.09006094932556152
-0.07834356278181076
-0.08553440123796463
-0.07238522171974182
0.05681836977601051
0.05921931192278862
-0.04619358852505684
0.03567492589354515
0.030457280576229095
0.027034029364585876
-0.01986297219991684
0.07026242464780807
-0.06958967447280884
0.06168266013264656
-0.031238220632076263
0.05838868021965027
0.05379501357674599
0.0438835471868515
-0.07572364062070847
-0.07191488891839981
0.07750494033098221
-0.00503464275971055
-0.013386048376560211
-0.04825444519519806
0.05282462388277054
-0.009407034143805504
-0.004451706074178219
-0.018940215930342674
-0.023107420653104782
-0.08780377358198166
-0.004246365744620562
0.05929553881287575
0.0573522113263607
-0.061524227261543274
-0.040175557136535645
0.01023229118436575
0.02490728348493576
-0.03193246200680733
-0.07585509121417999
-0.02177378535270691
0.03511354327201843
-0.0008466433500871062
0.014342754147946835
0.0674934908747673
-0.05142290145158768
0.00311645888723433
-0.08024735003709793
-0.06740309298038483
-0.029614679515361786
-0.08904841542243958
-0.019017940387129784
0.0859728753566742
-6.532156839966774e-05
0.0346839465200901
0.0006843472365289927
0.0511384941637516
-0.06998921930789948
0.06434899568557739
0.06426368653774261
-0.028100669384002686
0.0050089191645383835
0.07817376405000687
-0.031011462211608887
0.008093242533504963
0.008892773650586605
0.047096915543079376
0.061291228979825974
-0.03765463829040527
0.009221680462360382
-0.020613396540284157
-0.0585491843521595
-0.05106211081147194
-0.02002616785466671
0.05450483411550522
0.044587958604097366
0.0808056890964508
-0.028506940230727196
-0.05022087320685387
0.05748511850833893
0.07476572692394257
0.06632693856954575
0.0039619626477360725
0.04135453701019287
0.07008402794599533
-0.07626942545175552
-0.08013526350259781
0.06720073521137238
-0.06632757931947708
0.06085479259490967
-0.0852840468287468
0.06091431900858879
0.07692940533161163
-0.03035615384578705
-0.04920748993754387
-0.08871336281299591
-0.04782059043645859
0.04147252067923546
-0.07490906119346619
-0.07853133231401443
-0.07473519444465637
0.03793269395828247
-0.04862741753458977
0.06683036684989929
-0.07065493613481522
-0.029216164723038673
-0.05997580662369728
0.06827862560749054
-0.06234406679868698
0.07882831990718842
-0.05356190726161003
0.004613949451595545
0.07447825372219086
-0.05957040563225746
0.04039560258388519
-0.013020546175539494
-0.020219217985868454
0.05717664584517479
-0.05991474166512489
0.05736695975065231
-0.02254633419215679
0.03500496968626976
0.015366429463028908
-0.0737529844045639
0.052670639008283615
-0.010364705696702003
0.02274383418262005
-0.08406183868646622
0.010614004917442799
-0.08849641680717468
0.07733023166656494
-0.013614392839372158
0.03272619470953941
0.0057231709361076355
0.005895958282053471
0.039677757769823074
-0.06323771923780441
-0.045817285776138306
-0.03515521436929703
-0.0314769484102726
0.012731553986668587
0.01121350098401308
-0.039079442620277405
-0.0015875394456088543
-0.08779262006282806
-0.08067964017391205
-0.0640818327665329
0.06131443381309509
0.07977380603551865
0.07913903146982193
-0.08085081726312637
0.08517414331436157
0.05821193382143974
-0.010754420422017574
0.0603305920958519
0.06484975665807724
-0.06749624758958817
0.04506891593337059
-0.020874569192528725
0.011577836237847805
0.02094420976936817
-0.0754484087228775
0.05536680668592453
-0.08766920864582062
-0.03782020881772041
-0.018803516402840614
-0.014113313518464565
0.04638374224305153
-0.0600256621837616
-0.031793005764484406
0.08428449183702469
-0.013860253617167473
-0.05595525726675987
-0.009174683131277561
0.0828784927725792
0.07871715724468231
0.054288510233163834
0.0783853679895401
-0.0735141709446907
-0.0016721057472750545
0.016063403338193893
0.01499883085489273
-0.041189029812812805
0.0034239073283970356
-0.017672646790742874
-0.01673358492553234
-0.05176450312137604
0.05293809995055199
-0.06811001896858215
0.05996093526482582
-0.04801632836461067
0.0035157599486410618
-0.07144492119550705
