0.01932404190301895
0.01113988272845745
-0.017242975533008575
-0.005530091933906078
0.008684259839355946
0.007148951292037964
-0.018535930663347244
-0.014126298949122429
0.014283206313848495
0.018738383427262306
0.007491162046790123
0.016590101644396782
0.010711556300520897
-0.019145535305142403
-0.006698334589600563
0.008361993357539177
0.010310645215213299
0.014155635610222816
0.015597585588693619
-0.0046127731911838055
0.0065109459683299065
-0.017526280134916306
0.012688235379755497
0.005657229106873274
0.007244114298373461
0.00415273942053318
0.004278989043086767
0.010448574088513851
-0.007055615074932575
-0.015470966696739197
-0.013738800771534443
-0.015844058245420456
-0.006963638123124838
-0.0042529781349003315
-0.01232895813882351
0.005002747289836407
0.006648266222327948
0.0025499421171844006
-0.014900623820722103
-0.0034000498708337545
0.005649554077535868
-0.0017542439745739102
0.015728497877717018
-0.013265350833535194
-0.013913723640143871
-0.015363059937953949
0.019329437986016273
0.004817407112568617
-0.018106644973158836
0.017481449991464615
0.015879156067967415
0.0005352776497602463
0.0018305548001080751
-0.015645543113350868
0.0033445118460804224
-0.009603152982890606
-0.01257579680532217
0.015989355742931366
0.013108684681355953
0.015181850641965866
-0.014096394181251526
0.008219071663916111
0.0014899605885148048
0.007490869611501694
-0.016760889440774918
-0.0009692625608295202
-0.01806449331343174
0.007407006807625294
-0.015051621943712234
-0.018131839111447334
-0.01065276749432087
0.01367013156414032
-0.006030745338648558
0.015402009710669518
-0.0031358215492218733
0.007626797072589397
0.014606663957238197
0.0024738444481045008
-0.00842372328042984
-0.006419558078050613
-0.014988496899604797
0.014272723346948624
-0.018791034817695618
0.0013149551814422011
0.006592018995434046
0.0024606052320450544
-0.004622175358235836
-0.01118344534188509
-0.0024670823477208614
-0.01531487051397562
0.00631001777946949
-0.012807239778339863
-0.004554531536996365
3.0403902201214805e-05
0.01543077640235424
-0.012419062666594982
0.00680102314800024
0.010759285651147366
-0.012476559728384018
0.018049344420433044
-0.00751637713983655
-0.008282337337732315
0.008629769086837769
-0.016266943886876106
0.018377449363470078
-0.0009837123798206449
0.011807601898908615
0.0022634025663137436
-0.008695559576153755
-0.005668797995895147
-0.010789094492793083
0.012337831780314445
-0.012789597734808922
-0.0028653573244810104
0.0006338009843602777
-0.0021518231369554996
0.0002634170523378998
-0.004288009833544493
0.010231370106339455
0.010794558562338352
0.004737252835184336
-0.018732134252786636
0.0014451286988332868
-0.0029748741071671247
0.0017866857815533876
-0.006734312046319246
-0.012956289574503899
-0.0156623013317585
-0.002780842361971736
0.004487254191190004
-0.012675035744905472
-0.0013128385180607438
0.0015924255130812526
0.011073715053498745
0.01313889678567648
-0.006336911115795374
0.009967581368982792
0.016036782413721085
0.0010876780143007636
-0.014761369675397873
0.01089867390692234
0.009871341288089752
0.019502639770507812
-0.008415812626481056
-0.007480764761567116
0.004812216851860285
0.019352547824382782
-0.0007075464818626642
-0.007421961985528469
0.008522618561983109
-0.009591225534677505
0.01494355034083128
0.004626200068742037
0.011165400967001915
-0.006923876702785492
0.005607457831501961
0.019140761345624924
-0.01871396414935589
0.01704949140548706
0.010704416781663895
0.014075431041419506
0.01966862380504608
-0.0032980041578412056
-0.01645323634147644
0.014724490232765675
0.0010551689192652702
0.013178935274481773
0.013147959485650063
-0.003846507053822279
-0.01639573834836483
-0.01644180715084076
-0.016178255900740623
0.0041352747939527035
0.015363335609436035
-0.017860047519207
-0.008566020056605339
0.002007037168368697
0.01812070421874523
-0.01767854206264019
-0.012957500293850899
0.0014151339419186115
0.011054842732846737
0.01829303801059723
-0.008286003954708576
-0.0017531373305246234
-0.011516012251377106
0.013529164716601372
0.005079618189483881
-0.0026546232402324677
-0.0005850226734764874
-0.014591765590012074
0.010915958322584629
0.014461145736277103
-0.015687614679336548
-0.01796009950339794
0.0031519243493676186
-0.012679090723395348
0.008606499060988426
-0.01623385213315487
0.01739450916647911
-0.015057616867125034
-0.0063744462095201015
0.01701943576335907
-0.019532116129994392
-0.014738711528480053
0.0043739574030041695
0.014147182926535606
0.00835801474750042
0.01926802471280098
-0.014986947178840637
0.008165128529071808
0.014130336232483387
-0.005535438656806946
0.01834847778081894
0.002213581930845976
-0.008203396573662758
0.004136346280574799
-0.003144452115520835
-0.012216619215905666
-0.018877150490880013
0.008061716333031654
0.01939578540623188
-0.008280256763100624
0.017502622678875923
0.007173406425863504
0.010629137977957726
0.01513828244060278
-0.016238031908869743
0.011009437963366508
-0.018639830872416496
0.012977496720850468
-0.006325573660433292
0.004756827373057604
-0.0037475840654224157
-0.0184029508382082
-0.009265192784368992
0.01601422019302845
0.014487195760011673
0.015331721864640713
-0.015181630849838257
0.0062934961169958115
-0.01456108782440424
-0.01884804107248783
-0.0038178632967174053
0.006667907815426588
0.01931450143456459
-0.010624540969729424
-0.008161312900483608
0.018043242394924164
0.012884223833680153
-0.008037223480641842
-0.015032502822577953
0.011860793456435204
-0.018656015396118164
0.0010039121843874454
0.016587359830737114
-0.010140864178538322
0.005887966137379408
-0.007406463380903006
-0.007422440219670534
-0.01280258409678936
-0.006471078377217054
0.012359438464045525
-0.004510139115154743
-0.013714981265366077
0.010834040120244026
-0.015645524486899376
0.013574662618339062
-0.013308245688676834
-0.0003207614936400205
-0.012510839849710464
0.015106762759387493
-0.011648598127067089
-0.004772544838488102
-0.015282325446605682
0.0048440261743962765
-0.002336015459150076
0.0013402048498392105
-0.004097945522516966
0.014402124099433422
0.016686726361513138
0.01328858733177185
-0.019334854558110237
0.018117843195796013
-0.010841394774615765
-0.0007465298403985798
-0.01064025517553091
-0.017285604029893875
-0.001475370954722166
0.0016860676696524024
0.007116004824638367
-0.01764163188636303
-0.01130354031920433
0.006877865642309189
0.007713976316154003
-0.007948185317218304
-0.015449916943907738
0.003497736295685172
0.011136241257190704
0.015878932550549507
0.012318633496761322
-0.0019364261534065008
-0.0003112507693003863
-0.015923958271741867
-0.0016272719949483871
-0.017051415517926216
0.014323174953460693
-0.00824855174869299
-0.013487705960869789
-0.0033962978050112724
-0.019525084644556046
0.00555602740496397
-0.005192654673010111
0.009804101660847664
-0.009524846449494362
0.009050188586115837
0.015604732558131218
-0.009002350270748138
-0.014627850614488125
0.017545213922858238
-0.0010900741908699274
-0.0182200837880373
-0.007817688398063183
-0.011210397817194462
0.012702801264822483
-0.005456038750708103
-0.01886431686580181
-0.0016732440562918782
-0.008674794808030128
-0.0017543804133310914
-0.010863738134503365
-0.00021896221733186394
0.0017434721812605858
-0.007534936536103487
-0.003903875593096018
-0.014405823312699795
0.01849290356040001
-0.013700784184038639
0.007940554991364479
0.017588026821613312
-0.016132855787873268
-0.008250950835645199
0.0025342644657939672
0.0038148972671478987
-0.0178437028080225
-0.01413788739591837
-0.0022292681969702244
0.01755659282207489
-0.0018372450722381473
0.000619026308413595
0.00467156944796443
-0.009994929656386375
-0.0006384090520441532
-0.0189104862511158
-0.009482701309025288
0.009087425656616688
0.01956057734787464
-0.010978411883115768
-0.019093859940767288
0.005057353526353836
0.009135030210018158
-0.002371859969571233
0.0018366373842582107
0.0002604556502774358
-0.014838784001767635
-0.003853550646454096
-0.010657191276550293
-0.0030043579172343016
-0.011365238577127457
-0.017815353348851204
0.0066086663864552975
-0.0007337256683968008
0.0015302780084311962
-0.01823403500020504
0.0010793632827699184
-0.013010432943701744
0.003154694102704525
-0.006537950597703457
-0.0017359780613332987
0.01625276356935501
0.011225307360291481
-0.0051517789252102375
-0.012396405450999737
-0.011434980668127537
-0.013612570241093636
0.007659313268959522
-0.0163591206073761
0.01543540321290493
-0.01968635618686676
0.00107985595241189
0.01703582890331745
0.012001065537333488
-0.0015267579583451152
-0.016297226771712303
0.004004898015409708
-0.00685323728248477
0.01830722764134407
-0.0154444370418787
0.0021759739611297846
-0.013093216344714165
0.014867215417325497
-0.00635283999145031
0.008797943592071533
0.01725793443620205
0.00017853463941719383
0.018026284873485565
-0.015980049967765808
0.0004677252727560699
-0.007374526001513004
0.00452047772705555
-0.00014167491463012993
-0.015453644096851349
0.01160397194325924
-0.006643261760473251
0.003722982481122017
-0.013728652149438858
0.01012866385281086
-0.0061951265670359135
-0.007211678195744753
0.012347998097538948
-0.01934017986059189
-0.008749228902161121
-0.013437853194773197
0.0014438781654462218
0.0029830527491867542
0.004805676639080048
-0.014338049106299877
0.006070643197745085
-0.0011860004160553217
-0.009969456121325493
0.0005352006992325187
-0.004342725034803152
-0.019296061247587204
-0.0032494571059942245
0.011516563594341278
0.009349921718239784
0.005564961116760969
-0.018233193084597588
-0.012188051827251911
-0.013005594722926617
-0.007065169513225555
0.019392775371670723
-0.018053358420729637
0.006788973696529865
0.011009814217686653
0.00634494423866272
0.01803283952176571
0.0033334100153297186
0.003683346090838313
0.0008201651507988572
-0.011831860058009624
0.0053247613832354546
-0.005775011144578457
-0.01807599514722824
0.017783133313059807
-0.010070735588669777
-0.008425022475421429
-0.004179776180535555
-0.011200539767742157
0.0021052565425634384
-0.016115862876176834
-0.009035171940922737
0.009414875879883766
-0.014899004250764847
0.0029867487028241158
0.01620654948055744
0.005042466800659895
-0.0013871726114302874
0.017993206158280373
-0.005056951195001602
-0.003901402000337839
-0.00012543090269900858
-0.01717345416545868
0.009089036844670773
-0.005681129638105631
0.015494128689169884
0.001383222290314734
-0.002359190257266164
-0.015460580587387085
-0.00916356686502695
-0.0004896138561889529
-0.01840612106025219
0.0012026188196614385
0.008184966631233692
-0.012337755411863327
-0.012001141905784607
0.005591296590864658
0.002569145057350397
0.011964171193540096
-0.003971438854932785
-0.003769378177821636
0.018787512555718422
-0.01454939879477024
0.01762833632528782
-0.005039492156356573
0.005935183260589838
0.0028871791437268257
0.015396298840641975
0.007933296263217926
-0.013087596744298935
0.0003378090914338827
-0.008883214555680752
0.012803208082914352
0.005890327040106058
0.003952850587666035
-0.011717293411493301
-0.013262629508972168
0.017783984541893005
-0.0006137609598226845
-0.013256982900202274
-0.007407458033412695
-0.00424716342240572
