-0.019649211317300797
0.01072249561548233
-0.01162398885935545
0.0032506859861314297
0.013828396797180176
0.001347201643511653
0.006424253340810537
0.004477967973798513
-0.010507412254810333
-0.006635285913944244
-0.014393499121069908
0.015006331726908684
0.018659917637705803
-0.016747623682022095
-0.002022095024585724
-0.01565881073474884
0.002478383481502533
0.012440687045454979
-0.005995519459247589
0.01255798153579235
-0.00641775643453002
0.005345319863408804
0.016053905710577965
-0.017678169533610344
0.014373141340911388
0.019933633506298065
0.015384754166007042
0.003825883148238063
-0.009246386587619781
0.0024429387412965298
0.013230073265731335
0.012981779873371124
-0.016241837292909622
0.008302639238536358
-0.009436014108359814
-0.0177992582321167
-0.018788252025842667
-0.009947302751243114
0.006438133772462606
-0.014544665813446045
-0.0006213411688804626
0.01993349753320217
-0.008953681215643883
0.005064028315246105
0.004359928425401449
-0.009269988164305687
-0.005605993326753378
-0.010484221391379833
-0.0041577173396945
0.009313544258475304
0.016426432877779007
-0.00539465993642807
-0.002899679122492671
-0.01709175482392311
0.0019799619913101196
-0.0025806850753724575
0.007929697632789612
0.008788175880908966
0.0011131813516840339
-0.018706507980823517
0.01850074902176857
0.005139065440744162
0.010642163455486298
0.018741797655820847
0.006029163952916861
0.018418148159980774
-0.020822159945964813
0.0163098331540823
-0.004015058279037476
-0.010989191941916943
0.010168592445552349
-0.0025535873137414455
0.016004439443349838
-0.015587031841278076
-0.01875016838312149
0.0013058459153398871
0.010257622227072716
0.01938321441411972
0.011798660270869732
-0.011025099083781242
-0.011625727638602257
0.007460474967956543
-0.006059902720153332
0.005409476812928915
0.005416512489318848
-0.011391560547053814
-0.0195249542593956
0.0002728006220422685
0.01965644210577011
0.019218754023313522
-0.01898140273988247
-0.0007117788190953434
-0.012258912436664104
0.019276056438684464
-0.0035024310927838087
-0.0028336844407022
-0.005822902079671621
0.000703622936271131
0.0005562728038057685
-0.016524484381079674
0.0032974458299577236
-0.008012826554477215
0.00017542131536174566
0.008236540481448174
-0.009181010536849499
0.0007512445445172489
0.012436537072062492
-0.012966091744601727
0.02013367973268032
-0.003064995165914297
-0.016392504796385765
0.012076693587005138
0.009376659989356995
-0.01213601790368557
-0.011313687078654766
0.013386714272201061
0.006058315746486187
0.019562315195798874
8.24109447421506e-05
0.004195819608867168
-0.0011754533043131232
0.013357562944293022
-0.006737445946782827
0.01930440217256546
0.012275263667106628
-0.014874632470309734
-0.010513636283576488
0.015480163507163525
-0.013201544992625713
-0.013607844710350037
0.010105173103511333
-0.004035483114421368
0.01202625036239624
0.018994435667991638
-0.011674734763801098
0.018391087651252747
0.014975763857364655
0.013220412656664848
-0.019418299198150635
-0.018659863620996475
-0.0012963985791429877
0.009686646983027458
-0.004752196371555328
0.004229848738759756
0.006266020238399506
0.007501801010221243
0.009692572057247162
-0.019712399691343307
-0.016578715294599533
0.011324137449264526
-0.005159251391887665
-0.009955838322639465
0.018670491874217987
-0.009019727818667889
-0.010670632123947144
0.005828239023685455
0.010144166648387909
-0.013764712028205395
-0.018999939784407616
0.013908751308918
0.011786213144659996
-0.011540248990058899
-0.007591645233333111
0.01888532191514969
-0.004280902445316315
0.0006408542394638062
-0.02032442018389702
0.00019953127775806934
0.010634355247020721
-0.008177973330020905
-0.012223544530570507
-0.007049975451081991
0.011282148770987988
0.0038494616746902466
-0.006198262330144644
0.01943628489971161
0.01420682668685913
-0.0038349207025021315
0.0032453536987304688
-0.0005727236857637763
0.004468823783099651
0.015023201704025269
-0.01582387089729309
-0.002484257100149989
-0.011741146445274353
0.014883935451507568
0.007365669123828411
0.003005830105394125
-0.02020665630698204
0.015925288200378418
0.0006594955921173096
-0.010448237881064415
0.005483654793351889
-0.010075177066028118
-0.01393935363739729
-0.007799692451953888
0.016970885917544365
0.0029989629983901978
-0.004871845245361328
-0.020728755742311478
0.01616429165005684
0.0028463578782975674
-0.006473246030509472
-0.0028115338645875454
0.018607590347528458
-0.004597894847393036
-0.01667642593383789
0.009624513797461987
0.005905474536120892
-0.012551277875900269
0.003000627039000392
0.014871016144752502
-0.0003533140697982162
-0.014860354363918304
-0.0018003880977630615
0.02008115127682686
-0.01952471397817135
0.005741489585489035
-0.013199838809669018
0.019619576632976532
0.0032752330880612135
-0.005203108303248882
-0.004649942275136709
0.009027620777487755
-0.0014276107540354133
-0.008293981663882732
0.00834731012582779
0.01486796885728836
0.017691595479846
-0.006915671285241842
-0.020253224298357964
-0.003217250108718872
-0.014511133544147015
-0.002123214304447174
-0.019393961876630783
0.01943139359354973
-0.0015727505087852478
-0.01837257854640484
-0.011135971173644066
0.013404863886535168
0.01872335374355316
-0.018398068845272064
-0.01593904010951519
-0.013466025702655315
-0.0015431791543960571
-0.0026090964674949646
0.017153535038232803
-0.017094209790229797
0.000567704439163208
-0.010639849118888378
3.3244912629015744e-05
-0.004123206250369549
-0.006626067217439413
-0.020139746367931366
0.008072404190897942
-0.016525691375136375
-0.004205080680549145
0.004419679753482342
-0.0016684656729921699
-0.007926702499389648
0.010666102170944214
-0.012300938367843628
-0.006025344133377075
0.016293570399284363
-0.010916566476225853
-0.011104132048785686
0.008192087523639202
0.011794477701187134
0.019249897450208664
0.010937316343188286
0.002362258732318878
-0.0032558690290898085
0.011359813623130322
0.010321992449462414
0.013595536351203918
0.018705107271671295
-0.015287086367607117
-0.02014537714421749
0.02031736820936203
0.01727505773305893
-0.007156260311603546
-4.4728290049533825e-06
0.011333545669913292
-0.010248800739645958
0.0131142046302557
-0.008654830977320671
-0.015926823019981384
-0.012873801402747631
-0.008177059702575207
0.0017585009336471558
0.008484458550810814
0.004622246138751507
0.00012509533553384244
0.018983710557222366
-0.011725286953151226
-0.011072996072471142
-0.020207447931170464
0.0036757539492100477
-0.007540702819824219
-0.004821608774363995
-0.005442800931632519
0.013385100290179253
-0.005672281142324209
0.0033906500320881605
-0.0024992029648274183
-0.01998169533908367
0.003384945448487997
-0.004251472651958466
0.015388893894851208
-0.01779789850115776
0.01583113893866539
-0.010455983690917492
-0.020614013075828552
0.009692108258605003
-0.0005106081953272223
0.01465305220335722
0.020717579871416092
0.011890123598277569
-0.020690126344561577
0.007077746093273163
0.008269064128398895
-0.006591854151338339
0.001089341938495636
-0.010857617482542992
-0.010148021392524242
0.01512918621301651
0.01960359513759613
0.0026429048739373684
-0.01516637485474348
-0.0039388216100633144
0.015314112417399883
0.009441286325454712
0.0068463413044810295
-0.003576581832021475
0.016496889293193817
-0.003653427120298147
-0.009627270512282848
-0.005662056617438793
-0.0076566836796700954
-0.019221795722842216
0.0041686249896883965
-0.011568996123969555
0.0012220045318827033
0.0013999020447954535
-0.020103110000491142
-0.01072913222014904
0.0028659701347351074
-0.01596350222826004
-0.0163265448063612
0.016474364325404167
0.01970161311328411
-0.01077394001185894
0.011902904137969017
-0.005065058823674917
-0.017958974465727806
0.007800258696079254
-0.005917040165513754
-0.01859169825911522
-0.015254989266395569
-0.020803052932024002
-0.018625369295477867
0.017266307026147842
0.0196419395506382
0.010215437039732933
-0.01766863465309143
0.018501807004213333
0.015972023829817772
-0.007125434931367636
-0.0037467381916940212
-0.004401370882987976
0.005177155137062073
4.338748840382323e-05
-0.005870908498764038
0.01745469495654106
-0.002645311411470175
-0.01985015533864498
-0.017866000533103943
0.0036961908917874098
0.009937840513885021
-0.017544075846672058
-2.8083006327506155e-05
-0.014994464814662933
0.017750337719917297
0.017217252403497696
0.0045766509138047695
-0.010988752357661724
0.011032423004508018
-0.0074669672176241875
0.008260881528258324
0.007081757299602032
0.0010183330159634352
-0.0003255656629335135
-0.0004407614469528198
-0.0024752940516918898
-0.011173954233527184
-0.009470552206039429
0.01633039489388466
-0.015131901018321514
0.004683646373450756
0.009383654221892357
-0.0009134685387834907
0.015491612255573273
-0.008413217961788177
0.01432815007865429
-0.0004402573104016483
0.013427598401904106
0.01743396185338497
0.011227309703826904
0.006595293991267681
-0.0017279734602198005
-0.008600602857768536
0.015229910612106323
-0.008023910224437714
-0.004405970685184002
0.007771424949169159
0.0010392020922154188
0.016078103333711624
-0.012420982122421265
0.007107235491275787
0.01210535317659378
-0.019194653257727623
-0.016294581815600395
0.007844751700758934
0.02043279819190502
0.01121453009545803
0.010593606159090996
-0.014429341070353985
0.004920589737594128
0.011087067425251007
0.0025945082306861877
0.006604212336242199
-0.0038130036555230618
-0.006118747405707836
-0.019687529653310776
-0.007437862455844879
0.006341328378766775
0.017078224569559097
0.01857868954539299
-0.01652282290160656
0.01194537989795208
0.007350412663072348
0.01748761162161827
-0.00017769885016605258
-0.00237090396694839
-0.008727921172976494
-0.011191247031092644
-0.011041082441806793
-0.002101312158629298
-0.011478434316813946
0.0164803396910429
-0.005631662905216217
0.012991100549697876
0.01498179417103529
-0.007944656535983086
0.004967808723449707
-0.004048298113048077
0.0076872557401657104
-0.01676030084490776
-0.002821624279022217
0.004646807909011841
0.013466599397361279
0.001398824155330658
0.007848186418414116
0.014806891791522503
-0.005609144922345877
0.0025124475359916687
-0.003513296600431204
-0.01773223653435707
-0.020533418282866478
-0.0005480523104779422
-0.015146777033805847
-0.019143078476190567
-0.004661627113819122
0.016583509743213654
0.01793971285223961
0.002342633903026581
9.17062207008712e-05
-0.018643325194716454
0.008164393715560436
-0.005982699804008007
-0.005660851951688528
-0.003927308134734631
-0.009325480088591576
0.008761840872466564
0.002561551984399557
0.0040556639432907104
-0.010989291593432426
-0.012583166360855103
-0.0031268473248928785
0.01340494118630886
0.020728792995214462
0.012877753004431725
0.014987978152930737
0.015480322763323784
-0.0038808188401162624
-0.009489288553595543
0.004734707530587912
0.018447350710630417
-0.017559412866830826
2.4390712496824563e-05
-0.006853980477899313
-0.02065235935151577
-0.009067147970199585
0.0066465637646615505
0.004362387116998434
-0.007355389650911093
-0.0038529164157807827
0.01054534874856472
-0.0038906808476895094
-0.016815176233649254
-0.00642403494566679
0.020268648862838745
