-0.0073011163622140884
0.001906178193166852
0.006076304707676172
-0.02632005698978901
-0.003161514876410365
-0.006771500688046217
-0.008977200835943222
0.0001430188858648762
-0.0035563940182328224
-0.0011627452913671732
-0.004388897214084864
0.0014732208801433444
-0.0053964657709002495
0.0006845713942311704
-0.009620517492294312
-0.0075784591026604176
0.002458371454849839
-0.0021998020820319653
-0.0032673568930476904
-0.007673956453800201
-0.0067549278028309345
-0.00551762105897069
-0.0004999636439606547
-0.004838547669351101
-0.0033577820286154747
-0.005420301575213671
0.0020002718083560467
-0.007530974689871073
-0.0057401894591748714
-0.0030849610920995474
-0.0005463631241582334
0.008900762535631657
-0.00021927623311057687
-0.004297447390854359
-0.0009399396367371082
0.0005991610232740641
-0.0013383724726736546
-0.004131736699491739
-0.0070830220356583595
-0.0011953990906476974
-0.00211625755764544
-0.0014610416255891323
-0.001007520710118115
0.0016990258591249585
0.01196701917797327
0.005988043267279863
0.0010750222718343139
-0.007304288912564516
-0.0005300702759996057
-0.0025648127775639296
0.0022604248952120543
-0.006284161005169153
0.005896897055208683
-0.001358258188702166
-0.0057074083015322685
-0.0065428102388978004
-0.005042668431997299
0.008609510958194733
-0.006693810690194368
0.003196415025740862
-0.001997485989704728
0.00836284551769495
-0.0017884115222841501
0.01612486131489277
