0.0001329020014964044
0.020972950384020805
-0.03802768141031265
-0.07133321464061737
-0.020181503146886826
-0.06065669283270836
0.050345439463853836
0.06758886575698853
-0.012105352245271206
0.052651699632406235
-0.008757292293012142
-0.06899981945753098
0.05971754714846611
-0.041789811104536057
0.02635778859257698
0.007658374961465597
-0.052549365907907486
-0.029756009578704834
0.01870224066078663
-0.03407689556479454
-0.0028230680618435144
-0.05037333071231842
-0.060029201209545135
0.03362533450126648
0.016912203282117844
0.037359848618507385
-0.0001201025370392017
0.050132788717746735
0.04586563631892204
0.07199519127607346
0.006457878276705742
0.06982354074716568
0.06207193061709404
-0.030844777822494507
0.05972753465175629
-0.01421496830880642
-0.05717134848237038
-0.06230089068412781
-0.03238779306411743
-0.055559203028678894
0.02695607580244541
-0.05611356347799301
0.015814263373613358
0.07385843247175217
-0.050490301102399826
0.05335770174860954
0.027915364131331444
-0.04638717323541641
0.057595144957304
-0.04096679389476776
0.041969772428274155
0.020566923543810844
-0.05957084149122238
-0.06478388607501984
-0.017917899414896965
0.057035598903894424
-0.06497679650783539
-0.06537909805774689
0.03731498122215271
-0.04481641203165054
0.0025969697162508965
0.0643705427646637
0.04777367040514946
-0.03503483533859253
-0.04814774543046951
0.0571817085146904
0.01414942555129528
-0.05860831215977669
-0.055071890354156494
-0.042824652045965195
-0.04855302721261978
-0.031535789370536804
0.04735584929585457
0.04891565069556236
-0.06531936675310135
0.04430102929472923
0.04388797655701637
0.015364795923233032
-0.062460608780384064
-0.042540617287158966
-0.01113285031169653
0.024328090250492096
0.049375008791685104
-0.03783590346574783
-0.012693115510046482
-0.019557040184736252
0.042952682822942734
-0.02676115743815899
0.014744727872312069
-0.0040175472386181355
-0.05749034881591797
0.0495111383497715
-0.05442351475358009
0.048243891447782516
0.04844560846686363
-0.016250183805823326
0.019640399143099785
-0.0180386733263731
-0.04422386363148689
-0.05928224325180054
-0.04949462041258812
-0.05850223824381828
-0.00927657913416624
0.06665894389152527
0.04366840422153473
0.01695140078663826
0.05566924437880516
0.06872209161520004
-0.0443800650537014
-0.029372816905379295
-0.03725631535053253
-0.037865567952394485
-0.017634307965636253
0.060094691812992096
0.0289774052798748
-0.056204162538051605
-0.025227218866348267
0.034249864518642426
0.0589403435587883
-0.03683176264166832
0.045870233327150345
-0.052796632051467896
-0.005199949722737074
-0.06804654747247696
0.06516049802303314
0.035832054913043976
0.020292025059461594
-0.03957417234778404
-0.03949526697397232
0.015422702766954899
-0.0008934891084209085
-0.06368099898099899
0.04156593233346939
-0.013840870931744576
0.048385411500930786
-0.019374163821339607
0.008477109484374523
-0.011846257373690605
-0.01616598665714264
0.03343385085463524
0.05194216966629028
-0.022597143426537514
0.04997335746884346
0.06578251719474792
0.01843862608075142
-0.012636799365282059
0.012117687612771988
-0.050341200083494186
-0.058917731046676636
-0.05664360150694847
-0.01561826467514038
-0.042903006076812744
-0.07288142293691635
-0.007838236168026924
-0.02802325040102005
-0.006792441010475159
0.01864263042807579
-0.040228471159935
-0.0026251061353832483
0.013660111464560032
0.057366322726011276
0.0008861424284987152
0.07409058511257172
0.02670423500239849
0.02629890851676464
0.007007976062595844
0.005181021522730589
0.013817020691931248
0.0038266407791525126
-0.025645865127444267
0.023931706324219704
0.048549920320510864
-0.024370789527893066
0.059666864573955536
-0.061476223170757294
0.009629135951399803
-0.058593880385160446
0.052328068763017654
-0.04936480522155762
0.018502801656723022
-0.060771726071834564
-0.014833136461675167
-0.06755705177783966
0.008964567445218563
0.004161559510976076
-0.06578237563371658
0.054259248077869415
0.06124468892812729
0.029845893383026123
-0.018598509952425957
-0.009951400570571423
0.029604298993945122
0.03898068144917488
-0.039434414356946945
0.008991028182208538
-0.028845123946666718
-0.07204405218362808
0.02091096341609955
0.05871031805872917
-0.007083922624588013
-0.0011320833582431078
-0.01548817940056324
0.06895756721496582
-0.026334762573242188
0.038368646055459976
-0.013885448686778545
0.04067513719201088
0.017893988639116287
-0.06251489371061325
-0.05493004992604256
0.02066206932067871
0.035938043147325516
-0.05485384538769722
-0.015264361165463924
0.022740783169865608
0.03600667417049408
-0.001345410360954702
-0.05423770472407341
-0.02431557886302471
-0.024025488644838333
-0.04545212537050247
-0.01842530257999897
0.03883902728557587
0.006825552321970463
-0.03263859823346138
-0.044528987258672714
-0.000168649508850649
0.04064377024769783
-0.060559969395399094
-0.059059493243694305
0.018785372376441956
-0.05834779143333435
-0.05990644916892052
-0.049045629799366
-0.057334691286087036
0.015773048624396324
-0.059545304626226425
0.018176453188061714
-0.046924035996198654
0.03292582929134369
0.004925357177853584
0.048902690410614014
0.015075809322297573
0.03926932066679001
0.05699489638209343
-0.009699712507426739
-0.041886962950229645
-0.022830244153738022
-0.03155992180109024
0.022515783086419106
-0.0029807272367179394
0.02984592318534851
0.02689976431429386
0.016367154195904732
0.00604125764220953
0.03812452778220177
0.026750102639198303
-0.010816552676260471
-0.01239702571183443
0.042352598160505295
-0.0001709876669337973
0.015852555632591248
-0.05771404877305031
-0.023682478815317154
0.0635695606470108
0.060262225568294525
0.02939874306321144
-0.003916516434401274
-0.05711754411458969
0.04444868117570877
-0.04238339513540268
-0.031743839383125305
0.02147606760263443
0.003787077497690916
0.003396015614271164
-0.03222031146287918
-0.008713905699551105
-0.027164535596966743
-0.014748557470738888
0.038913827389478683
-0.01633106917142868
0.03552732989192009
-0.04502265527844429
0.018005074933171272
-0.004075801465660334
0.06555286049842834
-0.029318803921341896
-0.06551959365606308
-0.06105106696486473
-0.04965389892458916
0.04627566412091255
-0.017062462866306305
-0.011773026548326015
0.04473058506846428
-0.013750734739005566
-0.00668300548568368
0.006650164257735014
-0.06351553648710251
0.03936939314007759
0.04779547452926636
0.06526421010494232
-0.002590348245576024
0.01610712893307209
-0.0533696785569191
0.04757608100771904
-0.059091389179229736
-0.057669587433338165
0.0642317533493042
0.015150506049394608
-0.0006119802710600197
0.026201974600553513
0.03743604198098183
0.0042283786460757256
-0.06971769779920578
-0.048518106341362
-0.04600954428315163
0.023412927985191345
-0.043189339339733124
-0.06706945598125458
0.06731841713190079
-0.04212198033928871
0.07700593024492264
-0.058908604085445404
-0.036896783858537674
-0.04951676353812218
-0.049272067844867706
-0.024444889277219772
0.07135874032974243
-0.012981739826500416
-0.011812536977231503
0.0576816126704216
0.036452434957027435
-0.06997010856866837
0.006275823339819908
-0.06824949383735657
0.012942666187882423
-0.055173587054014206
-0.015185951255261898
-0.07047758251428604
-0.020378150045871735
-0.02379731461405754
-0.03853730484843254
0.04870418459177017
0.001450188341550529
0.005995759274810553
-0.013873887248337269
0.06380214542150497
-0.021052813157439232
-0.055194295942783356
-0.06321074813604355
-0.05969924107193947
-0.032909054309129715
0.06460048258304596
-0.06924044340848923
0.06101313978433609
0.01016256958246231
-0.03297271206974983
-0.06098254397511482
0.05827508494257927
0.03257427364587784
-0.027871372178196907
-0.053496457636356354
0.05673334002494812
0.025547273457050323
0.029977213591337204
0.051402512937784195
-0.021280987188220024
-0.05549434572458267
0.043580882251262665
0.07057654112577438
-0.031880415976047516
-0.021541206166148186
-0.05713317543268204
-0.02071048691868782
-0.05627016723155975
-0.04858449846506119
-0.023495977744460106
0.005312270950525999
-0.005329227074980736
0.0033447127789258957
-0.04854711890220642
-0.0368894562125206
-0.07258537411689758
-0.05591317638754845
0.013577279634773731
-0.063440702855587
-0.016032500192523003
0.013863123022019863
-0.06628311425447464
-0.06960419565439224
-0.05584461987018585
-0.04725067690014839
0.0009388254838995636
-0.027379702776670456
0.026453591883182526
-0.03612838685512543
-0.004630028735846281
0.07776510715484619
0.052947428077459335
0.0021657368633896112
-0.031912289559841156
0.0368889719247818
-0.01942487433552742
-0.028695860877633095
0.013457921333611012
-0.0433245413005352
0.03435355797410011
0.06494058668613434
-0.01053433958441019
-0.05085984617471695
0.008007296361029148
-0.03944118320941925
0.0030236050952225924
-0.015724312514066696
-0.05603248253464699
0.01163487695157528
0.029522106051445007
-0.031262919306755066
-0.0214159544557333
-0.04653004929423332
-0.05989917367696762
0.04600225389003754
-0.057025402784347534
-0.017240993678569794
-0.06775539368391037
0.016034390777349472
0.058447714895009995
0.047069400548934937
-0.023084186017513275
-0.010642081499099731
0.04536530375480652
0.009222517721354961
0.0026244856417179108
0.05713476240634918
-0.005181526765227318
0.03288484364748001
0.060415420681238174
-0.039337676018476486
-0.06684017181396484
0.002383718965575099
-0.04200929403305054
0.0021495127584785223
-0.06482437998056412
0.021032871678471565
0.034028004854917526
0.016124965623021126
-0.04339050501585007
-0.040681369602680206
-0.020422743633389473
-0.066092349588871
-0.027455924078822136
0.043866585940122604
-0.011194744147360325
-0.00880336668342352
0.05137590691447258
-0.03390735387802124
0.07582170516252518
-0.048501498997211456
-0.004265511874109507
0.03578140586614609
0.026632865890860558
0.01819000393152237
0.05730330944061279
-0.06846769154071808
-0.05061032623052597
0.025086164474487305
-0.02449147216975689
-0.04697040095925331
-0.046596452593803406
-0.06905195116996765
0.024735476821660995
0.06840350478887558
0.005463850684463978
-0.023913590237498283
0.047329168766736984
0.0636153593659401
0.005823405459523201
0.02278936095535755
-0.0012106543872505426
-0.0560472197830677
0.06823019683361053
-0.025060689076781273
0.0641675665974617
0.07426999509334564
0.056002017110586166
0.07488066703081131
0.05290893092751503
-0.01854175329208374
-0.014309214428067207
-0.013374976813793182
-0.04803670942783356
0.05787906423211098
-0.06151944026350975
0.06638366729021072
-0.033415019512176514
0.042602814733982086
0.07086621969938278
0.014841923490166664
-0.05732153728604317
0.04003806784749031
0.03811444714665413
0.019291723147034645
0.021784307435154915
-0.016056010499596596
0.010328358970582485
0.04981234297156334
0.03067803382873535
-0.026613105088472366
0.046173810958862305
0.07087797671556473
0.03374927118420601
0.0532761849462986
0.04296056181192398
0.03355506435036659
0.0568174384534359
0.0003492599935270846
-0.01573006622493267
-0.04470927268266678
0.06916461884975433
-0.024185214191675186
-0.053042326122522354
0.0002814526669681072
-0.07476576417684555
0.024511337280273438
0.02365298941731453
0.009342145174741745
0.03352721035480499
0.006451380904763937
0.05469062179327011
0.052301954478025436
0.037396516650915146
0.06331346184015274
-0.020434847101569176
-0.059215378016233444
-0.043489668518304825
0.07249875366687775
0.0016313858795911074
0.037503432482481
-0.025352265685796738
-0.025019316002726555
-0.05670792609453201
-0.06551436334848404
0.03935316950082779
0.06590104848146439
0.015604481101036072
0.0623825378715992
0.007713181432336569
0.049805592745542526
-0.01268400065600872
-0.028495218604803085
0.006394403520971537
0.049478042870759964
0.030159536749124527
-0.0021886390168219805
0.0455796904861927
0.058711376041173935
-0.0455111525952816
-0.05203010141849518
0.014589006081223488
-0.06325830519199371
-0.027619337663054466
-0.0636439248919487
0.00043105302029289305
0.04709634557366371
0.0330948531627655
0.06881089508533478
-0.01450543012470007
0.01749897189438343
0.05284837633371353
0.030531497672200203
0.04227621108293533
-0.029514078050851822
-0.06686345487833023
0.06660597771406174
-0.008169740438461304
0.0023862554226070642
-0.06034263223409653
0.0441482849419117
0.038196370005607605
0.044590551406145096
-0.030154891312122345
-0.06810744851827621
0.00801062397658825
0.007811395917087793
0.04308589547872543
0.054039888083934784
0.0032959238160401583
-0.022189399227499962
0.031643208116292953
0.04384560137987137
0.07108231633901596
-0.023417441174387932
-0.06398134678602219
0.005832399241626263
-0.05421578884124756
0.040632106363773346
0.02022329717874527
-0.004351533949375153
0.07231608778238297
0.04234896972775459
0.003294904949143529
0.048158299177885056
-0.03040669858455658
0.006134201772511005
-0.02971009910106659
0.013900081627070904
-0.04477947577834129
0.02592058852314949
0.04823517054319382
0.07184906303882599
-0.056085266172885895
-0.006250533740967512
-0.03099825046956539
0.05271624028682709
-0.06380210816860199
0.012020005844533443
0.0034101814962923527
0.013413856737315655
0.01486917119473219
-0.021811245009303093
0.007369465194642544
0.038114503026008606
-0.03723985329270363
0.060207299888134
-0.02991664782166481
0.012475489638745785
0.0690719485282898
-0.06622791290283203
0.008379359729588032
-0.045988500118255615
-0.04260045289993286
0.0570455826818943
0.016162864863872528
0.012183799408376217
0.04406869411468506
0.029973603785037994
0.060308415442705154
0.028384514153003693
0.019757162779569626
0.06909849494695663
-0.008794515393674374
-0.027508819475769997
0.05461416766047478
0.050353970378637314
0.06807401776313782
-0.022410811856389046
0.03660165145993233
0.008553268387913704
-0.0589115247130394
0.0325903557240963
-0.031998537480831146
-0.0004826113872695714
0.023875972256064415
-0.003913233522325754
-0.028909485787153244
0.06190690025687218
-0.06136468052864075
-0.030574308708310127
0.014640582725405693
-0.055065229535102844
-0.0071352883242070675
0.0336013101041317
0.03710000216960907
0.05095978081226349
0.06995363533496857
-0.0016353126848116517
0.03221457451581955
-0.025296054780483246
-0.01053500548005104
0.01616648957133293
-0.05321226641535759
0.03207390755414963
-0.04980489984154701
-0.06270314007997513
-0.004420700948685408
0.06014632061123848
-0.010784625075757504
0.05007422715425491
-0.028352955356240273
0.013063804246485233
0.007592770271003246
-0.0332297720015049
-0.010377195663750172
0.01205082144588232
0.06881876289844513
0.06600546091794968
0.028770171105861664
-0.0038756979629397392
0.007438060827553272
0.049280427396297455
-0.03414194658398628
-0.0670226588845253
0.004831974394619465
0.054513148963451385
-0.057100240141153336
0.016805140301585197
0.03776448965072632
-0.07107244431972504
-0.00881482008844614
-0.0528746135532856
0.018683072179555893
0.045401737093925476
0.07491081207990646
-0.03764031454920769
0.07218131422996521
0.04052260145545006
0.07086306810379028
0.014092261902987957
-0.02211545780301094
-0.044687915593385696
0.005822278559207916
0.03339548036456108
0.05016842857003212
0.021946163848042488
-0.023628434166312218
0.016706129536032677
0.06971815973520279
-0.008855344727635384
0.05765858292579651
0.03438768535852432
0.06959249079227448
8.350151620106772e-05
0.06468003988265991
0.012533753179013729
-0.021548325195908546
0.007936039939522743
0.0013482808135449886
0.04006771370768547
0.0628647431731224
-0.008617901243269444
-0.06819550693035126
-0.07457181811332703
0.041574977338314056
-0.04623156040906906
0.06502553075551987
0.020696166902780533
0.00414044177159667
-0.031027723103761673
-0.04304947331547737
0.06406767666339874
-0.002117465017363429
0.029105169698596
-0.017247172072529793
-0.010499539785087109
0.05827029049396515
-0.034224532544612885
-0.03805294632911682
-0.03902578353881836
-0.033304985612630844
0.0019862574990838766
0.052080847322940826
-0.07765034586191177
-0.031748492270708084
-0.006967104505747557
-0.038053516298532486
0.04815900698304176
0.027498042210936546
-0.05856618657708168
-0.04510658606886864
0.02842535264790058
-0.010477621108293533
0.053431883454322815
0.0649418830871582
0.03866254538297653
-0.06988290697336197
0.02341216430068016
-0.008975202217698097
0.05212724208831787
-0.008581886999309063
0.009770579636096954
0.03889581933617592
-0.06704400479793549
-0.020649060606956482
-0.03371478244662285
0.0401039682328701
0.020276499912142754
-0.018837647512555122
-0.0048523214645683765
0.014244788326323032
0.06399916857481003
-0.044202156364917755
0.03924098610877991
0.04072900861501694
-0.03173638507723808
0.03601992875337601
-0.04459104686975479
-0.06376952677965164
0.06137968227267265
0.0056936717592179775
0.06969743221998215
0.046953871846199036
0.047602906823158264
0.0445835217833519
0.013970124535262585
-0.02194690704345703
-0.06765560805797577
-0.011773446574807167
-0.032009538263082504
0.0008329074480570853
0.028175631538033485
0.0070126852951943874
0.012714994139969349
-0.06399302184581757
0.03885621204972267
-0.009511470794677734
-0.025991888716816902
-0.04244751110672951
0.04585234075784683
0.054289769381284714
0.05417461693286896
-0.06411224603652954
-0.044227950274944305
-0.0011528347386047244
-0.041320592164993286
0.059616029262542725
-0.035016465932130814
0.06645023822784424
-0.005831975489854813
-0.04032494127750397
-0.03462986275553703
0.05057970806956291
-0.004501198418438435
-0.057687532156705856
-0.02138720639050007
-0.07225074619054794
0.0031912242993712425
-0.02832655981183052
-0.027470622211694717
-0.061652638018131256
-0.0484783835709095
-0.04232621192932129
0.0015959861921146512
0.05980243906378746
-0.04355860501527786
-0.012059702537953854
-0.06472378969192505
0.04791153222322464
-0.002773399231955409
-0.0036689413245767355
-0.04023261368274689
0.03739127144217491
0.007917686365544796
0.04625577852129936
-0.01657981425523758
-0.04547422006726265
-0.014600902795791626
0.00839347392320633
0.06685739010572433
-0.05081259086728096
0.04944915696978569
-0.0037267340812832117
-0.024750791490077972
0.027610043063759804
-0.018030060455203056
-0.028202936053276062
0.05486539006233215
-0.052912306040525436
-0.06166299805045128
0.05732577666640282
0.0674227625131607
-0.02079096995294094
0.020222021266818047
-0.011657475493848324
0.051530830562114716
-0.04075278341770172
0.03873567283153534
-0.049280133098363876
-0.011881274171173573
-0.02742752432823181
-0.0011372255394235253
0.03438778966665268
-0.059352003037929535
-0.017091084271669388
-0.01573212817311287
0.008386285975575447
0.06107709929347038
0.01748979650437832
0.01891292817890644
0.019523221999406815
-0.05078316852450371
0.05203290283679962
-0.03987254947423935
0.005066758021712303
-0.038979485630989075
0.03286580741405487
-0.005024050362408161
-0.024051666259765625
0.014925413765013218
-0.06846696138381958
-0.013631352223455906
-0.06071009486913681
-0.018781259655952454
0.0660860612988472
-0.02233605831861496
-0.012450394220650196
0.022958818823099136
-0.06794098764657974
0.057290513068437576
-0.040754109621047974
-0.012770561501383781
0.08091598749160767
0.04704757407307625
0.07511476427316666
-0.05446932464838028
-0.05624532699584961
-0.03390984237194061
0.014009892009198666
-0.043314021080732346
-0.012997040525078773
0.03906216472387314
-0.06339047849178314
-0.06038155034184456
-0.06552596390247345
-0.0697365254163742
-0.02745722234249115
-0.022849855944514275
0.030295850709080696
-0.0038134106434881687
-0.021697236225008965
0.04084343463182449
0.06414619088172913
-0.019331201910972595
-0.007952657528221607
0.06287447363138199
0.06863725185394287
-0.04225650802254677
-0.029664142057299614
-0.06835829466581345
-0.011315707117319107
-0.07086813449859619
-0.01048713643103838
-0.057386353611946106
-0.040707603096961975
0.03997819498181343
-0.06329481303691864
0.028331942856311798
0.05741959810256958
0.04207189753651619
-0.04292985051870346
0.07234395295381546
0.05543976649641991
-0.016530442982912064
-0.05626143142580986
-0.04947741702198982
-0.03306746855378151
-0.07189129292964935
0.030856505036354065
-0.006179549731314182
0.004022181034088135
0.011901076883077621
-0.04502198472619057
0.026031792163848877
-0.06565219163894653
-0.05462037771940231
0.03702972084283829
-0.06743811070919037
0.06405466049909592
0.02674623392522335
0.010778448544442654
0.019087309017777443
-0.06890714168548584
0.05379640683531761
-0.07263056933879852
-0.06598689407110214
0.04620179533958435
-0.057929836213588715
0.025817442685365677
0.05112205445766449
-0.0021573249250650406
-0.003994150087237358
0.034450460225343704
-0.046154603362083435
-0.03253965452313423
0.019960511475801468
-0.02741994895040989
-0.05553070828318596
-0.009915949776768684
0.06033464893698692
0.016884513199329376
0.0535384938120842
-0.03891809284687042
0.011953062377870083
0.021815713495016098
-0.07715706527233124
0.03229060769081116
0.006863259710371494
0.04947465658187866
0.027272339910268784
-0.06782324612140656
0.05084427073597908
-0.021376321092247963
-0.018371539190411568
0.004483263939619064
-0.06339244544506073
0.0276386346668005
0.07616203278303146
0.02414039522409439
0.026832878589630127
0.05337424948811531
-0.026197100058197975
0.059254009276628494
0.06503390520811081
-0.0028286976739764214
0.02963361330330372
0.038272783160209656
0.03354363143444061
-0.064470075070858
-0.036706626415252686
0.008748147636651993
0.06405084580183029
-0.059325069189071655
-0.035638824105262756
-0.031015319749712944
0.07003732025623322
-0.015893355011940002
-0.029636651277542114
0.05117611587047577
0.044962551444768906
0.03973455727100372
0.038196124136447906
0.0435025729238987
0.029705222696065903
-0.04720531776547432
0.023534759879112244
-0.04316793382167816
0.01484306063503027
0.019107379019260406
0.06718812882900238
-0.016997018828988075
0.023295389488339424
0.02971825748682022
0.008775971829891205
0.030862269923090935
0.024284420534968376
-0.014623117633163929
-0.04438912868499756
-0.004054163116961718
0.05328347906470299
-0.047669027000665665
0.061645928770303726
0.062353406101465225
-0.029674893245100975
-0.018327750265598297
0.03153765946626663
0.0016634532948955894
-0.02673087827861309
-0.06082005426287651
0.007594806607812643
0.07132595777511597
-0.056684304028749466
0.014782480895519257
0.05296573415398598
-0.04618719592690468
0.007896453142166138
0.04904813691973686
-0.048513125628232956
0.014758353121578693
0.020666513592004776
-0.01670851744711399
0.0399235263466835
-0.021380750462412834
0.02947789803147316
0.044625382870435715
-0.06838176399469376
-0.037781972438097
0.0668950080871582
0.02889787033200264
0.06695953756570816
0.024529431015253067
-0.013344335369765759
-0.02740885689854622
-0.015238538384437561
0.006474053952842951
0.013042667880654335
0.006083386018872261
0.012836650013923645
-0.013052532449364662
-0.009556271135807037
-0.03441083803772926
0.018468722701072693
0.0686468854546547
-0.020700529217720032
-0.03656440228223801
0.040883224457502365
-0.04312388598918915
-0.060785677284002304
-0.037482500076293945
-0.0516665019094944
0.0373094342648983
0.02351650781929493
-0.0661550834774971
-0.007012310903519392
-0.003886782331392169
0.0023244244512170553
0.030400287359952927
0.022005299106240273
0.01776653528213501
0.051992978900671005
-0.04865717887878418
0.026340825483202934
-0.04349078610539436
-0.031236400827765465
-0.04002460092306137
-0.020327238366007805
-0.04314105957746506
0.04457641392946243
0.0383467935025692
0.05725276097655296
-0.030103610828518867
-0.032034195959568024
0.006863675080239773
-0.005476729478687048
-0.04428570345044136
-0.03643963485956192
-0.038237038999795914
-0.028190596029162407
0.06565715372562408
0.04460000991821289
0.05744438245892525
-0.011351795867085457
0.06613288819789886
-0.07051407545804977
-0.07435696572065353
0.0807071402668953
-0.01568985916674137
-0.025969985872507095
-0.04934548959136009
0.03764808923006058
0.028599413111805916
0.04900799319148064
-0.0029933350160717964
0.004219514783471823
0.014352202415466309
0.035986267030239105
0.06402640044689178
0.06416568905115128
-0.05782683938741684
0.051928866654634476
-0.03407768905162811
-0.0055897049605846405
-0.03642672672867775
0.031642377376556396
0.026984766125679016
-0.017969980835914612
-0.06371854245662689
-0.03943232074379921
-0.017411084845662117
-0.0339697003364563
-0.04770846664905548
0.02848912589251995
0.06280161440372467
-0.06173468381166458
-0.03720226511359215
0.06209701672196388
-0.018628835678100586
-0.05379081889986992
0.036599915474653244
-0.04551674798130989
-0.0321052260696888
-0.0486525259912014
-0.07106537371873856
-0.05757731944322586
-0.019376972690224648
0.020239824429154396
0.06477048993110657
-0.011120732873678207
-0.019853858277201653
0.013484042137861252
0.03268658369779587
-0.007300578989088535
0.07096467167139053
-0.045759622007608414
-0.07538462430238724
0.04371287673711777
0.0546160526573658
-0.025098169222474098
0.045002590864896774
0.00011932226334465668
0.0022214625496417284
0.019306695088744164
0.011215666308999062
0.05393791198730469
-0.06854410469532013
-0.05961889401078224
-0.010839075781404972
0.0410851389169693
-0.05423365905880928
-0.003933905158191919
-0.004216406494379044
0.04508180171251297
0.0017697670264169574
0.0108867222443223
-0.05191963165998459
0.048971936106681824
0.0706307664513588
-0.031034572049975395
-0.024523844942450523
0.030029814690351486
0.012245440855622292
0.06435579806566238
-0.007979093119502068
0.05208611488342285
-0.008331970311701298
-0.006573360878974199
0.06695221364498138
-0.03973764926195145
0.03645668923854828
0.02398642525076866
-0.058489181101322174
-0.05141153931617737
0.04252251982688904
-0.02826710231602192
0.026415357366204262
-0.0322650708258152
-0.0532120056450367
-0.05347810685634613
-0.06827248632907867
0.061868008226156235
0.043905530124902725
0.014045189134776592
-0.0257631316781044
-0.05475843697786331
-0.07276486605405807
-0.06589756906032562
-0.032251033931970596
0.004055195953696966
-0.06157733127474785
-0.0336383618414402
0.017033439129590988
0.014544268138706684
-0.05242878571152687
-0.04939347505569458
0.02983144111931324
0.012962552718818188
-0.0004437666793819517
-0.051499608904123306
-0.029353931546211243
0.00285127991810441
0.01654476672410965
0.04585951194167137
0.05454396456480026
-0.04891718551516533
-0.02726946771144867
0.041768524795770645
0.04089614748954773
0.06139097362756729
-0.04567021504044533
-0.004591821692883968
-0.014247645623981953
-0.006922037340700626
0.036804378032684326
0.03157607093453407
-0.015022763051092625
0.06956034898757935
-0.04117699712514877
0.03202231973409653
-0.06644240021705627
-0.0626637414097786
0.06774254888296127
-0.03295198455452919
-0.004491006024181843
0.059954848140478134
0.037063997238874435
-0.03946138173341751
0.05151256173849106
-0.057318612933158875
0.036346808075904846
0.012433034367859364
-0.03980870172381401
-0.026812879368662834
0.01822441630065441
-0.05692005902528763
0.018444102257490158
0.0007633074419572949
0.046127449721097946
0.03384101390838623
-0.012539230287075043
0.07623329758644104
-0.03359444811940193
0.017789652571082115
0.05811743438243866
-0.006246441509574652
0.012394100427627563
0.030310731381177902
0.03812086582183838
0.035779912024736404
0.04761407524347305
0.06109001860022545
-0.04619273915886879
-0.02697034738957882
0.03797273337841034
-0.02073351852595806
0.061297640204429626
-0.015885476022958755
-0.06599798798561096
0.02938292734324932
-0.023193322122097015
0.025058001279830933
0.042743731290102005
-0.05670027434825897
0.055018384009599686
-0.013493496924638748
0.028859902173280716
-0.05098411440849304
-0.05848105624318123
0.057095061987638474
0.011626268737018108
-0.06726979464292526
-0.058521222323179245
0.039628684520721436
-0.07036653906106949
0.006914506200700998
0.03053402714431286
0.028497805818915367
-0.029406258836388588
0.021454116329550743
0.0007353313267230988
-0.027246445417404175
-0.0060922130942344666
-0.04452664777636528
-0.02870454639196396
0.006958065554499626
0.016193347051739693
0.0764954462647438
-0.04609077051281929
-0.025057842954993248
0.03971276059746742
-0.0035105571150779724
0.02061953954398632
0.05330832302570343
0.020742058753967285
-0.0285785011947155
0.038189373910427094
-0.06706248968839645
-0.001735916011966765
0.05826770141720772
0.02552805095911026
-0.026657525449991226
0.04387461021542549
-0.03127775713801384
-0.042046234011650085
-0.032445233315229416
-0.026469329372048378
-0.039901163429021835
-0.012239017523825169
-0.00950294267386198
-0.06356415152549744
0.036484118551015854
0.04807182401418686
0.04534493759274483
0.05616049841046333
-0.0386439710855484
0.06647465378046036
0.06184815615415573
-0.039814241230487823
-0.06087136268615723
0.04134771227836609
0.026122696697711945
0.07103326916694641
-0.06187022104859352
-0.01786177232861519
0.013025615364313126
0.031709231436252594
-0.04426567628979683
0.033299464732408524
-0.07065236568450928
0.012604215182363987
0.009540263563394547
0.04133257642388344
-0.010759510099887848
0.016670819371938705
-0.019941044971346855
0.06818164139986038
-0.006339754909276962
0.014405224472284317
0.025954019278287888
-0.04144631698727608
0.04888949170708656
0.06740473955869675
-0.032526645809412
0.012605467811226845
-0.03425462171435356
0.005592005793005228
0.057111505419015884
0.04448407143354416
-0.06860829144716263
-0.051228366792201996
-0.026871254667639732
-0.046622134745121
-0.021930862218141556
-0.06876154243946075
0.05620316416025162
-0.013698180206120014
-0.0017828077543526888
-0.02475959248840809
0.0580144040286541
0.03820513188838959
0.05818770080804825
0.061462316662073135
0.03264068067073822
-0.010956979356706142
-0.03960486501455307
0.07033198326826096
-0.035354696214199066
0.05821339040994644
0.001664607203565538
-0.022298432886600494
0.06046397238969803
0.062439583241939545
0.012703006155788898
-0.06343946605920792
-0.04619541019201279
0.018704427406191826
-0.04852493852376938
-0.0011771643767133355
0.009068812243640423
0.013632578775286674
-0.027065107598900795
0.023787271231412888
-0.0016841358738020062
0.014214826747775078
0.0742466151714325
0.05405990406870842
0.0620565265417099
-0.020936714485287666
-0.019592121243476868
0.029025595635175705
-0.05563708394765854
-0.07364939153194427
0.04446498304605484
-0.03305050730705261
0.009410543367266655
0.05539533123373985
-0.06433290243148804
-0.02762574516236782
0.06554567813873291
0.04369335249066353
-0.0049760956317186356
0.025764431804418564
-0.04343646764755249
-0.06583236157894135
-0.059097904711961746
-0.01041857898235321
0.028730127960443497
0.0019897909369319677
-0.06346359103918076
-0.006237540394067764
0.05571402981877327
-0.033939383924007416
-0.05715501308441162
-0.012164725922048092
0.06386571377515793
-0.043024949729442596
-0.0074748387560248375
-0.04153253883123398
-0.05711028352379799
0.011544515378773212
0.03992799296975136
0.018753264099359512
-0.025857767090201378
0.006449887994676828
-0.008411217480897903
0.026663413271307945
-0.05989803373813629
0.048050202429294586
0.01594417542219162
0.02246706932783127
-0.023629099130630493
0.049497999250888824
-0.04266708716750145
-0.006295022554695606
0.0622391514480114
-0.046969544142484665
-0.014853373169898987
0.0018191073322668672
0.07070976495742798
-0.026221217587590218
0.04148359224200249
-0.03166676685214043
-0.0645613968372345
-0.037107914686203
-0.034724462777376175
-0.011443627066910267
-0.0212126225233078
-0.05095205828547478
0.06548646092414856
-0.020594194531440735
-0.05596981197595596
0.001536324038170278
-0.04122809320688248
0.006006815005093813
0.027440166100859642
-0.022592782974243164
-0.05579565092921257
0.038706205785274506
0.009896027855575085
0.01501632109284401
0.032856401056051254
0.052697278559207916
0.01910918764770031
-0.04525567591190338
-0.03446513041853905
0.02054048888385296
0.03617728501558304
-0.014140135608613491
0.017067035660147667
-0.059176698327064514
-0.05845865234732628
0.07211701571941376
0.05029182881116867
0.019337976351380348
0.0715993270277977
-0.042183421552181244
0.002972654066979885
0.027278495952486992
0.060882940888404846
0.027346592396497726
0.0511760450899601
0.024996524676680565
-0.027040937915444374
-0.03219742700457573
-0.030938921496272087
-0.007312894333153963
0.04048312082886696
0.012342155911028385
-0.04135748744010925
-0.035044170916080475
0.057984765619039536
0.04834551736712456
-0.050325751304626465
0.033546265214681625
-0.009749870747327805
0.029374629259109497
-0.05662379413843155
-0.04416361078619957
-0.05747067555785179
-0.03247416391968727
-0.031225431710481644
0.04991256818175316
0.034039393067359924
-0.04337796941399574
0.0010147031862288713
-0.05108490586280823
0.0022583026438951492
0.042276766151189804
-0.018539967015385628
-0.03287934139370918
-0.0378643237054348
-0.044234748929739
0.04420272260904312
-0.05805789306759834
0.03477649390697479
0.03913299739360809
-0.05172131955623627
-0.0660317912697792
0.009657585993409157
0.004521973431110382
0.04021225869655609
-0.06062307581305504
0.04677616432309151
-0.06723673641681671
0.05134309455752373
-0.0060403007082641125
-0.023703252896666527
0.04940006881952286
0.05646787956357002
0.0015139945317059755
-0.002501636976376176
-0.012826621532440186
0.02982662059366703
-0.01985524594783783
-0.03155209496617317
0.003491376293823123
-0.07087992876768112
0.002353038638830185
0.04570058360695839
-0.014607502147555351
-0.06004581227898598
0.0016653155907988548
-0.0697055533528328
0.05088519677519798
-0.035265903919935226
-0.0260951928794384
0.04264947026968002
-0.0017143228324130177
-0.02713012509047985
-0.03281409293413162
0.05498373508453369
-0.012481029145419598
0.06678584218025208
0.03427247703075409
-0.027863001450896263
-0.04847252741456032
-0.060778629034757614
-0.07109002768993378
-0.004768566228449345
-0.015210991725325584
0.03331000730395317
0.01614706963300705
0.04880552366375923
0.05910436064004898
-0.039767540991306305
0.018187273293733597
0.050129085779190063
0.0352882444858551
0.029577625915408134
0.045871712267398834
-0.06437841802835464
-0.04486309364438057
-0.041602298617362976
0.03313491493463516
0.05257973074913025
-0.051299240440130234
0.027195461094379425
-0.06324640661478043
-0.0018064649775624275
0.031366318464279175
0.06519889086484909
0.008592674508690834
-0.04815685749053955
-0.060861390084028244
-0.04061601310968399
0.003106903750449419
-0.04277497157454491
-0.040375255048274994
0.016436025500297546
0.04260038584470749
-0.012192226946353912
-0.06577734649181366
-0.02261514775454998
-0.07124945521354675
0.0510813370347023
-0.007422897033393383
-0.06818582117557526
0.025805221870541573
-0.06139450892806053
-0.03736817091703415
-0.029208596795797348
0.0361846499145031
0.0200785044580698
0.04496293514966965
0.0007680634735152125
0.022544817999005318
0.027155699208378792
0.007512761279940605
-0.009382280521094799
-0.04477471858263016
0.0023675423581153154
0.024565845727920532
0.053409647196531296
-0.07060793787240982
0.00914738979190588
0.03847649320960045
0.061516400426626205
0.03627874702215195
0.03415754437446594
-0.040854789316654205
0.044317979365587234
0.013846597634255886
0.014385472983121872
-0.04295257478952408
-0.0014351430581882596
0.0450156144797802
0.005339040886610746
-0.028216276317834854
0.07005897164344788
0.07564015686511993
-0.06051278114318848
0.028084194287657738
0.058896537870168686
0.017030935734510422
-0.01267952099442482
0.0051086414605379105
-0.04538097232580185
-0.01794961653649807
-0.031071869656443596
0.0069977473467588425
-0.025157509371638298
-0.05410464480519295
-0.023542363196611404
-0.06291734427213669
0.04190568998456001
0.0052817389369010925
0.03601626306772232
-0.06273457407951355
-0.022871240973472595
-0.03373628854751587
0.07016022503376007
-0.0036745669785887003
0.003426152979955077
-0.03853432461619377
-0.025520341470837593
0.01445922814309597
0.0626087561249733
0.06265666335821152
-0.026989055797457695
0.05282939225435257
0.004001093562692404
0.04044030234217644
-0.03258778899908066
0.025405628606677055
0.007754429243505001
0.02373780868947506
0.05960908532142639
0.007903008721768856
0.051072366535663605
-0.025759266689419746
0.03191514313220978
-0.007335033267736435
-0.07112298905849457
-0.03168339654803276
0.03688425570726395
0.05642439424991608
-0.000386562489438802
-0.06567104905843735
-0.0296639334410429
0.06660351902246475
0.060886964201927185
0.017962390556931496
-0.035727739334106445
-0.03845466300845146
-0.03348148241639137
-0.0573846660554409
0.05235360562801361
-0.060855600982904434
-0.03786218911409378
0.028339307755231857
-0.06083684414625168
-0.0646897703409195
-0.06230856850743294
-0.05869907885789871
0.010580798611044884
0.05867378041148186
-0.05115318298339844
-0.060907475650310516
0.013941974379122257
0.000812589016277343
0.013469449244439602
-0.0408247672021389
0.06019549071788788
-0.012147234752774239
-0.04022267460823059
-0.005820597987622023
0.007786289788782597
0.002525129821151495
0.014288819395005703
-0.03832913190126419
-0.017001822590827942
-0.04665960371494293
0.06806088984012604
-0.04914455488324165
0.06043341010808945
0.036699749529361725
-0.021192962303757668
0.05992911383509636
0.03792179003357887
-0.004346076399087906
-0.03368210792541504
0.07865369319915771
-0.02913644164800644
0.052612122148275375
-0.008936001919209957
0.05194038152694702
-0.06759420037269592
0.02626645751297474
-0.03888311609625816
-0.023551009595394135
0.03276386111974716
0.01582290232181549
0.05056702345609665
0.03505055606365204
0.061164356768131256
-0.013538346625864506
-0.035022467374801636
0.03753741458058357
0.06431502103805542
-0.06390508264303207
0.04342719539999962
0.009837061166763306
-0.04223040118813515
0.04268602654337883
0.008457629941403866
-0.07023515552282333
0.006555547472089529
0.029995115473866463
-0.012698531150817871
0.053250502794981
0.05343368276953697
-0.007681909017264843
-0.01944584958255291
0.009627534076571465
-0.028282776474952698
0.0641854777932167
-0.007234256248921156
-0.02973061427474022
0.06476425379514694
0.005676019471138716
0.0737474337220192
-0.0495794303715229
0.004586599767208099
0.05773954093456268
0.032463714480400085
0.026621118187904358
-0.027287261560559273
-0.0051643140614032745
-0.030426260083913803
-0.05060110241174698
-0.045300666242837906
0.025019312277436256
0.022685466334223747
-0.002591205993667245
-0.03429358825087547
-0.07867464423179626
0.008493464440107346
-0.0037437952123582363
0.0312584787607193
0.014103270135819912
0.06145887076854706
-0.04976404458284378
0.07234037667512894
0.03934706375002861
-0.05633331835269928
-0.02559751085937023
0.03967849910259247
0.013530855998396873
-0.03047812543809414
-0.017890924587845802
0.05483804643154144
-0.0701635479927063
-0.04325191676616669
-0.05461989343166351
-0.013188526034355164
0.047459106892347336
-0.030987706035375595
0.03219146654009819
-0.0388900488615036
0.04175593703985214
0.011524396017193794
-0.015458060428500175
-0.05073334649205208
-0.056269630789756775
-0.07439932972192764
-0.04129091650247574
0.05499802157282829
-0.0011096367379650474
-0.029823707416653633
0.03019114024937153
0.03787137195467949
-0.04011914134025574
0.05008407309651375
-0.04690380021929741
0.018490152433514595
-0.04992537200450897
-0.03844227269291878
0.0243997722864151
-0.03125990554690361
-0.03461192920804024
0.021621214225888252
0.009539684280753136
-0.05503686144948006
0.06627398729324341
0.039384134113788605
0.008513749577105045
-0.07942768931388855
-0.05262603238224983
0.0721803605556488
-0.05556053668260574
0.02937660925090313
0.0685739815235138
-0.056477054953575134
0.027776604518294334
-0.0002649684902280569
0.0636894702911377
0.04123295098543167
0.047988273203372955
0.05965500697493553
-0.018198680132627487
-0.04286019504070282
0.05834951251745224
-0.059739843010902405
0.04603216052055359
-0.032148219645023346
-0.031429365277290344
0.03668680042028427
0.03189319744706154
-0.02817762829363346
0.02862382121384144
0.021922586485743523
0.056094683706760406
0.016030190512537956
-0.01376259047538042
-0.009994092397391796
0.012349715456366539
-0.07008294016122818
0.03669584169983864
0.04496809095144272
0.034691400825977325
-0.05056728795170784
-0.0485001765191555
0.0664217546582222
-0.045345474034547806
0.037689439952373505
0.059728432446718216
-0.03840141370892525
0.04458404704928398
-0.04518700763583183
0.006907695904374123
0.028531145304441452
-0.047525376081466675
0.02515874244272709
0.003657273482531309
0.04205767810344696
0.002941413316875696
-0.05864521861076355
0.03306419029831886
0.00238216994330287
0.014426713809370995
-0.06639118492603302
-0.05338938906788826
-0.00447343522682786
0.04579306021332741
0.02180631458759308
0.031204048544168472
0.002097941469401121
-0.006741030141711235
0.005276136565953493
-0.041384078562259674
-0.0009374036453664303
0.005980116780847311
0.04928581416606903
0.021889042109251022
0.039922408759593964
0.023438872769474983
0.015981873497366905
-0.05100797861814499
0.01193435862660408
0.013224489986896515
0.04178819805383682
-0.04389433190226555
-0.005302696023136377
-0.06608840078115463
0.05761456489562988
-0.004447267856448889
0.03005553036928177
0.024636641144752502
-0.0010694037191569805
0.012574445456266403
-0.01574680767953396
-0.01036096177995205
-0.04574001207947731
-0.06331296265125275
0.06881939619779587
-0.06866041570901871
-0.05905592069029808
0.06144191697239876
0.001245105522684753
-0.016476619988679886
0.0028248734306544065
-0.007745545357465744
-0.03962301090359688
-0.008273137733340263
-0.06446368247270584
-0.03386317938566208
-0.03302837535738945
-0.059500034898519516
-0.056005626916885376
-0.05101824924349785
-0.0207044817507267
0.06870007514953613
-0.028553510084748268
-0.04791932925581932
-0.07317594438791275
0.04785171151161194
0.07013589143753052
-0.027716241776943207
0.04549231752753258
0.02178807742893696
-0.07892979681491852
-0.00783891137689352
0.04022243618965149
-0.07113934308290482
-0.0019740224815905094
-0.015942389145493507
-0.047790270298719406
-0.05318807065486908
0.03534475713968277
0.028054291382431984
-0.04917033761739731
-0.07385663688182831
0.026774177327752113
0.01566730998456478
0.02412477135658264
0.02571699395775795
0.04144909977912903
-0.06594621390104294
-0.03519594669342041
0.0022342833690345287
0.005186512600630522
-0.01642211154103279
0.06313138455152512
-0.007501219864934683
-0.026434462517499924
0.009640160948038101
0.073565274477005
0.07188841700553894
-0.04445736110210419
-0.07040689885616302
-0.03182515501976013
-0.05798882246017456
0.010604423470795155
-0.038608357310295105
-0.06870687752962112
0.026979820802807808
-0.07195140421390533
0.0030466809403151274
0.0017037695506587625
-0.024388235062360764
0.022942302748560905
0.020144127309322357
0.05518760904669762
-0.06824807077646255
-0.023563755676150322
0.02664712443947792
-0.05793282017111778
0.04655853286385536
0.01184115931391716
0.016472090035676956
-0.01173997949808836
0.009660459123551846
-0.030597001314163208
-0.05970076471567154
0.07497254014015198
-0.035475656390190125
0.05581729859113693
0.03711193427443504
0.042121291160583496
-0.002957551972940564
-0.06798864156007767
-0.06154344975948334
-0.03641746938228607
-0.065748430788517
-0.04842294380068779
0.01375006977468729
-0.046898119151592255
0.04462479427456856
-0.010258607566356659
0.0481925904750824
0.06158165633678436
-0.030187195166945457
-0.019807981327176094
-0.0029979366809129715
-0.05257387086749077
-0.04811030998826027
-0.0032396481838077307
-0.009738126769661903
0.024482138454914093
0.050969261676073074
0.05867031216621399
-0.004692100919783115
0.058656640350818634
0.0073063005693256855
0.016162052750587463
-0.005237637087702751
-0.05490250512957573
0.009579011239111423
0.020571822300553322
0.037485525012016296
-0.06752463430166245
0.03190157189965248
-0.054770465940237045
-0.06582286953926086
0.05068027600646019
0.061502303928136826
-0.068581223487854
0.04129774495959282
-0.04642369598150253
-0.06334858387708664
0.03916293755173683
-0.053094424307346344
0.025555694475769997
0.00290208519436419
0.04384070262312889
-0.05883275344967842
0.008785372599959373
-0.06936737895011902
0.025640413165092468
-0.03276992216706276
-0.03063676320016384
0.0007234286167658865
0.026637572795152664
0.027941232547163963
-0.009462649933993816
0.03567764535546303
0.07557325065135956
0.05548315495252609
-0.037638045847415924
0.019038375467061996
0.0020416106563061476
0.062240324914455414
0.02751804143190384
0.03431425988674164
-0.06440667062997818
-0.04457440599799156
0.035980403423309326
0.06941772252321243
0.030385054647922516
0.0308101586997509
-0.07408507168292999
0.04885111749172211
-0.0027350508607923985
-0.07703269273042679
0.046353936195373535
0.033869095146656036
-0.0613066665828228
0.023747051134705544
0.06624149531126022
-0.04354623332619667
0.011924090795218945
0.024516671895980835
-0.02278945781290531
0.014885267242789268
0.03652503341436386
0.00816075224429369
0.028972961008548737
0.019795184955000877
0.037583574652671814
0.02286781556904316
0.018548913300037384
0.027901597321033478
-0.06244438886642456
0.005288377404212952
0.04306976497173309
0.051209043711423874
0.03551233187317848
0.005112998653203249
-0.015053818002343178
-0.03181943669915199
-0.054622624069452286
-0.04323044419288635
-0.04163438454270363
-0.0429723858833313
-0.01524039451032877
-0.018332969397306442
-0.05672549083828926
0.013846167363226414
-0.05121571570634842
0.03599996864795685
-0.026374297216534615
-0.05913586914539337
-0.011284930631518364
-0.04082454741001129
-0.044491879642009735
-0.05588864907622337
0.05489139258861542
0.018185408785939217
0.022458713501691818
-0.003019664203748107
-0.04752736911177635
-0.023105880245566368
0.0451371967792511
-0.0474993959069252
0.0635901689529419
-0.06862686574459076
-0.04797250032424927
-0.05789560452103615
-0.03683730959892273
0.010161093436181545
-0.05258825793862343
0.024962006136775017
-0.02940026856958866
-0.0006127369706518948
-0.0401650071144104
-0.009408596903085709
0.009112382307648659
0.055734727531671524
0.07819649577140808
-0.005104625131934881
-0.0020164696034044027
-0.02300870791077614
0.06973428279161453
-0.008636795915663242
0.06253937631845474
-0.016690824180841446
0.07289894670248032
0.010386656038463116
-0.029648933559656143
0.021762194111943245
-0.0034601136576384306
-0.040218230336904526
-0.013699701987206936
-0.05045624449849129
0.04378220811486244
-0.01845507137477398
0.05212145671248436
0.05094464495778084
-0.024886246770620346
0.006069434806704521
-0.0024560154415667057
-0.04798292741179466
0.03747925907373428
0.023365354165434837
-0.05952158570289612
-0.06967116892337799
0.04745751619338989
0.042436134070158005
0.06298306584358215
0.06339549273252487
-0.046711839735507965
0.004061841405928135
-0.0018522946629673243
-0.008617880754172802
0.013484670780599117
-0.025526458397507668
-0.05259185656905174
-0.06825459748506546
0.00304772169329226
-0.03669826686382294
0.03720890358090401
-0.02175498567521572
0.011236658319830894
0.042616020888090134
-0.0029376724269241095
0.015138614922761917
0.03518570214509964
0.06193222850561142
-0.032186359167099
-0.054178521037101746
0.011217731982469559
-0.015065127052366734
0.002840059343725443
-0.05918266624212265
-0.06634485721588135
0.05249077454209328
-0.06859137862920761
0.007319938391447067
-0.05942279100418091
0.026555104181170464
-0.07133179157972336
-0.024379577487707138
0.05026554316282272
-0.04314399138092995
-0.03538845106959343
0.06613070517778397
-0.001372479717247188
-0.06605368107557297
0.05091822147369385
-0.033203475177288055
0.024241074919700623
0.0054779052734375
-0.027875320985913277
-0.037541527301073074
0.03963295370340347
-0.01785443350672722
0.0162463691085577
0.050135642290115356
-0.043930456042289734
0.07106843590736389
0.026532215997576714
0.008678445592522621
0.017477884888648987
0.05595514550805092
0.06674002856016159
0.05765586718916893
-0.06662784516811371
0.034111615270376205
0.07184742391109467
0.012576197274029255
-0.014133967459201813
0.06013622507452965
0.042612217366695404
0.04687003791332245
0.031115524470806122
0.030344363301992416
-0.028646985068917274
0.04234916716814041
0.02825593762099743
-0.016276616603136063
-0.05127342417836189
0.029240386560559273
0.03115026466548443
0.0406181737780571
-0.014088192023336887
-0.0022761232685297728
0.029484346508979797
0.0030873874202370644
-0.05071832612156868
0.04819568246603012
-0.00198042718693614
-0.06959636509418488
-0.009841282851994038
0.059577055275440216
-0.05709464102983475
0.0402381494641304
-0.05793564394116402
-0.00470205070450902
-0.01108338963240385
-0.07104813307523727
-0.027204692363739014
0.06746244430541992
-0.015052239410579205
-0.05243244022130966
-0.051019299775362015
0.046704769134521484
0.04575083404779434
-0.06417438387870789
-0.025197776034474373
-0.04839988425374031
-0.06770465523004532
0.05894830450415611
-0.03841491788625717
-0.0033763714600354433
-0.05065612494945526
0.013679713010787964
-0.06605849415063858
0.058186836540699005
0.05930902808904648
-0.00945024099200964
-0.06699831783771515
0.02863050065934658
0.053255002945661545
0.04127020016312599
0.07404709607362747
-0.0634486973285675
-0.02140055224299431
0.028592340648174286
0.0703641027212143
0.0490315817296505
0.01566242054104805
0.027767371386289597
-0.004108977038413286
-0.013219581916928291
-0.0629989355802536
0.041711438447237015
0.012885261327028275
0.04187873378396034
-0.036518242210149765
-0.059736017137765884
-0.0005972286453470588
0.009241977706551552
-0.03957614302635193
-0.012407827191054821
0.015584810636937618
0.012341758236289024
-0.05320155620574951
0.06396471709012985
-0.037623919546604156
0.04723484069108963
0.03308165818452835
0.0697939395904541
-0.046811848878860474
-0.05576937273144722
-0.016032714396715164
0.04763046279549599
0.007615467067807913
-0.006360724568367004
0.04445864260196686
-0.031816963106393814
0.015157528221607208
0.016693463549017906
-0.06691967695951462
-0.06320428848266602
0.030347425490617752
0.03692607209086418
-0.02635585516691208
0.019732674583792686
-0.020290609449148178
0.005068294703960419
0.05870018154382706
-0.05106117203831673
-0.06099390611052513
-0.022958705201745033
-0.04349847510457039
0.07514287531375885
0.04717213660478592
0.07180176675319672
0.002819423796609044
-0.054159920662641525
-0.020370764657855034
-0.011373414658010006
0.013600070029497147
-0.047622788697481155
0.06538119912147522
0.023595286533236504
0.03373115509748459
-0.07128160446882248
0.0029719306621700525
0.03043169341981411
-0.04001493379473686
-0.026188300922513008
0.046774137765169144
0.05678940936923027
-0.01608804054558277
-0.07293634861707687
0.04413715749979019
0.047911059111356735
-0.05726851522922516
0.022767046466469765
-0.04273056611418724
-0.03581161051988602
0.04945367947220802
-0.014906990341842175
0.02587912231683731
-0.03643035143613815
-0.0009125054348260164
0.030697880312800407
-0.056545667350292206
0.04554634913802147
0.0044435844756662846
0.06834133714437485
-0.004167557694017887
-0.03883609548211098
0.058433759957551956
-0.04220228269696236
-0.03966257721185684
0.009414268657565117
-0.04690025374293327
-0.07777270674705505
0.011458105407655239
0.0039318157359957695
0.06432981044054031
-0.037954721599817276
0.05109458416700363
0.060088738799095154
0.06603483855724335
0.016777489334344864
-0.01036486029624939
0.020082831382751465
0.0643826350569725
-0.04663059860467911
0.03134433180093765
0.01214666198939085
0.05992481857538223
-0.06973840296268463
-0.0513068288564682
-0.05975627899169922
-0.061327602714300156
0.07404424250125885
0.004197551868855953
0.0005005061975680292
0.055835649371147156
0.007049741223454475
-0.05170664191246033
-0.0254154484719038
-0.010296599939465523
0.012391496449708939
-0.07405649125576019
0.00557284988462925
-0.06438392400741577
0.009085663594305515
-0.012125303968787193
0.0680420771241188
0.0398431234061718
0.012700999155640602
0.01788371428847313
-0.004073821473866701
-0.030842730775475502
0.018359174951910973
0.042295679450035095
-0.047854743897914886
-0.03765521198511124
0.06963393837213516
-0.0015281353844329715
0.006221294868737459
0.04379601031541824
-0.06441662460565567
-0.004065291024744511
-0.012485523708164692
-0.06606949120759964
0.0016233846545219421
0.04475322365760803
-0.03475749120116234
-0.009639100171625614
0.010985186323523521
-0.03080964833498001
0.04048721864819527
0.0011858699144795537
-0.022938648238778114
0.015660187229514122
0.062371283769607544
0.0246625617146492
-0.01272765826433897
-0.02704375796020031
0.04952697455883026
0.055368486791849136
0.06491466611623764
-0.035681139677762985
0.02245212346315384
-0.07026898115873337
-0.059234362095594406
-0.06899236887693405
-0.042753368616104126
-0.0025843274779617786
-0.02132187969982624
-0.01652064174413681
0.005329407751560211
-0.04803768917918205
-0.01614774763584137
0.014197146520018578
-0.0019445877987891436
-0.01179361529648304
-0.06590696424245834
-0.026485029608011246
-0.04069259762763977
-0.019824303686618805
-0.013095811940729618
-0.0675601214170456
0.003769603790715337
0.004375658929347992
-0.06579513847827911
-0.06445161998271942
0.05906803905963898
-0.01136127021163702
-0.04789707437157631
0.04052663594484329
0.04447147995233536
0.01091763749718666
0.0024178919848054647
-0.0024227420799434185
-0.0014047410804778337
-0.005388911347836256
0.01447677705436945
-0.0561215840280056
0.01252000778913498
0.04642178490757942
0.017507389187812805
-0.05894258990883827
0.013235686346888542
-0.06560473144054413
0.002094133058562875
-0.06847909837961197
-0.02197834849357605
0.03193841502070427
-0.06916426867246628
-0.032622288912534714
-0.012954037636518478
0.06922201812267303
0.060333989560604095
0.0633770301938057
0.05430161580443382
-0.011659584008157253
0.0420001745223999
0.05254475772380829
0.026730647310614586
-0.06304164975881577
-0.015181830152869225
0.06590146571397781
0.04893694818019867
0.047784462571144104
0.027873503044247627
0.0019994578324258327
0.06726377457380295
-0.06256917864084244
-0.03862268850207329
-0.022264868021011353
0.062348391860723495
0.00601775199174881
-0.007845018990337849
-0.01981022208929062
0.06693243980407715
0.04290733113884926
-0.042818743735551834
0.07114969193935394
-0.011224320158362389
0.04352884367108345
-0.029390091076493263
0.0636151060461998
-0.05221157893538475
-0.033285193145275116
0.05550144240260124
0.03481750190258026
0.013269789516925812
-0.05665535479784012
0.06156895309686661
-0.020495841279625893
-0.018532173708081245
-0.04723580554127693
0.01107630506157875
0.05515185371041298
-0.03168981894850731
-0.009305101819336414
0.06314343214035034
0.012420867569744587
0.0011146548204123974
0.06838152557611465
0.018254628404974937
0.011705603450536728
-0.013453583233058453
-0.025293409824371338
-0.06516396254301071
0.06035201624035835
0.04819689691066742
-0.03469435125589371
-0.027421453967690468
0.022366635501384735
0.011267262510955334
-0.039297427982091904
0.007528361864387989
-0.0058519854210317135
0.058616891503334045
-0.011627478525042534
-0.0410299189388752
-0.04142288491129875
-0.060321010649204254
0.0203990675508976
-0.027423083782196045
-0.01173580065369606
-0.06353757530450821
-0.04405731335282326
-0.05379307270050049
0.011402776464819908
-0.008574274368584156
0.023785829544067383
0.06920794397592545
-0.06543269008398056
-0.054975852370262146
0.04292574152350426
0.051539864391088486
0.011502024717628956
0.03692641109228134
-0.025098606944084167
-0.043617576360702515
0.031386733055114746
-0.05604036897420883
-0.04964160546660423
-0.06391853839159012
0.04711254686117172
0.06569436192512512
0.07830564677715302
-0.04747535288333893
0.06071530655026436
0.020291993394494057
0.056183524429798126
0.04118191823363304
0.030232613906264305
-0.045394543558359146
0.053815316408872604
0.05607274919748306
0.04058290645480156
0.04928178712725639
-0.03629152104258537
-0.07170751690864563
0.0627167746424675
0.053118906915187836
-0.06559132784605026
-0.0021203961223363876
-0.015388553962111473
-0.07553001493215561
0.012262791395187378
-0.07855426520109177
-0.004765551537275314
-0.0014839419163763523
0.03532598540186882
-0.05971633642911911
-0.049617916345596313
0.07067517936229706
0.028048407286405563
0.03334735706448555
-0.04614676162600517
-0.02249259687960148
0.06069708243012428
-0.055970147252082825
-0.022304752841591835
-0.021682703867554665
0.027797285467386246
0.03798364847898483
0.06983961164951324
-0.028126250952482224
0.034099068492650986
-0.04467296227812767
0.027467960491776466
-0.03129670023918152
0.06647039949893951
-0.03399771824479103
0.01990022137761116
0.009754663333296776
-0.039421625435352325
0.020048685371875763
-0.013454419560730457
-0.07270537316799164
-0.045736219733953476
0.016354255378246307
0.04668807610869408
-0.02354307658970356
0.00419866107404232
-0.023900004103779793
0.06319071352481842
-0.045655507594347
0.02031881734728813
-0.028650006279349327
-0.020446591079235077
-0.009746292605996132
0.06423856317996979
0.009577642194926739
-0.01356899831444025
0.058941811323165894
-0.0663595199584961
0.015024731867015362
-0.02034921385347843
-0.052532684057950974
0.013877298682928085
-0.004661973100155592
0.04152717813849449
-0.0565890371799469
0.009929874911904335
-0.018289150670170784
-0.01282088179141283
-0.06980767846107483
0.05441635847091675
0.055349793285131454
-0.06386302411556244
-0.05234324932098389
-0.06499217450618744
-0.010334641672670841
-0.028153548017144203
0.016487542539834976
-0.06792556494474411
0.009419313631951809
0.03206566348671913
-0.04446282610297203
0.011460157111287117
-0.03602335974574089
0.04334641993045807
0.0570157989859581
-0.07157089561223984
0.06278816610574722
-0.06262176483869553
-0.05040381848812103
0.03087553009390831
0.014944596216082573
-0.00030910223722457886
0.039704300463199615
0.03983122855424881
-0.0496283620595932
-0.012586833909153938
-0.03310735896229744
-0.06982962787151337
0.024858154356479645
0.017108064144849777
0.07061893492937088
-0.007155414205044508
-0.07166408747434616
-0.05259836092591286
-0.024261390790343285
0.03775675222277641
-0.058611754328012466
-0.010267009027302265
-0.033618468791246414
-0.005466755013912916
-0.045806996524333954
-0.008920048363506794
0.008434753865003586
-0.021047569811344147
0.054170574992895126
-0.06660214066505432
0.029313718900084496
0.031981490552425385
0.0035706975031644106
0.063691146671772
-0.011418431997299194
0.06109875068068504
-0.049307867884635925
-0.037819817662239075
0.07256799191236496
0.05409644544124603
0.03823702782392502
0.06196251139044762
0.02248246967792511
-0.061248764395713806
-0.049198880791664124
-0.044126324355602264
0.0815826803445816
0.0804968997836113
0.01895860768854618
-0.006223449949175119
-0.03148936107754707
-0.04752355068922043
-0.04448877274990082
-0.03729276731610298
0.06949832290410995
0.014973861165344715
0.06026799604296684
-0.004442562814801931
-0.006691864226013422
-0.02333597093820572
0.07315217703580856
-0.06677518039941788
-0.03998078033328056
-0.028050879016518593
0.034849245101213455
-0.058775294572114944
-0.0238273274153471
-0.06464750319719315
-0.06627137959003448
0.03523624315857887
0.037259168922901154
0.05821851268410683
-0.05793772265315056
-0.01686912588775158
-0.014827526174485683
0.04272254556417465
-0.06682783365249634
0.009176241233944893
-0.044519927352666855
0.04832419380545616
-0.05849761515855789
0.006764797028154135
-0.039976783096790314
0.06820398569107056
-0.02109273336827755
-0.02721715159714222
0.006983879487961531
0.0006247021374292672
0.023012857884168625
-0.001117531443014741
0.005060635972768068
0.018225761130452156
0.06348703056573868
0.0046869562938809395
-0.025944383814930916
0.028244035318493843
-0.051263924688100815
-0.04684259742498398
0.008043544366955757
0.06407155841588974
0.05423653870820999
0.01150485873222351
-0.03467797860503197
-0.03217947855591774
0.0387670136988163
0.019051706418395042
0.06405406445264816
-0.006284096743911505
-0.0677800253033638
0.012093434110283852
0.026251323521137238
0.04005849361419678
0.05559800565242767
0.03293290361762047
0.05304356664419174
-0.03484966233372688
0.01663382165133953
0.023107698187232018
0.029716188088059425
-0.05665142834186554
-0.058141205459833145
-0.038744814693927765
0.019849354401230812
0.01599961705505848
0.0034658927470445633
-0.07150092720985413
-0.002265017246827483
-0.015763727948069572
0.0649847760796547
-0.05279349163174629
0.0344027616083622
0.061564404517412186
0.013675175607204437
0.001531893154606223
0.04599014297127724
-0.06395882368087769
0.007374429143965244
-0.021509790793061256
-0.05767775699496269
0.002166199265047908
-0.06365501135587692
-0.038351837545633316
0.027733976021409035
-0.0546884685754776
0.03274056315422058
-0.045164939016103745
-0.03106619231402874
0.0458754301071167
0.010067504830658436
-0.05598168447613716
0.052759017795324326
0.027829278260469437
-0.0003593061410356313
-0.031572602689266205
-0.017245275899767876
0.037921302020549774
0.033965740352869034
-0.03517204895615578
0.0526164174079895
-0.03791922703385353
-0.05669449642300606
0.006226915400475264
0.04950634017586708
0.014072638936340809
0.006570881698280573
-0.01885324902832508
0.04703916609287262
0.01225588284432888
-0.03421437367796898
0.061655204743146896
0.03910847753286362
-0.03766344487667084
-0.01014618668705225
-0.005948509089648724
0.004806095268577337
-0.0760197564959526
-0.0615866482257843
-0.001831313711591065
-0.007488747127354145
-0.012419218197464943
0.058478277176618576
0.06072072684764862
0.03927669674158096
-0.06167919188737869
0.038576170802116394
-0.026661895215511322
-0.03637007623910904
0.03556852042675018
-0.029204921796917915
0.06233420968055725
-0.014347653836011887
0.00400539068505168
-0.01725897565484047
0.0549183264374733
0.008281373418867588
0.03519522398710251
0.00861580390483141
-0.006163432262837887
0.05900384113192558
-0.013563629239797592
0.026530316099524498
-0.06015583127737045
-0.04208296537399292
-0.004416077397763729
0.06898976862430573
-0.03777584061026573
0.011033168062567711
0.013937401585280895
-0.04673830419778824
-0.020986467599868774
-0.06036318466067314
-0.02379278652369976
0.05710604786872864
0.02033243514597416
-0.04516677185893059
0.0059905219823122025
-0.06140311807394028
0.059972502291202545
-0.011247352696955204
-0.044451408088207245
0.026388496160507202
0.05652914196252823
0.009196185506880283
0.012297861278057098
-0.009714030660688877
-0.06967366486787796
-0.07183271646499634
0.03325480967760086
-0.06841186434030533
-0.041301924735307693
-0.05994940549135208
0.01991644687950611
0.08036215603351593
-0.04943612962961197
-0.006150553468614817
-0.013219127431511879
0.04470042884349823
-0.07719996571540833
0.04561072587966919
0.05640413612127304
0.04366529732942581
-0.05367417261004448
-0.06888867169618607
-0.05240696296095848
-0.004326313268393278
-0.06025179848074913
0.042461030185222626
-0.045425668358802795
-0.04839318245649338
-0.062453217804431915
-0.005535655189305544
-0.04565700888633728
-0.0019091336289420724
-0.01296854019165039
0.04313793405890465
-0.048734791576862335
-0.0100887855514884
0.06754355132579803
0.009469869546592236
-0.050256479531526566
0.007070195861160755
0.06226979196071625
-0.03127071261405945
0.06809303164482117
0.06070379912853241
-0.059937670826911926
-0.02848835289478302
0.009613201953470707
-0.06949964910745621
0.029595861211419106
0.0021143171470612288
0.05237382650375366
-0.008401843719184399
0.03517836704850197
-0.05617048218846321
0.05887604132294655
0.050656914710998535
0.020281679928302765
0.05155619606375694
-0.031097326427698135
0.03434770554304123
0.005939436610788107
-0.030260106548666954
0.06271132081747055
0.06443148851394653
0.02263137325644493
-0.04911516234278679
0.006370825227349997
0.024827828630805016
-0.01852472685277462
0.030792199075222015
0.04511865973472595
0.023483259603381157
-0.010482979007065296
-0.0014161320868879557
-0.037033818662166595
-0.010783673264086246
0.06125689297914505
-0.03061651811003685
0.07255934923887253
-0.024497920647263527
-0.07002962380647659
-0.047967586666345596
0.0035054124891757965
0.040305525064468384
0.0022520781494677067
0.007607255131006241
0.0582445003092289
-0.06541847437620163
-0.00744706392288208
-0.02649763412773609
0.01125729363411665
0.055280525237321854
0.0193107258528471
-0.014852719381451607
0.003928293939679861
-0.040262531489133835
0.017562640830874443
0.03303500637412071
0.015710966661572456
0.051900994032621384
0.04938715323805809
-0.00457514775916934
0.062272023409605026
-0.02965681627392769
-0.011078517884016037
0.05106524005532265
-0.00783657468855381
0.012029197998344898
-0.01521663274616003
0.0729866549372673
-0.02064492180943489
0.030210232362151146
-0.06573593616485596
-0.028957031667232513
-0.06462156027555466
0.03862375766038895
0.0024664609227329493
0.049342721700668335
-0.04205687716603279
0.06095769628882408
0.022390874102711678
-0.04929562285542488
0.0377722792327404
0.011343922466039658
0.000993861467577517
-0.026707980781793594
-0.05062887817621231
0.028091654181480408
-0.02250903844833374
-0.06080878525972366
-0.05759846046566963
0.0220915786921978
0.050057802349328995
0.04575314000248909
-0.0619111992418766
-0.0016778516583144665
0.026148468255996704
0.04835087060928345
-0.0007700060377828777
0.03658613562583923
-0.037898410111665726
0.06091369315981865
-0.017344344407320023
0.05667257308959961
0.01607554405927658
-0.01738850586116314
-0.06711892783641815
-0.003386213444173336
0.0142575828358531
-0.05061293765902519
0.05646303668618202
-0.059164635837078094
0.06818610429763794
-0.04940041899681091
0.04493151605129242
-0.01317096222192049
-0.06787260621786118
0.03224094584584236
0.021188044920563698
-0.06086019054055214
-0.0012214694870635867
0.04769048094749451
-0.02835368737578392
-0.03746495768427849
-0.01616472378373146
0.07182848453521729
-0.0427255816757679
0.02553223818540573
0.06345594674348831
0.047355469316244125
0.010607396252453327
0.033993594348430634
-0.06479859352111816
-0.0465497151017189
-0.03956558182835579
0.04220340773463249
-0.04634847119450569
-0.0575564019382
-0.04135419800877571
0.030709240585565567
0.03676997870206833
0.01449507288634777
-0.04298227280378342
0.05064944922924042
0.054369006305933
-0.062140922993421555
0.00964305829256773
0.024854810908436775
-0.02701428346335888
-0.002895092125982046
0.05951378121972084
0.046563129872083664
0.04407162219285965
0.02079932577908039
-0.04190455377101898
0.059312183409929276
0.024157023057341576
0.01153614278882742
-0.014183028601109982
0.056431759148836136
0.014933960512280464
0.06371120363473892
-0.051764968782663345
0.026866912841796875
0.05448611080646515
0.04517276957631111
-0.04050382971763611
0.03391639143228531
-0.041673000901937485
-0.01431700773537159
0.06580154597759247
-0.013173888437449932
0.004309749696403742
-0.06755877286195755
-0.002787882462143898
0.02479483000934124
-0.06462200731039047
0.0649416521191597
-0.026155510917305946
0.0029671513475477695
0.05489875748753548
-0.049596354365348816
-0.021013781428337097
-0.06734319031238556
-0.0035497185308486223
0.016513068228960037
0.03428217023611069
-0.021496606990695
0.02674609236419201
0.004686835687607527
0.03713398426771164
0.029253222048282623
0.05104714632034302
0.03299887478351593
-0.004951579496264458
0.043686721473932266
-0.06419350951910019
0.03497476875782013
0.03590971231460571
0.042428381741046906
0.04036932811141014
-0.05674517899751663
0.037117213010787964
0.0639612153172493
-0.002789535792544484
-0.014477108605206013
0.020850254222750664
-0.01667075604200363
-0.059832315891981125
0.03735645115375519
-0.0058899917639791965
0.03402953967452049
-0.044429387897253036
0.01749187707901001
0.015211274847388268
0.051434293389320374
0.006077930796891451
-0.05964913219213486
-0.013158231042325497
0.043869391083717346
0.01727018877863884
-0.021159769967198372
-0.027641037479043007
0.04104404151439667
-0.05184655636548996
0.004049858544021845
0.07460062950849533
0.052504733204841614
0.02156774140894413
-0.014855345711112022
0.03142228722572327
-0.05982441455125809
0.037876855581998825
0.046709660440683365
-0.01630152016878128
-0.042134273797273636
0.016470810398459435
-0.032182298600673676
-0.06458185613155365
-0.011467520147562027
-0.04878433421254158
0.015791546553373337
-0.024713287129998207
-0.0009367633610963821
0.04691312834620476
-0.006708668544888496
-0.06235859915614128
-0.04274087771773338
-0.027221428230404854
0.06590352207422256
-0.023873809725046158
-0.01963554322719574
-0.06062528118491173
-0.014735275879502296
0.032956644892692566
0.02678585983812809
-0.02293342724442482
0.07817637175321579
0.029574444517493248
0.033723633736371994
0.057665664702653885
-0.04994514212012291
0.05256449803709984
0.05747877433896065
-0.0031407135538756847
-0.06503623723983765
-0.07619830220937729
0.05526426434516907
-0.03771037980914116
-0.029557887464761734
0.002196321962401271
0.029875261709094048
0.0442994087934494
0.05941520631313324
-0.017222916707396507
-0.05282140150666237
0.03592614084482193
-0.031763095408678055
-0.009780202992260456
0.0543576143682003
0.06336813420057297
0.029631584882736206
0.04022558033466339
-0.038981497287750244
-0.012998986057937145
-0.06138560175895691
-0.007898989133536816
0.03745856508612633
0.04780973866581917
-0.04952479526400566
-0.046975307166576385
-0.06575077772140503
0.050254590809345245
0.04983688145875931
-0.0037355483509600163
0.02701478637754917
-0.01846241019666195
0.0524587444961071
-0.017054088413715363
0.04984927922487259
0.0495779924094677
0.024497201666235924
0.016901372000575066
-0.05231252685189247
-0.0009038610733114183
-0.00013102118100505322
-0.026091793552041054
0.051282402127981186
0.040032289922237396
-0.004171648528426886
-0.01111904252320528
0.06047577038407326
0.06709209084510803
0.0646471232175827
-0.028548123314976692
-0.03393292427062988
-0.020556291565299034
0.03268257901072502
0.017707016319036484
0.021030036732554436
0.022242188453674316
0.013715404085814953
-0.0701427161693573
0.007186377886682749
-0.0456102192401886
0.028196651488542557
0.010977762751281261
0.04115605354309082
0.02613195590674877
-0.006217624992132187
-0.0147821344435215
0.05056658014655113
0.010284609161317348
0.015691697597503662
-0.06270819902420044
-0.02240343764424324
-0.037445638328790665
-0.013490098528563976
0.06451885402202606
0.008364945650100708
-0.0445423386991024
0.0015499391593039036
-0.043255310505628586
-0.007544178981333971
0.0022798681166023016
0.00912444107234478
0.04883778467774391
-0.034437697380781174
0.0006876100087538362
-0.037184733897447586
-0.012886103242635727
0.005989688914269209
-0.017801089212298393
0.015749122947454453
0.005833989009261131
-0.039593808352947235
-0.01678449474275112
-0.002891137730330229
0.05286262556910515
-0.03291289508342743
-0.033651694655418396
-0.027038495987653732
-0.03634824976325035
0.036856550723314285
0.04829811677336693
0.04928676038980484
0.0011932533234357834
0.019138436764478683
-0.05576895922422409
0.03463556244969368
0.047130003571510315
0.01981440931558609
-0.04377986118197441
-0.023298677057027817
0.05476267635822296
0.04427412897348404
-0.06989274173974991
-0.033661700785160065
0.0613289475440979
-0.001429626252502203
-0.05465461686253548
0.042672283947467804
-0.016706261783838272
0.06374494731426239
0.017883220687508583
-0.03501345217227936
-0.0001943306706380099
-0.0062717548571527
0.018627235665917397
0.05312826856970787
-0.012005403637886047
-0.037668175995349884
-0.0286342054605484
0.0012510819360613823
0.03173904865980148
-1.6563864846830256e-05
0.03545582666993141
0.00981214176863432
-0.0358993262052536
0.03218455612659454
0.03201884776353836
-0.03586700186133385
-0.014326656237244606
0.060428913682699203
0.0516224279999733
-0.051313549280166626
0.03976544737815857
-0.014620673842728138
0.024511920288205147
-0.06333979964256287
-0.005996923893690109
-0.029441434890031815
-0.07073438167572021
-0.037246499210596085
-0.01707214117050171
-0.005250553600490093
-0.05278557166457176
-0.07298558205366135
0.03198912739753723
0.0368085540831089
0.03267541155219078
-0.013955523259937763
0.0012446400942280889
0.034068863838911057
-0.028874322772026062
0.003153847763314843
-0.0059697991237044334
-0.06358053535223007
-0.04427194595336914
0.07001661509275436
-0.06121545657515526
0.031629450619220734
0.015794849023222923
-0.0005887474399060011
-0.035946160554885864
-0.018954558297991753
-0.02050945535302162
0.06734330952167511
0.004753990564495325
-0.01871676556766033
0.04946120083332062
-0.05186009407043457
-0.010176096111536026
-0.014768054708838463
-0.010277992114424706
0.01982651837170124
0.017898516729474068
0.0302302073687315
-0.059359971433877945
-0.04400104656815529
-0.06748170405626297
-0.008431388065218925
-0.035932086408138275
0.02337808907032013
-0.005265054292976856
0.01689501479268074
0.04935342073440552
0.0527801588177681
0.019814562052488327
-0.056534938514232635
0.009310368448495865
0.06936322152614594
0.028927363455295563
0.06328140944242477
-0.03571466729044914
0.06411292403936386
0.005281725432723761
-0.0427531860768795
-0.06917141377925873
0.022295871749520302
-0.04638534411787987
0.003551834262907505
-0.06690255552530289
0.028069399297237396
-0.023305781185626984
0.052720844745635986
0.01165501307696104
-0.05521352216601372
-0.061686307191848755
0.03732266649603844
0.015541503205895424
0.0007423449424095452
-0.061356328427791595
-0.06325874477624893
-0.06660250574350357
0.013553940691053867
0.03776486963033676
0.005589394364506006
0.06223514676094055
-0.00937606394290924
-0.05378936231136322
-0.06534666568040848
-0.050881896167993546
0.015629852190613747
0.06595373898744583
0.032423119992017746
0.050383999943733215
0.019145429134368896
0.06298737227916718
-0.05152661353349686
0.017142225056886673
-0.006680124904960394
-0.03337717801332474
0.04165726155042648
-0.0706455335021019
0.017310595139861107
0.04928114265203476
0.00305947451852262
0.0527164451777935
-0.07249927520751953
0.016457507386803627
0.05804004520177841
-0.02023792639374733
-0.028500711545348167
0.04828242212533951
-0.021067453548312187
0.010961003601551056
0.03624602034687996
-0.03491539508104324
0.013838966377079487
-0.04124622792005539
-0.01706790179014206
0.019682088866829872
0.03956763446331024
0.07290294021368027
-0.07367801666259766
0.06378012895584106
-0.02616877853870392
-0.06311380863189697
0.06622971594333649
0.04952314496040344
-0.04401123523712158
-0.019378816708922386
0.024637367576360703
-0.05467408895492554
-0.006889958865940571
0.010196065530180931
0.0664437785744667
-0.045271363109350204
-0.06598299741744995
0.012437253259122372
-0.02984810248017311
0.0178823284804821
-0.008110791444778442
0.06966979801654816
0.01361782755702734
0.038605961948633194
-0.03237544372677803
0.02810361236333847
0.0386449433863163
0.04232291877269745
-0.029766352847218513
0.0009522040490992367
-0.05643303692340851
-0.007661219220608473
0.06434287875890732
-0.023868689313530922
-0.05386523902416229
0.030920222401618958
0.03190929815173149
-0.017286062240600586
-0.028097612783312798
0.05438878387212753
0.030823197215795517
-0.020861173048615456
-0.06368214637041092
-0.037832800298929214
-0.02520856074988842
-0.07231365889310837
-0.04521432891488075
-0.016801415011286736
-0.03300374373793602
0.06398601830005646
-0.010837472043931484
0.05253859609365463
-0.03165013715624809
-0.029807073995471
-0.06285790354013443
-0.04892680048942566
-0.05626179277896881
-0.04297767952084541
0.013515662401914597
0.06454022228717804
0.036373287439346313
-0.013823083601891994
0.04113464429974556
0.05780084431171417
-0.015044068917632103
0.034111715853214264
-0.02244848944246769
-0.01637214981019497
-0.00799288135021925
-0.0029471630696207285
0.07059787213802338
-0.06964103877544403
-0.0639764741063118
0.046981241554021835
0.03410670533776283
-0.04884185269474983
-0.041625380516052246
0.03068905510008335
-0.022861236706376076
-0.010296049527823925
-0.05989450961351395
0.0717460885643959
0.01833314448595047
-0.008736224845051765
-0.037120271474123
-0.0040444969199597836
-0.06835455447435379
-0.013542436994612217
-0.02920093759894371
0.0692618191242218
-0.029829638078808784
-0.012080025859177113
0.0453529953956604
-0.010458730161190033
-0.022524191066622734
-0.01989516243338585
-0.027286367490887642
0.06687089800834656
0.0451059453189373
-0.022870907559990883
0.0656258761882782
-0.02308632992208004
0.008411036804318428
-0.01812472753226757
-0.05643945559859276
0.05311314016580582
-0.05409401282668114
0.03675517812371254
-0.04650150239467621
0.03639305755496025
-0.06861452758312225
0.06552138924598694
-0.02546657808125019
-0.04550345614552498
0.028471680358052254
-0.020688753575086594
-0.07002456486225128
-0.004508411977440119
0.007624087389558554
-0.04658694192767143
0.03433946892619133
0.0360567532479763
0.04645008221268654
-0.0797528550028801
0.01353541947901249
-0.008725789375603199
-0.07000380009412766
-0.06636694818735123
0.042271893471479416
-0.06835124641656876
-0.04618339613080025
-0.02173721231520176
-0.04799773171544075
0.04410838335752487
0.00704461894929409
-0.03494011238217354
-0.049809530377388
-0.0672236829996109
-0.06103167310357094
-0.04854118078947067
0.003329396713525057
-0.031016170978546143
-0.07272148132324219
-0.0085218520835042
0.022063978016376495
0.013980085030198097
-0.06736721098423004
0.01121087372303009
-0.06896581500768661
-0.06540867686271667
0.03677774965763092
-0.04409842938184738
0.03629656881093979
0.03593697026371956
-0.03925444185733795
-0.07204188406467438
0.0006541588809341192
-0.05843883752822876
-0.04827941581606865
0.015155949629843235
-0.0444292277097702
0.00819891132414341
0.062197815626859665
0.07524774968624115
-0.04138980433344841
0.06039132550358772
0.040228668600320816
0.050029270350933075
0.043754495680332184
0.02983047626912594
0.04097715765237808
-0.019880423322319984
-0.022178836166858673
0.01560387946665287
0.016949599608778954
0.033753495663404465
-0.037307459861040115
-0.02720351703464985
0.003222233150154352
-0.004609887953847647
0.019607992842793465
-0.00823670532554388
-0.029713867232203484
0.04450763389468193
0.03470060974359512
-0.0027806665748357773
0.03476922959089279
0.021017668768763542
-0.0500607006251812
-0.0637931376695633
0.03354792669415474
0.05509573221206665
0.009583795443177223
0.017921146005392075
0.006220657844096422
0.006380794569849968
-0.06107747182250023
-0.014835056848824024
0.06605645269155502
-0.024251241236925125
0.012735406868159771
0.013466875068843365
0.020083341747522354
0.05469795688986778
0.013683312572538853
-0.03372891619801521
0.049988776445388794
-0.046397414058446884
-0.04906608164310455
0.04577743634581566
0.028813675045967102
-0.03925835341215134
0.021304447203874588
-0.013317879289388657
0.03557039797306061
0.05990227684378624
0.005607287865132093
-0.014303863048553467
0.04584430530667305
-0.0672730952501297
0.007501133251935244
0.04462915658950806
0.04147003963589668
-0.041623979806900024
0.039656806737184525
-0.05244912579655647
-0.03913930431008339
-0.043684445321559906
0.019922226667404175
0.06149280443787575
-0.04348428174853325
-0.0594286285340786
0.01762915775179863
0.016689183190464973
0.048118457198143005
-0.05673228204250336
0.010485603474080563
-0.03912948817014694
0.047380052506923676
-0.0640697181224823
0.03689124807715416
-0.01133115217089653
-0.0005677568260580301
-0.014635823667049408
0.031951673328876495
0.044379159808158875
0.045204564929008484
0.031237363815307617
0.027209056541323662
-0.03702133893966675
0.002789112739264965
0.06764324009418488
-0.061490748077631
0.060505010187625885
0.050195250660181046
0.015081736259162426
-0.06218870356678963
0.049756791442632675
-0.051282137632369995
-0.020788121968507767
0.03864864259958267
0.0019742094445973635
0.005148189142346382
-0.065897636115551
-0.017301566898822784
0.05249651148915291
-0.05590527504682541
-0.02386409230530262
-0.04566366970539093
-0.06420905888080597
0.025312237441539764
-0.06747011095285416
0.02117878571152687
-0.05269381403923035
-0.06252965331077576
-0.0054328711703419685
0.05451672151684761
-0.01800648868083954
-0.06710099428892136
-0.0680595114827156
-0.04569954797625542
0.009362789802253246
0.006242898292839527
0.021828126162290573
0.03776438906788826
-0.004368490073829889
0.044593069702386856
-0.006770874373614788
0.044318050146102905
-0.047089070081710815
-0.06404867023229599
0.037212271243333817
-0.04535796493291855
0.0004806006618309766
0.05567314103245735
0.038633301854133606
0.016632843762636185
0.026827961206436157
-0.014626188203692436
0.03990898281335831
0.017259789630770683
0.004349734168499708
-0.033849555999040604
-0.03789176419377327
-0.05238531157374382
-0.009732674807310104
-0.029066016897559166
-0.029004113748669624
0.06482231616973877
0.05196481570601463
0.023730212822556496
0.057926785200834274
-0.035950858145952225
-0.018357474356889725
-0.009594584815204144
-0.026617299765348434
-0.051908232271671295
-0.03608030453324318
0.06597743183374405
0.034207072108983994
0.046159856021404266
0.031051140278577805
-0.02424473874270916
-0.05673879012465477
0.006889697629958391
-0.014446993358433247
0.014925450086593628
-0.04080725461244583
-0.0003174664743710309
-0.024013513699173927
0.050905052572488785
-0.06919467449188232
0.012030442245304585
0.013977092690765858
0.022558122873306274
0.06219804286956787
-0.021383250132203102
-0.03970073536038399
-0.057150326669216156
-0.03570987656712532
-0.07373718172311783
-0.07259482145309448
-0.06754986941814423
0.01732715032994747
0.06503520905971527
0.05336970090866089
-0.05942140519618988
-0.07670875638723373
0.04984109476208687
-0.0005737933679483831
0.020878219977021217
0.06069109961390495
-0.008840611204504967
0.03447207435965538
0.07125338912010193
0.04560691490769386
0.017236318439245224
0.045924048870801926
-0.012830675579607487
0.027080735191702843
-0.007388271391391754
-0.0473007895052433
0.020373452454805374
-0.0008921459666453302
0.02592773735523224
0.06257808208465576
-0.04224034771323204
0.0070220003835856915
-0.05415112525224686
0.06291625648736954
0.030337084084749222
0.010589797981083393
-0.016610680148005486
-0.04927956685423851
0.04466400668025017
-0.06950400769710541
-0.024688053876161575
-0.006294534541666508
0.018522072583436966
0.007761693559587002
2.5669449314591475e-05
-0.03941310569643974
-0.07336818426847458
0.04436904564499855
0.015525725670158863
0.03985030576586723
0.059296153485774994
-0.011180328205227852
-0.046457402408123016
-0.05447496101260185
-0.01173121202737093
-0.04891764372587204
0.03927849605679512
0.04662442207336426
-0.06092078983783722
-0.0545029379427433
0.03680773451924324
-0.06470909714698792
-0.012425149790942669
0.06137385591864586
0.020976776257157326
0.025529926642775536
-0.05309140309691429
0.03976686671376228
0.07832860946655273
0.06053142249584198
-0.0252364668995142
-0.04149053245782852
0.035658955574035645
-0.033375225961208344
0.0563485361635685
-0.01040494255721569
-0.029995618388056755
-0.06969266384840012
-0.024099931120872498
0.047344207763671875
0.06340661644935608
-0.011545678600668907
0.07696299254894257
0.01554811093956232
-0.00635372381657362
-0.04744356498122215
0.056226905435323715
0.06169550493359566
0.06571215391159058
-0.03477189317345619
0.03648855537176132
-0.028628025203943253
0.04130459204316139
0.03044566884636879
0.05940387398004532
-0.04005149006843567
0.05651167035102844
-0.013053696602582932
-0.01601056195795536
-0.06173998862504959
-0.07070331275463104
-0.03200478106737137
0.010150579735636711
0.0023529836907982826
-0.05647027865052223
0.049020566046237946
-0.015302141197025776
0.06599971652030945
0.014134899713099003
0.017764203250408173
-0.041607342660427094
-0.03250321373343468
-0.04689060524106026
-0.024149954319000244
0.0035804202780127525
0.010485600680112839
0.0182968657463789
0.06480550020933151
0.016785062849521637
0.024294255301356316
0.030156362801790237
-0.01838826946914196
0.04203851893544197
0.026761384680867195
0.054869793355464935
-0.025211147964000702
0.019109008833765984
0.016113223508000374
0.07320456206798553
-0.059985265135765076
0.0317864827811718
0.006934554316103458
0.05108095332980156
0.05774212256073952
0.06501293927431107
0.04998970776796341
-0.06693784892559052
0.06502196937799454
-0.023523394018411636
-0.026438025757670403
-0.05609970539808273
0.03719566762447357
0.03430745750665665
-0.013012881390750408
-0.035912614315748215
-0.07600261270999908
-0.03228015452623367
0.06648426502943039
-0.06312420219182968
0.0028941978234797716
-0.018560150638222694
-0.06375369429588318
-0.002388856839388609
0.026682157069444656
-0.0011712962295860052
0.04890548065304756
-0.013135791756212711
-0.010773221030831337
0.003080677008256316
0.0744021013379097
-0.021563725546002388
0.07263423502445221
0.05247805267572403
0.02670658379793167
-0.06737467646598816
-0.02553393505513668
-0.0014616777189075947
-0.016135577112436295
-0.04426503926515579
-0.05996403470635414
-0.04026388004422188
0.02470005489885807
-0.0004989273147657514
-0.002441807882860303
0.013967287726700306
-0.01112453918904066
-0.06693319976329803
-0.05706314370036125
0.043424393981695175
-0.061656150966882706
-0.003281640587374568
-0.0014549638144671917
-0.03825416415929794
0.023685436695814133
0.008201387710869312
-0.06281839311122894
0.026914846152067184
0.029881514608860016
-0.06461206823587418
0.031091831624507904
0.03560958802700043
0.01864314265549183
0.024926938116550446
-0.00869837962090969
-0.00613362668082118
0.019552890211343765
0.019004585221409798
-0.04282223433256149
-0.022027945145964622
-0.03615191951394081
-0.07357083261013031
-0.015280037187039852
-0.00473624374717474
0.01897568069398403
-0.029834600165486336
-0.014130530878901482
-0.010920471511781216
0.019900809973478317
-0.0023143047001212835
0.061266668140888214
-0.04555613920092583
0.07402822375297546
0.05342132970690727
-0.0272842887789011
-0.01912909373641014
0.038056012243032455
-0.010036932304501534
0.015339307487010956
0.004160365555435419
0.004158369265496731
0.07099932432174683
-0.05372557416558266
-0.028080686926841736
0.04695655032992363
-0.013000848703086376
0.048388559371232986
-0.057679131627082825
0.003856261959299445
0.06222902238368988
0.04001637175679207
0.029914123937487602
0.04494835436344147
0.012890785001218319
0.01961040496826172
-0.05309034511446953
0.06855109333992004
-0.04204355925321579
0.0050525665283203125
0.014460907317698002
0.03867999464273453
0.021488400176167488
-0.023794198408722878
-0.06947726011276245
-0.04536574333906174
-0.05023108050227165
-0.011131564155220985
-0.030240222811698914
0.052801910787820816
-0.052572816610336304
-0.003671595361083746
-0.0704038068652153
-0.05991995334625244
0.04068692773580551
-0.05036063864827156
0.008946524932980537
0.0627225935459137
-0.07020185142755508
0.03679374232888222
0.028781114146113396
0.047693654894828796
-0.015168090350925922
0.013418511487543583
0.022731635719537735
-0.009001504629850388
-0.0736517682671547
-0.007358429487794638
-0.04692474752664566
0.03249447047710419
-0.019316265359520912
0.06252769380807877
-0.012453023344278336
-0.03228890895843506
0.02765927091240883
0.04237048327922821
-0.01820026896893978
0.05909503251314163
-0.038795653730630875
0.028012415394186974
0.02345219999551773
-0.00031446482171304524
-0.016158798709511757
-0.001832422218285501
0.0033652978017926216
-0.00468281377106905
0.02233767695724964
-0.05750667676329613
0.055892810225486755
-0.001535958843305707
-0.06583042442798615
-0.05696311593055725
0.023818006739020348
-0.05876272916793823
-0.03055594116449356
0.024925751611590385
0.032269254326820374
0.0499894805252552
0.06530892103910446
-0.007214527577161789
0.011219418607652187
-0.008769412524998188
-0.020718034356832504
0.013454391621053219
0.04182698205113411
0.029096288606524467
0.047011613845825195
0.04681156203150749
-0.009803314693272114
-0.026384958997368813
-0.001050181919708848
0.037863876670598984
-0.05819603428244591
0.05963673070073128
-0.06682680547237396
0.0681677907705307
0.0327509343624115
0.06300995498895645
-0.04088066890835762
-0.0527040958404541
0.04307829961180687
-0.011629519052803516
-0.007596259471029043
0.042469270527362823
0.04532601311802864
-0.05914115160703659
-0.02735103853046894
-0.033263590186834335
-0.011374161578714848
-0.04314854368567467
-0.05356375873088837
0.008465675637125969
0.004534639418125153
-0.06760668754577637
-0.04582369700074196
-0.0362030528485775
0.012320361100137234
0.03473573923110962
0.026535486802458763
0.004520879127085209
-0.04173649474978447
-0.019841402769088745
-0.05868217721581459
0.004065750632435083
0.06268156319856644
-0.06550049781799316
0.04854649677872658
0.06803679466247559
-0.010956717655062675
0.020856186747550964
-0.019170813262462616
-0.0037176613695919514
-0.02671455778181553
-0.06977236270904541
0.04367171972990036
0.046757303178310394
0.05270262062549591
-0.059794582426548004
0.023789413273334503
-0.023583123460412025
-0.029468955472111702
0.01204003393650055
0.027173133566975594
0.03704531863331795
-0.07269416004419327
0.05960841849446297
0.008584274910390377
-0.05994656682014465
-0.07248958200216293
0.05898794159293175
-0.036294929683208466
-0.05552753433585167
0.003377739805728197
0.012814690358936787
-0.06141403689980507
-0.052287012338638306
0.025439845398068428
-0.013813706114888191
-0.013315269723534584
-0.03120654635131359
-0.014782396145164967
0.052214108407497406
0.037140410393476486
-0.014587649144232273
0.0317867137491703
0.008975005708634853
-0.033474333584308624
0.034000467509031296
-0.03075375221669674
-0.0341651625931263
-0.06547549366950989
-0.045710302889347076
-0.06856714189052582
-0.05552995204925537
0.03734510764479637
0.014027083292603493
0.013078827410936356
0.011458241380751133
0.008915482088923454
0.0035623391158878803
0.053094103932380676
0.01644790917634964
0.0659121423959732
0.05737292394042015
0.04214457795023918
-0.016348887234926224
-0.039663586765527725
-0.05058370530605316
0.028569795191287994
-0.020124321803450584
-0.032589226961135864
0.06005369499325752
-0.05178733170032501
-0.046388011425733566
-0.017014769837260246
0.06581360101699829
0.041750628501176834
-0.06974318623542786
0.04703741520643234
-0.03557274863123894
-0.0181661918759346
-0.015507467091083527
0.02640155702829361
0.05556611344218254
0.008831304498016834
0.034662071615457535
0.03409350663423538
-0.04520893841981888
0.00551743246614933
-0.05728838965296745
-0.060794077813625336
0.05611022189259529
0.009949392639100552
-0.0017391408327966928
0.002789020072668791
-0.032013725489377975
-0.0018263227539137006
-8.16982937976718e-05
-0.014366515912115574
-0.057810209691524506
0.005050972104072571
-0.06629909574985504
-0.030461810529232025
-0.05867185816168785
-0.016868306323885918
-0.04655669629573822
-0.018543103709816933
0.005920596420764923
0.038521088659763336
-0.01970055140554905
-0.04309379309415817
-0.007915875874459743
0.021241217851638794
-0.06204625591635704
0.018317829817533493
0.051894307136535645
0.06532561779022217
-0.016821548342704773
-0.0067610410042107105
-0.004939516074955463
0.024651046842336655
0.017870401963591576
0.06475307792425156
-0.001954455627128482
0.04916336014866829
-0.031581394374370575
0.013382285833358765
0.06266216188669205
0.04968969151377678
0.06717191636562347
0.06012570858001709
-0.06904713809490204
0.04879070818424225
-0.05863351747393608
0.024615544825792313
-0.015985015779733658
0.02542893961071968
-0.042489759624004364
-0.05889133736491203
0.04270067438483238
-0.033068712800741196
0.01680179312825203
0.028523504734039307
0.042973462492227554
0.043747298419475555
0.03498807176947594
-0.06518008559942245
-0.034941624850034714
0.010816295631229877
-0.05613907799124718
-0.011854448355734348
-0.04717637598514557
0.033835429698228836
0.035659708082675934
-0.016208192333579063
-0.05608278885483742
0.05158740654587746
0.04130731523036957
0.056644026190042496
0.027512110769748688
-0.03738752380013466
-0.0362829752266407
-0.023917822167277336
-0.04152674600481987
0.02238655276596546
-0.03721430152654648
-0.04922439903020859
0.024816427379846573
0.05566957965493202
-0.04890207201242447
0.027411963790655136
0.003059348091483116
0.0367644801735878
0.009551391936838627
-0.0008293185383081436
-0.05449475347995758
0.039235346019268036
0.001379873719997704
0.052446361631155014
0.024819200858473778
0.01306153368204832
-0.038616206496953964
-0.005237760953605175
0.05539138242602348
0.039210978895425797
-0.038915764540433884
0.03546882048249245
-0.06933827698230743
-0.020772336050868034
-0.008892081677913666
0.05470436066389084
-0.021377649158239365
0.06130645424127579
0.05944043770432472
-0.035517919808626175
-0.06121143698692322
0.0645102709531784
-0.04379592090845108
0.06988342851400375
-0.03369704261422157
0.03739114850759506
0.01647290028631687
-0.0021300381049513817
0.051041826605796814
-0.0452321395277977
0.0064377449452877045
-0.02668529376387596
0.04492751136422157
0.014394898898899555
0.05831753835082054
-0.03728305920958519
0.026671282947063446
0.01322843972593546
0.039175331592559814
0.03184707090258598
-0.01120599266141653
0.05821623280644417
-0.03927645459771156
-0.04587346687912941
-0.021758724004030228
-0.035001322627067566
0.05811774358153343
0.027525169774889946
0.01581658236682415
-0.005956906359642744
0.005469046533107758
0.0613042451441288
0.05118342489004135
-0.006382793188095093
-0.01923024095594883
0.06572864949703217
-0.03477935865521431
0.06750806421041489
-0.056341979652643204
0.019577886909246445
0.023238075897097588
0.02635243348777294
0.01790381409227848
-0.052727457135915756
0.009503056295216084
-0.03677275404334068
-0.025434238836169243
0.01756875216960907
-0.04932628944516182
-0.016372667625546455
0.0109775485470891
-0.02419796772301197
-0.00517051899805665
0.059047870337963104
0.011866124346852303
-0.02605430968105793
-0.04832800477743149
-0.04726443439722061
-0.021304184570908546
0.025359800085425377
0.0448603630065918
0.016633186489343643
-0.07087697833776474
-0.061644572764635086
0.04849556088447571
-0.04036722704768181
0.01601582020521164
-0.0680457055568695
-0.04099905118346214
0.0035677989944815636
-0.022895611822605133
0.021771294996142387
-0.06406588107347488
0.028024032711982727
-0.00364944851025939
-0.029443148523569107
0.027180412784218788
-0.052099622786045074
0.04664225876331329
0.04288719221949577
0.022456252947449684
0.058136627078056335
0.06461375951766968
-0.022698167711496353
0.055273834615945816
-0.021658767014741898
0.05468583479523659
0.01996210403740406
0.05309668183326721
-0.03645781800150871
0.03585765138268471
0.020716743543744087
-0.0012846103636547923
0.03532727435231209
-0.029648566618561745
-0.018453385680913925
-0.06478966027498245
0.025077616795897484
-0.036588799208402634
-0.016457829624414444
-0.0071445852518081665
-0.06512609124183655
0.02443651854991913
0.0299860630184412
0.0397302471101284
0.033911675214767456
-0.007898098789155483
0.049202993512153625
-0.04866361990571022
0.000248364987783134
-0.062137845903635025
-0.055755000561475754
0.007779094856232405
-0.06001164764165878
0.0420682430267334
-0.01144258864223957
0.018931476399302483
0.008046171627938747
0.022609716281294823
0.045596860349178314
-0.003035832429304719
0.0029022276867181063
0.04084222391247749
-0.02868165820837021
0.06619095057249069
-0.018340319395065308
0.004839461296796799
-0.012512355111539364
-0.00856091920286417
-0.061009593307971954
-0.032950736582279205
-0.06483443826436996
-0.01670505851507187
-0.0054480950348079205
0.044870775192976
-0.053892310708761215
0.043959829956293106
0.007972508668899536
-0.010499471798539162
0.045209623873233795
-0.059800561517477036
0.009312991984188557
-0.059311941266059875
0.023875225335359573
-0.01978590153157711
-0.011127680540084839
-0.03727341815829277
-0.032242823392152786
0.02603110857307911
-0.007415033411234617
-0.04437274858355522
-0.027226198464632034
0.06314074993133545
-0.022520238533616066
0.07056794315576553
0.0015253728488460183
-0.059038687497377396
-0.021353047341108322
-0.07300885766744614
0.019608022645115852
-0.06697506457567215
0.01826263591647148
-0.01844816282391548
-0.04977234825491905
0.06897864490747452
-0.045711372047662735
-0.004326293710619211
0.04239017888903618
0.0289574284106493
-0.05598742514848709
0.01888163760304451
-0.02651526965200901
0.03608553484082222
0.033454231917858124
-0.05841055139899254
0.027192573994398117
-0.01189502701163292
0.03348453715443611
-0.07007119059562683
-0.018355706706643105
0.018080303445458412
-0.01406705193221569
-0.06831567734479904
-0.06210713088512421
-0.014586376957595348
-0.029597047716379166
0.06569880992174149
-0.015630332753062248
0.046053625643253326
-0.01850329525768757
0.06371534615755081
-0.048493608832359314
0.019066033884882927
-0.03022112511098385
0.06887484341859818
0.03497574105858803
-0.026083342730998993
0.0655236467719078
-0.024756383150815964
0.034843605011701584
-0.031145596876740456
0.03450138494372368
-0.023329898715019226
0.07271592319011688
-0.008407405577600002
0.02837332710623741
0.0419476181268692
-0.06638375669717789
0.039703693240880966
-0.030493564903736115
-0.04293849319219589
0.03198498860001564
0.056583624333143234
0.007294736336916685
-0.05034929886460304
-0.05684957280755043
-0.009897498413920403
-0.021706419065594673
0.03599913790822029
0.06913557648658752
0.06840791553258896
0.07125119119882584
0.009147598408162594
0.03134031966328621
-0.02438686415553093
-0.029232587665319443
-0.022247418761253357
-0.06678783148527145
0.015792444348335266
-0.019350256770849228
0.07088878750801086
0.006713369861245155
-0.004801143892109394
0.006881305947899818
-0.04946710541844368
-0.06900423765182495
0.026818133890628815
0.06792885810136795
0.020547131076455116
0.023926688358187675
-0.012941817753016949
-0.016892079263925552
0.03502633050084114
0.03614191338419914
-0.007456385064870119
-0.055709730833768845
0.060468245297670364
-0.033119991421699524
0.043991342186927795
0.00977976992726326
-0.02966400608420372
-0.02736535295844078
-0.008900852873921394
0.029898492619395256
0.038622405380010605
-0.04181642457842827
-0.05249810963869095
0.022160811349749565
0.040157709270715714
0.013398582115769386
0.009976799599826336
-0.05208921059966087
-0.04543594270944595
0.015928827226161957
0.06465118378400803
0.002981661120429635
0.003979300148785114
-0.05158453807234764
0.05795461684465408
-0.04264002665877342
-0.05402271822094917
0.005699711851775646
0.021961819380521774
0.07022204995155334
-0.034236304461956024
0.0445232056081295
0.021667735651135445
0.07070598751306534
0.0004620733670890331
0.04292326420545578
-0.003551493166014552
-0.057050514966249466
-0.016953006386756897
-0.008724968880414963
0.024184875190258026
0.01596074551343918
-0.015983177348971367
0.02015678584575653
0.024866225197911263
0.00866606179624796
0.06773480772972107
0.011700902134180069
0.06509505212306976
-0.015579328872263432
0.029163658618927002
-0.07442079484462738
0.010610697790980339
-0.0034507496748119593
-0.05245255306363106
-0.030929602682590485
0.008685254491865635
-0.06573963165283203
0.0075082299299538136
0.030373264104127884
-0.012985391542315483
0.026618637144565582
-0.021105216816067696
-0.03640885651111603
-0.04558751732110977
0.014608067460358143
0.045129332691431046
0.06289803236722946
0.052860327064991
-0.019477954134345055
0.07249750941991806
-0.05791497230529785
0.07164476811885834
0.03816014900803566
0.04193820059299469
0.016079692170023918
-0.016283664852380753
-0.05068179592490196
0.01383280660957098
-0.03696081414818764
0.045951589941978455
0.027248429134488106
0.04050104692578316
-0.027775639668107033
-0.036325547844171524
-0.04996214807033539
7.012305286480114e-05
-0.034910622984170914
-0.05488590523600578
0.06220300868153572
-0.012087805196642876
0.043293341994285583
0.0062184021808207035
-0.01379048265516758
-0.018758555874228477
-0.07225703448057175
-0.05391449108719826
0.021549604833126068
-0.042694080621004105
-0.022146858274936676
0.04531775414943695
-0.05891841650009155
0.062028855085372925
-0.022062456235289574
0.019304199144244194
0.06934432685375214
0.041015688329935074
-0.040795788168907166
-0.019920602440834045
0.026801753789186478
-0.02155841328203678
0.055272724479436874
0.0108740059658885
0.015458638779819012
-0.038784947246313095
0.037850722670555115
-0.01894521340727806
-0.060956038534641266
0.03951617330312729
0.038495711982250214
-0.04516403377056122
-0.01686815731227398
-0.05510120838880539
-0.07497753947973251
0.057511571794748306
-0.050175391137599945
-0.038017164915800095
0.011989416554570198
0.048222724348306656
-0.037798523902893066
0.04254535585641861
0.06414246559143066
-0.05440380796790123
-0.018805580213665962
-0.03681141510605812
0.000421735254349187
0.03675689920783043
0.053334496915340424
-0.04212989658117294
-0.005136746447533369
-0.06636001169681549
-0.015581085346639156
-0.009275654330849648
0.030258573591709137
0.03913553059101105
-0.01996912620961666
0.06437569111585617
0.06422464549541473
-0.013280795887112617
0.05131576955318451
0.04300855100154877
