0.031797949224710464
0.11546555161476135
-0.04691842570900917
0.026838654652237892
-0.023392966017127037
-0.0868823230266571
0.03680648282170296
0.04354335740208626
0.004646532237529755
-0.05527697503566742
0.05180701985955238
0.05630111321806908
-0.008660001680254936
-0.001053928048349917
-0.00109001062810421
0.006720496341586113
-0.05951618403196335
-0.04557546600699425
0.09519091993570328
-0.029035065323114395
0.0014361112844198942
-0.062129803001880646
-0.12183694541454315
0.07598964124917984
0.010937115177512169
-0.04458128288388252
0.07407459616661072
-0.08550010621547699
-0.0008028685697354376
0.07193300127983093
-0.11953740566968918
-0.04063123092055321
-0.11244115233421326
-0.018107257783412933
-0.003225065767765045
-0.04317769780755043
0.08813735842704773
-0.10462859272956848
0.11033882945775986
0.10000863671302795
-0.05996912345290184
-0.10438501089811325
0.001479321508668363
-0.0915522500872612
0.005595643538981676
-0.09315771609544754
-0.03310827910900116
0.07296324521303177
-0.022707760334014893
0.05979034677147865
0.05084690824151039
0.0488445982336998
0.03764413297176361
0.07643298804759979
-0.021187452599406242
-0.09296128898859024
-0.10308321565389633
0.07654809206724167
-0.07741629332304001
-0.023133719339966774
0.055219635367393494
0.05060860514640808
0.05810775235295296
-0.11231706291437149
-0.024839187040925026
-0.011926865205168724
0.04000506550073624
-0.11434522271156311
0.00044818950118497014
0.0820135623216629
0.01327592320740223
-0.11603333801031113
0.09363351762294769
0.09816905111074448
-0.0019431330729275942
0.08301226794719696
-0.011681482195854187
0.0012329547898843884
-0.03928274288773537
-0.09904047846794128
-0.10022850334644318
0.014417541213333607
0.017075343057513237
-0.13641519844532013
0.06410931795835495
-0.020891910418868065
0.05269503593444824
0.07023464143276215
0.04627295210957527
0.09638290107250214
-0.0845336988568306
0.05050133541226387
0.09202386438846588
-0.11955223977565765
0.08094675838947296
-0.0728381797671318
0.1412801742553711
0.005226081237196922
-0.09322822093963623
0.07255057245492935
-0.05908108875155449
-0.04403609782457352
-0.08327562361955643
-0.12272641062736511
-0.0687369629740715
-0.08979852497577667
0.12740075588226318
-0.004789939150214195
-0.11026845872402191
0.11568444967269897
-0.10934213548898697
-0.015050962567329407
0.1351575404405594
-0.08345329761505127
-0.08310076594352722
0.0795164704322815
-0.12884826958179474
-0.054550230503082275
-0.1127096638083458
-0.007014741655439138
0.055112939327955246
-0.11947260051965714
-0.01966218091547489
0.11268754303455353
0.009696963243186474
-0.008153915405273438
0.051714617758989334
0.0012340459506958723
0.10688451677560806
-0.08413099497556686
-0.06892158836126328
-0.057410962879657745
-0.07226277887821198
0.08806709200143814
0.104096420109272
0.08243750780820847
-0.07831000536680222
0.059004127979278564
-0.12906114757061005
0.06532856822013855
0.11075234413146973
-0.08201303333044052
0.13805031776428223
-0.0283631794154644
-0.02065836265683174
-0.008165666833519936
-0.02141156978905201
-0.02304498292505741
-0.06693433225154877
0.015337568707764149
-0.02315741591155529
-0.048964302986860275
-0.08391261845827103
0.07410600036382675
0.14111891388893127
0.06679898500442505
0.06811795383691788
-0.06128811836242676
-0.001669815625064075
-0.017091764137148857
0.07072597742080688
-0.02612381987273693
0.06927020847797394
-0.06346996128559113
0.11092343926429749
0.06815531104803085
-0.08856513351202011
0.02571568451821804
-0.10167305171489716
0.07660914957523346
-0.08379185199737549
0.08951108902692795
0.07943111658096313
0.02815566584467888
-0.0784788653254509
0.04233609139919281
0.052229899913072586
-0.019376976415514946
0.06929070502519608
-0.01468848530203104
0.0844026580452919
-0.07632528245449066
0.12192875891923904
-0.06990958750247955
0.12633316218852997
-0.08711634576320648
0.10515904426574707
-0.11077943444252014
0.02255954034626484
0.12240064889192581
-0.044217225164175034
0.014565256424248219
0.015707464888691902
-0.049508824944496155
0.05926594138145447
0.10827994346618652
0.025057686492800713
0.08122819662094116
0.05716139078140259
-0.04416947066783905
-0.0793498232960701
-0.06553315371274948
-0.09276914596557617
-0.1344728171825409
0.09954656660556793
0.009998481720685959
0.12437808513641357
0.05487547442317009
0.03036505915224552
-0.10856568813323975
0.034386709332466125
0.0504341647028923
0.03362693637609482
-0.03099566511809826
-0.10623491555452347
0.02578659914433956
0.10883097350597382
-0.026449186727404594
-0.007054791785776615
0.14464536309242249
-0.0919213593006134
0.048632051795721054
0.07321496307849884
-0.11114483326673508
-0.071292445063591
-0.060970667749643326
-0.03232550993561745
0.11692215502262115
-0.08519989252090454
-0.12948550283908844
0.08382058888673782
0.03719816356897354
0.007553951349109411
-0.10586702078580856
0.10536927729845047
0.019241513684391975
0.06020055711269379
-0.029807033017277718
0.06173769757151604
-0.10093479603528976
-0.10706018656492233
-0.016826286911964417
-0.08652128279209137
0.14736872911453247
-0.08765727281570435
-0.04270237684249878
0.02908170409500599
0.027938710525631905
-0.0935329869389534
0.0918922871351242
0.07443098723888397
-0.03344305232167244
0.023415470495820045
0.09467732906341553
-0.03408603370189667
0.08927475661039352
-0.0766918957233429
0.14893892407417297
-0.029282648116350174
0.06104552373290062
0.08188969641923904
0.07294876873493195
-0.10385370254516602
-0.03956639766693115
-0.05585566163063049
0.041595473885536194
-0.03180553391575813
0.06059655547142029
0.0484321229159832
-0.11777231097221375
-0.12327317148447037
0.041235484182834625
0.057951848953962326
0.024520941078662872
-0.07033625990152359
2.790501639537979e-05
-0.009711557067930698
0.14509542286396027
-0.07907383143901825
-0.0012545401696115732
-0.031423505395650864
-0.026510819792747498
0.07303109765052795
0.08102388679981232
0.06279623508453369
0.037706159055233
0.010752684436738491
0.11275402456521988
-0.08243785053491592
-0.09940382093191147
0.01463488768786192
0.0435045063495636
-0.06021802872419357
0.08457308262586594
0.10593272745609283
0.11016708612442017
0.04445158317685127
-0.10952818393707275
0.11255408823490143
0.0997389629483223
-0.09159575402736664
-0.07550352066755295
0.0870567038655281
-0.09273149818181992
-0.03477161377668381
-0.06774529814720154
-0.10087037086486816
0.1440943479537964
-0.029715610668063164
-0.11924541741609573
-0.030982237309217453
-0.045058004558086395
-0.1200217604637146
0.07241668552160263
0.0658794641494751
-0.041807740926742554
-0.1259753555059433
-0.11791737377643585
0.03555838763713837
-0.0441206656396389
-0.04790584370493889
0.05888376757502556
0.12687481939792633
-0.10026243329048157
0.13164116442203522
0.08405964821577072
0.017349133267998695
0.055584415793418884
-0.02615647204220295
-0.013836529105901718
0.11403506994247437
0.06587596237659454
0.04500811919569969
-0.07903692126274109
-0.12173261493444443
-0.01756018027663231
0.003845857223495841
-0.07146997004747391
0.09986796230077744
0.11202310770750046
-0.01674025133252144
-0.0848006159067154
-0.0698935016989708
-0.09210248291492462
-0.05617871880531311
0.0462152361869812
-0.050866059958934784
0.08774727582931519
0.10926023870706558
0.028123650699853897
-0.05877523869276047
-0.02820543199777603
-0.00045517724356614053
0.019966930150985718
-0.08483492583036423
0.1133274957537651
-0.01379154808819294
-0.04292375221848488
-0.09706571698188782
-0.10730879008769989
-0.09307655692100525
0.03909805789589882
0.11927396804094315
-0.03586217015981674
0.13542696833610535
0.13136476278305054
0.0069006443955004215
0.0761926993727684
0.08346805721521378
0.04231267049908638
0.07252125442028046
-0.07873882353305817
0.02570882998406887
0.048473503440618515
0.004055761266499758
-0.08120673894882202
-0.10154194384813309
0.05563637986779213
-0.010912562720477581
-0.12015321850776672
-0.0898112952709198
-0.050025176256895065
0.03115142695605755
0.08550090342760086
-0.007316297385841608
-0.10951969772577286
-0.10888644307851791
-0.04010464623570442
-0.10755454003810883
-0.024713866412639618
0.02497943863272667
0.08855706453323364
0.058393120765686035
-0.09150811284780502
0.01267731748521328
0.08250692486763
0.07035887986421585
-0.11269456893205643
-0.008568639867007732
-0.00196063588373363
0.11532207578420639
0.08796442300081253
0.0673523098230362
0.06890074908733368
-0.1247757151722908
0.0958823710680008
0.03762318566441536
-0.01925850473344326
0.035318125039339066
0.08866816014051437
-0.07993952184915543
0.0845869779586792
0.09208781272172928
0.10116099566221237
0.0982791855931282
-0.07862718403339386
-0.08731331676244736
-0.11955615878105164
-0.06083650514483452
-0.08582749217748642
0.03589007630944252
-0.07218078523874283
0.08832353353500366
0.08039133250713348
-0.0030303846579045057
0.06477870047092438
0.05194723233580589
-0.10641002655029297
0.002790842903777957
0.048382263630628586
-0.06471038609743118
-0.030538130551576614
-0.04680914431810379
-0.040600188076496124
0.052345093339681625
0.09860244393348694
0.030574191361665726
0.0895366445183754
-0.0691172331571579
-0.028664464130997658
-0.08047056198120117
-0.010315708816051483
0.08223049342632294
-0.09818879514932632
0.03999514877796173
-0.11029265820980072
-0.02822311408817768
-0.07332408428192139
-0.11970783770084381
0.13911956548690796
-0.11242169886827469
0.036572299897670746
0.09222552925348282
-0.022035745903849602
0.08599209040403366
0.03087110072374344
0.03093774802982807
-0.06739021092653275
0.006891107186675072
0.06836021691560745
0.022871721535921097
0.0751405730843544
0.11788876354694366
0.10525481402873993
0.07490634173154831
0.02507234364748001
-0.07764670997858047
0.0561109222471714
0.07631528377532959
0.11346398293972015
-0.008425463922321796
0.032118335366249084
-0.11032779514789581
-0.05887487158179283
-0.11376028507947922
-0.00894757080823183
-0.07292557507753372
-0.0054368083365261555
-0.09099503606557846
0.08170565962791443
-0.12016275525093079
0.11537595838308334
-0.03346298262476921
-0.024757305160164833
-0.10959229618310928
-0.03574494272470474
-0.039063531905412674
-0.03655144199728966
-0.03995051980018616
-0.09461326897144318
-0.053312476724386215
0.13968472182750702
0.06941719353199005
-0.06304244697093964
-0.06230921670794487
-0.025741539895534515
0.0575510635972023
-0.08058123290538788
0.08297254145145416
-0.10176873952150345
0.12947240471839905
-0.11117076873779297
0.12435650825500488
0.11142878979444504
-0.12416000664234161
0.060868039727211
-0.10138914734125137
-0.02591194584965706
-0.08843735605478287
0.0982898473739624
-0.14416299760341644
0.07869945466518402
-0.07908326387405396
0.09587358683347702
0.016812946647405624
0.04640776664018631
0.0008458379306830466
0.0664416253566742
-0.10078857094049454
-0.06508511304855347
0.044998519122600555
-0.002341808518394828
0.11773627996444702
0.07996567338705063
0.10347657650709152
0.019919324666261673
-0.054570313543081284
-0.07457922399044037
0.003818555735051632
0.07187218219041824
-0.04330678656697273
0.0657135546207428
-0.07890110462903976
-0.07494881749153137
0.10558970272541046
-0.11525387316942215
0.10500586777925491
0.07299156486988068
0.12020757049322128
-0.11631244421005249
0.11875326186418533
0.061316367238759995
0.056623898446559906
-0.08935002237558365
0.007383500691503286
0.08771245926618576
0.12654271721839905
0.08697465062141418
-0.05788738280534744
0.049790479242801666
0.010236128233373165
0.10701356828212738
0.10054526478052139
-0.05650797858834267
-0.05516989156603813
0.08916287869215012
0.02819679118692875
-0.03213030472397804
-0.04418211057782173
0.009112137369811535
-0.010514366440474987
0.0028204084374010563
-0.09152524918317795
-0.12196232378482819
0.014927968382835388
-0.013559517450630665
-0.02336490899324417
0.07962062954902649
0.08051091432571411
0.03903251141309738
0.047511421144008636
-0.09116508066654205
0.037367746233940125
0.032810259610414505
-0.0445115827023983
0.12402509152889252
0.00014666657079942524
0.003546955296769738
0.01282425131648779
0.05284412205219269
-0.03134618699550629
-0.06773886829614639
-0.07281402498483658
-0.09512699395418167
-0.006728011649101973
-0.006883581168949604
-0.06303075700998306
0.08589639514684677
-0.03760179132223129
0.033089518547058105
-0.02881995588541031
0.026304321363568306
0.022993722930550575
-0.01263224333524704
0.006789354141801596
-0.04348953068256378
-0.05312320962548256
0.05524847283959389
0.07406152784824371
0.014347542077302933
-0.08519890159368515
0.008654221892356873
-0.05141834914684296
-0.013739444315433502
0.011919417418539524
0.11187837272882462
0.002216458786278963
-0.05183203145861626
-0.04273656755685806
-0.03453805670142174
-0.12195595353841782
-0.11180121451616287
-0.10580725222826004
-0.12325895577669144
-0.07657042145729065
-0.02799450419843197
0.01624612882733345
-0.08230675756931305
-0.042283035814762115
0.0014346815878525376
-0.04844646155834198
0.09403316676616669
0.005743499845266342
-0.056284841150045395
0.0436210036277771
-0.057205867022275925
0.12016172707080841
0.018389787524938583
-0.014637152664363384
-0.07961864769458771
-0.017600474879145622
-0.04781513661146164
-0.07281827181577682
-0.043427009135484695
0.07248499244451523
0.10576339066028595
-0.09812501817941666
0.10354767739772797
-0.08311169594526291
-0.06063445657491684
-0.04308106750249863
0.07821463793516159
0.10098635405302048
-0.10950523614883423
0.1000528633594513
0.07184503227472305
0.07047853618860245
0.007208151742815971
-0.11528580635786057
0.051541201770305634
-0.13719770312309265
0.019869210198521614
0.0805339366197586
-0.019227372482419014
0.11216172575950623
-0.04985062777996063
0.07720600813627243
-0.09217295795679092
0.05816376209259033
-0.09561602026224136
0.04257970675826073
0.04756202921271324
-0.0644606351852417
0.12474589049816132
-0.09671568870544434
-0.0835941880941391
0.07771005481481552
0.105728380382061
-0.04750731587409973
-0.027714157477021217
0.10909485816955566
0.020542507991194725
0.08339659869670868
-0.07888283580541611
0.017943978309631348
0.013624644838273525
0.09230539947748184
0.10768163204193115
0.08887147903442383
-0.07524163275957108
-0.12055881321430206
0.09019365906715393
0.1022697389125824
0.019550619646906853
0.029604464769363403
0.10917199403047562
0.04118585214018822
-0.02358975075185299
-0.10062170028686523
0.08816464990377426
0.016912175342440605
-0.10488208383321762
-0.07352602481842041
-0.05544884130358696
0.07464045286178589
0.03995105251669884
-0.04628710821270943
0.09754473716020584
-0.026060370728373528
0.07761877030134201
-0.000535600061994046
-0.11126000434160233
-0.0749802514910698
-0.11036468297243118
0.026099996641278267
0.1346602737903595
0.11259923130273819
0.02127753011882305
0.06181785464286804
-0.06072350963950157
0.006696740165352821
0.07265152037143707
0.05851002782583237
0.08139333873987198
0.025217922404408455
0.006408540531992912
-0.023152777925133705
0.01944332756102085
-0.04759148508310318
0.004324790555983782
0.11790471524000168
-0.0907503142952919
-0.03199014067649841
0.014204079285264015
-0.059103675186634064
0.0005971588543616235
-0.06978654861450195
-0.09018780291080475
-0.024289166554808617
0.10084492713212967
0.06397823244333267
-0.058108046650886536
-0.04830173775553703
0.11004623770713806
-0.016984621062874794
0.08684445172548294
-0.06475892663002014
0.09465444087982178
-0.10397765785455704
-0.05400954931974411
0.013016491197049618
-0.0664396807551384
0.020419016480445862
-0.06120529770851135
-0.010032933205366135
0.04834982380270958
0.02673817239701748
-0.1053355261683464
0.06538412719964981
-0.08820183575153351
0.12363851815462112
-0.002922608982771635
-0.10940524190664291
-0.09049154072999954
0.06014641374349594
0.05823386088013649
-0.05956751108169556
-0.079714335501194
0.03334799408912659
-0.09896702319383621
0.03995387256145477
0.06147634610533714
-0.08559064567089081
-0.03910320624709129
0.05898980423808098
-0.11116403341293335
-0.11625965684652328
0.08060166239738464
0.09944833815097809
-0.01822655089199543
0.08959536254405975
-0.03478853777050972
-0.06302294135093689
-0.07710335403680801
0.037069499492645264
0.06773335486650467
0.07328832894563675
-0.07937493920326233
-0.04238979518413544
0.05454070866107941
-0.05579743906855583
0.018495816737413406
0.059670668095350266
-0.11546709388494492
0.058452315628528595
-0.04440678656101227
0.10355105996131897
0.013906003907322884
0.07934565097093582
-0.0051164631731808186
-0.10114135593175888
-0.049129851162433624
-0.07053393125534058
-0.0068231807090342045
-0.09869299083948135
0.09912658482789993
0.06424248963594437
-0.07236935198307037
0.06181048974394798
0.02028595469892025
-0.10011156648397446
-0.10541297495365143
-0.016541611403226852
0.09399556368589401
-0.10780617594718933
-0.020432455465197563
-0.11031655967235565
0.10875288397073746
0.006027133669704199
-0.06400108337402344
0.040413662791252136
0.011054348200559616
0.10399820655584335
0.03477274999022484
0.023552026599645615
0.06814902275800705
-0.09292874485254288
0.01989949680864811
-0.023813443258404732
-0.01982242241501808
0.04250524193048477
0.04810594394803047
-0.09901262819766998
0.09767012298107147
-0.05126263573765755
-0.04176248610019684
0.12348911911249161
-0.09143241494894028
-0.007716567255556583
0.09080691635608673
0.017718568444252014
-0.07295217365026474
0.05297829583287239
-0.05091285705566406
-0.06947938352823257
-0.002352275652810931
-0.03132489696145058
-0.1144847422838211
0.037470314651727676
0.05062495172023773
-0.05170520022511482
0.0306369811296463
0.09522747993469238
0.06023717671632767
-0.03949996456503868
-0.10370545834302902
-0.029748307541012764
-0.03516196832060814
-0.03431761637330055
-0.11807560920715332
0.07209205627441406
-0.01577424816787243
0.04168306663632393
-0.03626953437924385
0.05688629671931267
0.042861610651016235
-0.10369102656841278
-0.02213941514492035
-0.08644772320985794
-0.040239233523607254
-0.048637572675943375
-0.09599924087524414
-0.05382244288921356
-0.10120595246553421
-0.12678948044776917
0.01798989623785019
-0.0015971707180142403
-0.10858321934938431
0.06944171339273453
-0.07397054135799408
0.027995552867650986
0.015060994774103165
0.010584300383925438
0.11075573414564133
0.0879255160689354
0.05853601172566414
0.09555628150701523
0.008709842339158058
0.051471173763275146
-0.10048649460077286
0.05836881324648857
0.05460841581225395
-0.09645947813987732
0.06551957875490189
-0.031984418630599976
-0.08920842409133911
0.007818995043635368
0.06752768903970718
-0.08711594343185425
-0.0891227051615715
0.0010756561532616615
-0.04785418510437012
-0.017228055745363235
-0.09550534188747406
-0.00503077358007431
-0.0443599559366703
0.09265869855880737
-0.09841819107532501
-0.11090583354234695
-0.052374280989170074
0.026073947548866272
0.12323658168315887
0.10469014197587967
-0.07044899463653564
0.06442125141620636
0.04091716185212135
-0.09728150814771652
-0.0984167531132698
0.08656129240989685
0.02928212657570839
0.0017493638442829251
0.05015721172094345
-0.11751000583171844
0.10984070599079132
0.11553630977869034
0.07214220613241196
0.03209341689944267
0.0779743567109108
-0.0803975760936737
0.08100894838571548
0.07072540372610092
0.09898333251476288
-0.08762873709201813
-0.10090313851833344
-0.03762069344520569
-0.030215339735150337
0.05717221647500992
-0.035807572305202484
0.06633521616458893
0.03948025032877922
0.08665122836828232
-0.026256192475557327
-0.10615050047636032
0.10037165135145187
-0.08839502185583115
-0.1237424910068512
-0.1255141645669937
-0.04154916852712631
-0.07103405147790909
-0.04858343303203583
0.006734229624271393
-0.07596322894096375
0.11746743321418762
0.010292092338204384
0.041106004267930984
0.04995783418416977
0.010539315640926361
0.08884991705417633
0.0807274803519249
0.10312779247760773
0.04663616418838501
-0.038356855511665344
0.04333487153053284
-0.030518602579832077
0.016795843839645386
0.12002398818731308
0.04490293189883232
-0.10782258212566376
0.07056179642677307
-0.02668382227420807
0.11608608067035675
0.06673087924718857
0.06083148345351219
-0.04797199368476868
0.04541472718119621
-0.04001476243138313
-0.10926319658756256
-0.10309938341379166
-0.07665380090475082
0.076817087829113
0.07173478603363037
0.04883861169219017
0.01599629782140255
0.06646144390106201
-0.025553716346621513
-0.09903096407651901
-0.11260034143924713
0.11728081852197647
-0.025044703856110573
-0.03036743961274624
-0.07551854848861694
0.02206142246723175
0.01169835776090622
0.11497752368450165
0.06716743856668472
-0.03077075071632862
0.12676121294498444
0.11173953115940094
-0.006095826160162687
-0.11522704362869263
-0.1017291471362114
0.08580387383699417
-0.10317216068506241
-0.031963374465703964
0.054720792919397354
-0.12418639659881592
0.06698297709226608
0.07914409786462784
-0.06259553879499435
-0.11165911704301834
0.04307115823030472
-0.1030605137348175
-0.019057394936680794
-0.12042754143476486
0.0016526360996067524
-0.07280604541301727
-0.04334019124507904
-0.10285944491624832
-0.01734304428100586
0.12179338186979294
-0.10475534200668335
-0.08375962823629379
0.0924856886267662
0.06089042127132416
0.06375175714492798
-0.016950193792581558
0.10623608529567719
-0.08259996771812439
-0.04539211466908455
-0.1080901250243187
0.0634496882557869
-0.049918778240680695
-0.026441603899002075
0.06267134100198746
-0.03703303635120392
-0.03657329082489014
-0.02700776793062687
0.020783187821507454
-0.030440429225564003
-0.05032538250088692
-0.09318725764751434
-0.044846851378679276
-0.05617694556713104
0.007653079926967621
-0.01109759695827961
0.02816202864050865
-0.11026307940483093
0.11939213424921036
-0.016987096518278122
-0.10456931591033936
-0.08130134642124176
-0.06590240448713303
-0.06375646591186523
-0.08043622225522995
0.06388512253761292
0.010268229059875011
0.014105395413935184
0.1086413636803627
0.11545634269714355
-0.027241986244916916
-0.08187957853078842
0.06837714463472366
-0.0017828965792432427
-0.032294124364852905
0.03948790580034256
0.11891473829746246
-0.10678878426551819
-0.08403614163398743
0.06300181150436401
0.06677641719579697
-0.12264600396156311
-0.027475494891405106
-0.02725284732878208
0.1206921935081482
0.05012781172990799
-0.027406735345721245
0.10438574850559235
-0.014250768348574638
0.09718628972768784
-0.02334238775074482
0.15057925879955292
-0.11875703185796738
0.07896099239587784
0.06071113049983978
-0.07818534225225449
0.00041750719537958503
-0.08635559678077698
0.03814782202243805
-0.07754248380661011
0.039291009306907654
-0.103598453104496
-0.09392909705638885
-0.0462009571492672
0.1113382950425148
0.03327593579888344
-0.09213684499263763
0.11970772594213486
0.09623594582080841
0.02761366218328476
-0.09084168076515198
0.009778506122529507
0.10181637108325958
0.12438920885324478
-0.12592405080795288
0.11659019440412521
0.00866049062460661
-0.07608956843614578
0.09784639626741409
-0.05894719064235687
-0.010056942701339722
-0.07171155512332916
0.10571279376745224
0.10680855065584183
-0.05756847560405731
-0.05071656405925751
-0.10472120344638824
-0.10947608202695847
0.13369539380073547
-0.010547020472586155
-0.002057410078123212
0.026928970590233803
0.04221878573298454
0.08720911294221878
0.028290187940001488
0.08291622996330261
0.09088580310344696
0.012001117691397667
-0.0432366281747818
0.028781739994883537
0.1197369247674942
-0.012823142111301422
0.10618220269680023
0.08503446727991104
0.025333013385534286
0.053914230316877365
-0.022011063992977142
0.134300097823143
-0.07276824116706848
0.02464829571545124
0.01534577738493681
0.004148206207901239
0.12563705444335938
0.09545843303203583
0.06123237684369087
0.07652873545885086
-0.04686668887734413
-0.09704876691102982
-0.07035700976848602
0.11223698407411575
-0.12131317704916
0.07028451561927795
0.08539183437824249
0.04565955698490143
0.016013434156775475
-0.07977607846260071
0.04227619618177414
-0.03666364774107933
-0.057424332946538925
-0.07292692363262177
0.10416053235530853
0.049610041081905365
-0.04666079580783844
-0.04745279997587204
0.12612195312976837
0.0531495027244091
-0.1064620092511177
-0.08951140940189362
0.05218091234564781
-0.09417679160833359
-0.022649945691227913
-0.09409627318382263
0.07636758685112
0.037919268012046814
0.005070286337286234
-0.008027399890124798
0.08383944630622864
0.12140107154846191
0.07269737124443054
-0.08614751696586609
-0.0053694481030106544
-0.06073985993862152
0.052656784653663635
-0.11578160524368286
0.03838994726538658
-0.037904027849435806
-0.07276641577482224
0.05569152906537056
0.018107915297150612
-0.09602729231119156
-0.11057543754577637
0.09951212257146835
0.09817943722009659
-0.07947787642478943
-0.09208836406469345
0.04063963517546654
-0.07808980345726013
0.04343113303184509
-0.054490212351083755
0.05139299854636192
0.021356413140892982
0.10948370397090912
-0.07310183346271515
0.04572567716240883
0.12917977571487427
-0.09756575524806976
-0.06042885035276413
-0.06337499618530273
-0.050003208220005035
-0.008419036865234375
0.08255518227815628
-0.015734389424324036
-0.021467752754688263
-0.04398391395807266
-0.1145235151052475
0.03694342449307442
0.027072403579950333
0.050659675151109695
-0.09810973703861237
-0.050065603107213974
-0.1154218316078186
0.04954592511057854
-0.05822566896677017
-0.0488068088889122
-0.0626048669219017
0.0857854038476944
-0.10710827261209488
0.04633242264389992
-0.03600604459643364
0.06732688844203949
0.040115874260663986
-0.07609178125858307
-0.03217234089970589
0.13287602365016937
0.03739207237958908
-0.08468799293041229
-0.0576038621366024
0.06383560597896576
0.04644737020134926
0.04380578547716141
-0.04250897094607353
-0.02309899590909481
-0.08341588824987411
-0.00116208684630692
-0.03390994295477867
-0.10935574769973755
0.08295504748821259
0.002382479142397642
-0.09954094886779785
0.011568923480808735
-0.08313723653554916
-0.04496760293841362
-0.03724702447652817
0.09428731352090836
0.01750791445374489
-0.1248413547873497
-0.06102617457509041
-0.09171465784311295
0.03687965124845505
-0.0885375365614891
0.0036848399322479963
0.07827140390872955
0.07031018286943436
-0.08127103000879288
-0.04193878918886185
0.045853983610868454
0.014034458436071873
0.0743408128619194
0.04340019449591637
0.11093956977128983
-0.05967210233211517
0.10178478062152863
0.07697749882936478
-0.05069486424326897
-0.0005821140366606414
-0.048176102340221405
0.048376791179180145
0.0461888462305069
-0.02186862751841545
0.05771661549806595
-0.08035162836313248
0.11884462088346481
-0.0935884490609169
-0.01290559209883213
0.07176898419857025
0.08592500537633896
0.06318891048431396
-0.1308896690607071
0.041661590337753296
-0.1007145345211029
-0.04986472427845001
-0.11513731628656387
0.023689627647399902
-0.12516936659812927
0.01604609377682209
0.006159749813377857
-0.11018270999193192
-0.010985922068357468
0.10635837912559509
0.010589560493826866
-0.09837152063846588
0.03302176669239998
-0.07282482087612152
-0.025988338515162468
0.12468615919351578
-0.07003429532051086
-0.01858997903764248
-0.1271464228630066
0.07437244057655334
-0.04417760297656059
0.07855410873889923
-0.022030485793948174
-0.12322357296943665
-0.03902425244450569
0.08799534291028976
-0.07971970736980438
0.0689447894692421
-0.04269532859325409
0.005082960240542889
-0.07911304384469986
-0.08160774409770966
0.100692018866539
-0.11335751414299011
-0.048554252833127975
0.051197391003370285
-0.042649947106838226
-0.08133771270513535
-0.07531657069921494
0.09617643058300018
0.11753732711076736
0.09359356760978699
-0.11547919362783432
0.12100471556186676
0.04894986376166344
-0.09703275561332703
-0.0931318998336792
0.03248525410890579
0.03655334934592247
0.05223678797483444
-0.1130356714129448
0.05873735249042511
0.08395703881978989
0.004067169036716223
-0.1274687796831131
0.11322556436061859
0.1348596066236496
0.12523987889289856
-0.07591506838798523
0.03668453171849251
0.11627864092588425
-0.028286771848797798
0.07227353006601334
-0.04163633659482002
0.050297122448682785
0.060425303876399994
0.051732249557971954
-0.056800924241542816
0.0009689035941846669
-0.047117043286561966
0.04590992629528046
-0.08579996973276138
0.02829766646027565
-0.06489527970552444
-0.028454506769776344
-0.0732763409614563
-0.0607825368642807
-0.08292003720998764
-0.02238672785460949
0.11002057045698166
-0.03463415801525116
-0.016141898930072784
0.009844389744102955
-0.04622331261634827
0.11556793004274368
0.09371161460876465
-0.10307452082633972
0.10046298801898956
-0.007000373210757971
-0.03806328773498535
-0.10282737016677856
-0.06775211542844772
0.08924528956413269
-0.05061819404363632
0.11970358341932297
0.034783024340867996
-0.023972034454345703
-0.06375070661306381
0.09634020924568176
0.023488778620958328
0.16496992111206055
-0.09063658863306046
0.09995085000991821
-0.0047480096109211445
-0.09143111854791641
0.00031898135785013437
-0.007401389069855213
-0.003358245361596346
-0.06600163131952286
0.09032758325338364
0.08805447816848755
-0.09784331917762756
0.02124066650867462
0.08180946111679077
0.1107897236943245
-0.09744719415903091
-0.025310879573225975
0.06934171169996262
-0.12049110233783722
-0.09054166823625565
0.07519123703241348
0.03504585847258568
-0.018275024369359016
0.03287234902381897
0.06044488027691841
0.012037456035614014
0.04558281973004341
-0.00534629262983799
-0.011265887878835201
-0.1257198601961136
0.03997622802853584
-0.06780713051557541
-0.05942033976316452
0.063072070479393
0.11423167586326599
0.0273048784583807
0.007849124260246754
0.08206862956285477
0.09714160114526749
-0.06817037612199783
-0.017539985477924347
-0.00014998567348811775
-0.10157163441181183
-0.00832550972700119
0.07674048095941544
-0.03091152012348175
-0.010866159573197365
0.028770044445991516
0.027374090626835823
-0.027848664671182632
-0.04006195068359375
0.05825674906373024
-0.02162531390786171
0.05848092958331108
0.08463839441537857
-0.006817720364779234
-0.07670164108276367
-0.11390454322099686
0.07883251458406448
-0.10061425715684891
0.07299431413412094
0.11365090310573578
-0.06475266069173813
-0.04999309778213501
-0.11836957186460495
-0.038427021354436874
-0.004972707014530897
-0.07125213742256165
0.117431640625
0.024580959230661392
0.07523903250694275
0.12754689157009125
-0.08220762014389038
0.0619005523622036
0.04996836185455322
0.029974818229675293
-0.02351396530866623
0.08944815397262573
0.06127582862973213
-0.11395002901554108
-0.06066136807203293
0.015805654227733612
-0.0027850917540490627
-0.04150095209479332
-0.07637353241443634
0.030452005565166473
-0.08520326763391495
0.11819048225879669
0.00033865455770865083
0.0331011638045311
0.07478109747171402
-0.005838614422827959
0.00502333277836442
0.0465720072388649
0.08552607893943787
-0.10448551177978516
-0.07075642794370651
0.023562949150800705
0.05714718624949455
0.10663329064846039
-0.004593709483742714
-0.04765725135803223
-0.06105701997876167
0.04963428154587746
0.019895929843187332
-0.08542034029960632
0.10102566331624985
-0.016961216926574707
0.112340547144413
-0.03987491503357887
0.07602579146623611
-0.1094496101140976
-0.06422226876020432
-0.01448096800595522
0.06029820814728737
-0.07267382740974426
-0.02012404054403305
-0.11227378994226456
0.02251596748828888
-0.08444022387266159
-0.02554597333073616
-0.10654126107692719
0.010455386713147163
-0.10119916498661041
0.0754837617278099
0.11541792750358582
0.1176106259226799
-0.009173428639769554
-0.02692888118326664
0.041030000895261765
0.012631863355636597
-0.05728043243288994
-0.1253661960363388
-0.006229875609278679
-0.10060133039951324
-0.0892254188656807
-0.016454994678497314
0.02399004064500332
0.12308607250452042
0.027622448280453682
0.06624432653188705
-0.09315699338912964
0.07777976989746094
0.01650053821504116
-0.04016565904021263
0.050513073801994324
0.14590877294540405
0.05166613683104515
0.019944917410612106
0.07312652468681335
-0.07426580786705017
0.14315450191497803
-0.012672632932662964
0.060181085020303726
0.0131026990711689
-0.040915220975875854
0.11141388863325119
-0.10100093483924866
-0.08692644536495209
-0.04684002697467804
0.005766274407505989
-0.0006799284019507468
0.12374559789896011
-0.01422378234565258
0.05196096748113632
-0.10530191659927368
-0.02675861492753029
0.04663462191820145
-0.01716073788702488
0.09813611954450607
-0.0026062496472150087
-0.11332982033491135
-0.091536745429039
-0.09170597791671753
-0.016214558854699135
-0.033227596431970596
0.0051475162617862225
0.027963338419795036
0.09481453150510788
0.11324708163738251
0.025208521634340286
-0.051366403698921204
0.030660072341561317
0.12181390076875687
0.057258136570453644
0.031123023480176926
-0.05462277680635452
-0.08058466762304306
-0.08686874061822891
0.14257486164569855
-0.06026659905910492
0.1403581202030182
0.14236605167388916
-0.023132678121328354
0.12601299583911896
0.04916182905435562
-0.06087714433670044
0.06868943572044373
-0.026484796777367592
-0.09367454797029495
0.07492940872907639
-0.10295115411281586
-0.11175414174795151
-0.05101286992430687
-0.0641728937625885
-0.12911774218082428
-0.11071885377168655
0.10548526048660278
0.0321166105568409
-0.03516702726483345
-0.06514901667833328
-0.07358657568693161
-0.11197984218597412
0.024873079732060432
-0.019609814509749413
-0.07856827229261398
0.025114117190241814
-0.08414886891841888
-0.06139446794986725
0.07515399158000946
-0.0743686631321907
0.07571721076965332
-0.12883126735687256
0.034715596586465836
-0.13051144778728485
-0.11830458045005798
0.09955237060785294
0.11948174983263016
-0.05925300717353821
-0.0828898549079895
0.08125822991132736
0.11058805882930756
-0.10047135502099991
-0.018075840547680855
-0.013362063094973564
0.0029108712915331125
-0.004743646830320358
0.014620502479374409
-0.03907562792301178
0.11181613057851791
0.006254447624087334
-0.01929815672338009
-0.05413910374045372
0.07376492023468018
0.08759424835443497
-0.06180104985833168
-0.07521709054708481
0.06115907430648804
0.06463243812322617
0.028711674734950066
0.04396447539329529
-0.10560613125562668
-0.11314605921506882
0.018226755782961845
0.10081394016742706
-0.10108066350221634
0.033149491995573044
-0.10809805989265442
-0.11536404490470886
-0.1216311976313591
0.031089792028069496
-0.12823878228664398
0.06080817058682442
-0.1260872185230255
0.11481346189975739
0.0882418155670166
-0.09939927607774734
0.00027601560577750206
0.11794476956129074
0.004625513218343258
-0.07021140307188034
0.08944059163331985
-0.13102389872074127
0.07677166908979416
-0.10304403305053711
0.10718677937984467
0.013879107311367989
-0.03456379473209381
-0.013102851808071136
-0.06771323829889297
0.08426889777183533
-0.059674303978681564
-0.04370909184217453
0.03838396072387695
0.052881624549627304
0.13059133291244507
0.04577919468283653
-0.005634474102407694
-0.06528783589601517
-0.1136804148554802
-0.02004692144691944
-0.05475160479545593
-0.02993377298116684
0.12272191047668457
0.12592194974422455
0.1256837397813797
0.0176458191126585
0.0572512224316597
0.04237376153469086
0.05562753975391388
-0.05143503099679947
-0.011398772709071636
0.0749252662062645
0.11421506106853485
0.055421579629182816
0.027313964441418648
-0.09393208473920822
-0.015268423594534397
-0.008782821707427502
-0.1166343092918396
-0.0889018103480339
0.12459686398506165
0.0507357232272625
0.0014187662163749337
-0.10189378261566162
-0.022005995735526085
-0.0665774717926979
-0.14187970757484436
0.03025500290095806
0.08936117589473724
0.1009092703461647
-0.007500503212213516
0.04474462941288948
0.0865551084280014
0.12731505930423737
0.0655633956193924
-0.11635391414165497
0.028562331572175026
0.10949897766113281
0.10317287594079971
-0.06577400863170624
0.0013303208397701383
-0.04571443051099777
0.02773560769855976
-0.09356410801410675
0.025583745911717415
-0.06384731084108353
0.11256714165210724
0.05791099742054939
-0.02227560244500637
-0.01896131969988346
-0.08459070324897766
0.014048174023628235
0.025511041283607483
0.11689688265323639
-0.06517491489648819
0.1293903887271881
-0.05464290827512741
0.050030019134283066
0.040014687925577164
0.10139165818691254
0.057995639741420746
0.09298259019851685
-0.07289772480726242
-0.09466883540153503
-0.061074066907167435
-0.0920124351978302
0.09323237836360931
-0.11676909774541855
0.03337681293487549
0.01033786591142416
0.04721469804644585
-0.014254004694521427
0.04142434522509575
-0.03145507350564003
0.0688425675034523
-0.08039906620979309
-0.10448215901851654
0.0416853092610836
-0.002608753740787506
0.12097648531198502
-0.047555502504110336
0.10725094377994537
-0.10719627887010574
-0.11676967144012451
0.1489928960800171
0.0025606227573007345
-0.007764944341033697
0.1287110149860382
-0.10705558210611343
0.05387888848781586
0.06465388834476471
-0.029606325551867485
0.07350181043148041
0.0018051236402243376
0.10309183597564697
0.1282404363155365
0.137333482503891
0.013380245305597782
-0.019092388451099396
-0.06394710391759872
0.04028060659766197
0.03988783806562424
-0.010140721686184406
-0.12484448403120041
0.11327993124723434
-0.0139953987672925
0.11445976793766022
-0.11434697359800339
0.013970715925097466
-0.008767707273364067
0.006046791095286608
-0.0841386467218399
0.10613243281841278
-0.0976601392030716
0.0271386057138443
0.0629599317908287
-0.03770628571510315
0.07932373136281967
-0.0742434486746788
0.09784640371799469
-0.08433422446250916
0.13810734450817108
0.06386516243219376
0.08291252702474594
0.034560661762952805
-0.018475042656064034
0.10056257992982864
-0.004800939001142979
0.06743724644184113
-0.0386967770755291
0.015880515798926353
0.012005570344626904
0.045309003442525864
0.059674762189388275
-0.0035406299866735935
-0.05308843031525612
0.03244773671030998
-0.09555970877408981
-0.018787866458296776
0.026234006509184837
-0.11791417747735977
0.1289818286895752
0.12556511163711548
-0.01674213632941246
-0.09640784561634064
-0.03637208417057991
0.10235453397035599
-0.05797573924064636
0.08054035902023315
0.036713771522045135
0.04360596463084221
-0.05905156582593918
0.03480333834886551
0.03292325511574745
-0.038147278130054474
-0.100440613925457
0.013753890059888363
-0.08442561328411102
-0.04977739602327347
-0.1495036482810974
-0.15702751278877258
0.06289691478013992
-0.08688540756702423
-0.04797594994306564
0.027358215302228928
-0.09066454321146011
-0.11970128864049911
-0.09788248687982559
0.07381253689527512
-0.1352994441986084
-0.11804130673408508
0.027345849201083183
-0.018487099558115005
-0.05213581770658493
-0.03317384421825409
-0.04475663974881172
0.010136066935956478
0.09550277143716812
-0.009685761295258999
0.07558537274599075
0.02138640731573105
-0.1049165353178978
0.14616064727306366
0.11064872145652771
-0.06706948578357697
-0.07508035749197006
0.07531282305717468
-0.09232603758573532
0.05741345137357712
-0.04475291445851326
0.027219073846936226
-0.02019435726106167
0.11848565936088562
0.09023093432188034
0.011581607162952423
-0.05766333267092705
0.047030460089445114
-0.08616140484809875
0.06168677657842636
-0.08275701850652695
0.07520837336778641
0.1321035921573639
0.13044294714927673
-0.10261288285255432
0.040874455124139786
-0.07382938265800476
0.09285809099674225
0.010302502661943436
-0.11277947574853897
-0.03158681094646454
0.06027422100305557
0.10097257047891617
-0.013340385630726814
0.1173366829752922
0.00034125486854463816
0.07405954599380493
-0.01873074471950531
-0.09760510921478271
0.07246613502502441
-0.012203753925859928
-0.11968469619750977
-0.04195159301161766
0.0604839026927948
-0.10130723565816879
-0.0808321014046669
-0.013118456117808819
-0.11650502681732178
0.03312331438064575
-0.09246119111776352
0.012956957332789898
-0.06938637793064117
0.013462118804454803
0.07962213456630707
0.08571135252714157
-0.12331684678792953
0.10496556013822556
-0.047485847026109695
0.09720368683338165
0.005108808632940054
-0.11954066157341003
-0.0063659753650426865
-0.08242998272180557
0.034400809556245804
-0.11311742663383484
0.017732279375195503
0.0833815187215805
-0.1055963784456253
-0.044771723449230194
-0.12664933502674103
0.07119371742010117
0.0730806216597557
-0.1091802641749382
0.0526203028857708
0.03924624249339104
0.13764320313930511
-0.08365976810455322
0.00038358912570402026
0.009206810966134071
0.040016304701566696
-0.10401740670204163
0.09146679937839508
-0.10376457870006561
0.03505302965641022
0.07930509746074677
-0.06274101883172989
0.050381340086460114
0.0035552061162889004
-0.051754675805568695
0.08697082847356796
0.021264459937810898
-0.09395983815193176
-0.018021387979388237
-0.040838971734046936
-0.12517057359218597
0.05781017616391182
0.04517795890569687
-0.007561985403299332
0.024139272049069405
-0.11854735016822815
-0.05444233864545822
-0.09660124033689499
-0.02196117304265499
0.09409898519515991
-0.102664053440094
-0.016691096127033234
0.12436048686504364
-0.06888491660356522
0.10951859503984451
0.0009809508919715881
-0.07272284477949142
0.08805709332227707
-0.09590315818786621
-0.06076955050230026
-0.04876900091767311
-0.010871986858546734
0.12301784753799438
-0.08588597178459167
-0.017358534038066864
0.08612148463726044
-0.13817186653614044
-0.016133423894643784
-0.07837190479040146
-0.13449330627918243
-0.0049972934648394585
0.03742639347910881
0.08663120120763779
0.022077221423387527
0.0977158173918724
-0.009275317192077637
-0.12518437206745148
0.021253181621432304
-0.09728509932756424
-0.0529264397919178
-0.04369613155722618
-0.03530033677816391
0.03480713069438934
0.12857550382614136
0.04845080524682999
-0.12039107084274292
0.05143297091126442
0.0014554408844560385
0.048672307282686234
-0.03982999920845032
-0.09713737666606903
-0.05851156637072563
-0.11477338522672653
-0.09065010398626328
-0.000508035474922508
0.0715697854757309
0.11346711218357086
0.12907379865646362
0.031513847410678864
-0.08277436345815659
0.02837463654577732
0.029921917244791985
0.1335914433002472
-0.050213512033224106
0.11234094947576523
0.01161975972354412
0.08637780696153641
-0.0942915678024292
-0.059372756630182266
-0.11000971496105194
-0.11458055675029755
-0.05479643493890762
-0.1271481066942215
0.08184653520584106
0.04903661832213402
-0.0029772629495710135
0.07169637829065323
-0.06330254673957825
-0.034280989319086075
0.013390048407018185
-0.055424246937036514
0.11440630257129669
-0.004023480229079723
0.01945533975958824
-0.005914673674851656
-0.010629573836922646
-0.004517588298767805
0.1183134987950325
-0.013575100339949131
0.0062774126417934895
-0.044937700033187866
-0.006896889302879572
-0.1352199912071228
0.06724090874195099
-0.10597706586122513
-0.003793745767325163
-0.10900627821683884
-0.11110298335552216
0.13152062892913818
0.01666402257978916
0.0788659080862999
0.003971297759562731
-0.09184317290782928
-0.1059766411781311
0.12735190987586975
-0.0575772188603878
0.11159124970436096
-0.13041098415851593
-0.015448001213371754
-0.07942700386047363
-0.0799342542886734
0.11554530262947083
-0.11914173513650894
-0.10786920040845871
-0.056222811341285706
0.04275786504149437
-0.0888984352350235
-0.11379624903202057
-0.11106864362955093
-0.025812316685914993
-0.07958043366670609
0.06825597584247589
-0.07250095903873444
-0.08890733122825623
0.15413758158683777
-0.0661374032497406
-0.1321377009153366
-0.08312302082777023
-0.0783362165093422
0.10434538125991821
-0.08700169622898102
0.07250497490167618
-0.08063941448926926
-0.02915062941610813
-0.0636998862028122
0.10940364748239517
0.09140591323375702
0.11243283003568649
0.02096329629421234
-0.037700049579143524
-0.08192136138677597
0.034991033375263214
-0.06834061443805695
0.12967859208583832
-0.11763423681259155
0.1000252515077591
-0.10581126809120178
0.12368585169315338
-0.03486068546772003
0.02715696021914482
-0.10673392564058304
-0.06020868569612503
0.09238564223051071
-0.035450659692287445
-0.05862098187208176
-0.022515062242746353
0.017539625987410545
-0.025978943333029747
-0.025191819295287132
0.047041911631822586
-0.021286169067025185
0.07651282846927643
-0.02111619897186756
0.03464629873633385
-0.032158661633729935
-0.052089493721723557
-0.08315745741128922
-0.04917507246136665
-0.11302639544010162
-0.04525222256779671
0.03741561248898506
0.02988828718662262
-0.0004558837681543082
-0.04149029776453972
-0.06021672487258911
0.07584217935800552
0.03409441187977791
0.04451121762394905
-0.04003090783953667
0.01809987984597683
-0.12249133735895157
-0.08138324320316315
-0.04528898000717163
0.10710392147302628
-0.057406920939683914
-0.004712678957730532
-0.07285559177398682
0.144274041056633
0.01063856203109026
-0.002709542866796255
-0.03759057819843292
0.0741487666964531
0.0014265017816796899
-0.06588125973939896
-0.04188109189271927
-0.032571084797382355
-0.09218940138816833
0.08706215769052505
0.08024196326732635
-0.044988635927438736
0.09189800173044205
-0.06081764027476311
0.02929031290113926
-0.09466791152954102
0.025486553087830544
-0.09984160959720612
0.1114160567522049
0.08637695014476776
0.11080319434404373
0.06225472688674927
-0.06094694510102272
0.12135618180036545
0.0674840584397316
-0.01358996145427227
0.06860028952360153
0.033416539430618286
0.0737215057015419
-0.03984448313713074
-0.06933083385229111
0.11594752222299576
-0.018553035333752632
0.08497361838817596
-0.09695788472890854
-0.031329814344644547
-0.05709444731473923
0.07309333235025406
0.07224491983652115
0.025225358083844185
-0.029052365571260452
-0.02498113177716732
-0.026134254410862923
0.07739755511283875
-0.07560484111309052
-0.12331794202327728
0.04226004332304001
-0.0394354909658432
0.048112332820892334
-0.03227635473012924
0.13758450746536255
-0.0807533785700798
-0.028064843267202377
-0.061491481959819794
0.12518437206745148
0.036970265209674835
0.07453908026218414
-0.08169550448656082
-0.059198230504989624
0.027803389355540276
0.04980546981096268
0.06880373507738113
0.13216407597064972
-0.013188818469643593
-0.0780768096446991
-0.003213295014575124
0.09387631714344025
0.00575583940371871
0.11104530841112137
0.1017787829041481
-0.10184638947248459
-0.07557055354118347
-0.023463673889636993
-0.11113196611404419
-0.0904122143983841
0.06785233318805695
-0.009550506249070168
0.02849535271525383
-0.12368590384721756
-0.08025466650724411
0.0068157813511788845
-0.10988957434892654
0.07746750861406326
-0.008939119055867195
-0.06226952373981476
0.10314562916755676
0.07045136392116547
-0.11254175752401352
0.050869833678007126
-0.06804435700178146
0.07697521150112152
-0.0734240710735321
0.016302350908517838
0.0023483058903366327
0.019305747002363205
-0.03640206530690193
-0.0712442547082901
-0.03627200052142143
0.11340179294347763
0.044853176921606064
0.06264278292655945
-0.10212778300046921
-0.018616115674376488
0.08938074111938477
-0.0913027822971344
0.0611259751021862
-0.030470116063952446
-0.052516382187604904
-0.009464877657592297
0.11804702132940292
-0.0716659352183342
-0.09886813908815384
-0.01364174485206604
-0.013314063660800457
0.010211795568466187
0.011415590532124043
-0.09601898491382599
-0.06488076597452164
0.08409414440393448
-0.11410463601350784
0.10882845520973206
0.15118369460105896
-0.12337592989206314
-0.034332919865846634
-0.08090220391750336
-0.06230445206165314
0.06662361323833466
-0.0753573328256607
0.08151821792125702
0.06152055412530899
0.14764291048049927
-0.11933081597089767
0.0948651060461998
-0.0076259286142885685
0.02560880035161972
-0.013119927607476711
-0.12416981905698776
-0.12208597362041473
0.1020507663488388
0.018138669431209564
0.08407500386238098
0.05989338085055351
-0.001649891142733395
0.045179761946201324
-0.0615030974149704
0.012759617529809475
0.01913927122950554
-0.1158493384718895
-0.07508741319179535
0.010943390429019928
0.09145519137382507
-0.017179185524582863
0.029939882457256317
-0.11450956016778946
0.07387839257717133
0.022132180631160736
-0.03998386114835739
-0.010501162149012089
0.04537329077720642
0.08766959607601166
0.052581414580345154
-0.06768491119146347
-0.10057654976844788
-0.08557575941085815
0.02269475720822811
-0.0009971410036087036
-0.12528428435325623
0.03490974009037018
-0.017790773883461952
0.07471556216478348
0.07200304418802261
-0.07867394387722015
-0.06031421571969986
0.06775397807359695
0.03451671451330185
-0.050150152295827866
-0.024848150089383125
0.02544531784951687
0.015145465731620789
-0.09623821079730988
0.01836981065571308
-0.007201026659458876
-0.11187246441841125
0.04250938445329666
0.0030789875891059637
0.07009148597717285
0.12347839027643204
-0.03430476784706116
0.12010300159454346
0.11229096353054047
-0.07887937128543854
0.07791688293218613
0.08032719045877457
-0.035523343831300735
-0.03331994637846947
-0.13136912882328033
0.12666742503643036
0.017494553700089455
-0.07757872343063354
-0.11440051347017288
0.003695823485031724
0.0398610457777977
0.04566973075270653
-0.026366060599684715
0.08904718607664108
-0.04197157174348831
0.13544782996177673
-0.06607603281736374
0.12498360127210617
0.04658977687358856
0.08353381603956223
0.14459951221942902
0.10268716514110565
-0.05528806895017624
0.058561135083436966
0.009287293069064617
-0.0173545703291893
0.11871156841516495
0.021656347438693047
-0.00649924436584115
0.05624760314822197
-0.07815461605787277
0.13809917867183685
-0.11160195618867874
-0.12151489406824112
-0.1454121321439743
-0.03152589872479439
0.0687897652387619
0.09864296764135361
0.012074864469468594
-0.039210014045238495
0.008862033486366272
-0.06356288492679596
-0.08852044492959976
0.10496171563863754
0.026461776345968246
-0.10258065909147263
-0.0851307138800621
-0.07609733194112778
0.06898541003465652
0.025314025580883026
0.016812117770314217
-0.13061262667179108
0.01299841795116663
-0.0049685705453157425
-0.04412305727601051
-0.023306671530008316
-0.11839225888252258
0.13479305803775787
0.024727383628487587
-0.08457216620445251
0.10258813947439194
0.10682843625545502
-0.06527077406644821
0.01610470749437809
0.10107622295618057
0.10173630714416504
-0.03339868783950806
0.10521861165761948
-0.07893684506416321
-0.12220259010791779
-0.023496704176068306
0.1162508875131607
0.07471472024917603
-0.054043591022491455
-0.07204275578260422
0.08768096566200256
-0.021771274507045746
-0.0903438851237297
-0.013993396423757076
0.0053784046322107315
-0.03843444958329201
-0.0622040294110775
-0.02455449104309082
0.08747942745685577
0.02615436725318432
-0.042483534663915634
-0.009432137943804264
0.01151200383901596
0.0964551568031311
0.10278459638357162
-0.07804625481367111
0.010447457432746887
-0.10941821336746216
-0.008730703964829445
0.09749293327331543
-0.04353221505880356
-0.049884404987096786
-0.063958078622818
0.03994601219892502
0.107930988073349
-0.11095255613327026
-0.01941668801009655
0.035031940788030624
0.004995775409042835
-0.1081223264336586
0.024554697796702385
-0.04496540501713753
-0.020839573815464973
0.062005095183849335
0.00494283577427268
-0.12391804903745651
-0.03531157225370407
-0.01889200508594513
-0.009901550598442554
-0.11358791589736938
0.14986515045166016
-0.12878523766994476
-0.020325608551502228
-0.03694486245512962
0.08829078078269958
0.10725562274456024
0.08955881744623184
0.12075082957744598
0.04180566594004631
0.0007638743845745921
-0.09087377041578293
0.10027436167001724
-0.04098102077841759
-0.004628015216439962
0.10862385481595993
-0.10620442032814026
-0.021062012761831284
-0.04236353188753128
-0.056413374841213226
-0.039251819252967834
-0.02455105260014534
0.07450369000434875
-0.10131783783435822
0.09237302094697952
-0.057217247784137726
-0.1095055341720581
-0.04527314007282257
-0.051889192312955856
-0.03704448044300079
0.07800479978322983
0.061340976506471634
-0.022716203704476357
-0.040141116827726364
-0.02167198620736599
-0.06681755930185318
0.08306368440389633
0.14070677757263184
-0.0903102308511734
-0.04290226474404335
-0.043109167367219925
0.030522704124450684
-0.02683630958199501
0.05987684428691864
-0.08504685014486313
0.03266840800642967
-0.11582382768392563
0.031315457075834274
0.14411284029483795
-0.07567063719034195
-0.10665295273065567
0.09168413281440735
0.07808782905340195
-0.08119968324899673
-0.09785346686840057
-0.016142673790454865
0.08160804957151413
-0.05378742143511772
-0.05534883588552475
0.08556558191776276
0.022269587963819504
-0.01354085374623537
-0.08851725608110428
0.06191482022404671
0.09433954954147339
-0.06084480881690979
-0.0774904116988182
-0.09431751817464828
0.12182846665382385
-0.019397132098674774
-0.09057626873254776
0.10766449570655823
0.022863812744617462
0.1177268922328949
-0.07178016752004623
-0.005392164923250675
-0.14172391593456268
-0.11393065005540848
0.07249370217323303
-0.008401130326092243
-0.09375034272670746
0.039100322872400284
-0.09495482593774796
-0.10690885782241821
-0.050880491733551025
0.1268014907836914
0.0025908302050083876
-0.12426100671291351
0.02093963325023651
-0.009561814367771149
0.09703602641820908
-0.09628599137067795
-0.01560221891850233
0.09272608906030655
0.057616326957941055
0.006225620396435261
-0.08761068433523178
0.06570188701152802
0.1386399120092392
0.11234409362077713
-0.07642597705125809
-0.05382094532251358
-0.002733189845457673
0.1018441841006279
-0.05291334167122841
0.017058895900845528
0.10211686789989471
0.10396064072847366
0.06280270963907242
-0.033261220902204514
-0.0657130554318428
0.05260743573307991
-0.0396035760641098
-0.1443219631910324
0.07629705965518951
0.019919713959097862
0.02001849003136158
-0.014740297570824623
-0.04673229157924652
0.13566705584526062
-0.0028549213893711567
0.10199262946844101
-0.13693194091320038
-0.00777845224365592
-0.011516202241182327
0.0310234222561121
-0.004319978412240744
-0.04638640582561493
-0.04830871522426605
-0.05793493241071701
-0.09430158138275146
0.15029384195804596
0.1283705085515976
0.03871346637606621
0.08287666738033295
-0.0872201919555664
0.10039336234331131
-0.013106213882565498
0.010375683195888996
0.049348752945661545
-0.054362762719392776
0.045988794416189194
0.04145951196551323
-0.0801565945148468
0.06264456361532211
0.11814311891794205
-0.07557961344718933
0.01807897724211216
-0.11647500097751617
0.07591063529253006
0.032807834446430206
0.08260812610387802
0.017932800576090813
-0.09597885608673096
-0.09090729802846909
0.08243638277053833
-0.0993967279791832
0.09374455362558365
-0.010828997008502483
-0.07214853167533875
0.03982880339026451
0.11562565714120865
0.019515831023454666
-0.0929746925830841
-0.10036452859640121
-0.06392041593790054
-0.01450500637292862
0.10791759938001633
0.07357747852802277
0.09085407108068466
-0.10102584213018417
-0.0296843983232975
0.05159619078040123
-0.08673472702503204
-0.100715771317482
0.016781039535999298
-0.00844217836856842
0.03141006827354431
-0.025318989530205727
0.0055195484310388565
-0.05567381531000137
-0.07612636685371399
-0.01133536547422409
0.10016069561243057
-0.07040119916200638
0.07960162311792374
0.03407926857471466
-0.008090302348136902
-0.013576584868133068
-0.04883554205298424
-0.09942372888326645
0.02751162461936474
-0.052388228476047516
0.012353592552244663
-0.011482632718980312
-0.05425889045000076
-0.04877769201993942
-0.06970267742872238
-0.10807272046804428
-0.0010657132370397449
0.033787764608860016
0.06049562990665436
-0.12686367332935333
-0.009151184000074863
0.05151289328932762
0.11413169652223587
-0.009983816184103489
-0.12245538085699081
-0.02683129906654358
-0.11389758437871933
0.036116909235715866
-0.05125662311911583
-0.02320900373160839
-0.07056552916765213
-0.011753400787711143
-0.07241873443126678
0.09944099187850952
0.002665481762960553
-0.09983967989683151
-0.014779987744987011
0.05159590393304825
-0.059700313955545425
0.012986982241272926
0.07598886638879776
-0.07235994935035706
-0.03314827010035515
0.005013222806155682
-0.07043007761240005
0.01808314397931099
-0.11497675627470016
-0.04564831033349037
0.005734744481742382
-0.1053212583065033
0.11692916601896286
0.0559215284883976
0.02226601354777813
-0.08838794380426407
-0.021751202642917633
-0.1077747642993927
-0.08776788413524628
0.1020263135433197
-0.0858566015958786
0.0577055923640728
0.12489534169435501
0.07490649819374084
0.08365285396575928
-0.04069364815950394
0.04174966365098953
-0.016124103218317032
0.0013248600298538804
-0.09763357788324356
0.011282234452664852
0.06601032614707947
0.03955307602882385
-0.05972167104482651
-0.07847609370946884
-0.015853846445679665
0.07787209004163742
-0.03234359994530678
0.10314223170280457
-0.0046541206538677216
-0.009103613905608654
0.040545303374528885
0.03770847246050835
0.09604512155056
-0.11636526137590408
0.06648602336645126
-0.01305267121642828
0.08281654864549637
-0.10154998302459717
-0.07642590254545212
0.13130462169647217
-0.0035601570270955563
-0.11274079978466034
-0.008821259252727032
-0.055363480001688004
-0.09027788043022156
-0.12526902556419373
-0.06299716979265213
0.09160996228456497
-0.015573052689433098
0.10461658984422684
-0.0053039537742733955
-0.044603314250707626
0.08674845099449158
0.08579302579164505
0.0807366818189621
-0.05212247744202614
0.09545598924160004
-0.026409219950437546
0.06386107206344604
-0.01806906796991825
0.06256889551877975
0.015732474625110626
-0.0641760304570198
0.039297472685575485
0.1135861873626709
-0.09346158057451248
0.0739661455154419
0.059065233916044235
-0.09294510632753372
0.12215206027030945
0.08124379068613052
0.0056034233421087265
0.04536524787545204
0.09177196770906448
0.045154787600040436
-0.08142851293087006
-0.03756210580468178
-0.009293440729379654
-0.06496910005807877
-0.022921964526176453
-0.10648876428604126
-0.08545371145009995
0.11120392382144928
0.08563096076250076
-0.06928890943527222
0.10813990235328674
-0.11015535145998001
0.08024588972330093
-0.005243991501629353
0.11790916323661804
0.037456806749105453
0.01884918287396431
-0.07292944192886353
0.04973863065242767
0.014080964028835297
0.0033419958781450987
-0.056132521480321884
-0.045030377805233
0.06588289141654968
-0.10942432284355164
-0.07383318990468979
-0.10753513872623444
0.06754820048809052
-0.11154527962207794
-0.01081809587776661
0.034388165920972824
-0.021347088739275932
0.03184192255139351
-0.019720127806067467
0.11876625567674637
-0.09039824455976486
0.06521885842084885
0.01862167753279209
-0.112848661839962
0.06897909194231033
-0.017555227503180504
0.06310787796974182
0.08833836764097214
-0.11280041933059692
-0.033773038536310196
0.06866541504859924
-0.09933297336101532
0.0623847134411335
-0.08016815036535263
0.11552362143993378
-0.00786285474896431
0.0994773730635643
-0.0252780020236969
0.13671688735485077
0.059851519763469696
-0.11243926733732224
-0.03346595913171768
-0.09561481326818466
0.05972086265683174
-0.1321193277835846
-0.05226336419582367
0.10559320449829102
-0.0034600296057760715
-0.0315813347697258
0.042138610035181046
0.08518297970294952
-0.0721677765250206
-0.09327777475118637
0.005625016521662474
0.10090655833482742
0.09329409152269363
-0.04600268974900246
0.07280969619750977
0.06201333552598953
-0.08456581830978394
-0.05970659852027893
0.04312973469495773
-0.01841973513364792
0.03838542848825455
0.001737104495987296
-0.09841464459896088
0.001817628974094987
0.011375817470252514
0.03476487100124359
0.11003225296735764
0.00016987186972983181
0.04057389870285988
0.012695372104644775
-0.06388875097036362
-0.07821031659841537
-0.03065537102520466
-0.05223878473043442
-0.0722789317369461
-0.005297644063830376
-0.037078071385622025
0.10347127169370651
-0.0986691415309906
-0.1071721762418747
-0.04125664010643959
-0.11751306802034378
-0.07354799658060074
0.06850065290927887
0.04999562352895737
0.04482578858733177
0.12587520480155945
-0.10112490504980087
-0.05885147303342819
-0.11042529344558716
-0.11142778396606445
-0.05000000447034836
0.08388330787420273
0.006951786577701569
-0.0026399160269647837
-0.025452513247728348
-0.09764423221349716
-0.019631098955869675
0.0776839330792427
-0.05413172394037247
-0.0719558596611023
-0.004268825985491276
-0.013317855075001717
0.07371537387371063
-0.06028599664568901
0.06112820282578468
-0.1054578423500061
0.04037411883473396
-0.07614218443632126
-0.04336092248558998
0.07098029553890228
-0.08331680297851562
-0.03915137052536011
-7.541772356489673e-05
-0.12640102207660675
-0.02987557090818882
0.019455837085843086
0.013107365928590298
-0.06945540755987167
-0.00882992148399353
0.037631068378686905
-0.022225331515073776
-0.042903658002614975
-0.11314989626407623
-0.06934967637062073
0.04193233326077461
-0.07519248872995377
-0.06948348134756088
-0.023629862815141678
-0.006060045678168535
0.007340464275330305
0.1213284283876419
-0.05808151140809059
0.037032756954431534
-0.015034867450594902
0.0735941231250763
-0.0063405390828847885
0.017067788168787956
-0.11951989680528641
-0.10441287606954575
-0.08419213443994522
-0.10518180578947067
-0.10184566676616669
-0.079483762383461
0.049012549221515656
-0.06887360662221909
0.05702606588602066
-0.05807287245988846
0.1314532309770584
-0.0446125790476799
0.06470005959272385
0.10697779804468155
-0.07360289990901947
-0.08372903615236282
-0.1127161756157875
0.08243712037801743
0.05756976827979088
0.022709369659423828
0.07206537574529648
-0.11069191992282867
-0.05435948073863983
-0.1320914626121521
-0.10456310212612152
0.08701114356517792
0.07788310199975967
-0.1054140105843544
0.11284759640693665
0.057930056005716324
-0.036957427859306335
0.13431629538536072
0.024182725697755814
-0.10286084562540054
-0.10872504860162735
-0.07645276188850403
0.001230960595421493
0.06878304481506348
0.05531417950987816
0.1129102110862732
-0.03682878613471985
0.11466076225042343
-0.08740083873271942
-0.009725837036967278
0.09856449067592621
0.050281353294849396
0.09615450352430344
0.01663217879831791
0.0519973561167717
-0.1059395894408226
0.06214461475610733
0.1267346739768982
-0.04298456013202667
0.018711717799305916
0.002085323678329587
-0.04158227518200874
0.018336841836571693
0.038778070360422134
0.05746424198150635
-0.09126846492290497
0.020919086411595345
0.02684694528579712
-0.11200423538684845
0.07053831964731216
-0.04668150469660759
0.046550460159778595
-0.04970652610063553
0.1268981695175171
-0.02944192662835121
0.099502794444561
-0.018273957073688507
0.05638705566525459
0.10983046889305115
-0.11401761323213577
0.03685067221522331
-0.09200125932693481
0.1239597424864769
-0.0865689367055893
-0.11806116253137589
-0.11374734342098236
0.11935543268918991
-0.09356781840324402
0.00809510052204132
-0.0018971937242895365
-0.03947246074676514
-0.09484712034463882
0.06304266303777695
0.04079701378941536
0.052361004054546356
-0.10290733724832535
0.037873152643442154
-0.10275868326425552
0.015400678850710392
0.08693557977676392
-0.11008881777524948
0.03919993340969086
-0.010315658524632454
0.01111028715968132
-0.12319774180650711
-0.08878453075885773
-0.062176238745450974
-0.07434022426605225
0.1213967353105545
0.08485672622919083
-0.08461252599954605
0.049138326197862625
0.02286910079419613
-0.04038679227232933
0.024774864315986633
-0.11700830608606339
-0.008241839706897736
0.03591824695467949
-0.008369339630007744
0.01740080490708351
0.01198041532188654
-0.05314197763800621
-0.04519398510456085
0.14555196464061737
0.04124011844396591
0.008485973812639713
0.11727921664714813
-0.060398202389478683
-0.11686315387487411
0.011050025932490826
-0.10720665752887726
0.022361204028129578
0.025629691779613495
-0.0038108904846012592
0.10448212176561356
-0.04544579237699509
0.03128543123602867
-0.09133987873792648
0.07174177467823029
0.06265897303819656
0.10577934235334396
0.13111500442028046
0.06475669890642166
0.030488289892673492
-0.03874459117650986
0.07151761651039124
0.04834412410855293
0.08957336097955704
-0.04805927351117134
-0.004475785419344902
-0.012210419401526451
0.08213632553815842
0.10396653413772583
-0.035215508192777634
0.07791520655155182
0.12193171679973602
-0.0833955854177475
-0.10980144888162613
0.02617637626826763
0.02659492939710617
0.05324706807732582
0.018154004588723183
0.09084173291921616
-0.10591603070497513
-0.11356953531503677
-0.06177540495991707
0.06772224605083466
0.07075228542089462
-0.041188739240169525
-0.03980964794754982
0.014730138704180717
-0.00711932172998786
-0.03299640119075775
-0.03481147810816765
-0.1127992570400238
0.052957188338041306
-0.07324942946434021
-0.057496774941682816
-0.017500199377536774
-0.026051273569464684
0.010525427758693695
0.06082348898053169
-0.11709281802177429
0.01705094985663891
-0.02146288752555847
0.0410248339176178
0.12804636359214783
-0.044764742255210876
-0.0790766030550003
-0.06739553064107895
-0.015483230352401733
-0.03863101452589035
-0.07344003766775131
-0.12171904742717743
-0.05648240074515343
-0.10607676953077316
0.027902252972126007
0.0366780124604702
-0.11175304651260376
-0.017215870320796967
0.06497661024332047
0.05941310524940491
-0.0842084288597107
0.017601244151592255
-0.042750466614961624
0.1328398734331131
-0.05671487748622894
-0.05614320933818817
0.09351915121078491
-0.07862291485071182
-0.09420165419578552
-0.10808342695236206
-0.051771100610494614
-0.06045568361878395
-0.12905395030975342
0.042845468968153
0.13916751742362976
-0.08448149263858795
0.11329451203346252
-0.053500618785619736
-0.03035774640738964
0.038231685757637024
-0.09127780050039291
0.03388039022684097
-0.0035255595576018095
-0.1104118674993515
0.07586238533258438
0.08025399595499039
-0.10559405386447906
0.13497881591320038
-0.10370693355798721
-0.06703116744756699
0.070005863904953
0.1462240070104599
-0.043349526822566986
0.01969541236758232
-0.09762242436408997
0.042733084410429
0.12766048312187195
0.016060974448919296
0.07154388725757599
-0.025770634412765503
0.0002932111965492368
0.10660998523235321
-0.11826333403587341
0.10090549290180206
0.1114790216088295
-0.09458912909030914
0.01399766094982624
0.12412398308515549
0.08523688465356827
-0.016842981800436974
-0.05220727622509003
-0.11218467354774475
-0.061370883136987686
-0.022709965705871582
0.0789770632982254
0.05674830451607704
0.0407499223947525
-0.09722448140382767
0.001144813490100205
-0.11550357192754745
-0.0013087730621919036
0.07362537086009979
-0.03687245398759842
0.00047803641064092517
0.05891677364706993
-0.0551971010863781
-0.06815353780984879
-0.03276330977678299
-0.007688863202929497
-0.01262639183551073
-0.008357575163245201
0.12370839715003967
0.11186611652374268
0.0980159342288971
-0.07718031853437424
-0.00962522067129612
-0.09962191432714462
0.15886884927749634
0.05245783552527428
0.09644588828086853
0.013996675610542297
-0.07646842300891876
0.06587312370538712
-0.04875152185559273
0.13845644891262054
-0.07951811701059341
0.05328885838389397
0.00550137460231781
0.03678179904818535
-0.10623925924301147
-0.03364471718668938
0.09525112807750702
0.06632891297340393
-0.11486829817295074
0.023398946970701218
-0.03651484474539757
-0.0730346068739891
0.07756650447845459
0.012157313525676727
0.009111621417105198
0.030455956235527992
0.1348346769809723
0.009279336780309677
-0.06807955354452133
-0.03996893763542175
0.07108395546674728
0.08438635617494583
0.04150886461138725
-0.10317151248455048
-0.015097351744771004
-0.030409133061766624
-0.07971266657114029
-0.07760611921548843
0.011127110570669174
0.10627706348896027
0.0397624596953392
0.0745207816362381
0.03582070767879486
0.09929041564464569
-0.025601927191019058
-0.11664439737796783
-0.131769061088562
-0.02394692786037922
0.11456947773694992
0.03345557302236557
-0.0283809807151556
0.08181235194206238
0.07400927692651749
0.05063723027706146
-0.10269088298082352
-0.0659472793340683
-0.030402539297938347
-0.02840818464756012
0.09128820151090622
-0.09740987420082092
-0.01253256294876337
0.05559338256716728
0.028909627348184586
-0.0949423536658287
-0.023664597421884537
0.0460328571498394
-0.049691010266542435
-0.02744975872337818
0.037648674100637436
-0.06759723275899887
-0.08251987397670746
-0.09796056151390076
-0.10791965574026108
-0.022206924855709076
-0.10731310397386551
-0.04968275874853134
-0.06025281175971031
0.06041223555803299
0.0735575333237648
0.035420432686805725
0.10850627720355988
0.07861001044511795
-0.0585671067237854
-0.0530620813369751
0.06832356005907059
-0.11707594990730286
-0.09815962612628937
0.035437025129795074
-0.05494743585586548
-0.08902706950902939
-0.023373126983642578
-0.03692925348877907
0.07953445613384247
0.14616523683071136
-0.07799062132835388
-0.11809984594583511
-0.08664179593324661
0.024929353967308998
-0.09510400146245956
-0.04743294417858124
-0.04087962210178375
-0.07119961082935333
0.08637862652540207
0.04418179392814636
0.08651367574930191
-0.10048146545886993
-0.01850554719567299
0.05929883196949959
0.007423211354762316
0.06298796087503433
-0.018211474642157555
-0.09645827114582062
-0.09502729773521423
0.130134716629982
-0.11434187740087509
-0.1131732389330864
0.02080702967941761
-0.06610387563705444
-0.06355202943086624
-0.07325659692287445
-0.025072993710637093
0.004666829016059637
-0.03970036283135414
0.08370036631822586
0.02936449460685253
0.10266413539648056
0.06907325983047485
0.14016905426979065
0.0127470213919878
-0.008138814941048622
-0.13250170648097992
0.129244863986969
-0.06058955937623978
-0.04352874681353569
0.04686744138598442
-0.04789254441857338
0.004855906590819359
-0.008315851911902428
-0.03224105387926102
-0.00916457362473011
0.04297477751970291
-0.008112747222185135
-0.01496819220483303
-0.04846186935901642
0.12385550886392593
0.07824692130088806
0.07880112528800964
0.15703633427619934
-0.04485755041241646
0.042763806879520416
-0.050427235662937164
0.1231316328048706
-0.09821036458015442
0.10471878945827484
0.06104272976517677
-0.11200372874736786
0.12472741305828094
-0.012243345379829407
0.08593851327896118
0.0451209656894207
-0.08070290088653564
-0.04630260169506073
0.09767992794513702
-0.07245640456676483
0.0885360836982727
0.09658436477184296
0.03911871090531349
0.043552711606025696
-0.036027710884809494
0.00887564942240715
0.0934239849448204
-0.031694184988737106
0.031793709844350815
0.08057689666748047
0.12192811071872711
0.13116057217121124
0.12521618604660034
-0.0019350385991856456
-0.050892069935798645
-0.10021421313285828
0.12596827745437622
-0.06049840524792671
-0.008160549215972424
0.15179851651191711
-0.0644315704703331
-0.08688923716545105
0.09753943234682083
-0.10791125893592834
0.04668286442756653
-0.0013914993032813072
-0.0646510049700737
0.0017598289996385574
-0.0006141921621747315
0.02796725183725357
-0.06795377284288406
0.0906994566321373
0.0322575569152832
-0.09149657189846039
0.09529168903827667
-0.09809430688619614
-0.10492067784070969
-0.09397245943546295
-0.012950815260410309
0.05138276889920235
0.05803769454360008
-0.15000970661640167
-0.05501723289489746
0.05801922827959061
-0.0764179453253746
-0.011555079370737076
0.044778142124414444
0.05634644627571106
0.03806095942854881
-0.027643438428640366
-0.10969924181699753
0.07236432284116745
-0.006126897409558296
-0.10491529107093811
0.04434358328580856
-0.07903686910867691
-0.09623701125383377
-0.10267067700624466
0.009057569317519665
0.05740884318947792
-0.046876296401023865
-0.010647634975612164
-0.02943558804690838
-0.0503992959856987
0.020388897508382797
-0.018509432673454285
0.03337329998612404
-0.06874151527881622
0.00915463175624609
0.07886064052581787
-0.07554028928279877
0.09156621992588043
-0.058725617825984955
-0.018684886395931244
-0.10608084499835968
0.03417801484465599
0.10909127444028854
0.10524237155914307
0.041304077953100204
0.1224045529961586
-0.054061658680438995
-0.04048573598265648
0.09336018562316895
-0.07281138002872467
0.10734428465366364
-0.0966239720582962
0.050387367606163025
0.05231642723083496
-0.007010434288531542
0.02806551568210125
-0.01765369437634945
0.10753396153450012
-0.04101598635315895
0.12067671865224838
-0.06888539344072342
-0.048750173300504684
0.0009236862533725798
-0.05724461004137993
0.06816872209310532
-0.05651587247848511
-0.0019073111470788717
0.12564389407634735
-0.045267004519701004
0.13251648843288422
0.09485656768083572
0.041344135999679565
-0.11575815826654434
-0.045940373092889786
-0.07402019202709198
0.04396175220608711
-0.012509079650044441
0.02476617507636547
-0.0500091090798378
-0.06520258635282516
0.019882461056113243
-0.002143883379176259
0.016521602869033813
0.12400563061237335
0.048988357186317444
0.09285563975572586
0.14577741920948029
0.08895601332187653
0.08479998260736465
-0.041627734899520874
-0.08220966905355453
-0.03131735697388649
0.08360027521848679
-0.09396614134311676
0.11995088309049606
0.06911028921604156
-0.0980268344283104
0.09204144030809402
-0.11686670780181885
-0.07809683680534363
0.11275233328342438
-0.10962016880512238
-0.02998511679470539
-0.018949372693896294
-0.06714878231287003
0.06930498778820038
-0.07820233702659607
-0.10422362387180328
0.06125422567129135
-0.049244098365306854
-0.10607181489467621
0.021515564993023872
-0.11537162959575653
-0.05410149693489075
0.05174808204174042
-0.10648537427186966
-0.08584225177764893
-0.04207320883870125
-0.10005024075508118
-0.006001301109790802
0.11702907085418701
-0.00283751985989511
-0.01258848886936903
-0.030472146347165108
-0.11867155134677887
-0.09966239333152771
0.10704519599676132
-0.010004958137869835
0.08177569508552551
0.10245222598314285
-0.07259709388017654
-0.053738176822662354
0.057482846081256866
-0.07394502311944962
-0.04888202250003815
-0.0007369111408479512
-0.05007943883538246
-0.012043499387800694
0.10769996047019958
0.13770461082458496
0.008103095926344395
-0.028562016785144806
-0.037169329822063446
-0.04457072168588638
0.1150112897157669
0.07645399123430252
-0.08328646421432495
-0.06204136461019516
0.11803948134183884
0.013791567645967007
0.0077345846220850945
-0.03207389637827873
-0.07901927828788757
0.07898904383182526
-0.10696716606616974
0.09645184129476547
0.10793659836053848
0.012466014362871647
-0.05331607535481453
0.15051788091659546
-0.1100611686706543
-0.11598986387252808
-0.09901243448257446
-0.057231176644563675
-0.048526663333177567
-0.03492818772792816
-0.12613432109355927
-0.053984686732292175
0.03150113299489021
-0.09915665537118912
-0.08748283237218857
0.03373698517680168
0.05969312787055969
0.07433918118476868
0.15353789925575256
-0.08064631372690201
0.08649542182683945
0.08103174716234207
-0.012919798493385315
-0.048977624624967575
-0.027423914521932602
-0.002184254117310047
-0.013954520225524902
0.10782413929700851
-0.1353035867214203
-0.09888669103384018
-0.09650879353284836
0.14807471632957458
-0.08394068479537964
-0.026859842240810394
-0.11118950694799423
0.046343039721250534
-0.024609750136733055
-0.012803204357624054
0.05846002697944641
0.13411827385425568
0.10299012809991837
-0.03663806989789009
-0.09407784044742584
-0.06690312176942825
-0.1195906475186348
-0.11112435162067413
0.024122482165694237
0.10343193262815475
0.038177069276571274
0.09545811265707016
0.1134062334895134
-0.00916073378175497
0.1363680064678192
0.05852610617876053
0.14924441277980804
-0.041590940207242966
0.042560022324323654
-0.06751096993684769
0.05691900849342346
0.019624505192041397
-0.010308468714356422
-0.08741224557161331
0.054086826741695404
-0.015047275461256504
-0.12328790128231049
-0.0332869254052639
-0.018816128373146057
0.06332670152187347
0.007367877289652824
-0.10172165930271149
0.0014720431063324213
-0.0030232658609747887
0.027852017432451248
0.012126140296459198
-0.08015486598014832
0.09203273802995682
0.11671169102191925
0.045351266860961914
0.04872491955757141
-0.04109279811382294
-0.02062201127409935
-0.014358395710587502
0.03321655094623566
-0.05667969956994057
0.018313491716980934
0.022475911304354668
-0.00751049630343914
-0.005073884502053261
-0.09691702574491501
-0.09731044620275497
0.03296874836087227
0.027084819972515106
-0.10554028302431107
0.032672349363565445
0.11906052380800247
-0.09728177636861801
0.12065685540437698
0.03028981015086174
0.10706672817468643
0.09394440054893494
-0.0201413631439209
0.0598139688372612
-0.017955711111426353
-0.0433574914932251
-0.040028493851423264
0.10222659260034561
0.04624583572149277
-0.06594213098287582
0.07657928019762039
-0.0709838941693306
-0.021858640015125275
0.11472971737384796
-0.11947355419397354
-0.11318597942590714
0.08884759992361069
0.11924136430025101
-0.11184326559305191
0.01622903160750866
-0.011416560970246792
-0.11306598782539368
-0.10407213121652603
-0.10843058675527573
-0.008308681659400463
-0.13019633293151855
-0.10933450609445572
0.03389331325888634
0.05254874378442764
-0.05667278543114662
0.005423386115580797
-0.01928606815636158
-0.10885562002658844
0.1129928007721901
-0.017117585986852646
-0.05771169811487198
-0.10467454046010971
-0.041309405118227005
0.040800049901008606
-0.03525660187005997
-0.08528144657611847
0.062420886009931564
0.11160019040107727
-0.10735463351011276
-0.10756529122591019
-0.0281880684196949
-0.03948399797081947
0.10084023326635361
0.010258065536618233
0.044211097061634064
0.10960565507411957
0.08004923164844513
0.011480444110929966
0.09718988835811615
-0.07914547622203827
-0.1148524358868599
0.07325893640518188
0.060276731848716736
0.04806065931916237
-0.11448096483945847
0.029583198949694633
-0.10419917851686478
-0.02093648351728916
0.019082501530647278
0.09680280834436417
0.10231229662895203
0.0957849770784378
0.10372299700975418
0.09335599839687347
0.05561872199177742
0.004523676820099354
-0.07142478972673416
0.030869515612721443
-0.04489817097783089
0.13222190737724304
-0.05668102949857712
-0.12262402474880219
0.052123524248600006
0.04202335700392723
-0.07249688357114792
0.03781065717339516
-0.039496466517448425
-0.06665387004613876
-0.05150385946035385
0.039710696786642075
0.0890638455748558
-0.03987332060933113
0.11796864867210388
-0.04361140727996826
-0.05553397536277771
0.03613591566681862
-0.06304789334535599
-0.08292346447706223
0.11399649828672409
0.003451363882049918
-0.10988117009401321
0.08666214346885681
-0.03791697695851326
-0.09199770539999008
-0.028691673651337624
-0.11894875019788742
0.11168719828128815
0.036219075322151184
-0.11996059119701385
-0.03435011953115463
0.06260830909013748
0.05527762696146965
0.08385750651359558
0.0035926022101193666
-0.11074374616146088
-0.06519368290901184
0.09255316108465195
0.12344300001859665
-0.010493655689060688
-0.1172608882188797
0.007426605559885502
-0.0785321295261383
-0.10772409290075302
-0.12051449716091156
0.0779900997877121
0.10879731178283691
-0.05241408571600914
0.06049363315105438
-0.06925241649150848
0.022025100886821747
0.1002064123749733
-0.11680810898542404
-0.01923171430826187
-0.11285410821437836
-0.08221622556447983
-0.03521218150854111
-0.036637090146541595
0.062400709837675095
-0.03053664229810238
-0.057069387286901474
0.08045730739831924
-0.06162892282009125
0.0849003940820694
-0.1176585853099823
0.13079524040222168
-0.10805618762969971
-0.05566209927201271
0.06052013859152794
-0.05853602662682533
-0.10801293700933456
0.004881486762315035
-0.0721827894449234
0.11384208500385284
-0.06852332502603531
-0.03074020706117153
-0.09197119623422623
-0.11947070062160492
0.03956726938486099
-0.1284499168395996
-0.07688536494970322
0.1009533628821373
-0.10623547434806824
0.0019472063286229968
0.0010692140785977244
0.034290704876184464
0.06560149788856506
0.07764215767383575
-0.04694065824151039
-0.08486057817935944
0.040351998060941696
-0.06211041659116745
0.04080682992935181
0.019080407917499542
0.05014803633093834
0.08153816312551498
0.046942684799432755
-0.06765161454677582
-0.10605211555957794
-0.0730389952659607
0.0004248092882335186
-0.09294716268777847
0.04421183839440346
0.12696605920791626
-0.043863147497177124
-0.09926418960094452
-0.055340588092803955
-0.0004571674799080938
-0.09537538886070251
-0.11616263538599014
-0.08249113708734512
-0.006039622705429792
0.03348948806524277
-0.10753859579563141
-0.06071136146783829
0.09483222663402557
0.0068652029149234295
0.06362579762935638
-0.07424557954072952
0.037625741213560104
-0.028324896469712257
0.030858006328344345
-0.06357946991920471
0.0022853210102766752
-0.10295822471380234
0.12271975725889206
-0.12171068787574768
-0.08240807056427002
0.030972041189670563
0.11633607745170593
0.06611677259206772
-0.06715640425682068
-0.017471469938755035
-0.028119336813688278
-0.030495529994368553
0.03323478251695633
0.10432159155607224
0.042809683829545975
0.025271112099289894
-0.003994348458945751
-0.04373709484934807
0.013377918861806393
-0.01606180891394615
0.1041519045829773
0.012898799031972885
0.05533990263938904
0.12116867303848267
0.11943361908197403
-0.08047217130661011
-0.08575958013534546
0.009968274272978306
0.10887879133224487
-0.1155511885881424
-0.0805400088429451
-0.0897686704993248
-0.1184081882238388
0.10580910742282867
0.10479101538658142
-0.09986981749534607
0.026766236871480942
0.047149658203125
-0.08039657771587372
0.033334746956825256
0.07320695370435715
-0.012491894885897636
0.060008756816387177
0.0010441620834171772
-0.11050746589899063
0.09668736904859543
-0.0271281898021698
0.07279668003320694
0.06747158616781235
-0.053944386541843414
-0.03063422068953514
0.10855916887521744
0.07619592547416687
-0.07978165149688721
-0.06028437986969948
0.011121461167931557
-0.012316437438130379
-0.09642096608877182
-0.07667537778615952
-0.05038072168827057
0.06507425010204315
-0.08647055923938751
0.03125787526369095
0.1128830835223198
-0.07263460755348206
-0.0454903319478035
0.06393621861934662
0.08300932496786118
0.08899623155593872
0.09656824916601181
-0.013321920298039913
-0.11802636086940765
0.07930988818407059
0.007465143222361803
-0.0901803970336914
-0.0021595261059701443
0.051765188574790955
-0.10002223402261734
0.05748027563095093
0.014834756962954998
0.052906863391399384
-0.031297799199819565
0.015490362420678139
0.12086635082960129
0.10780249536037445
-0.023412644863128662
0.05576019734144211
0.08984021842479706
0.005436784587800503
0.04454915598034859
0.03650470823049545
-0.09379211068153381
-0.06648442149162292
0.09426576644182205
0.10081231594085693
0.11055664718151093
0.0284808948636055
0.03312520310282707
0.027613313868641853
0.10375369340181351
0.012975079007446766
-0.07801996916532516
0.11185051500797272
0.06606739014387131
0.07717698812484741
0.012928186915814877
-0.09974797815084457
0.06752834469079971
0.049150776118040085
-0.050636399537324905
0.016444554552435875
0.08838856220245361
-0.08281251788139343
0.033797331154346466
-0.03669079765677452
0.03353537619113922
0.10650163143873215
-0.028123777359724045
-0.07794931530952454
-0.04577276483178139
-0.1012706384062767
0.04677094519138336
-0.08418399095535278
0.07020748406648636
0.07041138410568237
0.08302892744541168
-0.09184976667165756
0.009784426540136337
-0.04498578608036041
-0.0132288858294487
0.0862351655960083
-0.0010627071605995297
-0.06643660366535187
0.056677959859371185
-0.06857925653457642
0.1190328299999237
-0.05467792600393295
0.004428267478942871
0.10002829879522324
-0.02709837071597576
0.06702394783496857
0.06634844839572906
0.06999669969081879
-0.023932699114084244
-0.06486153602600098
0.08529499918222427
0.036205828189849854
-0.0640641450881958
0.08152590692043304
-0.04461675137281418
-0.11686497926712036
0.10289501398801804
0.07084235548973083
0.030452381819486618
0.04756661877036095
-0.10912155359983444
-0.04324427619576454
0.07976911216974258
0.06174328550696373
0.07699594646692276
-0.024175817146897316
-0.014116540551185608
-0.040421076118946075
0.11612141877412796
0.05210723727941513
0.040924470871686935
-0.0011322214268147945
0.07120814174413681
0.10553009808063507
0.08257054537534714
-0.11215339601039886
-0.028736967593431473
0.07416184991598129
-0.01992020383477211
0.1158609390258789
-0.08439269661903381
-0.0668313056230545
-0.019041359424591064
0.06404183059930801
-0.06582995504140854
-0.04315624758601189
-0.1174122542142868
0.10413055121898651
-0.04382936283946037
-0.07168487459421158
0.027883009985089302
-0.06506561487913132
-0.036950867623090744
-0.122158482670784
-0.104982890188694
0.0717538595199585
0.11738922446966171
0.12948837876319885
-0.08694040775299072
-0.10455354303121567
0.039070237427949905
0.030133508145809174
-0.020715581253170967
-0.05553532391786575
-0.04964381828904152
-0.10510620474815369
0.02384565770626068
0.026329124346375465
0.00801544077694416
-0.0741727352142334
-0.0027960368897765875
0.04362799599766731
-0.035502154380083084
-0.01654571294784546
-0.10383448004722595
-0.060655850917100906
0.053060583770275116
0.101046122610569
-0.051222946494817734
-0.12451814115047455
-0.09150511026382446
-0.01648186519742012
0.10021127760410309
0.07939057052135468
-0.08570975810289383
-0.056559983640909195
-0.0784604400396347
-0.08289986103773117
0.07799547165632248
0.06650718301534653
-0.11195801943540573
-0.0895182266831398
-0.10809185355901718
-0.05754591152071953
0.0018027552869170904
0.09003637731075287
-0.10100652277469635
0.009807862341403961
-0.0858103483915329
-0.02311917021870613
0.0006850266945548356
-0.031422439962625504
-0.018483903259038925
-0.014141463674604893
0.004121133591979742
-0.010257430374622345
-0.07857904583215714
-0.04290385544300079
0.08355483412742615
-0.07008274644613266
0.08626937866210938
0.013801658526062965
-0.022587530314922333
-0.012278862297534943
-0.09129364788532257
0.016892384737730026
-0.029608312994241714
0.1009107157588005
0.07977969944477081
-0.06714380532503128
-0.019444691017270088
0.07367276400327682
-0.0659162700176239
-0.12274889647960663
0.0032579973340034485
-0.02832699939608574
-0.06787927448749542
-0.10401470214128494
-0.05382072925567627
-0.020447729155421257
0.02196446992456913
0.02744089998304844
0.032160643488168716
0.022987326607108116
-0.1138198971748352
0.12302760779857635
0.02199535444378853
-0.02137160860002041
0.10537690669298172
0.017775727435946465
-0.01975460723042488
0.11692595481872559
0.013562271371483803
-0.11420056223869324
0.06713659316301346
-0.008544649928808212
0.09893650561571121
0.030281780287623405
0.07629365473985672
0.02787032537162304
0.06337228417396545
0.08312693983316422
0.09787000715732574
0.06252925097942352
0.009297099895775318
0.1040426567196846
-0.05654684454202652
0.032563939690589905
-0.09109753370285034
-0.10535746812820435
-0.07810737192630768
-0.10718953609466553
-0.044481489807367325
0.13512489199638367
-0.04133171960711479
-0.05706743523478508
0.012550221756100655
0.11306897550821304
0.08135534822940826
0.08555322140455246
0.10300834476947784
-0.07282768189907074
0.0004008190589956939
-0.058340735733509064
0.017277561128139496
0.009932308457791805
-0.03117874450981617
0.11774959415197372
0.04543076455593109
-0.06644058972597122
-0.0016469312831759453
-0.043307818472385406
-0.11406150460243225
0.08434777706861496
-0.0846276506781578
0.051321983337402344
-0.014949590899050236
0.053323857486248016
0.1268376111984253
-0.07143721729516983
-0.022841479629278183
0.060208678245544434
-0.10451795905828476
0.04480583965778351
0.08105632662773132
0.10617387294769287
0.07798502594232559
0.09201133251190186
-0.11212135851383209
0.1324111372232437
0.06873428076505661
0.08427257090806961
-0.02883676439523697
-0.0545000284910202
-0.015202701091766357
0.0641501247882843
-0.11364876478910446
-0.07554452121257782
0.10094359517097473
-0.1219838336110115
-0.07369286566972733
0.008132604882121086
0.03267747163772583
-0.07785753160715103
0.10667038708925247
0.045830585062503815
-0.11649123579263687
-0.06607594341039658
-0.005914921872317791
-0.04065006598830223
0.05796847119927406
-0.07848236709833145
-0.012886885553598404
-0.10602397471666336
0.06114669144153595
0.04800105467438698
0.0054302094504237175
0.0236294437199831
-0.052605871111154556
-0.004161480348557234
-0.09916727989912033
-0.04421267285943031
0.021154485642910004
0.01690850406885147
0.03564100340008736
-0.07491537928581238
-0.027254460379481316
0.03640102222561836
0.046559274196624756
-0.11912286281585693
0.10783854126930237
0.044250454753637314
-0.049778543412685394
0.030041443184018135
0.04175122454762459
-0.10580404847860336
0.06601773947477341
0.06922098994255066
0.0785221979022026
0.0525829903781414
-0.061174020171165466
-0.0734388679265976
0.09774057567119598
0.06831925362348557
0.04133959114551544
-0.08309608697891235
-0.02612144872546196
-0.08752859383821487
-0.042291488498449326
0.024307837709784508
-0.010072082281112671
-0.0787854865193367
0.06427943706512451
0.06595446169376373
-0.05791202187538147
0.13432501256465912
-0.11600708961486816
-0.025198042392730713
-0.08854345977306366
0.07704103738069534
-0.06793288141489029
-0.037439167499542236
-0.005089653190225363
0.08669131994247437
0.043391160666942596
0.044566184282302856
0.0587407723069191
-0.039917245507240295
-0.07557107508182526
-0.06925580650568008
-0.015026077628135681
-0.07864181697368622
0.10021071135997772
0.07053517550230026
-0.10646946728229523
0.08894918859004974
0.045195385813713074
-0.11492806673049927
-0.11251633614301682
0.09784720093011856
-0.04843834415078163
0.04728982225060463
0.019001895561814308
0.015457816421985626
0.06592869013547897
-0.06457263976335526
0.049028463661670685
0.0835886299610138
-0.006150985602289438
-0.08825497329235077
0.007197324652224779
-0.02293352782726288
-0.002287791110575199
0.07504475861787796
-0.07435079663991928
-0.1089409589767456
-0.10936615616083145
0.01655293069779873
-0.022237451747059822
0.09389466792345047
-0.09664014726877213
0.13887397944927216
-0.025760624557733536
-0.09867255389690399
-0.10949743539094925
-0.04802091792225838
-0.028925368562340736
-0.10491442680358887
0.11738158017396927
-0.02523198351264
0.055138763040304184
-0.02024536021053791
0.08128207176923752
0.023469729349017143
-0.10374564677476883
0.09444870799779892
-0.05906549096107483
0.05993915721774101
-0.02422965317964554
0.08609525859355927
-0.08568180352449417
-0.049330003559589386
0.07802802324295044
0.05425875633955002
-0.07915212959051132
-0.09320354461669922
-0.09158748388290405
-0.07225923985242844
0.11148824542760849
0.09943031519651413
-0.10206340998411179
0.028794435784220695
-0.10180611908435822
0.13227584958076477
-0.11347709596157074
-0.03545277938246727
-0.048347435891628265
-0.05638112872838974
0.0047458759509027
0.03435157984495163
-0.11185001581907272
-0.11720010638237
-0.0806671753525734
0.00982388574630022
0.05399153009057045
0.005121499765664339
-0.060524020344018936
0.003208654234185815
0.1366153061389923
-0.03433516249060631
-0.04354472458362579
0.1007988378405571
-0.07011069357395172
0.09896019101142883
-0.05235737934708595
-0.051378283649683
-0.06662146002054214
-0.07377684861421585
-0.0240631103515625
-0.01305598858743906
0.015761738643050194
0.08787640184164047
0.08454503118991852
-0.09845028817653656
-0.0363180935382843
-0.030587175861001015
0.026734469458460808
-0.05282999202609062
-0.06951694935560226
-0.12717734277248383
-0.09698512405157089
-0.0803724080324173
-0.11273625493049622
-0.04931187257170677
0.04223698750138283
-0.1042381078004837
-0.015080494806170464
0.08053255826234818
0.04437774792313576
0.06554859131574631
0.0034362145233899355
-0.015149294398725033
-0.028508368879556656
-0.07685136049985886
0.0639902725815773
0.08714643120765686
0.08981338143348694
-0.11872193962335587
-0.05677087604999542
0.07228311151266098
-0.06623929738998413
-0.07527178525924683
0.04276282340288162
-0.06419192254543304
0.052704550325870514
-0.005225646309554577
-0.12838129699230194
0.04034850373864174
0.010469216853380203
-0.10923395305871964
0.04483106732368469
-0.03846314549446106
-0.025094924494624138
-0.013953271321952343
0.11470222473144531
0.010699987411499023
-0.004459000192582607
-0.1136750876903534
-0.11202888935804367
0.06189888343214989
-0.08672437816858292
0.09663915634155273
0.10277530550956726
-0.10472247004508972
-0.06028562784194946
-0.08274884521961212
0.05517297610640526
-0.06828764826059341
-0.09650897234678268
0.10978958755731583
-0.007787593640387058
0.10169286280870438
-0.0390162356197834
-0.05244281888008118
-0.006802975665777922
0.03902279958128929
-0.13426072895526886
0.0034660762175917625
0.09326731413602829
-0.10626307874917984
0.13647566735744476
-0.07522117346525192
-0.034516774117946625
-0.03509404510259628
-0.03866879269480705
0.08235687762498856
0.010490121319890022
-0.10496770590543747
0.04023326188325882
0.0023615823592990637
-0.00848127156496048
-0.036325402557849884
-0.09418007731437683
-0.09754452854394913
0.051131874322891235
0.0657147616147995
0.05067308247089386
0.025651508942246437
0.11765866726636887
-0.05098201334476471
0.03778666630387306
-0.01620454154908657
0.01647845469415188
0.03451045975089073
-0.10483985394239426
-0.09269778430461884
0.07691167294979095
-0.046518538147211075
0.061502713710069656
0.03552241995930672
-0.06619419157505035
0.12351057678461075
-0.0455191545188427
-0.07239656150341034
-0.03219353035092354
0.12752769887447357
0.1108560636639595
-0.012310102581977844
0.0777416005730629
0.03787287324666977
0.12269087135791779
0.0648537278175354
-0.06041537970304489
-0.10612449795007706
-0.009126226417720318
0.1092982217669487
-0.0811048373579979
0.09308627992868423
-0.0819629654288292
0.025142034515738487
0.07623341679573059
-0.11128551512956619
0.13616816699504852
0.034887321293354034
-0.06973172724246979
0.0761798843741417
0.01737189292907715
-0.10767156630754471
0.11077405512332916
-0.05918432027101517
-0.0688566192984581
-0.03214965760707855
-0.1019437238574028
0.01566716656088829
0.06214205175638199
0.031230781227350235
-0.08316712081432343
-0.12954755127429962
0.03692979738116264
-0.05441668629646301
0.062243133783340454
-0.04292614385485649
0.08224260061979294
0.1123550534248352
0.047992173582315445
0.014826087281107903
-0.08549686521291733
0.01957835629582405
-0.09465578198432922
-0.038623254746198654
-0.0034568370319902897
-0.07080469280481339
-0.10764462500810623
-0.11059833317995071
-0.015381823293864727
0.10173281282186508
0.1476162225008011
0.12311828136444092
0.08529535681009293
0.11581778526306152
-0.02580294758081436
-0.08182382583618164
-0.023296480998396873
-0.11059994250535965
0.04264390841126442
0.0817045345902443
0.08603249490261078
0.06645198911428452
-0.021776722744107246
-0.0032511339522898197
0.12947656214237213
0.10253503918647766
-0.09532833099365234
0.045404933393001556
0.026083387434482574
-0.018412094563245773
0.005887237377464771
0.13680021464824677
0.09612368047237396
-0.0837165117263794
0.05367949604988098
0.042441364377737045
-0.1297263503074646
-0.008039388805627823
-0.09567181766033173
0.005890706088393927
-0.002238632645457983
-0.034440480172634125
-0.020482156425714493
-0.055594466626644135
0.030901089310646057
0.035382580012083054
-0.09079659730195999
-0.03972611203789711
0.07901661843061447
0.0019472504500299692
-0.06312598288059235
0.02726534940302372
-0.05780402198433876
-0.07937489449977875
0.11799309402704239
0.06561844050884247
0.07992152124643326
0.0048997290432453156
-0.07883334904909134
0.11652033776044846
0.028915688395500183
0.10353485494852066
0.07400181144475937
0.07430413365364075
-0.08746902644634247
-0.08712288737297058
-0.07133640348911285
-0.05019209533929825
-0.07020769268274307
0.08313307166099548
0.004104903433471918
0.0034368778578937054
0.002460847143083811
-0.0009226482943631709
0.044680383056402206
0.05552827566862106
-0.10201006382703781
0.07968863844871521
0.046622056514024734
-0.08905914425849915
-0.08671420067548752
0.04765167087316513
0.1227487176656723
0.12232600152492523
-0.002313849749043584
0.005538609344512224
0.058646537363529205
-0.10842157900333405
0.013897527940571308
0.059072840958833694
-0.019595583900809288
-0.01821518875658512
0.024633681401610374
-0.011684455908834934
-0.0716848075389862
0.076880544424057
-0.014890076592564583
-0.07438598573207855
-0.10725922882556915
0.015237451530992985
0.07742319256067276
0.13212703168392181
-0.08154202252626419
-0.08175528049468994
-0.008719793520867825
-0.07877099514007568
-0.12093719094991684
0.08609237521886826
0.038911111652851105
-0.08867592364549637
-0.013420749455690384
0.007350434549152851
-0.013763556256890297
0.11585226655006409
-0.10066904872655869
-0.0930696651339531
0.026687290519475937
-0.010908988304436207
0.02216241881251335
-0.12185236811637878
-0.05725838616490364
-0.06061481311917305
0.037745241075754166
0.09094332903623581
0.08582304418087006
-0.0690673217177391
0.09375885874032974
-0.0035282743629068136
-0.06434940546751022
0.06693670898675919
-0.04664244130253792
-0.029261132702231407
-0.09711024910211563
0.11404730379581451
-0.08450133353471756
-0.018890846520662308
0.11929352581501007
-0.11158088594675064
-0.010682146064937115
-0.10386247932910919
0.0729881078004837
0.10332472622394562
-0.01366293616592884
-0.06158017739653587
0.051439300179481506
-0.050928086042404175
-0.020944442600011826
0.11209817230701447
-0.07586141675710678
-0.009272640570998192
-0.07381228357553482
-0.05054677650332451
0.08584185689687729
0.08283994346857071
-0.02660742960870266
0.10874824970960617
0.10101751238107681
-0.07984985411167145
-0.057888977229595184
-0.06013031303882599
-0.10873579978942871
0.11463461071252823
-0.09627672284841537
-0.0866442322731018
-0.05862683057785034
0.12147200852632523
-0.05305590480566025
-0.06382910162210464
-0.09281051158905029
-0.09568311274051666
-0.0820542648434639
0.054390981793403625
-0.041616931557655334
0.004316719714552164
0.024532264098525047
-0.07313983142375946
0.07712159305810928
0.04982060566544533
0.03473227471113205
-0.0987066850066185
-0.06409534066915512
-0.00804185587912798
0.07700794190168381
-0.12470602989196777
0.04183855652809143
-0.010622569359838963
-0.10052546858787537
0.009990489110350609
0.10591819137334824
-0.06372863054275513
-0.015088635496795177
0.09312893450260162
-0.062459077686071396
-0.10220573842525482
-0.04774373024702072
0.05045546591281891
-0.08549518883228302
-0.0025968558620661497
-0.09783873707056046
-0.04881623387336731
-0.0994984433054924
0.09032406657934189
0.04586523398756981
-0.04061633348464966
0.018922585994005203
0.1135871410369873
-0.035390403121709824
0.05484836921095848
-0.08452406525611877
-0.10147920250892639
0.05231289565563202
0.0003529002715367824
0.04922005906701088
0.037417251616716385
0.1118944063782692
0.1327981948852539
-0.08352139592170715
-0.031663984060287476
0.06473664194345474
0.08544372767210007
-0.030611397698521614
0.09239939600229263
-0.048317763954401016
-0.03079201839864254
0.003999494016170502
0.05683862045407295
-0.09637687355279922
-0.036469314247369766
0.11262847483158112
0.04580404981970787
-0.08929501473903656
-0.0369623526930809
-0.0011193406535312533
-0.020716825500130653
-0.07112091034650803
0.031166760250926018
0.04959823936223984
-0.06092314049601555
-0.09145819395780563
-0.08605704456567764
0.04613681510090828
0.013870391063392162
-0.08333903551101685
0.06599047780036926
-0.05030503496527672
-0.11296425759792328
-0.027098409831523895
-0.04455011337995529
0.07408638298511505
0.02118557319045067
-0.06433316320180893
-0.015884876251220703
0.11087651550769806
-0.08630897849798203
0.10340916365385056
0.07631368935108185
-0.10897452384233475
0.06612943857908249
0.007302829995751381
0.013705008663237095
-0.1260480135679245
-0.019642379134893417
-0.005838513839989901
0.1175888404250145
0.025563037022948265
-0.051919031888246536
-0.05860467255115509
-0.034678056836128235
-0.1026090458035469
0.03503292426466942
-0.09447494149208069
-0.08005029708147049
0.0010178530355915427
-0.11230083554983139
0.07551626861095428
-0.0715809091925621
-0.07032466679811478
-0.019455203786492348
0.09688939899206161
0.03912324085831642
0.05935335159301758
-0.040827877819538116
-0.041447754949331284
-0.11151977628469467
-0.01423818152397871
0.049958255141973495
0.009962216950953007
0.12095354497432709
-0.054362282156944275
-0.09996514022350311
0.07288482040166855
-0.09614808857440948
-0.05480444058775902
-0.08846363425254822
0.10655732452869415
0.08738036453723907
0.007571826223284006
-0.06619063019752502
-0.12052445858716965
0.09459663927555084
-0.039841506630182266
-0.08965370059013367
-0.04932449758052826
0.0019561233930289745
0.03810347616672516
-0.06598303467035294
0.0518890805542469
-0.04351913928985596
-0.10422398149967194
0.11955464631319046
-0.08943816274404526
-0.04791649058461189
0.029022468253970146
-0.017040880396962166
-0.04703080654144287
-0.06762204319238663
-0.04934980720281601
0.10666758567094803
-0.018279917538166046
-0.02806936576962471
-0.09671523422002792
0.046375419944524765
0.053720369935035706
-0.02664405293762684
0.11780470609664917
-0.12208274006843567
0.0286988727748394
-0.08399711549282074
-0.08243905007839203
0.0560418926179409
0.14181335270404816
0.05325879901647568
0.10484199225902557
-0.015477113425731659
0.04276591166853905
-0.07628675550222397
0.006406746339052916
0.04148147255182266
0.06437590718269348
-0.12235987931489944
0.04488709196448326
-0.10126816481351852
0.04496479034423828
-0.10341369360685349
0.0897335559129715
-0.10859157145023346
0.024437015876173973
-0.10275836288928986
0.054445043206214905
-0.057842917740345
0.1260073035955429
-0.11211923509836197
0.05307311192154884
0.10680412501096725
0.07223266363143921
0.13146863877773285
0.07489320635795593
-0.015023807063698769
-0.05116141214966774
0.07873957604169846
-0.09915357828140259
-0.08219321072101593
