0.01576448418200016
-0.016998177394270897
-0.005055892746895552
0.013034979812800884
0.00585473608225584
0.0014599417336285114
-0.0024184915237128735
0.003973803017288446
-0.010977525264024734
3.949059100705199e-05
0.0017930164467543364
0.01061949785798788
0.016887132078409195
-0.005412404891103506
0.0005481531261466444
-0.01736270822584629
0.0162940826267004
0.009875515475869179
0.016995811834931374
-0.0062257712706923485
-0.01029450073838234
0.011976053938269615
-0.01712268777191639
-0.012370390817523003
-0.0043668546713888645
-0.013805857859551907
0.013516027480363846
-0.008946183137595654
0.01934467814862728
-0.010997600853443146
-0.005009468644857407
-0.006287930998951197
-0.016259772703051567
-0.008698321878910065
0.01831032522022724
-0.0014385979156941175
0.01290720421820879
0.010189651511609554
-0.005911555141210556
-0.006987568456679583
-0.007088253740221262
-0.012648031115531921
0.002437940798699856
0.005765903741121292
0.01799006201326847
-0.016454847529530525
-0.018850406631827354
-0.017459971830248833
0.017657481133937836
-0.009118343703448772
-0.005122280679643154
-0.007671231869608164
0.007456603460013866
-0.01804598607122898
-0.015393517911434174
0.019495176151394844
0.011308595538139343
0.014770740643143654
-0.015126233920454979
0.009465889073908329
0.01730462722480297
-0.014874727465212345
-0.012667659670114517
-0.016377197578549385
-0.002184739103540778
-0.010698736645281315
0.005365533754229546
-0.0006973627023398876
-0.003702743211761117
-0.014822534285485744
0.016041545197367668
0.013409392908215523
0.012644887901842594
-0.019514963030815125
-0.015977604314684868
-0.009644542820751667
0.01827204041182995
-0.0012284114491194487
0.012542229145765305
0.017065832391381264
0.017432399094104767
0.019147491082549095
-0.007827836088836193
-0.010747812688350677
0.015812084078788757
-0.008138270117342472
-0.006948838476091623
-0.006039711646735668
-0.014723485335707664
-0.004575439728796482
0.016642164438962936
-0.0038742702454328537
-0.013860894367098808
-0.004577755928039551
0.012095502577722073
-0.019367091357707977
0.004217138513922691
0.010361340828239918
-0.013307414948940277
-0.014358586631715298
0.015984095633029938
-0.010036335326731205
0.003339103888720274
0.011290861293673515
0.011641319841146469
-0.015943001955747604
-0.0006324368296191096
0.01322029810398817
-0.004571281839162111
0.0028068365063518286
-0.006917723920196295
0.009492801502346992
-0.004328589886426926
-0.00034361175494268537
0.003942141775041819
-0.016357537358999252
0.015874166041612625
-0.018405238166451454
-0.006122535560280085
-0.003389863297343254
-0.008553313091397285
0.01246475987136364
-0.00060954102082178
-0.012427045032382011
-0.014524119906127453
-0.011123358272016048
0.0034499436151236296
-0.00010810374078573659
-0.013052563183009624
-0.0060057141818106174
0.017602743580937386
0.005243379157036543
-0.0005934004439041018
-0.01156926341354847
-0.004611209500581026
-0.00055702991085127
-0.0076629421673715115
0.010939493775367737
-0.0192729439586401
0.017787901684641838
0.010368715971708298
-0.004410086665302515
-0.017824212089180946
-0.012896147556602955
-0.018899522721767426
0.01731695979833603
0.016518065705895424
0.009936802089214325
0.00023719346791040152
-0.012672198936343193
0.00916204508394003
-0.017760934308171272
-0.01821077987551689
-0.0070822574198246
-0.002647502114996314
-0.0040793651714921
0.0034020652528852224
-0.0007063843659125268
-0.007556966971606016
0.0005309796542860568
0.0016795884585008025
-0.018448565155267715
0.01044799480587244
-0.008184953592717648
0.009401965886354446
-0.013924914412200451
-0.0065683480352163315
-0.0026364834047853947
0.017650607973337173
0.01068055909126997
0.01160266064107418
0.004708371590822935
0.006734137423336506
-0.009975419379770756
-0.016954047605395317
-0.00526204239577055
-0.013483586721122265
0.017373697832226753
-0.015697017312049866
-0.0143254604190588
0.015977714210748672
0.006517529021948576
-0.004549785051494837
0.00710408017039299
-0.014922861009836197
0.007860965095460415
0.017459599301218987
0.006493113469332457
-0.018903104588389397
-0.008693673647940159
0.018392572179436684
0.01774132251739502
0.007525931112468243
0.0013323494931682944
-0.01677081733942032
-0.007985495030879974
0.011996588669717312
-0.012581233866512775
0.018660707399249077
-0.010223777033388615
-0.0016246940940618515
0.014185218140482903
0.004727425053715706
-0.013133330270648003
0.013996005989611149
0.01458687987178564
-0.009083516895771027
-0.011613748967647552
-0.019483167678117752
-0.014689465053379536
0.013768731616437435
0.018331723287701607
-0.01611647754907608
0.013304662890732288
-0.013407280668616295
0.003123786998912692
-0.01815088279545307
0.017674120143055916
0.012959803454577923
0.018114306032657623
0.005209502764046192
0.01434964407235384
0.004330588039010763
0.0032174086663872004
-0.011676882393658161
0.011376150883734226
-0.013541264459490776
-0.016120821237564087
-0.011929023079574108
0.009290333837270737
0.008468139916658401
0.016650883480906487
0.004358935169875622
0.014730578288435936
0.016878265887498856
-0.0010339334839954972
0.007927420549094677
0.017364080995321274
-0.019130771979689598
-0.009046499617397785
-0.003511216724291444
-0.014076665043830872
0.015292484313249588
0.007314639165997505
0.00131728604901582
-0.013804868794977665
0.011005189269781113
0.014630760066211224
-0.0002478097449056804
-0.0052813151851296425
0.005257568322122097
-0.007905520498752594
-0.006010490003973246
-0.0039009558968245983
-0.010867231525480747
-0.01561916433274746
