0.03594808280467987
0.008978808298707008
0.03830130770802498
-0.030866464599967003
-0.017968736588954926
0.03323801979422569
0.02875152975320816
0.020449750125408173
-0.003686035517603159
-0.022323235869407654
-0.028357915580272675
-0.040323950350284576
0.02577970176935196
0.03677632659673691
-0.010580693371593952
-0.01216906774789095
0.03312927111983299
-0.04151805117726326
-0.020930947735905647
-0.030746838077902794
-0.031547509133815765
0.008874379098415375
0.00046459047007374465
0.029362177476286888
-0.0295830387622118
-0.03149060904979706
0.011938829906284809
-0.023043038323521614
0.036142122000455856
-0.015524777583777905
-0.0030784530099481344
-0.028910119086503983
0.008843909949064255
-0.0036085727624595165
-0.022714968770742416
-0.03702846169471741
-0.0329187735915184
0.03772278502583504
0.014008907601237297
-0.02705824002623558
0.017130892723798752
0.00452901516109705
0.023451901972293854
-0.03762758523225784
-0.026522815227508545
-0.0026637744158506393
0.012715350836515427
-0.031852371990680695
-0.030489427968859673
0.04154057800769806
-0.0333859883248806
0.04036101698875427
0.007173085119575262
-0.006368082948029041
-0.0400434210896492
-0.0066954707726836205
-0.019060751423239708
-0.03273843973875046
0.010877815075218678
-0.007025753613561392
0.0163873378187418
-0.00821886770427227
-0.008318650536239147
-0.03686016798019409
