-0.009943887591362
-0.004621013533324003
0.0018686869880184531
-0.005216123070567846
0.009523717686533928
0.01233892422169447
0.005090007092803717
-0.013326317071914673
-0.011846709996461868
-0.009592186659574509
0.002048288006335497
0.0005128525663167238
0.0069223567843437195
-0.0076311007142066956
-0.005227158311754465
0.005909657571464777
0.009727864526212215
0.010991683229804039
0.0050563085824251175
0.008996985852718353
-0.009912176057696342
0.00016831245739012957
-0.00817906390875578
0.012469335459172726
0.013928812928497791
0.0010592218022793531
0.008696135133504868
0.009360182099044323
0.012661962769925594
0.006182088982313871
0.00676980335265398
-0.012651659548282623
-0.0045221587643027306
0.013661817647516727
0.004244856536388397
-0.0021314185578376055
-0.004108526278287172
0.0033603522460907698
-0.010869779624044895
-0.005754753481596708
0.008791044354438782
0.001070032943971455
0.0033583249896764755
0.0051210965029895306
-0.004563102498650551
-0.007828411646187305
0.00015410217747557908
-0.0044642421416938305
0.0009052538080140948
-0.005914392415434122
0.00868910737335682
0.002643317449837923
0.005240091122686863
-0.002623606938868761
-0.003542511723935604
-0.009972472675144672
0.010680346749722958
-0.010193131864070892
-0.0028664928395301104
0.006423600483685732
-0.010832109488546848
-0.0017613954842090607
-0.009835471399128437
0.007415421772748232
-0.005749513860791922
-0.004206497222185135
0.012706765905022621
0.0057470654137432575
0.010361195541918278
0.005907408893108368
0.010236470960080624
-0.005463440902531147
0.00958643015474081
-0.010330340825021267
-0.0027883658185601234
0.010198041796684265
-0.008030388504266739
-0.011047433130443096
-0.002378955250605941
0.01096919272094965
-0.013587350957095623
0.0029698850121349096
-0.012623881921172142
-0.00847632810473442
0.0011087640887126327
0.007280205376446247
-0.0026879773940891027
-0.0042300159111619
0.00830665323883295
-0.0005730661796405911
-0.011262460611760616
-0.007713154889643192
0.011695011518895626
0.0002068787143798545
-0.0009754427010193467
0.013386465609073639
0.011088932864367962
-0.00891084037721157
-0.002402114449068904
0.005333172623068094
-0.01207580603659153
0.012503288686275482
-0.0025531859137117863
0.0006790847983211279
0.00819903239607811
0.007478557992726564
-0.005699561443179846
0.012972727417945862
0.008644487708806992
0.011356706731021404
-0.008254011161625385
0.009994679130613804
-0.0032858513295650482
0.012410301715135574
-0.013923230580985546
-0.005183801986277103
-0.010442150756716728
0.008642071858048439
0.008540833368897438
-0.01012200303375721
-0.0037102496717125177
-0.00842314027249813
-0.004850935190916061
-0.007457996252924204
0.001384174101985991
-0.0036349704023450613
0.0027358010411262512
-0.013804307207465172
-0.009380845353007317
0.005689593497663736
0.0062161777168512344
-0.003796215867623687
-0.0013041839702054858
-0.007238891441375017
0.013066843152046204
0.0022026279475539923
-0.0009971136460080743
-0.011209225282073021
0.012850184924900532
-0.004617159254848957
0.0025810622610151768
0.0053879264742136
0.00685708224773407
0.004214898217469454
-0.006782989948987961
-0.005549219902604818
0.0014290317194536328
-0.010340693406760693
0.005772511474788189
0.012738635763525963
-0.008513598702847958
-0.007263521198183298
-0.007242468185722828
0.007265681400895119
0.0037073236890137196
0.011759620159864426
0.008601216599345207
-0.008376955054700375
-0.0012697370257228613
-0.0003206738329026848
-0.005268982145935297
0.0067465282045304775
0.01225724071264267
-0.01252931822091341
0.00424498226493597
-0.003921977244317532
-0.0048922100104391575
0.00037602533120661974
0.008101782761514187
0.010585051029920578
-0.009113622829318047
-0.0009310090681537986
0.010029568336904049
-0.010705276392400265
-0.012402568943798542
0.0009406337048858404
-0.0026582565624266863
0.013194928877055645
0.0014266889775171876
-0.011124867014586926
0.011598421260714531
-0.01342554297298193
-0.0013725071912631392
0.009987334720790386
-0.012425360269844532
0.010920226573944092
-0.002977152355015278
-0.00665827002376318
-0.0005960114649496973
-0.006495952140539885
0.0021390216425061226
-0.009965472854673862
-0.0005093100480735302
0.0018109140219166875
0.0032650663051754236
-0.010563334450125694
0.00894985906779766
0.000506892625708133
0.010399860329926014
0.0062763746827840805
-0.011473968625068665
-0.0030460087582468987
0.013768482021987438
-0.0038633467629551888
-0.004267988260835409
0.011435601860284805
0.011317410506308079
0.0016668681055307388
-0.0033862940035760403
0.009652095846831799
-0.007537120953202248
0.00652284873649478
0.0032253183890134096
-0.0018073039827868342
0.010179067961871624
0.011719517409801483
0.0022022002376616
-0.008325731381773949
-0.0008542620926164091
0.004190158098936081
0.011188100092113018
-0.00601927051320672
0.012821434997022152
-0.00039842212572693825
-0.002954567549750209
0.011751780286431313
0.012321758083999157
0.0015308076981455088
0.006419335026293993
-0.009873141534626484
-0.005202413536608219
0.009957860223948956
-0.010625413618981838
0.006499335169792175
0.00035615998785942793
0.007678028661757708
-0.007122662849724293
0.002448559505864978
-0.0022387176286429167
-0.006896124687045813
0.011063790880143642
-0.004936364479362965
0.004284573718905449
-0.005375209730118513
-0.012064824812114239
0.01185113936662674
-0.011716225184500217
-0.008778619579970837
-0.00886405911296606
0.013572212308645248
0.012043305672705173
0.004470168147236109
0.008049070835113525
-0.010909325443208218
-0.009798463433980942
0.008184151723980904
0.010401681996881962
0.00896659679710865
-0.0034490725956857204
0.002472778083756566
0.0008627120987512171
-0.005931445397436619
0.0003611435240600258
-0.005939892493188381
-0.004092826042324305
-0.0073192487470805645
0.009974890388548374
-0.011927967891097069
0.007771728560328484
0.013827376998960972
-0.007500016130506992
0.012724843807518482
0.00304105575196445
0.0009087455691769719
-0.010856335051357746
0.00012061768211424351
-0.012450248003005981
-0.0032794056460261345
-0.013619191013276577
-0.0034732655622065067
0.003045999677851796
-0.009116125293076038
-0.006778565235435963
-0.0014050593599677086
-0.0005894455243833363
-0.0038127894513309
-0.012969017028808594
0.004880413878709078
-0.011530634015798569
0.010178393684327602
0.0018112451070919633
-0.010447128675878048
-0.0068002985790371895
0.010453034192323685
-0.0017895617056638002
-0.003136133775115013
-0.009771095588803291
-0.00449436204507947
-0.006664190907031298
-0.009786276146769524
0.007765231654047966
-0.003691511694341898
-0.0077103860676288605
-0.002857195446267724
0.0017406274564564228
0.012479351833462715
-0.010569720529019833
0.0002795712498482317
0.011396350339055061
0.003094707615673542
-0.009322541765868664
0.007489431649446487
0.01376668456941843
0.007735796272754669
-0.011133749037981033
-0.009374194778501987
0.010823747143149376
-0.0026105663273483515
0.007903926074504852
-0.005225133150815964
-0.010365644469857216
0.01083504781126976
-0.008280495181679726
-0.0031472845003008842
0.004364481195807457
-0.013611461035907269
0.009141691960394382
-0.011148757301270962
-0.010540819726884365
0.0028977717738598585
-0.013472317717969418
0.010829532518982887
-0.007797125726938248
-0.005611828528344631
-0.007565989159047604
-0.007626375649124384
-0.004129223059862852
0.005018030293285847
0.013847683556377888
-0.00520862964913249
-0.010437521152198315
0.004315245896577835
-0.001014620647765696
-0.009185380302369595
-0.005972474813461304
0.0023480667732656
-0.0026763619389384985
-0.011131463572382927
0.0002749791310634464
-0.0075378622859716415
-0.0015001859283074737
0.00940227322280407
-0.000998841947875917
-0.012175872921943665
0.004313960205763578
-0.0009523546905256808
-0.003696508938446641
-0.006044031120836735
0.003226599656045437
0.01201352197676897
0.012230390682816505
-0.0032876150216907263
0.0049993786960840225
0.013349415734410286
0.011640109121799469
-0.009730931371450424
0.013142692856490612
-0.004898515995591879
-0.012177720665931702
0.010778123512864113
-0.009095635265111923
0.008538653142750263
-0.007224795874208212
-0.009072290733456612
0.0052109272219240665
-0.011040229350328445
0.0051916190423071384
0.0048536742106080055
0.006458276882767677
-0.011461432091891766
0.0012687770649790764
-0.0003281474928371608
-0.01251888182014227
-0.008776211179792881
-0.010511180385947227
0.013216539286077023
-0.006400484591722488
-0.012309934943914413
-0.010160687379539013
-0.0020688269287347794
0.004259339068084955
-0.005469722673296928
-0.006569411605596542
0.010429907590150833
-0.0030401870608329773
-0.010087057948112488
-0.011727130971848965
-0.013460347428917885
0.003441923763602972
0.012546253390610218
0.007534046657383442
0.013441713526844978
0.007419628091156483
0.0022080240305513144
-0.0018706159899011254
0.013168907724320889
0.002823514398187399
0.0136665478348732
0.0038002063520252705
-0.0038699014112353325
0.008122625760734081
0.008326209150254726
0.008614652790129185
-0.006715533789247274
-0.005737867206335068
0.0038005122914910316
0.004149656277149916
0.001838560332544148
-0.010405747219920158
-0.0019786744378507137
0.009572447277605534
-0.003397015854716301
-0.0031910056713968515
0.013436311855912209
-0.010885557159781456
0.00044059488573111594
-0.01161868218332529
-0.0013875931035727262
0.0025892513804137707
-0.011970413848757744
-0.011294292286038399
0.001065331744030118
0.01207733154296875
0.009961126372218132
0.00390173913910985
0.007774397265166044
0.008689869195222855
0.00470378203317523
-0.01253835204988718
-0.0042166272178292274
0.008208670653402805
0.0024510629009455442
-0.006937721278518438
-9.89765248959884e-05
0.006791917607188225
-0.0049117570742964745
3.756327714654617e-05
-0.010857844725251198
0.006765075493603945
0.0009212074801325798
0.0003720706736203283
-0.006554371677339077
-0.0024306916166096926
0.007604328915476799
-0.005510412622243166
-0.003385737771168351
-0.0009392297361046076
-0.009261182509362698
-0.004389788024127483
-0.008633431047201157
0.005768644157797098
-0.010769092477858067
0.00911593995988369
0.002986927516758442
0.005038628354668617
0.004268655553460121
-0.0010295036481693387
0.006130883004516363
0.010828256607055664
-0.013072548434138298
-0.006658850237727165
0.008243633434176445
0.005977478809654713
0.009944881312549114
-0.004016038961708546
0.010611600242555141
-0.010096324607729912
-0.004839002620428801
0.013152227737009525
0.004557369742542505
-0.013730986975133419
0.004914465826004744
0.012803899124264717
0.012636378407478333
-0.008468039333820343
0.01047053188085556
-0.0033035059459507465
-0.009863827377557755
0.002235288731753826
-0.0017150335479527712
-0.004791392479091883
0.0027798842638731003
-0.004423146601766348
-0.002040017629042268
-0.008450356312096119
-0.002861166140064597
-0.013407953083515167
0.006546961143612862
-0.008736133575439453
-0.0018442347645759583
-0.0038700178265571594
-0.0073779611848294735
0.002156356815248728
-0.006164126098155975
-0.004796906374394894
-0.013910152949392796
-0.009550237096846104
0.00958717055618763
-0.009214445948600769
0.008528191596269608
-0.0057497406378388405
0.011453083716332912
