-0.013828333467245102
0.014320924878120422
0.018993768841028214
0.009958934970200062
0.015409812331199646
0.0018902089213952422
-0.0018651933642104268
-0.0100924177095294
-0.0016139528015628457
-0.02377873659133911
0.014413921162486076
-0.010299751535058022
-0.02692592889070511
-0.009566300548613071
-0.010648808442056179
-0.017270077019929886
0.01897973194718361
0.0005097424145787954
0.020495297387242317
0.024232227355241776
-0.008282104507088661
-0.00387233542278409
-0.007931003347039223
-0.017280280590057373
0.0061324844136834145
0.020608719438314438
-0.019318919628858566
-0.008503527380526066
0.027223728597164154
-0.02081380784511566
-0.01798517443239689
0.012839164584875107
-0.0019400622695684433
0.017858948558568954
-0.024097077548503876
-0.0007679680129513144
-0.0024832345079630613
0.007583884987980127
0.013540965504944324
0.002622960601001978
0.01621728390455246
0.001507293782196939
-0.007918532937765121
-0.00884704664349556
0.01685139909386635
-0.004570471588522196
0.017998570576310158
-0.023950982838869095
-0.026971910148859024
0.0017213781829923391
0.01172470673918724
0.02776605822145939
0.011472677811980247
-0.0012624859809875488
-0.027211209759116173
-0.01351925265043974
0.023603981360793114
-0.004579324275255203
0.015960704535245895
0.02358110435307026
-0.0076402463018894196
0.005849685054272413
-0.021881207823753357
0.021077534183859825
0.011427185498178005
-0.011045739986002445
-0.009378243237733841
0.004999440163373947
-0.0003765927685890347
0.009479646570980549
-0.02536972053349018
-0.0069001056253910065
0.004998550284653902
-0.00021214726439211518
-0.011511772871017456
-0.015600945800542831
0.009656645357608795
-0.023384010419249535
-0.01228255219757557
-0.006097939796745777
-0.01442266907542944
-0.0011101281270384789
0.018867770209908485
0.00019162830722052604
-0.008021683432161808
-0.018182076513767242
0.016264721751213074
-0.009253323078155518
-0.014570855535566807
0.018613366410136223
-0.001093776780180633
0.01511449459940195
-0.006086171604692936
-0.025310741737484932
-0.0007181384135037661
-0.015990734100341797
0.01682841219007969
0.02360057644546032
6.924942226760322e-06
0.0016656864900141954
-0.0063004461117088795
0.010366043075919151
0.007899455726146698
0.023872245103120804
0.015178536996245384
-0.015391247346997261
0.024951741099357605
-0.013109222054481506
0.024976490065455437
0.0038998411037027836
0.004053996875882149
-0.014217994175851345
0.008812341839075089
0.00618233997374773
0.016422076150774956
0.022485485300421715
-0.011653030291199684
0.01547609269618988
-0.02360505796968937
-0.027533413842320442
0.0159662626683712
0.0022525095846503973
0.007281448692083359
0.006546094082295895
0.024775635451078415
-0.018998751416802406
0.02646522969007492
-0.004866471514105797
