-0.00031376356491819024
0.00976780615746975
-0.020228102803230286
-0.0011042680125683546
0.0071398369036614895
0.0184271689504385
0.020322922617197037
-0.005361857824027538
0.008733193390071392
-0.0036925501190125942
0.007307074964046478
0.012913130223751068
-0.003873114939779043
-0.01831793412566185
-0.007781078573316336
-0.009219018742442131
0.011741748079657555
0.015088578686118126
-0.01158070843666792
0.0016568576684221625
-0.004266922827810049
-0.010151940397918224
-0.020799605175852776
0.005293786525726318
0.010873539373278618
0.00915080588310957
0.008161979727447033
0.017642222344875336
0.008088519796729088
0.02016475610435009
-0.011422336101531982
-0.005854393355548382
0.02060248702764511
0.0040520778857171535
-0.015997564420104027
0.01836707442998886
0.016378004103899002
-0.014101272448897362
-0.0019947937689721584
0.010126842185854912
-0.019294027239084244
-0.011101512238383293
0.0018797641387209296
0.007233237382024527
-0.012702055275440216
-0.00843779742717743
-0.00830779504030943
-0.014843836426734924
-0.01645873486995697
0.00729581480845809
-0.004654914140701294
-0.009837712161242962
0.01127564162015915
0.019045276567339897
0.008320210501551628
-0.008482612669467926
-0.001434922218322754
0.009361883625388145
0.013911359012126923
0.01874617487192154
0.017872590571641922
-0.015135644003748894
-0.01948745921254158
0.010155404917895794
0.010608832351863384
0.011865179054439068
0.0038064345717430115
-0.020514441654086113
-0.010510092601180077
-0.012165755033493042
-0.018728572875261307
0.007533510681241751
0.0026528711896389723
0.010892692022025585
-0.018563298508524895
-0.02082657441496849
0.00795531552284956
0.005666737910360098
-0.017474781721830368
-0.007096136920154095
0.015587178990244865
-0.0021349764429032803
0.0005584656610153615
0.0038865208625793457
0.018745532259345055
-0.00747816264629364
-0.001279351650737226
0.018863458186388016
0.018695201724767685
0.004741651471704245
0.013586699962615967
-0.005356232635676861
0.006647489964962006
-0.0010183205595239997
0.017859606072306633
-0.008646329864859581
0.010053180158138275
0.012576369568705559
-0.015574252232909203
-0.008084794506430626
0.015058910474181175
0.012318439781665802
0.007663369178771973
-0.018712736666202545
0.012397361919283867
0.013422340154647827
0.0031255162321031094
0.0011183893075212836
-0.008511645719408989
0.006361658684909344
0.01657600700855255
0.014659395441412926
-0.02028009295463562
0.013428693637251854
-0.012230570428073406
-0.009594845585525036
0.01951143704354763
-0.015073093585669994
0.008510217070579529
0.013400199823081493
0.010556690394878387
-0.00990883819758892
-0.014257794246077538
-0.011350463144481182
0.012440843507647514
0.002582177519798279
-0.002493619918823242
-0.015474272891879082
0.018404819071292877
0.009266488254070282
0.019425466656684875
-0.005693805869668722
0.013844480738043785
0.0018533915281295776
-0.009176887571811676
0.006955084856599569
0.01663307100534439
-0.0028502941131591797
0.012368008494377136
0.0032625622116029263
0.015387299470603466
0.0073223537765443325
-0.0038957621436566114
0.0031654811464250088
-0.020368007943034172
-0.010067299008369446
0.012025098316371441
0.017877932637929916
-0.013853922486305237
-0.0035623188596218824
-0.014855338260531425
0.013723699375987053
0.014576628804206848
0.01549045741558075
-0.01916814222931862
0.004713389091193676
0.003570397850126028
-0.018607614561915398
-0.010048861615359783
0.018392061814665794
0.009023657068610191
0.007533833384513855
-0.00806959718465805
0.01556503027677536
-0.018549524247646332
0.010433025658130646
0.0016327227931469679
0.008307576179504395
0.012081409804522991
-0.016111476346850395
-0.0008919016690924764
-0.013030609115958214
0.013356827199459076
0.0076345233246684074
-0.01364137977361679
-0.01762290857732296
-0.013477571308612823
0.007119250949472189
-0.015390953049063683
-0.010656426660716534
-0.015729330480098724
0.005847660358995199
0.016028326004743576
0.013110446743667126
-0.01231391727924347
-0.020712077617645264
0.011225273832678795
-0.00949238520115614
0.020375125110149384
0.008167490363121033
0.004391161259263754
-0.0072630224749445915
0.0012188951950520277
-0.012493861839175224
0.015768669545650482
-0.005533136427402496
-0.012598025612533092
0.002976842224597931
-0.019329875707626343
0.014587998390197754
-0.004317919723689556
-0.004524621181190014
0.011459378525614738
-0.0077542513608932495
0.01536434143781662
0.017289502546191216
0.0107025858014822
-0.002991604385897517
0.004940800368785858
0.0019202952971681952
-0.0011626457562670112
-0.016784492880105972
0.01256905309855938
0.012265495955944061
-0.014514543116092682
-0.015124979428946972
-0.006397346965968609
-0.010518538765609264
0.01000501960515976
0.004409782588481903
0.015252796933054924
0.004913730081170797
-0.008108839392662048
-0.017781583592295647
-0.00757928192615509
-0.010347172617912292
-0.0027354061603546143
0.01079531293362379
0.020648209378123283
-0.015290042385458946
-0.01036824844777584
0.016083497554063797
0.01901288330554962
0.015869079157710075
0.0012234325986355543
0.017719222232699394
0.010443761944770813
0.012934431433677673
-0.01402314007282257
0.008202573284506798
-0.015048949047923088
-0.012378692626953125
-0.004133480601012707
-0.0038582931738346815
-0.002713620662689209
-0.011123090982437134
0.013645932078361511
0.0009386837482452393
0.01333768479526043
0.014063119888305664
-0.010090957395732403
0.007310442626476288
0.019992969930171967
0.014862393960356712
0.013461838476359844
-0.01936059072613716
