0.0104678338393569
0.023613646626472473
-0.014553092420101166
0.00975577998906374
0.026114866137504578
0.011145456694066525
0.023871630430221558
0.01765683852136135
-0.007092886138707399
-0.008148295804858208
0.00844433531165123
0.0013650240143761039
0.018310874700546265
0.0022519167978316545
-0.0278006661683321
0.028264379128813744
0.028730137273669243
-0.027096746489405632
-0.011039229109883308
-0.008504749275743961
-0.02192382887005806
0.01722829043865204
0.02661740593612194
0.013940122909843922
0.0205222275108099
-0.005598376505076885
-0.02271992526948452
0.015126117505133152
0.02614079974591732
0.016285927966237068
0.0014582490548491478
0.01386413536965847
-0.024203496053814888
0.015573590993881226
-0.012177566066384315
0.022607380524277687
-0.005720507353544235
0.003581671044230461
0.010382345877587795
0.025513703003525734
-0.026172379031777382
-0.007726261857897043
-0.007646836340427399
0.01643526926636696
0.01721390336751938
-0.003918364644050598
0.007565879262983799
0.01665205880999565
-0.0021749495062977076
-0.013248960487544537
-0.0031191022135317326
0.009720422327518463
-0.010847650468349457
0.0005570632056333125
0.01376926340162754
-0.01422026939690113
0.016213463619351387
0.005046944599598646
0.02059148997068405
0.02186697907745838
0.024964775890111923
-0.017188401892781258
0.020108921453356743
0.003430261742323637
-0.002577040810137987
0.008219513110816479
0.017696566879749298
-0.008129052817821503
-0.001757118385285139
-0.010574785061180592
-0.002734312554821372
0.013677839189767838
-0.015675438567996025
-0.0005880407989025116
0.008417768403887749
0.01907411403954029
0.019769471138715744
0.02170880138874054
-0.01760256104171276
0.02590063214302063
0.01861499808728695
-0.003159756539389491
0.01263316348195076
-0.02943696826696396
0.00610057357698679
0.006672088522464037
-0.014044622890651226
0.023045716807246208
-0.014703124761581421
-0.023818546906113625
0.018052728846669197
0.02677006646990776
-0.0019486979581415653
-0.024671858176589012
-0.0019915332086384296
0.009067613631486893
0.0031472486443817616
0.021181602030992508
-0.026529014110565186
-0.00209494074806571
-0.028279608115553856
-0.026898041367530823
0.019407697021961212
0.010628195479512215
0.020369118079543114
0.027289947494864464
-0.02219575271010399
-0.010637794621288776
-0.013312721624970436
0.027678312733769417
-0.002848526230081916
-0.015563095919787884
0.012194941751658916
-0.028309686109423637
0.014056584797799587
0.003992550075054169
-0.02852613478899002
-0.014032263308763504
-0.02777392975986004
0.022728879004716873
0.0053973994217813015
0.007472394034266472
-0.02789255604147911
0.024138273671269417
0.018617816269397736
-0.005779527127742767
-0.0029380007181316614
0.004883931018412113
