-0.019731786102056503
0.026393961161375046
0.008387438952922821
0.011993798427283764
0.016772575676441193
0.02154887467622757
-0.014288939535617828
-0.0201900452375412
-0.0054465546272695065
0.02475898154079914
-0.026923898607492447
-0.012175570242106915
0.0008278809254989028
-0.006671498063951731
-0.010323719121515751
-0.0011816895566880703
0.017841914668679237
-0.0029153747018426657
-0.005820314399898052
-0.008979275822639465
0.02754981257021427
0.007281329482793808
-0.015523148700594902
-0.005009540356695652
0.009590547531843185
-0.016562756150960922
-0.010832647792994976
-0.013454797677695751
-0.02073703519999981
0.019300885498523712
0.00218430208042264
0.023970264941453934
-0.007773221004754305
0.0071020666509866714
-0.0008227751241065562
0.020298868417739868
-0.016171079128980637
0.0033853407949209213
0.023230602964758873
0.00029702490428462625
0.026580940932035446
-0.00019536852778401226
-0.0008881341782398522
0.0023739528842270374
0.011127965524792671
-0.006554888561367989
0.01763623021543026
-0.023282121866941452
-0.026474760845303535
0.017530929297208786
-0.012251204811036587
-0.011890032328665257
-0.0027515245601534843
-0.016721464693546295
-0.015085728839039803
0.0018005798337981105
0.000442552991444245
0.01779215969145298
-0.015245199203491211
0.000528978300280869
0.0018572055269032717
0.0237369816750288
-0.004313756246119738
0.012811840511858463
0.02349894493818283
0.003960400819778442
-0.011470627039670944
0.01623464561998844
-0.026813138276338577
-0.005510187242180109
-0.0003985730872955173
-0.0199723057448864
-0.000647769367787987
0.021108146756887436
0.022159438580274582
0.026374680921435356
0.026316700503230095
0.004930317401885986
-0.0036209323443472385
-0.012345264665782452
0.0171057041734457
0.01143819373100996
-0.007207813672721386
0.0275283083319664
-0.025092976167798042
-0.011281670071184635
0.005237821489572525
-0.007963447831571102
0.005055401474237442
-0.011500910855829716
-0.024936089292168617
0.023198768496513367
-0.02365800179541111
-0.010881884023547173
0.019031139090657234
0.00027039754786528647
-0.017618777230381966
-0.025826584547758102
0.017130466178059578
0.019056977704167366
0.009359113872051239
-0.015504542738199234
0.025898845866322517
0.012629853561520576
-0.016231508925557137
-0.003853806294500828
0.004588246811181307
0.016904357820749283
0.004404434934258461
0.013865099288523197
0.01023061666637659
-0.02468508668243885
-0.013730751350522041
-0.013882456347346306
-0.027208415791392326
-0.02468131296336651
-0.02337757684290409
-0.0073199025355279446
0.022798925638198853
0.012015403248369694
-0.020054614171385765
0.006920411251485348
-6.089698581490666e-05
-0.01542443223297596
-0.02398238703608513
0.009435154497623444
-0.004967685788869858
0.007529653608798981
-0.0117786955088377
-0.020230596885085106
-0.01697523333132267
0.019362151622772217
-0.023276394233107567
0.010731988586485386
0.024567635729908943
0.012261581607162952
0.0061288694851100445
-0.022211002185940742
0.022410690784454346
-0.016233211383223534
0.019323159009218216
0.023309839889407158
0.021887490525841713
0.026799438521265984
-0.002368384273722768
-0.005217145662754774
-0.02393908053636551
0.02287111058831215
-0.016885286197066307
-0.02782352827489376
0.005854868330061436
-0.019696306437253952
-0.015987884253263474
-0.01089558470994234
0.021838625892996788
-0.02739817462861538
0.005463431589305401
0.0021848103497177362
-0.00089699198724702
0.02779514715075493
0.010222728364169598
0.007851807400584221
0.014475392177700996
0.0014829940628260374
-0.0026305450592190027
-0.026750460267066956
-0.027362296357750893
0.025512564927339554
-0.007899101823568344
-0.008035224862396717
0.024588920176029205
-0.013994361273944378
0.003768048482015729
0.022714363411068916
-0.010296790860593319
-0.001039758906699717
-0.004862131550908089
-0.012658780440688133
-0.016030313447117805
0.017943359911441803
0.0163843035697937
-0.0012509104562923312
-0.027484772726893425
-0.01704985648393631
-0.016607683151960373
-0.0134617043659091
0.00508403405547142
0.026223234832286835
0.009234052151441574
0.012535189278423786
0.014612737111747265
-0.009335760027170181
-0.019290994852781296
0.008444548584520817
-0.002528352662920952
0.018571678549051285
-0.013818052597343922
0.004438619129359722
0.00896573904901743
0.004133609123528004
-0.0019493063446134329
-0.0038594482466578484
0.013471030630171299
0.014829682186245918
-0.013378643430769444
-0.0037618272472172976
-0.011415057815611362
-0.012446749024093151
0.018791569396853447
0.02582506835460663
-0.0216422937810421
-0.007856311276555061
-0.001968704629689455
-0.00811291765421629
-0.003673560917377472
0.01979961059987545
0.017121708020567894
-0.02768622897565365
-0.02568902261555195
0.00876687839627266
-0.006707422435283661
0.016479888930916786
0.020928090438246727
0.019171062856912613
-0.01867985539138317
0.02102162130177021
-0.02585587650537491
-0.01891973614692688
0.009679890237748623
0.00048732568393461406
-0.008738399483263493
-0.027386466041207314
-0.013345579616725445
-0.005912784952670336
0.014486773870885372
-0.014814372174441814
-0.01871803030371666
-0.017862824723124504
-0.022837471216917038
0.010816849768161774
-0.010153084993362427
0.011609360575675964
-0.004947978537529707
0.008732624351978302
-0.01746717467904091
0.003927790559828281
-0.00578434020280838
-0.00717039592564106
0.018961820751428604
-0.020022736862301826
-0.01276171114295721
0.007254680152982473
-0.012472255155444145
0.0034856784623116255
0.0033513386733829975
0.004141372628509998
