0.04351806640625
-0.031161915510892868
0.013952654786407948
0.05621562525629997
-0.03056414984166622
0.027429254725575447
-0.05614529550075531
-0.002378348261117935
-0.07550982385873795
-0.04812965169548988
0.004988300148397684
0.0017290421528741717
-0.01745440997183323
-0.06012994050979614
0.03351746127009392
0.03719557076692581
0.0172259621322155
-0.0855017602443695
0.06194954738020897
-0.03651698678731918
0.0009825604502111673
-0.010584777221083641
-0.026827244088053703
-0.07951724529266357
0.009831040166318417
0.020464260131120682
-0.08267539739608765
0.06517968326807022
0.04471469298005104
-0.02521459385752678
-0.05901157110929489
-0.014727896079421043
0.06682848930358887
0.01990215666592121
-0.022603003308176994
-0.03092322126030922
0.019238293170928955
-0.044560983777046204
-0.030121490359306335
-0.062392156571149826
-0.006194788962602615
-0.047670379281044006
0.052977096289396286
-0.0759754329919815
-0.052003901451826096
0.037594035267829895
0.05516967549920082
-0.004131194204092026
0.07721823453903198
0.07764773070812225
-0.08212115615606308
0.019919859245419502
0.020319052040576935
0.05649359151721001
0.026666024699807167
0.03719568997621536
-0.035180896520614624
-0.008443391881883144
-0.0723797157406807
0.047521013766527176
0.04989924654364586
0.06578822433948517
-0.01978624053299427
0.019870156422257423
-0.0035320939496159554
0.03148632124066353
-0.036941662430763245
0.04323434457182884
-0.07173427939414978
0.003073133761063218
0.0155213363468647
-0.053191687911748886
0.05783838406205177
-0.07217884808778763
0.07415701448917389
-0.014041648246347904
0.010514727793633938
0.009083916433155537
0.026793448254466057
0.03007885068655014
-0.01076084841042757
0.054613709449768066
0.03146442398428917
0.05443471670150757
-0.040994614362716675
-0.04824373498558998
0.04206611216068268
-0.07196830213069916
0.02975558675825596
-0.015350020490586758
0.05599118024110794
-0.053085990250110626
-0.030738122761249542
0.03583866357803345
-0.026264501735568047
0.03618316352367401
0.07995783537626266
0.07949817925691605
-0.03310247138142586
0.06394236534833908
0.028651809319853783
-0.03821278363466263
-0.0800267681479454
0.06140635907649994
0.004105348605662584
0.061540186405181885
-0.034918006509542465
-0.047449856996536255
0.008226809091866016
0.06785266101360321
0.011004163883626461
0.05640232935547829
-0.07791770249605179
0.05146016925573349
-0.0661168098449707
-0.02037557028234005
0.05153708904981613
-0.019445668905973434
-0.00514685083180666
0.032086800783872604
-0.06513788551092148
-0.07611976563930511
-0.069964699447155
0.06522315740585327
0.0550922229886055
-0.025186995044350624
0.0359664261341095
0.08069565892219543
0.07635486125946045
-0.08479772508144379
0.05697731673717499
0.018363261595368385
0.014552331529557705
-0.0072610084898769855
-0.03392980247735977
0.07088174670934677
-0.08824111521244049
0.0652380883693695
-0.05887327343225479
-0.0687522143125534
0.015025702305138111
-0.038947805762290955
0.007403342518955469
-0.03576525300741196
-0.07335822284221649
0.013124766759574413
-0.07981106638908386
-0.08609212934970856
-0.009881062433123589
0.06832703948020935
-0.08054444193840027
0.04845479503273964
-0.045123714953660965
-0.015169210731983185
-0.0541488341987133
0.020458916202187538
-0.03459208086133003
-0.038188934326171875
0.030342604964971542
0.03404739871621132
-0.06601680815219879
-0.058825865387916565
-0.08176340907812119
0.06582063436508179
0.06722397357225418
-0.07167709618806839
0.057928673923015594
0.06933843344449997
0.05375806242227554
0.03153960779309273
0.05101665481925011
-0.07672522962093353
-0.045121945440769196
0.05293327942490578
-0.04253826662898064
0.03315805643796921
0.07407680153846741
0.024777116253972054
0.022441508248448372
0.06320485472679138
-0.030592605471611023
0.06141248717904091
0.055602628737688065
0.07649580389261246
-0.054007500410079956
-0.08297549188137054
0.0532727874815464
0.06284771114587784
-0.04350181668996811
-0.03234627842903137
0.03344699740409851
0.07612244784832001
0.07360117882490158
0.04399172589182854
-0.04522927850484848
0.05059799551963806
-0.037846632301807404
-0.08939347416162491
-0.043229155242443085
-0.023594016209244728
-0.021076273173093796
0.05383390188217163
0.02512955665588379
0.06734844297170639
0.0783991813659668
-0.024945557117462158
0.03226655349135399
0.05337638780474663
0.0495886467397213
0.05201384052634239
0.03972812741994858
0.040154166519641876
0.04885115846991539
0.056701429188251495
-0.05847165733575821
0.0012961402535438538
0.05918893218040466
-0.08079951256513596
0.05124051496386528
0.05727032572031021
0.07351066172122955
0.060448672622442245
0.06764499843120575
-0.028348667547106743
-0.053808584809303284
-0.008323603309690952
0.04095080494880676
-0.030619734898209572
-0.014244483783841133
0.05125129595398903
-0.0225222185254097
-0.003935867454856634
0.07625184208154678
0.018381940200924873
-0.017971221357584
-0.029351001605391502
-0.03405975550413132
-0.005638234317302704
-0.010823959484696388
-0.01709667220711708
0.021149417385458946
0.06991920620203018
-0.03147878125309944
-0.08569181710481644
-0.04829014837741852
-0.08436980098485947
0.04937469959259033
-0.0632229894399643
0.0005631745443679392
0.047634679824113846
0.06629642099142075
-0.03952810540795326
-0.08126825839281082
-0.08087784051895142
-0.00506166834384203
-0.05428403988480568
0.02567434497177601
-0.07223212718963623
0.02040373720228672
-0.0004819064342882484
0.05378211662173271
-0.05191243812441826
-0.0031469203531742096
-0.0032613524235785007
-0.009060694836080074
-0.05607869103550911
0.05504650995135307
-0.020553864538669586
0.06267646700143814
-0.043076880276203156
-0.08095075935125351
-0.0513579361140728
0.011829770170152187
0.02824489027261734
0.06356487423181534
-0.03364860266447067
0.026040347293019295
0.053773924708366394
-0.05255979299545288
0.008836047723889351
-0.03391056880354881
-0.011403215117752552
-0.0845198780298233
0.06130586937069893
-0.08083312213420868
0.055281862616539
0.0538983978331089
0.07626353204250336
-0.04658694937825203
-0.008443310856819153
0.005650188773870468
0.03375077247619629
-0.019489066675305367
0.02663753367960453
0.06939282268285751
-0.01273424830287695
-0.05012087523937225
-0.00980101153254509
-0.0856117531657219
0.021153688430786133
-0.08315853774547577
0.006612581200897694
-0.004200947470963001
0.05352454259991646
0.03234346583485603
-0.031012970954179764
0.06776037067174911
0.0499788336455822
0.0059854332357645035
-0.03354226425290108
-0.01971675455570221
-0.07128673791885376
-0.07848219573497772
0.005722777917981148
-0.05638940632343292
-0.03495508059859276
0.038184598088264465
0.05618390440940857
-0.04202115163207054
-0.03957371786236763
0.018193474039435387
-0.02602352388203144
-0.011337061412632465
0.02171344682574272
-0.06998465955257416
0.04713946208357811
0.06289573758840561
0.008773479610681534
0.05495527386665344
-0.013729844242334366
0.07247062027454376
0.05476383492350578
0.0696994960308075
-0.061575572937726974
0.04956692457199097
-0.040812697261571884
-0.06862260401248932
0.006824066862463951
0.038927581161260605
-0.085601307451725
-0.025594273582100868
0.04133503884077072
-0.0109618054702878
0.012535149231553078
0.054285068064928055
-0.07587481290102005
0.05542321130633354
-0.05458930879831314
-0.022858263924717903
0.053571853786706924
0.06365181505680084
-0.02636026032269001
-0.04747733846306801
-0.08687283843755722
0.06930354237556458
0.055875975638628006
0.08002474159002304
0.04255232587456703
-0.04971825331449509
0.06183434650301933
0.04591459408402443
-0.05627290531992912
0.07862100005149841
0.00838890764862299
0.055485378950834274
-0.0508306659758091
-0.01017401460558176
-0.025517744943499565
0.01046439353376627
-0.06853233277797699
-0.0029797120951116085
0.046598389744758606
-0.07257280498743057
-0.07288791239261627
0.04576754942536354
-0.009352616965770721
-0.02886207029223442
0.06559629738330841
0.0782894417643547
-0.03494499251246452
-0.06872977316379547
-0.056391991674900055
0.002994404174387455
0.06650301069021225
-0.04168519005179405
-0.04931413754820824
-0.06794518232345581
-0.020524870604276657
-0.07893093675374985
0.08540686219930649
-0.017416711896657944
-0.06037347391247749
0.04439832270145416
-0.02993043325841427
0.03936034440994263
-0.07236777245998383
-0.06047223135828972
0.023909766227006912
0.0684177428483963
-0.07035082578659058
-0.035385988652706146
0.022052649408578873
-0.08236242830753326
0.02915329299867153
0.07387790083885193
-0.019959991797804832
0.021299684420228004
-0.053539808839559555
-0.012163540348410606
0.030081674456596375
-0.04603593423962593
0.040713369846343994
0.060493744909763336
-0.07472863793373108
0.07167244702577591
0.04173656180500984
-0.025968721136450768
-0.01836322247982025
0.08011803030967712
0.008195186033844948
0.04570461064577103
-0.06252855807542801
-0.034799616783857346
-0.08377566933631897
-0.03698503226041794
-0.04908835515379906
-0.04798270761966705
-0.060787081718444824
0.032616760581731796
0.028075741603970528
-0.08309399336576462
-0.009314578957855701
0.030458420515060425
-0.05198553949594498
0.024482667446136475
0.04508618265390396
-0.01563395746052265
0.050426941365003586
-0.00023055975907482207
0.01812669076025486
-0.03269749507308006
0.07710706442594528
0.006808057427406311
0.03725383058190346
-0.011640067212283611
0.0481647290289402
0.028866633772850037
-0.006136525887995958
-0.01913866586983204
0.022550608962774277
0.015352293848991394
-0.04569606855511665
-0.07787913084030151
0.03827713057398796
-0.004388602450489998
0.05201134830713272
-0.08297161012887955
0.0791163519024849
0.07145228981971741
-0.030050957575440407
-0.07600457221269608
0.011813691817224026
0.055410776287317276
0.06226881593465805
-0.05456656962633133
-0.062059998512268066
0.061614539474248886
0.0024058925919234753
-0.06481190770864487
0.032072748988866806
-0.014276265166699886
-0.08020757138729095
-0.03668709844350815
-0.011791413649916649
-0.01745663769543171
-0.07935187220573425
-0.039683230221271515
0.042311519384384155
-0.03568706288933754
-0.08412041515111923
-0.05907590687274933
0.026639992371201515
0.07873475551605225
0.05882348492741585
0.08082198351621628
0.0015938262222334743
0.07369592785835266
0.06843049079179764
-0.06713652610778809
-0.0002546673349570483
-0.0523107573390007
0.009885276667773724
0.025435619056224823
0.06308087706565857
0.025871513411402702
0.0493832565844059
0.016712673008441925
0.07973144948482513
0.06812506169080734
-0.07906124740839005
-0.0298683512955904
0.04115190729498863
0.025223009288311005
-0.018337411805987358
-0.03474736958742142
0.03647022321820259
-0.04134434834122658
0.023625200614333153
-0.044922132045030594
-0.01996108889579773
-0.014586882665753365
-0.07731771469116211
-0.02928294986486435
-0.06735727936029434
-0.047686219215393066
0.003509345930069685
-0.03620631992816925
-0.041403017938137054
-0.015552466735243797
0.0279715433716774
0.01437721960246563
-0.08436902612447739
-0.07408807426691055
0.026818156242370605
-0.008724415674805641
-0.07418110966682434
0.03325456753373146
0.06620791554450989
0.04198130592703819
-0.0794319212436676
0.00123617984354496
-0.05255375802516937
0.022671351209282875
-0.02497681975364685
-0.04271368682384491
-0.023444199934601784
-0.08816667646169662
-0.008581581525504589
-0.07667029649019241
-0.07419459521770477
-0.005520446691662073
0.07262607663869858
-0.08204161375761032
0.06657673418521881
0.022705789655447006
-0.06727416068315506
-0.07048887014389038
0.07699821889400482
-0.026450855657458305
0.0376167856156826
-0.06208963319659233
-0.006990829948335886
0.02858394756913185
-0.03352215886116028
-0.04083811119198799
0.020635884255170822
0.048256050795316696
0.055543482303619385
-0.05843883380293846
0.03720530495047569
-0.016303667798638344
0.025657914578914642
-0.04089837893843651
0.027435941621661186
0.006421293132007122
0.05762089416384697
0.012470412068068981
-0.012663769535720348
0.061486080288887024
0.05389537289738655
0.02903093583881855
-0.06218463554978371
0.03737446293234825
0.060698118060827255
0.07451485842466354
-0.05113096535205841
-0.0263198371976614
0.02803497202694416
0.0026710759848356247
0.038367919623851776
-0.06604442745447159
-0.08507619053125381
-0.06156177073717117
-0.016565481200814247
-0.06876925379037857
-0.08101579546928406
0.048432204872369766
-0.0820300504565239
0.03490689769387245
0.042073775082826614
0.05865059792995453
0.03398178145289421
-0.08082739263772964
0.07427016645669937
0.04695302993059158
0.055962610989809036
-0.023879731073975563
0.02720457874238491
0.06115906685590744
-0.08284038305282593
-0.06770884245634079
-0.06410952657461166
-0.005898211617022753
-0.033546462655067444
0.033491916954517365
0.031587906181812286
0.029079243540763855
0.03699337691068649
0.04383530840277672
-0.08158517628908157
0.0820695012807846
-0.055330947041511536
0.0209128949791193
-0.047688793390989304
0.069032683968544
-0.0748196542263031
-0.008469618856906891
0.03048909828066826
-0.04183372110128403
-0.061931438744068146
0.07303133606910706
-0.06161088868975639
0.06769142299890518
0.043971382081508636
0.005696093197911978
0.029788268730044365
-0.07021628320217133
0.07147220522165298
-0.04259894788265228
0.07231514155864716
0.023574335500597954
-0.050671130418777466
-0.072658009827137
-0.004595574922859669
0.014931529760360718
0.03287588059902191
0.060251470655202866
0.03514286130666733
0.009884276427328587
-0.04745422303676605
-0.02628977969288826
-0.04399088770151138
0.005544082261621952
-0.07916213572025299
0.021433066576719284
0.003732075449079275
-0.03504316136240959
-0.028851943090558052
-0.05461178719997406
-0.02293292246758938
-0.08116240054368973
0.053607027977705
-0.005829332396388054
0.08183158189058304
0.08171270787715912
0.02272791974246502
0.025349214673042297
-0.039935335516929626
-0.020929094403982162
0.006616286933422089
-0.06091184914112091
0.05220923200249672
-0.059858351945877075
-0.05828972905874252
-0.028634900227189064
0.045887500047683716
-0.033332474529743195
-0.033702630549669266
0.022806668654084206
0.05518956109881401
-0.08164554834365845
-0.07713933289051056
-0.02931387908756733
0.004763051401823759
-0.06148746237158775
-0.008340608328580856
-0.054901767522096634
0.01660703681409359
0.035958316177129745
-0.015264092944562435
0.07663324475288391
0.06667733937501907
-0.05683320388197899
-0.0658932775259018
0.039718106389045715
0.0052994308061897755
-0.033093180507421494
0.006575485225766897
-0.004926145542412996
-0.06908230483531952
-0.06572291254997253
0.05680248513817787
-0.04717187210917473
0.009001512080430984
-0.016191497445106506
-0.05744108930230141
-0.010983116924762726
0.048522159457206726
0.06643422693014145
-0.01790442503988743
0.06657090783119202
-0.07283855229616165
-0.0751509740948677
0.048976462334394455
0.06726447492837906
0.07376402616500854
-0.003109769895672798
0.023252887651324272
0.06756419688463211
-0.04581395164132118
-0.005504143424332142
-0.0010866883676499128
-0.07564572989940643
0.007551624905318022
-0.005805933382362127
0.07491052150726318
0.05158831924200058
0.030105486512184143
0.07715003192424774
-0.01789999008178711
0.028278151527047157
-0.029762057587504387
0.027602165937423706
0.018612708896398544
-0.05552755668759346
-0.028812943026423454
-0.058294788002967834
-0.07687268406152725
0.08543312549591064
0.011920101009309292
0.011482873000204563
0.010208184830844402
0.05109073221683502
-0.07471457123756409
0.07194065302610397
-0.013979491777718067
-0.00344452285207808
0.0631546676158905
-0.0028809625655412674
-0.04612428694963455
-0.057692673057317734
-0.0253473948687315
-0.03641999140381813
-0.046564482152462006
0.06244177743792534
0.060454074293375015
0.02937782183289528
-0.0387253537774086
0.051788363605737686
-0.02828148379921913
0.06172088906168938
0.029628334566950798
6.56571428407915e-05
0.08197338879108429
-0.00015567269292660058
0.054965272545814514
0.010988359339535236
0.045249588787555695
-0.043463148176670074
-0.06122726574540138
0.05403660610318184
-0.06990261375904083
-0.07604081928730011
-0.036895956844091415
-0.01830841600894928
0.005451809149235487
-0.02658836729824543
0.02852356620132923
-0.0037462825421243906
-0.05612824857234955
-0.0043670302256941795
0.012791999615728855
0.0024026320315897465
0.030344637110829353
-0.08303788304328918
0.026213550940155983
0.025773508474230766
0.05772341787815094
-0.02909405156970024
0.03304672613739967
-0.08155537396669388
0.005284487269818783
0.05212300643324852
0.077720507979393
-0.0005911755724810064
-0.0009415180538780987
-0.008825311437249184
0.05297447741031647
0.03616275265812874
0.05682795122265816
0.07940752804279327
0.06819172203540802
-0.038276415318250656
0.011374296620488167
-0.04813619703054428
-0.02935628406703472
-0.06125449389219284
-0.026298556476831436
0.012143737636506557
0.06948161125183105
-0.04074515402317047
0.07906963676214218
0.01333397626876831
-0.041723210364580154
-0.039786431938409805
-0.0695965364575386
-0.07041817903518677
-0.00835601519793272
-0.031938422471284866
0.047996435314416885
-0.0596754215657711
-0.05895136296749115
0.014690360054373741
0.0030409337487071753
0.04445704072713852
0.07572834193706512
0.058906082063913345
0.03588941693305969
0.036817826330661774
-0.034601569175720215
-0.0024697573389858007
-0.04142558202147484
0.01999744400382042
-0.06996085494756699
0.040544215589761734
-0.039410803467035294
0.058459341526031494
-0.007507875096052885
0.0044482978992164135
-0.0489467978477478
0.015116377733647823
0.07541301101446152
0.04439736157655716
0.07697177678346634
-0.004241066053509712
0.03480873256921768
0.07710617035627365
-0.07966236770153046
-0.0747281163930893
0.04154868796467781
-0.0481569878757
-0.04313327744603157
-0.07561437040567398
0.022047273814678192
-0.055997636169195175
0.07531967759132385
0.002186102792620659
0.050186239182949066
-0.07456167042255402
0.03936038538813591
-0.037956707179546356
0.06975314766168594
-0.07787343114614487
0.0011339746415615082
-0.07882001996040344
-0.07435334473848343
-0.036873601377010345
-0.020454086363315582
-0.023876957595348358
0.006306328810751438
-0.06085198372602463
-0.03730619698762894
-0.036303985863924026
-0.08715084940195084
0.0001847243693191558
-0.010013644583523273
-0.02914990857243538
0.022630466148257256
-0.06263945251703262
-0.06044571101665497
-0.018273819237947464
0.07404345273971558
-0.0762718915939331
0.008914580568671227
0.08137433230876923
0.004600883461534977
-0.06963080167770386
-0.06680858880281448
0.02704690396785736
0.050111133605241776
-0.061280518770217896
-0.04497335106134415
-0.02581693045794964
0.019562996923923492
-0.04051877558231354
0.02710769511759281
-0.04752808064222336
0.002149531850591302
-0.06070001795887947
0.009235692210495472
0.01717282645404339
0.04004163667559624
-0.05993667617440224
0.01781116984784603
-0.01500821765512228
0.058121971786022186
0.07789606600999832
0.027342582121491432
0.05670427158474922
0.05728554353117943
-0.0719190239906311
-0.06218596175312996
0.04148697480559349
-0.0841708779335022
-0.007952170446515083
0.019722791388630867
-0.06458073109388351
0.07195158302783966
-0.05539799481630325
0.051159072667360306
-0.062255773693323135
-0.048796314746141434
0.010958717204630375
0.04499746859073639
0.06025690585374832
-0.07623612135648727
-0.03989272564649582
0.06477493792772293
0.026381762698292732
0.023345358669757843
-0.0383877158164978
-0.04634940251708031
0.0012651586439460516
-0.07555337250232697
-0.08266326785087585
0.018988365307450294
-0.04516672343015671
-0.010028490796685219
0.0571795292198658
-0.07339996844530106
0.04465899243950844
-0.050537075847387314
-0.016298236325383186
0.07331601530313492
0.05870531126856804
0.005374351050704718
-0.05550262704491615
0.028110992163419724
0.04944293573498726
0.06546805799007416
-0.05111907050013542
0.059874121099710464
-0.00908997468650341
-0.02335090935230255
0.08036791533231735
0.04354473203420639
0.0414823442697525
-0.02781592309474945
0.03804045170545578
-0.048392001539468765
-0.05324944108724594
0.03077288344502449
0.06480361521244049
0.05018933489918709
0.03333957493305206
-0.016012517735362053
-0.06873741745948792
0.050246499478816986
-0.040082257241010666
-0.032922547310590744
-0.022914759814739227
-0.06348957866430283
-0.03947523608803749
-0.07867569476366043
0.04549359530210495
-0.07745758444070816
-0.030551528558135033
0.08028273284435272
-0.017560411244630814
-0.03562742844223976
-0.0210549496114254
0.033087994903326035
-0.044460099190473557
-0.025064866989850998
0.07241658866405487
-0.05233590304851532
-0.053845155984163284
-0.07833206653594971
-0.07789449393749237
0.02170454151928425
0.0482521690428257
-0.04801155626773834
-0.0824207067489624
-0.01361767202615738
0.039545413106679916
0.04871512949466705
0.01064113900065422
-0.030246751382946968
0.06052444875240326
0.020179379731416702
-0.004189858213067055
-0.05377250164747238
0.03565002605319023
-0.056551557034254074
-0.0669582262635231
0.022502979263663292
-0.0070803347043693066
-0.07206014543771744
-0.03096078895032406
-0.003915498498827219
0.04492941126227379
0.04548121243715286
0.01327612902969122
-0.020124725997447968
-0.05399055406451225
0.0754522904753685
0.002577538602054119
-0.02496097795665264
-0.04380267113447189
0.023437470197677612
-0.04563971981406212
-0.026640908792614937
0.021756203845143318
-0.05056925117969513
0.04470168799161911
0.08157439529895782
0.07705024629831314
0.047590017318725586
0.009307251311838627
0.02454695850610733
0.025827104225754738
0.014023412019014359
0.016993364319205284
-0.04177510738372803
-0.049087781459093094
-0.04216296970844269
0.011883780360221863
0.07814313471317291
-0.056913841515779495
0.06878906488418579
-0.024423906579613686
-0.04491256922483444
-0.01703212782740593
-0.04748474806547165
-0.02942720428109169
-0.04420690983533859
-0.017741655930876732
0.026492487639188766
0.0021127089858055115
-0.06891185790300369
0.061431143432855606
0.07560651004314423
-0.07556717842817307
0.07220207154750824
0.032192643731832504
0.06629066169261932
0.022899119183421135
-0.05108152702450752
0.018495870754122734
0.03710852563381195
0.04664725437760353
-0.0036516606342047453
-0.03392450138926506
-0.05272824317216873
-0.010547034442424774
-0.04678546264767647
-0.03962868079543114
0.04258865490555763
-0.010176513344049454
0.02752850390970707
-0.02118624933063984
0.038091931492090225
-0.04063228517770767
-0.0685158371925354
0.057649701833724976
-0.06399262696504593
-0.05723186582326889
0.057710200548172
0.07794152200222015
0.08016442507505417
0.0074651604518294334
0.047366756945848465
-0.05808961018919945
0.06158585473895073
0.011282417923212051
0.031228724867105484
-0.08314131945371628
-0.014467374421656132
0.009629357606172562
-0.015737250447273254
-0.05695684254169464
-0.07659279555082321
0.03599786013364792
0.05819990485906601
0.02665802836418152
-0.07671666145324707
-0.0020517902448773384
-0.04279547929763794
0.018435830250382423
0.05826551467180252
0.01237970869988203
-0.08253534138202667
0.06718216091394424
0.07226120680570602
0.04377537965774536
-0.07665816694498062
0.0635257139801979
-0.01790556311607361
-0.021773643791675568
0.017001988366246223
-0.07149071991443634
-0.06688737124204636
0.06473596394062042
-0.04642237722873688
-0.05752866715192795
0.01130499504506588
0.052740637212991714
-0.04037000238895416
-0.00758052384480834
-0.07571832090616226
0.05062657222151756
-0.046215176582336426
-0.06721124053001404
-0.051809150725603104
-0.08203291147947311
-0.031932320445775986
0.036777861416339874
0.020500384271144867
0.009533103555440903
-0.08717188984155655
-0.020858990028500557
0.031598929315805435
0.01911551132798195
0.00273412954993546
-0.07726665586233139
0.0659993588924408
0.06431858986616135
0.04332359880208969
0.07305023074150085
-0.08446226269006729
-0.0786786749958992
0.0075500705279409885
-0.0013641307596117258
0.01837575063109398
0.006846433039754629
-0.01064305379986763
0.059390854090452194
0.005691925995051861
0.0011591160437092185
0.019430847838521004
-0.07219336926937103
-0.04419737681746483
0.06928598880767822
0.021341590210795403
-0.0036762517411261797
0.07080941647291183
0.05011996626853943
-0.015096819028258324
-0.039452288299798965
0.01788986474275589
0.017129525542259216
0.03210747614502907
-0.06875565648078918
0.03559854254126549
0.06632694602012634
0.05976828932762146
-0.023433025926351547
0.04090635105967522
-0.006238259840756655
0.06323976814746857
-0.0724807009100914
-0.05812051519751549
0.00231671379879117
-0.06265048682689667
0.0432220883667469
0.02313918061554432
0.04618668928742409
0.01979907602071762
0.012483742088079453
-0.07067543268203735
0.04205195978283882
-0.024069396778941154
-0.029558416455984116
-0.056770484894514084
-0.06177397817373276
0.058010946959257126
-0.0515255369246006
0.03298461437225342
0.05327523872256279
0.0241533350199461
0.032756250351667404
0.076511450111866
0.06198514997959137
0.009029427543282509
0.03647530823945999
-0.07439903169870377
-0.016315221786499023
0.034294527024030685
0.04312489554286003
0.056582897901535034
-0.03586126118898392
0.0019281151471659541
-0.027055229991674423
0.03265880420804024
-0.01402474008500576
0.009554711170494556
0.05201878026127815
-0.027224307879805565
-0.04568697139620781
0.06621544063091278
0.01716514118015766
0.033068712800741196
0.07211106270551682
0.03778042644262314
-0.026898227632045746
-0.06834552437067032
-0.07414636760950089
-0.009705924428999424
-0.03707754611968994
-0.008370603434741497
0.08225613087415695
0.07383520156145096
0.04056471213698387
0.028058893978595734
0.059577248990535736
-0.08095096051692963
-0.073630191385746
0.011966238729655743
0.07223264873027802
0.031049152836203575
0.04382206127047539
0.06990247964859009
-0.06732704490423203
-0.013468228280544281
-0.02881043218076229
0.01856750249862671
-0.06481439620256424
0.07503869384527206
0.005544548388570547
0.060789499431848526
-0.022706706076860428
0.03527019917964935
-0.04983314871788025
0.02269766479730606
-0.04777924343943596
-0.03040902502834797
0.07001948356628418
0.060892850160598755
0.05556553229689598
0.03445155546069145
-0.0046350471675395966
0.0568658784031868
-0.019588198512792587
0.029838208109140396
0.04711989313364029
-0.01408430840820074
0.016436299309134483
-0.07731352001428604
0.07740006595849991
-0.04762353375554085
-0.029616983607411385
0.004164912272244692
0.06644964963197708
0.05234777182340622
-0.030474146828055382
0.08013927936553955
0.05201704427599907
-0.07018150389194489
0.06822372227907181
0.08173446357250214
-0.08039885759353638
-0.02885759435594082
0.052940335124731064
0.07854758203029633
-0.07660724222660065
0.024995381012558937
-0.07600117474794388
-0.0736522525548935
0.06990854442119598
0.06459294259548187
0.06597089022397995
-0.06796610355377197
0.052220918238162994
0.07117501646280289
-0.011816632933914661
0.048536937683820724
0.04711637645959854
0.028194889426231384
0.05137651413679123
-0.026569172739982605
-0.04140298068523407
0.07794003188610077
-0.0579754076898098
-0.007297648582607508
0.03156837448477745
0.045551422983407974
0.023440752178430557
-0.06187765300273895
0.05980665981769562
0.03853728622198105
-0.0021446209866553545
0.011052066460251808
-0.02036656066775322
0.043846555054187775
-0.05323253944516182
0.00026736618019640446
0.07912866026163101
0.04889350384473801
0.04170253872871399
-0.010366713628172874
0.05735960975289345
0.0634663850069046
-0.03847750648856163
0.06860887259244919
0.056074388325214386
-0.08344760537147522
0.045297201722860336
0.016280507668852806
0.05243938788771629
0.011430023238062859
-0.00548601383343339
0.08294910192489624
-0.06696956604719162
0.05146334692835808
0.057457730174064636
-0.0408393070101738
0.04261607304215431
-0.04779146611690521
-0.02083621919155121
0.019636355340480804
0.01028465572744608
-0.018907204270362854
0.036065444350242615
-0.028878089040517807
0.0005058019305579364
-0.03409522399306297
-0.013804919086396694
-0.05080258846282959
-0.03836726397275925
0.07657312601804733
-0.06416749209165573
-0.04977314546704292
-0.0076327454298734665
-0.08418441563844681
0.028443561866879463
-0.04367268458008766
-0.04746943339705467
-0.08296312391757965
-0.043697789311409
0.03989487886428833
-0.024124953895807266
-0.059074923396110535
0.0511898435652256
-0.0534386932849884
-0.04246298968791962
-0.06335156410932541
-0.031096674501895905
-0.04787979647517204
0.042740244418382645
0.007643647026270628
0.04549459367990494
0.016596321016550064
0.07242567092180252
-0.011686602607369423
-0.02625860832631588
-0.06581123173236847
-0.030287012457847595
0.006562008056789637
0.03457840532064438
-0.03119581937789917
-0.012444673106074333
0.06600446254014969
0.04562908411026001
-0.027432715520262718
-0.08210895955562592
0.05634670704603195
0.018251804634928703
-0.005688148085027933
-0.0391363762319088
-0.05305071920156479
-0.06929232180118561
-0.027054300531744957
0.0010603333357721567
0.07073114067316055
-0.05661458522081375
0.07008112967014313
-0.07725077867507935
-0.07329054176807404
-0.017031406983733177
-0.02004128135740757
-0.06053009629249573
-0.048343073576688766
0.009365828707814217
0.025970980525016785
0.001584260375238955
-0.04364803060889244
-0.004850051831454039
-0.014512128196656704
-0.015689119696617126
0.0572538860142231
0.0680275410413742
-0.07863296568393707
0.04167743772268295
0.01045411266386509
-0.08036135882139206
0.012087984010577202
0.04645128548145294
-0.03684407100081444
-0.0010186725994572043
0.05512861907482147
0.0063727423548698425
-0.07101652026176453
0.04631142318248749
-0.05599788576364517
-0.08097150176763535
-0.008357723243534565
0.08353554457426071
-0.004097773227840662
0.02502225898206234
-0.023349275812506676
-0.018706385046243668
0.07892952859401703
0.04783347249031067
-0.08118278533220291
0.00893666036427021
0.07986599951982498
-0.077760249376297
-0.05163748189806938
-0.017899643629789352
0.0068807885982096195
-0.05769025534391403
-0.009055200964212418
0.03515219688415527
0.0685262605547905
0.0009714913321658969
-0.024646436795592308
0.0036651974078267813
-0.05890021473169327
-0.05964730679988861
-0.08193521201610565
0.02428414300084114
0.0031273772474378347
-0.03411528468132019
-0.018254436552524567
-0.06128286197781563
0.03156854584813118
0.04608380049467087
-0.027910323813557625
0.009924421086907387
-0.06542699784040451
-0.04995034635066986
0.03258287161588669
0.07070145756006241
-0.06483317911624908
-0.04093024134635925
0.015207392163574696
0.011471991427242756
-0.049834128469228745
-0.06743143498897552
0.03896902874112129
0.07209141552448273
0.07130434364080429
-0.02898191474378109
0.038175154477357864
0.06766443699598312
-0.0014535441296175122
-0.054002612829208374
-0.0409831665456295
-0.02906356006860733
-0.019524235278367996
0.03835011273622513
-0.035116638988256454
-0.038596924394369125
0.03708910197019577
0.016193747520446777
-0.012759461998939514
-0.03671175613999367
0.0009156729211099446
0.03320121765136719
-0.0028212228789925575
0.051836080849170685
-0.04952523857355118
-0.07613635808229446
-0.0021030856296420097
0.04195200279355049
-0.018007200211286545
0.04971896484494209
0.029565561562776566
-0.051949042826890945
0.049995847046375275
-0.07932625710964203
-0.06668999046087265
0.0792122408747673
-0.0786789059638977
-0.03314059600234032
-0.05773348733782768
-0.044716183096170425
0.07977750152349472
0.016144923865795135
-0.055671267211437225
0.06411135941743851
-0.07861384749412537
0.02900180034339428
-0.08204092085361481
0.07522765547037125
-0.03644987568259239
-0.006397097371518612
-0.07466492056846619
0.050888676196336746
0.06582832336425781
-0.03207129240036011
0.07529288530349731
-0.06366527080535889
-0.014311802573502064
-0.013785276561975479
0.0033908700570464134
0.036495137959718704
0.00440836139023304
-0.074550561606884
-0.06409610062837601
0.05239838361740112
0.07325587421655655
0.009932824410498142
-0.04617754742503166
0.022146016359329224
0.043143387883901596
-0.025026515126228333
-0.017722565680742264
0.005051541607826948
-0.038982994854450226
0.053068339824676514
-0.026121944189071655
-0.07989762723445892
-0.03672822564840317
-0.029314570128917694
-0.022855758666992188
0.019218431785702705
-0.06441442668437958
-0.01764625310897827
0.020979324355721474
-0.08520860970020294
0.027403565123677254
0.007239071652293205
-0.08270014822483063
0.04985560104250908
-0.018596209585666656
0.011721769347786903
0.007488757837563753
0.06091580167412758
-0.055495407432317734
0.03335060551762581
-0.04157420992851257
-0.07027524709701538
0.019253363832831383
-0.04846350848674774
0.05057376250624657
-0.047590337693691254
-0.03097223863005638
-0.08095807582139969
-0.04198261722922325
0.008405974134802818
-0.05063376575708389
0.009539303369820118
0.01060833316296339
0.004408957902342081
0.05609052628278732
-0.033556148409843445
-0.04174255579710007
-0.0444067046046257
-0.006953291594982147
0.016724374145269394
-0.06291744858026505
0.028203656896948814
0.029682958498597145
0.04204333573579788
-0.010303396731615067
-0.06168708577752113
0.07745768874883652
0.06868428736925125
0.00136150314938277
0.038466114550828934
-0.07532916218042374
-0.03306515887379646
0.03138739615678787
0.04434860870242119
-0.031655341386795044
-0.06766028702259064
-0.055673230439424515
-0.03486014902591705
0.04410216212272644
-0.038963109254837036
0.04965810105204582
0.05898463353514671
-0.05684339255094528
-0.06632684916257858
-0.04115189611911774
0.017135223373770714
0.027737511321902275
0.0508231446146965
0.05598815903067589
0.04542571306228638
0.03234455734491348
0.024752430617809296
-0.07996055483818054
-0.032262638211250305
0.05696780979633331
-0.024214977398514748
-0.002530132420361042
-0.01859593391418457
-0.03887567296624184
-0.034641142934560776
0.03216125816106796
-0.0565190315246582
0.01665342040359974
-0.07687463611364365
-0.03928307071328163
-0.03575955703854561
-0.07804016023874283
0.04778619855642319
0.016793247312307358
-0.02377491444349289
-0.06115865334868431
-0.005435343831777573
0.017948349937796593
0.05536939576268196
0.07200634479522705
-0.005275513045489788
-0.07217391580343246
-0.029530169442296028
-0.043711721897125244
0.00584755465388298
0.06633662432432175
0.06366623193025589
-0.030820293352007866
0.041701797395944595
-0.05212404578924179
0.05307118967175484
0.04411634802818298
-0.024738013744354248
0.0652342364192009
0.070347361266613
-0.055482201278209686
-0.010764594189822674
0.01471417210996151
0.04814021661877632
0.04711117595434189
-0.08045079559087753
0.06378518790006638
-0.0661763995885849
0.010079414583742619
0.01726466976106167
0.01416011806577444
-0.06890272349119186
0.07518520951271057
-0.025986764580011368
0.02132832072675228
-0.031985580921173096
-0.008298573084175587
0.004420652519911528
-0.05283266305923462
-0.04171952232718468
-0.046667687594890594
0.061947304755449295
-0.029836948961019516
-0.07553382217884064
-0.07635685056447983
-0.07780707627534866
0.004919476807117462
-0.07360672950744629
0.008064566180109978
-0.019462499767541885
-0.06862224638462067
0.0016994343604892492
0.03358815610408783
-0.00649702874943614
-0.05935157462954521
0.0755339190363884
0.06383556127548218
-0.07257381081581116
-0.08074837177991867
-0.07735414057970047
0.07453914731740952
0.0657491534948349
-0.017344824969768524
-0.026150498539209366
0.014332970604300499
0.06423438340425491
-0.058338042348623276
-0.0013651556801050901
0.04568955674767494
0.03230973705649376
-0.04015839472413063
0.06479649245738983
0.02172940969467163
0.002762140706181526
-0.07799514383077621
0.049474962055683136
-0.015046320855617523
0.0734759271144867
-0.07949402183294296
0.015229277312755585
-0.06623373180627823
0.03844591602683067
-0.023146366700530052
0.0742078423500061
-0.027686750516295433
-0.025542890653014183
-0.0005371530423872173
0.030737128108739853
0.06594475358724594
0.01928798109292984
0.002888265298679471
0.04246796667575836
0.07487594336271286
0.01672791875898838
0.06992005556821823
0.07134446501731873
0.04999225214123726
-0.06762517243623734
0.07921402901411057
0.06475123018026352
0.0011117837857455015
-0.07744985818862915
-0.07466306537389755
-0.05751412361860275
-0.02159624546766281
-0.06854236871004105
-0.07240581512451172
-0.04044833034276962
0.041482195258140564
-0.0568951815366745
-0.034546948969364166
0.012621164321899414
-0.07182049751281738
0.020702118054032326
0.02134961448609829
0.07200968265533447
-0.04649417847394943
-0.05293101817369461
0.03212931379675865
-0.06094430014491081
-0.07216819375753403
-0.049731459468603134
-0.05503763258457184
-0.03319680318236351
-0.03142924979329109
0.04385510832071304
0.07524963468313217
0.014997300691902637
0.014795784838497639
-0.06352625042200089
-0.01772172376513481
-0.050370827317237854
0.001544044935144484
0.03876147419214249
0.05680082365870476
-0.07184870541095734
0.05845464766025543
0.04494599252939224
-0.026763854548335075
0.030762644484639168
-0.04404563456773758
-0.014149904251098633
-0.03311653435230255
0.07074912637472153
0.06211027875542641
0.06733167171478271
-0.014652099460363388
0.009145809337496758
-0.012315581552684307
-0.012971718795597553
0.04976050555706024
0.033718787133693695
0.034445423632860184
0.050236523151397705
-0.006419733166694641
0.06900538504123688
0.015241961926221848
0.07257016003131866
-0.06069555506110191
0.01056457869708538
0.004500486422330141
0.053170397877693176
0.006340920925140381
-0.051479484885931015
-0.014673403464257717
-0.0025225705467164516
-0.006145515013486147
0.02138851396739483
0.04602392017841339
-0.05212337523698807
-0.0762873962521553
-0.02972535789012909
0.0034656724892556667
0.02883707359433174
0.018921788781881332
-0.08055244386196136
-0.040631163865327835
0.026028813794255257
-0.05993449687957764
0.06558581441640854
-0.03999493643641472
0.07892690598964691
0.0006380724371410906
-0.032977066934108734
0.01723884977400303
-0.015475108288228512
0.07550577074289322
-0.02866991050541401
0.04167895391583443
-0.002289850264787674
0.07650554180145264
0.01889091730117798
-0.0364033468067646
0.053243931382894516
-0.031915612518787384
-0.03722740337252617
-0.023363396525382996
-0.035332486033439636
-0.046584904193878174
0.06143156811594963
-0.0026660074945539236
0.038491006940603256
0.02640790306031704
-0.08496058732271194
-0.01597008854150772
-0.07787530869245529
-0.02283194102346897
-0.009293400682508945
0.019357990473508835
-0.048008039593696594
0.03967027738690376
-0.010238882154226303
-0.04044073075056076
-0.07723737508058548
0.004050477407872677
0.06624848395586014
0.0689299926161766
0.06986422836780548
-0.04953378066420555
-0.011251699179410934
-0.05143647640943527
-0.03382599353790283
0.04062175750732422
0.04489164799451828
0.0006997957243584096
-0.03526338189840317
0.023711007088422775
-0.047532301396131516
-0.010973463766276836
0.055695176124572754
-0.028993669897317886
0.07822351902723312
-0.08207453042268753
-0.006068646442145109
0.06885112822055817
-0.0018401519628241658
-0.029283715412020683
0.002117062686011195
0.01891447976231575
-0.026391977444291115
0.003540815319865942
-0.013890639878809452
-0.012997760437428951
0.015095748007297516
-0.029988033697009087
-0.007001134101301432
0.06232426315546036
0.07700244337320328
-0.014262459240853786
-0.025411780923604965
0.06222650036215782
0.04911293089389801
-0.020947473123669624
0.020443545654416084
-0.055335573852062225
-0.006956360302865505
-0.01748395897448063
0.07922214269638062
-0.026180461049079895
0.046497855335474014
0.05028695985674858
-0.031245797872543335
-0.061211295425891876
-0.07009413838386536
-0.05298778787255287
-0.06756611913442612
-0.0466182678937912
0.0634346753358841
-0.04255544766783714
0.059518132358789444
0.01534914132207632
-0.025130752474069595
0.007959925569593906
0.05517701804637909
0.061049818992614746
0.05226229876279831
-0.06796920299530029
0.03680593892931938
0.07050207257270813
0.07580503076314926
-0.0013071466237306595
0.061379220336675644
0.010005844756960869
-0.04925695061683655
0.024146530777215958
0.008579899556934834
0.05627010762691498
0.02253054641187191
-0.03410137817263603
0.006495903246104717
-0.02271888218820095
-0.06253713369369507
-0.04902518913149834
0.06963270902633667
-0.025059780105948448
0.04044639319181442
0.06034298613667488
-0.055384207516908646
-0.027255695313215256
0.05350511148571968
-0.019898319616913795
0.06178361549973488
-0.08598780632019043
0.040814369916915894
0.030432021245360374
0.05222294479608536
-0.07223973423242569
-0.08029843866825104
-0.05376438423991203
-0.041293684393167496
0.04976743832230568
0.0599413700401783
-0.05848662182688713
0.05655782297253609
0.010896955616772175
-0.014222472906112671
-0.026815051212906837
0.008774503134191036
-0.023084158077836037
0.05915436893701553
0.0014519533142447472
-0.08153359591960907
-0.006591344252228737
0.05520782247185707
-0.03841250762343407
-0.014782892540097237
0.012690314091742039
0.042366303503513336
0.009266240522265434
0.008738483302295208
-0.05354061722755432
0.05454074218869209
-0.031214335933327675
0.008103412576019764
0.0035941707901656628
-0.04072636365890503
0.07495065033435822
0.0781894251704216
-0.04592452570796013
0.022121820598840714
0.011956486850976944
0.07825103402137756
0.010737564414739609
0.0044517009519040585
0.017085649073123932
0.057777464389801025
0.07173804938793182
-0.02834509313106537
-0.04834570735692978
0.051631029695272446
-0.026017045602202415
-0.0402047373354435
0.062442418187856674
-0.08160145580768585
-0.054944343864917755
-0.07371886074542999
-0.0022297899704426527
-0.059425365179777145
-0.03680772706866264
-0.06798559427261353
0.0728246197104454
0.06440108269453049
-0.05947686731815338
-0.07532548159360886
0.026845397427678108
0.05009104311466217
0.05822514370083809
0.06662916392087936
-0.07854529470205307
0.04936344549059868
0.004635991994291544
0.041196923702955246
0.0360444076359272
0.030390391126275063
0.03515905141830444
-0.0012276427587494254
-0.03971227630972862
-0.026129042729735374
0.001735208323225379
0.016403155401349068
-0.011321086436510086
-0.05040493607521057
-0.03154411539435387
0.004637693054974079
0.06771896779537201
0.06413235515356064
0.02941867895424366
0.054986372590065
-0.042767561972141266
-0.08310668915510178
-0.018563292920589447
0.016655199229717255
0.027291277423501015
0.0077483681961894035
-0.04284938424825668
-0.04837055504322052
0.07437564432621002
-0.07590949535369873
-0.04372401162981987
0.04853670671582222
0.06840814650058746
-0.03936659172177315
0.02506236545741558
-0.024221593514084816
0.0402277372777462
-0.0077830832451581955
0.031734637916088104
0.06708674877882004
-0.011863011866807938
0.07406717538833618
-0.028077712282538414
-0.06585216522216797
0.02397117391228676
0.022116683423519135
0.0022655080538243055
0.07583318650722504
0.002859651343896985
-0.06519052386283875
-0.005499434191733599
0.024669554084539413
-0.048972006887197495
0.004685387015342712
-0.07812830805778503
-0.05432378873229027
-0.0726458951830864
-0.01308366097509861
0.005198232363909483
-0.02990645356476307
-0.050464142113924026
0.07643457502126694
-0.04491448402404785
0.05258661508560181
0.06964248418807983
-0.0038838216569274664
0.036542948335409164
0.05501917749643326
-0.08383135497570038
-0.06668869405984879
0.005339658819139004
0.04532992094755173
0.0814087837934494
-0.0011482390109449625
0.0037900274619460106
-0.044008154422044754
-0.04438989609479904
0.03651113063097
-0.01121062133461237
-0.010288700461387634
0.01695680432021618
0.02727881632745266
-0.01879090629518032
-0.06194081902503967
-0.06220240518450737
-0.0675189271569252
0.03727827966213226
-0.0649913027882576
0.04343055188655853
-0.005973597057163715
0.004628745838999748
0.05467744171619415
0.013834592886269093
-0.019399290904402733
-0.01948823407292366
-0.07584670931100845
-0.027476655319333076
0.07625909894704819
-0.020073918625712395
0.06214321777224541
0.04349880665540695
0.0164643507450819
-0.015552900731563568
0.06467294692993164
0.016736362129449844
-0.0807785764336586
-0.004550369456410408
0.030464766547083855
-0.032428208738565445
0.05098132789134979
-0.01580440253019333
0.04215452820062637
-0.014758170582354069
0.03059282712638378
-0.06664711982011795
-0.04334677383303642
-0.029135243967175484
0.003977023996412754
0.024380195885896683
-0.00522891478613019
0.08161769062280655
0.07595676928758621
0.042371965944767
-0.07124051451683044
-0.04536501318216324
0.03934874013066292
-0.02912510186433792
0.04157424345612526
0.05499156937003136
0.06250147521495819
0.0005545913591049612
-0.04222593456506729
0.051949888467788696
-0.031829625368118286
0.009117119945585728
0.0777272954583168
-0.05427637696266174
0.07692082971334457
0.023156987503170967
-0.06929811090230942
0.03837663307785988
0.0696280375123024
0.07674853503704071
-0.030747679993510246
-0.019776003435254097
-0.07159094512462616
-0.0417080856859684
-0.0688614472746849
0.07326165586709976
0.053381044417619705
0.026422157883644104
-0.017880834639072418
-0.024917494505643845
-0.0034929632674902678
-0.06129411235451698
0.06981365382671356
-0.035017918795347214
0.0292880367487669
-0.009664024226367474
0.0330093577504158
0.02149851806461811
0.06491761654615402
-0.004275600425899029
0.0071438513696193695
-0.005033356603235006
0.0030953269451856613
0.0546296089887619
-0.03630528971552849
0.028983494266867638
-0.04627365991473198
-0.028836792334914207
0.051175203174352646
-0.010981160216033459
-0.000412398629123345
-0.020451620221138
-0.037462782114744186
-0.04043780267238617
-0.07416363805532455
0.006968986243009567
-0.07584735006093979
0.006466718856245279
-0.06910390406847
0.006353587843477726
0.07016748934984207
0.049794331192970276
-0.0350901335477829
-0.05405349284410477
-0.07373332977294922
0.03535165637731552
-0.0008237231522798538
0.050645168870687485
-0.06804130226373672
0.011099033989012241
0.005733998958021402
-0.014199714176356792
0.07673347741365433
-0.05959552153944969
0.025381753221154213
0.009939715266227722
0.0089711993932724
0.05468178912997246
0.06920997053384781
-0.07695500552654266
0.0016578449867665768
0.01847023330628872
0.07394810765981674
0.07077433913946152
0.0014295857399702072
0.05319555476307869
0.05837410315871239
0.07324511557817459
-0.03259703889489174
-0.07361334562301636
0.012355384416878223
0.0402795784175396
0.029910841956734657
-0.04666773974895477
-0.02593454159796238
0.0316123329102993
-0.016204189509153366
-0.029536783695220947
-0.0004264811868779361
0.07020007818937302
0.03328549861907959
-0.03980053588747978
-0.05761879310011864
0.07133875787258148
-0.01741478405892849
-0.012521266005933285
0.044321514666080475
0.04742199555039406
-0.018574655055999756
0.01384763978421688
-0.044508129358291626
-0.07992251962423325
-0.05185651406645775
-0.04302087798714638
0.030560852959752083
-0.03925400599837303
-0.002322413492947817
-0.08418113738298416
-0.061577167361974716
0.011139043606817722
-0.05828676372766495
0.07162270694971085
-0.050183381885290146
0.03373819589614868
-0.0005058416863903403
-0.03520379588007927
-0.07120804488658905
-0.05273965373635292
-0.013839448802173138
-0.06726163625717163
-0.03901807218790054
-0.008667941205203533
0.04452027752995491
-0.07987432181835175
0.07999459654092789
0.04860096052289009
0.023919682949781418
0.015591373667120934
-0.04993905872106552
-0.021224969998002052
-0.03734683617949486
-0.08575532585382462
-0.07333121448755264
-0.0008025813731364906
0.08125614374876022
-0.053053803741931915
-0.030527351424098015
-0.03301983326673508
0.0015681470977142453
0.03835730627179146
-0.02571079134941101
-0.03172608092427254
-0.046271469444036484
0.06813304871320724
-0.01564127393066883
0.046035174280405045
-0.028456581756472588
-0.020596995949745178
-0.02032303996384144
-0.030557798221707344
0.02875949814915657
-0.036658354103565216
-0.03173204883933067
-0.05077572911977768
0.06556873768568039
0.03324399143457413
0.04437582567334175
-0.08006276935338974
-0.07547623664140701
-0.04923447594046593
-0.038446590304374695
-0.04909343272447586
-0.023184390738606453
0.06542272120714188
-0.003574046306312084
-0.055082764476537704
0.08308383077383041
-0.017746420577168465
0.03493481129407883
0.05401286482810974
-0.02548222243785858
0.06589828431606293
-0.027378417551517487
0.04849039018154144
0.060008276253938675
0.08102279156446457
0.07625079154968262
0.06476835906505585
0.03475886583328247
0.0022282309364527464
0.01052362285554409
-0.01770666614174843
0.03178267180919647
-0.000600949686486274
0.06014719232916832
-0.046430446207523346
0.017793195322155952
0.06372832506895065
0.050280824303627014
0.006481671240180731
0.04260270297527313
-0.03989861160516739
-0.02427813597023487
-0.042249664664268494
-0.06911049783229828
-0.04497406259179115
0.0062662032432854176
0.04180053994059563
-0.045164335519075394
-0.06171984225511551
-0.06403256952762604
0.057740747928619385
-0.07456812262535095
-0.05168318375945091
-0.042748939245939255
-0.05722630023956299
-0.07506191730499268
-0.02034926973283291
-0.004794084466993809
-0.011149697937071323
0.0164333526045084
0.03997039794921875
-0.0013328274944797158
0.008888748474419117
0.058101899921894073
0.07642277330160141
-0.06859973073005676
-0.05815558135509491
0.043121181428432465
-0.013450642116367817
-0.007116337306797504
-0.025970885530114174
-0.04117659106850624
-0.06673476845026016
-0.0015625690575689077
0.07753117382526398
-0.06063812971115112
0.07337027788162231
0.0672195553779602
0.013266796246170998
0.07601222395896912
-0.037077318876981735
-0.08371244370937347
-0.07293730974197388
-0.008595666848123074
0.05848916247487068
-0.054187994450330734
-0.046102963387966156
0.04313793405890465
-0.03827165067195892
-0.006252187769860029
0.08043559640645981
0.04388285428285599
0.03623336926102638
0.02966458722949028
-0.08181286603212357
0.008485738188028336
-0.08314353227615356
-0.008057694882154465
0.0018781378166750073
-0.03959920257329941
0.007062134332954884
0.0681491419672966
-0.005401363130658865
-0.015665261074900627
-0.014514834620058537
-0.05454646795988083
0.04727872461080551
0.06773015111684799
0.03391427919268608
0.045395515859127045
-0.07281673699617386
-0.014349725097417831
0.048998091369867325
0.046116020530462265
0.032670021057128906
-0.07071831077337265
0.008339295163750648
-0.08165325969457626
-0.0016872452106326818
-0.05629865452647209
0.04530879855155945
0.0683288648724556
0.008425412699580193
-0.048346180468797684
-0.06173879653215408
0.03635542839765549
-0.0031467771623283625
-0.01513876672834158
-0.021052876487374306
-0.03396657854318619
0.014999461360275745
0.06824295967817307
-0.017128409817814827
0.03470747917890549
0.07771744579076767
0.04733165726065636
-0.0858209952712059
0.003316303016617894
0.07788428664207458
0.0704817995429039
0.07350322604179382
0.047205086797475815
-0.014738664031028748
0.07206840813159943
-0.06420908123254776
-0.029633894562721252
-0.06755157560110092
-0.03721674904227257
-0.025013336911797523
0.0837186872959137
-0.060699351131916046
0.016371235251426697
0.02629987522959709
-0.05992363765835762
0.06001260131597519
-0.057481005787849426
0.02260812185704708
-0.05918144807219505
-0.07470884174108505
0.024589909240603447
0.034295834600925446
0.04125009849667549
0.043033864349126816
-0.082136370241642
-0.012473980896174908
0.04630352929234505
0.04706528037786484
0.025602592155337334
0.07172223180532455
-0.024877090007066727
-0.04336843639612198
0.038030922412872314
0.0405912920832634
-0.05796578899025917
0.07470794767141342
0.06874550879001617
-0.08345557749271393
-0.020788846537470818
0.04703688621520996
0.07282542437314987
0.04324762895703316
0.01749645546078682
-0.0693180039525032
-0.06376951932907104
0.0034376063849776983
-0.05612959340214729
-0.035849105566740036
0.024605093523859978
0.06665243208408356
-0.016860095784068108
-0.08197476714849472
0.06648315489292145
-0.04803519323468208
0.013320441357791424
-0.039441339671611786
0.0588623583316803
0.036407940089702606
-0.05793682858347893
-0.0522543266415596
0.0711015984416008
-0.049818869680166245
0.013992393389344215
0.05387604236602783
-0.019710395485162735
-0.036780454218387604
0.010776862502098083
0.006020792294293642
-0.07433372735977173
0.07271701842546463
-0.05158384516835213
-0.020748943090438843
0.06700649112462997
-0.035058047622442245
0.02279600314795971
0.03572441264986992
-0.04744798317551613
-0.05940106883645058
0.0630783662199974
0.028085947036743164
0.07924985140562057
-0.004636469297111034
-0.08143684267997742
-0.010990257374942303
0.017023928463459015
0.08023156970739365
0.005843616556376219
-0.007156789302825928
0.06739915907382965
0.006665238179266453
0.0483580157160759
-0.011879844591021538
-0.07623407244682312
0.016558663919568062
-0.01760794408619404
0.06547581404447556
0.07515458017587662
0.03584638610482216
0.009996050968766212
0.01964682899415493
-0.011934289708733559
-0.048513349145650864
-0.0028150544967502356
-0.05116875469684601
0.01427002064883709
-0.0688709020614624
-0.07330115884542465
0.001880664611235261
0.0772121325135231
-0.03732043132185936
-0.005431411787867546
0.05623658373951912
-0.05202453210949898
-0.009414095431566238
-0.011228939518332481
0.009984804317355156
-0.01581357792019844
-0.047412510961294174
-0.031621985137462616
0.08115414530038834
-0.033050522208213806
0.0029588176403194666
0.05349534749984741
0.05376909673213959
0.04629454016685486
0.028803110122680664
0.026467692106962204
-0.0759626105427742
0.037905167788267136
0.0010965605033561587
0.011704464443027973
-0.06361287832260132
0.06637971103191376
-0.018541907891631126
-0.05791059508919716
0.0694192498922348
-0.0775856152176857
-0.03955509141087532
-0.036571964621543884
-0.0515618696808815
0.024392472580075264
0.07398342341184616
-0.0392412506043911
0.012539980933070183
0.06278970092535019
0.07020983099937439
0.017102176323533058
-0.07594792544841766
-0.03184749186038971
0.031728629022836685
0.01905730366706848
0.05426119640469551
-0.030697064474225044
0.00790415983647108
-0.043314021080732346
-0.07697383314371109
-0.03857779502868652
-0.07581427693367004
0.015185835771262646
0.07248850166797638
0.0834297463297844
-0.06471893936395645
-0.01479653362184763
-0.07723639160394669
0.05592333897948265
-0.04045402258634567
0.07718317210674286
-0.029262052848935127
-0.07090087234973907
0.05044850334525108
-0.055595092475414276
0.07066433876752853
0.02948889322578907
0.018134431913495064
-0.03192497789859772
-0.08103784173727036
0.07183311134576797
-0.03387663513422012
-0.07154364883899689
-0.03175823763012886
-0.029056066647171974
-0.00397252244874835
-0.07274506241083145
0.04685943201184273
0.04590132087469101
0.013584802858531475
0.08139301091432571
0.04013350233435631
-0.007972299121320248
0.048733457922935486
-0.0785544216632843
0.04189888387918472
-0.04768119379878044
-0.0037354992236942053
0.006973588839173317
0.03938774764537811
0.05200323835015297
-0.08588171750307083
-0.07331351935863495
0.0806785300374031
-0.06252852827310562
-0.053431373089551926
0.01976124942302704
0.03236443176865578
-0.001256934367120266
0.06874768435955048
-0.0016414470737800002
0.006688091903924942
-0.04923368617892265
-0.02209467813372612
-0.0563979409635067
0.030534924939274788
-0.057949498295784
0.015364724211394787
-0.013696501962840557
-0.020540686324238777
-0.08245820552110672
-0.052024103701114655
0.0584385059773922
0.07711239159107208
0.014963098801672459
-0.002926027635112405
-0.03313707560300827
-0.08148965984582901
-0.025313276797533035
0.0009564770152792335
-0.031227143481373787
0.011559988372027874
0.02579316310584545
0.005780650302767754
-0.04715270176529884
-0.020230267196893692
-0.05510134994983673
0.009668207727372646
0.04419231042265892
0.0050317998975515366
-0.0834069773554802
-0.07956518232822418
0.04500624164938927
0.06233616918325424
-0.07679560780525208
-0.07207177579402924
0.0717875063419342
0.049518756568431854
0.00303755234926939
0.004871792159974575
-0.05069596692919731
0.04290253296494484
0.01747760735452175
0.04710716754198074
0.06935122609138489
-0.02730930596590042
0.042755238711833954
-0.07384271174669266
-0.05734119191765785
-0.05623815953731537
-0.059445664286613464
-0.06505869328975677
-0.022327221930027008
0.047169279307127
0.029465725645422935
0.010020014829933643
-0.05738027021288872
-0.046928469091653824
-0.013765496201813221
0.038949400186538696
0.06151430681347847
-0.0634702667593956
0.03193322941660881
-0.05838486924767494
-0.0056571271270513535
0.009872592985630035
0.035315923392772675
-0.015774069353938103
-0.018315766006708145
-0.05948244035243988
-0.044428661465644836
0.00789681263267994
0.0409141406416893
-0.047133080661296844
0.07527606189250946
-0.06292138248682022
-0.008569490164518356
-0.053497228771448135
0.024143768474459648
0.030217062681913376
0.00246907165274024
-0.06320109963417053
-0.026669828221201897
0.0340578630566597
-0.05008731409907341
0.019823288545012474
0.013483554124832153
0.005003067199140787
0.006077394355088472
0.03229974955320358
0.07540562748908997
-0.014481207355856895
0.028946753591299057
-0.052341725677251816
0.002320302417501807
0.06535354256629944
0.005441618151962757
-0.022348608821630478
0.0685393437743187
-0.022030021995306015
0.03930184617638588
0.03603728488087654
0.036741968244314194
-0.06962759047746658
-0.0005487692542374134
0.0278074461966753
-0.03467321768403053
0.01721436344087124
0.07286059856414795
0.08425404876470566
-0.05796780809760094
-0.06359226256608963
0.07478092610836029
0.04581715911626816
-0.007353661116212606
-0.04302216321229935
-0.05567460134625435
-0.06367837637662888
-0.0588284507393837
0.05683251842856407
-0.06676221638917923
0.05343921110033989
-0.005242800340056419
0.04988257214426994
0.07206019759178162
0.019759833812713623
-0.06415384262800217
-0.00987784843891859
-0.05186927318572998
0.06682789325714111
-0.061204709112644196
-0.021846288815140724
-0.030236613005399704
-0.004935977980494499
-0.06454697996377945
0.05011913180351257
0.004754341207444668
0.054464876651763916
-0.06290841847658157
-0.03133850544691086
-0.017922619357705116
-0.07224616408348083
-0.026727531105279922
0.023859087377786636
-0.07515061646699905
0.00636107474565506
-0.025381984189152718
0.011838880367577076
0.06073537841439247
0.001629295526072383
0.04797559976577759
0.037966225296258926
0.004737367853522301
0.043572522699832916
-0.07289242744445801
-0.08001628518104553
0.031468506902456284
-0.06535133719444275
-0.007916725240647793
-0.04333742707967758
0.060442909598350525
0.08016429841518402
0.020443640649318695
-0.05691919103264809
0.036657243967056274
0.03128242865204811
-0.016589725390076637
0.049273159354925156
-0.012681224383413792
0.013425497338175774
-0.0016039821784943342
0.030167434364557266
-0.010211813263595104
0.05429494380950928
-0.009995863772928715
-0.026677852496504784
-0.03147159144282341
-0.044724952429533005
0.05045028030872345
-0.07527286559343338
-0.010861797258257866
0.02863984741270542
0.04105256870388985
0.03945594280958176
-0.05815262347459793
0.03716001659631729
0.0562681220471859
0.03336244449019432
-0.05140143632888794
-0.025374935939908028
-0.01806768774986267
-0.023712513968348503
0.061686255037784576
0.023018715903162956
0.0019500888884067535
0.026039477437734604
0.06203168258070946
-0.04094884917140007
0.02460668236017227
0.01930932141840458
-0.07307615131139755
0.05081500858068466
-0.024444984272122383
0.03623262420296669
0.07024980336427689
0.026118874549865723
-0.027820222079753876
0.08095245808362961
0.0012520520249381661
-0.005512424279004335
-0.0456368513405323
0.0646667554974556
-0.05707405135035515
0.07838979363441467
0.0015867326874285936
0.07969937473535538
-0.06754046678543091
0.08234266191720963
-0.030302908271551132
-0.005140322260558605
0.022637441754341125
0.06795420497655869
-0.047806836664676666
0.07773815840482712
0.03651063144207001
-0.056842442601919174
-0.0417652502655983
-0.029631182551383972
-0.03111274167895317
-0.05056023970246315
0.06947708129882812
0.0532146692276001
0.07992956787347794
-0.04235830530524254
-0.06315227597951889
0.0020253073889762163
0.012130336835980415
0.062202367931604385
-0.0659327358007431
-0.006829732097685337
-0.03100433200597763
-0.010462542995810509
-0.011197221465408802
0.07285622507333755
-0.061242956668138504
0.011701607145369053
0.0019706818275153637
-0.07720400393009186
0.016478337347507477
0.007767585571855307
-0.05695050582289696
-0.005555473733693361
-0.05428669601678848
0.04408435896039009
-0.03329877555370331
0.006113822106271982
0.06316571682691574
0.05290801450610161
0.05278843268752098
-0.07464784383773804
-0.06903322786092758
0.011232209391891956
-0.024462444707751274
0.025622570887207985
0.05091932415962219
-0.06148143485188484
-0.03963331878185272
0.0031155480537563562
0.05717241391539574
-0.06868047267198563
0.0683809444308281
-0.06593764573335648
-0.04411013796925545
-0.03137623891234398
0.008844530209898949
0.0014519753167405725
-0.008595659397542477
-0.08167176693677902
-0.04673002287745476
-0.05160399153828621
-0.037698931992053986
-0.01678447611629963
-0.06621678173542023
-0.07210532575845718
0.008957589976489544
-0.0775868371129036
-0.04096698760986328
-0.0317981019616127
0.021307658404111862
-0.05521657317876816
0.0470237135887146
-0.03511084243655205
-0.07580161839723587
0.02338552288711071
-0.047613177448511124
-0.07431234419345856
-0.022135233506560326
-0.004486163146793842
-0.05056716501712799
0.04506849870085716
-0.012054278515279293
-0.07808876037597656
-0.04088864102959633
-0.015097931027412415
-0.07555914670228958
0.07489479333162308
-0.04716453328728676
-0.024453405290842056
-0.041964445263147354
-0.044468849897384644
0.0626276284456253
-0.03237955644726753
0.04298313707113266
-0.009427426382899284
0.08197246491909027
-0.0491560734808445
-0.05593453720211983
-0.0540415421128273
-0.021646074950695038
-0.0751386433839798
0.05175251141190529
-0.047561049461364746
-0.06663195788860321
0.04334145039319992
-0.03139160946011543
0.06008303537964821
-0.04555576667189598
-0.07401871681213379
0.025758706033229828
-0.03743654862046242
0.045390862971544266
0.02788246050477028
-0.015674404799938202
0.07973379641771317
0.05072493851184845
-0.01856427639722824
-0.004234680440276861
-0.0715794637799263
0.011921738274395466
-0.04335403814911842
-0.05357618257403374
-0.0801679939031601
0.04250340908765793
-0.0670318529009819
0.021008271723985672
0.010772093199193478
0.047172222286462784
0.0291284266859293
-0.0015235873870551586
0.07659244537353516
-0.07103865593671799
-0.041999608278274536
0.02251952514052391
-0.06769470870494843
0.04504561796784401
-0.07440567016601562
0.06892577558755875
-0.0784439668059349
0.07280387729406357
0.060375943779945374
0.016169538721442223
0.05275426432490349
0.05896521732211113
-0.04981996491551399
-0.04973248019814491
-0.06685984134674072
-0.02644955739378929
0.03546431288123131
-0.010314053855836391
-0.03565213084220886
-0.061182308942079544
-0.0015011915238574147
0.006582428235560656
0.05855260416865349
-0.06638987362384796
0.026967694982886314
-0.024359583854675293
-0.02992609143257141
0.04746546968817711
0.05778564512729645
-0.01181025430560112
0.08027613908052444
-0.07622697949409485
0.07995449006557465
-0.014654946513473988
-0.03013022057712078
-0.05267668515443802
-0.04081445187330246
-0.06492840498685837
-0.07281354069709778
-0.015214343555271626
0.018154794350266457
0.050514254719018936
0.07857578992843628
-0.01271197572350502
0.08145903795957565
-0.02356267161667347
0.0800275132060051
-0.06112063303589821
-0.0709298774600029
0.055791910737752914
-0.07089076191186905
-0.01688334159553051
0.0701012834906578
0.0508095882833004
-0.01255610678344965
-0.08195705711841583
0.0014596342807635665
0.04483914002776146
0.02682771347463131
0.04895157739520073
0.03267708420753479
0.015341058373451233
0.04063495621085167
-0.006024746224284172
0.030204756185412407
0.06922059506177902
-0.0272426288574934
-0.02715691737830639
0.036168165504932404
-0.018928205594420433
0.07207931578159332
0.0042654178105294704
-0.04773952066898346
0.014819729141891003
0.03644562140107155
0.0388181246817112
-0.05289055407047272
0.036672815680503845
0.020115427672863007
0.08086445182561874
-0.000667546468321234
-0.06452355533838272
-0.06879348307847977
0.06595855951309204
-0.07942931354045868
-0.034914590418338776
0.016908681020140648
0.023291070014238358
-0.041809916496276855
0.03765014931559563
0.0171462744474411
0.035014618188142776
0.020186912268400192
0.044689007103443146
0.02152557671070099
-0.06674136221408844
0.011796710081398487
-0.047019366174936295
0.0005442975671030581
0.02258976735174656
0.06941946595907211
0.020188482478260994
-0.015317277982831001
-0.038903772830963135
-0.02008056826889515
0.048987794667482376
0.050476621836423874
-0.0835985317826271
-0.0589732900261879
0.07974891364574432
-0.03901726007461548
-0.004713298752903938
-0.05024326965212822
-0.07572206854820251
-0.017475415021181107
-0.05714103952050209
0.01580733433365822
-0.043888695538043976
0.04927064850926399
-0.011750266887247562
0.07553273439407349
-0.012410488910973072
0.020373621955513954
0.06881613284349442
-0.06549372524023056
0.028943274170160294
-0.0291725043207407
-0.028079861775040627
0.0385126993060112
0.056973058730363846
-0.047940656542778015
-0.019014347344636917
-0.005301395431160927
-0.08348040282726288
0.05512673407793045
-0.0005139592685736716
-0.007201988250017166
-0.02076081745326519
0.0007609782624058425
-0.03328053653240204
0.05502639710903168
-0.04452290013432503
-0.029741188511252403
-0.08189856261014938
-0.07555365562438965
-0.07830361276865005
0.056527648121118546
-0.02354538068175316
0.04527154192328453
-0.04909684509038925
-0.06757642328739166
-0.010440897196531296
0.021918658167123795
-0.05580342561006546
0.013950314372777939
0.07907724380493164
0.06389575451612473
0.07697722315788269
-0.06803543120622635
-0.07790334522724152
-0.04335090145468712
-0.007537399418652058
0.0031844947952777147
-0.06972866505384445
0.03810139372944832
0.07338908314704895
0.0026155742816627026
-0.07134300470352173
-0.04668302834033966
-0.05016668513417244
0.02500743791460991
-0.04581644386053085
0.056844331324100494
0.06777831166982651
0.013677271082997322
-0.07154632359743118
0.056235313415527344
0.023491688072681427
1.007575701805763e-05
0.06458292156457901
0.021130751818418503
-0.02439158968627453
-0.08042071014642715
-0.01826011762022972
-0.02261131815612316
0.03601079434156418
-0.00505923293530941
0.024135742336511612
0.014561980031430721
-0.08295515924692154
-0.04730842635035515
-0.05623021349310875
0.07099012285470963
-0.0021846862509846687
0.01793953962624073
-0.0631701648235321
-0.021663635969161987
0.0013034382136538625
-0.07484272867441177
-0.005588207859545946
-0.02783866599202156
0.06350653618574142
-0.03301192447543144
0.025007208809256554
-0.042591262608766556
-0.05898302420973778
-0.0762990340590477
-0.007590274792164564
0.0069635724648833275
-0.016371194273233414
-0.0662696361541748
0.013376107439398766
-0.04966886714100838
0.0015326463617384434
-0.0037050105165690184
-0.03031986579298973
0.06849518418312073
0.007602925878018141
-0.01832473836839199
-0.07734283804893494
-0.04628930613398552
-0.06867517530918121
-0.018670648336410522
-0.06942892074584961
-0.0336182564496994
0.002992721274495125
-0.0008093056385405362
0.014165256172418594
0.030924661085009575
-0.06708583235740662
-0.03639690950512886
-0.013243532739579678
-0.05846003443002701
0.07306484878063202
0.01978105865418911
0.05515188351273537
0.025764651596546173
0.06383100152015686
-0.027267204597592354
0.05929740145802498
0.0034623886458575726
0.07748639583587646
-0.009040682576596737
0.049361370503902435
-0.07004503160715103
-0.02988852746784687
0.037060514092445374
0.0032272941898554564
-0.07222346216440201
0.055849503725767136
-0.002935767639428377
-0.043704014271497726
-0.028951428830623627
-0.043299350887537
-0.07707515358924866
-0.046461883932352066
0.041540853679180145
0.07279626280069351
-0.06352714449167252
-0.022095413878560066
-0.047066397964954376
-0.01198941096663475
-0.06131715700030327
0.007161249406635761
0.06787219643592834
-0.05732982978224754
-0.021679766476154327
-0.030458811670541763
-0.03152134269475937
0.011695223860442638
0.04337862879037857
-0.06902206689119339
-0.04111047089099884
-0.025294188410043716
-0.04607682675123215
0.07281967252492905
0.021876156330108643
-0.05577612668275833
-0.031762219965457916
0.020288841798901558
-0.005674766842275858
0.04677141085267067
-0.019734779372811317
0.07796052098274231
-0.02910003438591957
-0.007750154007226229
-0.08136046677827835
-0.07133901864290237
0.008626863360404968
-0.06427271664142609
-0.06320430338382721
-0.016472969204187393
0.030449125915765762
-0.07703319936990738
0.0028999170754104853
-0.030180104076862335
0.004768683575093746
0.05008774623274803
-0.04819437116384506
0.07806098461151123
-0.015240476466715336
0.00806285347789526
-0.03957117348909378
0.07422874122858047
0.05658240616321564
-0.06940484046936035
-0.04517184942960739
-0.056352026760578156
-0.05654096230864525
-0.05081067606806755
0.0601423941552639
0.016562731936573982
0.04588360711932182
-0.00741670373827219
-0.055489588528871536
-0.0362393781542778
0.044230327010154724
-0.038960106670856476
-0.0161680206656456
0.03469078242778778
-0.026750382035970688
0.010530458763241768
0.0019999544601887465
0.023924969136714935
0.009080889634788036
0.04327024146914482
-0.034243471920490265
-0.07062255591154099
-0.027074240148067474
-0.06603793799877167
-0.046024151146411896
-0.032502077519893646
-0.012213879264891148
-0.0003747740702237934
-0.03460651636123657
-0.02278369851410389
-0.003368951613083482
-0.029083583503961563
0.05815514177083969
0.04975496605038643
0.057893916964530945
0.03257828578352928
-0.07438886165618896
0.07993203401565552
0.035765141248703
-0.026319606229662895
0.019415561109781265
0.004464862402528524
-0.07790421694517136
0.008985817432403564
0.05790652334690094
0.05690016597509384
-0.0649576336145401
0.028483988717198372
-0.027048934251070023
-0.0765760987997055
0.030686331912875175
0.05440161004662514
-0.006440756376832724
-0.010226051323115826
-0.022657521069049835
0.007123854011297226
-0.009574209339916706
-0.043361589312553406
0.07736645638942719
-0.04743824154138565
0.06515428423881531
0.07851151376962662
-0.0008723108912818134
0.06131800264120102
-0.07237504422664642
-0.05542803928256035
0.001634750748053193
-0.027827726677060127
-0.03691482171416283
0.02354997955262661
0.035400450229644775
0.07100649178028107
-0.0074342601001262665
0.012150830589234829
0.05850723013281822
-0.004368428140878677
0.02164720557630062
-0.052641235291957855
0.016025252640247345
-0.019199112430214882
0.02060537599027157
-0.018756840378046036
-0.038895949721336365
0.01015912089496851
0.0689719021320343
-0.0816827192902565
-0.020222162827849388
-0.05564446002244949
0.053789228200912476
0.039129432290792465
0.04489046707749367
0.014710817486047745
0.06473635137081146
-0.03291421756148338
0.03851617872714996
0.04174640029668808
-0.05640261620283127
-0.06715189665555954
0.08110206574201584
0.035849571228027344
0.0082227922976017
0.006846301723271608
0.0705755427479744
-0.029116060584783554
-0.050734080374240875
-0.07595033198595047
0.02343161590397358
0.07386672496795654
-0.06913387030363083
-0.03619830310344696
0.027869731187820435
0.0748002901673317
-0.048808831721544266
0.07824286073446274
-0.0003961742331739515
-0.05420977249741554
0.01570454053580761
-0.004986132495105267
0.0715741291642189
0.07081181555986404
-0.06858101487159729
-0.017933035269379616
-0.042148225009441376
0.026074400171637535
0.03825141489505768
0.036382872611284256
0.07417621463537216
-0.03969589248299599
-0.0259832963347435
0.026337875053286552
-0.03295750543475151
0.05782300606369972
-0.0331464521586895
0.05441189929842949
-0.02977345697581768
0.045233651995658875
0.06233863905072212
-0.04116753116250038
0.022272193804383278
0.03695808723568916
0.0016903101932257414
-0.042063768953084946
0.07827503979206085
0.0069457232020795345
-0.061804186552762985
0.020855925977230072
-0.07552091032266617
0.018752675503492355
0.0068896315060555935
0.01227474957704544
-0.0005754154990427196
-0.054230984300374985
0.06214960664510727
0.08364738523960114
-0.024986211210489273
0.07282855361700058
-0.03150440752506256
0.004981025587767363
-0.04889371618628502
-0.08152998983860016
0.02791091613471508
-0.030089108273386955
0.03624274581670761
-0.008783621713519096
0.06857860088348389
-0.05950361490249634
0.06259255856275558
0.06079769879579544
0.029597578570246696
0.007368767634034157
-0.07213878631591797
0.07504212111234665
0.03821058198809624
-0.07276787608861923
-0.02807452715933323
-0.04262315854430199
-0.06811673939228058
0.039126280695199966
0.08421913534402847
-0.0577612929046154
-0.027967222034931183
-0.05100397393107414
-0.011396757327020168
0.04491700232028961
0.015605614520609379
-0.06663510203361511
-0.03902715444564819
0.003720681881532073
0.07830242812633514
-0.02356814593076706
0.06232714653015137
0.036635566502809525
-0.07223871350288391
0.06893982738256454
0.021020518615841866
0.016224663704633713
0.008144011721014977
0.05724740028381348
-0.05431796982884407
0.06196456402540207
0.05663585662841797
0.014185279607772827
0.06703510135412216
0.04026249423623085
0.058250539004802704
-0.041645750403404236
0.0744408369064331
0.056101296097040176
-0.07105138152837753
-0.07860897481441498
0.047297876328229904
0.0595894530415535
-0.05091092735528946
-0.06839349120855331
-0.0109585365280509
-0.05435626953840256
-0.078128382563591
-0.057883623987436295
0.047477785497903824
-0.03148287162184715
-0.04258522391319275
-0.027539104223251343
0.07197587192058563
-0.07057680934667587
0.019645927473902702
-0.0759950578212738
0.013283315114676952
-0.02102193608880043
-0.01393764466047287
0.07640162110328674
0.06213631480932236
0.03439129889011383
0.06209442391991615
-0.03967835009098053
-0.07958193123340607
-0.06641937047243118
0.06063129007816315
-0.02061961032450199
0.0647364929318428
0.04565175250172615
0.06184773147106171
-0.04686785489320755
0.003597074653953314
0.07520482689142227
0.06634525209665298
-0.006463507190346718
0.0465836301445961
0.016310228034853935
0.044939279556274414
-0.08339979499578476
0.07815612107515335
-0.057576555758714676
0.030368193984031677
0.011590983718633652
0.058496683835983276
0.0792340636253357
0.07196974754333496
-0.0039043244905769825
0.07292960584163666
-0.023669373244047165
0.047678519040346146
-0.02847718447446823
-0.052420951426029205
-0.07682549208402634
0.061168912798166275
-0.08001571893692017
-0.013571548275649548
0.06295429170131683
0.02038525603711605
0.06111147627234459
-0.05624625086784363
0.006259298883378506
0.06327202171087265
-0.08128922432661057
-0.07455199211835861
-0.018700923770666122
-0.07152453064918518
-0.07377594709396362
-0.06141578406095505
0.042273398488759995
-0.05930327996611595
-0.016903648152947426
-0.04190216213464737
-0.0009262581588700414
-0.010853644460439682
0.060547780245542526
0.011032311245799065
-0.08609726279973984
-0.05104305222630501
-0.07692164182662964
-0.06475234031677246
0.07411834597587585
0.025222716853022575
-0.05525147169828415
0.042011260986328125
0.06932157278060913
-0.07391301542520523
-0.0016244223807007074
0.07463158667087555
-0.07411973923444748
-0.03656691312789917
0.05546509474515915
-0.07535616308450699
-0.06256633251905441
0.04714086651802063
-0.006673463620245457
-0.05483488738536835
0.008784485049545765
-0.06964318454265594
-0.058961447328329086
0.03668674826622009
0.00396736990660429
0.024901024997234344
0.0159123744815588
-0.0690782219171524
-0.07955959439277649
-0.07493322342634201
0.028202617540955544
0.03185337781906128
-0.0345122292637825
-0.08386813849210739
-0.0015656065661460161
0.011800246313214302
-0.03229106590151787
-0.02000032551586628
-0.06218243017792702
-0.026882551610469818
-0.015358577482402325
0.0023342894855886698
-0.08243048191070557
-0.015610436908900738
0.011312777176499367
-0.04485467076301575
0.01174764521420002
0.02552533708512783
0.037881627678871155
-0.08480380475521088
-0.061694998294115067
-0.08615849167108536
0.018315423280000687
-0.007755788508802652
0.054232191294431686
0.06591520458459854
-0.002405032981187105
-0.043212417513132095
0.0021087764762341976
0.012155208736658096
0.032284919172525406
-0.05472720414400101
-0.004021637607365847
-0.0591297373175621
0.0037856148555874825
0.06585799902677536
-0.0596373975276947
0.012263392098248005
0.06595663726329803
0.012596188113093376
-0.04418327659368515
-0.02200891450047493
-0.03081952966749668
0.010344930924475193
-0.051180120557546616
0.06367412209510803
0.05956825613975525
-0.0047539761289954185
-0.061180394142866135
0.04820692539215088
-0.02536890283226967
-0.018008049577474594
0.075032077729702
0.014621478505432606
0.03482317924499512
-0.0204489603638649
0.018575230613350868
-0.03186337649822235
0.05509401857852936
-0.004802021663635969
0.04670754820108414
-0.07394776493310928
-0.06367132812738419
-0.0691315084695816
-0.039383817464113235
0.029664380475878716
0.036482229828834534
0.03170282766222954
0.056193798780441284
-0.042050596326589584
-0.06636227667331696
0.06073825806379318
0.07460422813892365
0.038239363580942154
-0.05497485026717186
-0.04026719927787781
0.03887259215116501
-0.08004231750965118
-0.07068230956792831
0.03073829598724842
0.04020330682396889
0.044606875628232956
-0.07506092637777328
0.0086396848782897
-0.03577279672026634
-0.03995111212134361
0.06529383361339569
-0.023202108219265938
0.02913467399775982
0.03640422597527504
0.0016029307153075933
0.028732934966683388
-0.0576343908905983
0.07355666160583496
-0.08472803980112076
-0.08078338205814362
-0.07995609194040298
0.018138578161597252
-0.04422936961054802
-0.0017267832299694419
0.06075811758637428
-0.05874938517808914
0.032866161316633224
0.06719927489757538
0.04984486103057861
-0.025819487869739532
0.015568153001368046
-0.05131016671657562
-0.05861445516347885
0.003784151514992118
-0.027996396645903587
0.07971720397472382
-0.06449774652719498
-0.07815095037221909
-0.000785959477070719
0.014406351372599602
0.026011092588305473
-0.06394308060407639
0.07972947508096695
0.05548771843314171
-0.059884168207645416
-0.07472379505634308
0.017325948923826218
-0.050421085208654404
-0.05209450423717499
-0.017148761078715324
-0.06434518843889236
-0.06379014998674393
0.05392347276210785
-0.012962019070982933
-0.02830115519464016
0.0036129658110439777
-0.004573988728225231
0.05795430764555931
0.06674893945455551
-0.05799943953752518
0.043158672749996185
-0.06001690402626991
-0.011840453371405602
-0.05378807708621025
0.01473225187510252
0.027704615145921707
-0.013681039214134216
0.03234696388244629
0.07764513790607452
-0.07891084253787994
0.03009302169084549
-0.04699874669313431
-0.04635780304670334
0.016746988520026207
0.006028302479535341
0.05763888731598854
0.05729644373059273
-0.0011639873264357448
0.03683485463261604
-0.049312569200992584
0.00901817623525858
-0.040143512189388275
0.028421426191926003
-0.06420636922121048
-0.07962588220834732
0.06856801360845566
-0.03755980357527733
-0.008875949308276176
-0.021334460005164146
-0.02532656490802765
-0.05805326625704765
0.01475364901125431
-0.07959126681089401
0.02271972969174385
0.0521855354309082
-0.07085171341896057
0.029938461259007454
-0.08147234469652176
-0.019990047439932823
0.03299391642212868
-0.036673661321401596
0.08215180039405823
0.026772217825055122
-0.06835279613733292
-0.022152239456772804
0.030313003808259964
0.0665149912238121
0.062152378261089325
-0.03374425694346428
0.05179328843951225
0.06745386123657227
0.04192791134119034
0.07793000340461731
0.03240088373422623
-0.02569759078323841
0.00032786972587928176
0.08007147908210754
-0.027246737852692604
0.05594121292233467
-0.02979668416082859
0.019597679376602173
-0.02427315153181553
0.07380346208810806
0.023661110550165176
-0.022386129945516586
-0.04821552336215973
0.053599681705236435
0.03534781560301781
-0.08320224285125732
-0.04416453465819359
0.020478708669543266
-0.05298056825995445
0.06439565122127533
-0.016746532171964645
0.018048765137791634
0.0021137529984116554
-0.025805862620472908
0.07220522314310074
-0.027538590133190155
0.014929045923054218
0.03688400238752365
-0.011521614156663418
0.061870235949754715
-0.0002476439985912293
0.017194723710417747
-0.00872536189854145
0.04402457922697067
-0.012342771515250206
-0.0628620907664299
-0.08230403810739517
0.059107597917318344
0.033308032900094986
-0.028501112014055252
0.02262047491967678
-0.07872360199689865
-0.05607736110687256
-0.08333519101142883
0.05216691642999649
-0.05735738202929497
-0.02211795374751091
-0.03124820441007614
0.04711031913757324
-0.06722334772348404
-0.03684668987989426
-0.07360319048166275
0.04162132367491722
-0.04021657630801201
0.014374658465385437
-0.01254303753376007
-0.07030481100082397
-0.040734320878982544
-0.05423678085207939
0.07231167703866959
0.048785652965307236
-0.047804441303014755
-0.046460963785648346
-0.003345348872244358
-0.05222851783037186
-0.04615667834877968
-0.08204621076583862
-0.05948171392083168
-0.017048299312591553
0.04792558029294014
0.07745552062988281
-0.049438610672950745
0.06274034082889557
0.080194391310215
0.05113720893859863
0.048002615571022034
0.021097855642437935
0.010005329735577106
-0.04143649712204933
-0.03328441083431244
-0.05078288912773132
0.06231588125228882
-0.048845525830984116
-0.05820564553141594
0.013643567450344563
-9.336993389297277e-05
0.028623001649975777
0.03567042946815491
0.016727719455957413
-0.07788373529911041
0.013001012615859509
0.053870029747486115
0.020887529477477074
-0.023765921592712402
-0.004519648849964142
-0.011866379529237747
-0.05038648098707199
0.04998628795146942
0.07587363570928574
-0.061483751982450485
-0.0665958970785141
0.06335917860269547
0.024679964408278465
-0.06047281250357628
-0.005714592523872852
-0.02775390073657036
-0.07839243859052658
-0.02308257855474949
-0.07252392172813416
0.07776742428541183
-0.01661529950797558
-0.06506506353616714
-0.05351466313004494
0.00754872290417552
0.022733362391591072
-0.07304322719573975
-0.05796507000923157
-0.060208164155483246
-0.04033747315406799
-0.008346536196768284
-0.051988184452056885
0.02381286770105362
-0.007230609189718962
-0.07443805783987045
-0.048035621643066406
-0.03014260157942772
0.074775829911232
0.07577415555715561
-0.05273585021495819
0.0234873928129673
-0.028226463124155998
0.0026768120005726814
0.048710573464632034
-0.02749042399227619
-0.06520646065473557
-0.06698606163263321
0.07594657689332962
0.07112985104322433
0.011190618388354778
-0.07565827667713165
0.031353551894426346
0.06683830916881561
0.043720562011003494
-0.07461701333522797
0.04064157232642174
-0.0035130649339407682
0.06484554708003998
-0.0007138950750231743
-0.04733000323176384
-0.038432084023952484
-0.05270346999168396
0.018940690904855728
0.04268251359462738
-0.08241809159517288
-0.06576260179281235
-0.056723255664110184
-0.037913721054792404
0.0027242687065154314
-0.07825887203216553
-0.01555517315864563
-0.04421694204211235
-0.0036208475939929485
-0.08054020255804062
-0.0358852855861187
0.06071547791361809
0.02392078936100006
-0.04893816262483597
0.024240704253315926
-0.0013632865156978369
-0.05440251901745796
-0.04110761731863022
0.07421991974115372
-0.022118909284472466
-0.06947511434555054
-0.0816098153591156
0.03100813739001751
-0.017795559018850327
-0.07761871069669724
0.033812783658504486
0.018535399809479713
-0.07687908411026001
0.05347498133778572
-0.07606904208660126
-0.01757046766579151
0.07528600841760635
-0.032928068190813065
0.05591698735952377
0.06440377980470657
0.021041827276349068
-0.06650063395500183
-0.012370254844427109
-0.08220316469669342
-0.05267176777124405
0.043383631855249405
-0.023026948794722557
0.02278745546936989
0.024516306817531586
-0.07602286338806152
-0.06760706007480621
-0.07744660973548889
-0.02022041380405426
0.03878557309508324
-0.05434168875217438
-0.08051203191280365
0.05059538036584854
-0.06605463474988937
-0.0783693939447403
-0.030451921746134758
0.046813931316137314
-0.012443155981600285
-0.05844026058912277
-0.004618963226675987
-0.010299107059836388
-0.05744621157646179
-0.009667906910181046
0.007444520015269518
-0.04583275318145752
0.03166321665048599
0.06765880435705185
0.0024070031940937042
0.05985390022397041
0.04167933017015457
-0.01944766193628311
0.06773293018341064
-0.08007244765758514
0.06232956424355507
-0.019982408732175827
0.06384563446044922
0.04920186474919319
-0.05491599440574646
-0.018553759902715683
0.028674064204096794
0.006470985244959593
0.025521885603666306
0.010639217682182789
0.0033756964839994907
-0.03977202996611595
-0.07826173305511475
-0.07047879695892334
0.07789522409439087
0.05956399068236351
0.04718618094921112
-0.007819768972694874
0.02190232090651989
0.0031350033823400736
-0.08003433048725128
0.07965084910392761
-0.039619553834199905
0.0431370846927166
0.06898314505815506
0.041756585240364075
0.05282554775476456
-0.06860046833753586
-0.07988028228282928
-0.08277085423469543
0.04672103747725487
0.0813889428973198
-0.07919682562351227
-0.07325547933578491
-0.0058757103979587555
-0.007059943396598101
0.0381629653275013
0.017951374873518944
0.017250558361411095
0.03605453297495842
0.06032390147447586
-0.026658181101083755
-0.07796221971511841
0.006445521023124456
0.050865285098552704
-0.07589975744485855
-0.04056743159890175
-0.078485406935215
0.06507110595703125
0.020752450451254845
-0.04508300870656967
-0.07254652678966522
0.032261211425065994
0.000635892734862864
0.027443641796708107
0.07702015340328217
-0.008881145156919956
-0.045902419835329056
0.005648700054734945
0.02560833841562271
-0.01162663847208023
-0.05588146299123764
-0.017078783363103867
-0.005028871353715658
-0.06841131299734116
0.04263836517930031
-0.028312303125858307
-0.03837967291474342
-0.041325315833091736
-0.005973035469651222
-0.03224721550941467
-0.01633559539914131
0.00745668588206172
-0.02366737276315689
-0.07321219891309738
-0.038052693009376526
-0.028918562456965446
0.0633896142244339
0.03659403324127197
-0.06725898385047913
-0.0654299184679985
0.054156556725502014
-0.05491902306675911
0.04328020289540291
-0.026859238743782043
0.08262956142425537
-0.04183892160654068
0.056082017719745636
0.010204315185546875
-0.04852774739265442
-0.06576833128929138
-0.07872960716485977
0.05543046072125435
0.0459444597363472
0.024101486429572105
0.004888089373707771
-0.00698245270177722
-0.01355605386197567
-0.04921264201402664
-0.05760763958096504
0.015412447042763233
0.018629755824804306
-0.06119239702820778
-0.024600228294730186
0.07462335377931595
-0.028106924146413803
-0.03697912022471428
-0.03901016339659691
0.0756491869688034
0.07870009541511536
-0.0071129947900772095
0.05311130732297897
-0.05715874955058098
0.014870882965624332
0.05184322968125343
-0.0418657623231411
0.012861914932727814
-0.08344602584838867
-0.0005309795378707349
0.07538828998804092
-0.008447381667792797
-0.02998008392751217
-0.019454563036561012
0.08026059716939926
-0.0038154793437570333
-0.023930935189127922
0.01915235072374344
0.0023769051767885685
0.05213979631662369
0.06800626218318939
0.07758791744709015
-0.0728069618344307
0.02008206956088543
-0.06652617454528809
-0.013381757773458958
0.007684520445764065
-0.0380614697933197
0.03317485749721527
0.06030869483947754
-0.04583774507045746
-0.033321451395750046
-0.06967074424028397
-0.052421990782022476
-0.08480410277843475
-0.049200426787137985
-0.041270654648542404
0.05598540976643562
0.019083036109805107
-0.020356133580207825
0.07895378768444061
-0.03001207858324051
-0.0016766440821811557
-0.00047761882888153195
-0.040470223873853683
-0.08693689852952957
-0.057398516684770584
0.020496519282460213
-0.07766995579004288
0.0044293394312262535
0.0219891294836998
0.07762838900089264
-0.003369108308106661
-0.006560050416737795
-0.07911304384469986
0.059730660170316696
-0.05593638867139816
0.05292630195617676
0.010602581314742565
0.06822091341018677
0.018037846311926842
0.062055665999650955
-0.04376869276165962
0.031129147857427597
-0.08026213198900223
-0.04491536691784859
0.018032250925898552
0.07136696577072144
0.0395255871117115
0.01162563543766737
0.027222856879234314
-0.08293327689170837
-0.023306449875235558
0.0606863871216774
-0.008466125465929508
0.0025231086183339357
0.020276958122849464
-0.02810956910252571
0.03724870830774307
0.036937225610017776
-0.059835925698280334
0.018531139940023422
0.03985463082790375
-0.008839297108352184
-0.05802027881145477
-0.01911516860127449
-0.06643231213092804
-0.0421442948281765
-0.061584439128637314
0.0401327982544899
-0.07280180603265762
0.07490053027868271
0.018608132377266884
-0.005979000125080347
-0.06883647292852402
-0.040060948580503464
-0.05526162311434746
0.0054471720941364765
-0.05864803120493889
-0.021146506071090698
-0.007115627638995647
-0.04089512676000595
-0.005979001522064209
-0.06478740274906158
0.048895735293626785
0.0151987224817276
-0.05541573092341423
0.05910976603627205
-0.07333805412054062
0.03269948810338974
0.0003807830798905343
0.019903570413589478
-0.05068339407444
0.05288581922650337
-0.003012295812368393
0.012119278311729431
-0.07236810773611069
0.01860322803258896
-0.015444916673004627
-0.045684244483709335
0.0633089691400528
-0.01962837390601635
0.02866818942129612
0.06930731236934662
0.005342594813555479
0.031149018555879593
-0.07520245015621185
0.07214497029781342
-0.05818901211023331
-0.029624147340655327
-0.08216628432273865
-0.02754289284348488
-0.06994835287332535
0.03145027160644531
-0.00826225895434618
-0.008629961870610714
-0.07194449752569199
-0.07412268221378326
-0.00480214087292552
0.01501228753477335
-0.0513361357152462
0.003540582023561001
0.053084079176187515
-0.041490860283374786
0.04802483320236206
-0.06064143776893616
0.00035309078521095216
0.03302517533302307
-0.07734252512454987
0.049446094781160355
0.017988694831728935
0.07199104130268097
0.07060670852661133
0.03274878114461899
-0.03507448360323906
-0.001003219629637897
-0.033455364406108856
0.028785988688468933
0.0694398283958435
-0.08017157018184662
0.0037562542129307985
-0.07612396776676178
-0.013230917043983936
-0.011717039160430431
-0.0422196201980114
-0.05992691218852997
0.08157902956008911
0.0714045837521553
-0.004367837682366371
0.07048637419939041
0.06537937372922897
0.0005339098279364407
-0.058493245393037796
0.024460773915052414
0.025815555825829506
-0.005830146837979555
0.06847032904624939
0.07831349968910217
0.021825246512889862
-0.034426555037498474
0.03375117853283882
0.07540446519851685
-0.005885249935090542
-0.009513857774436474
0.07769083976745605
-0.01557104755192995
-0.07416003942489624
-0.029106903821229935
-0.011401730589568615
0.03390039876103401
-0.04130600020289421
0.009474908001720905
-0.06805389374494553
0.013371688313782215
0.03814432770013809
0.0023226053453981876
-0.024089545011520386
0.031579986214637756
0.06513699144124985
0.05117163807153702
0.08187493681907654
-0.06600817292928696
-0.07498874515295029
0.058875102549791336
0.03669363632798195
-0.005957054905593395
-0.005520540755242109
0.044879473745822906
0.021654581651091576
0.06193619221448898
-0.08269930630922318
0.04772398993372917
-0.07980229705572128
-0.014888678677380085
0.047888677567243576
-0.03693690523505211
0.07079430669546127
-0.05088699236512184
-0.030135679990053177
0.08001860231161118
0.0011336685856804252
-0.02268846333026886
0.07999975234270096
0.06863710284233093
-0.010665491223335266
0.022085607051849365
0.05015714094042778
0.021061448380351067
0.05999598279595375
-0.05576397478580475
-0.051152367144823074
-0.013829999603331089
0.0037416499108076096
-0.029711799696087837
0.014219642616808414
0.009007222950458527
-0.043440401554107666
0.013701265677809715
0.03507150337100029
-0.007410784251987934
-0.0792965292930603
0.0653095617890358
0.06771774590015411
-0.06587917357683182
0.025947721675038338
-0.023930715397000313
0.03463011607527733
-0.010654368437826633
0.06358563154935837
0.08166943490505219
-0.029614973813295364
0.06566813588142395
-0.047537826001644135
0.018400607630610466
-0.02941006049513817
0.07340870052576065
-0.05633419379591942
-0.039858654141426086
0.0023730588145554066
-0.059061162173748016
-0.07234863936901093
-0.040733616799116135
-0.04942461848258972
-0.06846202909946442
0.004829481244087219
-0.01784154400229454
0.05467475578188896
-0.03698224574327469
0.07811190187931061
-0.04304039478302002
-0.024721894413232803
0.03949612006545067
0.033604975789785385
0.028202401474118233
0.061328623443841934
-0.06765032559633255
-0.014684055000543594
0.027169885113835335
0.0414385087788105
0.0006195885944180191
-0.04604456573724747
0.07361379265785217
-0.0696806013584137
-0.047076381742954254
0.008550509810447693
-0.03639974445104599
-0.02712099999189377
-0.03932914510369301
-0.04006427899003029
0.0501287505030632
0.047584936022758484
0.010434169322252274
0.05950835347175598
0.0749693214893341
-0.04770662635564804
-0.08231285214424133
0.08524515479803085
0.029730169102549553
-0.06507619470357895
0.08163154125213623
0.05351962149143219
-0.035829439759254456
-0.06421222537755966
-0.04097004979848862
-0.03579188883304596
0.037778764963150024
0.02881867066025734
0.07773298025131226
0.048024341464042664
-0.03390339016914368
-0.08052334934473038
0.045827366411685944
-0.017363661900162697
-0.06735776364803314
0.06157398596405983
0.00013461525668390095
0.08156224340200424
-0.03664590045809746
0.04612687975168228
0.07501876354217529
-0.005711366422474384
0.012750989757478237
0.04841916263103485
-0.02554258704185486
0.04957165569067001
0.0011579152196645737
-0.014523638412356377
-0.06933240592479706
0.0631263479590416
-0.05602525919675827
0.05449551343917847
-0.033966440707445145
-0.07997705787420273
-0.004104405641555786
-0.01414394285529852
-0.04060171917080879
0.04939485341310501
-0.07325457781553268
-0.03198830038309097
-0.06982237845659256
0.02080688439309597
-0.033479735255241394
0.029790302738547325
-0.025354407727718353
0.001597543596290052
-0.028007933869957924
-0.07878750562667847
0.08223046362400055
-0.023042667657136917
-0.041749924421310425
-0.06264615058898926
0.05718878284096718
0.07254712283611298
0.030540745705366135
-0.022674545645713806
0.02937919832766056
0.05291036143898964
-0.04620807245373726
-0.05642268806695938
0.0007389645325019956
0.0012997238663956523
-0.009356576018035412
-0.002605402609333396
-0.030152805149555206
0.07846412062644958
0.03319590166211128
-0.06352267414331436
0.04649677872657776
-0.03892410546541214
0.033536069095134735
-0.058237094432115555
-0.062042541801929474
-0.010703416541218758
0.013791535049676895
0.0030801889952272177
0.03521399945020676
-0.050301551818847656
-0.08135060966014862
-0.06631878018379211
0.013241354376077652
0.041747499257326126
-0.08307984471321106
-0.059592701494693756
-0.012574371881783009
0.02338588237762451
-0.07945971935987473
-0.02674667350947857
-0.06154859438538551
0.07781260460615158
0.06419955939054489
-0.0005628479993902147
0.03739839419722557
-0.03674842044711113
-0.06869644671678543
0.0010547181591391563
-0.018325069919228554
-0.027534177526831627
0.0009260696242563426
-0.05873318389058113
-0.05684259906411171
-0.031521689146757126
-0.010146387852728367
-0.06782352179288864
0.03428672254085541
-0.034555740654468536
-0.06947622448205948
0.008143958635628223
0.05880223587155342
-0.049167830497026443
0.06024489924311638
0.06939272582530975
0.027652200311422348
0.0032636900432407856
0.016061732545495033
-0.0728481262922287
0.029469318687915802
0.044910136610269547
-0.030773159116506577
0.06490319222211838
-0.005417796783149242
-0.03623977303504944
0.03925587236881256
-0.039151113480329514
0.06545377522706985
-0.034282032400369644
-0.016421964392066002
-0.07559092342853546
-0.01801527664065361
-0.0260641910135746
0.05599004775285721
-0.0413004569709301
0.03913543373346329
-0.06175897270441055
-0.011810313910245895
-0.024474745616316795
0.0026690501254051924
0.014527817256748676
-0.06976377218961716
-0.015288623981177807
0.050144895911216736
-0.0053234342485666275
0.013026049360632896
0.019189607352018356
-0.004116368945688009
0.00981334038078785
-0.05248863995075226
-0.07566158473491669
0.0012682691449299455
0.034255530685186386
-0.024352729320526123
-0.07318886369466782
0.0025544799864292145
0.048917219042778015
0.06973139196634293
0.032573070377111435
-0.027455994859337807
-0.07364187389612198
0.048738688230514526
-0.02524685300886631
0.019866865128278732
0.02585768885910511
-0.04553784802556038
-0.013059250079095364
-0.08295311778783798
-0.06679528206586838
0.07617433369159698
0.03363167494535446
-0.03823243826627731
-0.04191184416413307
-0.046490296721458435
0.03704783692955971
0.06787054985761642
0.07623004168272018
-0.07501084357500076
0.033080872148275375
-0.060704443603754044
0.03510262444615364
0.023908641189336777
0.020693259313702583
0.009535628370940685
0.05406481772661209
-0.003445040201768279
-0.06589660048484802
-0.041419800370931625
-0.052961837500333786
0.020912934094667435
0.014579170383512974
-0.02037954330444336
-0.05020314082503319
0.002718539210036397
0.05425854027271271
0.02555287443101406
-0.00015105894999578595
0.010444496758282185
-0.011069145984947681
-0.04997684806585312
-0.042726654559373856
-0.0330132395029068
-0.0006303667323663831
0.028618672862648964
-0.05528135225176811
0.0352480486035347
-0.08389255404472351
0.03805314749479294
0.016438467428088188
-0.08102020621299744
0.05930154025554657
0.07044617086648941
0.06616748124361038
-0.029448935762047768
0.06330474466085434
-0.03306356817483902
-0.03763967007398605
0.07670095562934875
-0.05076760798692703
0.034709833562374115
0.003857043571770191
-0.039094749838113785
0.01990090124309063
-0.05473565682768822
-0.06542527675628662
-0.008425979875028133
-0.07787099480628967
0.02708175778388977
0.03630666434764862
-0.0515332855284214
-0.029795844107866287
-0.07632134854793549
-0.04601471871137619
0.013472621329128742
0.05673445016145706
0.02937600389122963
0.05602620169520378
0.024224214255809784
-0.06713656336069107
0.07934415340423584
0.05128272995352745
-0.010939170606434345
-0.05601494014263153
-0.028979802504181862
0.0810583159327507
0.022884266451001167
-0.06363483518362045
-0.027788132429122925
-0.027147984132170677
0.0846182331442833
0.06788783520460129
-0.06196334958076477
-0.02647123672068119
0.06287157535552979
0.04932916536927223
0.01995915360748768
-0.01940002478659153
-0.013103226199746132
-0.07422017306089401
-0.04374372586607933
-0.06392337381839752
-0.07389352470636368
-0.03338969126343727
-0.046963728964328766
-0.008466809056699276
-0.06864470988512039
-0.04561787471175194
-0.0784926488995552
-0.04874979332089424
-0.021230623126029968
-0.059310078620910645
0.006684929132461548
-0.03456956148147583
-0.005273081827908754
-0.016862841323018074
-0.07293400168418884
-0.07452883571386337
0.026121189817786217
-0.05061211809515953
-0.057381950318813324
0.06733740121126175
0.05593624338507652
-0.018666662275791168
-0.06901085376739502
-0.022787272930145264
-0.014786208979785442
0.0274078156799078
0.07195964455604553
-0.06110581010580063
-0.0193313155323267
-0.08109081536531448
-0.02956453338265419
-0.03659049794077873
-0.0042281923815608025
0.042786672711372375
0.017674772068858147
0.05048345401883125
-0.01143703144043684
-0.04106568172574043
-0.027588682249188423
0.05909685790538788
0.03226553648710251
-0.02759511210024357
-0.03239013999700546
-0.042892444878816605
-0.0318017341196537
-0.0657714381814003
-0.013939660042524338
-0.08259934186935425
-0.07156189531087875
0.065669946372509
0.014977660961449146
-0.010402698069810867
-0.068160280585289
0.017812497913837433
0.06578846275806427
0.027950240299105644
-0.05829678475856781
-0.021099884063005447
0.010528279468417168
-0.07294264435768127
0.04230302944779396
0.07817442715167999
0.07327702641487122
0.007545073516666889
-0.07823658734560013
-0.05936780571937561
0.0773199275135994
0.06791749596595764
0.01294680405408144
-0.020493166521191597
-0.0255027674138546
-0.07159356772899628
-0.038482047617435455
0.011660570278763771
-0.07048291712999344
-0.01223853137344122
0.07550685852766037
-0.08293844759464264
-0.08295485377311707
0.08080082386732101
0.011226643808186054
-0.05353881046175957
-0.018087243661284447
-0.08323623985052109
-0.029705887660384178
0.0050131212919950485
0.06232132762670517
-0.0634710043668747
-0.06483316421508789
0.025194941088557243
0.030977606773376465
0.01807444728910923
0.051081880927085876
0.04076371714472771
0.05493878200650215
-0.02638254500925541
0.05344482883810997
0.03451714292168617
-0.07456304132938385
-0.043600548058748245
-0.05650049448013306
-0.086149200797081
-0.012315965257585049
0.07702037692070007
-0.04249592870473862
-0.026969030499458313
0.022688331082463264
-0.014923973940312862
0.03881988301873207
0.07840455323457718
-0.03734646737575531
-0.027158403769135475
0.07191502302885056
-0.06696289777755737
0.060933828353881836
-0.01544064749032259
0.06872564554214478
0.06233822926878929
0.009902268648147583
0.03584625944495201
0.043717436492443085
-0.0031734120566397905
0.02326255664229393
0.0058762189000844955
-0.05546453967690468
