0.010491209104657173
0.02247104048728943
0.026925912126898766
0.011330641806125641
-0.038067176938056946
0.038763951510190964
-0.03199039027094841
0.01908731460571289
-0.022413164377212524
-0.015508628450334072
-0.035481542348861694
-0.017039049416780472
0.03548141196370125
0.020232463255524635
-0.010112409479916096
0.03675650805234909
0.036933958530426025
0.041181012988090515
-0.015388721600174904
0.028195708990097046
0.014927360229194164
0.016055544838309288
-0.007411704398691654
0.0025148645509034395
-0.032640036195516586
0.032086294144392014
-0.013536500744521618
0.007641947828233242
-0.035434529185295105
0.019571080803871155
-0.03121713176369667
-0.02761274017393589
-0.03577178344130516
-0.0328419953584671
-0.03590017184615135
-0.038651980459690094
-0.002543879672884941
0.03024475835263729
0.039268575608730316
0.017781248316168785
-0.032351646572351456
0.009581775404512882
0.01023309025913477
-0.03160613402724266
0.028895078226923943
0.011019568890333176
0.011107644066214561
-0.021324900910258293
0.009554478339850903
-0.015328995883464813
-0.028965245932340622
0.007356240879744291
-0.0009649194544181228
-0.034636326134204865
0.03459475189447403
-0.03619485720992088
0.027766169980168343
0.010094396770000458
-0.03703721612691879
0.03252241760492325
0.021930210292339325
0.0028241502586752176
-0.02463715337216854
-0.02952335588634014
