-0.006753046531230211
0.014280648902058601
0.002469888888299465
0.009277958422899246
0.01427463162690401
0.011941555887460709
0.015048513188958168
-0.012365458533167839
0.007223961874842644
-0.010859422385692596
0.007982236333191395
0.006614078301936388
-0.0037872919347137213
0.005305787082761526
0.00010092528100358322
-0.015369148924946785
-0.01952764205634594
-0.000732967397198081
-0.0059493365697562695
0.011910896748304367
-0.004402738530188799
-0.008557498455047607
-0.0031296478118747473
-0.0076730214059352875
-0.010623103007674217
0.0036799288354814053
-0.004320873413234949
-0.01717955432832241
0.00022008053201716393
0.003644965821877122
0.0010868401732295752
0.0017922550905495882
-0.00862782821059227
-0.01711108349263668
-0.01119911391288042
-0.018809903413057327
-0.009401887655258179
-0.016162270680069923
-0.017133021727204323
-0.01474430039525032
-0.009979339316487312
0.010307172313332558
-0.018733497709035873
0.014142947271466255
0.012699761427938938
0.003504835069179535
0.018825799226760864
-0.014537672512233257
-0.0005475356010720134
-0.006611397955566645
0.0026158159598708153
-0.016793545335531235
0.01450258120894432
0.010034050792455673
-0.017979087308049202
-0.013040143065154552
0.009720025584101677
0.009059634990990162
0.0046843718737363815
-0.00589035777375102
0.007351167034357786
0.016934771090745926
0.0029206580948084593
-0.01848619244992733
-0.011874688789248466
0.0004973981413058937
0.015656549483537674
-0.012311257421970367
-0.010560295544564724
0.016816608607769012
-0.012742752209305763
-0.01658913679420948
-0.014428726397454739
-0.017275698482990265
0.0055579207837581635
-0.010824345052242279
-0.017042728140950203
-0.008930188603699207
-0.017093058675527573
-0.010377034544944763
-0.009193737991154194
-0.004789294209331274
-0.0020840009674429893
-0.015812542289495468
0.011204802431166172
0.01536737009882927
0.0005609138170257211
-0.004479539580643177
-0.01358634140342474
-0.008058765903115273
0.013893797062337399
0.005628655664622784
-0.004329357296228409
-0.0019228779710829258
0.012940981425344944
-0.018345152959227562
0.0024809418246150017
0.015788862481713295
0.013751420192420483
0.0009514925186522305
0.0022940444760024548
0.013975504785776138
0.015516649931669235
-0.014258747920393944
-0.01650271937251091
-0.012756885029375553
0.018686508759856224
0.00022341153817251325
-0.006421301979571581
-0.002211937913671136
0.006131884641945362
-0.004399328492581844
0.0132833831012249
0.004477804992347956
-0.017736630514264107
0.016007298603653908
-0.01070648804306984
-0.004200850613415241
-0.018264327198266983
-0.008879433386027813
-0.01881450042128563
0.012166080065071583
0.0021465327590703964
-0.019334856420755386
-0.005953008309006691
0.011942119337618351
-0.01711461879312992
0.013030056841671467
-0.0007313498645089567
0.013306834734976292
-0.003882406512275338
0.004798544570803642
0.00732737360522151
0.01712111569941044
-0.00837662722915411
0.0005609687068499625
-0.015001555904746056
-0.0032356390729546547
-0.012337733991444111
-0.014930669218301773
-0.01484316773712635
0.012276084162294865
-0.00846257247030735
-0.010991143062710762
-0.003477871883660555
0.0012157931923866272
-0.0025348570197820663
0.003476070472970605
0.015907160937786102
-0.015640979632735252
-0.0017992754001170397
-0.01762441359460354
-0.012226495891809464
-0.018041303381323814
0.019003912806510925
-0.01165603194385767
0.012512766756117344
-0.015996506437659264
0.0032818287145346403
0.01597915031015873
-0.00275072711519897
-0.0033537824638187885
0.017104918137192726
0.004590421449393034
-0.005626946687698364
0.014567838981747627
0.007961195893585682
-0.019054807722568512
0.009968805126845837
-0.01664460450410843
0.011829090304672718
0.01044552307575941
-0.005121069960296154
0.014127860777080059
0.01938941888511181
-0.01833643950521946
-0.003330343635752797
-0.016238585114479065
0.01725575514137745
-0.012396639212965965
-0.015774551779031754
0.00036420210381038487
0.0021776503417640924
-0.009445668198168278
-0.015367645770311356
0.002701730467379093
-0.013993538916110992
0.01707269996404648
0.0025453069247305393
-0.005398400593549013
-0.017102384939789772
-0.002254569437354803
0.0073218634352087975
-0.002122962148860097
-0.0030880558770149946
-0.010212983004748821
0.0018892488442361355
0.008119707927107811
0.0024748407304286957
0.01725843921303749
0.007248689886182547
0.0008817518828436732
0.01273451466113329
-0.01809961535036564
0.006379195023328066
-0.01054711826145649
-0.015864303335547447
-0.013870510272681713
-0.013046558946371078
-0.018992574885487556
-0.0077703665010631084
0.009390577673912048
0.006867275107651949
0.011562943458557129
0.016999900341033936
-0.0180506631731987
0.00340376328676939
0.01836160197854042
0.010679515078663826
0.0006828710902482271
-0.01956828311085701
0.008717333897948265
-0.007795369252562523
-0.00843208096921444
-0.013096978887915611
-0.0048306724056601524
0.006291478872299194
-0.0184426698833704
0.01695138029754162
-0.000785000273026526
0.012393251992762089
-0.01233434397727251
0.01909116841852665
0.014226765371859074
0.007134961895644665
0.018003536388278008
-0.013426621444523335
-0.013308132067322731
-0.01945671997964382
0.01767750084400177
-0.011218050494790077
-0.012634770013391972
0.00616056751459837
0.008158557116985321
0.009420931339263916
-0.007253376767039299
0.007945582270622253
-8.0532168794889e-05
0.010642670094966888
-0.013236096128821373
-0.018380139023065567
0.014598282985389233
-0.015960076823830605
0.0009267269633710384
-0.00971546396613121
-0.010689475573599339
