0.002459432929754257
-0.0013503662776201963
-0.0026665818877518177
0.00022144654940348119
0.002065933309495449
-0.00469700014218688
-0.0005483285058289766
-0.0027221154887229204
0.00025471675326116383
-0.0002496372035238892
-0.000694147776812315
0.00012965347559656948
-0.003046722849830985
-0.0022220108658075333
-0.00453491834923625
0.00036112338420934975
0.003276682458817959
-0.006381722632795572
-0.003499812912195921
-0.0005012406618334353
-0.0026066815480589867
-0.004325070884078741
0.0008669897797517478
0.00142394145950675
-7.130576705094427e-05
-0.0022673492785543203
-0.004976144526153803
-0.0009580169571563601
-0.004669327288866043
-0.0013504271628335118
-0.0017051721224561334
-0.0035262168385088444
-0.002024702727794647
-0.0013260386185720563
-0.0011847862042486668
-0.0011767311953008175
-0.0019518675981089473
-0.0036951920483261347
-0.0034580822102725506
-0.006886158138513565
-0.0036736251786351204
-0.0026863098610192537
-0.000880157807841897
-0.0017339286860078573
-0.0009405985474586487
3.532974733388983e-05
-0.0019246722804382443
-0.00011026112042600289
0.0008909466559998691
-0.00019924223306588829
-0.0038923874963074923
-0.002010590862482786
-0.004420066252350807
-0.002521304413676262
-0.0009572874987497926
-0.0018120174063369632
-5.52871533727739e-05
-0.00041597819654271007
-0.004361354745924473
-0.0005015796632505953
0.001196346478536725
-0.000796471256762743
-0.0010897405445575714
0.0011000505182892084
-0.0026947571896016598
-0.003299820004031062
-0.0048303124494850636
-0.0013329911744222045
7.540111255366355e-05
-0.0031700602266937494
-0.0011377421906217933
-0.0008858824730850756
-0.0005047146696597338
-0.0006429367931559682
-0.003740847809240222
0.00033583008917048573
-0.0055807349272072315
0.0002704776416067034
0.0006520499591715634
-0.003133312100544572
0.00029793576686643064
0.00042259859037585557
-0.0011767307296395302
0.0006001792498864233
-0.0020544109866023064
0.002389802597463131
-0.001663980889134109
-0.0029922889079898596
0.000345185020705685
-0.0024359242524951696
-0.0018046492477878928
0.0008038380183279514
0.00150584545917809
-0.0029748750384896994
-0.0014098024694249034
-0.0011511429911479354
-0.00319456635043025
-0.0005860730889253318
0.0004585233109537512
-0.0003835890383925289
-0.0008123749285005033
-0.0004929584101773798
-0.0004962546518072486
0.002290512900799513
0.0012103482149541378
0.0013261678395792842
0.002931496361270547
-0.00016354378021787852
-0.002787528093904257
0.0013301714789122343
-0.0007725374889560044
-0.00016079323540907353
-0.001057974062860012
0.003152008866891265
-0.005248057655990124
-0.002920062281191349
-0.0023183105513453484
-0.0003351797058712691
-0.001456933212466538
-0.0006561437621712685
-0.0035467620473355055
-0.0014758360339328647
-0.0007625738508068025
-0.0041172197088599205
-0.0019862090703099966
-0.002418722026050091
-0.004894468933343887
-0.0007410214166156948
