-0.04469924420118332
-0.03714507073163986
-0.010737670585513115
0.0074796611443161964
-0.05204489827156067
-0.051946740597486496
-0.02402951568365097
-0.05443316698074341
0.011830590665340424
-0.022918883711099625
0.048176296055316925
-0.014999981969594955
0.03392859175801277
-0.045207131654024124
0.03500646352767944
0.027943255379796028
-0.024620037525892258
-0.041962042450904846
-0.046404436230659485
0.0232436191290617
0.03320840373635292
0.030187297612428665
-0.02437950298190117
-0.0017392075387760997
0.04530923068523407
0.0401129312813282
0.04522835835814476
0.03712521493434906
0.001261529279872775
-0.02724338136613369
-0.02189820632338524
0.04329567402601242
0.018796082586050034
0.02058226242661476
-0.005819384008646011
-0.022153252735733986
0.03687053546309471
-0.04011153802275658
0.008175631985068321
0.052564237266778946
0.04886471852660179
-0.0026824467349797487
-0.017702771350741386
-0.001194535754621029
0.04442298784852028
-0.0448981337249279
0.022934790700674057
0.027739375829696655
0.03504205122590065
-0.03798256814479828
0.024837199598550797
-0.007604626007378101
0.03918907791376114
0.04754520580172539
-0.023743513971567154
0.030746886506676674
0.0525447316467762
-0.04586038365960121
-0.03361621871590614
0.015792809426784515
0.037553660571575165
-0.004126210696995258
0.04640879109501839
-0.011745067313313484
-0.01067303866147995
0.03243104740977287
0.003877587616443634
-0.002068734262138605
0.03304936736822128
-0.025570306926965714
-0.004999984987080097
0.033378515392541885
0.04767967015504837
0.033208634704351425
0.03865869715809822
-0.05114712193608284
0.01682770811021328
-0.0057708872482180595
-0.041162118315696716
0.03259178623557091
0.026032626628875732
0.004634479992091656
-0.0029613159131258726
-0.008713970892131329
-0.032211851328611374
-0.04288892447948456
-0.015351615846157074
0.04395207390189171
-0.0024185222573578358
-0.013384790159761906
0.005965836346149445
0.024263180792331696
0.0031239646486938
-0.018061209470033646
0.027611970901489258
-0.04082261398434639
-0.038937006145715714
0.026616742834448814
-0.0018331004539504647
0.015691976994276047
-0.01890275441110134
-0.03281163424253464
-0.03783546760678291
-0.03114154003560543
0.03743397444486618
0.009303055703639984
-0.02621321566402912
0.01964747905731201
0.022771650925278664
0.03919147700071335
0.027694614604115486
0.03338085487484932
0.048369262367486954
-0.05003536865115166
0.022205719724297523
0.04148463159799576
0.021402591839432716
0.0024044993333518505
0.03256548196077347
0.046493884176015854
0.04722427949309349
0.012068547308444977
-0.010550955310463905
-0.026879681274294853
-0.022874055430293083
0.016313299536705017
-0.050306595861911774
0.04641667753458023
-0.044112544506788254
0.022284099832177162
-0.04277129843831062
-0.028388256207108498
-0.05266854539513588
0.0007121731759980321
0.02000371180474758
0.034339215606451035
-0.028526319190859795
-0.02608947455883026
-0.0400160551071167
-0.0018405904993414879
0.04841912165284157
0.03680363669991493
0.016323724761605263
0.00233105244114995
0.04472323879599571
-0.04577511176466942
0.009609646163880825
-0.026404673233628273
0.0004334088880568743
0.021344713866710663
-0.012597635388374329
-0.0395699217915535
0.03779691830277443
-0.0017201891168951988
0.023218626156449318
-0.013381795957684517
-0.03910025581717491
0.035714033991098404
0.008660836145281792
-0.01411363109946251
-0.007351958192884922
-0.008132334798574448
0.021861795336008072
0.010689670220017433
0.02623113803565502
0.04436688497662544
-0.03075231797993183
-0.028111126273870468
-0.014529469422996044
0.03725064918398857
-0.049567826092243195
-0.03564919903874397
-0.00029088242445141077
0.036212630569934845
-0.03699871152639389
0.03655316308140755
0.021439043805003166
0.011549080722033978
0.042537566274404526
0.040828313678503036
0.01492161676287651
0.044064540416002274
-0.009151056408882141
0.025617651641368866
-0.0022412557154893875
0.03137750178575516
-0.021722378209233284
0.00781731866300106
0.04455093666911125
-0.01370976585894823
-0.028030402958393097
-0.040040433406829834
-0.02066221460700035
0.03661630302667618
0.016114158555865288
0.022168658673763275
-0.021826330572366714
-0.0182607751339674
-0.040173210203647614
0.04288830608129501
-0.02741505391895771
-0.027523130178451538
0.0031940473709255457
0.02850772999227047
0.008750575594604015
-0.010746981017291546
0.027161119505763054
0.015499304980039597
-0.054943084716796875
-0.031385038048028946
0.003942567855119705
-0.03882070630788803
-0.04210568591952324
-0.018782176077365875
-0.003222572850063443
-0.03725684806704521
0.02666713297367096
0.022320272400975227
0.04145665839314461
-0.005014974623918533
0.05094410479068756
0.02140222303569317
-0.03269202634692192
0.02576320990920067
0.028750481083989143
0.029306771233677864
0.003701683133840561
-0.012570597231388092
-0.0453767292201519
0.03724037855863571
0.003647052450105548
0.016179824247956276
0.023260748013854027
0.01690884493291378
-0.04428929090499878
-0.001729778596200049
0.003483783919364214
0.0393524207174778
0.013519234955310822
0.034173931926488876
0.032695092260837555
0.043094903230667114
0.026043444871902466
-0.0321139320731163
-0.037586625665426254
0.010347506031394005
0.009032053872942924
0.0373351015150547
-0.002215387299656868
-0.014197275042533875
-0.019329875707626343
-0.04190786927938461
-0.052158840000629425
0.015964984893798828
0.007261273451149464
0.03868748992681503
0.04935796931385994
0.04666031152009964
-0.0390460230410099
-0.002218619454652071
-0.006671741604804993
-0.042714182287454605
-0.02053663320839405
-0.04412271827459335
-0.027278238907456398
0.03440352529287338
-0.0493631549179554
0.013324753381311893
-0.022719645872712135
-0.024211181327700615
-0.005141276866197586
-0.013738499023020267
0.008647154085338116
-0.027290325611829758
-0.00999287236481905
-0.024352412670850754
-0.020721178501844406
-0.04660214111208916
0.04765433818101883
-0.039998479187488556
0.05316847190260887
-0.013294866308569908
0.0004430361441336572
-0.02206551283597946
-0.025335023179650307
-0.04315060377120972
0.03522523492574692
0.043697040528059006
0.05368994548916817
0.019448069855570793
-0.047110624611377716
-0.008706605061888695
0.04461335018277168
0.05250607430934906
-0.016665561124682426
-0.001531535992398858
0.0496765673160553
0.015074341557919979
0.04391162469983101
-0.04592065513134003
-0.04025382176041603
-0.01004928257316351
-0.013114005327224731
0.01413329690694809
-0.001530717476271093
0.021924827247858047
0.02657492831349373
0.005579620134085417
0.01782674714922905
-0.03581589087843895
0.045161303132772446
0.019281303510069847
-0.049791302531957626
-0.03995532542467117
0.007616304326802492
-0.03192329779267311
0.02796434611082077
0.008559235371649265
-0.044528327882289886
-0.04239853844046593
-0.0004822384216822684
-0.046546828001737595
-0.048975102603435516
0.048423297703266144
-0.006696876138448715
0.008305520750582218
-0.042456842958927155
0.0034457454457879066
-0.05086806043982506
-0.028751062229275703
0.030398458242416382
0.021739723160862923
0.015968309715390205
-0.006558508146554232
0.009412936866283417
0.043480321764945984
-0.014245648868381977
0.01576303131878376
-0.033516548573970795
0.046001654118299484
0.017505554482340813
0.03070792742073536
-0.008920497260987759
-0.028379924595355988
0.021024346351623535
0.030901668593287468
0.0017948913155123591
-0.01801421493291855
-0.05078354850411415
0.006005673203617334
0.046799685806035995
-0.018227679654955864
0.049038298428058624
-0.03805355355143547
-0.006698998156934977
-0.030332323163747787
0.018197085708379745
0.00883336178958416
-0.04525534808635712
0.04114248976111412
-0.026617147028446198
-0.005879500415176153
0.04087918996810913
-0.05012201890349388
-0.03507472574710846
-0.013874008320271969
-0.017890168353915215
0.035356417298316956
-0.022360634058713913
0.003995794802904129
-0.03295169770717621
0.03041527420282364
0.02337930165231228
-0.038293249905109406
-0.045925989747047424
-0.05265163630247116
0.018672971054911613
-0.01236206665635109
0.05538712814450264
-0.033764176070690155
-0.028654275462031364
0.034881457686424255
0.037800949066877365
0.003224056214094162
-0.0024177911691367626
-0.04063600301742554
0.013088476844131947
-0.026984764263033867
-0.04451360926032066
-0.003832042682915926
-0.00978612806648016
-0.011135417968034744
0.021054163575172424
0.030345981940627098
0.028386665508151054
0.01833406649529934
0.05267117917537689
0.027897443622350693
0.043988145887851715
0.03938211873173714
0.005342398304492235
0.03541255369782448
0.014956695027649403
0.04552355036139488
-0.032365962862968445
0.055924300104379654
0.0011414352338761091
-0.03495899587869644
0.04928179457783699
0.03911036252975464
0.004538736771792173
0.0204351507127285
-0.045614246279001236
-0.03466707095503807
-0.04074747860431671
0.04227874428033829
-0.02175961434841156
0.02335844188928604
0.016431260854005814
0.0027117584832012653
-0.02349444478750229
-0.019427675753831863
-0.03744283691048622
0.019176211208105087
0.03156247362494469
0.03953142836689949
-0.044075507670640945
-0.011896461248397827
-0.020477117970585823
0.009012769907712936
-0.011434816755354404
-0.06157423183321953
-0.04323084279894829
-0.04700957611203194
-0.034732457250356674
0.0401860773563385
-0.04351666197180748
-0.00430868798866868
0.010684745386242867
0.0032730267848819494
-0.005944244097918272
-0.003393466118723154
-0.016867225989699364
-0.007806709501892328
0.05160292983055115
0.03034200333058834
0.045995935797691345
0.012941556982696056
-0.044552966952323914
-0.011794201098382473
0.04307623952627182
-0.0164633896201849
-0.02674129605293274
0.04598547890782356
0.03872132673859596
0.04525488242506981
0.006610027048736811
-0.033158160746097565
-0.0044068824499845505
0.04415283352136612
0.0022584479302167892
0.032059911638498306
-0.0028532459400594234
-0.0071174586191773415
-0.01127573847770691
-0.05088648200035095
0.013633398339152336
-0.0005144461756572127
-0.003644222393631935
-0.040403831750154495
0.03391947224736214
0.035053860396146774
-0.05098673328757286
-0.008175705559551716
0.014938748441636562
0.011378465220332146
0.044923555105924606
-0.003506839508190751
0.04087528958916664
0.005889628082513809
0.01441090926527977
0.029815591871738434
-0.041193436831235886
-0.048353951424360275
0.04138407111167908
-0.008065281435847282
0.04873322695493698
0.025077590718865395
0.0014023954281583428
-0.01357257179915905
0.015839524567127228
-0.033807236701250076
-0.028279347345232964
-0.035818472504615784
0.01204694528132677
-0.0427837148308754
0.005791740957647562
0.005362100433558226
-0.008341318927705288
0.0030649499967694283
-0.02767549455165863
-0.03848021477460861
-0.00797633733600378
-0.03265205770730972
0.02286715619266033
-0.015998022630810738
-0.03907623887062073
0.0025683678686618805
0.034900933504104614
0.01734277606010437
0.018828948959708214
0.03550470620393753
-0.011421729810535908
-0.011364231817424297
-0.023492859676480293
-0.018016891553997993
0.0055123986676335335
-0.026149839162826538
0.049799226224422455
-0.020632408559322357
0.0001383669878123328
-0.031873129308223724
-0.005800238810479641
0.038793060928583145
-0.03963344916701317
-0.034812744706869125
-0.03626673296093941
0.008999370969831944
-0.043039046227931976
0.023258747532963753
-0.05551683157682419
0.038453955203294754
0.01262811478227377
-0.012881802394986153
-0.011634670197963715
-0.04345442354679108
-0.01947477087378502
0.015447787940502167
-0.017994200810790062
-0.010139900259673595
-0.04987300559878349
-0.040902286767959595
-0.05544526129961014
-0.046311039477586746
0.010202820412814617
0.04120148718357086
0.04413735866546631
-0.03700520843267441
0.005093439947813749
-0.014358160085976124
-0.037941716611385345
-0.0190805085003376
0.008808283135294914
0.00053278764244169
0.0423065610229969
-0.04488933086395264
0.028643619269132614
-0.03382748365402222
-0.007030037697404623
0.015633532777428627
-0.043900441378355026
-0.02343815378844738
0.040531981736421585
0.04916064068675041
0.04951990768313408
0.04611268639564514
-0.05093467980623245
-0.0006695986958220601
-0.01518549956381321
0.033198315650224686
-0.003225688822567463
0.04924478009343147
0.03766365721821785
-0.02216365933418274
-0.045345962047576904
0.01361325103789568
-0.017322983592748642
-0.016681481152772903
0.004718488547950983
-0.03692963719367981
-0.03883238136768341
-0.008136228658258915
0.022333597764372826
0.012959043495357037
0.00424649752676487
-0.011886421591043472
0.042115043848752975
-0.04346790537238121
-0.009003262966871262
0.04245036840438843
0.036707229912281036
0.03145371749997139
-0.016928507015109062
-0.02996046282351017
0.03439142182469368
-0.040282901376485825
0.006778737064450979
0.033238790929317474
-0.03696563467383385
0.03229621797800064
-0.045561783015728
-0.025093847885727882
0.053350355476140976
0.003624868579208851
0.04922531172633171
-0.02095125988125801
0.028457997366786003
0.025890454649925232
0.004292189609259367
-0.022096510976552963
0.02330692671239376
-0.013313855975866318
0.010065075010061264
-0.031743649393320084
0.01192235853523016
0.008814805187284946
-0.0185124259442091
0.021390559151768684
-0.046275265514850616
0.02396359108388424
0.048069730401039124
0.0278400257229805
-0.03369429334998131
-0.021936383098363876
0.03892557695508003
-0.044918492436409
-0.010973338037729263
0.0354585126042366
0.01240826677531004
0.035202931612730026
-0.036920834332704544
-0.02803417667746544
-0.03704935312271118
0.02156057208776474
-0.022375352680683136
-0.033837880939245224
-0.030948735773563385
0.026367302983999252
-0.0071433489210903645
0.01856619492173195
0.013273278251290321
0.016528243198990822
0.01022903062403202
-0.02199546806514263
-0.031147746369242668
0.026749486103653908
0.0017161875730380416
0.020377691835165024
-0.004763317294418812
0.019151542335748672
-0.03808743134140968
0.005328161641955376
0.017769532278180122
0.02565329149365425
0.04989469051361084
-0.0472174696624279
-0.0009216224425472319
-0.0486409030854702
-0.04306219145655632
-0.008452529087662697
-0.002448232611641288
0.03430058807134628
-0.039572667330503464
-0.025711696594953537
-0.05149286612868309
-0.00877891294658184
-0.015598895028233528
0.0035944413393735886
0.025227325037121773
-0.012453488074243069
-0.022922201082110405
0.04012254253029823
-0.003943455871194601
0.030001167207956314
-0.010988554917275906
-0.012748299166560173
0.017474474385380745
0.027635499835014343
-0.008046910166740417
0.034661028534173965
0.019796360284090042
-0.04851260781288147
0.0010052720317617059
0.016947655007243156
0.043843720108270645
0.04005041345953941
-0.03866662085056305
-0.014843640848994255
-0.03708904609084129
-0.0056799002923071384
-0.036831554025411606
-0.0461813285946846
-0.05163367837667465
0.025622595101594925
-0.013433997519314289
0.012624450027942657
-0.0029846690595149994
0.03931460529565811
-0.01663094013929367
0.0006997669697739184
-0.008142075501382351
0.024410823360085487
0.007309671491384506
0.015384428203105927
-0.030843384563922882
0.037526603788137436
0.030131321400403976
-0.0157657191157341
-0.017048344016075134
0.0012053938116878271
0.04106749966740608
0.01508602686226368
0.017933202907443047
0.03041001968085766
-0.03139821067452431
-0.013830538839101791
0.049475010484457016
0.011396966874599457
0.014979572035372257
-0.03926486521959305
0.030341045930981636
-0.04081260412931442
0.041737161576747894
0.03800451382994652
0.01798439770936966
0.0016569988802075386
-0.03874429687857628
-0.037168413400650024
-0.005749325733631849
-0.032925769686698914
-0.044403184205293655
-0.03139188140630722
-0.0046755229122936726
-0.02355428785085678
0.03620919585227966
0.0332728736102581
-0.011431953869760036
0.028759365901350975
-0.03726958483457565
0.05034523084759712
-0.0466541163623333
0.002823652932420373
0.018862416967749596
0.044612087309360504
0.013113829307258129
0.011384204030036926
0.047068994492292404
0.00582680432125926
-0.022666186094284058
-0.013388576917350292
0.021656615659594536
0.02167949639260769
0.03961816430091858
-0.016655728220939636
-0.047401588410139084
0.041596535593271255
0.03863433375954628
-0.045936234295368195
0.05074084550142288
-0.018990645185112953
0.01699296198785305
-0.004794120788574219
0.01657824218273163
0.030118387192487717
-0.02505630813539028
-0.022677656263113022
0.024551810696721077
0.024686699733138084
0.01983717456459999
-0.03680885583162308
0.005253319162875414
0.038095250725746155
0.03478577360510826
0.006535915192216635
0.0367799773812294
0.03673132508993149
-0.04071167856454849
-0.02280580997467041
-0.027091221883893013
-0.0030783084221184254
-0.015698587521910667
0.014914961531758308
0.04502663016319275
0.04491247981786728
-0.0014632547972723842
0.0059962198138237
0.012365818955004215
-0.00824485532939434
0.04683004319667816
0.011445942334830761
0.022575099021196365
-0.019692260771989822
0.020726578310132027
-0.051068585366010666
-0.04141101613640785
0.04435800388455391
-0.016226118430495262
-0.04755082726478577
0.009799576364457607
-0.04032859578728676
0.03991447761654854
-0.04781615361571312
0.03734251856803894
-0.03059563599526882
0.017353765666484833
-0.009966738522052765
0.0007976272027008235
0.045044105499982834
0.004061602987349033
0.05000857263803482
-0.02075894922018051
0.012350831180810928
-0.011145325377583504
0.03281117603182793
-0.0017962412675842643
0.011163096874952316
-0.011523672379553318
-0.01895257644355297
0.007083542179316282
0.017651429399847984
0.04096895083785057
-0.016436554491519928
0.0015979092568159103
0.013191455975174904
-0.017491409555077553
0.029563646763563156
0.01961389183998108
-0.016744473949074745
-0.04328654706478119
0.0007715783431194723
-0.011152171529829502
0.036449138075113297
0.04964369535446167
-0.0019607464782893658
0.017745167016983032
0.03716220334172249
-0.04841957986354828
-0.03446245566010475
-0.014399281702935696
-0.02750820852816105
0.04239663854241371
0.04707548767328262
0.009659212082624435
0.016697386279702187
-0.04113215208053589
0.04902233928442001
0.004164527170360088
-0.03376832604408264
0.040520086884498596
-0.008969981223344803
0.03991822898387909
-0.011491098441183567
0.03792838752269745
-0.028815992176532745
-0.020771315321326256
0.024833140894770622
0.033009517937898636
-0.021131645888090134
-0.037939053028821945
-0.023874903097748756
0.010792134329676628
0.0026558113750070333
-0.017007431015372276
-0.04224478080868721
0.004306294023990631
0.008050954900681973
-0.0060523091815412045
-0.052140042185783386
0.0032095143105834723
-0.0006244017858989537
0.020565735176205635
-0.010474096052348614
0.0006985081708990037
0.03378765285015106
-0.005519209895282984
0.03219279646873474
-0.04475681111216545
-0.03970557078719139
0.04460373520851135
0.019099276512861252
-0.005757821723818779
0.03136318176984787
-0.03024958074092865
-0.05369827151298523
-0.044953931123018265
-0.042411092668771744
0.03511315584182739
0.049398694187402725
0.042321380227804184
-0.04426461085677147
0.00990445725619793
0.015698794275522232
-0.01569998264312744
0.04015645757317543
0.01677502691745758
-0.012723035179078579
-0.01587613672018051
0.004182375501841307
0.0028131550643593073
-0.026861051097512245
-0.0044442759826779366
0.010398836806416512
0.0006621726206503808
-0.004054372664541006
-0.01067626103758812
-0.028078660368919373
-0.026105400174856186
0.016072139143943787
0.04422776773571968
0.023794107139110565
0.033359527587890625
-0.02406744472682476
-0.047266099601984024
0.008236520923674107
0.01158457063138485
0.0033510089851915836
-0.03506256639957428
0.042614538222551346
0.047551229596138
-0.03636376932263374
-0.018868835642933846
0.0033834518399089575
0.004059036262333393
0.012616368941962719
-0.030119948089122772
-0.0004521249793469906
-0.017668887972831726
0.014290698803961277
0.03339787572622299
-0.007201968226581812
0.04088210314512253
-0.015242957510054111
-0.040949709713459015
-0.03451969474554062
-0.026271674782037735
-0.019774001091718674
0.0315595418214798
-0.027067260816693306
-0.027522504329681396
-0.014529053121805191
0.04333645850419998
0.03922072425484657
-0.014554825611412525
0.012515394017100334
-0.00814780779182911
0.04271641746163368
-0.004541934467852116
-0.04505545273423195
0.04860338568687439
0.044638317078351974
0.010349241085350513
-0.040946900844573975
0.04293079674243927
0.04593497887253761
0.007506358437240124
-0.05465784668922424
-0.006916472222656012
0.009846922010183334
-0.004310958087444305
-0.01072400901466608
-0.05452003702521324
0.03762044012546539
-0.023118508979678154
0.0354013666510582
-0.0289811622351408
0.028465012088418007
-0.023798011243343353
-0.039037857204675674
-0.029558921232819557
0.04401996359229088
0.043707285076379776
-0.05366465449333191
0.03896322101354599
0.019675731658935547
0.03969232738018036
-0.03598157688975334
0.021444130688905716
-0.028094656765460968
0.032149787992239
0.009117974899709225
-0.04609834402799606
-0.013144638389348984
0.009082085452973843
-0.015753498300909996
0.0023815124295651913
0.0387975238263607
0.015252974815666676
-0.036067839711904526
-0.018839862197637558
-0.04476429149508476
0.027703555300831795
-0.046849336475133896
0.02460417151451111
0.013255998492240906
0.035674694925546646
0.045433785766363144
-0.010783952660858631
0.043095123022794724
-0.04128112271428108
-0.020543593913316727
0.011855334043502808
-0.00729456776753068
-0.03221302479505539
0.019302574917674065
0.027877457439899445
0.012592416256666183
-0.033656809478998184
-0.00425593089312315
0.027048461139202118
0.02542688325047493
0.03850981593132019
-0.012089772149920464
0.046439457684755325
-0.02500319667160511
0.0220425333827734
0.041664764285087585
0.019919177517294884
0.04502696543931961
0.030936622992157936
-0.03758620843291283
0.04654349759221077
0.04783331975340843
0.02870820462703705
-0.016024036332964897
0.03785362467169762
0.04953252896666527
-0.035851381719112396
0.044232022017240524
-0.024504832923412323
0.03243961185216904
0.026037955656647682
-0.018949473276734352
0.04192901402711868
0.019093923270702362
-0.011454712599515915
-0.03580016270279884
0.025689896196126938
0.01666860282421112
-0.04394247382879257
0.028584424406290054
0.003984756302088499
-0.008447736501693726
0.055131956934928894
0.0019218053203076124
-0.009841635823249817
-0.033051278442144394
-0.02477739192545414
0.033113446086645126
0.03574587032198906
0.006175871938467026
0.03518331050872803
0.0239944439381361
-0.04914223775267601
-0.025767028331756592
-0.012513245455920696
0.042574651539325714
-0.038458291441202164
-0.006472934503108263
0.04325402155518532
-0.03029567562043667
-0.0012195759918540716
0.005447187460958958
0.048443716019392014
-0.007865575142204762
-0.017118457704782486
-0.009201203472912312
0.01787894405424595
0.043196842074394226
0.04528411850333214
-0.016069956123828888
0.010786766186356544
0.044374946504831314
-0.011394811794161797
0.019343450665473938
0.035022228956222534
0.006447713356465101
0.03710761293768883
-0.01468227431178093
0.02075674571096897
0.03925482928752899
-0.0050215390510857105
0.04525687173008919
-0.013702722266316414
0.04979319870471954
0.006022996734827757
-0.020449573174118996
-0.011936874128878117
0.04990826174616814
0.019278032705187798
-0.018056081607937813
-0.0030484122689813375
0.04544615000486374
-0.024532226845622063
-0.05191532149910927
-0.049442108720541
-0.039648015052080154
0.04159941151738167
-0.05072559416294098
0.04939354211091995
-0.016003673896193504
-0.04866915941238403
-0.04786153510212898
-0.04451615735888481
-0.0366441048681736
-0.01577550731599331
-0.04441217705607414
0.05269780382514
-0.039218150079250336
-0.03368087112903595
0.046685729175806046
-0.05377086251974106
0.044800132513046265
-0.012645110487937927
0.021749431267380714
0.00759204151108861
-0.00947242509573698
0.049739282578229904
-0.010832000523805618
0.0003069207305088639
-0.0294716227799654
0.005563604179769754
-0.012127834372222424
0.044480230659246445
0.042648714035749435
-0.014434544369578362
0.04270290583372116
-0.04145079478621483
-0.014876515604555607
-0.0006537347217090428
0.02129533141851425
0.04682214930653572
-0.03564262390136719
-0.0452977679669857
-0.04635632783174515
0.02622443437576294
-0.00034021702595055103
0.02374047227203846
-0.031859029084444046
-0.020319849252700806
0.005370914936065674
-0.034317415207624435
-0.04991110414266586
0.025126008316874504
-0.017565742135047913
-0.037132378667593
-0.007238810881972313
-0.0361529141664505
-0.013238419778645039
-0.05053321272134781
-0.016413800418376923
-0.049436524510383606
0.030014868825674057
-0.020825164392590523
0.019650990143418312
-0.0452953465282917
-0.03311707451939583
-0.037688206881284714
-0.009234225377440453
-0.023752443492412567
-0.047139737755060196
-0.016908014193177223
-0.04917696490883827
0.046779945492744446
0.044868990778923035
0.017918599769473076
-0.007654043845832348
-0.043938469141721725
-0.03419726341962814
0.05164229869842529
-0.012928721494972706
-0.03862384706735611
0.022855954244732857
0.044247016310691833
-0.004886102396994829
0.026150135323405266
-0.03251025080680847
-0.027736984193325043
-0.04007301852107048
0.025475353002548218
0.03501128405332565
0.011677678674459457
0.007156055886298418
-0.03218923881649971
0.010897278785705566
-0.011815100908279419
0.028386414051055908
0.04911918193101883
-0.01606483943760395
-0.049978964030742645
-0.03198285028338432
-0.008190110325813293
-0.021706826984882355
0.010370750911533833
-0.022109678015112877
-0.03636991232633591
0.01760914735496044
0.03572862967848778
-0.03996660187840462
0.01902773603796959
-0.02568289265036583
-0.040306758135557175
0.015989579260349274
0.04231145605444908
-0.02268138714134693
2.9620232453453355e-05
0.05157676711678505
-0.01537912804633379
0.016633667051792145
0.042691778391599655
0.034859705716371536
-0.0324956551194191
0.03871779143810272
0.02168997935950756
-0.026133889332413673
0.05309614539146423
-0.03526858612895012
0.04055333137512207
0.017101295292377472
-0.04327232763171196
0.04153679683804512
0.0036278972402215004
0.045310549437999725
0.025498637929558754
0.03894517943263054
0.03724344074726105
-0.021431060507893562
0.0010659884428605437
0.016276955604553223
0.014329010620713234
0.016788218170404434
-0.019543010741472244
0.01959903910756111
-0.03948977589607239
-0.05063077062368393
0.037169717252254486
-0.0018963147886097431
0.004547754768282175
-0.010401281528174877
-0.046125173568725586
0.0025519439950585365
0.006012119352817535
-0.036377400159835815
-0.006999243050813675
-0.012094967067241669
0.04730142280459404
-0.04146840423345566
-0.041046254336833954
0.03797169029712677
-0.007781142834573984
-0.029920069500803947
0.00764507707208395
-0.028226284310221672
-0.04204243794083595
-0.04485061392188072
-0.0007383728516288102
0.0279395692050457
0.014698240906000137
-0.0168027114123106
0.024872660636901855
0.035306088626384735
0.04758572578430176
0.04580777511000633
0.05160348117351532
-0.02783028595149517
0.04267100989818573
0.03585720807313919
-0.0078079840168356895
0.05011720955371857
-0.010382961481809616
0.02855694480240345
-0.05210183933377266
-0.0432111918926239
-0.043221358209848404
0.0327550545334816
0.04631050303578377
0.04201366379857063
0.02130931243300438
-0.01902167871594429
0.04346593841910362
0.027346685528755188
-0.03729260712862015
0.01724989339709282
0.012128463946282864
0.020752351731061935
-0.04052775353193283
0.028347915038466454
-0.006654970347881317
0.011211189441382885
0.0081786485388875
-0.010768355801701546
-0.03628218546509743
-0.032963015139102936
-0.04526064544916153
0.010783961042761803
-0.007879162207245827
0.046019650995731354
0.043617866933345795
0.0484011173248291
0.033370740711688995
0.006837202701717615
-0.03410417586565018
-0.03147689253091812
-0.008761655539274216
0.034398581832647324
-0.0188330989331007
0.02139553427696228
0.039477746933698654
0.05007760599255562
-0.03741529583930969
0.030656812712550163
-0.04449499398469925
-0.026697443798184395
0.041724033653736115
0.02885928563773632
-0.027424350380897522
-0.046229101717472076
0.02899266593158245
0.04271572083234787
0.013783065602183342
-0.0472051203250885
-0.024240033701062202
-0.011065897531807423
-0.023087624460458755
-0.04362813010811806
0.00035020479117520154
-0.016370262950658798
0.03023773618042469
0.03383497893810272
-0.001343775074928999
-0.01620427705347538
0.015008441172540188
0.009541265666484833
0.0029405110981315374
-0.007876234129071236
0.017018595710396767
0.008675839751958847
0.043744608759880066
0.005427208263427019
0.017964549362659454
0.0318724699318409
-0.020169124007225037
0.0005251391557976604
-0.006315486039966345
-0.022809427231550217
0.03732793778181076
-0.00819125585258007
-0.018192056566476822
-0.007783913053572178
0.00968321505934
-0.018682366237044334
0.01633334346115589
0.020987320691347122
-0.05088324844837189
0.00545644061639905
0.03904365375638008
0.048688922077417374
0.018937725573778152
0.03432253748178482
0.016081400215625763
-0.002509544137865305
0.03887632489204407
-0.04462386667728424
-0.0023919371888041496
-0.004744670353829861
0.00907682254910469
-0.014809999614953995
-0.02465151809155941
0.04487533122301102
-0.021251140162348747
-0.018923932686448097
0.01590675488114357
0.009042345918715
-0.0048043145798146725
0.023550743237137794
-0.0040926141664385796
-0.04941951110959053
-0.03245849534869194
0.047814060002565384
-0.050361860543489456
-0.04594412446022034
0.04234796389937401
0.0003212370502296835
-0.005544288083910942
0.0343908965587616
-0.001496874843724072
0.039572492241859436
-0.0430639274418354
0.027587665244936943
0.03535670042037964
-0.05066634714603424
-0.0073454296216368675
0.002691769041121006
0.021052248775959015
-0.03131025284528732
-0.02890082262456417
0.03630051016807556
0.035053033381700516
-0.0430341511964798
0.044744014739990234
-0.03325717896223068
-0.048399921506643295
-0.001216646982356906
0.02060876227915287
-0.028452008962631226
0.0380958691239357
0.005061872769147158
0.009397804737091064
0.002083700383082032
0.006209173239767551
-0.015113425441086292
-0.01744338870048523
-0.03527233749628067
0.032513219863176346
-0.016221363097429276
0.015580227598547935
-0.013102132827043533
0.04462607949972153
-0.038554541766643524
-0.02383643575012684
0.0467010922729969
0.04639986902475357
-0.049798622727394104
0.03076811507344246
-0.042390305548906326
-0.03734804689884186
0.03765827789902687
-0.011104369536042213
-0.035370223224163055
-0.04449807479977608
0.047288838773965836
0.04441675916314125
0.03267178684473038
0.03380255401134491
-0.015987876802682877
0.03399648889899254
-0.045760735869407654
0.03419528901576996
0.04413537308573723
0.047326333820819855
-0.019223114475607872
-0.01366808358579874
0.039267398416996
0.047781385481357574
-0.0054014697670936584
-0.007190035190433264
0.037894170731306076
0.028004562482237816
-0.013440119102597237
-0.04618862643837929
-0.01910865120589733
0.024562809616327286
-0.041516948491334915
-0.03252388909459114
-0.002378150587901473
-0.04138319939374924
0.03856173902750015
-0.049225207418203354
0.01973651722073555
0.016237802803516388
0.0036393587943166494
-0.0453181266784668
0.01984919048845768
0.017255116254091263
0.016437171027064323
-0.04313429445028305
0.008665379136800766
-0.0011277470039203763
0.004934400785714388
-0.008018969558179379
-0.01046670414507389
0.02144986018538475
0.04355574771761894
0.05372915416955948
0.01427831593900919
-0.006323426496237516
0.051484614610672
-0.02967558614909649
-0.009329055435955524
0.024809937924146652
-0.05142754316329956
0.011415630578994751
-0.032419681549072266
-0.05070144310593605
-0.023692641407251358
-0.025425327941775322
0.04216567054390907
-0.037362515926361084
-0.028412368148565292
0.0028662760742008686
0.04564853757619858
-0.02291051112115383
0.04247589409351349
0.028993207961320877
0.018952537328004837
-0.04927356168627739
-0.007236337289214134
0.05072115734219551
0.047053802758455276
-0.02563486620783806
0.009961905889213085
0.013400537893176079
0.011756339110434055
-0.008556057699024677
0.040170662105083466
-0.03788311034440994
0.040267929434776306
0.0051306611858308315
-0.037581153213977814
0.04767795652151108
0.032648615539073944
0.03804691508412361
-0.000932335969991982
-0.007065143436193466
-0.028008848428726196
0.024430783465504646
-0.031290579587221146
-0.012120488099753857
-0.047941286116838455
0.026250531896948814
-0.030820095911622047
-0.00208534044213593
0.042698439210653305
-0.05064752697944641
0.02337849698960781
-0.04315156862139702
0.0015821440611034632
-0.006940164137631655
-0.03098195418715477
-0.03796636685729027
0.03852641582489014
0.03377513214945793
-0.00641367444768548
0.03409942612051964
-0.041584327816963196
0.03455296903848648
-0.007738365326076746
0.01844337396323681
-0.025581270456314087
0.00851206574589014
-0.0004724126774817705
-0.008739719167351723
0.024699950590729713
-0.029056744650006294
0.040698666125535965
0.002520135836675763
-0.01175711490213871
-0.02629409357905388
-0.004524582531303167
-0.023060860112309456
0.008658434264361858
0.00623899744823575
-0.04751154035329819
-0.007255565840750933
0.01721368357539177
0.02746107429265976
-0.03120533376932144
-0.006878902669996023
-0.05041029676795006
0.014898067340254784
0.03333429619669914
0.03715209662914276
-0.029026733711361885
-0.03335849195718765
0.01086433045566082
-0.043359022587537766
-0.013595718890428543
-0.03604605048894882
0.043044496327638626
0.042584072798490524
-0.011606778018176556
0.04694940522313118
-0.009310112334787846
0.033956240862607956
0.01479234080761671
-0.04634137451648712
0.013394494540989399
0.015673315152525902
-0.029841555282473564
-0.01904444769024849
0.021632855758070946
-0.04003924876451492
-0.022452503442764282
-0.0020985945593565702
-0.031988635659217834
-0.021459676325321198
-0.02102297730743885
-0.050579559057950974
0.026638181880116463
0.012227512896060944
-0.05030481144785881
-0.023953136056661606
0.037215933203697205
0.001823122613132
0.03344256803393364
-0.038145456463098526
0.016331426799297333
-0.015850361436605453
-0.040641866624355316
-0.0006955827120691538
0.03555624186992645
0.02267749048769474
-0.023626569658517838
0.04486789181828499
0.03463999181985855
0.014421057887375355
-0.028210798278450966
0.03491566702723503
-0.03408241644501686
0.047465261071920395
-0.03323545306921005
0.01742548868060112
-0.047148630023002625
0.015249881893396378
-0.04199640825390816
0.0027026108000427485
-0.011410309001803398
0.02596868760883808
0.005491676274687052
-0.0267734806984663
0.039508331567049026
-0.002267033327370882
-0.03950604051351547
-0.01899976283311844
0.022070197388529778
0.0030211920384317636
0.03130321949720383
0.019908279180526733
-0.03419535234570503
-0.01934809796512127
0.011411887593567371
0.020818423479795456
0.02863919734954834
-0.007170135620981455
0.004713641945272684
-0.05089180916547775
-0.03484504297375679
-0.04720311611890793
0.04704205319285393
-0.025412889197468758
0.03971927613019943
-0.020939089357852936
-0.04436442255973816
-0.02972296066582203
0.010181493125855923
-0.029791101813316345
0.0032029806170612574
-0.031022056937217712
-0.0148355383425951
-0.047409787774086
0.02123595029115677
-0.02360546588897705
-0.029961733147501945
0.045922551304101944
0.028223257511854172
0.030455559492111206
-0.03855405002832413
-0.013031664304435253
-0.0329882837831974
0.042788971215486526
-0.01823290064930916
-0.0492200143635273
-0.022963745519518852
-0.02636457420885563
0.028475619852542877
-0.028244180604815483
-0.02363504469394684
0.020255902782082558
-0.038308169692754745
-0.0451056994497776
-0.0036004669964313507
0.02967783994972706
0.04634920135140419
0.0523093082010746
0.02177555486559868
-0.054595623165369034
-0.04955446720123291
-0.004241493064910173
0.016075126826763153
-0.003988747019320726
0.015134340152144432
-0.012471668422222137
-0.030845485627651215
0.03863883763551712
0.029764490202069283
-0.03989175707101822
0.006629832088947296
-0.012701189145445824
-0.0033586183562874794
0.032078929245471954
-0.03308357298374176
-0.043963778764009476
-0.001117216655984521
0.03979010134935379
-0.03214913606643677
-0.013951596803963184
0.022947615012526512
0.009958193637430668
0.007278348784893751
-0.03743726387619972
0.00995306670665741
0.005528557114303112
-0.016728850081562996
-0.024114156141877174
0.01073118019849062
0.030252723023295403
-0.039054885506629944
0.030807554721832275
-0.04466438293457031
0.042882561683654785
-0.024549013003706932
0.0378984734416008
-0.04353831708431244
0.027245402336120605
0.023020528256893158
-0.007444918621331453
0.025524290278553963
-0.023414025083184242
0.02081666700541973
0.008715471252799034
-0.008882498368620872
0.0059660933911800385
0.0407085195183754
-0.01080028060823679
0.020299671217799187
0.0092055294662714
0.03309657797217369
0.03374435380101204
0.02393924444913864
-0.04833139479160309
0.008235759101808071
0.04219016060233116
-0.05292618274688721
-0.01384076289832592
-0.04318181797862053
-0.005139008164405823
0.022596513852477074
-0.020535295829176903
0.012531300075352192
-0.00510520301759243
-0.01766105554997921
0.00518415030092001
0.025541037321090698
-0.0073892297223210335
0.04089413583278656
0.00648502679541707
-0.0017754246946424246
-0.038795191794633865
-0.03636281192302704
-0.02293275110423565
-0.04748740419745445
0.022831115871667862
-0.029229775071144104
-0.04920688271522522
0.020012740045785904
-0.01009491365402937
0.016532834619283676
0.03765534982085228
-0.038568317890167236
-0.0508372001349926
-0.015200287103652954
0.008348368108272552
-0.04744451120495796
-0.04425425082445145
-0.03641533479094505
0.044445015490055084
-0.03285175561904907
-0.012648412026464939
-0.05005638301372528
0.021689297631382942
0.009379795752465725
0.028380896896123886
0.016351593658328056
-0.026549959555268288
0.001075746025890112
-0.03802844136953354
-0.005995760206133127
-0.032249100506305695
-0.0031042115297168493
0.024869339540600777
-0.03319362550973892
-0.012143149971961975
-0.037401165813207626
-0.03990171104669571
-0.007475000340491533
0.00014008143625687808
-0.040859587490558624
-0.020175697281956673
0.03304377570748329
-0.030568869784474373
-0.01440997701138258
-0.03094613179564476
-0.04070645198225975
0.04508734494447708
-0.051596056669950485
-0.028778711333870888
-0.033889513462781906
-0.01916525699198246
0.04670940712094307
-0.016929712146520615
-0.0023834356106817722
-0.03601447865366936
0.017984163016080856
0.027999963611364365
-0.040948450565338135
0.01899293065071106
-0.0008946765447035432
-0.024646326899528503
0.023423172533512115
-0.0052782390266656876
0.0016103019006550312
0.03322859853506088
0.02417636290192604
0.015789061784744263
0.01091067399829626
-0.028835657984018326
0.026975015178322792
-0.04927222058176994
0.04180770367383957
0.021923420950770378
-0.04374440759420395
-0.05280742049217224
-0.04971247538924217
0.032911814749240875
-0.02442346140742302
0.008192680776119232
0.02088066004216671
-0.038330115377902985
-0.00450343731790781
0.015004856511950493
-0.022771041840314865
0.008703152649104595
-0.03645912930369377
-0.009953933767974377
0.03873958811163902
-0.037101443856954575
-0.003819294273853302
0.039454199373722076
0.0023654005490243435
0.04818704351782799
-0.03774350509047508
-0.00857541710138321
0.005527280271053314
0.011445834301412106
0.03196339309215546
0.001810703775845468
-0.02755146473646164
-0.012639421969652176
0.0018831186462193727
0.013087362982332706
-0.029405441135168076
-0.01130301970988512
0.018615202978253365
0.03784903138875961
-0.022286510095000267
0.030293427407741547
-0.009674585424363613
-0.013422423042356968
-0.05394291877746582
-0.0489594042301178
-0.05295736715197563
0.03214898332953453
-0.027285965159535408
-0.00595296872779727
-0.0370783805847168
-0.03325696662068367
-0.039508502930402756
-0.00824653822928667
-0.04624629393219948
0.022234685719013214
-0.016137614846229553
-0.001400727080181241
-0.026007073000073433
-0.0489201620221138
-0.033264510333538055
-0.011479799635708332
0.01980515941977501
0.010771100409328938
-0.047689493745565414
0.012932765297591686
-0.007900419645011425
-0.04935595765709877
-0.03897886350750923
-0.006210646126419306
0.03836841136217117
0.02506345696747303
-0.038317836821079254
0.034344181418418884
0.0011995959794148803
0.03017558716237545
-0.004420728422701359
0.03875649720430374
-0.021480655297636986
0.030183419585227966
-0.03405123949050903
-0.047167081385850906
0.039640963077545166
-0.016487522050738335
0.004443558398634195
0.041535016149282455
0.00020972859056200832
0.04485263675451279
0.011542469263076782
0.04941743612289429
-0.011309309862554073
-0.01601194031536579
0.013789196498692036
0.018339699134230614
-0.014694726094603539
0.01070098765194416
0.009140926413238049
-0.04144013300538063
0.03135267645120621
0.008959788829088211
-0.024459796026349068
-0.04336576163768768
-0.0005973225343041122
-0.02715388312935829
-0.014893901534378529
-0.036675285547971725
0.03545103594660759
0.014532165601849556
-0.0430792011320591
0.02650327794253826
0.019926032051444054
-0.0488872230052948
0.03938307985663414
0.007572594098746777
0.006700819358229637
0.04640212655067444
-0.01360657811164856
-0.046127233654260635
-0.04049955680966377
-0.048252955079078674
-0.0003083170740865171
0.029639193788170815
-0.027645718306303024
-0.04764867201447487
0.01715170033276081
-0.00022898384486325085
0.04911550506949425
-0.019913898780941963
0.022508297115564346
0.030646320432424545
-0.04381071403622627
-0.0505814291536808
-0.037894148379564285
-0.03042883612215519
-0.02368043176829815
0.03423081338405609
0.018442798405885696
0.05355403199791908
-0.008294569328427315
0.03412424400448799
-0.037218160927295685
-0.017041202634572983
0.02761729806661606
0.02733478508889675
0.006485489662736654
0.03378728777170181
0.039964187890291214
0.014510818757116795
0.02173892967402935
-0.04984404146671295
-0.037199169397354126
-0.03958242014050484
0.03763311728835106
-0.018635343760252
0.044850848615169525
-0.03045300953090191
-0.039831098169088364
0.008183728903532028
-0.05078616365790367
-0.049253106117248535
0.02196001261472702
0.041516490280628204
0.0032658944837749004
0.02242039516568184
-0.031382955610752106
-0.001979475375264883
-0.015001362189650536
0.030061669647693634
-0.017963901162147522
0.052151039242744446
-0.0193727258592844
-0.0009825355373322964
0.017992887645959854
0.031043028458952904
-0.04251369833946228
0.00580125767737627
0.026620468124747276
0.023103883489966393
-0.00393596151843667
0.00861771497875452
-0.004920307546854019
0.013966483995318413
-0.04513096809387207
-0.015421761199831963
-0.031910743564367294
0.00524138892069459
0.04917304590344429
-0.011559735983610153
0.008448918350040913
0.03219212219119072
-0.017168691381812096
-0.038145147264003754
0.03131537511944771
0.0531497523188591
0.02800486423075199
0.029353929683566093
0.04358449578285217
-0.019699711352586746
0.00939412321895361
0.019735189154744148
-0.027747001498937607
0.048791397362947464
-0.03227202966809273
-0.01956581510603428
5.573302405537106e-05
0.043170735239982605
-0.0244443416595459
0.019845176488161087
-0.0001772724062902853
0.002815001178532839
-0.017405839636921883
0.04529852047562599
0.0004567834548652172
0.005290013737976551
0.004937729798257351
0.014326013624668121
-0.008832894265651703
-0.017818640917539597
-0.016454704105854034
0.026915090158581734
0.0018924890318885446
-0.010815095156431198
-0.010950076393783092
0.014448154717683792
-0.03414885327219963
-0.03638935089111328
-0.022443177178502083
-0.01792631298303604
0.009570925496518612
-0.023736460134387016
0.00522996298968792
0.01693277433514595
0.040325943380594254
-0.034193005412817
0.015056164003908634
-0.013178464025259018
0.023711223155260086
-0.04897139221429825
0.016969820484519005
-0.015105491504073143
0.03546508774161339
-0.0475785955786705
0.031247735023498535
-0.010698518715798855
-0.020558422431349754
0.03127676248550415
0.031131204217672348
0.028838373720645905
0.02709442749619484
-0.042954158037900925
0.0005764754023402929
0.0037208341527730227
-0.027258217334747314
-0.009877884760499
-0.011464097537100315
0.03553340956568718
-0.020428936928510666
-0.02903788536787033
-0.026327596977353096
-0.04122906178236008
-0.01455971971154213
0.03402760252356529
0.03255888819694519
0.0071614705957472324
-0.04852522164583206
-0.02480773814022541
0.046007394790649414
0.03603147715330124
-0.004736735951155424
0.014093109406530857
-0.009376821108162403
0.018540769815444946
-0.026626717299222946
-0.04013746976852417
0.04137701913714409
0.002765263896435499
0.018884003162384033
-0.0457322895526886
0.0363636314868927
-0.012051397934556007
-0.04419463127851486
0.047799643129110336
-0.00840155128389597
0.0031545546371489763
0.007443179842084646
0.01830856315791607
0.00908610224723816
0.04349413141608238
0.02724016085267067
-0.03557632490992546
-0.02119077555835247
-0.008235610090196133
0.011794453486800194
-0.020932354032993317
0.032562579959630966
-0.041597627103328705
-0.01998600922524929
0.04853014647960663
-0.04292643442749977
-0.025410208851099014
0.007661512121558189
0.0026968850288540125
0.04653579741716385
-0.01770864985883236
0.009965269826352596
-0.030027367174625397
-0.0452626571059227
0.00027402571868151426
-0.024650242179632187
0.04357149079442024
0.04132512956857681
-0.032455213367938995
0.0015199085464701056
-0.02871314436197281
0.011446948163211346
-0.03824547678232193
-0.005297744646668434
0.022494910284876823
0.049471139907836914
0.04260581359267235
0.0056823077611625195
-0.030111344531178474
-0.04296145960688591
-0.012832004576921463
0.0027138767763972282
-0.03260323777794838
0.020271016284823418
-0.0329509973526001
0.04421020671725273
-0.013838209211826324
0.012918278574943542
0.006125356070697308
0.04551928862929344
0.04223833978176117
0.034716762602329254
-0.01649654284119606
0.032879963517189026
0.023259269073605537
0.010959170758724213
-0.02237524278461933
-0.0013329342473298311
0.02802201174199581
-0.037773437798023224
0.04670681059360504
-0.04634329676628113
-0.010603105649352074
0.0038468202110379934
-0.03467295318841934
-0.02857058122754097
-0.04744401574134827
-0.04572644457221031
-0.0004471901629585773
-0.004141307435929775
0.013340525329113007
-0.04624655842781067
0.04181355610489845
0.05212480202317238
-0.012309939600527287
-0.04865265637636185
0.009621593169867992
-0.04579632356762886
-0.011215698905289173
-0.003252290887758136
0.014417302794754505
-0.016160087659955025
-0.0011298732133582234
0.01487274281680584
-0.01346443872898817
-0.01358544360846281
0.004450816195458174
0.03409409150481224
0.023207414895296097
-0.016018860042095184
-0.04680562764406204
-0.02211945876479149
-0.012698116712272167
-0.05088335648179054
0.03316642343997955
-0.04192576929926872
-0.05417794734239578
0.04512812942266464
-0.007451233454048634
0.04033041372895241
0.04115369915962219
0.008535756729543209
0.044259555637836456
-0.006926533300429583
-0.04036569222807884
0.04802626743912697
-0.043143149465322495
-0.03354532644152641
0.014155896380543709
-0.03381109610199928
0.04042458534240723
0.03150402754545212
0.013288854621350765
-0.04876192286610603
-0.02304612472653389
0.032955411821603775
0.017312781885266304
0.00906007457524538
-0.010589193552732468
-0.04498770087957382
0.016164304688572884
0.045407723635435104
0.02647646889090538
0.016665104776620865
0.03433593362569809
0.03232569620013237
0.002560653258115053
0.027254214510321617
-0.025622576475143433
0.023970576003193855
0.03616911917924881
0.00808523315936327
0.027070719748735428
-0.05077723041176796
-0.03226231411099434
-0.03252965956926346
0.013374540023505688
-0.045484140515327454
-0.005270510911941528
-0.03597843274474144
-0.0003865785547532141
-0.05276406556367874
-0.04975279048085213
-0.02621987834572792
0.014543958008289337
-0.01195705309510231
0.033671095967292786
0.03299785405397415
-0.03023901954293251
0.004924462642520666
-0.029221203178167343
0.04587201774120331
0.010205867700278759
-0.04214188829064369
0.0468783937394619
-0.013590636663138866
-0.026370806619524956
0.01672026515007019
0.007697191555052996
0.02514512650668621
0.047118037939071655
0.011770082637667656
0.026133760809898376
-0.027291161939501762
0.04753544554114342
-0.00971787516027689
-0.02604970708489418
-0.04324439913034439
0.032936498522758484
-0.044841401278972626
0.025782769545912743
-0.04600141942501068
0.04555121809244156
-0.03801142796874046
0.007248228881508112
-0.0254186000674963
-0.0015800822293385863
-0.027306143194437027
-0.0012535923160612583
-0.0028655994683504105
0.014398514293134212
0.032803505659103394
-0.028522925451397896
-0.019459020346403122
-0.04898860678076744
0.02316032163798809
0.042802780866622925
-0.004789633210748434
0.02893170528113842
0.02943383902311325
0.016741778701543808
0.025280848145484924
-0.016352951526641846
-0.017649110406637192
0.04312983900308609
0.044390719383955
-0.022910447791218758
0.008933735080063343
-0.006974601186811924
0.03215368092060089
0.004797587636858225
-0.010145195759832859
0.030600307509303093
0.00030535392579622567
-0.005191177595406771
-0.029127417132258415
-0.04697127267718315
0.03852371498942375
-0.0351877398788929
0.025363629683852196
0.009960130788385868
-0.010015634819865227
0.0017313665011897683
0.021255183964967728
0.030281702056527138
-0.004712412133812904
0.0061159441247582436
-0.042987994849681854
-0.002837702864781022
0.021342767402529716
-0.04413928836584091
0.0005450225435197353
0.032546527683734894
-0.00898774340748787
0.03384177386760712
-0.01692758873105049
-0.045772042125463486
-0.017374565824866295
-0.041017673909664154
-0.05173705145716667
0.021039346233010292
0.02567550726234913
0.011834786273539066
-0.026372717693448067
0.0075836507603526115
-0.002932018367573619
-0.029024461284279823
0.00607859855517745
0.022947797551751137
0.020980581641197205
0.022392403334379196
-0.006990891881287098
0.028354255482554436
0.02470473386347294
-0.03234453126788139
-0.001616626512259245
0.004620561841875315
0.013387558050453663
-0.03740721568465233
-0.03398292139172554
0.03551481291651726
-0.010032988153398037
0.05359115079045296
0.050148192793130875
0.022871529683470726
0.003069608472287655
0.014888511970639229
-0.04040159657597542
0.006884443573653698
-0.010947082191705704
-0.003681160043925047
0.04435286670923233
0.025681639090180397
0.017936084419488907
0.019573064520955086
0.007205571047961712
0.030482767149806023
-0.0008055829093791544
0.023118052631616592
-0.04712313413619995
-0.03010682575404644
-0.004082987550646067
0.019952617585659027
0.03974323719739914
-0.011850638315081596
0.03298294544219971
-0.03492683544754982
-0.0290315430611372
-0.017194872722029686
0.0007369903614744544
0.03855929523706436
0.027331329882144928
0.0022612495813518763
-0.007409848738461733
0.014558689668774605
-0.02971162647008896
-0.04084598645567894
0.051227763295173645
0.01876440830528736
0.014584271237254143
0.018748082220554352
0.026096418499946594
0.01157938502728939
-0.011685471050441265
-0.003128119045868516
-0.044446736574172974
0.03272634372115135
-0.038822486996650696
0.03871919587254524
0.00024721238878555596
-0.02201290987432003
0.02865150384604931
0.0016842223703861237
0.04170006886124611
-0.02221119962632656
0.04229065403342247
0.049240197986364365
-0.010910183191299438
0.04098930582404137
0.024889150634407997
-0.050238218158483505
-0.04032911732792854
-0.04548439010977745
-0.00785804633051157
0.010103126056492329
0.028225336223840714
-0.013805952854454517
-0.0008139690035022795
0.049196407198905945
0.017247222363948822
-0.007925186306238174
0.036147478967905045
0.03651636466383934
0.0123357018455863
-0.02676847204566002
-0.0017526111332699656
-0.0419648103415966
-0.004865035880357027
-0.00808466225862503
0.04454059153795242
0.013627121224999428
0.019737986847758293
-0.022090449929237366
0.02931606024503708
0.028401322662830353
-0.03860088437795639
0.004888614639639854
-0.014366270042955875
0.03390304371714592
-0.04724356532096863
0.005255327560007572
-0.034132231026887894
0.03485376760363579
0.029084911569952965
0.004370274022221565
-0.03812018409371376
-0.018671153113245964
0.013555348850786686
0.008049385622143745
-0.03335295990109444
-0.024236954748630524
-0.03786782920360565
-0.028012074530124664
0.031227167695760727
-0.019272170960903168
-0.008617117069661617
0.0035683633759617805
-0.009404003620147705
0.053964387625455856
-0.020181862637400627
0.020449183881282806
-0.046539485454559326
-0.041745468974113464
-0.05011855065822601
-0.007959517650306225
-0.0449674092233181
0.012051582336425781
-0.03675781935453415
0.01972602680325508
-0.031818728893995285
0.01124213170260191
0.03545058146119118
-0.038963913917541504
-0.00416043633595109
0.03310978040099144
0.04524514451622963
-0.006368836387991905
0.029579777270555496
0.0072440505027771
-0.044293902814388275
-0.048552531749010086
0.03967536613345146
-0.03888510540127754
-0.02839694917201996
-0.022540666162967682
0.04101026803255081
0.016475973650813103
-0.010834844782948494
0.024993613362312317
0.02387102320790291
0.0005983162554912269
-0.04071948304772377
-0.02493327111005783
-0.029984092339873314
-0.0005891671171411872
0.023341242223978043
0.004841488786041737
0.042019255459308624
0.010381125845015049
-0.024395950138568878
0.0038505697157233953
-0.013198038563132286
0.03135208785533905
0.010386993177235126
-0.007228153292089701
0.018259011209011078
-0.02549097128212452
0.028100179508328438
-0.04143452271819115
-0.013640664517879486
0.03220736235380173
0.04458792135119438
0.0235957782715559
-0.02657448686659336
-0.025981253013014793
0.03312716633081436
-0.04581693559885025
-0.01981666497886181
0.018283003941178322
-0.012135711498558521
-0.000901085149962455
0.03901663422584534
0.004016838036477566
0.04974216967821121
-0.044246990233659744
0.04752545803785324
-0.0460069365799427
0.012029777280986309
-0.04806540533900261
0.029974287375807762
0.024059584364295006
0.03293706476688385
0.03718617185950279
0.04844226688146591
-0.03195172920823097
0.024026092141866684
-0.04510834068059921
-0.01987290196120739
-0.02800139971077442
0.0021817830856889486
-0.05032358691096306
-0.029655368998646736
-0.04888559877872467
0.0292410459369421
0.053037773817777634
-0.0444951131939888
0.030184583738446236
-0.03203301876783371
0.009340257383883
0.03577741980552673
0.025584936141967773
0.02546338364481926
-0.009880763478577137
0.027809638530015945
-0.005916746333241463
-0.03850207477807999
0.023436203598976135
-0.01797320879995823
-0.006875200197100639
-0.013434355147182941
0.01801944337785244
0.031625933945178986
0.02562328428030014
0.009158381260931492
-0.007969369180500507
-0.009040324948728085
0.0365796759724617
0.04381991922855377
0.032379377633333206
-0.04165260121226311
-0.0063643669709563255
-0.0483596995472908
-0.030752912163734436
0.03621312603354454
0.018323780968785286
0.02701369859278202
0.015540271066129208
0.002767914440482855
0.038109831511974335
-0.035304635763168335
0.04047918692231178
0.024355191737413406
-0.016301045194268227
-0.022706717252731323
0.0008483309647999704
0.011468938551843166
0.003157007275149226
-0.014682283625006676
0.04247423633933067
0.02592836134135723
0.03075323812663555
-0.010221954435110092
-0.01920164003968239
0.03559226915240288
-0.03953655809164047
0.012836866080760956
-0.05300748348236084
-0.039231449365615845
0.048072557896375656
0.04138863831758499
0.04752000793814659
-0.004929626826196909
-0.05256372317671776
0.0037028526421636343
-0.0321316123008728
-0.022515689954161644
0.04623914137482643
0.04489149898290634
0.021533140912652016
-0.03600384667515755
0.028951138257980347
0.03551274910569191
0.0014446560526266694
-0.0139194680377841
-0.03429512679576874
-0.048473529517650604
-0.0503697395324707
0.032183028757572174
0.04810141772031784
0.017792366445064545
0.00011699024616973475
-0.01184846367686987
-0.007954591885209084
-0.007718801498413086
0.034176040440797806
0.03279619663953781
-0.04969720169901848
-0.0385531522333622
0.05138859152793884
-0.053906865417957306
0.030272455886006355
0.04410255700349808
0.023393303155899048
0.05000745505094528
0.0007058840710669756
-0.0338076613843441
-0.0401361882686615
-0.010392926633358002
-0.04552563652396202
0.040844544768333435
0.020647510886192322
-0.004039655439555645
0.008762315846979618
0.043264567852020264
-0.006215041037648916
-0.026815634220838547
-0.04036602005362511
0.02851797826588154
0.05118756741285324
0.02673935517668724
0.04969465732574463
-0.010143446736037731
-0.0334196500480175
0.026555273681879044
0.022714952006936073
0.03848607465624809
-0.011641914956271648
-0.017771676182746887
0.02572045475244522
-0.04131193459033966
0.033162154257297516
-0.02814324013888836
0.04293638840317726
0.028532953932881355
-0.03050142526626587
-0.0392865352332592
0.04427005723118782
-0.035508133471012115
0.016225768253207207
0.01966027356684208
-0.0415864996612072
0.01345258392393589
-0.04569675028324127
-0.028260936960577965
0.014650528319180012
-0.04468386620283127
0.031374242156744
0.00275786011479795
-0.01778319478034973
-0.004843520931899548
0.01804390922188759
0.04014355316758156
-0.04326305165886879
-0.035968098789453506
-0.002875747624784708
0.046856824308633804
0.005979187786579132
0.004794539418071508
0.04481768608093262
0.03290180116891861
-0.020287321880459785
0.008041443303227425
-0.024138273671269417
-0.02703179605305195
-0.0190941970795393
-0.003181871958076954
0.0465007945895195
-0.033525582402944565
0.01930011808872223
-0.04835796728730202
-0.0317668654024601
-0.022278746590018272
-0.040708474814891815
0.022961299866437912
-0.007839623838663101
0.03154417872428894
0.008800921030342579
0.008964098989963531
0.01950290985405445
-0.007978891022503376
-0.022038940340280533
-0.025314809754490852
0.015860404819250107
-0.03089778497815132
0.018971629440784454
0.051786333322525024
0.005292235873639584
-0.0019474509172141552
-0.04624997824430466
-0.01588205248117447
0.009399578906595707
-0.03296380117535591
-0.03463499993085861
-0.010212298482656479
0.0020799515768885612
0.009273170493543148
-0.020384380593895912
0.009425472468137741
-0.00874838512390852
-0.00019396220159251243
0.016918031498789787
-0.04642608389258385
-0.019195333123207092
-0.03223998844623566
0.028759529814124107
-0.04700383171439171
-0.011403270997107029
0.006687254179269075
0.02019161731004715
0.04612680897116661
-0.018819784745573997
0.04882478713989258
-0.011573096737265587
0.02247045561671257
-0.03527843952178955
0.030576296150684357
-0.044025059789419174
-0.03744238615036011
0.0014435792108997703
0.042375147342681885
-0.02485961653292179
0.03942860662937164
-0.011539340950548649
0.043543267995119095
0.026856454089283943
0.021178070455789566
-0.021843571215867996
-0.027142774313688278
-0.02431482821702957
0.036249928176403046
0.014014444313943386
-0.014317923225462437
0.03659338876605034
0.03194621205329895
0.032579440623521805
-0.024031128734350204
0.0402504988014698
0.010666011832654476
0.020661594346165657
0.01294003240764141
0.0036110589280724525
-0.02324935607612133
0.03949519991874695
-0.024027297273278236
-0.044890206307172775
0.03640260174870491
-0.05058727040886879
0.02326076664030552
0.020843004807829857
-0.012218713760375977
-0.017024662345647812
-0.051042381674051285
0.0065402984619140625
0.03666179999709129
-0.045480579137802124
0.036946576088666916
0.04946805164217949
0.04583301395177841
-0.04129079729318619
0.0479305163025856
-0.0034489063546061516
0.01728096604347229
-0.006694065406918526
0.00827728770673275
-0.048256948590278625
-0.015436919406056404
0.0032162799034267664
0.03346448019146919
-0.02286488004028797
0.05436062440276146
0.01627100631594658
0.04597000032663345
-0.01686904765665531
0.03522080183029175
-0.01656043715775013
0.04831676930189133
-0.02907020039856434
-0.010351012460887432
0.03895508497953415
-0.04907919466495514
-0.03971060365438461
-0.012140076607465744
-0.01555659994482994
0.024881456047296524
0.03626422584056854
0.047742415219545364
0.012300839647650719
-0.004459538031369448
-0.03678217530250549
0.015010220929980278
-0.015190844424068928
0.016209222376346588
0.04457082226872444
-0.039858378469944
0.019032420590519905
0.04352094233036041
0.03135181590914726
0.026967590674757957
-0.01909754052758217
-0.013952504843473434
0.02168656326830387
0.0346238873898983
-0.00591270113363862
0.015260671265423298
0.04687482863664627
0.0440480038523674
-0.03030322678387165
0.02900620922446251
0.029399264603853226
-0.03373107314109802
-0.016964517533779144
-0.005724802613258362
-0.024935396388173103
-0.013570694252848625
-0.01964794285595417
0.028745250776410103
-0.04021361842751503
-0.01603330299258232
0.025293108075857162
-0.025913134217262268
0.05006469041109085
-0.05085299164056778
0.027683187276124954
-0.03032619133591652
0.022676685824990273
0.041095588356256485
-0.02458053082227707
-0.04822790250182152
0.017421869561076164
0.04128687083721161
0.017365485429763794
0.030992206186056137
0.04628610983490944
-0.029429754242300987
0.03629286214709282
-0.04051481559872627
0.033566538244485855
0.034780703485012054
0.044993966817855835
0.01662767305970192
0.046501561999320984
0.02063651755452156
0.004103867337107658
-0.011642193421721458
-0.012369559146463871
-0.009395224042236805
0.00335833802819252
0.04610554501414299
-0.04455534741282463
-0.02158869057893753
-0.011406144127249718
0.01656787097454071
0.048330701887607574
-0.037918560206890106
-0.05365113168954849
0.041352201253175735
-0.002439048606902361
-0.04984422028064728
0.044343944638967514
-0.03995770961046219
-0.03729425370693207
-0.030665721744298935
0.037286024540662766
0.04649099335074425
-0.03876664862036705
-0.04758534952998161
0.0017896407516673207
-0.009197428822517395
-0.021569162607192993
0.018857484683394432
-0.01923912763595581
-0.044610194861888885
-0.011980660259723663
-0.010268054902553558
0.029027650132775307
-0.004480138421058655
0.02698732726275921
0.03299867734313011
0.00788844283670187
0.04190738499164581
-0.03216368705034256
0.048440489917993546
-0.012946492992341518
-0.01241036131978035
-0.03959423303604126
-0.0497390516102314
-0.0014428014401346445
0.01826322451233864
-0.03735436499118805
0.04882730543613434
-0.009737004525959492
0.01676592417061329
0.03064139001071453
0.027992991730570793
0.020299164578318596
-0.003469249000772834
0.04543209820985794
-0.022369811311364174
0.02639809250831604
0.048210740089416504
0.013121375814080238
0.029504843056201935
-0.03803471848368645
0.02282756194472313
-0.024187514558434486
-0.00025923881912603974
0.025474701076745987
-0.04597856476902962
0.008165006525814533
-0.008362744934856892
0.029471734538674355
0.02124953083693981
0.016699576750397682
-0.015642313286662102
0.007922234944999218
0.048172179609537125
0.0031309037003666162
0.0060644675977528095
-0.009217732585966587
0.020339395850896835
-0.03325457125902176
-0.043282244354486465
-0.011160979978740215
0.025472627952694893
-0.01906287856400013
0.03141913190484047
0.047609906643629074
0.029999949038028717
-0.03709730505943298
0.028743885457515717
0.020258065313100815
-0.04423922300338745
-0.04248395934700966
-0.014235510490834713
0.00671605858951807
-0.05490514263510704
0.00722753070294857
-0.044113658368587494
0.04497762769460678
0.013522866182029247
-0.0019592151511460543
-0.031915079802274704
0.020093295723199844
-0.050598956644535065
-0.01638578437268734
-0.03765134513378143
0.04042355343699455
-0.035906147211790085
-0.025335019454360008
0.048603057861328125
0.03469206392765045
-0.007443353999406099
0.017974557355046272
0.027576472610235214
-0.03289921209216118
0.04038127511739731
-0.027593160048127174
0.009932593442499638
-0.012542081996798515
0.03027454763650894
0.021513760089874268
-0.02999553456902504
0.005533250048756599
0.029519671574234962
0.0034651702735573053
-0.021313557401299477
0.037241991609334946
0.004395061172544956
0.04838906228542328
0.02258986048400402
-0.04991120100021362
-0.004168362822383642
0.005375288892537355
0.01295437477529049
-0.012256257236003876
0.031756430864334106
-0.03797473758459091
0.03408043831586838
0.051467567682266235
0.03418374061584473
0.02815873548388481
0.03340650349855423
0.007032125256955624
-0.04891591891646385
0.010363627225160599
-0.014583404175937176
-0.0018467120826244354
-0.023893209174275398
0.04736102744936943
-0.026754125952720642
0.036589615046978
0.04781515151262283
0.03375858813524246
-0.053153473883867264
-0.01744011417031288
0.0005921080592088401
-0.02369563840329647
0.008375435136258602
0.025416208431124687
0.03554362431168556
-0.008601884357631207
-0.006999682169407606
0.021680662408471107
0.029261499643325806
0.00956222228705883
0.020999381318688393
-0.038243185728788376
0.0419081412255764
-0.01316497940570116
-0.031321294605731964
0.002732163993641734
-0.047133609652519226
0.040989406406879425
0.04254902899265289
0.02413400262594223
-0.010945231653749943
-0.04468943923711777
0.02597014792263508
0.02833416871726513
-0.007581161335110664
-0.02297368086874485
0.00795788038522005
-0.00862071756273508
-0.003651704639196396
0.036674607545137405
-0.04033803939819336
0.023081546649336815
0.015029964968562126
0.05840210244059563
-0.01327720656991005
-0.029285581782460213
-0.02990572713315487
0.04405773803591728
0.01465497724711895
-0.01833018660545349
0.028055716305971146
0.029293449595570564
-0.035240624099969864
-0.021849466487765312
0.011476268991827965
0.026342343538999557
0.003549163695424795
0.045889563858509064
-0.012653968296945095
0.004850449506193399
-0.03721640631556511
0.004864237271249294
-0.050900012254714966
0.012938891537487507
-0.03497128188610077
0.05114462599158287
-0.049044400453567505
0.05202677473425865
-0.04761970043182373
-0.006719190627336502
-0.03631163388490677
-0.020683806389570236
0.045183032751083374
0.030356930568814278
0.04530874267220497
-0.0022578048519790173
-0.001217349199578166
0.03169725462794304
-0.012710260227322578
-0.013063622638583183
-0.044912710785865784
0.011254231445491314
0.023360485211014748
0.05019010975956917
0.001100674970075488
0.0029532290063798428
0.03723084554076195
0.04557858407497406
0.04650897532701492
0.03300433233380318
-0.008505449630320072
0.051573336124420166
-0.03011316806077957
0.003970060497522354
-0.01753024198114872
0.022238679230213165
0.032662905752658844
-0.041780684143304825
0.05152832344174385
-0.02216319553554058
-0.04072580859065056
0.010022027418017387
-0.020445458590984344
0.023841748014092445
0.0018827946623787284
0.03166111931204796
0.0007325054612010717
-0.04174402356147766
0.0336446650326252
-0.03692852333188057
-0.02484436333179474
-0.02535242587327957
0.04114260524511337
-0.039600033313035965
-0.008002611808478832
-0.03963636979460716
-0.04092280566692352
-0.02450866624712944
-0.0040108272805809975
-0.005309483036398888
0.02966458909213543
0.03103667125105858
0.041656628251075745
0.03181486204266548
-0.006765385158360004
-0.023700708523392677
0.043849796056747437
0.017958898097276688
0.021684199571609497
-0.045986901968717575
-0.033267948776483536
0.01838338002562523
-0.010397625155746937
-0.04705673083662987
0.0027850111946463585
0.020436037331819534
-0.04122386872768402
-0.04591737687587738
-0.028513440862298012
0.03992769122123718
-0.008414695039391518
0.009881630539894104
0.022485090419650078
0.020570605993270874
-0.045718904584646225
0.046885326504707336
-0.02699773944914341
-0.046454235911369324
0.031599581241607666
0.05052248015999794
-0.0351153165102005
0.013634124770760536
0.002101860474795103
0.042128775268793106
0.030725479125976562
0.04382804408669472
0.009471887722611427
-0.001971133053302765
0.037807896733284
0.009366978891193867
-0.038035016506910324
0.05018191784620285
-0.04295982047915459
0.010450783185660839
-0.010137929581105709
0.020379701629281044
0.03101717121899128
0.019311094656586647
-0.022238105535507202
0.0019838742446154356
-0.0081098023802042
0.035682570189237595
0.03523385524749756
-0.03682734817266464
-0.015360941179096699
0.010500144213438034
0.03919369354844093
0.027845967561006546
0.010931849479675293
0.03870394453406334
0.03891374170780182
0.007094935979694128
0.02313164621591568
0.033550068736076355
-0.04496552050113678
-0.02939099259674549
-0.042530301958322525
0.004964040592312813
0.01525958999991417
0.02648170106112957
-0.005071206018328667
0.013137166388332844
-0.007931903004646301
-0.02353328838944435
-0.006912451237440109
0.05461934208869934
-0.0192217156291008
0.005010273307561874
-0.005608499515801668
0.05269158259034157
0.03460133075714111
-0.021838856860995293
-0.025833573192358017
0.011212651617825031
0.010946466587483883
-0.007186241447925568
-0.0018369765020906925
-0.004359275568276644
0.023860305547714233
-0.04956073313951492
-0.020837800577282906
0.04072610288858414
-0.018045080825686455
-0.03808992728590965
0.04437100887298584
0.027573607861995697
-0.05283438414335251
-0.025439226999878883
0.03921322897076607
-0.011491009965538979
-0.03422696143388748
0.0231223925948143
-0.00736314756795764
0.04369131848216057
-0.03975098207592964
0.03171803057193756
0.013262764550745487
-0.039897412061691284
-0.04060547798871994
0.017341826111078262
-0.001561666838824749
0.026214832440018654
0.03241008147597313
0.022831229493021965
0.006273276172578335
0.011363010853528976
-0.04797368496656418
-0.050251517444849014
0.023511691018939018
0.0430016852915287
-0.0035558759700506926
0.040051981806755066
0.00966102909296751
0.03580155596137047
0.02434179000556469
-0.015003008767962456
-0.02147482894361019
0.04674164950847626
-0.04222680255770683
-0.039080724120140076
0.01487051509320736
0.04574237018823624
0.017031852155923843
0.01359282061457634
-0.013680822215974331
-0.040375590324401855
0.038848746567964554
-0.010209680534899235
-0.029371485114097595
0.026708045974373817
0.043147340416908264
0.0037469281814992428
0.015841200947761536
0.04211808368563652
0.005404449533671141
-0.02186870388686657
-0.025130342692136765
-0.0019992589950561523
-0.031927041709423065
-0.005578756332397461
0.005577148403972387
-0.012783097103238106
-0.04962468147277832
0.027519041672348976
-0.046396076679229736
0.03738762438297272
0.045927200466394424
0.029349785298109055
-0.023805219680070877
0.043886326253414154
-0.040039099752902985
-0.0364585816860199
0.012413174845278263
0.026104265823960304
-0.03462476655840874
0.007294829003512859
0.03635455295443535
-0.027027595788240433
0.044945038855075836
-0.014241279102861881
-0.017542539164423943
-0.04241744428873062
-0.031959857791662216
-0.007258299272507429
-0.03760701045393944
-0.006563595961779356
0.048222362995147705
-0.04309815913438797
0.04712820053100586
-0.02773531712591648
0.030112987384200096
-0.03432407230138779
0.004628502763807774
-0.02984091080725193
0.02384074032306671
0.032498396933078766
0.031853463500738144
0.04526221379637718
-0.003746146336197853
-0.03932720050215721
0.011205597780644894
0.026509836316108704
0.045986514538526535
-0.04064062237739563
-0.051367707550525665
-0.052627675235271454
0.049494631588459015
0.03362754359841347
0.04303988441824913
-0.031325455754995346
-0.02012803964316845
0.024112220853567123
0.03367365896701813
0.015973888337612152
-0.014360812492668629
0.0295405350625515
0.03232720494270325
-0.020220093429088593
0.051088958978652954
0.030684802681207657
0.03905826807022095
-0.02851528860628605
-0.03344923257827759
-0.027585895732045174
-0.029576942324638367
-0.03107021376490593
0.030686594545841217
0.004781099036335945
-0.02551966905593872
-0.003901549382135272
0.03871864825487137
0.011843785643577576
0.024577846750617027
-0.0035614522639662027
0.029499998316168785
-0.02552740089595318
0.030206793919205666
0.004126969259232283
0.03250801935791969
-0.005227834917604923
-0.007677497807890177
-0.019311241805553436
0.015659160912036896
-0.022018250077962875
-0.0398201048374176
0.029552578926086426
-0.013661582954227924
-0.054161038249731064
0.03248029202222824
-0.03842504322528839
0.036635786294937134
-0.04643375054001808
0.024055633693933487
0.052384864538908005
0.0017833232413977385
0.010105466470122337
-0.05148845165967941
-0.023975808173418045
0.014016437344253063
-0.010008235462009907
-0.04977153241634369
-0.03235938400030136
-0.04841157793998718
-0.04706038162112236
0.04298536106944084
-0.03520441800355911
-0.032779235392808914
0.03826196864247322
-0.014961506240069866
-0.04303380474448204
-0.03876762092113495
0.004995762370526791
0.03614237159490585
0.023562323302030563
0.037444453686475754
-0.05098200961947441
0.04362866282463074
0.007339784875512123
0.027903255075216293
-0.038544900715351105
-0.012148244306445122
-0.0025337967090308666
-0.019661637023091316
0.004750965628772974
-0.014164038002490997
-0.036930013447999954
0.003730002325028181
0.04728022590279579
0.010319508612155914
0.03104354441165924
0.04751721769571304
-0.04086265340447426
0.04424304515123367
-0.01637718454003334
0.04263855889439583
0.03412211313843727
-0.015614327043294907
0.011694132350385189
0.017592303454875946
0.04823044687509537
0.004810094367712736
0.023560907691717148
0.03542375937104225
0.012605715543031693
0.009111830033361912
-0.01732231304049492
0.044621311128139496
0.03381318226456642
-0.003062741830945015
0.024482455104589462
-0.006583370268344879
0.0009468741482123733
0.022129815071821213
0.011896539479494095
0.03965079039335251
-0.021239694207906723
0.003925964701920748
-0.022851962596178055
-0.0305525753647089
-0.029392210766673088
0.005573155824095011
-0.034936193376779556
0.03353012725710869
0.032723572105169296
-0.03345957025885582
-0.047034602612257004
0.00022451036784332246
-0.012249705381691456
0.030006764456629753
0.01899365521967411
-0.04585650563240051
-0.018451429903507233
0.01620897278189659
-0.005019826348870993
-0.0009027712512761354
-0.05065644532442093
-0.029165104031562805
0.04089474305510521
-0.01126518752425909
-0.05176851525902748
0.05124809965491295
-0.009692179970443249
0.01659662462770939
0.0011230595409870148
-0.040247298777103424
0.0046949307434260845
0.004101275932043791
0.023371431976556778
0.0467890240252018
-0.05136505886912346
0.024050775915384293
-0.009019477292895317
-0.00988154485821724
-0.02327842265367508
-0.045929763466119766
-0.05064920336008072
-0.012103287503123283
-0.004581833258271217
0.01196487620472908
0.049922723323106766
0.04841441661119461
-0.03322984650731087
0.02328994870185852
0.04408576339483261
0.021011337637901306
-0.015287896618247032
-0.0022200800012797117
-0.01656370423734188
-0.013300915248692036
0.013121149502694607
-0.019981572404503822
0.039332084357738495
0.033243633806705475
-0.04249749332666397
-0.027582190930843353
0.052165329456329346
0.03455213084816933
0.024604978039860725
0.05245772749185562
0.04919898137450218
0.01235964149236679
-0.0235361997038126
-0.04172636941075325
-0.03461749479174614
0.04559430107474327
-0.03910224139690399
-0.04610561579465866
0.009107224643230438
0.03739277645945549
-0.002433786867186427
-0.016680244356393814
0.05062597244977951
0.0022986573167145252
-0.0075913844630122185
-0.03779738396406174
0.007926271297037601
0.0403781495988369
0.011757774278521538
-0.0335136279463768
0.03425957262516022
-0.00798235647380352
0.03669532760977745
0.029046960175037384
0.026775365695357323
-0.0033030426129698753
0.02738569863140583
-0.04194075986742973
0.025949746370315552
0.01042510848492384
0.005772892851382494
-0.027143577113747597
-0.0004130128363613039
0.017950957641005516
-0.00554534699767828
-0.029185643419623375
0.04526355862617493
-0.045740220695734024
0.01907270774245262
0.0497727133333683
0.009816993027925491
0.01616768352687359
0.023475466296076775
0.03369949385523796
0.04301981255412102
0.03535288944840431
0.03657928854227066
0.017457908019423485
-0.03137247636914253
-0.04978018254041672
0.049687206745147705
0.015314796939492226
-0.0040455162525177
0.05298486724495888
-0.01844642497599125
-0.023117288947105408
-0.015584110282361507
-0.02293509989976883
-0.006843939423561096
0.022983776405453682
0.02639974281191826
-0.03608260676264763
-0.04865237697958946
0.04463702440261841
0.03206010162830353
-0.03079500049352646
0.015561372973024845
0.000669720524456352
0.03679472208023071
0.0033296793699264526
-0.046981826424598694
0.03263752907514572
-0.010600595735013485
0.03415165841579437
0.04451131820678711
-0.01639867201447487
-0.0452302023768425
0.026990510523319244
-0.020685778930783272
-0.045240625739097595
0.0031571665313094854
0.04774507135152817
-0.013140161521732807
-0.04590606689453125
0.0047945487312972546
-0.03038659505546093
-0.004747228696942329
-0.006096416153013706
-0.005631931591778994
-0.04687805101275444
0.013774042017757893
-0.017214640974998474
-0.021564221009612083
0.026689989492297173
-0.04237145930528641
0.028720051050186157
-0.019471120089292526
-0.024317732080817223
-0.023542847484350204
0.02127513289451599
-0.03657086193561554
-0.013609795831143856
-0.005382035858929157
-0.03370240330696106
0.004053510259836912
0.0408441536128521
0.02442750334739685
-0.02280907891690731
-0.0240758266299963
0.009346726350486279
-0.002908621681854129
-0.007149758283048868
0.03567608818411827
0.02368958480656147
0.029310772195458412
-0.00294870650395751
0.008850236423313618
0.013104446232318878
0.010943601839244366
0.022629447281360626
0.0380931980907917
0.016888409852981567
0.009209847077727318
0.024617047980427742
-0.016023799777030945
-0.0305200032889843
0.022210853174328804
-0.005722525529563427
0.003847411135211587
0.0012100556632503867
0.005953480489552021
-0.018049439415335655
0.0229211263358593
-0.032060395926237106
0.018274180591106415
-0.047916676849126816
-0.00914150569587946
-0.020421532914042473
-0.0043397219851613045
0.00197538617067039
-0.01856542006134987
-0.008319488726556301
0.017068464308977127
0.008663318119943142
-0.031375739723443985
0.04627096652984619
0.015206951647996902
-0.02298435941338539
-0.03269796445965767
-0.018078956753015518
-0.012252002954483032
-0.041158366948366165
0.035411108285188675
0.0026679334696382284
-0.010498302057385445
0.012944279238581657
-0.009835259988904
0.03529467061161995
-0.01785316690802574
-0.04623973369598389
-0.0153512516990304
0.02912687323987484
0.010023289360105991
0.0028469690587371588
0.018193544819951057
-0.022370968014001846
-0.007814203388988972
0.04717319831252098
0.030123015865683556
-0.002447195118293166
-0.04530170559883118
-0.03418710082769394
0.03141366317868233
-0.015115893445909023
0.010070089250802994
0.02444230392575264
-0.003138663712888956
-0.046725861728191376
0.05030980333685875
0.014035336673259735
0.004162785597145557
0.035626232624053955
-0.04108589515089989
0.04877366125583649
0.01829185150563717
-0.04854894056916237
0.016222354024648666
0.046326298266649246
-0.031310003250837326
-0.05194360017776489
0.04564151540398598
-0.021472062915563583
-0.02229377254843712
-0.004987570457160473
0.025774868205189705
0.03411058336496353
0.0018993879202753305
-0.028349338099360466
0.018695170059800148
-0.04639866575598717
0.016564469784498215
-0.006180577911436558
-0.04524197801947594
0.03934071585536003
0.002799153560772538
0.04712853953242302
0.04215221479535103
0.050487399101257324
-0.043034300208091736
-0.03886772319674492
-0.04825441166758537
0.015029927715659142
0.03298615291714668
0.052106671035289764
0.03456266596913338
-0.033718541264534
0.031230909749865532
-0.02068953588604927
0.017882157117128372
0.03257600590586662
0.022623324766755104
-0.048830546438694
0.013809360563755035
-0.02571776509284973
0.04874792695045471
0.009906782768666744
-0.042638860642910004
-0.012099825777113438
-0.013494969345629215
0.038295600563287735
0.02471957728266716
-0.016287503764033318
0.04072418063879013
0.033858079463243484
0.014255084097385406
0.02740528993308544
0.016713770106434822
-0.0010537714697420597
0.04712212458252907
-0.012496432289481163
-0.04591318592429161
-0.01612488366663456
-0.02288654074072838
-0.0349135585129261
-0.02021399699151516
0.04310537874698639
0.04901067912578583
0.05383845046162605
-0.002049563452601433
0.04239564388990402
-0.006915491074323654
-0.029636787250638008
0.010325094684958458
0.036399684846401215
0.007735004648566246
-0.041692592203617096
0.05268575996160507
-0.022596342489123344
-0.03684178739786148
-0.022849081084132195
-0.02111670933663845
-0.048793770372867584
0.019353214651346207
0.02173469588160515
0.027788732200860977
-0.008097627200186253
0.04499732702970505
-0.031207742169499397
0.013301987200975418
-0.05114022642374039
-0.04060908779501915
0.0008687333902344108
-0.013965689577162266
0.026937810704112053
0.04846811294555664
0.001457321923226118
-0.024951176717877388
0.0516841821372509
0.0318688340485096
0.03191869333386421
-0.04897921904921532
0.041421350091695786
-0.04988592490553856
0.02982245199382305
0.017392069101333618
-0.030895834788680077
-0.009186363779008389
0.0224837027490139
-0.0044002411887049675
-0.04114203900098801
-0.0077577135525643826
-0.01618030108511448
0.04448646679520607
0.019304493442177773
-0.001091824029572308
-0.008839167654514313
0.00247099157422781
-0.02810785360634327
-0.03778112307190895
0.007246706169098616
-0.04271848499774933
0.04991864785552025
0.032313957810401917
-0.045927636325359344
0.031135745346546173
-0.015898773446679115
0.0513824038207531
0.007984764873981476
-0.04903889447450638
0.002548444317653775
0.025749919936060905
-0.04122377932071686
0.04476109519600868
-0.03813808783888817
0.019496126100420952
0.025655822828412056
-0.024431444704532623
0.03384588658809662
0.05115728825330734
0.015353208407759666
0.02613665536046028
-0.03674710914492607
0.03945837914943695
0.0011068634921684861
0.036040015518665314
0.02556397207081318
-0.029313761740922928
-0.041898783296346664
-0.030357729643583298
0.012505284510552883
-0.03867406025528908
-0.026851311326026917
-0.008975053206086159
0.04688338562846184
0.020475680008530617
-0.028653111308813095
-0.028758946806192398
0.001830315450206399
-0.0045660799369215965
-0.02319088764488697
-0.0033462776336818933
-0.010634931735694408
-0.008059957064688206
0.02451990731060505
0.029472926631569862
0.008534649387001991
0.030744673684239388
-0.036477647721767426
0.011338071897625923
-0.01121449749916792
-0.023157455027103424
0.042704857885837555
0.011597812175750732
0.01940879225730896
-0.04099256172776222
0.026673156768083572
-0.00552067905664444
-0.04962339997291565
-0.027252178639173508
0.02393709309399128
-0.02293195016682148
-0.01886601932346821
0.021238505840301514
0.039371851831674576
0.028079569339752197
0.005937124136835337
-0.04729243740439415
0.04351597651839256
0.013426867313683033
0.008060770109295845
-0.020754769444465637
0.019810635596513748
0.016465332359075546
-0.03959212824702263
-0.023041857406497
0.03557682782411575
-0.03744453564286232
0.014900090172886848
-0.01525215245783329
0.03922310471534729
-0.02271612361073494
0.03402931988239288
0.03809701278805733
0.036591459065675735
-0.04090210422873497
0.03593618795275688
0.04527467116713524
-0.010081437416374683
-0.011429758742451668
-0.019941002130508423
-0.021637799218297005
0.04701576381921768
-0.05006406083703041
-0.015010017901659012
-0.03150126710534096
-0.012748404406011105
0.0014030261663720012
0.03250651806592941
-0.044447459280490875
0.022234873846173286
-0.02179020829498768
0.014434600248932838
0.02863680198788643
0.006669213995337486
-0.014560968615114689
-0.03453892096877098
0.004023057874292135
-0.01917651854455471
-0.029148753732442856
-0.015983110293745995
0.01954726316034794
0.04525244981050491
0.03137419745326042
0.03582950308918953
-0.010639678686857224
0.027630457654595375
0.04889746382832527
-0.026262497529387474
-0.029005054384469986
-0.01078653335571289
-0.008450810797512531
0.03200848400592804
0.003790833754464984
0.04184771701693535
0.05006910115480423
0.05176196247339249
0.02036035619676113
0.01675272174179554
-0.049663666635751724
-0.04281534627079964
0.015179277397692204
-0.0018450460629537702
-0.03770703077316284
-0.005754393525421619
-0.049570903182029724
0.03306832164525986
0.030522916465997696
0.02131078578531742
0.015613098628818989
0.05051681026816368
-0.043091002851724625
-0.019789742305874825
0.008888546377420425
-0.02870306931436062
0.02901359647512436
-0.006792800035327673
-0.026540542021393776
0.021171772852540016
-0.011626058258116245
-0.03031289204955101
0.017793068662285805
-0.010358834639191628
0.017413010820746422
0.030815863981842995
-0.007493066135793924
-0.03224668279290199
-0.041922468692064285
0.01628275029361248
0.017416637390851974
-0.03290172666311264
0.022138774394989014
-0.02842184342443943
0.007423298433423042
0.03348056599497795
0.03173748776316643
-0.049785152077674866
-0.04410795494914055
-0.00772700784727931
0.0147698437795043
-0.009495548903942108
0.042865339666604996
-0.026531562209129333
-0.014209243468940258
0.017307570204138756
-0.015918370336294174
0.009707198478281498
-0.031566914170980453
0.050839707255363464
0.01773129217326641
-0.013147982768714428
-0.04160737991333008
-0.007465695030987263
-0.028579460456967354
-0.021218836307525635
-0.02597622759640217
-0.02051473967730999
-0.019167404621839523
0.008092199452221394
0.024106891825795174
-0.021486684679985046
0.005234246142208576
-0.022658266127109528
0.012194398790597916
0.010805926285684109
-0.031072331592440605
0.012833436019718647
-0.009555365890264511
0.05307450518012047
-0.008113054558634758
-0.01246858574450016
-0.016970016062259674
0.026284856721758842
0.03264452889561653
-0.004121973644942045
-0.012727661989629269
0.03440457955002785
-0.006088199559599161
0.0076704672537744045
-0.03529883548617363
-0.03342203423380852
-0.0019371191738173366
-0.0037776650860905647
0.023760762065649033
0.05137181282043457
0.038479309529066086
-0.021080074831843376
0.0028145937249064445
-0.02183041162788868
0.04705361649394035
-0.0057834116742014885
0.04247717186808586
0.029456142336130142
-0.007892308756709099
-0.009341173805296421
-0.05216757208108902
0.005544711835682392
-0.046345073729753494
-0.00352354790084064
-0.045443106442689896
0.009903881698846817
-0.03517112135887146
-0.04192565754055977
0.049031615257263184
0.012769048102200031
0.013025356456637383
-0.015846984460949898
0.047281380742788315
0.03144020587205887
0.03628578782081604
-0.004219826310873032
0.017043817788362503
0.011520336382091045
0.040415726602077484
-0.03205401822924614
0.019500233232975006
0.042969949543476105
-0.026976104825735092
0.025498026981949806
-0.037005018442869186
0.026345640420913696
0.008293204009532928
-0.012490540742874146
0.02079087682068348
-0.005336254369467497
-0.036551930010318756
-0.017514316365122795
0.015534687787294388
-0.04531443491578102
0.010079768486320972
0.04641113057732582
-0.026226144284009933
0.02448975294828415
-0.005495626013725996
0.0029536178335547447
0.014700799249112606
0.0007614561473019421
-0.015404880978167057
-0.010748843662440777
0.035809390246868134
-0.04220989719033241
-0.03553486615419388
0.03261236101388931
0.000693288806360215
0.03162171691656113
-0.029286008328199387
0.040199242532253265
0.025329165160655975
-0.03151330724358559
0.023741791024804115
-0.02789922244846821
0.025738155469298363
0.037753306329250336
0.019801730290055275
0.017006389796733856
0.01769631914794445
0.028344014659523964
0.03650115057826042
0.029120443388819695
-0.023743296042084694
0.02433028444647789
0.028748497366905212
-0.03379049897193909
0.033969443291425705
0.025069735944271088
-0.0028517497703433037
0.02156946435570717
-0.012407873757183552
-0.01048373430967331
-0.04796107858419418
-0.026387253776192665
0.047606293112039566
0.012262590229511261
-0.0022459598258137703
0.011870177462697029
0.03807662054896355
0.044151097536087036
0.03740036487579346
-0.0013927894178777933
0.042423129081726074
-0.005509665701538324
-0.01327886525541544
-0.0407286062836647
0.01400686427950859
0.001081155496649444
0.0487358532845974
0.010517683811485767
0.013968209736049175
-0.048221804201602936
0.03181476891040802
0.03625308722257614
-0.0009272319148294628
-0.029485514387488365
-0.032203175127506256
-0.013427295722067356
-0.012655727565288544
-0.03213264420628548
-0.032803189009428024
0.003872062312439084
-0.012774087488651276
0.029807062819600105
0.011970382183790207
-0.01787114329636097
0.003004654310643673
-0.04643869772553444
0.02637307159602642
-0.01969919726252556
-0.013136019930243492
-0.02692994847893715
0.012101436965167522
-0.0016129316063597798
-0.015746645629405975
-0.012465120293200016
-0.007169598247855902
-0.00236701313406229
0.03776974976062775
0.043576885014772415
-0.02233201079070568
-0.017029743641614914
0.014160207472741604
0.007244260516017675
-0.005221919622272253
-0.014843401499092579
-0.02389312908053398
-0.044567517936229706
0.03408107906579971
0.018488382920622826
-0.0011528758332133293
-0.021947817876935005
0.045460302382707596
0.012353216297924519
-0.03488520532846451
0.002826820593327284
-0.016806017607450485
0.027140891179442406
0.010960005223751068
-0.002926658606156707
0.009297975338995457
0.017684468999505043
-0.0260477215051651
-0.047847580164670944
0.019107278436422348
-0.03582138940691948
0.001367167104035616
-0.025408118963241577
-0.03177328035235405
-0.010418902151286602
0.04271075129508972
0.014334808103740215
-0.02395329251885414
0.050295524299144745
0.007434445898979902
-0.01710311882197857
-0.005992538295686245
0.005333025474101305
-0.019418364390730858
-0.0002078220568364486
-0.001663863193243742
0.05163349583745003
0.052426353096961975
0.012050768360495567
-0.04474059119820595
-0.050960760563611984
-0.004187085200101137
0.03947456181049347
-0.013310489244759083
-0.03157692402601242
0.021886862814426422
-0.0185976754873991
-0.004827052820473909
-0.001818247139453888
-0.04777842015028
-0.02190953865647316
-0.04115438833832741
0.04179632291197777
0.03266352787613869
0.028155162930488586
0.017292626202106476
0.002170191379263997
0.03305757790803909
-0.05603288859128952
0.03542422503232956
0.042324844747781754
-0.016559667885303497
0.04765132814645767
-0.046844176948070526
-0.047849953174591064
-0.04810546338558197
-0.011317932046949863
0.015278460457921028
-0.02026754803955555
0.04056732729077339
0.021607188507914543
0.01567918434739113
0.030389420688152313
0.004470018669962883
0.007115873973816633
-0.03411361202597618
0.001147231669165194
0.04570025950670242
-0.030036769807338715
-0.05109235271811485
0.006028665229678154
0.004582908470183611
-0.028035810217261314
0.023185309022665024
-0.01399322971701622
-0.04385374113917351
-0.028018835932016373
-0.00027182928170077503
-0.007072902750223875
-0.01226287055760622
0.02490745112299919
0.0448673777282238
-0.009372209198772907
-0.03094232827425003
0.03356771171092987
-0.004953034222126007
0.043300073593854904
0.001543609076179564
-0.018671195954084396
0.020876741036772728
0.012070444412529469
-0.024112643674016
0.005867744330316782
0.02182595245540142
0.03990180417895317
0.0006688836147077382
-0.029395002871751785
-0.04184742271900177
0.03738715499639511
0.029373593628406525
-0.04370977729558945
0.001499926089309156
0.01775691658258438
-0.04034266620874405
0.0534854382276535
-0.000962497026193887
-0.0003095018910244107
0.029520384967327118
0.04844123497605324
-0.003050630446523428
-0.004635008983314037
0.039058104157447815
0.022200414910912514
0.013202687725424767
-0.043348852545022964
-0.029118206351995468
0.0071729314513504505
0.03536733612418175
-0.043120045214891434
0.008228265680372715
-0.016253797337412834
-0.012180210091173649
-0.0007744993781670928
0.025697190314531326
-0.039918605238199234
0.04858040064573288
-0.04419343173503876
0.004963571671396494
-0.042547330260276794
0.00953320600092411
-0.009697729721665382
-0.01212387252599001
0.01943666860461235
0.018095847219228745
-0.01348408218473196
0.015245924703776836
-0.03159686177968979
-0.00047710040234960616
0.05831851437687874
-0.015210066922008991
0.03090982511639595
-0.04247578606009483
-0.029483256861567497
0.013792811892926693
0.04582466557621956
0.005530715920031071
0.0005862296093255281
0.005302963778376579
-0.014863665215671062
-0.024367988109588623
0.03811120614409447
0.030117476359009743
0.01415316853672266
-0.02616858296096325
-0.014322422444820404
-0.0008373042801395059
0.03817771002650261
-0.010944079607725143
-0.03007105179131031
-0.008236408233642578
0.021250681951642036
0.018523335456848145
0.04590524360537529
-0.045191019773483276
0.02262011729180813
0.004531300161033869
-0.005863910540938377
0.011597135104238987
-0.00479142228141427
0.027323484420776367
-0.05206935480237007
-0.009886862710118294
-0.008855573832988739
-0.0069015007466077805
-0.024664854630827904
0.012286835350096226
0.025166058912873268
0.02233664132654667
-0.00177576148416847
0.04164601489901543
-0.027667788788676262
0.04089365899562836
0.016925329342484474
0.019774891436100006
-0.046909887343645096
0.03371264785528183
9.03159161680378e-05
0.02830468863248825
-0.0510387122631073
0.026447968557476997
-0.004138028249144554
0.006624751258641481
-0.018859319388866425
-0.03075251914560795
0.027869058772921562
-0.050989050418138504
0.02410324104130268
0.04521699994802475
-0.012869591824710369
-0.012954860925674438
0.026926107704639435
0.03145762160420418
0.02311246655881405
0.05137523263692856
-0.04710288345813751
-0.02327132038772106
-0.036954041570425034
0.0032540399115532637
0.01949024759232998
-0.051586151123046875
-0.018832065165042877
-0.042825847864151
-0.043281108140945435
0.031069671735167503
-0.012094425037503242
0.045872606337070465
-0.0036508897319436073
0.035940878093242645
-0.05000526085495949
0.0030016954988241196
0.012424565851688385
0.03601269796490669
-0.021833136677742004
-0.045782119035720825
-0.029956001788377762
0.007691744714975357
-0.025874823331832886
0.05237312987446785
-0.02558305859565735
-0.012952348217368126
-0.03118172474205494
-0.008276674896478653
-0.01148984208703041
0.004329610150307417
-0.043588947504758835
-0.03796231746673584
-0.04277931898832321
-0.04649250581860542
0.047468364238739014
-0.04119500145316124
-0.01600748486816883
-0.025200318545103073
0.02083435468375683
-0.03352794051170349
0.03953244909644127
0.04334033280611038
0.029075954109430313
-0.02909095585346222
0.04543266445398331
0.04691610857844353
0.023733971640467644
-0.03271634131669998
-0.032940421253442764
-0.045692380517721176
0.03812316432595253
0.029378101229667664
0.04419767111539841
0.01594308204948902
0.04433825984597206
0.007342727389186621
0.04141850396990776
0.03436356782913208
0.045158542692661285
-0.018839485943317413
0.014732465147972107
0.03655632585287094
-0.04361216723918915
-0.0453534871339798
-0.04202846437692642
-0.014135348610579967
0.0422784686088562
0.040065813809633255
0.03332570195198059
0.05166340246796608
0.010917856357991695
0.009147921577095985
9.84789730864577e-05
0.03029671311378479
-0.038404565304517746
-0.026377668604254723
0.016046056523919106
-0.03297765552997589
-0.04227243363857269
0.03140188381075859
0.037922196090221405
0.05048748105764389
-0.02969406731426716
-0.04380456730723381
0.007226313464343548
-0.03404723107814789
-0.002616644836962223
0.03640947863459587
0.03669373691082001
0.013533643446862698
0.05713164061307907
0.027130115777254105
0.035109519958496094
-0.017652058973908424
0.03752295672893524
0.032569095492362976
-0.019310463219881058
0.03689397871494293
0.04640438035130501
-0.04523032531142235
0.003805889980867505
-0.03266539052128792
0.03673028573393822
-0.03868779540061951
0.005782239139080048
-0.027425089851021767
0.011429084464907646
-0.02768050879240036
-0.0410231277346611
0.05086744576692581
-0.020236456766724586
-0.03389239311218262
0.02490498498082161
-0.04429015889763832
-0.008881062269210815
0.016386304050683975
-0.013876451179385185
0.03530855104327202
-0.012147683650255203
0.01092162448912859
-0.04838854447007179
-0.031832534819841385
-0.007035353686660528
-0.018780268728733063
0.044952139258384705
-0.0001271545042982325
0.04036673158407211
-0.004779943730682135
0.03979625925421715
-0.022142764180898666
0.00407725665718317
-0.0409928560256958
0.013309155590832233
-0.009872137568891048
0.0114921098574996
0.03994530066847801
0.03643982112407684
-0.037065502256155014
-0.027616936713457108
0.017050480470061302
-0.009235480800271034
0.012715949676930904
-0.005780565086752176
0.004430470988154411
-0.03630649298429489
-0.03888809308409691
-0.0315583311021328
-0.038856375962495804
-0.0028637859504669905
0.04487888142466545
-0.018840298056602478
0.026768570765852928
-0.029832875356078148
0.0294328760355711
-0.03164118900895119
-0.024021444842219353
-0.030942702665925026
0.029185261577367783
-0.03818146139383316
-0.035136908292770386
0.0025731055065989494
0.039853647351264954
0.04800720140337944
-0.04059012979269028
-0.042473457753658295
0.009746111929416656
-0.02923489734530449
-0.0004358755249995738
0.002250927733257413
-0.02892955020070076
0.047253794968128204
0.05164957419037819
0.01664828695356846
0.018212955445051193
0.02310587279498577
-0.019852954894304276
0.0012380495900288224
-0.05262288451194763
-0.0317058265209198
-0.02659425139427185
0.000681650941260159
0.036895811557769775
-0.03447838872671127
-0.00646971957758069
-0.04471229016780853
0.014906574971973896
0.046226926147937775
0.02295040152966976
0.012819097377359867
0.03632902726531029
-0.011625749990344048
-0.035202767699956894
-0.02167101390659809
-0.04562586545944214
0.03922213986515999
-0.0021798170637339354
-0.018879979848861694
-0.014118668623268604
-0.045936256647109985
-0.04689138010144234
0.019586218520998955
0.02512257546186447
-0.022631309926509857
0.0066645098850131035
0.021957259625196457
0.005157458130270243
-0.011231817305088043
0.007482956163585186
0.0050381761975586414
-0.018614601343870163
0.026771031320095062
0.02220418117940426
0.04331217706203461
-0.02997388318181038
-0.02127763070166111
0.03157324716448784
0.0005145590985193849
0.024898076429963112
0.048405349254608154
-0.02981792949140072
0.02847575955092907
0.03247475624084473
-0.034620124846696854
0.0019558232743293047
0.04571603611111641
-0.03466569259762764
-0.012844576500356197
0.049388088285923004
0.025563161820173264
-0.0046858396381139755
0.016253402456641197
-0.006791647523641586
0.013473544269800186
-0.010650130920112133
0.04034913703799248
-0.00019009997777175158
0.002349586458876729
-0.008358826860785484
-0.008066846989095211
-0.04809410497546196
-0.00809610728174448
-0.03632628172636032
0.01261510606855154
0.029459841549396515
0.03260301053524017
-0.054128099232912064
-0.017499752342700958
0.04024000093340874
-0.005131471436470747
-0.024115102365612984
0.005283965729176998
0.029753269627690315
0.0025034919381141663
-0.002171542029827833
0.014742686413228512
-0.011027593165636063
0.037026092410087585
-0.016367357224225998
-0.013417054899036884
0.014908207580447197
-0.02343703992664814
-0.023565586656332016
0.042329926043748856
-0.013044342398643494
-0.01152628194540739
0.03165506199002266
-0.0019171234453096986
-0.013322504237294197
0.0033999059814959764
0.04138350114226341
-0.010763945057988167
0.014517126604914665
0.021925611421465874
0.007324650883674622
-0.00669526495039463
0.043143026530742645
0.02481084316968918
-0.009539952501654625
0.04973617196083069
-0.008806520141661167
0.0032635354436933994
-0.02485574595630169
0.019446203485131264
0.025704624131321907
0.025935862213373184
-0.00774682080373168
0.05211326479911804
0.04928402975201607
0.04493802413344383
-0.04431330785155296
0.030608830973505974
-0.013563284650444984
0.009073665365576744
0.02375057339668274
0.03117520734667778
0.043467264622449875
-0.0391303226351738
0.03410381078720093
0.02977464534342289
0.03331838548183441
-0.0027908263728022575
0.007168741896748543
-0.025668717920780182
0.0023255024570971727
-0.028551913797855377
-0.01265424769371748
-0.0387389212846756
0.04481586441397667
-0.03529653325676918
-0.03583403304219246
-0.007201601285487413
0.04861191660165787
0.014528808183968067
-0.041943952441215515
0.04809005931019783
0.019259527325630188
0.028754496946930885
0.019886603578925133
-0.022317571565508842
-0.00915463175624609
0.017755497246980667
0.0389602892100811
0.018194599077105522
-0.019067492336034775
-0.011841745115816593
0.01934479922056198
-0.03875860571861267
-0.04463920369744301
-0.04581408575177193
0.0036092817317694426
0.01460354309529066
0.02040526270866394
0.03877735510468483
0.03654272109270096
0.0386650376021862
-0.019444407895207405
-0.03379184752702713
-0.03922661393880844
-0.0017104354919865727
-0.004775860346853733
-0.005794032476842403
0.02071770466864109
0.032506294548511505
0.022828347980976105
0.04869561269879341
-0.00016529549611732364
-0.03786293417215347
0.009023834019899368
-0.01245990302413702
0.01167753990739584
0.02332594059407711
-0.048985399305820465
0.006151669193059206
0.049796152859926224
0.008464246988296509
0.04151880368590355
0.011666846461594105
-0.019979683682322502
0.013844022527337074
0.01911167986690998
0.0004747371713165194
0.006612739525735378
0.03878597170114517
-0.01601794920861721
-0.0016123683890327811
-0.006658939644694328
0.03399282693862915
-0.029567260295152664
0.038293637335300446
0.019221479073166847
-0.0012303012190386653
0.02970494143664837
-0.026041027158498764
-0.016159608960151672
-0.025294959545135498
0.027014773339033127
-0.015938695520162582
0.04846373572945595
-0.018486980348825455
