0.007293480448424816
0.011197532527148724
0.006833593361079693
-0.0004835400322917849
-0.017349231988191605
0.016169941052794456
0.010487772524356842
0.01159984152764082
0.020172936841845512
-0.01999698206782341
0.013139883987605572
0.019459154456853867
0.006119186989963055
0.009936146438121796
-0.005753619130700827
0.004215720109641552
0.019728560000658035
0.01187589019536972
0.01582830399274826
-0.0038409680128097534
-0.0035045198164880276
-0.00800987146794796
4.788688602275215e-05
0.0033934391103684902
-0.0040451413951814175
0.017254911363124847
-0.005516184028238058
0.01556976418942213
-0.01639052852988243
0.0057723671197891235
0.014484716579318047
-0.011694692075252533
0.008255979046225548
0.013960550539195538
0.004403859376907349
0.002470483537763357
0.019160663709044456
0.008726900443434715
0.01403785776346922
0.00428191339597106
0.0045867315493524075
-0.015943465754389763
0.018784280866384506
-0.004779383540153503
-0.01883433386683464
0.02074379473924637
0.0202895849943161
0.01769569143652916
-0.00281910109333694
-0.011511698365211487
0.006906631402671337
0.006744228303432465
-0.0097112488001585
0.0022618125658482313
0.009805761277675629
-0.019474148750305176
0.006600802298635244
0.009019948542118073
0.0030351083260029554
0.019551610574126244
3.89741180697456e-05
0.012871447019279003
-0.003799182828515768
0.0011758332839235663
-0.009754015132784843
0.01445411704480648
-0.020555322989821434
-0.013309305533766747
-3.7414865801110864e-05
-0.010479895398020744
-0.0030594742856919765
-0.019450245425105095
-0.0034540570341050625
-0.003733523190021515
-0.0008382919477298856
0.018625721335411072
0.0002249535173177719
0.011874042451381683
-0.015906039625406265
0.018899736925959587
-0.01671573333442211
0.014199597761034966
0.00446753716096282
-0.0008831943850964308
-0.0010960276704281569
-0.013915620744228363
-0.015928318724036217
0.0037667080760002136
0.010026785545051098
-0.01914033852517605
-0.01754854992032051
0.011481789872050285
0.01109229028224945
-0.017690811306238174
0.006844013929367065
0.01139327883720398
-0.01473439484834671
-0.0013708322076126933
-0.0034147650003433228
0.02061009220778942
0.002485667821019888
0.0017781754722818732
-0.015108421444892883
0.004179177340120077
-0.02011524699628353
0.009503697976469994
-0.017795635387301445
0.014240272343158722
0.0027406662702560425
0.007404930889606476
0.007972247898578644
0.0072692930698394775
0.0059538334608078
0.02042820118367672
0.01580939255654812
-0.018405824899673462
0.018611740320920944
0.008314110338687897
-0.004934817552566528
-0.014192971400916576
-0.00842997431755066
0.019433792680501938
-0.0131356967613101
-0.0024970173835754395
0.010581511072814465
0.00815706979483366
-0.015626996755599976
-0.013967810198664665
-0.0037125698290765285
-0.01572936587035656
-0.020109109580516815
-0.013494218699634075
0.012992128729820251
-0.010953359305858612
0.0045473454520106316
-0.009973786771297455
-0.014318913221359253
0.010543935000896454
0.007666429039090872
0.013827353715896606
-0.016065165400505066
0.016448121517896652
-0.00956445187330246
0.005905131809413433
-0.015203977935016155
-0.01637091115117073
-0.008080515079200268
-0.0003015946422237903
-0.0012929539661854506
-0.017175016924738884
0.010053202509880066
0.006735797040164471
-0.003075843211263418
-0.00032920605735853314
0.002110640285536647
-0.013372344896197319
-0.014037671498954296
0.013809984549880028
0.014542795717716217
0.01995265856385231
0.009813418611884117
-0.01799730956554413
-0.01732167974114418
0.0028435043059289455
0.01403028517961502
-0.00913016777485609
0.007513809017837048
-0.008320304565131664
0.004888405557721853
-0.011824985966086388
-0.010952286422252655
-0.010525686666369438
0.018273694440722466
-0.015835683792829514
-0.0206045713275671
-0.00767612224444747
0.010378830134868622
-0.00952241849154234
0.020298197865486145
0.01820899173617363
-0.006013140082359314
0.014532054774463177
0.010339195840060711
-0.01591913029551506
0.014135542325675488
-0.005361815448850393
0.013198396191000938
-0.006699120160192251
-0.020519984886050224
-0.008602036163210869
-0.01862126588821411
-0.01960519701242447
-0.013852668926119804
-0.019970638677477837
0.008021466434001923
0.006201267242431641
0.0009467258933000267
0.013028860092163086
-0.016959531232714653
-0.01936916634440422
0.006781233008950949
-0.014194930903613567
-0.007953989319503307
0.0064775943756103516
-0.005089759826660156
0.004700417630374432
0.015157826244831085
-0.0033085148315876722
0.005651216022670269
0.017688609659671783
-0.01712696999311447
0.007892198860645294
0.015482517890632153
0.01848383992910385
0.018421713262796402
0.003752179443836212
0.01673266291618347
-0.014536967501044273
0.005515746772289276
-0.015958081930875778
-0.011021065525710583
0.018419954925775528
0.014064612798392773
-0.00022958734189160168
0.009155688807368279
0.006356827914714813
-0.00566245149821043
-0.009893015027046204
0.008565793745219707
0.006275256630033255
0.012559128925204277
0.017748011276125908
0.0034488763194531202
-0.01196915190666914
0.010550141334533691
-0.005557728465646505
0.010586081072688103
0.002050412353128195
-0.008832062594592571
-0.012682793661952019
0.01183909922838211
-0.019765321165323257
0.019172191619873047
-0.012477241456508636
-0.010966286063194275
0.016929175704717636
-0.017503701150417328
0.006169430911540985
0.011987654492259026
0.006544928066432476
0.006050606723874807
0.014941273257136345
0.015545080415904522
-0.015102265402674675
-0.013736797496676445
0.020426040515303612
