-0.0017406514380127192
0.0019139171345159411
-0.002560235559940338
0.001963769318535924
0.001374647719785571
0.002816159510985017
0.0060378266498446465
-0.0021769448649138212
-0.0035713205579668283
-0.0040959557518363
0.001036318950355053
0.0010781185701489449
-0.0005769660929217935
-0.0033519784919917583
-0.0003837048716377467
0.00294510112144053
-0.003777118166908622
0.0005546834436245263
0.00261327950283885
0.0039139967411756516
-0.001157294842414558
-0.0008938465616665781
-0.0001264480233658105
-0.005108610726892948
-0.004046628251671791
-0.004577105399221182
-0.0007416132721118629
-0.002482710173353553
-0.0007915102178230882
0.0016289378982037306
0.0010052125435322523
0.0030193438287824392
-0.004009371157735586
-0.002190985484048724
-0.003013470908626914
-0.0004019642365165055
-0.002804423216730356
-0.0019355013500899076
-0.0007746173650957644
0.0002926620945800096
-0.0040702419355511665
-0.000965903396718204
1.1733630344679113e-05
-0.0030668259132653475
-0.003112305188551545
-0.0035705245099961758
0.002398703945800662
0.0033097255509346724
0.00043152677244506776
-0.004177354276180267
-0.000713562942110002
-0.0010687151225283742
-0.002949116751551628
0.0013783761532977223
0.001737971673719585
0.00033042579889297485
-0.002857097191736102
-0.0015676243929192424
-0.00036116709816269577
-0.0005352827720344067
-0.005577487871050835
-0.0007683326839469373
-0.0024704548995941877
-0.001965327886864543
-0.002495847875252366
-0.0015046026092022657
-0.0027139217127114534
-0.0014706411166116595
-0.005688895005732775
-0.001743977190926671
-0.008404851891100407
-0.001202231040224433
0.0036190382670611143
0.0005083741270937026
0.00021674246818292886
-0.00048452336341142654
-0.0021002481225878
0.002206927863880992
0.0016923678340390325
0.0005482187843881547
0.0034247050061821938
-0.004965309053659439
-0.0024355188943445683
8.195553527912125e-05
-0.003486658213660121
-0.0001672314974712208
-0.0010086093097925186
-0.0015157196903601289
-0.0012979431776329875
0.0017017817590385675
-0.004977066535502672
-0.001604070421308279
0.0011343506630510092
-0.004293855745345354
-0.0010067310649901628
0.00040638018981553614
-0.002162209479138255
0.0035402134526520967
0.0002073798095807433
0.0016839336603879929
-0.005170720629394054
-0.0015731295570731163
-0.0012195074232295156
-0.002435816451907158
0.0012544230557978153
-0.0014148297486826777
-0.00018893845845013857
-0.0010993306059390306
-0.0028533476870507
0.000710531254298985
-0.0027775338385254145
-0.00030110363150015473
0.0019855666905641556
0.0002257391024613753
-0.005175609607249498
0.00018475941033102572
0.0014740132028236985
0.0016712548676878214
-0.0017666586209088564
-0.003450294490903616
-0.0011370225111022592
-0.0033567023929208517
0.0005642177420668304
-0.0007213716162368655
0.0008851757738739252
-0.0001461092324461788
-0.00030309116118587554
-0.00013724291056860238
