-0.030919808894395828
-0.004383134189993143
-0.023783156648278236
-0.01522103976458311
-0.00015585670189466327
0.03342830389738083
-0.019856777042150497
-0.012427928857505322
-0.030919600278139114
0.03719798102974892
0.014043321833014488
0.03875004127621651
-0.003050982253625989
-0.0064889052882790565
0.030683154240250587
-0.0019292701035737991
-0.03710305318236351
-0.030263373628258705
0.016061922535300255
-0.005374548956751823
-0.005792292766273022
0.003557597054168582
-0.0002896159130614251
0.03155559301376343
-0.03424019366502762
0.012434630654752254
-0.016774078831076622
0.018340153619647026
0.026139598339796066
0.036174576729536057
0.033807236701250076
-0.03768477961421013
0.0239384938031435
0.010167360305786133
0.024512914940714836
-0.021407516673207283
-0.0212969109416008
0.009893867187201977
0.011520328000187874
0.0007791845127940178
0.012486950494349003
-0.03280147537589073
-0.028015732765197754
0.0007092658779583871
0.006577061489224434
-0.005767387337982655
0.020053338259458542
0.009273023344576359
-0.030555594712495804
-0.005807816982269287
0.0005689013632945716
-0.03171472251415253
0.0074177891947329044
0.025589821860194206
-0.030019287019968033
0.0048898011445999146
0.02227603644132614
-0.011862230487167835
0.018046174198389053
0.022730408236384392
-0.008752156980335712
-0.03237862139940262
-0.036780282855033875
0.01242082379758358
