-3.101621405221522e-05
-0.041356686502695084
-0.00691402330994606
-0.04977191612124443
0.04925142601132393
0.04962107911705971
-0.04710713401436806
-0.02561003714799881
0.044917501509189606
-0.025324299931526184
-0.027652136981487274
0.04489545896649361
0.0027988976798951626
0.00018182613712269813
0.053243767470121384
0.023564595729112625
0.046869393438100815
-0.021596556529402733
0.03884696215391159
-0.01005152054131031
-0.025909623131155968
-0.05647793039679527
0.058481037616729736
-0.023570137098431587
0.05876152589917183
0.027384057641029358
-0.00927442405372858
-0.04076596349477768
-0.061163101345300674
-0.04705534130334854
0.05915336683392525
-0.039761729538440704
0.003615496912971139
0.04756847023963928
0.01522792223840952
0.03308187052607536
-0.04978131502866745
-0.02299472689628601
-0.03179355338215828
0.0513681136071682
0.014462297782301903
-0.044381797313690186
0.06056981161236763
0.05405791476368904
0.002311430871486664
0.06040571257472038
-0.03516131639480591
-0.03889698535203934
-0.05957005172967911
-0.040445491671562195
0.019468050450086594
0.04268396273255348
0.061039116233587265
0.046812646090984344
-0.057965170592069626
-0.03297514095902443
-0.048986803740262985
-0.011445424519479275
0.06010952964425087
0.0051191747188568115
0.015748880803585052
-0.04620877280831337
0.03716282173991203
-0.05130070075392723
0.04120670258998871
-0.03948239982128143
0.021546533331274986
0.030412282794713974
-0.0013064868981018662
-0.05631735175848007
-0.002133721951395273
0.06076287105679512
-0.04865606874227524
0.034489955753088
0.05307219550013542
-0.03139068931341171
-0.029120465740561485
0.013093466870486736
0.04024581238627434
0.03459177538752556
0.0024566235952079296
-0.038132134824991226
-0.04886481910943985
0.013740364462137222
0.05381043627858162
-0.04347739741206169
-0.05178075656294823
-0.009645461104810238
-0.022080162540078163
-0.039684321731328964
-0.030376756563782692
0.04779661446809769
0.03652592748403549
-0.04237470403313637
0.03333084285259247
0.025237053632736206
-0.028473082929849625
0.02846335805952549
0.011452099308371544
0.04520126432180405
-0.008700505830347538
0.024028457701206207
-0.03884350135922432
0.04628589004278183
-0.051385726779699326
0.015096408315002918
-0.054539263248443604
-0.009924258105456829
0.026945125311613083
0.03188459202647209
0.04893593117594719
-0.01466416846960783
0.029005134478211403
0.05169402062892914
-0.04085533320903778
0.024450266733765602
-0.04340426251292229
-0.05862744525074959
-0.02412017434835434
0.018823083490133286
0.03023039549589157
0.05277125909924507
0.035201121121644974
0.04559583216905594
-0.03206855058670044
-0.062326814979314804
0.05935797467827797
-0.041961099952459335
0.0017235075356438756
-0.004907542373985052
0.03248701989650726
-0.0595661923289299
0.035283856093883514
0.04082921892404556
-0.0311282891780138
-0.046664897352457047
0.004194973967969418
0.0007192056509666145
0.05262148752808571
-0.048078376799821854
0.062135521322488785
-0.0024506777990609407
0.055906619876623154
0.04004416614770889
0.0018032226944342256
0.014131047762930393
-0.04663253575563431
0.042773786932229996
0.022129977121949196
0.05453138053417206
-0.048133742064237595
0.018718980252742767
0.024876046925783157
-0.05361596494913101
0.04548044130206108
0.029093977063894272
0.04830121248960495
0.023861775174736977
-0.02286565490067005
0.009432107210159302
0.05067882686853409
0.042318861931562424
0.0044042798690497875
0.00828589592128992
-0.01129822712391615
-0.05261510610580444
-0.04648295417428017
-0.042968787252902985
-0.026348747313022614
0.016644025221467018
0.04227049648761749
-0.05931742861866951
0.06124399974942207
-0.026193061843514442
0.002045753877609968
0.047231752425432205
-0.03792698308825493
-0.059941209852695465
-0.02767399325966835
-0.052600208669900894
-0.0343971811234951
0.03155773505568504
-0.014006907120347023
0.04678003862500191
0.027351198717951775
0.024315878748893738
0.03884805366396904
0.028036782518029213
-0.04835018888115883
0.054647285491228104
0.028834626078605652
-0.05928412824869156
-0.01863187924027443
-0.021403983235359192
-0.026830583810806274
-0.009965373203158379
-0.03698202595114708
-0.013620177283883095
-0.04235338419675827
0.05138165131211281
-0.038085415959358215
0.04661354050040245
-0.05734606459736824
0.03388134390115738
0.05314585566520691
-0.042598478496074677
-0.0014202918391674757
0.01939850114285946
0.0015562326880171895
-0.0030805396381765604
0.03251750394701958
-0.0419081375002861
-0.020626414567232132
-0.06258727610111237
0.015743166208267212
-0.061947643756866455
-0.011471155099570751
-0.03283253684639931
0.017033111304044724
0.05070631951093674
0.005080949515104294
0.009616279974579811
-0.02243824675679207
-0.011793087236583233
-0.02658163383603096
0.019912555813789368
-0.005317278206348419
0.024733873084187508
0.04735406115651131
0.011898613534867764
0.01212543249130249
-0.013719061389565468
0.03770345076918602
0.0523710735142231
-0.03907721862196922
0.04104698821902275
-0.00790660735219717
-0.05487237125635147
0.05869120731949806
0.038660429418087006
-0.02834426611661911
-0.019578510895371437
-0.028698045760393143
-0.014144047163426876
0.02840590663254261
0.029356710612773895
-0.012057364918291569
0.02603927254676819
0.0527343787252903
-0.05237988010048866
0.05929529294371605
5.6896344176493585e-05
-0.01064683310687542
0.02304835617542267
0.017979783937335014
-0.025751737877726555
-0.010687202215194702
0.03986773639917374
0.015971818938851357
0.06154011934995651
0.008577467873692513
0.058325204998254776
0.04582192376255989
-0.012199954129755497
-0.031123071908950806
0.021847501397132874
0.01747121475636959
0.036280255764722824
-0.03829111158847809
-0.04164321720600128
0.0016160339582711458
-0.05702780559659004
-0.021211666986346245
0.041591521352529526
-0.0225340835750103
0.038200970739126205
0.04378741234540939
0.06011961027979851
0.04020267724990845
0.03894057124853134
-0.050837963819503784
-0.03104083053767681
0.030482007190585136
-0.047111108899116516
0.036714229732751846
-0.03364047780632973
-0.014720785431563854
0.03498797118663788
-0.0508820042014122
-0.050749216228723526
0.024816149845719337
-0.018560117110610008
0.0275371465831995
0.00833104457706213
-0.028994644060730934
-0.003253843868151307
-0.05131887272000313
0.026474643498659134
-0.018414059653878212
-0.04545220360159874
-0.053345173597335815
-0.038390740752220154
-0.050417475402355194
0.00586464861407876
-0.04409502446651459
0.0014118277467787266
0.01669989712536335
-0.05228406935930252
0.05075211077928543
-0.03127212077379227
-0.013837539590895176
-0.0358826108276844
0.03711211308836937
0.04946225509047508
0.056729480624198914
-0.01040047500282526
0.006040792912244797
-0.059197600930929184
0.02881556935608387
0.0562371201813221
-0.03785940259695053
-0.036495547741651535
-0.052197184413671494
0.011213023215532303
-0.0021226981189101934
-0.028452912345528603
0.016986699774861336
-0.025161316618323326
-0.06075010076165199
0.04280316084623337
0.002035222016274929
-0.05956728383898735
0.06061189994215965
0.04557551071047783
-0.05358185991644859
-0.05321963503956795
0.031244169920682907
0.004272641148418188
0.027154164388775826
0.03697686642408371
0.0576392225921154
-0.0010834807762876153
-0.028872644528746605
-0.06135602667927742
0.020624393597245216
0.03967897593975067
0.05397827923297882
-0.026474330574274063
0.04945477098226547
0.04735162854194641
-0.05424891412258148
-0.003020425559952855
-0.05385671183466911
0.05441181734204292
-0.05510442331433296
0.039497923105955124
-0.045549556612968445
0.054816875606775284
-0.009462390094995499
0.030631067231297493
-0.009521082043647766
-0.05184940993785858
-0.040919169783592224
-0.0011276006698608398
-0.04951148480176926
-0.052771955728530884
-0.041136838495731354
-0.012900024652481079
0.03761512413620949
0.054221656173467636
0.033884644508361816
0.0487789511680603
0.00875699333846569
-0.021445702761411667
-0.058759864419698715
-0.02749372087419033
-0.014347374439239502
-0.004651817958801985
-0.05243677273392677
-0.013173917308449745
0.021491097286343575
-0.02474701590836048
-0.031886521726846695
-0.011560134589672089
0.05603811517357826
-0.05590805038809776
0.05631432309746742
0.02972033992409706
-0.01589084416627884
-0.01547590084373951
0.04162823036313057
0.05583806708455086
0.0009631745633669198
0.050546810030937195
0.04720703512430191
-0.008777442388236523
0.019336124882102013
0.05152451992034912
-0.01420125924050808
0.04602809622883797
0.03258303552865982
0.002270030789077282
-0.012397565878927708
-0.04827585816383362
0.04898751899600029
-0.03212663531303406
0.060818277299404144
-0.0571296364068985
0.0016717390390112996
-0.027512898668646812
-0.0016859597526490688
0.05622230842709541
0.014241274446249008
0.015420333482325077
-0.04169483110308647
-0.037549518048763275
0.05803592875599861
0.02919013611972332
0.04904432222247124
0.0355457104742527
0.030043408274650574
0.012189939618110657
0.04600941762328148
-0.036621302366256714
-0.004345023073256016
-0.010416962206363678
0.0323183499276638
0.05414871126413345
0.04044274240732193
0.028258653357625008
0.03704782947897911
0.03715893626213074
0.04863820597529411
-0.0437350831925869
0.01075673010200262
-0.010955464094877243
0.010176531970500946
-0.01161204557865858
0.03584939241409302
-0.05715386942028999
0.04520988464355469
0.049819961190223694
-0.0395011343061924
-0.03374692052602768
-0.03965941071510315
-0.0294520054012537
-0.038023754954338074
-0.0539902038872242
0.02453583851456642
0.0209700595587492
-0.039436038583517075
0.05779823660850525
-0.048133011907339096
-0.007233705837279558
-0.012177066877484322
0.022102927789092064
-0.05767201632261276
0.03653596341609955
0.0574209988117218
0.042369186878204346
-0.03563129901885986
-0.013109419494867325
-0.01644109934568405
0.0011113659711554646
-0.04194732382893562
0.050345528870821
-0.033645372837781906
0.0016894876025617123
-0.028758147731423378
0.03156057372689247
0.035216398537158966
0.0190045814961195
-0.052781663835048676
0.06100596860051155
0.010608230717480183
0.046669866889715195
0.05409103259444237
0.009133526124060154
-0.0015121361939236522
0.0025643149856477976
-0.04488324373960495
-0.004124165512621403
-0.019083591178059578
-0.04103576019406319
-0.03668640926480293
-0.016031349077820778
0.018734542652964592
0.045404981821775436
0.014475331641733646
-0.04421406239271164
-0.00018723472021520138
-0.06028163805603981
-0.055774424225091934
-0.05660807341337204
-0.044019877910614014
0.032475754618644714
0.029921233654022217
0.026229411363601685
-0.04067174717783928
0.03813644498586655
0.05207890644669533
0.054371025413274765
-0.04811466857790947
0.024445796385407448
0.03123970329761505
0.0078009944409132
-0.046309810131788254
-0.01792856678366661
0.02353557012975216
0.017096854746341705
-0.04374488443136215
0.014505118131637573
