-0.00656580226495862
0.003055593930184841
0.022527039051055908
0.0009229002171196043
-0.009114792570471764
-0.008941888809204102
-0.01284044235944748
-0.011643826961517334
-0.0004236856766510755
0.02738909237086773
-0.003190523711964488
-0.005071182269603014
-0.013526244089007378
-0.020507585257291794
-0.006993215065449476
-0.01184851210564375
-0.010703125037252903
-0.001194999204017222
-0.0066637867130339146
-0.010903706774115562
-0.016736097633838654
-0.005670747719705105
-0.008210364729166031
0.017308907583355904
-0.0064987544901669025
-0.004111432936042547
-0.009680802933871746
-0.005490389186888933
0.0026569960173219442
-0.0043258690275251865
-0.007514243014156818
-0.0034412937238812447
-0.0035097957588732243
-0.0073680635541677475
-0.005447783973067999
-0.006040011066943407
0.028225112706422806
-0.0043995557352900505
-0.005494878627359867
-0.003710759337991476
0.0020752910058945417
0.005602924153208733
-0.009272871538996696
-0.004168067593127489
-0.009191952645778656
0.004457172937691212
0.004067659378051758
-0.006479631178081036
0.0034198525827378035
-0.013605776242911816
-0.003376829205080867
-0.0085229417309165
-0.004286894574761391
-0.00448625860735774
0.03660428524017334
-0.00858743954449892
0.0051195258274674416
-0.007148033007979393
-0.012860439717769623
-0.003942342009395361
0.0002571266668383032
7.253479270730168e-05
0.0077853430993855
-0.012489009648561478
