0.0001865586673375219
-0.002752003725618124
-0.0037456240970641375
-0.0026676191482692957
-0.002518370049074292
-0.0007192375487647951
-0.00024581042816862464
0.002815781394019723
-0.0012368042953312397
-0.0005999663262628019
-0.0010528756538406014
-0.0009647916303947568
-0.0007465045200660825
-0.0025391997769474983
-0.0011873930925503373
-0.0025215623900294304
-0.0012026900658383965
-0.0005084897275082767
0.0008749395492486656
-0.0025545971002429724
-0.0028614425100386143
-0.0006109969690442085
-0.0035327577497810125
-0.0018158573657274246
0.0008728111279197037
-0.0013665675651282072
0.0011959952535107732
-0.00021929557260591537
0.001122092711739242
0.0012505088234320283
-0.0010760788572952151
-0.0014839081559330225
-0.0006246458506211638
-0.00029331818222999573
0.0017519303364679217
-0.0019494859734550118
2.8246033252798952e-05
0.0004001290362793952
0.000333368283463642
0.0001583263074280694
0.0005186657072044909
0.001724914531223476
-0.0015598094323650002
-0.0008943742141127586
-0.0007470757118426263
-0.0008617934072390199
-0.00155253941193223
-0.002211429411545396
0.00187116174492985
-0.0011261579347774386
-0.0025727299507707357
-0.0008776425383985043
-0.0020752467680722475
0.0012190593406558037
-0.0016756874974817038
-0.0022658235393464565
-0.0018372411141172051
0.0007322771125473082
-0.000565356167498976
-0.0005438070511445403
-0.004481357056647539
0.00014218222349882126
-9.724601841298863e-05
0.0014215598348528147
-0.0002756322210188955
-0.0020362690556794405
-0.0033273997250944376
-0.0029256867710500956
-0.0015269666910171509
-0.001246908912435174
0.0013240776024758816
-0.001814599963836372
-0.0009129932732321322
-0.0011839931830763817
-0.0031570210121572018
-0.0030230008997023106
-0.0014528698520734906
-0.0006490935920737684
0.0007268956978805363
-0.00028996021137572825
-1.73305506905308e-05
-0.0018034736858680844
-0.00210051191970706
-0.00013303796004038304
0.0008757568430155516
-0.003336529713124037
0.0003143436915706843
-5.07645308971405e-05
-0.000272788864094764
0.0014130785129964352
-0.003901801537722349
2.8409263904904947e-05
-0.0017706151120364666
0.00027827281155623496
-0.00024255602329503745
-0.001162982196547091
0.0006663823151029646
-0.0017151677748188376
9.018126729642972e-05
-0.0012552890693768859
-0.0005823610117658973
-0.00026860160869546235
0.0030978810973465443
-0.0026248085778206587
0.00011364533565938473
0.0006113167037256062
-0.0033515982795506716
-0.000467091565951705
0.0028223672416061163
-0.0014989800984039903
-0.002138784620910883
-0.0019923760555684566
-0.0017875805497169495
-0.00035699325962923467
-0.0005962790455669165
-0.00281479861587286
-0.00011135829117847607
1.9206907381885685e-05
-0.0008270133985206485
0.0006812987267039716
0.001736064557917416
0.0007450178964063525
-0.0006652918527834117
-0.0005672465777024627
-0.002585239475592971
0.0032408051192760468
-0.0009862995939329267
0.003131408942863345
-0.002323815366253257
-0.0006227133562788367
3.6007538710691733e-06
-0.002299973275512457
-0.0011246254434809089
0.001000717282295227
-0.004470485262572765
-0.0014352611033245921
-0.0024601351469755173
-0.0019450485706329346
0.001999910455197096
-0.0032441967632621527
0.0012499033473432064
0.0023202451411634684
-0.0030407810118049383
-0.00015514866390731186
-0.000890122028067708
-0.0022454531863331795
-0.00042104843305423856
0.0017578351544216275
-0.0009669449646025896
-0.00015378494572360069
0.0010681862477213144
0.001855054753832519
0.0003519059391692281
-0.002869043266400695
-0.0030570232775062323
-0.002835723804309964
-0.0007921806536614895
-0.0029765027575194836
9.801307169254869e-05
-0.0014984814915806055
-5.732681165682152e-05
0.0003714802151080221
-0.00026636241818778217
0.0024896766990423203
-1.4063772141525988e-05
-0.0016849884996190667
-0.002920917235314846
-0.0019028536044061184
-0.0018179296748712659
-0.0008835406042635441
-0.0002106418105540797
0.0004995472263544798
-0.0025387806817889214
0.0009933183901011944
-0.0015964685007929802
-0.0021447818726301193
-0.002130999229848385
-0.003122173948213458
-0.0027314552571624517
7.495959289371967e-05
-0.003037083661183715
9.16001372388564e-05
-0.0016155712073668838
8.32357764011249e-05
0.0015640952624380589
-0.0030133065301924944
0.0006271913298405707
-0.004695002920925617
0.00020850590954069048
0.0012689478462561965
-0.0013833667617291212
3.704275059135398e-06
0.0009665521793067455
-0.0019652494229376316
0.00223420187830925
-0.0009622445213608444
0.0007704328745603561
-0.0033087232150137424
0.002549512777477503
0.0021421490237116814
-0.005959283094853163
-0.0021795339416712523
-0.0009840059792622924
-0.00010101751104230061
-0.0018256914336234331
-0.0013680907431989908
-0.0016134203178808093
-0.0013309201458469033
-0.000454497872851789
-0.0028599791694432497
-0.0007878125761635602
0.0014342645881697536
-0.00012417476682458073
0.0008519458933733404
-0.002996639581397176
-0.0014037569053471088
-0.0006504546036012471
-0.0004793571715708822
-0.00015473715029656887
4.2758263589348644e-05
-0.0009226645925082266
-0.0023805380333215
-0.0014080870896577835
0.0007066389662213624
-0.00031847634818404913
0.0012139736209064722
-0.0004056967154610902
-0.002216954715549946
-0.0006226731929928064
-0.0006763493292964995
-0.0009371048654429615
-0.0006262146634981036
-0.0032817148603498936
-0.00193544861394912
0.001077183405868709
-0.002650533802807331
0.000895923119969666
-0.0022027872037142515
-0.001281064236536622
-3.6492269828158896e-06
-0.0008767734980210662
0.0014678466832265258
-0.0015418878756463528
0.00039705869858153164
-0.0005598162533715367
0.00039961811853572726
0.00015993881970643997
-0.0007746026385575533
-0.00030952750239521265
-0.0030073111411184072
0.0017916004871949553
2.9061700843158178e-05
-0.003122173249721527
-0.0020639959257096052
0.00039261076017282903
-0.0003289220330771059
