-0.004166244063526392
-0.002327266614884138
-0.004061403218656778
-0.005250335671007633
-0.0005128211341798306
-0.011650688014924526
-0.0075986916199326515
-0.0012151215923950076
-0.011924357153475285
-0.0072771962732076645
0.003054895903915167
0.0013914513401687145
-0.004066573455929756
0.003472365438938141
-0.010348198935389519
-0.0029475586488842964
-0.003993640653789043
-0.0033506620675325394
0.011462057940661907
-0.007767883595079184
-0.001781419850885868
-0.006275143940001726
-0.004432982765138149
-0.004759069532155991
-0.001966179348528385
-0.004843480885028839
0.0027072604279965162
-0.0010582044487819076
-0.0044504329562187195
-0.0010369094088673592
-0.008125044405460358
-0.007222640793770552
0.00856112316250801
-0.002954628085717559
0.0019359886646270752
-0.00417201267555356
-0.005726903676986694
-0.005222702398896217
-0.0036294094752520323
-0.002395310439169407
-0.005796968936920166
-0.0023619597777724266
-0.005821748171001673
0.00493215536698699
0.0004955910262651742
-0.008090518414974213
-0.003047791076824069
0.0005817341152578592
-0.007395242340862751
-0.01190624013543129
0.005782758351415396
-0.005620595533400774
-0.002268550917506218
-0.003967628348618746
-0.002623368054628372
0.0036720605567097664
0.0009629498817957938
-0.0063986144959926605
-0.004644561558961868
0.0022369767539203167
-0.007140504661947489
-0.003857768839225173
-0.006787421181797981
-0.0028689466416835785
