-0.012792157009243965
-0.010474161244928837
-0.0006121074547991157
-0.013782499358057976
-0.007827500812709332
0.0029114200733602047
-0.00419493718072772
0.012839077040553093
-0.008210827596485615
-0.0078775305300951
-0.002452112501487136
-0.014646504074335098
-0.0034858938306570053
-0.010572521016001701
-0.0008085767622105777
0.011340322904288769
0.0046737659722566605
-0.013368281535804272
-0.0055597382597625256
-0.008210250176489353
-0.004843712318688631
-0.011437098495662212
0.0013188117882236838
0.004949058406054974
0.014575578272342682
-0.0005147326155565679
-0.011594572104513645
0.012883320450782776
0.01095152460038662
-0.009971440769731998
0.005173696205019951
0.006652260199189186
0.010713646188378334
-0.01100335642695427
-0.000613052339758724
-0.004336583893746138
0.008143255487084389
0.007059428375214338
0.000396174902562052
-0.007001836784183979
-0.011427030898630619
-0.013132356107234955
-0.010802187956869602
0.009422742761671543
0.010057616978883743
0.004328504204750061
0.00527931796386838
-0.00846860185265541
-0.011416283436119556
-0.002724976511672139
-0.002557577798143029
0.011113611049950123
-0.012676752172410488
-0.0014058029046282172
-0.010327772237360477
0.006509354338049889
-0.0024564815685153008
-0.012849491089582443
-0.0024293900933116674
-0.014727738685905933
-0.0061250063590705395
0.013962704688310623
-0.005489028058946133
-0.010913352482020855
0.006311943754553795
0.003980655688792467
0.006824677810072899
0.00545360567048192
0.013401390984654427
0.00429172208532691
-0.013507632538676262
-0.008913998492062092
0.01238288078457117
-0.012673155404627323
0.00534206023439765
-0.007581641897559166
-0.003514692420139909
-0.010406255722045898
0.00012502403114922345
-0.0033217687159776688
-0.005912212189286947
0.013396290130913258
-0.00959509052336216
0.0074452864937484264
0.00674373097717762
0.006800815463066101
0.009466747753322124
-0.0020290773827582598
-0.012851799838244915
-0.014072277583181858
-0.0033876600209623575
0.012760358862578869
-0.006469021551311016
0.00798486452549696
0.006274662911891937
-0.004292707424610853
0.005388105753809214
-0.008304114453494549
0.003699681954458356
-0.006381679326295853
0.003719763131812215
-0.004452535416930914
0.0013416219735518098
-0.00042722851503640413
-0.006128787528723478
0.010528991930186749
-0.003789851674810052
0.0039719874039292336
0.002584140980616212
0.012838070280849934
-0.0038440069183707237
-0.008244004100561142
0.001802064012736082
-0.005897420458495617
0.0072571816854178905
-0.005819192621856928
-0.00016600768140051514
0.008113544434309006
-0.010706358589231968
-0.0065701669082045555
-0.00738265085965395
-0.003469296731054783
-0.003514567855745554
-0.001044298755005002
0.004458706360310316
-0.00916467234492302
0.005526559893041849
-0.008595095947384834
-0.011049465276300907
-0.013190079480409622
-0.013599595986306667
0.0016703726723790169
0.008525409735739231
-0.009550538845360279
-0.008344774134457111
-0.005214330740272999
0.007308079395443201
0.007416199892759323
-0.000131448803585954
-0.002540919464081526
-0.002505965530872345
0.011375684291124344
-0.012842794880270958
0.007838795892894268
-0.010819115675985813
1.3713222870137542e-05
0.010444029234349728
0.007446440402418375
0.012454845011234283
0.0029471078887581825
-0.00044734313269145787
0.014520534314215183
-0.0024325072299689054
-0.013767300173640251
0.0019660750404000282
0.01244928129017353
-0.0027634073048830032
0.0010242386488243937
0.012503127567470074
-0.008046042174100876
0.007616267539560795
0.009840277954936028
0.00289840716868639
-0.012835931964218616
-0.005143645219504833
-0.006896859500557184
0.002498031361028552
0.002915796358138323
-0.014391759410500526
0.01280943676829338
0.013661977834999561
0.00392167828977108
0.01332644559442997
0.0040094139985740185
0.004331507254391909
-0.004028111230581999
0.013922112062573433
-0.009661263786256313
-0.004305888898670673
0.0002126256440533325
-0.005895507987588644
0.013691210187971592
0.007109246216714382
0.005970506928861141
0.004905517213046551
0.008851934224367142
-0.008698473684489727
0.005956120789051056
-0.007147784344851971
-0.013020624406635761
0.011892382986843586
0.007646001875400543
0.012878039851784706
-0.007150507997721434
0.007222168147563934
-0.009899704717099667
0.010822801850736141
-0.010642577894032001
0.012556045316159725
0.00399805186316371
0.00818714965134859
-0.006250828970223665
0.003937779925763607
0.012536565773189068
-0.0002062684070551768
-0.0038375812582671642
-0.0008726926753297448
-0.0030534372199326754
0.005152508616447449
0.0068730553612113
0.00148056261241436
-0.01031946949660778
0.010150264017283916
-0.005195003002882004
0.0014061752008274198
0.004934173543006182
0.008526192046701908
-0.009161804802715778
-0.0007791038369759917
0.0012638908810913563
0.004545105621218681
-0.007759341970086098
-0.004511776380240917
-0.010745704174041748
0.004078697878867388
0.011061672121286392
-0.011192348785698414
0.003715158673003316
0.009197220206260681
0.003492617979645729
0.012797437608242035
-0.006746291648596525
-0.0006200696807354689
0.01315123587846756
-0.0024521106388419867
-0.014647386968135834
0.004717384465038776
0.0013094744645059109
-0.011587847955524921
-0.004528629593551159
-0.000558210420422256
0.0028545339591801167
-0.005298973992466927
-0.0022368894424289465
0.0034567967522889376
-0.007603658363223076
0.010334565304219723
-0.003732584649696946
0.013777080923318863
0.006764586549252272
0.002057631965726614
-0.006911976262927055
-0.01434776745736599
0.0004737253184430301
0.013794424943625927
0.01135226245969534
-0.002530117519199848
-0.0017472696490585804
-0.010993564501404762
-0.01467431616038084
-0.007477112580090761
0.010744482278823853
0.0005201904568821192
-0.005067666992545128
-0.003705559764057398
-0.010542342439293861
0.00019692048954311758
0.0030763493850827217
-0.013946065679192543
-0.0004407016094774008
-0.009787024930119514
-0.011483839713037014
0.014126347377896309
-0.0035485364496707916
0.0019101724028587341
0.0012667077826336026
-0.013122515752911568
0.003494688542559743
-0.0021049927454441786
0.0117476312443614
0.0029526432044804096
0.001896752160973847
-0.011049147695302963
-0.007194288074970245
-0.013597920536994934
0.010487121529877186
-0.0025793220847845078
-0.014484383165836334
-0.0029300611931830645
-0.012202957645058632
0.008740965276956558
0.01187446340918541
0.013232472352683544
-0.010029188357293606
0.0013254218501970172
-0.001047821599058807
0.00358674768358469
0.010094640776515007
0.013408452272415161
-0.007241128943860531
-0.007865731604397297
0.008844240568578243
0.0021098642610013485
-0.01056315191090107
0.0004426719096954912
-0.00020138286345172673
-0.012849241495132446
-0.004699201323091984
-0.009397472254931927
-0.01314310822635889
-0.008150865323841572
-0.006735433358699083
-0.007783400826156139
-0.0031571483705192804
-0.008894700556993484
-0.01380755566060543
0.01341452170163393
-0.0020802419167011976
0.009849191643297672
-0.01384166069328785
-0.014127224683761597
-0.010430637747049332
-0.005945176351815462
-0.00540509819984436
-0.0008062200504355133
0.011652668006718159
0.012401208281517029
0.0009937050053849816
0.010826640762388706
5.67259885428939e-05
0.004523756448179483
-0.002022718545049429
0.0045116920955479145
-0.007342040538787842
-0.009091324172914028
-0.013773925602436066
0.009119895286858082
-0.011362284421920776
0.006772568449378014
-0.013501117937266827
-0.012401849031448364
-0.004344509448856115
-0.009626421146094799
-0.005083155818283558
0.007149947807192802
0.00473799230530858
0.0023465820122510195
-0.002709696302190423
-0.013958579860627651
-0.007243829779326916
0.011060439050197601
0.01111054327338934
0.0006796460365876555
0.002805951051414013
0.0023738474119454622
-0.009184876456856728
-0.007739388849586248
-0.004536273889243603
-0.0031884494237601757
0.00682753324508667
0.008149164728820324
0.004693016409873962
-0.005249396897852421
-0.0040799519047141075
0.007349578198045492
0.003018780378624797
-0.013567609712481499
-0.0028101939242333174
0.003794231452047825
-0.00860705878585577
0.00017013412434607744
0.007357022259384394
0.009809345006942749
0.00591652188450098
0.008378682658076286
0.010714298114180565
-0.014017877168953419
0.01175266969949007
-0.0039904178120195866
-0.009906216524541378
-0.002301593776792288
0.010367150418460369
0.008660146966576576
-0.00799171905964613
0.011596450582146645
-0.013837066479027271
-0.009509878233075142
0.009124573320150375
-0.0061549413949251175
0.012530404143035412
0.014247885905206203
-0.012247860431671143
-0.008777921088039875
0.005878059193491936
0.01094745472073555
0.012668085284531116
-0.010431037284433842
0.012865771539509296
-0.007990292273461819
-0.0011523580178618431
-0.0009998215828090906
-0.0024014869704842567
0.013931697234511375
0.005573939997702837
0.005359482951462269
0.0015631704591214657
-0.002506862860172987
-0.011091719381511211
-0.0037228292785584927
0.008300481364130974
-0.004315363243222237
0.012658003717660904
0.001116564846597612
-0.009027683176100254
-0.009167343378067017
0.009467787109315395
-0.009188330732285976
0.0013756941771134734
0.0027880631387233734
-0.012691833078861237
-0.011767414398491383
-0.009458556771278381
-0.009881502948701382
-0.002961743390187621
0.002319325227290392
-0.011399398557841778
0.002091177273541689
0.0011934529757127166
-0.011042797937989235
0.008295790292322636
0.0008075863006524742
-0.01090597826987505
0.012795018032193184
0.0011152828810736537
0.004236653912812471
-0.008582264184951782
0.004646681249141693
0.0002585604088380933
-0.005132002290338278
-0.004004762042313814
0.006529379170387983
-0.0077462466433644295
-0.01092731487005949
0.0013299912679940462
-0.00285127479583025
0.004061163403093815
0.006646667141467333
-0.008451217785477638
-0.004636799450963736
-0.012149670161306858
-0.007189256604760885
-0.003142561996355653
-0.007434602361172438
0.010166381485760212
0.01023690402507782
0.0008605807670392096
-0.011471311561763287
-0.01064967829734087
0.0002681803598534316
0.006343499291688204
0.00469213118776679
-0.012994644232094288
-0.006807860918343067
-0.004225435666739941
-0.0055682784877717495
-0.010278337635099888
-0.009091575630009174
-0.007570086978375912
-0.009392409585416317
0.00956703070551157
0.013869330286979675
0.007300440222024918
-0.0010582775576040149
0.012545541860163212
0.007362452335655689
-0.012093824334442616
0.003591095795854926
-0.009108643047511578
-0.0030963639728724957
-0.006659542676061392
-0.0033425770234316587
-0.00020103732822462916
-0.013358524069190025
-0.0002738949260674417
0.003163783112540841
0.003567368956282735
-0.011538270860910416
0.000661573838442564
-0.0005927532911300659
-0.0013194475322961807
-0.010513931512832642
-0.005114388186484575
-0.007064858451485634
0.005154190585017204
0.004821109585464001
0.0069589996710419655
0.013587127439677715
-0.014463433995842934
0.0022217535879462957
0.007108144927769899
-0.0034182234667241573
0.0070711104199290276
-0.006599235814064741
0.009428540244698524
0.011371683329343796
0.0032913177274167538
-0.01267917174845934
0.010098320432007313
-0.012616709806025028
0.000667983666062355
0.009313280694186687
0.013179855421185493
