-0.016286810860037804
0.025762302801012993
0.029313459992408752
0.011737696826457977
-0.014543367549777031
0.0166123416274786
0.025496255606412888
4.924512541037984e-05
-0.026290304958820343
0.009261250495910645
0.008009671233594418
-0.020439745858311653
0.021439621224999428
-0.004404784645885229
-0.013848632574081421
-0.00518402736634016
-0.022475773468613625
-0.02786337211728096
0.0269609484821558
0.025476284325122833
-0.012099605053663254
-0.010195340029895306
-6.016503175487742e-05
0.02474704571068287
-0.013447826728224754
0.02403946965932846
-0.017533190548419952
0.006225841119885445
-0.017732296139001846
0.01734253205358982
0.003977212123572826
0.011069982312619686
-0.02129368670284748
0.019781075417995453
0.02825794741511345
-0.009955121204257011
-0.022313717752695084
-0.028938844799995422
0.019355645403265953
0.0029444245155900717
0.02629587985575199
-0.027284370735287666
-0.02828804776072502
-0.023047028109431267
-0.012869824655354023
-0.012073013931512833
-0.012167654931545258
-0.022382646799087524
0.009107260033488274
-0.01484952587634325
-0.025989767163991928
-0.01587465964257717
0.029087260365486145
0.01097008679062128
-0.029330216348171234
0.028619304299354553
0.02922789193689823
-0.027080530300736427
-0.0044471388682723045
0.005304395221173763
0.012935549020767212
-0.02457674778997898
0.029043104499578476
-0.028843427076935768
0.00687101436778903
0.025827579200267792
0.026419011875987053
0.001743428991176188
-0.02311474084854126
-0.011061348952353
-0.018763123080134392
0.014343815855681896
0.0033303878735750914
0.018535997718572617
0.021442687138915062
0.010390069335699081
0.012790437787771225
0.013480943627655506
-0.024637624621391296
0.028477495536208153
0.01897081732749939
0.026837827637791634
0.001353567116893828
-0.00798191037029028
-0.0233161561191082
-0.00472708884626627
-0.02337198331952095
-0.02317872643470764
-0.01860959641635418
0.020225565880537033
-0.027835121378302574
-0.010764624923467636
-0.024058973416686058
-0.0174009557813406
-0.0023921076208353043
-0.017417224124073982
-0.014209936372935772
-0.025374723598361015
0.015000351704657078
-0.007134140934795141
0.005246372893452644
-0.009609931148588657
-0.002876684069633484
-0.009074409492313862
0.005292590707540512
0.0015050498768687248
0.001251192414201796
-0.019078431650996208
0.002578101586550474
0.013373447582125664
0.023989994078874588
0.011470598168671131
-0.019525740295648575
-0.02578846551477909
-0.011592915281653404
0.013793683610856533
0.011420626193284988
0.004708589520305395
-0.008755217306315899
-0.008193076588213444
-0.026525741443037987
-0.0028244254644960165
0.012316261418163776
0.026110872626304626
0.009316150099039078
0.01635315641760826
-0.018510818481445312
0.00024962532916106284
0.0180802084505558
0.0037643774412572384
0.018822617828845978
-0.015324931591749191
-0.01681692712008953
-0.002458671573549509
-0.01608792319893837
0.0038233513478189707
-0.01740126684308052
0.004287275951355696
0.029062995687127113
-0.028009481728076935
-0.0278686061501503
0.027578944340348244
0.002233874285593629
0.015203562565147877
0.018630364909768105
-0.02846214361488819
-0.0015273666940629482
0.01051624957472086
-0.0073038628324866295
-0.006754998583346605
0.016504954546689987
-0.003138314001262188
0.006241080816835165
-0.017069878056645393
-0.011029724963009357
0.02841295301914215
-0.008087312802672386
-0.022327039390802383
0.006712451111525297
0.029322978109121323
-0.013888574205338955
0.01811152696609497
-0.020712492987513542
-0.01731507107615471
-0.013526950031518936
0.0206933431327343
0.00019915819575544447
-0.020420625805854797
0.027193298563361168
-0.0016726960893720388
-0.02923012524843216
-0.003118782537057996
-0.008044551126658916
0.009957116097211838
0.022364916279911995
0.018790442496538162
0.013011722825467587
-0.023199813440442085
0.001755282748490572
0.016673550009727478
-0.014560422860085964
-0.0030132783576846123
-0.010974256321787834
0.0026592062786221504
0.02436836250126362
0.014683241955935955
0.015290571376681328
-0.0011810249416157603
-0.011750478297472
-0.021874073892831802
0.009552868083119392
-0.01911654882133007
-0.00301833963021636
0.012995812110602856
-0.014485180377960205
0.018446357920765877
-0.005642567295581102
0.005861383397132158
-0.008300154469907284
-0.011476580053567886
-0.007871893234550953
0.00016071161371655762
0.00017244736955035478
0.014502130448818207
0.01794031262397766
0.015332967042922974
0.022273797541856766
0.014099722728133202
0.0014084107242524624
-0.0024098092690110207
0.0081185856834054
-0.023410210385918617
0.0010681907879188657
0.0016044392250478268
0.004996979609131813
-0.01064772717654705
-0.005358848720788956
-0.00951254740357399
0.02481142431497574
-0.008574937470257282
0.015555172227323055
-0.008950216695666313
-0.019901152700185776
-0.020974088460206985
-0.01443597674369812
-0.018536964431405067
0.019497817382216454
-0.02581433765590191
0.003335922956466675
0.0015344086568802595
-0.015064910054206848
-0.008178571239113808
-0.01243272703140974
0.0041577513329684734
-0.01952456682920456
0.012279178947210312
-0.013125196099281311
-0.029018685221672058
0.021372895687818527
-0.002363437321037054
0.025928420946002007
0.0112418532371521
0.001224759267643094
-0.022432522848248482
0.009422264993190765
0.023718884214758873
0.02466924861073494
-0.008519968017935753
-0.025088589638471603
0.0032933757174760103
-0.006491029169410467
-0.008867444470524788
-0.027917752042412758
-0.028375308960676193
-0.012612697668373585
0.004254383500665426
