-0.004532103892415762
-0.0005264618084765971
0.000411556800827384
-0.0035017626360058784
-0.0011542137945070863
-0.0022306321188807487
-0.003223158186301589
0.0006962926709093153
-0.0017957689706236124
-0.002299083163961768
-0.002658994635567069
-0.003241634462028742
-0.0025457381270825863
-0.0026047227438539267
-0.00019974388123955578
-0.0015131820691749454
0.0012332191690802574
0.0016746459295973182
-0.0013151862658560276
-0.001918195397593081
0.0014165645698085427
-0.00236800080165267
0.003087029093876481
0.0014016241766512394
-0.0009890766814351082
0.00017680029850453138
-0.0007588164298795164
-0.0036151455715298653
-0.0022000097669661045
-0.0013488358817994595
-0.0012890670914202929
-0.005110903177410364
-0.0027118015568703413
-0.0017963270656764507
-0.0012155106524005532
-0.0002325211971765384
-0.0010235008085146546
0.0003281624522060156
0.0011165471514686942
0.0009200825006701052
0.00010604094131849706
-0.0009687952697277069
-0.0012514990521594882
-0.0017016897909343243
-0.003801515558734536
-7.385520439129323e-05
4.0726936276769266e-05
0.002413939917460084
-0.0004491128493100405
-0.0004934588214382529
-0.0006079070153646171
-0.0034607374109327793
0.002750846091657877
-0.0013952951412647963
-0.0014180955477058887
-0.001664926065132022
-0.004237657878547907
9.858096746029332e-05
0.002326522720977664
-0.0007159211090765893
-0.0008629692601971328
2.3115844669518992e-05
-0.001607334241271019
-0.0008551501668989658
-0.002218680689111352
-0.0015062808524817228
-2.3691809474257752e-05
-0.0006365719018504024
0.0011153201339766383
-0.0013278787955641747
-0.003095601685345173
-0.0017039943486452103
-0.0022290607448667288
0.0016691667260602117
-0.0033167144283652306
-0.0019604992121458054
-0.0013114102184772491
-0.0019717991817742586
-0.002671699272468686
-0.0028517385944724083
-0.00022214716591406614
-0.0028642979450523853
-0.0021711469162255526
-0.0005775443278253078
-0.0012717873323708773
0.0022534034214913845
0.003445862326771021
-0.002657996490597725
-0.0002777351764962077
0.0007079931092448533
-0.0030592710245400667
-0.0018276580376550555
0.0011446978896856308
-0.00202061515301466
0.0017329745460301638
-0.0012227750848978758
-0.005421257112175226
-0.0007214471697807312
-0.002329680137336254
-0.001059911446645856
-0.0002673488634172827
-0.0016920266207307577
-0.0006844676099717617
0.0004907377297058702
-0.0019095573807135224
0.0006726357969455421
-0.00027943498571403325
-0.0020589549094438553
0.0017327935202047229
-0.0008745223749428988
-0.001957219559699297
-0.0011586594628170133
-0.0004528315330389887
0.0027715214528143406
-0.0038221976719796658
-0.0012329290620982647
0.0007472729193978012
0.0011584169697016478
-0.003044970566406846
-0.0021152272820472717
-0.0021460724528878927
0.0002641254977788776
-0.002380393212661147
-0.00038992962799966335
-0.0005257049924694002
-0.0021520915906876326
0.00012170006812084466
-0.0011104377917945385
