-0.022486303001642227
-0.005415632855147123
-0.03206891939043999
0.021639937534928322
-0.021822379902005196
0.023922059684991837
-0.018434828147292137
0.03227441757917404
0.008018805645406246
0.03347034752368927
0.006305118091404438
-0.01783764734864235
0.004047393333166838
-0.03316285461187363
-0.003938161768019199
0.0006471798405982554
-0.00130469782743603
0.03913020342588425
-0.00064270751317963
-0.0326339527964592
-0.015602992847561836
0.03400597721338272
-0.014668464660644531
0.01558021642267704
-0.03571930155158043
0.016171181574463844
-0.014377880841493607
0.03613879904150963
-0.03702615201473236
-0.011668462306261063
-0.007670579012483358
-0.013021056540310383
-0.007255883887410164
-0.030503472313284874
0.030182551592588425
0.020587649196386337
0.021955342963337898
-0.022951140999794006
-0.02799847163259983
-0.017504684627056122
-0.03327422961592674
0.01753617450594902
0.02103600837290287
-0.038279883563518524
-0.03640037775039673
-0.03519544005393982
-0.025357302278280258
0.03476238250732422
-0.022209784016013145
-0.005019222851842642
-0.015069052577018738
0.02168799564242363
-0.027872368693351746
-0.00890250876545906
-0.013004209846258163
0.028637927025556564
-0.03269185870885849
0.004460169933736324
-0.011042017489671707
0.035220514982938766
0.021054120734333992
-0.03618355840444565
0.011038126423954964
0.02256486378610134
