0.021252797916531563
0.02858162857592106
-0.022186223417520523
0.009670981205999851
-0.0014179007848724723
-0.010478879325091839
0.013434634543955326
-0.014266160316765308
-0.023060742765665054
0.019257795065641403
0.003586693201214075
0.014019632712006569
0.023536531254649162
-0.02845046855509281
-0.02472522109746933
0.02344510518014431
0.016734862700104713
-0.0011154478415846825
-0.00962184090167284
-0.02701401896774769
-0.004099743440747261
0.004255672451108694
-0.019689055159687996
0.0033007164020091295
-0.0010309189092367887
0.0003148853429593146
0.007383383344858885
-0.025736548006534576
-0.014313094317913055
0.008236649446189404
-0.02013630047440529
-0.009900691919028759
0.015599601902067661
0.01628771983087063
-0.0027660520281642675
-0.009720138274133205
-0.014459354802966118
-0.010652496479451656
0.015823611989617348
-0.003970380872488022
0.025632472708821297
-0.020332293584942818
-0.014083881862461567
0.024174371734261513
0.027991976588964462
-0.007187238894402981
0.025445425882935524
0.019069794565439224
0.028052130714058876
-0.02162856236100197
0.023170478641986847
-0.010553859174251556
0.005352000240236521
-0.01309128850698471
-0.024478096514940262
-0.008164329454302788
-0.018171170726418495
-0.009709394536912441
-0.003990544471889734
0.0071947514079511166
0.018335958942770958
0.01856010966002941
-0.027164408937096596
-0.0037637874484062195
-0.01227407157421112
-0.027546558529138565
-0.0049214595928788185
-0.016532951965928078
0.02084256522357464
-0.025597238913178444
0.011839141137897968
-0.0004014893202111125
0.007968652062118053
0.0029610267374664545
0.0012644970556721091
-0.0005102043505758047
0.000949933601077646
-0.019921986386179924
-0.0025816592387855053
0.023221807554364204
-0.0003337309171911329
-0.028924616053700447
0.011338314041495323
0.026227347552776337
0.029277827590703964
0.0015394417569041252
-0.02168954536318779
0.021306388080120087
-0.008047101087868214
0.0005857101059518754
0.008034520782530308
-0.004730695858597755
-0.003854167414829135
0.007406030315905809
0.008245552890002728
0.01337745226919651
-0.021176213398575783
-0.01576639898121357
-0.0005597072886303067
-0.008879887871444225
0.003239034442231059
-0.02442064695060253
-0.0033494874369353056
-0.021958356723189354
0.01517119724303484
0.010189640335738659
0.023811522871255875
0.024997767060995102
-0.0241926871240139
-0.005019573960453272
0.02385527826845646
-0.010747646912932396
0.0286728423088789
-0.011753800325095654
-0.016852986067533493
0.004423743579536676
0.014637572690844536
0.025976359844207764
-0.013103135861456394
-0.0005376485059969127
-0.007346125319600105
-0.008368716575205326
0.029042480513453484
0.011754317209124565
0.0033793693874031305
-0.019896358251571655
0.015631472691893578
-0.018628619611263275
